1317 100
C0020443 0.06427759 0.02029916 0.09967909 0.2067786 -0.058107425 -0.08846622 0.4104243 -0.02064341 -0.039115287 0.07120487 -0.24458504 -0.11734405 -0.17997664 -0.19095816 -0.023305468 -0.00239671 -0.028662162 -0.09314365 -0.08355619 0.015193183 -0.028197832 -0.1206774 -0.054814704 0.17337796 0.14410402 -0.098742 0.061639354 -0.06712901 0.09450301 0.0007389534 0.173982 0.050430715 -0.13433652 0.041597452 -0.0026641334 0.3511698 -0.053526375 0.08615744 0.18606298 0.19386946 -0.05123918 0.04626341 0.06676777 0.06166644 0.09382077 0.025915425 0.13720095 -0.18417522 0.042437263 -0.010926291 -0.10856858 -0.015316415 -0.054910652 0.10311547 0.09460154 0.07909577 -0.22778626 -0.010594985 -0.03653088 -0.12691912 -0.2219798 -0.09793685 -0.19906355 -0.033896267 -0.04685994 0.004775908 0.26705632 -0.037007283 0.060926516 0.13957822 -0.057049945 0.25695705 0.101234786 0.15024748 -0.10110891 0.0016935556 0.015145076 0.16367795 0.0042664856 -0.016517263 -0.083292544 -0.038051005 -0.14640865 -0.06923233 -0.18443264 -0.065560535 0.1335031 -0.043407843 -0.0016666232 0.028169008 -0.055436864 -0.01304736 -0.032602236 0.18742035 0.008319126 -0.017516926 0.08628378 0.031371433 -0.24854796 -0.20851563
C0085542 -0.33567792 -0.16860984 0.009317069 0.20341334 -0.28940138 -0.25680625 0.2007284 0.107071385 -0.31750652 0.008583253 -0.3261827 -0.13588321 -0.1389423 -0.15171029 -0.07342282 -0.05584587 -0.064916365 -0.14839537 0.043145727 0.1679293 -0.16000383 0.112490855 -0.12712988 -0.13502306 0.47811994 -0.3166341 0.03794342 0.09848613 -0.2752322 -0.29233453 0.45329484 0.2629297 -0.18638082 0.12972799 0.24750617 0.06528884 0.004458203 0.16644295 -0.1659257 -0.017856201 -0.30597344 0.18719329 0.06602357 0.16315119 0.24564105 0.085762054 0.17194664 0.09742929 0.22125514 0.07415735 -0.04883637 -0.032399334 -0.13937467 0.16334593 0.10172505 0.25705922 -0.29095927 0.08143024 0.06393323 -0.09154808 -0.25974727 -0.22984608 -0.17117888 -0.12735657 -0.006325483 0.35332996 0.17961453 -0.024609974 -0.25997445 -0.0078025875 0.20594469 0.11068155 -0.25655028 -0.17828 -0.082820676 -0.24190034 -0.22074495 0.5656001 0.36538625 0.36852977 -0.13812982 0.30994493 -0.35553902 -0.011844939 -0.03858581 -0.5062371 0.0121487435 -0.42958847 0.17025632 0.28876176 0.18608621 0.23926182 0.22094697 -0.39881602 -0.13317655 -0.20160855 0.10641034 0.099293336 0.108704336 -0.44202575
C0286651 -0.09238081 -0.039573118 -0.13950655 0.3204151 -0.164903 -0.17191808 0.38029233 0.013740691 -0.36610255 0.041353896 0.00557459 -0.13428938 0.089003146 -0.2318761 -0.23182598 0.110935904 0.011640748 -0.22683927 0.15103005 0.022095503 0.12748279 0.07490669 0.03703052 -0.097215876 -0.016710043 -0.12943166 -0.24333979 0.111782126 -0.121043794 0.03134962 0.22907872 0.005013713 -0.07478065 0.07691647 0.17314783 -0.00838843 -0.1304021 0.42735183 -0.023618814 -0.017560897 -0.13529877 0.25550708 0.05345 0.12229252 0.1635161 -0.0035870015 0.14358097 0.14373401 0.13487783 -0.08971333 -0.13995293 -0.15940489 0.057819903 0.25586513 -0.027385823 0.4301955 -0.30921522 -0.02621282 -0.13166454 -0.3938365 -0.21181929 -0.31635895 -0.045756605 0.124843046 -0.10625345 0.19503355 0.1631151 -0.1352145 0.02877801 -0.23751181 0.3755708 0.13899843 -0.14379582 0.08190305 -0.21494016 -0.13306783 0.042267196 0.27732056 0.25380042 0.13764983 -0.35185194 0.5086476 -0.4006848 -0.027128244 -0.12397192 -0.44500703 0.25335917 -0.28994986 0.012326427 0.32848912 0.044549257 0.31284165 0.073614456 -0.020499552 -0.23358628 0.10853046 0.07654521 0.013082444 0.002649145 0.020825913
C1142985 -0.14763698 0.26327208 -0.07413934 0.066886246 0.022310896 -0.21635278 0.49607158 -0.04193312 -0.2798318 0.105864674 -0.024469413 -0.08223723 0.16096626 -0.33444756 -0.14520293 0.13857132 0.26351672 -0.252171 -0.0037245308 0.2646762 0.27676308 -0.0039691273 0.22550309 -0.023337146 0.033936147 -0.55791765 0.053594034 0.19642934 -0.18783364 -0.11342606 0.5935813 0.24067381 -0.06496111 -0.036075197 -0.06445914 0.44012865 0.15499373 0.1363053 -0.115960106 0.14691792 -0.20393464 -0.012294617 0.24897893 -0.005734431 0.04137353 -0.052364677 0.089170136 0.12682134 0.13237166 0.24591623 -0.2664425 -0.07858054 -0.22515404 0.24507537 -0.12135565 0.757838 0.04436769 0.030297937 -0.12959138 -0.3422674 0.006761696 -0.56376565 0.13044384 0.09087013 -0.043800935 0.607009 0.020975826 0.019763285 -0.19733028 -0.056570165 0.30374628 0.16011903 -0.27728203 -0.021286046 -0.2741216 0.09390184 0.12752818 0.41629127 0.1455642 0.17690128 0.0077289594 0.33129495 -0.347038 0.018705748 -0.25163373 -0.22027214 0.23591496 -0.370564 0.11840488 0.015065009 -0.021326503 0.28597632 0.2174766 -0.19983768 -0.2739658 -0.15313359 0.26549172 -0.04370873 -0.08250398 -0.16637154
C0032042 0.19863829 -0.3139125 -0.17975858 0.088748276 0.0070528523 0.062002864 0.008790291 -0.06876034 -0.29586753 -0.11839646 -0.16964379 -0.1407906 0.023921093 -0.02364837 -0.11573636 0.077100344 -0.0013329247 -0.25880337 0.001321687 0.017051117 -0.23596391 0.032216325 -0.24568461 -0.25095728 0.16676876 -0.46032307 -0.07712886 0.052493695 0.06804741 0.1415626 -0.059207954 -0.07622218 -0.27999362 -0.07765835 0.00268877 -0.07266817 0.16235429 -0.14180958 0.12327041 0.30429867 -0.12494268 0.24194503 -0.014221721 -0.15671292 0.14221404 0.003586125 0.13709886 0.18668193 0.19409338 0.13130178 -0.123277426 0.020687565 0.25680894 0.26457104 0.035450157 0.35046673 -0.46536887 0.019380951 -0.1513228 0.14912623 0.13697562 -0.104371846 -0.051495217 0.07827503 -0.071166374 0.18065082 0.29555383 -0.14823617 -0.10572595 0.525769 0.24468729 0.16121222 0.2069399 0.07536774 0.23226574 -0.035696916 0.16939723 0.062894784 -0.24726625 0.24679114 -0.0008741024 0.18604493 -0.015572571 0.020474494 -0.2661352 0.25648192 -0.008801176 0.05779757 0.007986781 -0.20458944 0.12268833 0.1045641 0.31367454 0.063105 0.014876898 -0.18247639 0.113393545 0.09536427 -0.28458354 0.11712493
C0989914 -0.103755206 0.4461875 -0.036089808 0.07683977 0.015000934 0.2299639 0.7697724 -0.055982064 -0.046861444 -0.018037181 -0.15493353 -0.13020308 -0.25222772 0.0825861 0.12807798 0.23695898 -0.02329394 -0.19302157 -0.32902828 -0.25211334 0.13090675 -0.10313875 0.10829491 -0.35760513 0.22611076 -0.0054031094 0.38664213 -0.3216998 -0.07940071 0.11490114 0.53376365 0.098953865 -0.41595337 0.54353297 -0.24407725 0.6190752 0.082457446 0.46572256 0.024560293 0.11652969 -0.25884733 0.30218652 -0.1263749 0.16026877 0.059687555 0.007824528 0.3180099 -0.07200768 -0.19087636 0.22629747 -0.42421138 -0.08574573 0.13709144 0.2692437 -0.013369276 0.7415534 -0.33640674 -0.16727968 0.56577104 -0.18202779 -0.26977983 -0.0819666 -0.21360387 -0.33961925 -0.13154635 0.026775291 0.02186882 0.04142252 0.021662474 -0.0034078108 0.27502576 0.11706516 0.14876294 -0.1756188 -0.44061622 -0.011140187 -0.06855193 0.3204666 0.61109716 0.21319646 -0.16252024 -0.023241183 -0.13268052 -0.26881766 -0.5946276 -0.5002746 0.16592164 -0.5164292 -0.37668103 0.050700136 -0.39418107 -0.1414176 -0.18282105 0.094311796 -0.025166953 -0.3080964 0.3819065 0.11644703 -0.23037949 -0.21232106
C0082608 0.0086823385 -0.00844406 -0.14850457 0.047582928 -0.09408839 -0.16371034 0.5518511 0.07661381 -0.3535019 -0.18635736 0.040300306 -0.3144461 -0.26909146 -0.046631582 -0.15514937 -0.10641143 0.015347937 -0.14244556 -0.0381015 0.027042257 0.08013064 -0.043266032 0.15041083 0.05015034 0.038327936 -0.4188053 -0.0045468407 -0.086791314 0.08614628 -0.118197605 0.5637425 0.3794859 -0.039782327 -0.005948394 -0.0790418 0.36554572 0.3522142 0.42492607 -0.10452858 0.13728051 -0.19095954 -0.16329665 -0.05451913 0.3190892 0.028861934 -0.1230721 0.17540042 0.052287687 0.14101891 0.19141442 -0.13958207 0.0920943 0.03313631 0.08258433 -0.11514371 0.47887403 0.13362525 -0.010829617 -0.1488549 0.101047665 -0.17250252 -0.38147733 -0.0033154148 0.33161956 -7.954667e-05 0.4799054 -0.15391956 0.16591968 -0.37921917 -0.010131999 0.056528915 0.15317222 -0.45009476 0.13733202 -0.19039854 -0.063530006 0.14768735 0.2996654 0.3870771 0.015038818 -0.077293225 0.48906168 -0.6259372 -0.1799993 -0.5645981 -0.06422282 0.33276722 -0.243888 0.40761808 0.06594815 -0.4158153 0.22102307 0.13485938 -0.25571617 -0.20194693 0.08210131 0.2772034 0.15807773 -0.100217775 -0.026546735
C0074554 -0.18009226 -0.3954365 0.030901039 0.08639102 0.13317268 0.057167426 0.33341336 0.2417791 -0.38677078 0.008677126 -0.17258881 -0.21404566 -0.02551918 -0.3789891 0.094222605 -0.045407537 0.18688446 -0.015088256 -0.0020551519 0.23978029 -0.071977384 0.2768393 0.028857423 -0.10533458 0.026430964 -0.30034527 0.07569842 0.054969892 0.011789968 -0.11720619 0.3897309 0.30998233 0.028282482 -0.12833716 -0.0024972805 -0.050566163 -0.12215769 0.1511606 -0.07005338 0.27315244 -0.24741665 0.006000029 -0.10984024 0.13139041 0.33925343 -0.042805802 0.39132863 0.4284356 0.21521057 0.101516716 -0.26033923 -0.028181417 0.15434751 -0.16249213 -0.11180093 0.5849099 -0.15568914 -0.09830627 -0.3205153 -0.18857458 -0.13305525 -0.06436157 0.11766365 -0.08039093 -0.36918774 0.21142565 0.1631709 0.087327436 -0.16894893 -0.0179358 0.16716465 0.08964064 0.07497057 0.20091884 -0.14648023 -0.13769518 0.018323718 0.089661136 0.49832305 0.08652636 0.11154636 0.42833835 -0.52400136 0.14981003 -0.11407495 -0.21075043 0.19837163 -0.5225951 -0.11669799 0.36949515 0.030188804 0.12209995 0.263463 0.059579566 -0.52070373 0.17235604 0.17089748 0.1586899 -0.04664419 -0.13198373
C1331111 0.026773216 0.30486917 0.16821328 -0.089818925 0.28279218 0.28384668 0.74893826 0.0987674 -0.27632362 -0.07209473 -0.15045369 -0.12653236 -0.09924671 -0.12803356 0.18471053 0.1853051 0.052576076 -0.21772066 -0.34323046 0.22979124 -0.35478652 0.0016236963 -0.047788523 -0.06367672 0.25304216 -0.24863164 0.36008278 -0.24794969 0.037045255 -0.17630605 0.69997257 0.20933601 -0.45252678 0.0040775184 0.012986664 0.51672333 0.39595002 0.21211623 -0.0050337426 0.258385 -0.50847965 -0.03907472 -0.058999363 0.30324286 0.15667298 0.24010357 0.07569724 0.027802492 0.15536134 0.1785248 -0.40108505 0.06479898 -0.065524966 0.38414878 0.0060847155 0.8396851 -0.1725901 -0.16678952 0.27522686 0.16637029 -0.11015338 -0.09766692 -0.23688078 -0.19977598 -0.3041698 0.061152447 -0.051786434 0.29330805 -0.35374415 -0.12539835 0.025877679 0.06956967 -0.20036192 -0.18135233 -0.19952631 -0.34529004 -0.2728287 0.33629087 0.25173053 0.61118186 -0.30748922 0.31686544 -0.007830136 0.07720057 -0.23707923 -0.5038077 0.5840121 -0.21613544 0.0042590136 0.31595278 0.1560927 0.20719443 -0.14252128 -0.18867826 -0.2955029 -0.1491228 0.07440022 0.17794393 -0.11995225 -0.5648418
C0014912 -0.47968188 -0.09414593 0.20618936 0.2989023 -0.32980987 0.16357829 -0.0396332 0.10650389 -0.16519104 -0.25616083 -0.5030662 -0.0030445135 0.13536331 -0.22041716 -0.16564807 -0.15384823 -0.014421944 -0.11098774 -0.15519144 0.05360019 -0.1467371 0.021878239 0.15191203 0.027708203 0.32999873 0.019259846 0.32015285 0.17842935 0.35594952 0.21926978 0.0759386 0.06591018 -0.1530077 -0.52757555 0.33863732 0.23953609 -0.1456563 -0.11201477 0.072788626 0.1577533 0.053525828 -0.1741852 0.15776908 -0.19196875 0.37818694 -0.25004297 0.2139539 0.04298475 0.35969007 -0.1949506 -0.46099544 0.16864903 0.18934003 0.10115994 -0.24483958 0.2883723 -0.022098748 0.1475371 -0.055370074 0.3342926 -0.1433708 -0.30346683 -0.052047905 -0.2789553 -0.118201226 0.47770125 0.06803209 -0.06425725 -0.1756768 0.13726921 -0.11882256 0.6136037 0.31278157 0.2544334 -0.12604116 0.124749005 0.03133808 0.30397713 0.075931326 0.2705788 -0.10874824 0.20022322 0.003527184 -0.28552896 -0.17778502 -0.41377187 -0.011308756 -0.11069786 0.07644146 0.38450852 0.28662255 -0.117304556 -0.018847615 -0.13028271 -0.3336281 -0.099380694 0.27381995 0.24501236 -0.052995678 -0.3607891
C0989915 -0.37146005 0.21109 0.2889346 -0.081492715 0.15986212 0.34937012 0.94855654 -0.16790493 0.19054338 -0.015093361 -0.19488706 -0.110309474 -0.24412386 -0.18311079 0.068871506 0.13925265 0.11576146 -0.28757223 -0.31248888 0.038142588 -0.05676626 -0.1224495 -0.05027056 -0.17060515 0.3338751 -0.023495506 0.5842007 0.21558277 -0.017750619 0.32097358 0.4970565 0.13771553 -0.34837058 0.059777997 -0.20525126 0.8958084 -0.071640685 0.4644067 -0.121188544 0.33434966 -0.12606312 0.25304574 -0.10383071 0.107480325 0.2165709 0.13263889 0.4807757 0.14256069 0.04649481 0.0138191655 -0.2718544 -0.050715134 0.085516654 0.4697697 0.2826009 0.44929743 -0.046039443 -0.3573286 0.22896278 0.096959345 -0.32621667 -0.1418793 -0.13131991 -0.20442261 -0.01438134 -0.021526499 0.13273205 0.03810183 -0.050337292 -0.011142568 0.047656447 0.21879801 0.008151514 -0.030464124 -0.43610844 -0.07887641 -0.34208596 0.21116215 0.5474064 0.0022803845 -0.20526493 0.035013027 -0.20596816 -0.3231704 -0.5543731 -0.60884506 0.019246027 -0.44669515 -0.27293104 -0.040234577 -0.24424358 -0.2521001 -0.1499734 0.22786114 -0.14439636 -0.2143982 0.39526406 -0.004201552 -0.17340167 -0.1521144
C0965129 0.07633221 0.17133804 0.0901659 -0.024140302 -0.030782383 -0.23741525 0.3412943 -0.05126238 -0.1477894 -0.07732112 -0.15975632 -0.30936435 -0.08518155 -0.19123183 -0.14917396 -0.0053938567 -0.01219736 -0.17894247 0.0043623433 0.054085895 0.19528878 0.12819971 0.25048223 -0.10388814 0.22640951 -0.36156523 0.0917738 0.02586309 -0.10996174 -0.3825659 0.38284937 0.12729464 -0.11436904 -0.02040026 0.023543607 0.18167505 0.0817842 0.43444878 -0.10676814 0.0015421186 0.02285279 -0.018709093 0.12647766 0.25175837 0.1824305 -0.026858648 0.13348162 -0.025271198 0.25923595 -0.0484465 -0.09701472 0.10407575 -0.073210165 0.16507557 -0.12113357 0.4245914 -0.31669798 -0.044564854 -0.115146175 -0.08277074 -0.0074726692 -0.2584856 -0.15579624 0.06194207 -0.23434584 0.4758777 0.13283564 0.009915939 -0.24296004 -0.3216928 0.28551805 0.20524216 -0.15632494 -0.032241948 -0.17149577 -0.14900598 0.19792122 0.21588466 0.30671608 0.24914488 -0.12937465 0.20288439 -0.16212346 0.038451117 -0.25190875 -0.6217018 0.3207043 -0.20254628 0.32499966 0.25901473 0.19629984 0.25600696 0.23166703 0.044151604 -0.24821642 0.07009688 0.23434633 0.13280761 0.021656133 -0.5244136
C0360714 -0.11565751 -0.23069452 -0.022893049 0.18479598 -0.42567053 -0.38445097 0.24113433 0.1168449 -0.17146495 -0.016768035 -0.063800246 -0.12934737 0.0869244 -0.25633073 -0.37622315 0.037905395 -0.13575149 -0.1594919 0.072738215 0.14142431 0.18416779 0.28197533 0.11100079 -0.1806923 0.30191875 -0.1523126 -0.030919045 -0.009415577 -0.1477013 0.0011021424 0.16683117 0.1113661 -0.06709262 0.1954806 0.104704686 0.12560154 -0.14801362 0.3908113 -0.11444526 -0.063560024 -0.09672656 0.032180585 0.029049592 0.22810847 0.43854803 -0.24976608 0.08743632 -0.0028133073 0.237034 -0.1528123 0.009818805 0.04500888 0.10017418 0.24789493 0.14905901 0.30921537 -0.43564928 -0.033030864 -0.12708533 -0.031496193 -0.1873952 -0.07966837 -0.01643863 -0.015297783 0.06367419 0.3129058 0.12086216 -0.2833574 -0.025134645 -0.11065317 0.2390078 0.123422466 -0.15836741 0.028172588 -0.123040564 -0.032615736 -0.025939329 0.3269469 0.36690778 0.16344598 -0.21262988 0.17185785 -0.30286092 -0.33064488 -0.27276382 -0.26393533 -0.04627811 -0.25813368 -0.035912015 0.13106543 -0.09893071 0.28024164 0.042999584 -0.061182447 -0.2755894 0.22340441 0.15711403 0.2711004 -0.19446994 0.04317876
C0948265 0.25931767 0.010812644 0.14792566 0.5112427 0.20106643 -0.15186283 0.7703816 0.26268065 -0.557369 -0.10101817 -0.3158529 -0.018996302 -0.009632245 -0.30550975 -0.004596406 0.01919307 0.048468575 -0.39615688 -0.4510582 0.20663987 -0.0872232 0.0099576255 -0.31588814 0.24971707 0.17570165 -0.3029525 -0.10771561 -0.08003877 0.0040180963 -0.051744755 0.087727204 0.108606726 -0.30073905 -0.006003726 0.11554167 -0.18080121 0.25935373 0.052429385 0.18134862 0.18142068 -0.27550307 -0.2779297 0.12546028 0.22989163 0.32595673 0.0059009837 0.121589325 0.0007387919 0.055102475 0.13241838 -0.18954611 0.0038875323 0.044853617 0.21739878 0.007025851 0.7523031 -0.065366104 -0.0007284805 -0.101336576 0.135449 -0.24508229 -0.1981655 -0.31814912 -0.007655488 -0.6283203 -0.043725997 -0.0025253042 0.20232962 -0.23905328 -0.11945282 -0.11451472 0.3002283 0.096904196 0.048824947 0.13706015 -0.41886976 0.2866799 0.24585517 0.16723073 0.7513884 -0.08318607 0.3289119 0.02985583 0.30708444 0.11190141 -0.85405904 0.27757612 -0.14308995 0.20339729 0.45869106 0.46243128 0.1447134 -0.13997756 -0.25274283 -0.22465518 -0.16894734 -0.07705688 0.0035729562 0.20403847 -0.31188908
C0073393 -0.1833766 0.11499035 0.09409228 0.40331873 -0.04195984 -0.044855565 0.13885339 0.0054443325 -0.03413342 -0.08181747 -0.29795066 0.023671644 0.082582854 0.24340497 -0.104128905 -0.31198668 -0.4704642 0.15364867 -0.033932984 0.054163743 -0.0139799435 0.11034444 0.0031960553 0.09818574 0.07649789 -0.07761341 -0.2300823 0.06150611 0.31738567 0.015923124 0.047800805 -0.3464327 -0.1636454 0.2724731 -0.44887927 0.08993817 0.08679386 -0.17367093 0.19650638 0.30671632 -0.07063252 0.17505829 0.1930402 0.08855672 0.23653598 -0.03913129 -0.24619883 -0.28469327 -0.07357913 0.07539787 -0.28174964 0.21663603 0.3184253 -0.036733717 0.1608811 0.46939057 -0.061105117 0.31282765 -0.123569325 -0.21765777 -0.293644 0.07108214 -0.3369568 -0.027610363 -0.4152656 0.10144606 0.20045197 -0.04955214 -0.17594755 -0.017126521 0.101107426 -0.2565967 0.09709926 0.1712945 0.0374633 0.23791817 0.2409652 0.018515596 -0.116184615 0.32461095 0.1055848 0.14133194 -0.1096297 0.26038954 0.21946284 -0.33624956 0.13211752 -0.06834753 -0.14768998 -0.23980588 0.22838357 0.2828006 0.27105543 -0.042528346 -0.47750732 -0.2261959 -0.006666355 -0.0915555 -0.029483104 0.013555553
C1322815 0.11257596 -0.27967656 -0.0011760436 0.41264158 -0.034870215 -0.073061384 0.45744273 -0.026029594 -0.36657265 -0.2011676 -0.052976478 -0.26395237 0.006857206 0.019602614 -0.44984493 0.040437657 -0.13075794 -0.27961025 -0.06624363 -0.36514002 -0.001030522 0.17566764 0.16496024 0.35824952 0.023738155 -0.11552049 0.07438967 0.046983484 -0.116475426 -0.03012795 0.30872208 0.1888184 -0.030853875 -0.16066661 0.16485246 -0.0828828 0.5387834 0.41468507 -0.028384455 0.43823203 -0.04368249 0.057169273 0.020306585 0.5993744 0.11444104 0.08904387 0.08447071 0.057553094 0.086419314 0.27861708 -0.22414565 0.3045026 -0.033198345 -0.0059872135 -0.0515685 0.1566581 0.17455849 0.08991296 -0.09521254 -0.24179184 -0.16126291 -0.033306427 -0.3011765 -0.028815517 -0.21468578 0.15458323 0.03398939 0.1594898 -0.32450742 0.19166875 -0.103455834 0.20318216 -0.165718 0.470615 0.17093907 0.054562934 0.46573994 0.23850061 0.17615959 0.16878594 -0.09165312 0.39110333 -0.69719565 0.069971934 -0.34049737 -0.520328 0.19181484 -0.30591583 0.41975945 0.44532531 -0.08091541 0.4351697 0.29540375 -0.036251765 0.07703382 0.039283205 0.26480448 0.29093888 0.068813324 0.103052326
C0071097 -0.17310911 0.036040243 0.4218266 0.21087755 -0.13651097 -0.15675834 0.13036494 0.09155646 -0.49453 -0.5827565 -0.36385128 -0.21026894 0.10521502 -0.29081348 -0.3259606 0.094063215 -0.16086039 -0.041618057 0.035287287 0.28512278 -0.18570736 -0.059626315 -0.23353344 -0.16171925 0.29671758 -0.21011235 -0.14018795 -0.29575735 0.07772882 -0.11926317 0.13221765 0.3606222 -0.043833636 -0.16596572 0.19542356 0.21192561 0.07190747 0.2233151 -0.0752356 0.0763003 -0.12976018 -0.16975957 0.100931816 0.24324818 0.20319629 -0.19654472 0.35295781 0.108291864 0.5576439 -0.073319346 -0.36511683 -0.057179425 -0.2564633 -0.21411882 0.091894306 0.39530444 -0.1017146 0.076245695 -0.31803304 0.27848566 0.032619677 -0.19176039 0.007685321 0.1883272 -0.30198565 0.28879377 -0.060003676 0.084374994 -0.2525106 0.054660246 0.06264118 0.3001682 -0.30380857 0.14865029 0.16077992 -0.053994194 0.10287807 0.18623462 0.48286444 0.063378245 0.039413694 0.20085733 -0.082043305 -0.005591059 -0.034516513 -0.66828054 0.45521393 -0.32586163 0.057366293 0.3108939 0.20733865 0.4665533 0.09201383 -0.094191164 0.13014095 0.07529361 -0.06936071 0.4346807 -0.0014521541 -0.3947133
C0248719 -0.024102997 0.2898724 -0.12629415 0.1654267 -1.5645874e-05 -0.21619666 0.32259846 -0.037345953 -0.2991611 -0.20825288 -0.044620745 -0.19989482 0.19840242 -0.12932897 -0.13117677 0.14492519 -0.06370256 -0.084551245 -0.0747933 0.028870057 0.029114386 -0.17277826 -0.04637342 0.020923426 0.21000232 -0.48011994 -0.108595915 0.0053496123 -0.17071055 -0.33853757 0.27150172 0.18516022 -0.1997517 -0.020343779 0.12256667 -0.02332335 -0.18857098 0.32096493 0.1833435 0.13498527 -0.18637185 -0.09675113 -0.10323183 0.2260515 0.24538766 -0.032831006 -0.16817138 0.024792247 0.023469003 -0.047762442 -0.24604045 -0.012642043 -0.16319826 0.037181392 -0.06802837 0.63512504 -0.3551834 0.119577326 -0.07687515 0.09876621 -0.12600113 -0.4838567 -0.11514258 0.011634529 -0.16847765 0.42229837 0.100357614 -0.29833168 -0.12478247 -0.24114238 0.4225049 0.17752087 -0.49859154 -6.9550806e-05 0.17871912 -0.10035473 0.33818644 0.50285697 0.17292267 0.28347093 -0.03566616 0.12912813 -0.08403934 0.25584644 -0.1081668 -0.35692897 0.37144643 -0.059207447 0.28996938 0.13380252 0.18679206 0.046165895 0.3703573 0.04717645 -0.13990879 0.06968053 -0.05954361 0.048613448 0.23335709 -0.5191051
C1098320 -0.03596219 0.34700304 0.09730521 0.25823352 -0.33192605 -0.667694 0.24286534 0.017979138 -0.567852 -0.36067176 -0.18490599 0.2406432 0.0069953683 -0.49216473 0.08828433 0.14465383 0.058060147 -0.12886775 -0.027625429 0.015241396 -0.30097046 0.00998565 0.112110265 0.068262205 0.29578272 -0.46429548 -0.014501151 0.04527662 0.2168106 -0.30533728 0.08277794 0.07932246 0.112379275 -0.106027715 0.27493292 -0.14285876 -0.12837514 0.14725557 0.25142685 -0.16578625 -0.02519588 0.12812781 0.03190279 0.051667355 0.1400047 0.040272027 0.045652386 0.069805324 0.020444877 0.034710698 -0.20667961 -0.19090477 -0.068921275 0.18053122 0.20662606 0.5311336 -0.44511527 -0.18408687 -0.12757626 0.21934654 -0.08892846 -0.23983398 -0.1915948 0.29035422 -0.025977524 0.1576246 -0.17276591 -0.12935728 -0.057048272 -0.15845661 -0.14890216 0.4183169 -0.22783643 0.41905266 0.22296725 -0.32099095 0.24684036 0.37509143 0.15413113 0.30180767 -0.09539065 0.13941696 0.10474856 0.24077344 0.14173634 -0.43355206 0.5192222 -0.121269345 0.21293366 -0.13739978 0.33416608 0.20104967 0.089098886 -0.11671401 -0.04225395 0.16983865 0.13196996 0.074296825 0.3747198 -0.49559858
C0033228 -0.12919892 0.09134881 0.2775346 0.24649821 0.011435351 -0.21340302 0.11980819 0.17971613 -0.56042606 -0.07148988 -0.28735116 -0.067348376 0.18883605 -0.17630243 -0.33884045 -0.15293472 -0.23976849 -0.028700894 0.2426507 0.49687356 -0.0127809 -0.09295163 -0.1837624 -0.2885925 0.5131606 -0.4319015 -0.15163459 -0.14171356 -0.020272037 -0.23680936 0.23260614 0.38987023 -0.2892723 -0.09071076 0.25514686 0.19720757 0.2995103 0.246895 -0.18375069 0.16234134 -0.26263854 -0.031478006 -0.039408635 0.25119954 0.26535693 -0.13041478 0.12486975 -0.09915547 0.28030694 0.07274164 -0.3081401 -0.13614534 -0.10659925 0.045895457 -0.040306002 0.31940758 -0.03897747 0.027384667 -0.089402 -0.18886474 -0.10175653 -0.27036172 -0.1429771 0.04139204 -0.05218599 0.3642892 -0.083444454 0.097865745 -0.097843334 0.043710403 0.27466628 0.14059615 -0.1716074 -0.16950248 -0.1253221 -0.202105 -0.09761489 0.31750208 0.027051786 0.36933187 -0.068163015 0.40457106 -0.30952075 0.14613312 0.2018521 -0.49065775 0.34362856 -0.27256683 0.37647313 0.5260295 0.2746298 0.34125972 -0.03480245 -0.27337036 -0.15296693 -0.18184301 0.1834063 -0.039252374 -0.046992898 -0.4908757
C0299792 -0.2058475 0.17059048 0.48341322 0.20059568 0.19687578 -0.0028182918 0.36347458 0.06578692 -0.022640362 -0.09682142 -0.25386816 -0.1968075 0.1603627 0.20285629 -0.13464333 -0.08552356 -0.34394878 0.011084956 -0.28986076 0.03001455 -0.34679097 0.040064577 0.116258316 0.04671141 -0.02242955 -0.32986084 -0.31768078 0.20946321 0.25902334 0.21002811 0.18884255 -0.2811179 0.003945543 0.02382969 -0.31085193 0.16099215 -0.036887523 -0.15158336 0.24795683 0.057390396 -0.2591662 0.21075173 0.2079252 0.15570399 0.12617122 0.08666741 -0.30505416 -0.12961261 0.05463556 0.07832417 -0.05480708 0.23008221 0.32504162 -0.17772146 0.0145894 0.52471966 -0.003613957 0.1057149 -0.24096009 -0.23351994 -0.11996743 0.108693376 -0.44784412 -0.021342456 -0.3621481 0.18815337 0.0004418307 -0.06365359 -0.18684444 -0.09465691 -0.12544502 -0.13562919 0.093218476 0.18407668 0.08127975 0.08034506 0.35227147 -0.069246784 0.058862545 0.38462195 -0.046861824 0.090314426 -0.19813019 0.1567462 -0.019239856 -0.1918705 0.22154604 0.014400713 -0.24634197 -0.20729925 0.26715934 0.27304712 0.036806718 0.052060887 -0.42650834 -0.12098413 -0.019672982 -0.37896553 -0.20105125 0.04200434
C0038257 0.06733788 -0.21211176 0.12541118 0.5474113 -0.18114853 -0.06473473 0.23346376 -0.03269116 -0.4377667 -0.19775225 0.06067351 -0.08731818 0.18296817 0.03333826 -0.41616148 -0.03439036 -0.15474597 -0.27285135 -0.023510594 -0.29908186 -0.11064467 0.1744774 0.015052338 0.50951684 -0.114669934 -0.2738716 0.11953199 0.14770739 -0.15664318 -0.2226717 0.22874063 0.08990999 -0.039553102 -0.25413328 0.093597494 -0.19208872 0.47032204 0.22842231 -0.07834561 0.39189863 0.07856878 0.116844125 -0.04015444 0.3988608 -0.10264272 0.038013555 -0.049136054 0.11928637 0.17989221 0.1774872 -0.16239409 0.17152429 0.018543353 -0.15096636 -0.05080986 0.12603752 0.15352182 0.08864641 -0.1007433 -0.18894431 -0.08195471 -0.05817293 -0.34785953 0.06859478 -0.31414372 0.22950175 0.05256457 0.11920206 -0.2601276 0.109526426 -0.13417362 0.24306773 -0.12623361 0.5267939 0.19507642 0.069262095 0.35253227 0.2621409 0.19781643 0.22159934 -0.06367773 0.13668397 -0.62937117 0.11575807 -0.36243504 -0.40311545 0.09260448 -0.4952443 0.39521107 0.50743437 0.09251354 0.40260428 0.3880886 -0.16886473 -0.10193295 -0.10583451 0.15233977 0.31830937 0.12537171 0.08259113
C0025598 -0.21495697 0.2258639 -0.15865998 0.28330907 0.11925463 -0.3165779 0.08854046 0.14742471 0.0021955364 0.10171791 -0.27545518 -0.0434137 0.20531695 -0.33283877 -0.3761733 -0.03386023 -0.08473598 -0.25890225 0.14259651 0.25211233 -0.009432438 -0.081559345 0.27635375 -0.29848415 0.061440878 -0.2822875 0.007848987 0.06350531 -0.0162726 -0.04326357 0.06650091 0.050749 -0.07333262 -0.10180689 0.18764383 0.19449052 0.047499478 -0.12280306 0.037940085 0.422657 -0.043933168 -0.160874 0.058720384 0.15788762 0.16993707 -0.07757706 -0.08688077 0.043689914 0.6047165 -0.16524403 -0.20123443 0.048534237 -0.08251696 -0.111518815 -0.18337567 0.31013468 0.08345374 0.12504578 -0.050965738 -0.10248007 0.013192429 -0.2366804 -0.027276887 -0.06973632 -0.18164468 0.5002701 0.23188797 -0.08680811 -0.21156733 -0.119556576 0.13164622 0.04456229 0.0930146 0.20618594 -0.18832275 0.09272041 0.21246015 0.040573817 0.17456049 0.29726583 -0.014835399 0.19780871 -0.14984313 0.016990924 -0.05542225 -0.3025323 0.16222489 -0.46811593 0.06604751 0.44407344 0.20335016 0.2957575 0.40944013 -0.07100791 0.023693284 -0.08787751 -0.082129866 0.24241507 -0.03154798 -0.6038576
C1532737 0.23463005 0.05166665 0.036860436 0.34967694 -0.3250385 -0.38317227 0.49379197 0.1543531 -0.35125622 -0.20022845 0.15655792 -0.07333036 0.18334486 -0.15441075 0.20218092 0.012337872 0.19421388 -0.30894095 -0.16686964 -0.00083016074 0.056081284 0.44950023 -0.15964131 0.17654404 0.22619855 -0.46254435 0.026438914 0.13654149 0.16711359 -0.28985307 0.13341987 0.45813674 0.095442586 0.00028249845 -0.1155792 -0.10817799 -0.0030024555 0.24685343 -0.10462621 0.14596035 -0.31559733 0.036228217 0.16286272 0.21464925 -0.00703181 0.21670748 -0.061228886 0.4701129 -0.119507946 0.19545805 -0.20101824 -0.16851822 0.038968932 -0.09160237 0.11380588 0.68268013 -0.018515743 0.26550668 -0.0032412924 -0.06766243 -0.4950936 -0.009294967 -0.2559679 -0.296094 -0.48812175 0.2161586 -0.10186858 0.3124081 -0.054746438 0.13373874 -0.086888656 0.5052137 -0.12491871 0.32436076 0.23809533 -0.18352911 0.32593715 0.32529417 0.25771108 0.4128713 0.131995 0.1009608 -0.065001145 0.530367 -0.40804023 -0.42067337 -0.14294603 -0.47109377 -0.028550876 0.50230116 0.19290243 0.65423125 0.13743241 0.29854134 -0.37558222 -0.2048568 0.31670037 0.27494085 0.3164339 -0.41398123
C0076275 0.08572636 0.013165907 0.20319536 0.328774 0.35499454 0.13434109 0.30745164 0.14542939 -0.22266911 -0.022342265 -0.15440972 -0.33435556 -0.06762734 0.029756099 -0.6218855 -0.25413656 0.13082819 -0.2193899 0.23330699 0.5558472 0.0054320744 -0.080749094 -0.25194302 -0.18710074 0.24113959 -0.27429393 -0.46052548 0.18613899 -0.2265808 -0.2943208 0.13722545 0.18704075 -0.46936482 -0.24321736 -0.13036838 -0.15634355 0.37627095 0.069597155 0.23718785 0.23693818 0.20094168 0.16930543 -0.021469917 0.20151617 -0.051235903 -0.13073906 0.024657609 0.015688058 0.46618316 -0.09209986 -0.2685676 0.0711375 -0.024309335 -0.2436983 -0.08158348 0.44934613 0.23651676 0.07046872 -0.45851082 0.144191 -0.27015063 -0.27813888 0.13492541 -0.3247256 -0.4347384 0.07805187 0.15374663 0.102927335 -0.1635964 0.06340346 -0.035092432 0.41843337 -0.2235707 -0.1128539 0.18472825 -0.15022804 0.162224 0.20580722 0.21997239 0.13309585 -0.027488058 0.509475 -0.04074458 0.24234477 -0.12561336 -0.09541724 0.1689957 -0.3650074 0.030948818 0.19447193 0.31665903 0.19295591 0.2124347 -0.20718199 -0.06067445 0.11977191 -0.04152454 -0.00060090475 -0.08408099 -0.8054754
C0025219 0.26367512 -0.22389509 0.13265473 0.63064694 0.031824883 0.022841346 0.186883 -0.2119771 0.067840606 0.16872929 -0.19623141 0.47763243 0.07328047 -0.27674153 -0.2997861 0.09457749 -0.29844373 -0.3006914 -0.16979326 0.11990065 0.13474469 0.039449446 0.17645878 -0.10667877 0.3017741 -0.52800727 -0.2621262 -0.043609645 0.4935156 0.0445607 0.14584945 0.18335591 0.2312738 -0.23414768 -0.17828663 -0.027282791 -0.034332786 -0.012192701 0.031818505 0.48376733 0.006015452 -0.21680298 0.1682145 -0.17111772 0.2395793 0.3180535 -0.13200586 -0.19077031 0.17560796 0.21566494 -0.23724024 0.07227919 -0.030538514 0.17810789 0.11720581 0.45092934 -0.103479095 -0.22607431 0.058674145 -0.22371098 0.095742494 0.07046245 -0.1684904 -0.227204 0.25972337 0.0924032 0.3649963 0.3933804 -0.45257542 0.0849767 -0.21098517 0.2245205 0.20720725 0.15213108 0.057310063 0.06606637 0.12502909 0.10857197 -0.09770766 0.034645576 0.048463956 -0.34755135 -0.18090545 0.0371512 -0.1752611 -0.16500975 -0.11577534 -0.05469195 0.21384917 -0.22650832 0.24752776 0.30793458 -0.012041806 -0.36378548 -0.07303615 -0.23013669 0.06379181 0.22411895 0.4418267 0.11079755
C0027996 0.15504207 -0.07400123 0.25664347 0.08345479 -0.20882815 -0.015675165 0.5104241 -0.087947205 -0.64469814 -0.1880063 -0.08731172 -0.026932793 0.20979413 -0.15248534 -0.15230094 -0.12767492 -0.067336224 0.030598491 -0.15979871 0.54656035 -0.24371837 0.0013428491 -0.033429477 0.017187633 0.29582924 -0.15823583 0.3445011 -0.35743394 0.008066388 -0.07200295 0.27557254 0.15426305 -0.18244387 -0.21807005 0.04410276 0.28905928 0.3140441 0.11098391 -0.035478275 0.078122355 -0.22334497 -0.33022892 -0.05294993 0.2953731 0.11539799 -0.10596111 0.015463805 -0.008295578 0.259766 0.08009378 -0.20012788 -0.044292796 -0.0075687026 -0.08896302 0.08474803 0.45270023 0.1773918 -0.002021002 0.050639626 0.10735723 -0.17001481 0.011507217 -0.24263798 0.28549296 -0.19892885 0.23453921 0.017317357 0.2447699 -0.24188702 -0.26972324 0.07117425 0.15510255 -0.19295172 0.19512029 -0.017223144 -0.2634794 -0.07600013 0.19455014 0.5113083 0.0030220936 0.070545584 0.35808992 -0.40833193 0.3075828 -0.23752813 -0.2662303 0.17584363 -0.30334032 0.57135 0.37365782 0.28654477 0.3379895 0.2557264 -0.43517575 -0.49499023 0.06370342 -0.19564307 0.065740645 0.0234042 -0.49869782
C0288171 0.056042455 0.37539166 0.24298523 0.4274566 -0.35499358 -0.62702197 0.0016127168 -0.17816131 -0.666567 -0.19169034 -0.20169051 0.21086857 0.11813478 -0.13223043 -0.13468787 0.13848083 -0.09745167 -0.31671074 0.22724311 0.061599065 -0.047162518 -0.07332053 0.13125314 0.10613703 0.22637795 -0.6318001 -0.12966734 0.041338183 -0.010383773 -0.34794173 0.111467734 0.07911107 -0.003911714 -0.10734038 0.08252681 -0.21900317 0.109340265 0.13571897 0.32937723 0.105844475 0.11869811 0.45904514 0.1361974 -0.011744695 -0.09076795 -0.07611736 0.090079546 -0.00796771 0.22116992 -0.08970424 -0.07248349 -0.087444976 -0.18707928 0.11105591 -0.06638423 0.32994077 -0.21925944 -0.060210407 -0.2240668 0.00046478183 0.04945186 -0.24803086 -0.21001087 0.2848178 -0.31281322 0.22004859 -0.1583695 -0.21084943 0.1356248 -0.3321703 0.0706197 0.24992096 -0.14775302 0.101384565 0.23138891 -0.02530862 0.11810712 0.15786684 0.101359345 0.40938514 -0.26496974 -0.15637404 0.15287066 0.2906704 0.12638918 -0.5304849 0.36295474 -0.37015155 0.32289 0.04404519 0.43558902 0.16619211 0.15384983 -0.016481007 -0.057614107 -0.001622165 0.39447588 -0.0121236 0.15633117 -0.44665426
C0009079 0.39223143 0.14781772 0.15768114 0.68825823 0.05468541 0.0039895563 0.3174442 0.052848786 0.23635536 -0.41766483 -0.026904931 0.13165164 0.22620669 0.3186276 0.084769234 -0.075397655 -0.27968153 -0.004480584 -0.09577046 0.27279836 -0.00013166347 -0.074978255 -0.018118551 0.06279939 0.100983664 -0.1387693 -0.2480429 -0.016766183 0.13395289 0.19395393 -0.52508205 -0.07737431 0.06877243 -0.025154997 -0.09298195 0.2433782 0.28984773 0.03696041 0.0055420552 0.17238992 -0.44660914 0.20642868 -0.28652787 0.0841101 0.3184088 0.058078576 -0.3589311 -0.44896698 0.04451472 -0.2828485 -0.2689787 0.15804549 0.2727113 0.24506314 0.1951897 0.283748 -0.21981487 0.038744222 -0.29010838 0.11377032 -0.17791693 -0.15961652 -0.2308849 0.05187346 -0.20955111 -0.11716529 0.41696158 -0.018057311 -0.43592092 0.15807867 -0.18072428 0.06215932 0.053647056 0.21322824 0.005280176 0.25312325 -0.042729337 -0.13055241 0.37001657 0.27873418 -0.022091473 0.31773886 -0.037054196 0.3097488 0.09596735 -0.16097026 -0.14611627 0.057721198 -0.11592914 -0.32743487 0.12959714 0.537526 0.35656223 -0.035162672 -0.09734205 -0.11926719 0.13366787 0.1740597 -0.097586736 -0.33664218
C0021186 0.040091384 0.046503365 -0.08165481 0.27500868 0.043770745 -0.5287563 0.23772539 0.36054578 -0.5573972 -0.37758502 -0.19740741 -0.13519588 0.44097558 -0.1911882 -0.1241027 -0.12859836 -0.13979301 0.07025307 -0.33498412 -0.08084962 -0.16914281 -0.07371246 -0.24887349 0.6208173 0.13615102 -0.27436072 0.21045285 -0.042607427 0.20905754 -0.22235684 0.12322636 0.08962843 -0.3508628 -0.06833135 0.16803259 -0.45755324 -0.14994104 0.0029266973 0.30660856 0.21785596 -0.059608433 0.06250687 -0.20757078 0.26319483 0.27091143 0.18948017 -0.15352115 0.0069897654 -0.18763272 0.25490522 -0.3869704 0.25082827 0.26552138 0.23661834 -0.0331799 0.53532296 -0.14553009 -0.38405347 -0.04155508 0.43200076 -0.32527977 -0.27919617 -0.0457359 0.16007592 -0.037601918 0.10460591 0.23072931 0.018886654 -0.042827945 -0.15657993 -0.012888974 0.38303033 -0.31138518 0.26260847 0.31688818 -0.15114062 0.11624061 0.5232826 0.23623273 0.3609329 -0.017685173 0.121040925 -0.036668792 0.30912808 -0.056330264 -0.5436218 0.6186652 -0.17249468 0.2748643 0.086914636 0.47549605 0.102701 -0.1165391 9.670204e-05 -0.0732071 0.1887442 -0.24700621 0.21974328 0.49288464 -0.5712032
C0039601 -0.004057226 -0.4591027 0.0649006 0.1903443 0.23083301 -0.17825058 -0.059860013 0.2503786 -0.40628883 0.056025967 -0.03223332 -0.11813712 0.007926723 -0.26390946 -0.6282378 0.22506478 -0.3359038 0.116367035 0.08678345 0.019817088 -0.2445474 -0.060952518 -0.23714392 -0.17008293 0.08717122 -0.09495619 -0.3244335 0.33612078 0.16490743 -0.006447592 0.11377193 0.20504469 -0.31590876 -0.10729293 -0.22684722 -0.025524043 -0.13897508 -0.0060342853 -0.09144498 0.36010116 0.06015097 -0.029847383 0.11263978 -0.28273472 0.106751814 -0.02230477 -0.29555625 -0.20302765 0.12347952 -0.63543975 -0.44354495 0.061571535 -0.25501266 0.3008523 -0.1053447 0.11713153 -0.006703236 -0.17524993 -0.19961818 0.03908717 -0.28831756 0.046406463 -0.27553374 -0.19896442 -0.2042099 0.2969039 0.33260712 -0.12294951 0.14199752 0.25251547 -0.10830119 -0.06145572 0.043626383 0.15364358 0.1360214 -0.1036176 0.1225633 0.15655659 0.30710235 0.28772518 -0.24510655 0.38270763 0.0409175 0.09101453 0.16489689 -0.32406983 0.09181204 -0.043709803 0.051781077 0.21280013 0.13871881 0.2162641 0.24055606 -0.014292276 -0.16076592 0.2416825 -0.0034791008 0.18069364 -0.26007566 -0.23365706
C0039286 0.09136265 0.31604567 0.17126454 0.24731702 -0.06975828 0.20232412 0.49798176 -0.35577407 -0.4466791 -0.36292502 -0.009888435 -0.047400553 0.3129992 0.24119307 -0.23308507 -0.19619909 -0.016987834 -0.46647936 0.022447681 0.18216111 0.1024007 -0.23838006 -0.09440466 -0.18602905 -0.01995071 -0.04330357 -0.0563175 0.37532297 0.13315469 -0.15284815 0.10279245 -0.21283323 -0.226687 -0.31015486 -0.025832035 -0.02898833 0.33440676 -0.06414651 0.54084754 -0.01120115 0.08067988 -0.36722508 0.09347173 -0.33718267 0.57649845 -0.039904788 -0.07292634 -0.011249056 0.27131224 0.09343182 -0.15041426 0.14454867 0.10920863 -0.30124968 -0.3402518 0.23661275 0.11985477 0.13534836 0.03775602 -0.08590741 -0.46928564 -0.3067039 -0.6252971 -0.074987486 -0.45226046 0.20398918 -0.05946039 -0.06992979 -0.20593531 -0.25098905 -0.003448261 0.02960875 0.054416962 0.055621423 -0.020716004 -0.15433209 0.41413713 0.1011071 0.20069227 0.38149193 0.06885055 0.3436538 -0.15911147 0.02607133 -0.12474357 -0.10304714 0.15715703 0.096315764 -0.14258678 0.35621867 0.4857055 -0.016815826 0.269394 0.12635592 -0.4196774 -0.015356593 0.3997131 -0.6346002 -0.11856656 -0.67586964
C0008677 0.071090184 -0.12112407 -0.096292354 0.11836207 -0.14988223 -0.116806135 0.2073666 -0.047304798 -0.0025905287 -0.0022730043 -0.010204478 -0.18080738 -0.13949908 -0.06459607 -0.24150926 0.057821836 -0.058078524 0.07570462 0.026408963 0.0090681305 -0.16665772 -0.06559365 -0.10348664 -0.03495417 0.20464781 -0.25908086 0.101404496 0.08837227 0.15492818 0.008073136 0.108373605 -0.10096527 -0.119449325 0.014065656 0.073040605 0.23028846 -0.013873973 0.23810302 0.031471383 0.094040774 -0.14172491 0.19721428 0.029147327 -0.048734143 0.10040129 0.1360408 -0.020346358 0.06439817 0.16756512 0.15519485 0.09990155 0.16751142 0.13054623 0.033856798 0.06008334 -0.06216887 -0.09902611 -0.12895915 -0.0020769706 -0.2547047 -0.058953907 -0.020767257 -0.32806593 0.09228807 -0.09368437 0.005604496 0.28858274 -0.09090588 0.06917946 0.017675059 0.02642793 0.117956325 0.1179512 -0.0967816 -0.04671944 -0.048731506 0.103901386 0.20582518 0.026674856 -0.13390683 0.1033395 -0.0045358134 -0.04714558 0.1484689 -0.052279204 -0.093582936 -0.016202653 0.05613767 -0.2792359 0.028640317 -0.11088895 -0.08545093 0.12135205 -0.16709827 -0.08260434 0.12012337 -0.029487828 0.33758146 -0.125298 -0.16346583
C0054066 0.009786979 -0.20532545 -0.06823232 0.11955269 0.2719452 -0.2917836 0.1601247 -0.22804184 -0.10614422 0.19274028 0.0043469025 -0.5249593 0.018678792 -0.10191332 -0.44974437 0.03314187 -0.33649606 -0.056733645 0.30412143 0.25738066 -0.06417912 0.37386245 -0.054735813 0.026598599 0.16093859 -0.34483215 0.24954246 0.0495245 0.058470905 0.041497212 0.09882679 -0.3818094 0.1550736 0.33435294 -0.26469886 0.1182056 0.1906225 -0.041888848 0.48168242 -0.13167934 -0.00367879 -0.013108645 0.012753093 -0.1445958 0.06219419 -0.10884783 0.37396753 -0.06233177 0.10545831 0.0071457257 -0.2198008 -0.10882155 0.3949448 -0.4045525 0.027023198 0.06166175 -0.091175914 -0.11801263 -0.002421214 -0.18868162 -0.031187467 -0.36844283 -0.6568882 0.50872713 -0.4902172 -0.029584156 0.14136882 0.15156476 -0.13209315 0.45078087 0.2876355 0.22603947 -0.29559413 0.061612993 -0.11428584 -0.47596657 0.21007334 0.1356342 -0.14017113 -0.45027986 -0.0039370237 -0.25200436 0.275673 0.3863166 -0.0016698607 -0.008327492 -0.249643 0.09422093 -0.27757832 0.076225795 -0.017410599 0.30329758 0.3579356 -0.18903442 -0.07771341 -0.05196921 0.27600482 0.41822523 -0.117552586 -0.31077316
C0052796 0.07220616 0.081431046 -0.33412 -0.06348011 0.33356962 -0.344232 0.11558575 -0.29259217 -0.2263547 0.1805907 -0.22999997 -0.42258582 0.10339834 -0.032423276 -0.3520651 -0.024334535 -0.318832 -0.17790593 -0.2023459 -0.00013117235 -0.32458892 0.0756854 -0.1999366 -0.05931278 0.09366446 -0.23251362 0.1615748 -0.00065938634 0.12758788 0.005433754 0.17853017 -0.27176636 0.10953818 0.36562333 -0.22223715 -0.06681004 -0.020648029 -0.37518567 -0.051140927 0.06254924 -0.25156316 0.06909655 -0.11671842 0.12555438 0.08299416 -0.19071823 -0.092443846 -0.090709955 0.49088892 -0.086781524 -0.18069644 -0.13008256 0.39482906 -0.19811815 0.026447615 -0.09220646 0.15247042 0.059593674 0.05804348 -0.08321142 0.09910517 -0.057839587 -0.37092644 0.44873863 -0.34175888 0.23502904 0.35904565 0.33914885 0.06268584 0.40798223 -0.11890315 0.3859804 -0.11975063 0.15245081 -0.09054466 0.13377942 0.25672662 0.5252439 -0.102365084 -0.19898736 0.10223756 -0.010223544 -0.094844006 0.20691425 -0.41379136 -0.11261288 -0.2155668 0.060120437 -0.18687393 0.3128674 -0.0054357685 0.22906123 0.464826 -0.17537189 0.07683689 0.0791904 -0.18022518 0.57083464 -0.4800243 0.05801978
C0533545 -0.07451251 -0.17310095 -0.082270354 0.15118252 0.06605658 -0.14540303 0.1578063 -0.039358653 0.036470253 0.6291969 -0.6655749 -0.47184062 0.13346228 -0.054925576 -0.20423253 0.038292844 0.36881822 0.22086926 0.49928984 -0.38875434 0.16379175 0.31232363 0.042149644 0.06593293 0.3096499 -0.65723556 0.3772358 0.21393429 0.18027449 -0.005711502 0.28512976 0.15019079 0.19085662 0.10175822 -0.40972218 0.025126154 0.27248004 0.03333552 -0.046514325 -0.17595953 -0.012279013 0.20952004 0.036735337 -0.1821698 0.2504562 0.12396874 0.19624332 0.22029266 0.1775082 -0.017995387 0.09218246 -0.068544626 0.43137768 0.12679355 -0.11528773 -0.28227222 -0.28231364 -0.33407646 -0.18072014 -0.47344962 -0.1588156 -0.25320706 -0.5609245 0.21050295 -0.4429516 -0.41520643 0.65812 0.16610095 -0.20736268 -0.28701264 -0.16614614 0.16860208 0.04676331 -0.22205329 -0.10416567 -0.23334639 0.18481527 0.04222526 -0.13253005 0.014282478 -0.057189036 0.09994785 0.1119832 0.5131179 0.08484035 -0.23928553 0.102953136 0.22101887 -0.12272451 0.05622175 -0.0018926591 -0.25700352 0.10374024 -0.11530422 -0.23936394 0.18239506 0.26032352 0.28800684 -0.13335505 -0.13716668
C0907410 0.054569248 0.04344388 -0.17050892 0.19331068 0.08285046 -0.4554015 0.08611793 -0.21065907 0.066792995 0.85860837 -0.19837222 -0.31447163 0.032099858 -0.28262103 -0.25749305 -0.09153353 -0.21308644 0.23935744 0.06723949 -0.06992618 -0.2567058 0.45845166 0.1630475 -0.18483916 0.362757 -0.24370556 0.1736895 0.2913757 0.13340636 0.25222433 -0.19733487 -0.45490763 0.16849835 0.20936301 -0.18516347 -0.09088652 0.2009489 0.35073245 0.298035 -0.18184134 -0.13479404 0.35082132 0.025293995 0.01459621 0.14858665 -0.13135788 0.24600735 0.1423407 0.6481551 0.2233705 -0.118480586 -0.2258534 0.1550623 -0.28865063 -0.45403627 -0.10949662 -0.010607292 -0.29893312 0.19959062 0.013492339 -0.23675548 -0.3668305 -0.70146495 0.15709408 -0.45256743 -0.0069012707 0.06762954 0.046679825 0.21711466 -0.0032784075 -0.11973046 0.23188679 -0.15648447 -0.020762667 0.048905592 -0.045089047 -0.058466908 0.28499374 0.09069721 -0.10282161 -0.20889688 -0.16074857 -0.2165434 0.10373125 0.1453949 0.022364883 -0.101102784 0.100394785 -0.18982261 -0.047851358 -0.20106763 -0.06049356 0.3095583 0.00016771059 -0.18484734 0.123026855 0.49513876 0.38716614 -0.4029095 -0.10516254
C0053882 0.048070762 -0.29261404 -0.29506642 -0.09668804 -0.12273352 -0.1870168 0.12407515 -0.33498567 -0.29332644 0.19990137 -0.41332412 -0.40917918 0.43840036 -0.29098013 -0.4261423 -0.03357817 -0.04842252 -0.014456802 0.36453915 0.22739966 -0.31964162 0.25584984 -0.09900561 -0.004785347 0.2985316 -0.5533792 0.2095467 0.118555434 0.25461766 0.266953 0.22732505 -0.64154285 0.46361583 0.33914816 -0.04349704 0.2195335 0.23930171 -0.2620323 0.021086682 -0.06351814 0.108631186 0.020866426 -0.07670287 -0.18693726 0.13177343 0.100236654 0.23312397 0.06059432 0.11903737 0.068949446 0.03391435 0.0038384248 0.5094784 0.06807173 -0.005577176 0.051999103 -0.26766518 -0.008402301 0.101098776 -0.42122075 -0.055690486 -0.06697499 -0.7823106 0.5721529 -0.5689954 -0.54265004 0.46286047 -0.09673098 -0.16030523 0.071427345 0.12785442 0.27763706 -0.044467412 -0.4320975 -0.20885359 -0.2582693 0.6337842 0.4283704 -0.3154798 -0.13911076 -0.27372822 -0.20296857 0.51504785 0.84724885 -0.28754145 -0.2890161 -0.45368055 0.22613071 -0.33307543 0.054939188 -0.046009015 0.28159148 0.18082252 -0.35836062 -0.08099577 0.25612208 0.33534178 0.47254345 -0.29478228 -0.37285078
C0753645 -0.048957005 -0.14876874 0.112641044 0.2505003 -0.049306296 -0.15224206 0.14246629 -0.46274176 0.048432667 0.39723 -0.13595137 -0.6815583 0.44469294 -0.06983873 -0.33191404 0.038532525 -0.07444762 0.16520669 0.07064667 0.22344959 -0.20956576 0.24132542 -0.058712956 0.13477649 0.4704073 -0.4292962 0.29700974 0.24677528 0.26289237 0.4761166 0.07192356 -0.09029691 0.05791606 0.54780096 -0.44735524 -0.053095892 0.30280814 -0.10890882 -0.019618053 -0.39645502 -0.4016757 0.19235024 -0.029686995 0.14269821 0.32359284 0.14244173 0.203864 0.19291048 0.40318793 -0.13454615 -0.031074619 -0.21005048 0.20010838 -0.3935175 -0.19392727 -0.26585367 0.055050135 -0.16786459 -0.06765787 -0.09387833 -0.042359162 -0.22235459 -0.53751844 0.3607674 -0.5173279 0.12822846 0.48517048 0.078045495 0.21444106 -0.060279835 0.27905566 0.23085266 -0.27416492 0.10732362 -0.2470367 -0.24555086 0.5499455 0.38400337 0.11444947 -0.14720014 0.16563767 -0.012518856 0.07239034 0.38230175 0.058863126 0.0487735 -0.07106022 0.15092918 -0.19497123 0.24909951 -0.09903135 0.16777147 0.21904248 -0.19017619 -0.10076842 0.23099637 0.27434245 0.1622663 -0.055838805 -0.12732041
C0055856 0.12073079 -0.09243315 -0.5244533 0.04645571 -0.09143975 -0.23089154 0.13687277 -0.018327178 -0.15394619 0.44485003 0.11560883 -0.69759905 -0.1861577 -0.16608478 -0.22998925 0.1578561 -0.4397131 -0.19453534 0.1033737 -0.015072917 -0.093131304 0.23517597 0.106050216 -0.18810275 -0.03648019 -0.07483853 0.09080182 0.0025518828 0.042810634 0.5176877 -0.0054111057 -0.2917338 0.22799024 0.2452939 0.15713938 0.20473489 0.39145446 0.064353935 0.0112615 -0.25672925 -0.19922227 0.15053691 0.039823264 0.120192185 0.25417897 -0.12789705 -0.11779345 0.0062621655 0.57208633 -0.020577824 -0.001331047 -0.41892487 0.5493055 0.0031325151 0.21763729 0.006999371 -0.19773929 -0.11148626 0.1949926 -0.097559564 -0.116168834 -0.006298498 -0.4299629 0.14285544 -0.40735817 0.14449602 0.08095954 0.26920414 0.2660432 -0.1844093 0.39398417 0.41801926 -0.07742463 0.12940992 0.008851788 -0.14284079 0.36903235 0.24493645 -0.3055682 -0.08648513 -0.1435675 0.025056757 0.045100804 0.23252529 -0.52066547 -0.16459492 -0.16408016 -0.093387924 0.041709714 0.0021226276 0.006257143 0.1958082 0.053045537 -0.10037344 -0.06251978 0.17002887 0.15192336 0.28860113 -0.25533855 -0.040905815
C0282386 0.017341904 -0.028127136 -0.07841335 0.04574879 0.061105225 -0.23586021 -0.06208804 -0.32982427 -0.20032775 0.3845994 -0.10209304 -0.37798938 -0.16464111 -0.20987739 -0.41500354 0.037965275 -0.1056001 0.06264283 0.046816237 0.24834414 0.17670579 0.262191 0.03945944 0.034576263 0.29634553 -0.52982306 0.0171635 0.17552023 0.10084219 0.17232092 0.29869038 -0.4998425 0.026480759 0.27273646 -0.11783918 -0.028361108 0.23171037 -0.4661477 0.1537601 0.076208964 0.011956454 0.5057861 0.28573906 0.02946698 0.184007 -0.12742034 0.2982428 0.4683829 0.3145753 0.06449221 -0.07187375 -0.14852066 0.38087273 0.034789495 0.090373054 -0.17682116 -0.20464192 -0.28556928 -0.18132594 0.002718582 0.21206751 -0.12878115 -0.50134844 0.50823236 -0.25546739 -0.14641431 0.45614368 0.41790107 0.07217062 -0.1297656 0.21046807 0.40360606 -0.51651996 0.30711693 0.10317849 -0.28855786 0.36247304 -0.16302146 -0.16264972 -0.18336098 0.2184098 -0.22753395 -0.086721934 0.27909744 0.09233762 -0.15992217 -0.2546923 0.043165233 -0.6346158 0.34501085 0.29825735 0.16105959 0.26528972 0.020147627 0.12805225 0.20197952 0.5228139 0.4971376 -0.30138886 -0.08062871
C0536495 0.17962512 0.1487488 -0.02989813 0.17521878 0.103260934 -0.3313749 0.012621844 -0.21926971 0.10228004 0.46729648 -0.17407368 -0.49164468 -0.24180529 -0.17006837 -0.28262833 0.16723534 -0.054510955 0.27963486 0.12740575 -0.22628926 -0.2059868 0.29473466 0.15273753 0.055827312 0.3020794 -0.31816256 0.26526514 0.45407844 0.15825605 0.0828077 -0.16246955 -0.6938759 0.04155981 0.537956 -0.374326 -0.09218636 0.21919174 0.059791267 0.11623672 0.12837538 -0.07444335 0.26708367 0.02553427 -0.17666672 0.42125016 -0.30229765 0.26936114 -0.2155788 0.38277385 0.032127798 -0.05945686 -0.49919322 0.40793157 -0.30907956 0.2176675 -0.12764658 -0.05710907 -0.2259049 -0.15171202 0.045471914 -0.39681873 -0.43954316 -0.5499579 0.1645902 -0.2352116 0.28758547 0.6298614 0.39060023 0.29357195 -0.030322114 0.23726435 0.14378501 -0.5359003 0.27233276 0.04465588 -0.27425644 -0.18811445 0.039853908 -0.06716687 -0.23435491 0.13065575 -0.16423906 -0.013688754 0.35434404 0.05381215 -0.17872363 -0.022818511 0.030556649 -0.22807123 0.10438808 -0.0039329887 -0.32448888 0.08308148 -0.17437156 -0.1944098 0.21208367 0.3041063 0.52078474 -0.004246225 -0.035315182
C0110038 -0.3687183 -0.28095895 0.030321373 0.5514761 -0.23836176 -0.38069332 0.122968495 -0.3147641 0.23040417 0.3648782 -0.32065535 -0.47154132 0.33756492 -0.20282713 -0.1134358 -0.40800542 -0.33146575 -0.1472933 -0.0530282 0.16331714 -0.33991513 0.2527977 -0.08441945 -0.00955999 0.6229641 -0.49432743 -0.06285553 0.15435268 -0.16422646 0.04276819 0.1895159 -0.10127717 -0.28270757 0.38488638 -0.31681457 -0.11378271 0.5579456 -0.15788658 0.02890892 -0.1621801 0.026960302 0.20546208 0.21030515 -0.31191054 0.33207786 0.087931395 0.2578135 -0.23609668 0.23295146 0.12155967 0.11646108 -0.09036851 0.17048469 -0.11757477 -0.20796345 -0.14603646 -0.37434298 -0.1448043 0.21366607 -0.21199562 0.22401309 -0.16772413 -0.41714004 0.33350962 -0.40398893 0.1570307 0.36790362 -0.14085995 -0.1027044 0.022351395 0.2804265 0.36847234 -0.11224193 -0.16239819 -0.035660237 -0.72159207 -0.32734603 0.2961935 -0.02195935 -0.25171974 -0.16128041 -0.055895325 0.20189653 0.049738877 -0.19464613 0.27348167 -0.60339457 -0.076587506 -0.44555396 0.06296713 0.1156484 0.17478408 0.2681288 -0.31059337 0.34527248 0.16149962 0.35124257 0.04650115 -0.37639096 -0.43078485
C0003232 0.013005855 -0.03553103 -0.3268165 0.18365726 0.19829622 -0.14711761 0.078390226 -0.4911664 0.049886324 0.00097218005 0.18817322 -0.5460659 -0.025793558 0.025927655 -0.29394206 0.25643295 -0.2351702 -0.23218445 -0.100840785 0.0019943884 -0.12548794 0.12867835 -0.2682283 0.036233857 0.20205615 -0.5114254 0.36037454 0.12559393 0.42600846 -0.21760578 0.27240536 0.118591316 -0.06135943 0.3888974 -0.10785501 -0.07209868 0.1816814 -0.004525722 0.06900279 0.16098592 -0.11946569 0.29428914 0.08696961 0.20743638 -0.061957363 -0.09715086 0.08718633 -0.085240096 0.12508033 -0.13372386 -0.33176205 -0.1945508 0.25777832 -0.25067335 -0.009580192 0.052058216 -0.065341994 -0.28892055 -0.060338836 -0.28241035 0.20685238 -0.06434367 -0.22774939 0.34406188 -0.22521718 0.25066996 -0.0010055718 0.31987962 -0.0433413 0.06811708 0.29762915 0.45350978 0.12505554 0.27056372 0.015067249 -0.010121064 -0.12745467 0.2821833 -0.14121415 0.075534046 -0.28603682 -0.17083597 0.019654695 0.12389986 -0.53079575 -0.019106274 -0.40026286 0.12917584 0.20303617 0.19732885 0.07446671 0.13554609 0.31516585 -0.2571583 -0.22899482 0.060305707 -0.07137093 0.28274688 -0.36472824 0.1606373
C0021311 0.28439376 0.06027649 0.13437863 0.0933876 -0.0713928 -0.13675915 0.09465564 -0.27807853 0.21707122 0.31831917 0.110086605 -0.21841526 -0.03289906 -0.27525443 -0.82336795 -0.078019075 -0.13118567 0.03851717 0.017140033 0.098445214 0.057801582 -0.13064317 -0.047409162 -0.25990683 0.30068225 -0.29847252 0.3389722 0.26740023 0.29330885 -0.014364362 0.08669422 -0.37636048 0.11326815 0.3216589 -0.059582222 -0.30486366 0.00675516 -0.5135011 0.07377688 -0.16399294 -0.04718473 0.017341021 0.21309572 0.21326528 0.122735836 -0.1125008 0.4820501 0.048053287 0.16901219 -0.0035015997 0.041733902 -0.5165442 -0.04632723 -0.14055598 0.2357266 -0.0023948322 -0.27364656 -0.17337263 -0.36573717 -0.076094076 -0.107967906 -0.087628685 -0.46381775 0.21045865 -0.3869662 0.05576467 0.29487395 0.14887893 0.06333762 0.28219408 0.30515653 0.1887619 -0.07409104 -0.19600669 -0.17670703 0.0709246 -0.10454861 0.48189703 0.08825828 0.30259386 -0.1469424 0.03555774 -0.28083295 0.26966307 0.017104948 0.014679451 0.017499786 0.3755272 -0.4070818 0.24372211 -0.4057805 0.7791682 0.16285667 0.14367187 -0.4759573 -0.17406912 0.17094567 0.5818062 -0.111919455 -0.1619019
C0008196 -0.0125198355 -0.2670813 -0.5258166 0.1686323 0.10163835 -0.014435433 0.30042002 -0.29074004 0.14756005 0.32186145 -0.5028826 -0.47127408 0.34141728 -0.40401572 -0.20339708 0.34135163 -0.14435314 -0.076695435 0.13807815 0.0981849 0.15748733 0.011275392 -0.17148837 -0.1563183 0.11180976 -0.38522452 0.50401247 -0.08800665 -0.021044193 -0.18062292 0.38245958 -0.4900228 0.3017888 0.3252643 -0.2194814 0.16209143 -0.7158525 -0.0349446 0.24033709 -0.14021361 0.21704231 0.4432145 0.15983811 0.42857385 0.068842016 -0.32145596 0.32128647 -0.2782007 0.12329589 0.14725232 -0.16558771 -0.14112177 0.08446921 -0.123625554 0.07951099 0.1433387 -0.09333565 -0.09334651 -0.41831103 -0.091786906 -0.10494693 0.13869691 -0.36958402 0.422385 -0.4222662 -0.010705464 0.35713822 0.056663822 0.3851216 -0.018326338 0.45520437 0.5295092 0.30571395 -0.07093562 -0.48930344 0.009161631 0.32987309 0.0069878367 0.16016775 0.19491336 -0.20016664 -0.11546917 -0.4091152 -0.094618626 0.051803287 0.018211445 -0.2541334 0.31983006 -0.18272583 0.088398255 0.09250406 0.30037636 0.13938187 0.15590298 -0.28739545 -0.11714577 -0.13047647 -0.016696366 0.37413004 0.14084484
C0002645 -0.27680287 -0.42990538 -0.3693108 0.3179137 -0.10048604 -0.29737288 0.28946427 -0.012788547 0.11049273 0.28612858 0.006676802 -0.5350994 -0.14541909 -0.28257656 -0.34747007 0.077429555 -0.54665667 -0.23880498 0.24997286 0.22450435 -0.26771855 0.13520572 -0.08598341 -0.11528387 0.039918706 -0.052596968 0.18719453 0.13577388 -0.15815277 0.23516396 0.12413423 -0.22497046 0.18913314 0.28576672 -0.27808797 0.02891473 0.2490292 -0.07900968 0.25668025 -0.41842258 -0.020312589 -0.12707642 0.13952114 -0.1648634 -0.032944307 -0.043653913 0.27980492 -0.22328487 0.27169302 0.0155200595 -0.42074087 -0.3834385 0.23731253 -0.14312603 0.32532054 0.17628247 -0.14957926 -0.060243156 -0.14728698 -0.17451644 -0.14355692 -0.32468966 -0.35270196 0.4391273 -0.45528495 0.13109261 0.039605845 0.1251408 -0.08024044 0.045937102 0.5816162 0.18816687 -0.19038643 0.05097259 0.10894217 -0.3596194 0.2149232 0.43620178 -0.17537569 -0.113350175 -0.3321343 0.013726163 -0.15228595 0.17843443 -0.23536067 -0.013652346 -0.56811744 -0.10387892 -0.482948 -0.0786834 0.19464257 0.13706428 0.13325946 -0.28686896 -0.017855454 -0.11427276 0.16363294 0.50804776 -0.06723178 -0.23899096
C0007561 0.19516721 -0.2107546 -0.17753002 0.36350307 -0.012472883 -0.2559986 0.29754105 -0.41187164 0.15709634 0.0067976294 -0.12682055 -0.46829388 0.22873795 -0.15175706 -0.5880575 0.023383582 -0.18188159 0.078168154 0.0535707 0.5100604 -0.20025903 0.26786086 -0.0028168226 0.0042670816 0.33988208 -0.29814747 0.16059579 -0.032039497 0.2337092 0.079499066 -0.012809712 0.009337244 0.4768636 0.24694893 -0.47548163 0.1402382 0.1946405 0.05043907 0.07544316 -0.33067843 -0.017776692 0.22358368 -0.07766705 0.29076475 0.2000714 -0.105765216 0.2396796 0.009286371 0.038424432 -0.121410616 -0.33983457 -0.24341194 0.14848848 -0.36337683 -0.030072732 -0.20538342 -0.00060777087 -0.055790544 -0.011181181 -0.021726387 -0.2305774 -0.08038613 -0.52002686 0.64559877 -0.28118002 -0.0016274513 0.25648803 0.18580876 0.024815254 0.44725767 0.3941582 0.17972726 0.08801547 -0.006615806 -0.48579955 0.11016664 0.33995178 0.13877922 -0.22010976 0.17623219 -0.22931688 0.30332562 -0.028654693 0.5406981 -0.025513144 0.11238217 -0.31549034 0.0012665619 -0.15957053 0.09144517 0.14641003 0.1737074 0.36451417 0.09005696 -0.0037772476 0.095473595 0.23682025 0.4577088 -0.29470822 -0.08510937
C0016277 0.3171769 -0.3806055 0.30688003 0.777447 -0.40960374 -0.107263274 0.37577417 -0.39925265 0.116866514 -0.04309493 0.009029114 -0.00806273 0.088968374 -0.33541033 -0.59783447 -0.009513577 -0.119409256 -0.049759034 -0.02909857 0.579857 -0.060860544 0.19529717 -0.10455903 -0.30867988 0.6966847 -0.31385028 -0.21020964 0.0020576254 0.007202466 0.36197928 -0.093184076 -0.1916806 -0.3542165 0.26918927 0.1594788 0.1785736 0.048545927 -0.2788662 0.33087105 -0.13783206 0.064775735 -0.23567289 -0.016831651 0.659276 0.09485316 -0.009739905 0.1838939 0.09654823 0.05420495 0.10772522 -0.2590475 -0.60631543 -0.24328947 -0.0529789 0.4480102 -0.16208497 0.09219313 -0.15507421 0.105121255 0.226897 -0.06388383 -0.003491173 -0.5305069 0.21646377 0.25866973 0.37584132 0.30963472 0.22951627 0.056896728 0.5334516 0.26350808 -0.16281815 -0.35927284 -0.08766715 0.21557187 0.07933673 0.017865805 0.22789851 0.00941469 0.55776024 -0.30501997 -0.27303663 -0.38938308 0.38288066 0.1797594 0.05087304 0.19862315 0.024134487 0.10298749 0.46601778 -0.30230916 0.678026 0.11942461 0.010336182 -0.22780931 -0.36445096 0.30100182 -0.40349782 -0.3972387 -0.33245558
C0001617 0.20572747 -0.48040625 0.110891394 0.12724963 0.028748492 -0.32525992 -0.0419452 0.10603799 -0.2648102 -0.07832907 0.20000239 -0.2921334 0.16279776 -0.15051663 -0.10608186 -0.08215397 -0.12083111 -0.44062588 0.035298593 -0.0055819503 -0.17745465 -0.12643981 -0.26431978 0.03081799 0.44572607 -0.37776598 0.35757294 -0.10866957 0.008289695 0.23162453 -0.11967538 0.099973775 0.123995975 0.29851282 0.11733106 -0.14456405 -0.020747991 0.37338033 0.098543674 -0.14589173 0.02552034 0.20478322 -0.14821391 -0.16666692 0.26920632 0.2617182 -0.034583464 0.27816233 0.2587351 -0.2359554 -0.077139415 -0.25433233 0.028631868 -0.2985248 0.031107862 0.15463641 -0.21547902 -0.120928295 0.21391812 -0.22235319 -0.156349 0.1531153 -0.27793494 -0.16342695 -0.23442648 0.34913394 0.15427913 -0.3937146 -0.05686359 0.22696473 0.1481968 0.28676817 0.29542685 0.29203007 0.00847917 -0.09433518 0.21560013 0.11443822 -0.11362121 0.019440778 -0.20097359 -0.10433607 -0.27951553 -0.16264887 0.08775349 0.33363265 -0.17730896 0.14126763 0.2971014 -0.18900697 -0.14003332 0.06762594 0.30016458 0.0535603 -0.12318214 0.25110242 -0.42749673 0.08370414 -0.11266573 -0.24751894
C1120106 0.49470475 -0.026121128 0.005305762 -0.041615 0.19181857 -0.21109352 0.13028075 -0.17831768 -0.016856903 -0.08982222 -0.022867335 -0.48811015 0.022380298 -0.4229341 -0.5195012 0.22126235 0.122782685 0.27719837 0.13375628 -0.08428234 0.008350936 -0.052030567 0.028070116 0.37817365 0.31671226 -0.6190658 0.5477674 0.19815283 0.077679545 -0.19238667 0.20402434 -0.53740567 0.41237205 0.40365857 -0.578215 0.297333 -0.060036864 0.14745936 0.26388624 0.30350658 -0.027334206 0.23267838 0.53686047 0.3047299 0.4149052 0.0126898065 0.701519 0.08865537 0.06754951 -0.16387457 -0.100941114 -0.18970275 0.27796718 -0.3668003 0.37198406 -0.09795896 -0.15801336 -0.21434091 -0.38340518 -0.13280512 -0.121252716 -0.20749204 -0.63199234 0.43684152 -0.17247288 -0.0059834127 0.3990355 0.3094526 -0.042173434 0.2690593 0.22916044 0.05661904 -0.104897074 0.14775552 0.0032593478 -0.21209511 0.09871977 -0.05057257 -0.056385137 0.029084627 0.18011384 -0.120724715 -0.00624587 0.39570305 0.10171152 -0.09509711 -0.1690487 0.302541 -0.2917078 0.36023206 -0.08403039 0.14567393 -0.31380942 0.06297708 -0.57264227 0.035365872 0.13311522 0.5204783 -0.22360829 -0.16927773
C0041044 0.20859778 0.09030188 -0.12954053 -0.060354758 0.19954018 -0.12230828 0.30081078 -0.16261573 -0.34700578 0.071458995 0.123581454 -0.20981918 0.2939272 0.12556109 -0.36924085 -0.10802835 0.036407113 -0.17367412 0.09267491 0.53003556 0.31569326 -0.029369527 -0.14665478 0.03443539 0.15124114 -0.47770187 -0.12132462 0.30905983 0.13691057 -0.24240398 0.18619178 -0.28787374 -0.019840643 0.12682836 -0.5272386 0.33471528 0.03859518 -0.058353867 0.29687202 -0.26934794 0.03633193 0.12727892 0.17866112 0.1625442 -0.21189384 -0.2861993 0.39411473 0.12769462 0.14432979 -0.14315912 -0.31098694 0.06463643 0.17476606 -0.3413483 -0.1337022 -0.018027892 -0.24610198 -0.026962195 -0.37483358 -0.38082886 0.23986024 -0.31568387 -0.33973944 0.33263668 -0.25658065 -0.4376773 0.052434098 0.08282128 -0.068928376 0.4049785 0.24441303 0.2272608 -0.3261172 -0.33026534 -0.53252125 0.134741 0.6087835 0.4644232 -0.34887257 0.2749616 0.07633474 -0.10409679 -0.005411093 0.41749415 -0.06814989 -0.06542362 -0.100414075 0.13966027 -0.18589513 0.07629276 0.10819494 0.34279138 0.10194915 -0.03176259 -0.3095663 -0.27873433 0.03370634 0.4174458 -0.17768514 -0.5382383
C0352155 -0.13374521 -0.3075057 -0.42943293 0.1840925 0.017713215 -0.38872498 0.4687429 -0.23233666 0.3210596 0.8486901 -0.43226388 -0.30977246 -0.31265178 -0.61929166 -0.22181787 0.30107766 0.4337339 0.055068914 -0.15407857 -0.010085385 0.46350345 -0.007037262 -0.06566366 -0.022221034 0.09796592 -0.51468515 0.4601758 0.3887594 -0.38945818 -0.22381511 0.09386031 -0.2512093 0.22632563 0.32386073 0.11563063 0.1410451 -0.29133275 -0.26436463 0.1258316 -0.11234203 -0.15460806 0.026093243 0.12582427 0.29544166 0.202874 -0.32765687 0.5665587 0.052462876 0.23225017 0.010941905 -0.09185582 -0.21767864 0.019382013 -0.007045765 -0.06844231 0.08875586 -0.033609774 -0.21736881 -0.3467426 -0.077403806 -0.10340885 -0.33444968 -0.40673417 0.36206228 -0.45904094 -0.15033853 0.40969622 0.020178678 0.22373305 -0.08964881 0.29963028 0.11167334 -0.13293566 -0.19650449 0.029540747 -0.23443846 -0.05718842 0.21941283 0.20684429 0.55161154 -0.15036257 0.13085262 -0.62414443 0.09053777 -0.064712234 -0.1329865 -0.039482422 0.14170939 -0.33020237 0.09645259 0.054487847 0.2644077 0.3641972 0.091582306 -0.6266594 -0.26826414 -0.0019303657 0.17885579 0.06261666 -0.050697383
C0040341 0.0034828119 0.047986023 -0.2620131 0.09160472 0.10392281 -0.15730117 0.21522285 -0.42018467 0.057343923 0.10409591 -0.00045999268 -0.6438901 0.08366723 -0.6297987 -0.4892889 0.121436395 -0.1723908 0.07341575 -0.38311723 0.2914416 0.056245573 0.19178388 0.0061880127 0.13780141 0.09612758 -0.5253277 0.28078654 0.06239712 0.36688384 0.29650357 0.25665426 -0.4247674 0.09628226 0.35136297 -0.27945006 -0.25034395 0.15029068 0.1066618 0.22426257 -0.32211593 -0.09598156 0.29515755 0.11857305 0.26896447 0.5197161 0.131273 0.35660648 0.025724307 0.4631368 -0.010802021 -0.25032339 -0.08996877 0.06315814 -0.27262416 0.049917478 -0.100284114 -0.14114879 -0.15351613 -0.19112948 -0.09972156 0.28096712 -0.0647044 -0.42670235 0.393724 0.032672662 0.41854927 -0.103729405 0.04072323 0.2378354 0.67188096 0.17980601 0.20312001 -0.056248453 0.26508385 -0.34483746 -0.41313496 -0.09352435 0.45456374 -0.26507053 -0.079798914 -0.16486216 0.20149523 -0.06322556 0.042718407 -0.008497812 0.42943177 -0.38288537 0.24726631 -0.42164177 -0.08855445 -0.40687945 0.27632394 0.17119898 -0.062280547 -0.11042244 0.25040194 0.10570231 0.43278265 -0.5043218 -0.45895922
C0013090 -0.1162864 0.1540508 -0.0007753753 -0.00036761534 0.28434628 -0.3456427 0.24284905 -0.038937334 -0.28276515 0.046978988 0.11219837 -0.086389065 -0.096265815 -0.1998477 -0.5850232 0.027836066 -0.004502597 -0.39400515 -0.23619041 0.14929557 0.07964207 0.14375024 0.19108625 0.31170464 -0.10017759 -0.37236822 0.08581088 0.056006305 -0.16417453 0.06659967 -0.12908034 -0.13592911 -0.0004361695 0.13476011 -0.15246025 -0.056013018 -0.41651908 -0.20898265 0.09437586 0.0438724 -0.14426486 -0.048659667 0.4429801 -0.045140482 0.35342303 -0.4608448 0.124534234 -0.08680989 0.3193574 0.0334987 0.025200719 0.01585177 0.11080505 0.01740489 0.056940485 -0.10674643 0.1195832 -0.17099945 -0.098867 -0.031342488 0.15206902 -0.21179044 -0.10108557 0.51809037 -0.10451582 0.27513704 0.3369329 0.08213024 0.18550462 0.2703766 0.47373125 0.24177083 -0.10459733 -0.012530069 -0.10068277 -0.21455939 0.18990777 0.102179974 0.07437229 -0.1491572 -0.13216062 -0.04038531 -0.36524874 0.14497794 -0.68867415 0.15868165 -0.33675972 0.21047434 -0.27330512 0.29598865 -0.1697053 0.23027578 0.7432969 0.166152 -0.35795662 -0.28956905 -0.42722064 0.2748325 -0.0038737657 -0.012588344
C0042839 0.3251535 -0.011313387 -0.3733833 0.25025436 -0.08731788 -0.51737654 0.39821887 -0.31441784 0.116857216 0.04234392 0.20479363 0.33187416 0.005966766 -0.17616527 -0.0684322 -0.17419559 0.32042575 0.019407587 -0.3464125 -0.14614153 -0.17900847 0.2520223 -0.3462926 -0.29932874 0.3315116 -0.7404673 0.021054884 0.5934762 0.53728044 -0.10966389 -0.26018727 0.022835635 0.2157273 0.1219091 0.427088 0.17600366 -0.05508308 -0.2955343 -0.15216303 -0.33543393 0.08419757 0.22386539 0.5515204 -0.23877761 0.07511405 -0.06716581 0.34741068 -0.46011946 -0.054562323 -0.15226476 -0.3837016 -0.48215613 -0.14606725 -0.33251917 0.5002889 0.18739817 -0.26242703 -0.12160454 -0.4668818 -0.22689617 -0.2129068 0.25155348 0.059330102 -0.30690864 -0.45946437 0.009575525 -0.10486236 0.100308 0.21269426 0.35112765 0.022673806 0.25580886 -0.45639053 0.045790482 -0.18051544 -0.022878248 -0.090560734 0.28486755 -0.22289522 0.22419989 0.29571125 -0.158411 -0.3570295 -0.18162455 0.38166252 -0.19719872 -0.22923414 -0.26803184 -0.24333419 0.28572714 0.002316427 0.14432183 0.41201597 -0.024997473 -0.120681934 -0.37890518 0.39072448 0.5865703 0.03434186 -0.3292012
C0053230 0.3108038 -0.22571377 -0.05058815 -0.2102449 -0.20058823 -0.13244665 0.30888838 -0.18442275 0.1905809 0.3251157 0.19542086 -0.18276143 0.13326773 -0.3555263 -0.6169951 -0.04762356 -0.22734731 0.042111404 -0.25806364 0.2549304 -0.025738973 -0.15778634 -0.051797435 -0.4497303 0.35802338 -0.5086984 0.2768398 0.47586614 0.54598254 0.010048706 -0.013755636 -0.5030229 0.13320677 0.33465153 0.20180842 -0.2851198 -0.15142968 -0.55873775 0.360658 -0.36012647 -0.13493082 0.1193929 -0.04485381 0.35535368 0.46552393 -0.16161217 0.79904556 0.039234947 0.46542558 -0.20028302 -0.20544003 -0.54164624 -0.075996734 -0.14447421 0.64126223 0.0379874 -0.3299221 -0.02880477 -0.4253869 -0.0050523947 -0.42162153 -0.015116003 -0.35804158 0.27395427 -0.12552805 -0.26506937 0.30766904 0.22135474 0.060868844 0.3161436 0.23842005 0.19395705 -0.38579437 -0.16139217 -0.20544785 0.15154766 0.06494133 0.5609706 0.049260292 0.47090915 0.0006416259 -0.099606425 -0.2979046 0.08916284 0.07613452 0.20105617 -0.09209889 0.48300037 -0.26215854 0.0875176 -0.35682994 0.40755522 0.3930631 0.15840146 -0.79486054 -0.10087567 0.15267205 0.73563457 -0.02812618 0.033221364
C0028741 0.41418168 -0.10032965 0.20975389 0.8347059 -0.5588746 -0.0059837173 -0.13900165 -0.49472433 0.17169867 0.13161363 -0.10807064 -0.108120926 0.14904395 -0.16862497 -1.0133042 0.15492202 -0.3829484 -0.09407539 -0.19870284 0.30187094 0.12233761 0.06893484 -0.18490072 -0.09423124 0.23893245 -0.72608066 0.01590852 -0.13324676 0.059398763 -0.02690893 0.01128977 -0.11757237 -0.097821504 0.2012114 0.46660018 -0.20867737 0.29395112 -0.43648592 0.33959025 0.16249566 0.059595212 0.11428669 0.017519241 0.80855465 0.20282066 0.02511878 0.3619294 -0.020395027 0.14835177 0.22423322 0.08598535 -0.5016365 -0.049780626 -0.05868662 0.20619874 -0.18732898 -0.106159166 -0.55901676 -0.33373666 0.001921664 -0.15069398 -0.28955173 -0.60637105 0.17614011 0.25809932 -0.25719595 0.11192992 -0.1835247 0.23180752 0.66545653 -0.18843693 -0.29718047 -0.9279028 0.12548235 0.50537604 -0.11629554 0.09084827 0.4661216 0.07596037 0.46572745 -0.3400778 -0.26117378 -0.50291234 0.34888646 -0.011998529 -0.013683148 0.1092028 0.25034246 -0.015533718 0.49792588 -0.26675934 0.5669997 0.14136744 -0.09354139 -0.35796487 -0.32505158 0.40694973 0.23353414 -0.2188769 -0.22865939
C0023660 -0.023511598 -0.28057125 0.21688445 -0.076227635 -0.17226903 -0.2033476 0.15081277 -0.5439048 -0.11039831 0.035977814 0.10105835 0.014717717 -0.12208682 -0.47393188 -0.16910365 -0.13207924 -0.008611481 -0.28124636 0.2229502 -0.21965048 -0.39244953 0.02200645 -0.35548964 -0.11680795 0.17039847 -0.15140954 0.108283356 0.21663295 0.25521466 0.1269254 -0.09734025 -0.094576225 0.089789584 0.08172007 0.004886351 0.3933687 -0.10016052 0.3792201 0.4125139 -0.19423905 0.08544537 0.21971808 0.11171665 0.3496005 0.18604362 0.020562267 -0.43796173 -0.006202983 -0.09901443 -0.46329316 0.05400237 -0.06646345 -0.007229372 -0.018387318 -0.28112677 0.40417308 0.030280236 -0.26106912 0.011776186 0.27535167 -0.04724307 -0.13266693 -0.030287487 -0.15298826 -0.18920559 -0.19001001 0.80388075 -0.26075205 -0.38313785 0.098938696 0.14113894 0.36047623 0.0067465235 -0.025653256 0.018832982 0.37693712 0.23438114 -0.20824051 -0.039116327 0.34361672 -0.0013645111 -0.16793822 -0.48798016 -0.04846761 0.04645866 0.32304373 0.34148753 0.057865728 -0.09952368 0.07964721 -0.05832942 0.2398327 -0.04113355 -0.18259771 0.16463372 -0.19570567 0.08180195 0.20534523 -0.10035511 -0.12665778
C0029995 0.22241975 -0.15125974 -0.17669293 -0.17988288 -0.05205754 -0.462952 0.30171812 -0.23524293 0.08074626 0.53128386 -0.1759455 -0.05400228 0.0797503 -0.14814694 -0.4052644 -0.54042274 -0.09257009 -0.054500762 -0.022644045 0.12726377 0.05937808 0.14354815 0.22822367 0.011208941 0.3872856 -0.49917212 0.27120727 0.111052655 -0.00320424 0.009462116 -0.108565554 -0.5747782 0.10941131 0.63500684 0.31080815 -0.23593478 0.097775966 -0.07602994 0.18830359 -0.2482939 0.07304175 0.3749301 0.11243745 0.35205108 0.24914613 -0.36102322 0.28186482 0.033108555 0.7951 0.09345595 -0.18054022 -0.5429179 -0.14229158 -0.06716998 -0.043244686 -0.08089932 -0.2555869 -0.20887318 -0.129652 0.0628682 -0.2837982 0.068170674 -0.51724076 0.08428 -0.15613326 -0.1328425 0.34243 -0.03887392 0.18559049 -0.07114037 -0.040631197 0.24918151 -0.23223795 -0.062277827 0.1261618 -0.058465045 -0.15112945 -0.046798658 0.2665594 0.046244867 -0.28298748 -0.5451511 -0.0012757257 -0.22636825 0.14811206 0.0693598 -0.01837272 0.010452406 -0.54514396 0.17586036 -0.021506509 0.35706726 0.14569214 0.36347285 -0.43874508 -0.36207643 0.52457887 0.85579795 -0.18930195 -0.24359827
C0014806 0.036581405 -0.067959875 0.029486554 0.095413595 0.09354438 -0.56486434 0.006527056 0.04944039 0.24149004 -0.008519583 0.23055634 -0.43987462 -0.17929295 -0.48467225 -0.045114905 -0.13678563 -0.026224505 0.10681922 -0.32949108 0.34551248 -0.3253882 0.2092693 -0.1009267 0.09322067 0.033122536 -0.24833067 -0.25380477 -0.030456001 0.27721888 0.27538666 0.31288102 -0.21892786 0.10306866 0.31759354 -0.039093357 -0.26583278 0.29483396 0.004495381 0.09778507 -0.3107646 0.34928563 0.025629086 0.08663446 -0.13664415 0.3663095 0.03504378 -0.245868 -0.16368088 0.6882055 -0.13501619 -0.16414088 0.07404164 0.0448469 0.24552321 0.34364855 -0.047984812 -0.084855504 -0.22492938 -0.04196662 -0.5154568 0.31597453 -0.13153169 -0.034122217 0.077632934 -0.6142002 0.27499285 0.35142395 0.23658642 0.43445396 0.10005242 -0.124554686 0.3764226 -0.3567509 -0.065455616 0.0910983 -0.2987194 0.14789927 0.072556295 0.100586385 -0.28058544 -0.13871509 -0.072644554 -0.1686159 -0.03625863 -0.092882454 -0.05677448 -0.10180799 0.5667876 -0.08330269 0.3641323 -0.10110871 0.08424979 -0.020772438 -0.04909449 -0.27627838 -0.31886616 -0.25005692 0.48272 -0.71977085 -0.25494772
C0022322 0.41270596 -0.1612989 -0.38130096 -0.2819414 -0.3707959 0.109721735 0.37763837 -0.26137266 0.06339161 0.24901801 0.570173 -0.2287029 -0.05436001 -0.61620474 -0.42042598 -0.16925837 -0.12392105 0.19273695 -0.13996254 0.21600127 -0.064073674 0.30032924 -0.23564975 0.21953645 0.23638798 0.15488987 -0.014308497 0.20060863 0.24188869 0.1416146 -0.09961241 0.29212177 0.2936102 0.4159166 0.010103763 0.21625073 0.08769247 -0.1546723 0.15822485 -0.22510628 -0.33894974 0.12421606 0.4549024 -0.21919042 0.2627244 -0.44228557 -0.10693102 -0.20206766 0.22038749 0.0025890095 -0.5184161 0.13192637 0.13218306 0.106300175 0.07680543 0.09888585 -0.055190448 -0.08912331 -0.3400463 0.024793189 -0.14976832 0.15273897 0.27562696 -0.077709064 -0.39604577 -0.049941722 0.424752 0.14118683 -0.13339339 0.17097342 -0.11514666 0.14876272 -0.40018854 -0.22911885 0.29541734 0.27836528 0.283993 0.26443678 0.50190514 0.07429957 -0.0389545 -0.26450014 -0.23658222 0.27333534 -0.065614074 -0.01285071 0.03215457 0.72968525 0.013792145 0.28311157 -0.52149004 0.5951178 0.21696791 -0.07539262 -0.70614624 -0.30681008 -0.017366018 0.381568 -0.07667124 -0.5084278
C0026187 -0.22970806 -0.15031612 0.23739469 0.13440745 -0.2956344 -0.20015521 0.15337214 -0.18860057 -0.1381142 -0.09772156 0.2179734 -0.06714866 -0.093898505 -0.23552199 -0.23107845 -0.16836724 -0.13824807 -0.20921656 -0.34228387 -0.08302784 -0.0022154609 0.51375514 0.02586398 0.19546343 0.4008435 -0.5028132 -0.02349357 0.3748073 -0.09441151 0.0040866947 0.10544576 0.15580854 0.2780955 0.16146146 0.15708335 -0.09680186 -0.35969207 -0.07115332 0.1113489 0.26312113 -0.12013784 0.10008575 0.2752571 -0.4445355 -0.0146880895 -0.43154907 -0.1161751 -0.19067647 0.14240381 -0.24552013 0.08678556 -0.15229343 0.34636217 -0.11138671 0.012843336 0.30233455 0.1324475 -0.14466898 0.056568954 -0.07725339 -0.096871965 0.058553863 -0.31953278 0.21278371 -0.21229297 0.3375181 0.0016095947 -0.14089523 0.079907164 0.077378236 0.016410563 0.3893951 0.19642825 0.15273663 0.35640424 0.040142186 0.22084412 -0.3248752 0.047422893 0.3323675 0.16835164 -0.21873438 0.03684387 0.24062605 -0.4030067 -0.022387661 0.025105568 -0.123445705 -0.14380765 0.22965138 0.0722347 0.25057885 0.17215304 0.23682983 -0.5766491 -0.15947948 -0.09678909 0.07634614 0.10987977 0.13520189
C0209368 0.5039017 -0.081760116 0.20944531 -0.029113226 -0.2295366 -0.15004875 0.6138864 -0.4737368 0.11484482 -0.036274213 0.26589108 -0.030032894 -0.36614114 -0.11090084 -0.39519376 -0.3024279 -0.12871285 -0.14514631 0.033524446 -0.00028896608 -0.08951146 -0.05926243 0.50026566 -0.10589407 0.3124943 -0.6482646 0.13054106 0.16751553 -0.08081294 -0.109400935 -0.21160062 -0.1756363 0.03829522 0.21654008 -0.13338278 0.35229728 0.19614562 0.011514254 0.18773596 -0.14163604 -0.024062254 0.38213918 0.10179699 -0.24749148 0.19822922 -0.10532537 -0.123339884 0.13024151 0.06841481 -0.5020472 -0.066511594 -0.05865309 -0.38442293 -0.16801281 0.3940779 0.027236335 -0.07781511 -0.08732421 0.08277608 0.40126768 -0.19497143 -0.10605987 -0.18620078 0.13632229 -0.26247242 0.25672913 0.1852729 -0.033064358 0.07280042 0.1460726 0.16961439 -0.10378597 -0.46664828 0.13873029 0.067427784 0.25723633 0.18835066 -0.06942575 0.18031543 0.35816598 -0.28110078 0.44198942 -0.17425556 -0.17306258 0.13720651 -0.10097972 -0.0103205545 0.15807526 0.26051304 -0.053183094 -0.2638195 0.016565137 0.7028997 -0.09546534 -0.30862105 0.3819768 -0.057574984 0.31817952 0.23403658 -0.046100408
C0030840 0.07116191 -0.23610334 -0.49634087 -0.004441011 -0.13307142 0.0138056725 0.09916109 -0.08424495 0.22245806 0.6068908 -0.42007422 -0.20297278 -0.03113541 -0.42353877 -0.47224918 -0.01730878 -0.53243995 0.21134187 -0.014564923 -0.015059607 -0.14714912 0.2947759 -0.024255931 0.015027375 -0.10177611 -0.30674455 0.3580409 -0.06948053 0.010968299 -0.14313687 0.24766651 -0.5379213 0.2140591 0.40457946 -0.13222803 0.21140602 0.079056524 -0.18546505 0.21558098 -0.65187854 0.18922533 0.33266944 -0.083141305 0.19523434 0.32846314 0.13433006 0.389707 -0.12653887 0.39512947 0.09302574 0.04336293 -0.14829893 0.45312804 -0.13308333 0.0949079 -0.23088378 -0.09694038 -0.20180456 -0.085084476 0.15489514 -0.2776423 0.14199415 -1.0048687 0.4144298 -0.3979835 -0.27160838 -0.22530852 0.25143275 -0.0052564377 0.18407725 0.19439636 0.23274222 0.051814295 -0.111322425 -0.054508172 -0.36414823 0.667331 0.48551857 -0.07222151 0.048753936 -0.35525128 0.042419694 -0.340076 -0.02465899 -0.34973702 -0.13554429 -0.29981735 0.19857343 -0.033633675 0.04690197 -0.2816125 0.38230988 -0.14795816 -0.1877333 -0.3401868 0.10307439 0.16557683 0.4541449 -0.07315014 -0.2563956
C0304317 0.2897804 -0.1347637 -0.08860279 0.07213408 -0.1229867 -0.15756688 0.27461293 -0.5583231 0.21485914 0.3989013 0.27451152 -0.21731238 -0.13084683 -0.47870278 -0.83950466 -0.019827154 -0.22141466 0.008582212 -0.17865527 0.037232153 0.07420425 -0.1902045 0.021503478 -0.05178994 0.50217444 -0.41100955 0.20184661 0.40928978 0.6436235 0.04712843 0.058731485 -0.529975 0.046756513 0.50952345 0.1021782 -0.15794757 -0.0819191 -0.22125395 0.2875837 -0.50521123 -0.17949277 0.12904598 0.20900607 0.049472168 0.37408823 -0.18505116 0.57318485 -0.095398724 0.10342367 -0.011050064 -0.030986043 -0.468115 -0.06855752 0.00959691 0.05376719 -0.08443731 -0.29059803 -0.008465779 -0.20446445 0.18063946 -0.13503042 0.0740163 -0.5758833 0.13569725 -0.48430228 -0.015125948 0.4315319 0.07882227 0.054708447 0.27439833 0.05643728 0.030286256 -0.05305645 -0.1690226 0.1307397 -0.19543235 -0.1563956 0.31637695 -0.20826264 0.5027413 0.16860186 -0.11371677 -0.34054992 0.18835947 0.0089050345 0.017643621 0.09425796 0.44978577 -0.3950592 0.39444205 -0.43799442 0.718946 0.17096007 0.1387699 -0.6739328 -0.21038921 0.1721637 0.81344444 -0.008122482 -0.06751451
C0028978 -0.09287965 -0.26143184 -0.21525702 0.4108211 -0.15342568 -0.20111786 0.34609172 -0.12319152 -0.045832183 0.38222408 0.2499236 -0.25830758 -0.07609337 0.27259398 -0.3622255 0.09022746 -0.5012149 -0.5419754 0.080028854 -0.04083282 -0.40836748 -0.00031732852 -0.043882534 0.032893766 0.2729119 0.3654783 -0.15399714 0.28290707 -0.07906156 0.18743797 -0.033944115 -0.23646893 0.026126862 -0.10171728 0.41852558 0.20894293 -0.006865043 0.054783426 0.09782992 0.25865516 -0.52250135 -0.3528673 0.44513914 -0.12524796 0.22082667 -0.10365427 0.22042993 0.008956924 -0.13119063 -0.022530595 0.07035828 -0.15561573 0.102109104 -0.3096739 0.31589457 0.17796554 -0.05950592 -0.023947341 -0.3625164 0.25587302 0.19205655 -0.13131815 -0.36174268 0.047044896 -0.029101484 -0.2789139 0.4324289 -0.076177835 0.18358718 -0.005481473 0.53774536 0.29265136 -0.3638343 0.49768618 -0.048061784 0.11213227 0.08229524 0.03685019 -0.22869527 0.08493728 -0.05773278 0.038737424 0.03218547 -0.11724518 -0.22563675 -0.0028128265 -0.026062928 -0.20015924 -0.16958718 0.18004914 -0.05795291 0.32856813 0.4382345 0.12426692 0.12136958 0.06453283 -0.04376232 0.3881568 -0.014172185 -0.11559417
C0123091 0.11046312 -0.11027094 0.060594875 0.43681434 -0.23037063 -0.08208647 0.33629832 -0.20092049 0.31653357 -0.4601878 -0.13671334 0.0239747 0.08225506 0.3562166 -0.07063454 -0.031125296 -0.2989346 0.078388594 -0.22205633 -0.06978216 0.13427185 -0.04896279 0.2827334 -0.20294769 0.06841849 -0.21772732 -0.28534198 0.09381627 0.26757637 0.027849313 -0.29373536 -0.32701153 -0.024156129 0.22497244 -0.05844705 0.16597465 -0.09288684 -0.19105995 0.11955707 0.11626496 -0.26209086 0.119349554 -0.017075611 0.10010511 0.5047389 0.08223838 -0.023676828 -0.033316854 0.25179577 0.039764322 -0.15568128 0.03562221 0.28346238 -0.02727103 0.20731671 0.25176045 -0.03938628 -0.18347646 -0.31658652 -0.010647376 -0.24518564 0.15166806 -0.5462053 0.0951879 0.010554666 -0.15063487 0.19800676 -0.037487566 -0.38374153 0.005418276 -0.12344021 -0.20203339 0.0055876304 0.3181862 0.035168536 0.23737946 0.18704487 -0.13424753 0.03761095 0.22899705 0.1107136 0.20722926 -0.17851436 0.110065505 0.12340313 -0.14163163 -0.08100531 0.054995496 -0.0798745 -0.30776808 0.12557003 0.3124008 0.1301301 0.031517543 -0.41268313 -0.13955663 0.10290869 -0.09117831 -0.24648067 -0.012415477
C0017710 0.024279399 -0.4068173 -0.23965849 0.2194809 0.20795743 -0.20732008 0.009676546 0.30765045 -0.36604962 0.08390913 0.3222746 -0.21465547 -0.09368539 -0.21292505 -0.09490746 -0.27206978 -0.052704044 -0.17123044 0.30415058 -0.13776559 -0.15277402 -0.23478903 -0.18703696 -0.015188669 0.12702067 -0.6141682 -0.14553528 -0.027020397 0.34590945 -0.066457935 -0.0027832072 0.028267797 -0.23623605 0.066140585 0.2640198 -0.14353313 -0.3551837 -0.011784072 0.124036595 0.024774052 -0.036162242 0.19164273 0.22418186 0.20618169 0.31768748 -0.023652572 -0.151029 0.47435847 0.14065401 -0.025277661 -0.12665635 -0.031241996 0.16620138 -0.006560373 0.10498637 -0.10251963 0.046925798 0.012799299 -0.06009989 0.15188217 -0.27918065 -0.1035592 -0.10228583 -0.14657122 -0.3618433 0.08589595 0.38074604 0.14438602 0.22717074 0.11528559 0.115770854 0.111405775 -0.1480516 0.021879135 -0.22399347 -0.19179189 -0.09084887 -0.040655833 0.01159825 0.361427 -0.06473576 0.15011874 -0.28535366 -0.13055894 0.24498574 0.27645484 -0.019649101 0.099739455 0.33723405 -0.10602071 -0.23492946 0.08830513 0.36633983 0.09983386 -0.5588444 0.39243147 -0.016769731 0.16494206 -0.32627627 -0.10167156
C1260298 0.25868335 0.050235968 -0.17927074 0.033771046 0.17173684 -0.21234304 -0.021752102 0.02842202 -0.07510226 -0.17734675 -0.08031798 -0.4488942 0.104450084 -0.35211638 -0.68950564 0.27946275 -0.24672157 -0.20204581 0.15817185 0.28971878 -0.07777842 -0.04410137 -0.2981566 0.102472715 0.32608917 -0.47610247 0.41414604 0.0840356 0.028221982 -0.14748648 0.20032088 -0.5541496 0.3770396 0.49491766 -0.6890381 -0.06293445 -0.12804188 0.069926664 0.27518475 -0.19649114 0.24169545 0.16448052 0.3569465 0.113605395 0.16469535 -0.036221534 0.526916 0.101165 0.015509461 -0.13565296 -0.3385119 -0.07234438 0.41286626 -0.25405684 0.11635748 0.06243989 -0.11177778 -0.15341282 -0.38973486 -0.34631133 -0.1873474 -0.23277774 -0.55087537 0.49005717 -0.23898754 0.11598582 0.25625038 0.2723841 0.07549155 0.34191415 0.38315922 0.42653653 -0.10745787 0.3138046 -0.18605845 -0.24940145 0.049906064 0.10453748 -0.025612531 0.22685903 -0.07375313 -0.1307652 -0.170347 0.4465968 0.1566561 0.029356891 -0.17086057 0.32587272 -0.34894347 0.13571748 0.15832728 0.30910456 -0.20671925 -0.18243867 -0.691038 -0.23865509 -0.14486772 0.33218497 -0.11751601 0.054614056
C0250480 0.3221471 0.030015264 -0.2391744 0.26780534 0.12399528 -0.005058807 -0.017175687 -0.31645912 -0.089012444 -0.13910644 -0.008918233 -0.55072165 0.06383616 -0.23169856 -0.7507847 0.25598744 -0.25030354 -0.19359986 0.28996095 0.33203006 0.28223974 -0.057212405 -0.054102227 0.20861167 0.15589955 -0.4761048 0.5303088 -0.08707113 0.07704239 0.07553391 0.06365344 -0.12644263 0.39194545 0.5506497 -0.41005784 -0.04328957 -0.12849016 0.21389809 0.22523491 -0.14840712 0.28823873 0.35522106 0.080277376 0.13820256 0.42535964 -0.047186878 0.45069006 -0.05297255 -0.018792974 -0.17304651 -0.21551692 0.1431404 0.29518065 -0.3377321 0.24108587 -0.14673692 -0.106396735 -0.1927655 -0.36144805 -0.29246825 -0.11084395 -0.34799793 -0.45803356 0.43481934 -0.011051069 0.059559703 0.39077914 0.15263815 0.07967767 0.40255213 0.29288802 0.36704293 -0.012401833 0.0054455614 -0.25452656 -0.5054902 0.009642895 0.1085868 0.15721847 0.12583728 -0.02885795 -0.014176621 -0.16970898 0.261564 0.1759966 0.15851572 -0.27722245 0.18819837 -0.37104794 0.18795335 0.023576327 0.24192981 -0.035749048 0.08581451 -0.31521305 -0.18713897 0.09739071 0.40306813 -0.11696626 -0.2940589
C0028365 0.3772576 -0.30049437 0.033662673 0.024537396 -0.23098314 -0.44690374 0.35281467 -0.453322 0.17050087 -0.22163744 -0.07251874 0.36217648 0.0462212 0.000574559 -0.38365394 -0.13901702 0.0774946 0.122001365 -0.40083882 0.40474916 0.079985954 0.025310861 -0.03941499 -0.124253556 0.6403962 -0.43126145 0.20894034 0.2805542 0.39563978 -0.21135105 0.5174531 -0.31530875 0.124069415 0.3553385 -0.12770848 -0.24142247 0.20718627 0.22021043 0.13401026 -0.15293239 -0.3569181 0.33323905 -0.009150578 0.5070982 0.073627144 -0.010946606 0.54927117 0.28846756 0.24406554 0.038726818 -0.36971918 -0.27096167 -0.027451564 -0.32028833 -0.09594343 -0.3346366 -0.45073593 -0.26460484 -0.4636201 0.32043377 -0.15121612 -0.0037348277 -0.4529239 0.0021178152 -0.24502948 -0.31947067 0.32311726 -0.045014553 0.3657571 0.108772 0.38373077 0.39906457 -0.44311884 -0.16198568 -0.06188639 0.3497498 0.116261676 0.35272652 -0.24500707 0.4101868 -0.3799948 -0.14027238 -0.025614366 0.2349661 0.097341046 0.049496982 -0.49281928 -0.066852376 -0.36710954 -0.24727054 -0.3010737 0.2636768 0.2669845 0.41359025 -0.53273284 0.02871092 -0.12646556 0.5718838 0.13373078 0.03669388
C0052432 0.36242488 -0.15406361 0.06025132 -0.2571994 0.014636048 -0.58630735 0.29284975 -0.20555264 -0.23697321 -0.018691128 -0.05438138 0.036773544 0.16377692 -0.20532921 -0.55404747 -0.024217896 -0.109651975 -0.006095601 -0.19153988 0.12218263 0.21511264 -0.17449678 -0.2716762 -0.102805294 0.3595653 -0.20711388 0.3026997 0.35786352 0.17292872 -0.011611348 -0.10648332 -0.3641528 -0.014947756 0.39955926 -0.09280032 0.15609804 -0.09904456 -0.6929206 0.07718676 -0.29873008 -0.1869694 0.22888374 0.46825165 -0.020802988 0.14468825 -0.04851939 0.50062734 -0.25182948 0.05717285 0.21365649 0.1281689 0.021548323 0.1749309 -0.08513813 0.055919047 -0.23276152 -0.056558218 -0.31884643 -0.40144852 0.09446333 0.032345556 0.08404455 -0.40792352 0.007894135 -0.3982831 -0.14735438 0.26251644 -0.20198804 0.18670818 0.18937896 0.089633055 -0.12609565 -0.5082294 -0.18485984 -0.141313 0.42940304 0.048098546 0.68836224 -0.13662092 0.13761617 0.16762811 -0.077498205 -0.39367118 -0.31579208 -0.34541905 0.07116623 -0.044190835 0.46642295 -0.024727495 0.38797432 -0.48559377 0.4987711 0.54257905 0.031762797 -0.6065653 -0.579307 -0.11871631 0.6977908 -0.43110564 -0.32419348
C0700599 0.32341453 -0.1066969 0.21681537 -0.06350495 0.020429796 -0.34243697 0.32552662 -0.25354564 -0.25080675 0.035960443 0.27613497 0.033338543 0.20762427 -0.48057508 -0.16974857 -0.23337778 -0.10136527 0.22698584 0.11086784 -0.03938514 0.13788068 -0.16686071 -0.13866383 0.2845186 0.19524485 0.06389314 0.00023763333 0.4261654 0.26845574 0.052552905 -0.20178376 -0.28544626 -0.05542669 0.23875672 0.1353448 0.34135333 -0.27570248 -0.5253026 0.022894308 -0.482578 -0.07020059 0.43748337 0.38458148 -0.19873361 0.23063336 -0.23624092 0.30884075 -0.1545105 0.14905612 0.3804487 -0.2620149 -0.10660993 0.3513581 -0.33239245 0.26739734 -0.04070142 -0.15449451 -0.18471378 -0.28498957 0.026506927 0.07419852 0.20350449 -0.28791955 -0.2081841 -0.35858443 -0.19931926 0.04281987 -0.33866176 0.24491157 0.14484657 -0.15821286 0.13080247 -0.3904036 -0.30699205 -0.08908834 0.41756454 -0.17622785 0.48078096 -0.005851483 0.014902558 -0.016167179 -0.2936136 -0.46509886 -0.025448367 0.017009448 0.09999844 0.08032203 0.04910372 0.20020899 0.52731895 -0.17061101 0.3389319 0.51909536 -0.33311525 -0.3363679 -0.4834298 -0.15897179 0.6303305 -0.3367824 -0.16055512
C0055003 0.21948087 -0.03156093 -0.25544074 0.2809857 0.010816478 0.04536159 0.18310708 -0.1663244 0.037682712 -0.3100342 -0.124460265 -0.31401852 0.2532316 -0.12663563 -0.65752065 0.21262568 -0.39079776 -0.20956552 0.08777768 0.4396141 0.10531019 -0.0052066306 -0.23297425 0.13605906 0.20336276 -0.44786188 0.3352322 -0.18255477 0.17044362 -0.13022268 0.407342 -0.20171332 0.3600533 0.4262091 -0.6825091 -0.010520079 0.001053808 0.16300163 0.20211975 -0.38961485 -0.056451377 0.439675 0.029325958 0.4678476 0.16128452 0.08232223 0.3224245 0.0029389788 -0.099373534 -0.018345281 -0.21249646 -0.006567465 0.33241674 -0.20218718 -0.19453207 -0.26504144 -0.3071302 -0.13172615 -0.374069 -0.3161106 -0.036406312 0.02610304 -0.31673956 0.41793945 -0.18996233 0.038862742 0.26220986 0.10859761 0.19731343 0.307334 0.36833492 0.3292763 -0.048257057 0.16270065 -0.34617358 -0.30816615 0.055064864 0.14394169 -0.1358483 0.3437973 -0.28550056 0.027674707 -0.27083585 0.3495972 0.12259157 0.2520694 -0.29074126 0.29075974 -0.4953437 0.024687512 0.22795644 0.20979998 0.035834853 0.20580149 -0.3364004 -0.22800165 0.052794173 0.32575214 -0.24228406 -0.04147819
C0304320 0.3301059 -0.13806255 -0.10955137 0.19889487 -0.08783925 -0.1420911 0.14662834 -0.3983383 0.07302095 0.05935909 -0.026023991 -0.321019 -0.049284503 0.07494016 -0.58123547 -0.0008511227 0.03177077 0.092145525 0.2161788 0.5043753 0.049701232 0.07591239 -0.12143249 0.22570626 0.28932345 -0.49664405 0.3036808 -0.22154638 0.4640089 0.10425906 0.28070816 -0.19509646 0.15758593 0.38752732 -0.41269812 -0.25958207 -0.20463397 0.19537133 0.0070390496 -0.571647 -0.3357454 0.3674699 -0.18789001 0.26388863 0.07717412 -0.039501447 0.5169336 0.08769523 0.15446709 -0.18990268 -0.22163905 -0.20572913 0.09314646 -0.3920874 -0.060395364 -0.3125947 -0.35144612 -0.2388792 -0.28404278 0.023960307 -0.18449189 -0.15419526 -0.61663276 0.24243467 -0.24978827 -0.2889931 0.409744 0.26963103 0.15782088 0.19935769 0.48395953 0.5983394 0.08914781 -0.3413635 -0.45129216 0.039412737 0.40926504 0.1367025 -0.09870263 0.5194324 -0.1878727 0.25654563 -0.18960612 0.21264277 -0.062460322 0.009242801 -0.2487877 0.22891049 -0.17240292 0.07154948 0.32942578 0.13987546 0.33126482 0.4194456 -0.4653119 -0.24298063 -0.07380637 0.4902276 0.039318454 0.10179472
C0008269 0.36744592 -0.012280009 0.2838405 0.034973733 -0.070689745 -0.22500663 0.565044 0.04289925 -0.46420646 0.09203271 0.39070195 0.02205254 0.25360394 -0.051143795 -0.6063163 -0.20146433 -0.025118073 -0.15496941 -0.005242332 0.3732735 0.28161407 0.1323474 -0.079956494 -0.08086282 0.20632464 -0.11096718 0.14466439 0.15645254 0.14467442 0.2398898 -0.49731323 -0.09387662 -0.11071522 0.3952713 -0.16181526 0.18556291 -0.19936424 -0.36633018 0.08355257 -0.21155559 -0.12474236 0.11894623 0.5461571 -0.16441804 0.23085873 -0.31058547 0.17684376 0.24605852 0.22305846 0.30828646 -0.003611581 -0.07773904 0.29327294 -0.31947005 -0.03535381 0.20780145 0.20448649 -0.1593067 -0.052031964 0.23310687 -0.046954907 -0.043476366 -0.24067846 -0.017748442 -0.21746323 -0.28115708 0.1933672 0.047869794 0.37874037 -0.08450201 -0.04675717 0.021654 -0.3761943 -0.1109547 -0.08314028 0.44641107 0.14730862 0.6488529 0.061724816 0.14448933 0.11399336 -0.21878536 -0.47783974 -0.2820341 -0.35341403 -0.009466193 0.060549177 0.2854089 0.09143381 0.20574896 -0.5141002 0.42357543 0.449123 0.0011908984 -0.30636677 -0.11427171 -0.013699757 0.51559895 -0.33280346 -0.2712033
C0025872 0.060006365 -0.16795218 -0.10306854 0.31915572 0.21957648 -0.056676704 0.31950855 -0.26858953 0.03183183 0.1088244 0.17489454 -0.29569954 -0.11134474 -0.044168662 -0.48261988 0.18930191 0.016298804 0.1006346 -0.15097706 -0.0066238237 -0.18560378 0.13577174 -0.2133177 -0.015404133 0.22718222 -0.32336184 0.039191406 0.21172392 0.031954974 -0.105590545 -0.1701665 -0.5139601 0.059125714 0.36763358 0.12002775 0.30516684 -0.08071343 -0.4530861 0.06372197 0.09276971 -0.109846875 0.23158875 0.044823334 -0.20263529 0.14460956 -0.45953953 0.59805274 -0.47425228 0.10225682 -0.27523828 -0.27531305 -0.47879434 0.49515983 -0.17950979 -0.013884531 -0.14254817 0.05791793 -0.15253386 -0.27105024 0.18835153 0.16159882 -0.12520997 -0.28050038 0.2660579 -0.2755573 0.11662162 0.4861367 0.19808924 0.040168967 0.26474947 0.25344247 0.4260418 -0.55264854 0.31727046 -0.4251722 -0.3765011 -0.16203958 -0.08808838 -0.22808939 0.03441292 0.31668437 -0.051259436 0.20963481 0.26921627 -0.05996651 0.12217396 -0.08524644 -0.1678226 -0.28895798 0.31177232 0.062258225 -0.02791071 0.23445995 -0.41350517 -0.09936814 0.23374657 0.099132836 0.36197194 0.15628949 -0.18900363
C0032952 0.16093121 -0.4265993 0.26214293 0.13173963 -0.13624299 0.15483807 0.2068045 0.28582048 -0.04497923 0.06268236 0.48244745 -0.046873577 -0.10574329 -0.32571858 0.12256425 -0.61263984 -0.06028621 -0.056986034 -0.20972887 -0.40839806 -0.032039884 0.17311938 0.068500526 0.10225105 0.5190445 -0.6043247 -0.090739414 0.120816894 0.0016797613 0.1936405 -0.089009255 -0.37175247 0.08566152 0.14863281 -0.0078405915 0.122166134 -0.20170587 0.053541534 0.2170305 -0.30768743 -0.12526467 0.24766095 0.17838246 -0.23671892 -0.02952903 -0.14467177 0.16797817 0.09675414 0.5133345 -0.3398651 -0.06782533 -0.22714058 -0.08709147 0.08829344 -0.19013657 0.18794571 -0.009758754 -0.12539084 -0.019834772 -0.011348804 -0.17814884 -0.091444045 -0.21127488 0.1033297 0.022084925 0.40482432 0.052703425 0.01180867 0.029360518 0.2517105 0.49018794 0.43159258 -0.29062212 0.11648764 -0.029634574 -0.4078137 -0.08853132 0.31804705 -0.14014333 0.07360434 -0.100693315 0.2189081 -0.11082448 -0.36727253 0.059049025 -0.008211423 0.13422094 0.26326254 -0.13049525 -0.36391693 -0.033242125 -0.045805927 0.3281331 0.02617054 -0.22544801 0.2770932 -0.23648594 0.41499674 -0.13776717 0.0062620547
C0282215 0.35113406 -0.06318077 -0.03819919 0.5003964 0.18553303 0.0017083125 0.007826193 -0.03348579 0.22390732 0.3576857 0.12119787 -0.29586363 -0.07933161 -0.39233688 -0.7971364 -0.051515624 -0.24824767 -0.21149121 0.08891152 0.08951183 0.1255333 0.314501 0.08591872 0.07180263 0.4165556 -0.68142974 0.6393445 0.08980687 0.12998293 -0.113553025 0.0666007 -0.7037764 0.40896937 0.425718 -0.41680813 -0.10306348 -0.26178926 0.16479522 -0.0054281144 -0.19611764 0.200141 0.17712642 0.17412029 -0.0542762 0.06733367 -0.12809622 0.8149815 0.041361924 0.061459888 0.0407803 -0.102139145 -0.33226517 0.26489913 -0.1651676 0.0561635 -0.16815946 -0.10821661 -0.32518727 -0.5406363 0.05057584 -0.07607516 -0.12520261 -0.54838467 0.37945363 -0.14818363 -0.070011675 0.5288401 0.45777515 0.12425664 0.31875482 0.2346942 0.14665818 -0.048577763 -0.06559131 -0.20329054 -0.16195917 0.24488421 0.2812868 0.032752413 0.021531006 0.0839871 0.11453608 -0.20109878 0.16523296 0.1573627 -0.07622755 0.064060874 0.31345993 0.058438256 0.24100292 0.14999567 -0.017052788 0.048802424 0.1082083 -0.6027096 -0.5235464 -0.0849085 0.5229007 0.112180166 -0.25745392
C0085149 0.67146283 -0.20169808 0.013834266 0.09426107 0.15276551 0.106259905 0.6052991 -0.22850086 0.003281573 -0.21119641 0.41172388 0.057820953 -0.31856716 0.006519025 -0.03479416 0.02637499 -0.012932598 0.383159 -0.15588628 0.192853 -0.39745983 0.042152327 -0.21142933 -0.35139656 0.14283858 0.07279931 -0.12519026 -0.15553835 -0.06859199 0.031104675 0.16669998 -0.1748901 0.45141324 0.12386498 0.34789073 0.19431409 -0.0658018 -0.3848981 0.10348762 0.21172535 -0.022246948 0.070723295 0.019880144 -0.298002 0.49003085 -0.53966105 0.1259974 0.11772288 0.626408 -0.54896706 -0.19185972 -0.22925729 0.27551812 -0.10712033 0.23588431 0.2841493 -0.29715145 -0.16980316 -0.051318128 -0.009132845 0.07153948 -0.06604722 -0.1663363 0.1814034 -0.3126931 0.08608749 0.0041591153 0.11021585 0.19510409 0.12705748 0.015025558 -0.045278784 -0.3477086 -0.020511582 0.05357645 0.19609484 -0.11911235 0.26986665 0.17367406 0.36147916 -0.45707634 0.3809642 -0.3419873 0.09557447 0.12867469 -0.101182945 0.0060679903 0.41116005 0.27814054 -0.08123763 -0.07816906 -0.3094208 0.25330362 -0.058846377 -0.59736013 0.28852665 -0.44087476 0.053807326 0.03950559 -0.40578267
C0393080 0.32768822 -0.45176467 -0.0936232 0.65889746 -0.14825167 -0.06996698 0.3742739 -0.43600374 0.11028542 0.13127813 0.2767873 -0.4122532 0.28574362 -0.31224415 -0.87409014 -0.04564897 -0.2767358 -0.048441265 -0.086044624 0.44741207 0.15489459 0.26713836 -0.10200712 -0.015580361 0.49213555 -0.4503337 -0.109400615 0.15831736 0.17949916 0.1273842 -0.11194307 0.14816023 -0.16134778 0.47190386 0.13714041 -0.12872294 0.20918965 -0.29673493 0.15611073 -0.20965786 -0.40414947 -0.4163553 0.31802216 0.44844332 0.4930433 0.08385627 0.29064384 0.099440925 0.11797113 0.12746553 -0.14634089 -0.34878737 0.02806879 0.0050200005 -0.096877895 0.052779347 0.07207007 0.066085465 -0.21515386 -0.09672502 -0.24474461 -0.1024961 -0.38239905 0.3635461 0.15128376 0.26437753 0.3169161 -0.08973517 0.08855247 0.72117734 0.15235673 -0.20049064 -0.3578911 0.018477185 0.17633323 -0.29925573 -0.015077355 0.45325515 0.3149211 0.6401659 -0.41023147 -0.072752506 -0.2579774 0.3588002 0.17356932 -0.013379105 0.1927306 0.12912482 -0.21521552 0.49683225 -0.3756429 0.78964525 0.1489515 0.037926484 -0.22745845 -0.07722042 0.28599247 -0.01094583 -0.3272487 -0.44255844
C0936150 0.35629797 -0.051842466 -0.06535395 -0.17790431 0.09987423 -0.72345245 0.52473015 -0.21629262 -0.16905671 -0.1762515 0.082988 -0.00462167 0.1952509 -0.26617265 -0.47761366 -0.091503195 0.18104577 0.038392927 -0.15554623 0.009637319 0.21638657 0.010995673 -0.27462375 -0.084218904 0.29924536 -0.3334623 0.2528855 0.51999104 0.1714758 0.030900886 -0.25904384 -0.20927049 -0.27068397 0.3700344 0.0532288 0.08504789 -0.17529592 -0.63132954 0.11524319 -0.29366505 -0.021588717 0.31614304 0.65898216 -0.28695285 0.018933138 0.050873354 0.3215883 -0.122389786 -0.026780693 0.21128775 -0.116509534 -0.076899804 0.14429702 -0.23157312 0.15430324 -0.20989998 -0.15041389 -0.36235267 -0.25027856 0.0070674447 -0.20715515 0.028726567 -0.18871647 0.0075444262 -0.28976023 -0.23120537 0.25594208 -0.19784684 0.19716243 0.10570348 -0.08925658 0.15046486 -0.26906466 -0.370923 -0.04174979 0.35406372 0.04239417 0.7234157 -0.2711337 -0.0073042456 0.28976896 -0.14599939 -0.38921404 -0.4061437 -0.13935241 0.18588106 -0.017373914 0.31225944 -0.16530016 0.41972578 -0.43976521 0.35176072 0.6952141 0.103618816 -0.41360894 -0.6576941 -0.1755644 0.64125055 -0.33220533 -0.24932945
C0017436 0.42716333 0.05475248 -0.08226415 0.19833721 0.03107935 -0.21531801 0.20973936 -0.25742695 0.08823465 -0.18365672 -0.27336526 -0.3481428 0.22745654 -0.30061173 -0.759197 0.0953195 -0.110096 -0.08577993 -0.11055412 0.107380174 -0.3779786 0.1441973 0.030808125 0.30400968 0.015452029 -0.62287337 0.3205777 -0.066243865 0.14558908 0.21710593 0.10585249 -0.44736078 0.47964743 0.23043641 -0.4814842 0.11189406 -0.11817792 0.12445229 0.07197574 -0.21996142 0.10287963 0.5617814 0.20134866 0.4954998 0.14259301 -0.18116766 0.17641935 -0.17781281 0.06094423 -0.029363027 -0.24350183 -0.21257918 0.059223607 -0.10001627 0.352504 -0.198574 -0.049975578 0.118909694 -0.27504328 0.080688134 -0.056472186 0.11562009 -0.28273392 0.4916648 -0.1876319 0.3795192 0.40811297 0.1691879 0.25061902 0.65122044 0.4145181 -0.10695274 0.31140745 0.28302887 -0.65504825 0.045629393 0.21102628 -0.08980633 -0.30983987 0.15705687 -0.04421041 0.4105397 -0.0660148 0.49709678 0.22770435 0.046303954 -0.17626636 0.23688535 -0.1364861 0.22892034 0.09054874 0.17781085 0.10662154 -0.0032605736 -0.26025045 0.08058177 -0.09323999 0.48227882 -0.36019853 -0.020306488
C0032857 0.09144056 -0.2949162 -0.05914883 0.18292998 -0.11061726 -0.2390608 0.40250036 -0.42304397 0.2888574 0.2024632 0.17864479 -0.23345515 0.11878345 -0.049577232 -0.41564468 0.12806849 -0.46963108 0.18316881 -0.2444225 0.19092415 -0.0049020997 -0.28042486 -0.096581064 -0.09018016 0.10149344 -0.42229074 0.44367617 0.2765158 0.072826825 0.022627765 0.048765592 -0.43749303 -0.04035573 0.3352477 0.083820954 -0.31276223 -0.18907951 -0.28165874 0.32263115 -0.0689558 0.22472231 0.647418 0.0960187 0.3450338 0.0863813 -0.33674955 0.43898326 -0.06795136 0.27302876 -0.1938835 -0.016396381 -0.71647364 -0.07887286 0.21731569 0.034113977 0.2304204 0.06957618 -0.12168078 -0.52469975 -0.09817285 0.11235908 -0.04646645 -0.8123144 -0.031517748 0.019100603 -0.23785372 0.18063833 0.040881526 0.45044938 0.35213616 0.10993227 0.58692926 0.14198871 -0.031375125 -0.22250557 0.19933474 0.12489562 -0.003198387 0.5557678 0.3188181 -0.14581852 -0.15777174 -0.22894031 -0.3992278 -0.0056865187 -0.009938037 -0.2884698 0.45850146 -0.15891437 0.47916633 -0.4089907 0.49334082 0.20365684 0.068595156 -0.16844618 -0.10474172 -0.07264912 0.11571482 0.3753474 -0.07547206
C0007716 0.4294271 -0.4149489 0.12120757 0.08227172 -0.04201532 -0.5059154 0.12933785 -0.21085347 -0.20128182 0.08069647 0.24086222 -0.4704402 -0.340732 -0.20615904 -0.38961104 0.18650497 0.07166324 0.04231739 0.20292561 0.14084147 -0.07223318 -0.26624575 -0.101505235 -0.042775303 0.04733777 -0.48413467 0.43242782 0.05324514 0.58131784 0.19167705 -0.026258817 -0.68115 0.2678211 0.7931889 -0.2793711 -0.19219472 0.057526134 -0.18023595 0.46612117 -0.06518221 -0.096194044 0.21186496 0.5685247 -0.15605521 0.42808968 -0.30916852 0.5085751 -0.4052863 -0.25310433 -0.10047529 -0.4457124 -0.32273054 0.10267932 -0.25481877 0.45559707 0.29955104 -0.17135833 -0.38547075 -0.058492806 -0.32110235 -0.3524564 -0.5674754 -0.86338973 0.19834991 -0.24095489 0.04165253 0.13521598 0.19271076 -0.35437736 0.55077976 0.1742504 0.09624424 -0.0450809 -0.11388234 0.4642824 -0.24772231 0.06274356 0.20837346 0.066594414 -0.029800452 0.08145373 -0.28013408 -0.34706086 0.611858 0.25434038 -0.23970234 0.10942134 0.33732054 -0.34832966 0.09854127 -0.23947953 0.3470181 0.22031215 0.5128306 -0.5255415 -0.48385042 -0.33534092 0.52283347 0.08618755 0.19593443
