1317 100
C0020443 0.120791085 0.028994944 -0.03792449 -0.09157401 -0.0055196625 0.011545186 0.18086223 -0.1635047 -0.033914633 -0.08914913 0.022774858 0.40610164 0.028858846 -0.37104335 -0.15751792 0.16362292 -0.13223553 -0.20779668 0.10796834 0.053575676 -0.06389338 0.062140398 0.20956077 0.07060672 -0.012198289 0.15045322 0.16742325 0.018208578 0.088329576 -0.10832187 0.146245 -0.09487989 0.21544163 0.07350116 0.0016267198 -0.13805695 0.047263958 0.002591166 -0.07815245 0.16467161 -0.12904835 0.07793756 0.054662827 0.07215323 -0.11546637 -0.056498066 -0.011591812 0.0921429 -0.14454456 -0.28024295 -0.13658693 -0.043297768 0.15579408 -0.33618677 0.08850353 -0.12190549 -0.042853076 -0.3128559 0.17440356 0.062226795 0.072055936 -0.24484551 0.18862087 0.2245911 0.26451916 -0.093017824 -0.09443162 -0.10535655 0.00990761 0.013112357 -0.18225396 0.0032289748 -0.3135489 0.26941186 -0.34371665 -0.09277382 -0.015187679 -0.06320733 0.12557302 0.11818235 0.12167218 -0.090628125 -0.081758015 -0.4530265 0.22051279 0.07876071 0.008837764 -0.012592773 -0.044267766 0.15526731 0.3410798 0.007325433 -0.09346313 -0.16555883 -0.138401 -0.016668282 0.19747384 0.22364101 -0.21469751 0.30192372
C0085542 0.2607398 0.11996048 -0.16404781 0.20817876 0.14914541 -0.00080397906 0.17758897 0.0902306 -0.07939357 -0.08640899 0.16803764 0.26275915 -0.117712215 0.25916842 -0.2435221 0.2441801 -0.22366638 0.011015167 0.40577126 -0.15853772 -0.057881888 -0.096191876 0.1991016 0.5107908 -0.036250528 0.17332862 0.13529159 -0.13211738 0.41330943 -0.14332071 0.034885883 -0.12073906 -0.31796587 -0.37476933 -0.045017958 -0.025964733 0.09277267 0.17624432 -0.1244356 0.016025165 0.15507776 -0.16502778 0.239211 -0.2269797 -0.27496025 0.26882422 0.010368694 0.09052967 -0.06302848 -0.38842842 -0.32886654 -0.1962415 -0.04036045 -0.17488135 0.17404376 -0.10996704 -0.017280623 0.023596995 0.0334293 0.2136856 0.20507918 -0.6333286 0.57068604 0.37379137 0.10037452 -0.22861683 0.0792042 0.08506837 -0.057397027 0.06689899 0.059570163 -0.24344286 -0.32003307 -0.11772818 -0.2179786 0.32584217 -0.21432894 -0.49173933 0.0113540115 -0.0393578 -0.23013382 0.063010775 -0.20321037 -0.4000104 0.33136183 0.63970834 0.4393812 -0.05739454 0.2483583 -0.10221546 0.28436452 0.15011923 -0.13794932 -0.054202814 0.0019923693 0.15714322 0.38403174 0.48308128 -0.50720966 -0.03506155
C0286651 0.12684576 0.1664019 0.023882464 0.006482169 0.22982338 -0.104682654 0.31006473 -0.086941995 0.050095234 0.0287451 -0.016243527 0.29392418 -0.20738123 0.21143398 -0.15496944 0.47974366 -0.1441698 -0.42823762 0.21873121 -0.12851687 0.00494166 0.2113119 0.087504365 0.32881907 -0.07428814 -0.2900074 0.45189562 0.06847208 0.21365443 -0.2300436 -0.036487743 -0.20827684 -0.21543545 -0.5232249 0.07577447 -0.19872609 0.0741227 0.098376594 -0.07858358 -0.18128769 -0.029215448 -0.106221326 0.020012511 -0.26644298 -0.15303887 -0.07952925 0.13637799 -0.014086974 -0.28643265 -0.4821389 -0.37111682 -0.014640245 0.23182273 -0.09344161 -0.10878417 -0.041365188 0.10807093 -0.106872804 -0.16525778 0.07381485 0.10567748 -0.40192953 0.42030695 0.11157235 0.12686345 -0.2635072 -0.104424216 -0.2017816 -0.29298934 -0.14936563 -0.051201906 0.028810084 -0.26747844 0.11624749 0.017155806 -0.27266517 0.26949784 -0.3230207 0.36942926 0.16788805 0.20028146 0.16243434 0.055958502 -0.46685088 0.2941511 0.15678875 0.1489281 -0.40403685 0.27387396 0.15192105 0.009873388 0.3778242 -0.40736046 -0.14515217 0.13362218 0.26504713 0.080602154 0.42720413 -0.22062926 0.14110652
C1142985 -0.011106348 -0.014265186 0.03893764 0.34553024 0.39032272 0.28257722 -0.017723586 0.09663408 0.14694875 0.08931837 0.1925985 0.37961733 -0.08904198 0.14776541 -0.56268793 0.020113166 -0.2554415 -0.45971298 -0.13700794 -0.18150607 0.03612097 -0.18062079 0.008851675 -0.19233337 -0.37689316 -0.04234198 0.36430132 0.11779145 0.1672202 -0.20643054 -0.12835726 -0.19480555 0.20710914 -0.52624726 0.20425673 -0.23958403 0.18384604 -0.26979548 0.028414749 -0.2160379 -0.008538215 -0.10825332 0.04208599 -0.23538151 -0.37307495 -0.15772912 -0.12796167 -0.061262887 -0.102259435 -0.33861995 -0.34804177 0.118865535 0.27463877 -0.13957186 -0.043306697 -0.3867909 0.0831855 -0.16954364 0.18766558 -0.19176602 -0.20688128 -0.52615243 0.70129746 0.5099288 -0.10593024 -0.0076437523 0.014424287 -0.17641516 -0.20727366 0.020885259 0.16767147 -0.28834498 -0.34777823 0.19117975 -0.16296074 -0.19755726 -0.023345163 -0.26277873 -0.016516794 0.4993804 -0.23647524 -0.105329484 0.08357264 -0.25404057 0.22901009 0.14070387 0.21974233 0.03292402 0.124383695 0.30051276 0.18437645 0.47778484 -0.30612308 0.020140788 0.028932022 0.14420208 0.2863081 0.51718915 -0.09552863 -0.06538712
C0032042 0.119970225 0.24203582 0.05888006 0.073781386 0.458637 0.18686812 0.4430634 0.19496691 -0.33944964 0.25255328 -0.1899382 0.06163425 0.112917654 0.013487488 0.29540828 -0.3355905 0.036057662 0.17131701 0.060648076 -0.029687881 0.06679327 0.045315202 -0.25048938 -0.11817715 0.06532393 -0.14146194 0.4402468 0.0643499 0.23588602 0.012630929 0.15625024 -0.4770627 0.012785058 0.10478402 0.08792005 -0.15679193 0.17139749 0.02893236 -0.056362804 0.1911203 0.056121174 0.19074762 -0.15160298 0.3957291 -0.15048148 -0.315968 0.18144608 0.12522577 0.040716458 -0.3523976 0.16481714 0.1180203 0.08883443 -0.116936155 0.003578154 0.27265304 -0.035421874 -0.1250503 -0.11332809 0.18328713 0.097134344 -0.46708766 0.42873263 0.32495794 -0.04394293 0.06520107 0.07007784 0.08026776 0.1457746 0.06901971 0.05324488 0.030889524 -0.25591314 0.24345307 -0.1110624 0.06341518 -0.009664189 -0.037408784 -0.034942333 0.33690837 -0.072398104 0.15686777 -0.24779493 -0.16683573 -0.11222277 -0.21385185 -0.221587 0.05199491 -0.0655363 0.042126287 0.22248632 0.1420485 -0.23767743 0.0035535805 -0.35073167 0.118753485 0.043435004 0.30783048 0.0117013 -0.10704069
C0989914 -0.034233835 0.5106343 0.20737982 -0.05209523 0.27455452 0.05272404 0.35183442 -0.29125294 0.3296068 0.26444343 0.15360819 0.58655494 0.046638932 -0.25090027 -0.1870268 0.14107372 0.022649486 0.18513545 0.051070865 -0.120267265 0.090856686 -0.23695055 0.091104716 0.3012293 -0.41781873 0.102659866 0.26780972 -0.06521025 -0.24187508 -0.46594018 -0.11271536 0.016931044 0.2744317 -0.33323961 0.19961098 -0.39735615 0.17967664 -0.15239629 -0.5537319 0.29549184 -0.28989747 -0.04563271 -0.04665437 -0.18558648 -0.49093202 -0.06779512 0.0989831 0.2824104 -0.09708886 -0.38866124 -0.074058585 -0.31377953 0.2453756 -0.043105084 -0.12698074 -0.48792958 -0.0017724258 -0.3321151 0.3681349 0.42118254 0.23851803 -0.73413897 0.69276035 0.31754443 0.285297 -0.2626324 0.43404654 0.2960617 0.09681795 -0.07769858 -0.042275403 0.037843525 -0.18281429 0.34885177 -0.70221955 0.30739966 0.05798823 0.015320793 0.06456635 0.5393977 0.0026444264 0.16833165 -0.2790121 -0.7029027 0.362202 0.20824294 0.22149281 -0.14301804 0.084838025 0.07635002 0.20968756 0.19373131 -0.16797933 -0.22811317 0.14992006 -0.28360543 0.30110464 0.2871009 -0.48799267 0.14543904
C0082608 0.121563666 -0.0373153 -0.19592656 0.2681404 0.3597922 -0.26131713 -0.0723749 -0.13303284 0.4219232 -0.08002137 -0.253874 0.2032164 0.17732966 0.053984653 -0.536262 0.32012412 -0.13324861 -0.063080505 0.099703714 0.072623596 0.28771508 0.03526392 -0.025936065 0.26619938 -0.6627595 -0.02816645 0.39365444 0.14087358 -0.06805219 -0.43715754 0.14173429 0.16260362 -0.0074683926 -0.4625728 -0.19919725 -0.3429166 0.25090095 0.1236299 -0.23947142 0.13171013 0.17904635 -0.116703615 -0.064088196 -0.012839092 -0.27123284 -0.27166563 -0.32733753 0.35889187 -0.34397474 -0.33886045 -0.5107483 0.051030654 0.50504273 0.027620884 0.33056462 -0.19271743 -0.06455422 -0.15858844 0.35829455 -0.005691174 -0.029333627 -0.6232675 0.2197243 0.5346131 0.08366028 -0.12713294 0.29906923 -0.05282051 -0.13031495 -0.09465087 0.031483036 -0.053050578 -0.04972713 -0.19520104 0.046913482 0.046404004 -0.078203425 -0.101729415 -0.16077076 0.44878334 -0.36340407 -0.19395944 0.007952531 -0.5586658 -0.116752714 0.24286097 0.1447726 -0.3162412 0.19662942 0.495912 0.28516144 0.18386927 -0.1922856 -0.12922949 0.2876484 -0.017119821 0.18540776 0.4060935 -0.41620708 -0.23760699
C0074554 0.28949085 -0.025034405 -0.05801893 -0.0026836991 0.30159023 -0.011781884 0.45357725 0.16075923 0.12658365 0.092520274 -0.06225013 0.20812543 0.011937792 0.161197 -0.12922782 0.3956914 -0.36971343 -0.38453263 0.28433535 -0.035203893 0.06919516 0.0037999603 0.12317831 0.3664193 0.028291801 -0.42154503 0.5334138 0.087141745 0.11882666 -0.21039405 -0.120807834 -0.201472 -0.223654 -0.49652445 -0.059122425 -0.17400253 0.22612067 -0.032812025 -0.050459683 -0.31555977 -0.01499482 -0.012798339 0.002066772 0.06763077 -0.09666343 -0.06952431 0.0212115 0.0772724 -0.40042368 -0.50768834 -0.2735525 0.21903722 0.2591604 -0.0038926145 -0.14085607 -0.18690026 0.1673125 -0.23270197 0.05133905 0.36810306 0.07870776 -0.62280643 0.29432392 -0.05552133 0.18010218 -0.02731539 -0.21504271 -0.045330156 -0.32688135 -0.08304766 0.032563396 -0.34155917 -0.07596812 0.01458445 -0.07413045 -0.06314267 -0.088360466 -0.35595068 0.18979433 0.2728934 0.29862726 0.21103239 -0.15430047 -0.5100175 0.252086 0.35599232 0.14125097 -0.40466568 0.14350682 0.14873727 0.01819414 0.29103845 -0.3394953 -0.043507796 0.29653895 0.062224545 0.06238936 0.23437487 -0.20932621 0.0683274
C1331111 0.2550262 0.5181934 0.22531104 0.08315258 0.036870897 -0.10177253 0.32909617 -0.017466629 0.19643317 0.15408124 0.048253853 0.24489757 -0.17130432 -0.15762605 -0.46197063 0.17244406 -0.19737498 0.042845484 0.04125802 -0.14420488 -0.15373659 -0.34963658 0.28006956 0.1944154 -0.20766073 -0.28304097 0.011565248 0.19570781 -0.051830076 -0.38462117 -0.17949565 -0.1515729 -0.22163881 -0.020086354 0.116058536 -0.2292529 -0.07242741 -0.28194332 -0.14485617 0.026179535 -0.2354479 -0.24977545 -0.092147075 -0.3729071 -0.26055044 -0.59489435 -0.015532869 0.42125562 -0.26629645 -0.33433405 0.11957957 0.12739928 0.36219472 -0.09120093 -0.358077 -0.5704784 0.14685896 -0.4902926 0.2048425 0.20481624 0.002722074 -0.8010795 0.64908624 0.17833675 0.7812739 -0.1361993 0.11610649 0.43195435 -0.32511878 0.33443284 -0.132615 -0.22544572 -0.33252117 -0.11389938 -0.7087236 0.008388933 -0.21926405 -0.45979416 0.082817316 0.35143858 -0.21728653 -0.07215884 -0.054829475 -0.6210946 0.66284215 0.1025491 0.19614965 -0.048429966 0.1612411 0.13366346 0.40656015 0.51212406 -0.41516444 0.04514531 -0.28920877 0.17792372 0.19075225 0.1736021 -0.41137025 0.17005461
C0014912 0.050501943 0.38871017 0.26195174 -0.22408204 -0.079545684 0.16703238 0.3854872 0.25928807 -0.325968 -0.38942605 0.54164964 0.03921016 0.38131815 -0.15731607 -0.45996913 0.055108894 -0.3803278 -0.17128749 0.22659013 0.23814017 -0.20160423 0.10192026 0.029210258 0.29095948 -0.17170681 -0.11885263 0.24480437 -0.123413295 0.13117619 -0.51587015 -0.08191589 -0.035433274 0.19616908 -0.2566795 0.025759166 -0.27872652 0.4703002 -0.28308198 0.32124367 -0.11492882 0.20173225 0.15581678 0.13657613 0.040155742 0.0043900684 0.11249017 0.13534296 0.17970443 0.25962457 -0.52873296 0.38465333 -0.11571642 0.35053295 -0.1996644 -0.15644749 0.20501481 -0.06761442 0.03546509 0.15292321 0.18716477 -0.040912803 -0.108688414 -0.043426752 0.18605357 0.00807299 0.023056393 -0.12728228 0.08743701 0.02430057 -0.14559634 0.31358352 0.053632252 -0.15370786 -0.116201125 -0.22196515 0.021001706 -0.23699647 -0.3533181 -0.041789733 0.050698876 0.01381985 0.16342618 -0.18904573 -0.36682943 0.050419897 0.1675537 -0.05783004 -0.08779487 -0.31150648 -0.37915322 0.236818 0.24985814 -0.40133023 -0.3290572 -0.12286658 -0.39331174 0.5256295 0.38847825 -0.02211086 0.12921518
C0989915 0.24060778 0.47612107 0.34213233 -0.10778264 0.31297368 -0.13622046 0.7529851 -0.13124962 -0.03972808 0.15034032 0.25592032 0.58577096 -0.16316439 -0.38350707 -0.02327584 0.33255982 -0.38329494 -0.081748195 0.0152536975 -0.15420686 0.08675959 -0.31278858 -0.2097641 0.43765536 -0.32448682 0.14795066 0.41652513 0.11179645 0.16246523 -0.40221468 0.057048652 -0.049964264 0.4015694 0.0035492696 0.13905025 -0.2704957 -0.11456558 -0.09514356 -0.4487313 0.20346075 -0.45804298 -0.03787169 -0.16736645 -0.2244799 -0.4620502 -0.23430422 0.5005372 0.4627965 0.073894404 -0.22844689 -0.18027072 -0.48644742 0.35119864 -0.14742959 -0.11216785 -0.41173187 0.024290157 -0.5966236 0.20473422 0.3523584 0.032009132 -0.74770725 0.61720145 0.48770505 0.5327362 -0.16695195 0.29583788 0.5862118 -0.09784295 0.04078067 -0.10656494 -0.22929133 -0.20339064 0.3449246 -0.682125 0.26609188 0.24399678 0.1459791 0.27947682 0.5449367 0.0681604 0.11357526 0.01193603 -0.75870943 0.4274819 0.41403836 0.17194515 -0.12832947 0.29232353 -0.17817412 0.47600034 0.2952663 -0.05701047 -0.04433231 0.19050054 0.06803128 0.20043959 0.2418481 -0.19095278 0.21006042
C0965129 0.1580296 -0.09416797 -0.18793634 0.32669488 0.17714721 -0.19232096 0.07926976 0.092441685 0.1254342 -0.051772445 0.13183206 0.33228564 0.1450122 -0.09798471 -0.2012332 0.2896241 -0.2139758 -0.08991435 0.28875914 -0.1713978 -0.03430245 -0.18478811 0.1959084 0.39825657 -0.39631012 -0.087162115 0.2206537 -0.19084232 0.38057983 0.027435444 0.2962345 -0.17446434 -0.04846389 -0.5793588 -0.0072405655 -0.3016697 0.20108101 0.17381875 -0.08853579 0.11793626 0.058145106 -0.13900772 0.20939726 -0.21941292 -0.13369405 -0.072656184 -0.103764445 0.36048183 -0.063321896 -0.43736333 -0.52973545 0.01682417 0.32559723 -0.1233907 0.17246619 -0.16531385 0.115085736 0.008803723 -0.17005986 0.130828 0.2122409 -0.3952048 0.55710363 0.2589279 0.30226052 -0.17226318 0.044105135 -0.114756465 -0.20089138 -0.08843168 -0.09807867 -0.23657049 -0.28002208 0.016368423 -0.13632782 0.13546742 0.027624436 -0.45998937 -0.064851 0.11546298 -0.106395684 0.0072697564 -0.1288233 -0.49115047 0.3259531 0.38663244 0.3240131 -0.067187965 0.27939823 -0.082653485 0.3068074 0.30423945 -0.06688234 0.03534324 -0.06263877 -0.12545851 0.0066880006 0.41721597 -0.5197851 -0.18004009
C0360714 -0.021489985 0.10095135 0.14269444 0.29741257 0.12054626 -0.16464376 0.1333402 0.26091883 -0.0909795 -0.088912345 0.020159079 0.2490687 -0.045510046 0.19606091 -0.11203938 0.1951581 -0.22781506 -0.25798628 0.21333373 -0.10324382 -0.11526327 0.19303313 0.13886496 0.36430576 0.09840873 -0.025776982 0.34435195 -0.16940543 0.19253239 -0.40884238 0.001299148 -0.05929359 0.13235429 -0.52702695 0.22265697 -0.2691355 -0.038055867 -0.07355635 -0.25682598 0.023786396 0.03915115 0.18128504 -0.18972012 -0.06603721 -0.31974804 0.15923412 0.00012776518 0.13407286 0.059952963 -0.45183328 -0.32762554 -0.092792474 0.13212638 -0.28658152 0.12800448 0.07624396 0.041463766 0.075206846 0.055311915 -0.0976541 0.050900426 -0.19128294 0.33844525 0.54373187 0.16305967 -0.06329281 0.19517887 0.01024685 -0.42616355 -0.24667653 0.26856604 0.017169116 -0.38714477 0.312407 -0.081307516 -0.16807048 0.16166778 -0.3751279 0.44086924 0.03480307 -0.1983309 -0.2505019 0.16863339 -0.44484884 0.124298885 0.012929198 -0.0057439725 -0.10061363 0.016518993 0.05930444 0.21253987 0.11840634 -0.14333941 -0.17535265 0.022544397 0.20435882 0.17860429 0.29551545 0.06494702 0.14489481
C0948265 0.62266326 0.3367686 -0.029055249 0.22852078 -0.19122596 0.03803973 0.39145514 -0.18151571 0.1717338 -0.06292018 -0.0027949756 0.095481604 0.025306499 0.16035867 -0.39294374 0.52395177 -0.09832909 -0.14050746 0.33675134 -0.15549739 -0.05600912 0.09767034 -0.08690835 0.20368393 -0.059116706 -0.31029987 -0.066352226 0.08330446 0.061746452 -0.11484271 -0.11362744 -0.50089914 -0.5133193 0.020726386 0.15276958 -0.19573008 0.028030355 -0.2702114 0.504577 -0.40584537 -0.02118652 -0.34174266 0.010641029 -0.20406298 0.13729466 -0.30353686 -0.08305436 0.6170557 -0.11574705 -0.6803902 0.24875687 0.23266771 0.56172687 -0.0433006 -0.23584335 -0.29518852 -0.45721844 -0.10454752 0.15311036 0.510231 0.07788864 -0.45059967 0.21327719 0.010557793 0.34191108 0.054343097 -0.12438002 0.04821962 -0.27858686 0.10790424 -0.22758034 -0.22984123 -0.20858341 -0.2899057 -0.28657496 -0.018729616 -0.19747108 -0.49118787 -0.114475936 -0.0026303013 -0.28341326 -0.42795572 -0.28683585 -0.20571308 0.26182517 0.07992084 0.08969342 -0.16089693 0.08758965 0.025388697 0.3693716 0.4247705 -0.2142889 0.0065962635 -0.43857595 0.104076274 0.22032943 0.32650167 -0.21655184 0.110219516
C0073393 0.18115036 0.01666178 0.5403327 0.22605611 0.09117936 -0.10126319 0.43497422 0.07066132 0.24112493 0.2474305 -0.109844625 0.46719018 -0.04427457 0.05088372 -0.0067689023 -0.12649809 0.032693256 -0.20327003 -0.20957582 -0.20275468 -0.29699552 0.044319198 -0.27282345 0.13761042 0.11636154 -0.11284031 -0.02505651 0.021166425 -0.05703687 -0.16535974 -0.0129923 0.0037884812 -0.04299515 0.13212018 -0.15649837 -0.22698142 0.24482884 0.048708472 0.45368508 -0.19745927 -0.35956308 -0.009688257 0.17648637 -0.04223341 0.4542741 -0.05533664 -0.21780786 0.49234018 0.040539574 0.015319821 -0.27943227 0.46736813 0.25414678 -0.5483976 0.03927889 -0.10306712 -0.11766308 -0.0684921 -0.060060967 0.049935687 0.10129075 -0.008176987 0.11358402 0.36008847 0.21157262 0.04520341 0.11674078 0.023851922 0.33190653 -0.21494235 -0.057326578 -0.24611501 -0.49722475 0.2932444 -0.3094594 -0.16321494 -0.10830916 0.037858557 0.18863952 -0.010600958 0.14399892 0.1675771 -0.3176445 -0.006500369 -0.06391373 -0.1574154 0.11851297 0.14072496 -0.21345802 -0.058860194 0.25349012 0.3342861 -0.016564298 0.1412317 -0.30931416 -0.08214306 0.19615479 0.26033252 -0.31161135 0.3456414
C1322815 0.11864613 0.24123527 0.10195255 0.48029795 0.14932585 -0.18574561 -0.1186253 -0.08389695 0.092669584 0.13508138 -0.32933515 0.20628396 -0.07440324 -0.09664118 -0.43980467 0.0061247265 0.0030182796 -0.14962675 0.25210539 -0.19959036 -0.06829465 -0.14134236 0.2911907 0.1893265 -0.24592769 -0.50721294 0.460946 0.011318093 0.08855117 -0.18826936 -0.16151439 -0.28265625 -0.22883357 -0.39264488 0.13841125 0.14411053 0.08278372 -0.37004218 0.23458117 -0.027106304 0.22494729 -0.30811077 -0.054278404 -0.06524206 0.07473115 -0.14934473 -0.27255335 0.610311 0.055155996 -0.49802107 -0.54716355 0.15033373 0.20757705 -0.44318014 -0.07028699 0.26214987 -0.21287742 -0.011144796 0.3628439 0.09292053 -0.07473469 -0.3317616 0.04647732 0.42473212 -0.1385384 -0.15803158 0.0028186804 -0.21467842 -0.33462766 -0.19529319 -0.17885926 -0.20618401 0.09964384 -0.095963314 0.18958724 -0.119519114 -0.27039546 0.12458239 0.22551027 -0.076873735 -0.21852587 -0.090294905 -0.17279048 -0.75383836 0.084262125 -0.014226901 -0.118667416 -0.1370137 -0.3145969 0.2389098 0.31176406 0.4327084 -0.41718966 -0.066203296 -0.1853471 -0.1114425 -0.037180737 0.79850495 -0.28673387 -0.37802142
C0071097 -0.3790278 -0.004358167 -0.093793906 0.12826774 -0.032619502 -0.16413294 0.31432226 0.110289246 -0.006648977 -0.07038438 0.17510977 0.274312 0.060676053 0.14777246 -0.39312607 0.24714264 -0.37860087 -0.37238786 0.20740405 0.18744811 0.11093381 -0.11476557 0.39971605 0.34469482 -0.071739346 -0.3247408 0.04403231 -0.16277096 0.27839023 -0.3704227 0.4964022 -0.16101168 -0.5136549 -0.47571534 0.24171148 -0.16847287 0.13969566 -0.3614456 0.118848346 -0.21997674 0.2515428 0.27691332 -0.11065713 -0.065192156 -0.16116974 -0.16057885 -0.21372148 0.47764367 0.28540587 -0.39160487 -0.17404135 0.51615065 0.23841819 -0.41242042 -0.14080271 -0.064638026 0.037266877 -0.22605313 0.27395168 0.07785929 -0.0972983 -0.57850826 0.12932278 0.102429934 0.09930516 0.09749231 -0.02928923 -0.06323165 -0.39658776 0.23673846 0.10375427 -0.13401875 -0.24497806 -0.035484333 -0.11169787 -0.17164345 -0.29106644 -0.4695091 -0.14025511 -0.14002408 -0.27900004 -0.02733663 -0.20470941 -0.5595153 0.047501087 0.1527189 -0.062790684 0.220215 0.10135702 0.13748285 0.1292937 0.3576734 -0.014517924 -0.09420782 -0.087476164 0.06264682 0.08301434 0.31126338 -0.093826726 -0.08569049
C0248719 -0.037260342 -0.18249787 -0.13277675 -0.21133173 0.19640514 0.18698855 -0.1907992 0.055006053 -0.14917152 -0.16010483 0.3600517 -0.013100627 -0.017394844 0.30985767 -0.40267283 0.2980004 0.006758748 -0.16886738 -0.0457385 -0.35795733 0.10283443 0.056923598 -0.18799262 -0.056708008 -0.048935037 -0.12603255 0.12325598 -0.022813402 -0.07313162 -0.27041683 0.1983923 -0.22566901 -0.3709072 -0.4430894 -0.2158431 -0.18490995 0.062023517 0.21568167 0.08414265 -0.010419789 0.16652937 0.16304596 -0.3483937 -0.43180788 0.04288372 -0.13824353 -0.056955524 0.09153132 -0.36541396 0.046645675 -0.21867056 0.2345765 0.0039063715 -0.033377655 0.15132408 -0.030014267 -0.10742192 0.2320034 -0.06673834 0.14494646 -0.25335932 -0.3727242 0.3226613 -0.22260325 0.11072553 0.040569823 0.038667947 0.2320685 -0.1066592 -0.13557278 -0.07096233 0.08516106 -0.3363 0.12995897 -0.23536034 0.051537536 0.064771615 -0.48284823 -0.038591355 -0.10795816 -0.033112098 0.018522363 -0.20382841 -0.4090823 -0.20779069 0.13729382 -0.063805245 -0.6189947 0.114383385 0.21700588 0.12470868 0.21481603 -0.06785324 0.15749647 -0.14391388 0.033610497 0.14432764 0.4670742 -0.37072077 0.2047165
C1098320 0.18646637 0.09802919 -0.32691497 -0.23796916 -0.0298518 0.20975074 -0.5444541 0.22983384 -0.06579688 -0.46135095 0.06914118 0.24027227 -0.26134247 0.55903333 -0.40746588 0.38517058 0.16587172 -0.34838507 0.2075234 -0.21197514 0.124928474 -0.017331045 -0.050655656 0.28778738 0.11159834 -0.04798307 -0.12038552 0.22930808 0.36006498 -0.31199834 0.39640507 -0.09880809 -0.35295317 -0.023562182 -0.1137206 -0.13413909 -0.0059345886 -0.045754418 -0.049758036 0.15551385 0.30171382 0.24185766 0.013110872 -0.29933587 -0.23528144 -0.33807695 0.09752401 0.19113995 -0.31699345 -0.41088384 0.09444211 0.1601542 0.36047506 -0.109182835 0.0764065 -0.07141525 -0.22271635 0.12419246 -0.00084965734 0.25081232 -0.19253705 -0.36245444 0.3449573 0.103095934 0.0030833143 0.057571135 0.03169387 -0.093333535 -0.26594746 -0.090022564 -0.19963337 0.1467932 -0.31152815 -0.12514874 -0.45055965 -0.37603322 0.15473475 -0.46309423 -0.4154369 -0.30069062 0.046371438 0.021851901 -0.48519132 -0.28708926 -0.39337128 0.15331239 0.015572641 -0.22752355 0.07115759 -0.107265174 0.24681886 -0.059455194 -0.06445255 0.04756247 -0.11741546 0.11811413 0.3043954 0.17311952 -0.28922558 0.11101629
C0033228 0.10554349 0.23545267 -0.2962663 0.27396986 0.13485864 0.34526443 0.09646311 -0.06526706 0.13031521 0.122494675 0.03377829 0.14378747 -0.0566158 -0.098562755 -0.56275356 -0.08883048 -0.35317704 -0.11185831 -0.38371748 -0.035862226 -0.16988505 -0.16843207 0.11659923 0.09953515 0.101728305 -0.25287515 0.28321677 -0.1855024 0.089476265 -0.35467714 -0.10758748 0.14067183 -0.31647432 -0.104958236 0.47874963 -0.14254957 0.02528113 -0.09725197 0.04435784 -0.26814747 0.20293738 -0.13070959 -0.46492362 -0.25519502 -0.06975967 -0.03386918 0.04694812 0.08141382 0.19284306 0.06398975 -0.21224852 0.20948121 -0.028494272 0.1437075 0.22883889 -0.064818904 0.11898143 0.069005564 -0.09827315 -0.33467716 0.11431754 -0.5788686 0.040449344 0.32655337 0.38725197 0.017062407 -0.023381978 0.16953218 -0.2275212 0.31186754 -0.051232796 0.25243622 -0.24271567 -0.34610322 0.022119774 0.15333143 -0.16962951 -0.384369 -0.26107973 -0.03653624 -0.34610915 -0.01834957 -0.0234038 -0.4614073 -0.14102995 -0.27574545 0.33986944 -0.09216088 -0.10815768 0.049204543 0.2820408 0.4719542 0.27699327 -0.10519682 -0.046957303 -0.0443713 0.21110505 0.57033455 -0.24243827 -0.06243125
C0299792 0.14128938 0.18346052 0.23089251 0.08222606 0.07158246 -0.19726409 0.09509007 -0.01158462 0.26219258 0.023317521 -0.03568391 0.03767428 -0.012019444 0.018627478 0.007451987 0.11713987 0.06555445 0.14773628 -0.009820867 0.016088719 -0.44334477 -0.11912857 -0.23982404 0.2643088 0.4126006 0.23644134 -0.052052706 -0.16098744 -0.041972727 -0.043297485 -0.21039288 -0.094137974 -0.14033215 0.13987881 0.053060014 0.013898522 0.4947281 0.16334796 0.030400662 -0.011632741 0.23369874 -0.14552894 -0.1755774 -0.051452767 0.4851073 -0.04883417 -0.1947807 0.1765932 -0.15912567 -0.14984593 -0.08574665 0.19242007 0.18658657 -0.485745 0.14364766 -0.26651752 0.27412376 -0.029814156 0.10905052 0.06433816 -0.057462983 0.07447505 0.14021456 0.45041725 0.26814634 0.024522185 0.30397633 0.06776674 0.16019085 -0.05304613 0.082980946 -0.1822514 -0.15335575 0.10368288 -0.21312982 -0.25226155 -0.17246479 0.12462971 0.1428253 -0.046538476 0.13468026 -0.037539892 -0.40063214 0.0034025277 -0.12042166 -0.021801991 0.077881776 0.34997323 0.12501228 -0.085775 0.09121287 0.31503758 -0.0016445265 0.27660018 -0.20134532 -0.105246775 0.15486972 0.19875923 -0.26537314 0.2754656
C0038257 0.22334032 0.054947138 0.15611495 0.32206854 0.20476502 -0.15554081 -0.110699475 -0.05178622 0.05551709 0.09788083 -0.2804836 0.24951695 -0.15755604 0.2661921 -0.45677197 -0.04025533 0.008825546 -0.30784252 0.16157602 -0.118014686 -0.063031696 -0.27373818 0.3724843 0.030400693 -0.20102862 -0.4322302 0.39289346 0.12504545 0.071295604 -0.20799983 -0.22109033 -0.23384973 -0.12887295 -0.25047374 0.08206205 0.22895998 0.026186237 -0.63096744 0.31936005 -0.031412993 0.20130391 -0.087630905 0.04174655 0.14338234 0.2471189 -0.2295199 -0.03381117 0.55756116 0.22031038 -0.5001513 -0.55636215 0.22336677 0.39877686 -0.37225288 -0.15781453 0.21391153 -0.2418331 0.044335853 0.22965984 0.09814171 0.032998588 -0.36088973 0.08307123 0.430661 -0.19948117 0.049999908 -0.023186486 -0.25620303 -0.33067095 -0.15830359 -0.16895358 -0.2796194 0.142134 -0.18368898 0.051060487 -0.04177653 -0.27042356 -0.090799816 0.12827782 -0.23517238 -0.07812241 -0.11014243 -0.023580179 -0.6466412 0.10462447 0.03795017 0.023753503 0.03109822 -0.28594258 0.14714004 0.19514567 0.27547142 -0.2531785 -0.14418432 -0.25299847 0.07759745 -0.064622045 0.7104757 -0.3228744 -0.25640672
C0025598 -0.09007735 0.20082724 0.222415 0.17441982 -0.30153802 0.11439552 0.15430829 0.3101295 0.06533912 0.11405911 0.14022584 0.280216 0.26165652 -0.105115354 -0.47195154 -0.3755433 -0.26154238 -0.36418882 0.068128854 0.1665531 -0.21269083 -0.21803226 0.063956484 0.024078228 -0.110062845 -0.2364007 0.429185 -0.20237112 0.16573834 -0.0040024766 -0.051210966 -0.4398722 -0.21143647 -0.45533687 -0.046412803 -0.33564875 0.2523871 -0.1675492 0.1038502 -0.23459484 0.101660945 0.21109681 0.00058625883 -0.17454 -0.14440267 -0.2834504 -0.08391302 0.19592424 0.12344746 -0.4459213 -0.18813966 0.24440871 0.25537542 -0.35729602 0.05368815 -0.20020087 0.07519575 0.11270533 0.27107224 0.1666061 -0.13815811 -0.19898601 0.4021741 0.19188981 0.018360047 -0.1513607 -0.013084699 -0.2833523 -0.3900444 0.07033158 -0.17236641 -0.44039884 -0.63106227 0.042092502 0.14343257 -0.050622467 0.025740206 -0.5302564 -0.03944114 0.074850105 0.04141688 0.023165748 0.037860543 -0.34489152 0.1183305 0.06820429 0.17111078 0.093656085 0.010226978 0.22745468 0.042635083 0.20243649 -0.1325453 0.06081425 -0.13942671 -0.1545921 0.11376855 0.22311287 -0.036291294 0.14047183
C1532737 0.32898018 -0.0808745 -0.06341134 0.07476195 0.121330425 0.34154245 0.16242202 0.027429445 0.18348444 0.05217706 0.32454136 0.20138669 -0.2440367 0.15720417 -0.46728602 0.38351217 -0.2279085 -0.47942907 0.34042084 -0.2536573 -0.2721194 0.01650849 0.28603128 0.1751979 -0.32448477 -0.5332953 0.49940377 0.46681923 -0.054135803 0.06606168 -0.17477363 -0.014560794 -0.23798528 -0.38659543 0.13224156 0.16669625 0.06395852 -0.72803897 0.18954436 0.058192145 0.056484845 -0.14035587 0.1546834 -0.18957011 -0.17977494 -0.26253822 0.06011118 0.2280975 -0.04202106 -0.7884152 -0.20375651 0.29131916 0.55926156 -0.14848968 -0.11734844 -0.42989513 -0.3304292 -0.3988488 0.4786328 0.15598153 0.35279158 -0.4584429 0.10836232 0.064574845 0.12089257 0.49408075 -0.08062534 0.25414965 -0.30674234 -0.25162348 0.03583662 -0.13422507 -0.039612815 -0.17490086 -0.17669412 0.13303867 -0.4062776 -0.54482883 0.21083693 -0.015988283 0.15304069 -0.57909495 -0.21020879 -0.19410078 0.17201611 0.0906324 0.16325268 0.07970679 -0.03516854 -0.08061958 0.22037815 0.11172707 -0.4060339 0.40744793 -0.26995116 0.30960184 0.018704157 0.63731676 -0.11874793 -0.24560109
C0076275 0.053463057 0.36760628 -0.051506657 -0.39748737 -0.13786244 0.09457559 0.3224622 0.016704442 -0.0933967 -0.22276248 0.0999384 0.0032518418 0.100192815 0.20117705 -0.41319546 -0.0052356157 -0.03562153 -0.48125404 0.36942837 0.055400874 0.18926933 0.13365377 -0.42865634 0.010879108 -0.36614385 -0.052062824 0.4511492 -0.3115567 0.06947225 -0.054656398 0.12563871 -0.05431911 -0.39939427 -0.09772326 -0.018392986 -0.45985872 0.103232674 -0.4473607 0.5159319 -0.24662857 0.111218385 0.38679487 -0.27847052 -0.4083817 0.094356716 -0.23152517 -0.25193 0.20970127 -0.24371971 -0.20090154 -0.010016459 0.4071783 0.4164858 -0.15288249 0.08024915 -0.29135847 -0.14290047 0.17376117 0.26819336 0.43775526 -0.14331487 -0.6200513 0.25829947 -0.15575495 -0.015415176 -0.17088029 -0.288035 -0.0805979 0.34536025 -0.23707809 0.08473719 -0.09401156 -0.4531954 -0.002065432 0.02583177 -0.33460936 -0.46620294 -0.49645552 -0.26887316 -0.117563024 -0.20174763 -0.025030022 0.1485891 -0.3877234 0.2799922 0.25073454 0.08301083 -0.13046172 -0.37385556 -0.22136422 0.22445853 0.29971576 0.1120769 -0.29153305 -0.4008771 -0.01784714 0.38883582 0.2061268 -0.5268455 -0.07219873
C0025219 0.18221974 -0.081294104 0.096746415 -0.2532137 0.1817384 0.040265437 0.19149786 -0.0992833 -0.14014944 0.21704844 -0.17947616 -0.009802404 -0.04009523 0.20552252 -0.5454792 -0.02336242 -0.08803313 -0.3089192 -0.14194418 -0.028595503 -0.3969082 0.08789297 0.1996255 0.22704895 -0.025773128 -0.11596683 0.48791602 0.0293367 -0.2183324 -0.12994573 -0.16320817 -0.36932987 0.2281275 0.1589141 -0.10843759 -0.47808352 0.049549885 -0.2776254 0.12522544 0.12231275 -0.17746377 -0.34698877 0.29485065 0.09117892 0.24982758 -0.40458405 -0.20676586 0.08487265 0.4582256 -0.13866071 0.17051707 -0.004776536 0.2409497 -0.36875218 -0.23871195 0.41449308 -0.40697622 -0.11470391 0.21488339 -0.008757245 0.041483965 -0.19761415 0.5277566 0.29087448 0.4787965 0.17279018 0.0077920305 -0.24177732 -0.30488366 0.13382885 -0.24171452 -0.39476126 -0.20804495 0.16808079 0.08892933 0.010830407 0.16579741 -0.21405402 0.23636808 -0.15191704 0.26234183 0.15093356 -0.25818127 0.116638936 -0.09857842 0.030904729 -0.24143545 0.3937593 -0.16762586 0.23443727 0.3161127 -0.112261064 -0.13739865 0.30793563 -0.41098112 -0.1428856 0.2588378 0.37280953 0.018982416 -0.12883702
C0027996 0.26883152 0.24491501 -0.042575043 0.490235 -0.23445718 -0.17223527 0.15702398 0.076680265 0.002508928 -0.05711386 -0.14675559 0.18218343 -0.2278111 0.15220837 -0.47671518 0.22878563 -0.13738512 -0.31015092 -0.030666066 0.028954307 0.225321 -0.17646268 0.24908891 0.1298419 -0.17866912 -0.29679686 0.19431959 -0.14591877 0.16662379 -0.50272727 0.00998485 -0.14130324 -0.28500608 -0.37478724 0.22709455 -0.05210331 -0.10947504 -0.2912714 0.2773895 0.00398972 0.008080122 0.19502829 -0.22730102 -0.12918717 -0.10357296 -0.40647802 -0.32827488 0.17160158 -0.02417599 -0.41272292 -0.10648403 0.39664212 0.38582692 -0.2588301 -0.019490972 -0.24723315 0.1215789 -0.27846766 0.2453842 0.009842127 0.36344802 -0.37819114 0.23239931 0.38997772 0.39921007 -0.09681195 -0.19193044 0.2084409 -0.29442656 -0.010067762 0.007385443 -0.41178143 -0.14704838 -0.31371754 0.01180617 0.050409336 -0.26904827 -0.5039693 0.057596188 -0.008649347 -0.37326166 -0.046573035 0.13988209 -0.5875794 0.072122134 -0.10890807 -0.2479924 0.10209729 0.063868694 0.3602658 -0.010220614 0.6758896 -0.23790589 -0.22854125 -0.14629655 0.09374547 0.23709121 0.327072 -0.2896801 0.044186994
C0288171 -0.030222481 0.06438876 -0.4625054 0.038626004 -0.07295188 -0.12985407 -0.36936718 0.090240285 -0.047407538 -0.06532285 0.20883259 0.47015458 -0.39682296 0.4826948 -0.47900978 0.13973658 0.21030287 -0.124048285 -0.053682283 -0.16486606 -0.0010624548 -0.16153952 0.005006013 0.1827924 0.13132015 -0.47238863 -0.14765576 0.073794834 0.5501255 -0.17986596 0.100235894 0.2860175 -0.12381295 -0.1219261 0.16237915 -0.011888451 0.15037657 -0.3385363 -0.07187326 0.0023185506 0.26312467 0.26371437 0.1470001 -0.10731539 0.0047627306 -0.17766868 0.32137302 0.26641658 0.074910715 -0.36054802 -0.3254338 0.07243664 0.62670743 -0.21500562 -0.10851441 0.20122701 -0.030289078 0.06180438 -0.014648755 0.023810191 -0.15016533 -0.4588737 0.36952612 -0.06584138 0.1775465 -0.13283427 -0.18814279 -0.31586108 -0.047003854 0.14482518 -0.095320225 -0.07008281 -0.5075728 -0.028467512 -0.46683645 -0.22963895 0.19390358 -0.3359956 -0.75616086 -0.20455718 0.0029458103 -0.14764357 -0.30398235 -0.2956266 -0.18965417 -0.06076608 0.2848845 -0.18851729 0.22165118 -0.14238706 0.0033551536 0.043569293 -0.17493883 -0.1255967 -0.38583088 -0.06433814 0.031816334 0.4576835 -0.2720312 0.25598544
C0009079 -0.19255044 0.20194873 0.25882608 -0.043651313 0.17268868 -0.39683083 0.012434567 -0.011845614 0.11068533 -0.21171652 -0.08723537 -0.042715546 0.0018547814 0.014305154 0.007237749 0.06864751 0.024933709 0.1481616 -0.008802914 0.06691169 -0.31884792 0.030879188 -0.1329202 0.03160239 -0.091089375 -0.008657977 0.10426101 -0.19366169 -0.16606216 0.28044096 0.06095497 -0.079908065 0.035056364 0.16115963 -0.008759045 0.023824966 0.104018144 0.25879046 0.23415019 -0.26311404 0.1801643 0.3022671 -0.08897156 -0.19367047 0.25974923 -0.41302323 0.11923248 0.0913422 0.011548575 -0.15544455 -0.23628104 0.29466292 -0.10504477 -0.53033614 0.33944502 -0.11241357 -0.2747703 -0.15167122 -0.003915664 0.19319208 0.060759585 -0.073909655 0.27019814 0.42788094 0.34023505 0.2529455 0.013143085 0.0809097 0.12887757 0.16379015 -0.15942566 -0.07468477 0.19400258 -0.15455088 -0.2134957 -0.22015476 -0.056304254 -0.10466542 0.30308318 -0.16375533 0.42563885 -0.01973331 -0.33920753 0.09273349 -0.06996517 -0.41015366 -0.013686585 0.22813678 -0.0014674008 -0.08284904 0.071543835 0.20704833 0.1824937 -0.128273 -0.06168853 0.3150129 0.053913333 0.3212572 -0.1543108 0.08407507
C0021186 0.22406252 0.042302772 0.13891605 -0.45114604 -0.1632682 -0.029047523 0.13837673 -0.29880428 -0.12810649 0.2852778 -0.14545578 -0.39194846 0.05357917 -0.065900885 -0.12011174 0.14668095 0.12805294 0.17592958 0.14311327 -0.089560285 0.28416973 -0.21981518 0.10455551 -0.00016549438 0.33735684 -0.103878975 -0.2907029 0.19147368 -0.01776716 -0.46787676 0.34269238 -0.016260976 -0.20744376 -0.27374193 -0.11704292 -0.059263594 -0.02000807 0.17646146 0.32540143 -0.19281141 0.22077407 0.1396911 -0.07637614 0.05651188 0.14940052 -0.33256933 -0.18518946 -0.12615718 0.22867231 -0.32291567 -0.021752205 0.34964964 0.07195421 -0.14758365 -0.21755995 -0.032966573 -0.27277228 -0.10636694 -0.054398183 0.40775883 0.0006396267 -0.4858548 -0.35738626 -0.12867436 0.07054324 0.07336724 0.019981395 0.07221184 -0.62609625 -0.301344 -0.3188359 0.09059644 0.015149278 -0.0017515583 -0.2586664 -0.1945533 0.3974078 -0.3201362 -0.13614844 -0.16495098 0.33818468 0.11068015 -0.25871822 -0.16841656 -0.1573191 0.23883691 0.08830697 0.15482019 0.11978162 0.026881296 0.16499616 0.3282412 -0.22338271 -0.30838814 -0.13436183 0.12102488 0.39779428 0.76054275 -0.117507905 0.121396154
C0039601 0.13026261 0.098471195 0.2636732 -0.058566764 -0.07232415 0.13982156 0.3401028 0.26583034 -0.29736954 -0.18724626 0.35223803 0.030916063 -0.122522645 -0.15140778 0.014802621 -0.13758473 0.022291023 -0.11705957 0.10037063 0.0004964901 -0.25671148 -0.018287662 0.06334535 0.7143103 0.14157681 -0.26229918 0.31019956 -0.09488097 0.1427142 -0.3208248 -0.11495598 -0.073568456 -0.40901774 -0.12115053 0.091952324 -0.15618111 0.13863024 0.22637773 0.31309086 0.012003768 -0.05018974 -0.010371403 -0.07249345 -0.05407785 -0.2561548 0.035146333 0.15564287 0.056809098 0.36157054 -0.09439437 -0.444653 0.27845573 0.3005343 -0.47526237 -0.13279307 0.091896065 -0.13187964 -0.166433 -0.05460378 0.008864943 -0.1643687 0.07708403 0.3380942 -0.120345764 -0.0792369 -0.18783107 -0.051738974 -0.16077095 -0.16480534 0.24844362 -0.23699668 0.0024233002 -0.40060166 0.26208916 0.036296163 -0.37075886 -0.34631193 0.033961844 -0.0077084685 -0.081459366 -0.2588512 0.06784246 -0.44497204 -0.17471874 -0.10656176 0.14702122 0.22176252 -0.37392423 -0.19677092 0.3140526 0.1540373 -0.14905734 -0.15144321 -0.28114516 -0.43860334 0.30812457 0.19562724 -0.10776715 0.2884259 -0.121137254
C0039286 0.41176978 0.17245579 -0.06752333 0.16065021 -0.27290455 0.22242156 0.22694744 -0.18586941 -0.003110942 -0.01343106 0.2909117 0.10865745 0.034423314 -0.055395573 -0.34122834 0.19979575 -0.1536722 -0.17003366 0.24317166 0.1029642 0.0414592 -0.39035276 -0.38445455 0.16399519 -0.40551972 -0.43905178 0.27178982 -0.498878 0.28784034 0.020561194 0.31558943 -0.071045786 -0.07706624 -0.19833209 0.050223578 -0.020602051 0.52635753 -0.14946611 0.5336437 0.07844395 -0.35424906 0.195336 -0.25581396 0.11139204 0.13287267 -0.49182114 -0.20458229 0.3448355 -0.25478816 -0.3318835 -0.1773198 0.14457728 0.58534175 -0.16337027 0.15546425 -0.4768951 0.33814985 0.12879871 -0.046603415 0.1741549 -0.3385105 0.17742953 0.030847235 0.3143092 0.092478804 0.0026494253 -0.7203205 0.31357417 0.27457973 -0.13016047 -0.08879718 -0.15632959 -0.11658739 0.1312446 -0.3838639 -0.47148177 -0.35058495 -0.027615394 0.26189435 0.03844578 -0.26569968 0.11884369 -0.07774337 -0.031024704 -0.13065991 -0.19600524 0.27132678 0.28068045 -0.31011072 0.008400993 0.08182811 0.48684427 -0.14352994 0.45106855 -0.58803326 -0.14900528 0.15538165 0.3624519 -0.34868687 0.1836558
C0008677 0.08690655 0.16848278 -0.0046635536 0.10486634 0.07881408 -0.04188732 0.07626474 -0.122689605 0.017805513 -0.16164765 -0.11796865 0.14244875 -0.08805171 -0.503158 -0.09017909 -0.121036336 -0.12375228 -0.18221597 0.20725892 0.0028743048 -0.15399206 -0.012949352 -0.16962315 0.10419407 0.08052219 0.20103952 0.087392494 0.102803156 0.0343817 -0.09064652 0.23478842 -0.121028475 0.07414087 0.10133197 0.11205048 -0.2231631 0.14039153 -0.15431632 -0.056185972 0.3024775 -0.0037216127 0.035288688 0.007494622 0.2682975 0.12964723 0.0009785973 0.004707879 0.0971771 0.0439647 -0.26455742 -0.16645102 -0.045154803 0.08830074 -0.21907613 0.18872881 0.015954068 -0.074008845 -0.16957124 0.20608144 -0.05397078 0.08808456 -0.01941581 0.2359588 0.13240382 0.21283402 0.021634532 -0.097318575 -0.11988424 -0.10360789 0.014092302 -0.19841787 0.13628553 -0.35789815 0.20809159 -0.27865958 -0.14805011 -0.1626796 -0.28190076 0.10442301 0.06367571 0.033715207 -0.083679006 -0.0012059278 -0.31149468 -0.025339406 -0.053011727 -0.18747152 0.017652415 -0.12706618 0.1508292 0.10725987 -0.14432716 -0.3062781 -0.1027808 0.0036657308 0.05977652 0.16341208 0.21502723 -0.20928735 0.2633289
C0054066 0.06702065 -0.020263107 -0.2579157 -0.020043977 0.10439757 -0.28348297 -0.50962055 -0.024878288 0.38641372 -0.10861862 -0.385556 0.115414456 0.20121427 0.18116705 0.017307684 0.005447803 0.048255228 0.017425232 0.7048376 0.069729544 -0.13589112 0.0088357525 -0.4817395 0.004456446 -0.34055525 -0.019020338 0.09957983 0.43733808 0.0040279734 0.057132497 -0.03238975 0.15625407 -0.00093504 -0.21080807 0.028311307 -0.36964327 -0.12285421 0.60503364 0.060108412 0.4680372 -0.12699264 0.3691091 0.015893333 0.21795075 0.03238103 0.10117869 -0.16021346 0.17707537 -0.0079926355 -0.09013727 -0.18463685 0.25057966 0.40263516 -0.1540714 0.5185821 0.08479733 -0.18870199 0.1306783 0.1488908 -0.10360049 0.5428047 -0.023539634 0.15832648 0.092103 0.35180008 -0.062791176 -0.109769925 -0.04289051 0.13795981 0.022249596 -0.029827774 0.09888118 -0.70075077 -0.4337078 -0.0071698627 -0.035136007 -0.21819937 -0.1220401 -0.2860049 0.537086 -0.29280806 -0.07267386 0.0251653 -0.3792596 -0.21412152 0.04642206 -0.03247154 0.080180615 -0.29351428 -0.012904802 -0.17468591 0.07574977 -0.59737617 0.35978636 -0.014861444 0.2563384 -0.021098338 0.24344532 -0.36158442 -0.33055198
C0052796 -0.08862611 0.32741585 0.041024048 -0.107578054 0.06439705 -0.08347379 -0.19628415 -0.08668327 0.4497129 -0.18970938 -0.34984577 -0.01824297 0.37948185 -0.15559216 0.09048425 -0.26585856 -0.16489778 -0.09610731 0.32139558 0.070393 -0.30844107 -0.3216936 -0.13471635 -0.11891035 0.15468785 -0.19434243 0.29234186 0.64154565 0.04103019 0.03218353 0.08529829 -0.36018902 -0.28094527 0.055062745 0.2728268 -0.27579412 0.12936571 0.07543057 -0.13969593 0.36772245 -0.08636525 0.19202958 0.20024388 0.23312502 0.20165162 0.24077629 -0.25518614 0.15477231 0.40792483 -0.21538106 -0.15696816 0.4847525 0.10296295 -0.23442914 0.5707849 -0.18891779 0.058397207 0.4649959 0.2238593 -0.027144333 0.3409429 -0.25636333 0.036592774 -0.035199806 -0.03246224 -0.19721898 -0.12867069 0.2557101 -0.109197445 0.06348616 0.14631365 -0.28276765 -0.23136888 0.091069154 0.19461171 -0.16161019 0.23759677 0.17039645 0.068740524 0.13697599 -0.26041904 0.14828354 -0.1389649 -0.2685758 -0.09758245 0.2269145 -0.17810048 0.12716126 -0.017787505 0.113911055 -0.051052943 -0.077861205 -0.5357058 -0.2578293 -0.47775784 0.07379249 0.2607676 0.30881023 -0.13329448 -0.25862962
C0533545 0.08090668 -0.24691312 0.3035976 0.107795455 0.09762655 0.16505261 -0.2405262 0.06487151 0.2446472 0.038409304 -0.37933964 -0.12939177 0.0015706943 -0.43341127 0.5138472 -0.4163879 -0.33619264 -0.54625547 0.09227536 0.087017916 0.24248748 -0.3199188 -0.36530223 0.06390593 0.09619067 0.10181803 0.09644556 0.17849761 -0.44567013 0.049139887 0.4352433 -0.02074593 0.05312553 0.11334971 0.52251554 -0.13166754 -0.19046167 0.1649747 0.039292987 0.0038204985 0.14647523 0.17962585 -0.10303011 -0.18754494 -0.08013514 -0.14060071 0.24706061 0.070960976 0.17486197 -0.24137071 -0.1796045 0.21863595 0.10911699 0.36787695 0.18591364 0.033183046 -0.30852616 0.07554344 0.017889768 -0.15450485 0.12679748 -0.10558215 -0.050535955 0.1009061 0.14255042 0.040891472 -0.29863194 -0.081511244 -0.2566861 0.043516338 0.24669613 0.2270209 0.24209028 0.10643378 -0.273603 -0.17364682 0.12121085 -0.5596461 0.23548143 0.06654449 0.18245476 -0.07782264 -0.3229198 -0.24593218 -0.1451844 0.0796392 0.52132106 0.46003476 -0.025771994 0.0805972 0.20058383 -0.21707907 -0.40349382 0.30679658 0.15784347 0.53993535 0.013246294 0.36550513 -0.44779012 0.09416092
C0907410 -0.3376022 -0.08683345 0.08973312 0.21505219 0.052207902 -0.35627615 -0.37641412 0.3605773 0.2105757 0.015226764 -0.2939306 -0.065972984 -0.23335117 -0.03371546 0.04271569 -0.43411496 -0.25417328 -0.023528254 0.39982638 -0.12280028 -0.20270497 -0.20151046 -0.25992537 0.2295443 -0.059618734 -0.15128765 0.08724695 0.054185312 0.12168374 -0.008464035 -0.21029156 -0.2073706 0.17867999 -0.22402953 0.4676584 -0.3583902 0.20979322 0.28961635 -0.32741693 0.33246252 -0.25384113 0.31218752 0.38385606 0.48077375 -0.015630456 0.039782047 0.20008978 0.17846711 0.2968381 -0.36445534 -0.08620578 0.40484434 0.23974854 -0.4029055 0.17244487 -0.17060335 -0.042008303 0.23431094 0.20709303 0.18410598 0.47104084 0.16727564 0.033854514 -0.17379157 0.41504595 -0.13428646 -0.443187 0.07805707 -0.20411375 -0.11981213 0.05892231 0.31238627 -0.5948602 -0.23674975 -0.1337127 -0.36060685 -0.056716736 -0.28315434 0.1555988 0.18599291 -0.14111777 -0.101968035 0.306598 -0.4210877 0.16864909 0.12192282 -0.10153541 -0.08334974 -0.102431215 -0.045965027 -0.015024853 -0.37950552 -0.48729044 0.29096696 -0.2756629 0.00507526 0.357291 0.09123128 0.037126157 0.20031944
C0053882 0.22478417 0.21442546 -0.09837291 0.1186525 0.62043095 0.13497716 -0.278956 -0.32696468 0.14781436 -0.5276787 -0.2748718 -0.59965575 0.15976956 -0.25926936 0.08830888 0.05242499 0.018851798 0.03460259 0.45219475 0.015662339 -0.35456774 -0.095808245 -0.55638003 -0.002715059 -0.188533 0.4394717 0.10468926 0.015555809 -0.20094557 -0.041466873 -0.24635608 -0.17566048 0.029081648 -0.23710307 0.16098069 -0.07608738 0.2361164 0.4741744 -0.35677263 -0.16411994 0.3241942 -0.0352586 -0.20505087 0.22849987 0.4770982 0.20560472 0.074120894 0.371641 -0.07930602 -0.33173174 0.10295907 0.35005906 0.309815 -0.20288175 0.15662569 -0.06334134 0.21748546 0.028645478 0.47929078 -0.2877231 0.09101608 0.06296332 0.09461813 -0.089798346 0.32103786 0.031247547 0.0442734 -0.30973753 0.13685937 0.33390945 0.14456885 0.064625494 -0.028171595 -0.2958439 -0.3134131 -0.1772933 -0.0017302419 -0.33730036 0.024372704 0.058450524 0.07862712 -0.16369055 -0.2239638 0.00088176853 -0.06585294 -0.27895734 0.06876518 0.25662738 -0.3488724 0.108211115 -0.14809845 0.21371365 -0.040066205 0.13623597 -0.25385708 0.5390031 0.04097031 0.30857733 -0.17580606 -0.21938123
C0753645 0.018048566 -0.089100115 0.29934624 0.06478619 0.29484662 0.14002638 -0.5311152 0.04061146 0.247056 0.11573441 -0.28053913 -0.29079443 -0.17757471 -0.3104859 -0.051135097 -0.3565584 -0.27897453 -0.22914931 0.2477878 0.1311322 -0.17510526 0.19510232 -0.59398925 -0.09691279 -0.067701995 0.16110443 0.039466508 0.14607336 -0.46154043 -0.17119043 0.15914163 -0.21855123 -0.29115123 -0.09657565 0.57257247 -0.33857754 -0.085981615 0.22546296 -0.15160342 0.14575796 0.20319812 0.20132798 0.043708183 0.18803445 0.071290344 -0.006966145 0.15779002 0.08736328 0.2859311 0.034734193 -0.37653798 0.21746233 0.13820618 0.11407629 0.5408804 0.013179521 0.09488325 0.030927515 0.22461985 -0.36401194 0.41893062 0.009430363 0.028937064 -0.3186478 0.14824006 0.04373305 -0.59763765 0.010216154 -0.22698024 -0.07827114 0.4062816 0.1917549 -0.08504101 -0.14585193 -0.046361987 -0.12726106 -0.14025903 -0.2552683 0.090163164 0.22531214 -0.16882998 -0.063901186 0.216365 -0.2254338 0.06754724 0.13393733 0.15150185 0.34697592 -0.2032964 0.045115907 0.10341806 -0.27125072 -0.24625143 0.22915314 -0.1318683 0.2894027 0.35335943 0.43408963 -0.4620874 -0.011177718
C0055856 -0.20854516 0.19695915 0.31046116 0.29297876 0.24271992 -0.28109217 -0.15556245 -0.032701395 0.13123102 -0.20706898 -0.34455106 0.0649553 0.001268215 -0.32652792 0.35690778 -0.30560032 0.07848092 -0.426257 0.43442997 -0.1285744 -0.27560318 0.029713389 -0.13616125 0.046328086 -0.20059085 -0.06050224 0.2904544 0.284226 0.12762882 0.10689946 0.20285664 -0.21116659 -0.09365035 -0.20521776 0.4079525 -0.2796973 0.10965605 0.30931765 -0.35864988 0.39583328 0.16912217 0.18938334 -0.018690635 0.3509877 -0.236055 -0.040885076 0.09232838 -0.1656044 0.14858206 -0.31425822 -0.07081208 0.039134637 0.3210788 -0.13615887 0.55118716 -0.0863604 0.12356483 -0.08128248 0.547162 0.09039652 0.41325167 -0.03915319 -0.021542616 0.07652821 0.33468994 -0.36290926 -0.05960294 0.14006186 -0.23587717 -0.116111845 0.20282696 0.0132289445 -0.45542586 -0.23256476 0.34272557 -0.22470628 -0.061445877 -0.11004536 0.10029225 0.13920766 -0.010025133 -0.09193071 0.22688232 -0.10128814 -0.1288025 -0.0690894 -0.2420343 -0.24625903 -0.0045383335 0.06265344 -0.16483 0.009049905 -0.5727364 0.10869617 -0.5395341 0.27513993 0.1314583 0.4241033 0.21276739 -0.10682364
C0282386 -0.118626125 0.16097361 -0.0030415272 -0.10891161 0.12928055 0.14928965 -0.39347616 0.1614402 0.14210731 0.04912869 -0.11875402 0.016901257 -0.061271314 -0.54803556 0.36152735 -0.038680874 -0.27374494 0.025330631 -0.08055627 0.4346918 -0.30080077 -0.04775165 0.13355164 -0.31635544 0.14338708 -0.092269115 0.24354132 0.19464652 -0.14789534 -0.20500238 0.03404024 -0.09216764 -0.11285164 -0.055367377 0.56838256 -0.30311844 -0.17488986 0.38628873 -0.005530945 0.056144245 0.14897174 -0.115213916 -0.2220874 0.008613179 0.15629204 -0.11319735 0.33395073 0.00037608083 0.103277855 -0.018962426 -0.24476475 0.2585029 0.19955811 0.24010368 0.5160003 0.09093442 -0.0133769065 -0.05848614 0.14570986 -0.44998375 0.32491168 -0.12665273 0.024111025 -0.20430385 0.21400863 0.1175725 -0.16345112 0.015746204 0.02057439 -0.059329126 0.3020341 0.35642844 0.023140619 -0.1761497 0.010726472 -0.18141295 0.107189015 -0.33550647 0.06221161 0.26133 -0.24417304 -0.22559442 0.015827162 -0.20555098 -0.32078937 -0.12599719 0.29651377 -0.037857667 0.34144652 -0.098884046 0.19473763 -0.0465547 -0.15751167 0.36059806 -0.15744168 0.45434934 0.3069572 0.27989948 -0.58852625 0.027552763
C0536495 -0.14276645 -0.21467787 0.19338694 0.2972036 0.063462116 -0.045848493 -0.7632059 0.3128429 0.21591808 0.053354807 -0.4737999 0.11284418 0.19432673 -0.52939314 0.10089392 -0.4631912 -0.43853015 -0.20219812 0.36154172 0.32529774 -0.15484755 -0.009814909 -0.48717707 -0.03913191 0.18467464 0.022729553 -0.10497753 0.26983467 -0.13491228 0.02006967 0.07941013 0.10321897 -0.278497 -0.19282284 0.5586679 -0.58155084 -0.30100635 0.23604718 -0.14317143 0.38216648 0.05015877 0.12740938 0.051929694 0.19530517 -0.13407604 -0.08350893 0.08883442 0.016394893 0.19043133 -0.049639866 -0.36101615 0.2187936 0.085374676 0.17252563 0.3465803 0.020855544 -0.042746037 0.16548616 0.46359506 -0.036678795 0.58989537 0.029944085 0.1366521 -0.11590571 0.08892666 0.05096422 -0.23409656 0.17753676 0.030726552 -0.083546266 0.17446612 0.18126066 -0.008723987 -0.049374145 -0.07972489 -0.26111603 -0.021210063 -0.30024672 0.3000469 0.022234261 -0.1798037 0.17554079 0.051331107 -0.2096286 0.046300147 0.03816233 -0.088419005 -0.32551166 -0.22858529 -0.18746294 0.28791937 -0.092094004 -0.4177191 0.22626983 0.10394342 0.39786693 0.09802411 0.18179756 -0.40864545 0.27152148
C0110038 -0.1810289 0.33453938 -0.2692349 0.022107799 0.13514568 -0.26631853 -0.15320127 0.045279674 -0.13212417 -0.059665084 -0.4224276 0.05245205 0.16647182 0.1816089 0.22314093 -0.100710444 -0.35373262 0.041598715 0.7469953 -0.19026811 -0.27031615 0.2287866 -0.28765154 -0.062463176 0.30981067 0.2560589 -0.09559195 -0.10645811 0.033597387 -0.16409151 0.1580065 -0.20047706 0.2151228 0.32900143 0.3455162 -0.32504833 0.08463089 0.24736956 -0.16749734 0.3350655 -0.24138613 0.5527046 -0.15852503 0.47392184 0.24800247 -0.2038365 -0.08041682 0.28601444 0.19943443 -0.24615219 -0.4665377 0.100958884 -0.13363273 0.20165013 0.46930867 0.074779846 -0.008522585 0.4207979 0.51868474 -0.039342392 0.6004888 -0.1612777 0.07605949 0.15913875 0.18469585 -0.1435842 -0.55597323 0.20897938 0.21948028 -0.060020193 0.010156764 -0.16056094 -0.7297464 -0.04243523 0.1017002 -0.15835848 -0.25842428 -0.42330196 0.11338305 -0.10155902 -0.15832637 -0.4688514 0.09364535 -0.2478383 0.31472924 0.14800869 0.5280631 0.05878645 -0.1305632 0.1848004 -0.59647894 -0.04818322 -0.26390037 0.078783065 -0.1109644 0.25016218 0.29158586 0.35177195 -0.45411542 -0.3502254
C0003232 0.054973055 0.15806377 -0.10095987 0.06645632 0.27091184 -0.007902197 -0.092668965 0.15639974 -0.06150355 -0.10663821 -0.58784395 0.42790547 0.23023066 0.02146713 0.07810392 -0.28959465 -0.13374184 -0.26518828 0.23456915 0.1817205 -0.33660805 -0.1519515 -0.51810676 -0.29540145 -0.21373045 -0.4200736 0.33427373 0.50711304 0.15754354 0.006918155 0.052012276 -0.064874016 -0.19573253 0.2781898 0.32244155 -0.38775226 0.22823879 0.094537586 -0.46473426 0.60965204 0.16250712 0.1018704 -0.09474824 -0.010358767 0.22959438 0.038749393 0.010139562 0.22464201 0.44333264 -0.22449087 -0.17115659 0.03670374 0.028895404 -0.173546 0.038270146 0.09880841 -0.119444035 -0.06492169 0.10356855 0.104606465 0.34632742 -0.225006 0.09073979 -0.057024136 -0.05301956 0.020497404 -0.093862504 0.3963346 -0.19129308 0.0015462835 0.36647922 -0.11441904 -0.3812121 -0.0463974 0.12415011 -0.26525137 -0.013138718 -0.06883804 0.11812503 0.35273078 -0.039035387 0.04725106 0.15084855 -0.40113944 0.062245034 0.00519604 -0.106571436 0.16081576 0.005215466 0.222763 0.07295757 0.21891409 -0.09980177 -0.27807358 -0.21302024 -0.05047671 -0.100619964 0.5542619 0.060981072 -0.32088417
C0021311 -0.34176424 -0.15488134 -0.14523548 -0.053344186 -0.18003027 -0.032326344 -0.41889164 0.29845658 -0.08184453 0.22703913 -0.32758388 -0.05032738 -0.19179457 0.0633744 0.07677423 -0.30133575 -0.32784387 0.16402207 0.4532026 0.3225349 0.06271325 -0.020737529 -0.4538749 -0.055833388 0.018504795 -0.26490724 -0.004783503 0.2966327 0.40990564 0.13160634 -0.11502326 -0.08402289 -0.09388928 -0.22616138 0.1588472 -0.24706905 0.05196458 0.252115 0.34961993 0.1823816 0.029221823 0.085858226 0.069521144 0.32990268 -0.17727122 0.47444072 0.433508 0.37416407 0.2660858 0.16046456 -0.081706606 0.2179674 0.14801168 -0.3461832 0.390939 -0.1620687 -0.30231228 0.22719823 -0.062028322 -0.1964829 0.03577656 -0.26502043 -0.18658286 -0.09802714 0.32219282 -0.13515593 0.12041996 0.17323098 -0.15574269 0.11750021 0.22205967 -0.06134037 -0.13811225 -0.16132481 0.04097078 -0.47237924 0.11801593 -0.10953314 0.4109206 0.4465592 0.19351433 -0.107805766 -0.31548566 -0.2126722 0.17748417 0.077140674 -0.15487613 0.26352018 -0.3793644 0.47587946 0.091877855 -0.041359946 -0.13817468 0.19004586 -0.061380997 0.33143806 0.32502818 0.2774721 -0.055173207 0.23976502
C0008196 0.23541737 0.086750515 0.059340782 0.1471315 0.12787886 0.39135772 -0.051258735 0.19515806 -0.29830188 0.0689244 -0.13640757 -0.2336759 0.14695182 -0.032345723 -0.04579709 -0.021490075 -0.1961149 -0.036819834 0.1782979 0.31928876 -0.34284773 -0.10351725 -0.14467603 -0.25246045 -0.3993908 0.023714082 0.31921646 0.10975639 -0.05199323 -0.04448244 -0.3682996 0.08319394 0.13189161 -0.101278156 0.44479454 -0.067902066 -0.20618562 0.599841 -0.13695645 0.19568072 -0.07816176 0.14102829 -0.13223869 0.014700279 0.47179034 0.2996285 0.19412513 0.17382532 -0.109929994 0.12806489 -0.32363132 0.3049625 0.2416847 -0.25389054 0.010106272 0.09119763 0.09248464 -0.061909195 0.07653716 -0.49911 0.05901438 0.09211455 0.18840456 -0.015268298 0.12834817 -0.0886655 -0.06935525 -0.17040716 -0.2989902 0.20920143 0.07489833 0.06683005 -0.09978296 -0.09697539 -0.04142847 0.095603615 0.05379772 0.13600634 0.13967648 0.20082627 0.124409825 0.03486487 -0.48022357 -0.06485508 0.24450347 0.41799873 0.19670926 -0.1617948 0.009655808 -0.033054933 -0.08846607 -0.0047398573 -0.048634637 -0.13243577 -0.3335323 0.5357814 0.11566233 0.2738574 0.2239492 0.15090251
C0002645 -0.113889195 -0.074793234 0.37667352 -0.057131886 0.22968593 -0.1830228 -0.18277255 -0.088317186 0.2231344 0.016360817 -0.57379323 0.22113611 0.103603 0.111093506 0.48829606 -0.30309078 -0.19831192 -0.60220456 0.58292377 -0.22423749 -0.013467904 -0.43966058 -0.33362535 -0.06406457 -0.07575663 0.2775787 0.2069247 0.1093162 0.21517356 0.34415394 0.2681563 0.09894864 -0.11412931 0.0023036862 0.29089406 -0.3917531 -0.2875032 0.37494722 -0.03700473 0.3095169 -0.057783615 0.413561 -0.03389412 0.08100646 -0.15904562 0.06400935 -0.0067576636 0.11029585 0.49969608 -0.33678037 -0.41094118 0.3126167 0.18379764 0.07529746 0.2879825 0.3240912 -0.24708477 -0.09856922 0.38230518 -0.177821 0.2054776 -0.17575364 0.23920883 0.26917428 0.2529767 -0.0632292 -0.15468979 0.2579664 0.23468547 -0.02593852 0.15023772 0.020965971 -0.49122557 -0.13697961 0.14682595 -0.18087432 -0.13493207 -0.27789804 0.1831667 0.19939074 -0.16607283 -0.23477371 0.0012890268 -0.06377298 0.030623682 0.25612593 0.29876143 0.0032064037 -0.16524702 0.23527776 -0.017466662 0.21836154 -0.52909046 0.24950293 -0.04227516 0.5024403 0.0078832125 0.2898378 0.081380606 -0.1578599
C0007561 0.2542526 0.06461392 0.11032257 0.047647253 0.26177943 0.07960742 -0.08051555 -0.037746724 0.55558765 -0.09550563 -0.21548681 -0.2710337 0.117014095 -0.05072038 0.006195208 -0.054400235 -0.12908582 -0.08012262 -0.062877685 -0.17012519 -0.3343289 0.11013306 -0.2996577 -0.17338432 -0.1129202 -0.19508386 0.17228846 -0.11325078 -0.08741579 0.063054174 -0.050288048 0.11533605 -0.12554856 -0.13877936 0.5839974 -0.06582496 0.13041483 0.3909708 0.0033256735 0.14617102 -0.010739546 0.109535776 0.024318108 0.1079359 0.12711264 0.008130462 0.3226138 0.24316007 0.32082304 0.00978318 -0.25454077 0.21765767 -0.17303544 -0.15133606 0.38409668 0.11703417 -0.15209925 0.10429221 -0.08772337 -0.32133156 0.53348434 -0.20754299 -0.03773785 -0.3328298 0.19167648 0.08022985 -0.18360242 -0.014955306 -0.18078947 0.25281966 0.39029706 0.40704107 -0.3257563 -0.06939116 0.0133184325 -0.029394351 0.012635461 -0.2195798 -0.62058496 0.36953253 -0.03528487 0.08550088 0.008054579 -0.40796542 -0.054735865 0.0036192494 0.19381432 0.13225119 -0.15619445 -0.04335362 -0.079360686 0.032940634 0.11522798 0.30526 -0.25203046 0.17956762 0.05400683 0.6443965 -0.050882865 0.28472555
C0016277 -0.119695626 0.20752259 -0.24133 -0.29972702 -0.035096467 -0.022603117 0.014511988 0.1307533 0.1842114 0.022219397 -0.1579173 -0.12809922 -0.04094133 -0.21461535 0.514767 0.06882544 -0.26879555 0.22716247 -0.027734244 0.41884658 0.017094985 -0.031145973 -0.04083603 0.07017519 -0.20478483 -0.05520736 -0.19859004 -0.08264451 -0.043332174 -0.022945119 0.020118566 -0.12995447 -0.14046185 -0.037552036 0.012517157 0.25747594 -0.10592333 0.34495872 0.24650767 -0.22264943 0.24238025 0.3194188 -0.2472766 0.1870733 -0.6019106 -0.11361266 0.16396697 -0.15495895 0.17394152 -0.20874488 -0.36225024 -0.42101696 0.14125521 -0.41909444 0.26771188 -0.07102644 0.0030914254 -0.0067080227 0.09033942 -0.008372053 0.15400997 -0.42973945 0.22477135 0.10917101 0.52296364 0.3835769 0.13883205 -0.12474496 -0.24937668 0.14992794 0.75074536 -0.010880512 0.06966945 -0.08621907 -0.15374051 -0.0020586466 0.20786963 -0.010792691 0.2534411 -0.150678 0.24105541 -0.56518686 -0.06320716 -0.13579357 -0.020682236 -0.28529227 0.11109915 0.23879513 -0.18030754 0.18826073 0.5185961 -0.21623543 0.2485739 0.15258892 -0.2861773 0.18937251 0.24540903 0.332016 -0.42027867 -0.10606563
C0001617 0.21494254 0.11924165 -0.01331787 -0.19174038 0.26188874 0.15003066 0.042830225 0.05211295 -0.53548104 0.13227212 -0.4371041 0.1847252 -0.31854367 -0.017774856 0.055275146 0.109452054 0.06312083 0.005595105 0.09706344 0.088296816 -0.47172207 -0.027683772 -0.45792842 0.037083432 0.045602735 0.119906306 0.09273183 0.0029195647 -0.0048346748 -0.1124773 0.21064074 -0.020064622 0.14504497 -0.24748996 0.24050885 -0.07915919 0.27418628 0.0040415353 -0.13040212 0.112844124 -0.42532614 0.23475814 -0.16588354 0.36600855 -0.4211352 0.0877384 -0.3656227 0.012610829 -0.0062787984 -0.46972054 0.09467428 0.16668607 0.39641005 -0.19200863 0.13085498 0.51812434 -0.05951444 0.008970185 0.17814311 0.17362435 0.093866 -0.003322218 0.10525914 0.040684156 0.15730986 0.055943996 -0.040440656 -0.030171065 -0.5422263 0.038296476 0.14505199 0.41743487 -0.19288394 0.22421083 0.2682654 0.00377983 -0.37472117 -0.19810046 -0.1460696 -0.04410123 0.33405614 0.25751173 -0.16905017 -0.28678715 0.19832215 -0.22073483 -0.017967775 -0.22413318 0.32789552 0.08378935 -0.018594634 -0.37462744 -0.104613766 -0.18043444 -0.1448139 -0.047304194 0.09657946 0.33086053 -0.036224373 -0.3139877
C1120106 0.20778821 -0.30442145 -0.07358872 -0.46691063 -0.2517818 0.39458764 -0.33089596 0.32162377 -0.069540486 -0.3479369 -0.36497778 0.30732948 -0.17210324 0.16935933 0.0108682 0.32543665 -0.19057952 0.12560382 -0.0782269 0.09637136 0.38173604 -0.38696513 -0.40973446 0.020384202 -0.1611642 -0.28966346 0.16357468 0.3398219 0.0054156445 -0.06959117 -0.11627747 -0.055375706 -0.37723243 -0.1064918 -0.032061514 -0.15442953 -0.28121576 0.38720578 -0.022702487 0.45107198 -0.04160203 0.008670663 0.1535278 0.16135484 0.17299482 -0.044765487 0.0723248 -0.11843745 -0.47523594 0.05730131 0.0045451135 0.3336911 -0.06154893 -0.1261989 0.43909734 -0.091803096 -0.20769514 0.26725876 0.5380653 0.0017069503 0.5165527 -0.004729704 0.23980175 -0.11711125 0.046857573 -0.4766831 0.060308345 0.34117985 -0.415695 -0.11205798 -0.0039697275 0.10395302 0.07406814 0.045711674 -0.5300352 -0.47604337 0.08679726 0.018874075 -0.22741859 0.27302158 0.21415749 0.2609943 -0.37900576 -0.19353205 0.23639746 0.22356015 -0.1824014 -0.03848257 -0.18412499 -0.20287591 0.14370297 0.21814819 -0.3282504 0.22123359 0.06915042 0.40708917 0.066867016 0.05886155 -0.13352737 0.24288419
C0041044 0.085090406 0.3275581 -0.2830487 -0.29231283 0.082872614 0.39059624 -0.103245065 0.01647594 0.4494417 -0.10638772 -0.56031233 -0.026406284 -0.15555966 0.031528223 -0.032217804 -0.0684692 -0.07726299 -0.32680455 0.31932753 0.05671566 0.15287721 0.046223126 -0.3827714 -0.43224669 -0.056446407 0.07729727 0.44446415 -0.051742025 0.39213482 0.10783924 -0.18889612 0.04400352 -0.086849354 -0.25829792 0.093045175 -0.11868664 -0.088017926 0.39637947 0.15996043 0.517594 -0.14387526 0.11688463 0.2293183 -0.3765601 0.022459 0.14868177 0.021750072 0.15041155 0.04402436 0.06466122 0.0065567084 0.6006785 0.60772955 -0.24593608 0.47255683 -0.23633477 0.061799675 0.14917737 -0.028176742 -0.27736747 -0.10904118 -0.020764964 0.24525136 -0.027346265 -0.029975636 -0.12103061 -0.19906564 -0.15745607 0.0636309 0.08098764 0.026848488 -0.007338847 -0.5501327 -0.027431723 -0.29499334 -0.56166166 -0.22090594 0.19769914 0.113568194 0.9546903 -0.14172077 -0.13892041 0.1599913 -0.26919425 0.046210963 -0.049136396 0.028446639 0.48040828 -0.33387682 0.06549631 -0.062275574 0.15369011 -0.08151549 0.08118757 -0.33721 0.079074934 0.12310233 0.35424978 -0.4345854 -0.0069598616
C0352155 -0.20566018 -0.08420991 0.39164418 0.33405554 0.06504248 0.2976596 -0.2645683 0.23353526 0.04393528 0.041053623 -0.04582367 0.13594608 -0.29085848 0.032467112 -0.15146129 -0.33890006 -0.3384622 -0.049255516 0.43990535 0.155616 0.19215822 -0.050814178 0.14156245 -0.18876995 -0.38504663 0.14319761 0.26247668 0.19153626 0.21540076 0.31900495 -0.2526189 -0.1558404 0.17936756 -0.14642274 0.24606688 -0.37625816 -0.024280474 0.5313944 0.16178222 0.44218874 -0.049817868 -0.04903229 0.013818868 0.23232442 -0.2809892 0.22646339 0.43172812 0.33391035 -0.2667096 -0.18155421 -0.29156744 0.18911475 0.16077626 -0.28434607 0.2938688 -0.24139598 -0.22675283 0.452536 -0.20469481 -0.16211586 0.36683893 -0.16512388 0.35722268 -0.24010326 0.5986658 0.023629313 -0.14791334 0.08385637 -0.14371671 -0.27166465 0.08198898 -0.47731987 -0.2023185 0.2350227 0.14489545 -0.30870974 0.05466201 -0.44990203 0.014229378 0.9497965 0.11443728 -0.3841792 -0.13007887 -0.46163547 0.5712777 0.5167329 0.19215003 -0.075819775 0.18368189 -0.020819422 0.52344453 0.19758134 -0.4549547 0.15991119 0.13409455 0.42550385 0.18239065 0.3364614 0.25112078 0.62562
C0040341 0.13285786 0.20170525 0.07087947 -0.4677472 0.38099787 -0.06898235 -0.24681959 0.15329118 0.03791396 -0.12488815 -0.641886 0.25543794 -0.12002929 -0.09838198 0.09633651 -0.36992773 -0.37966806 0.16858318 0.476469 -0.20224044 -0.10590477 -0.121566884 -0.4816386 0.009288299 0.072046675 -0.0678079 -0.06254963 0.34454656 0.4434008 -0.31029072 -0.029351879 -0.25489065 0.09342798 0.08000268 0.59792686 -0.11700089 0.21000691 0.23271377 -0.22781523 0.3853868 -0.19868782 0.38177907 0.070589855 0.45860097 0.08357115 -0.010283792 -0.34799007 0.2878169 0.11309852 -0.02923015 -0.11205262 0.36117628 -0.07023248 -0.003181496 0.64794123 -0.42325726 -0.36140355 0.18140258 -0.2502294 -0.46260443 0.4578916 -0.24347168 -0.07172456 -0.002937787 0.36355317 -0.18179487 -0.2508298 0.16825876 -0.039729666 -0.15333097 0.14733265 0.3347983 -0.098389834 -0.23758449 0.039703004 -0.48089752 -0.0823229 -0.06653616 -0.14969766 0.502291 -0.042580564 0.08333067 -0.32613194 -0.4158835 0.46258554 -0.07388201 -0.30287763 0.14047243 -0.42301652 0.23227581 -0.21464399 -0.09796324 -0.2225687 0.14653718 -0.017386185 0.038667087 0.27200764 0.56277066 0.047732912 -0.19251637
C0013090 0.027645478 0.1407883 -0.0069450308 0.21479867 -0.16133222 -0.030516969 0.0061849663 0.22827168 -0.1822299 0.06656784 -0.09437261 0.16868518 0.052199874 0.13415276 0.09933898 -0.16271037 -0.13820957 -0.5187141 0.37996727 0.28754663 -0.3687153 -0.14613704 -0.022698583 -0.35594687 0.28680146 0.16343434 0.24513343 0.3774777 0.3588055 0.08197846 -0.19855769 -0.34874597 0.1857743 0.041048244 0.25127906 -0.28433028 0.33458123 0.13761571 0.13404574 0.48632538 -0.16447325 0.45053068 0.12491711 0.0064511616 0.04861378 0.23496845 -0.2304956 0.04374901 0.096583195 -0.51784086 -0.31031543 0.4842142 0.23666985 -0.14401136 0.5548167 -0.22414131 -0.101677276 0.41419235 -0.15300205 -0.4251286 0.08308579 -0.6440634 0.2590726 -0.107778445 0.0047588125 -0.08306961 0.20026797 -0.14965476 -0.4115421 -0.20955871 0.24351576 -0.16580619 0.07906006 0.20174214 0.1146347 -0.113596104 0.17207146 -0.08017621 0.19665216 0.55990434 -0.13542092 -0.15092942 0.019422123 -0.14761895 -0.10043006 0.11530643 -0.14091775 0.06657706 -0.024662148 0.30166423 -0.14453872 0.0480647 -0.24280801 -0.17373359 -0.08361362 -0.0592648 -0.42051163 0.33025688 -0.06280254 0.25068817
C0042839 -0.23736094 0.022578869 -0.30299526 0.023464592 -0.021640318 0.3151962 -0.14309353 0.38343197 -0.12117194 0.1296726 0.048878107 0.33505487 -0.3505608 0.15672363 -0.59538406 -0.026688505 -0.82784045 -0.25449297 0.40488347 -0.10721349 -0.18307784 0.17261675 -0.07561144 0.11124847 -0.08026055 -0.0536383 0.183736 0.09510603 0.52210957 0.021677515 -0.07536595 0.061184853 -0.34902978 0.23674415 0.23384684 -0.15817055 0.13438076 0.16993196 -0.015211358 0.24578713 0.07014884 -0.5471654 -0.17424385 0.048695408 -0.67427635 0.27100566 0.2717364 0.094084434 0.26472822 -0.19558263 0.2105477 0.31918207 0.19676755 -0.16193171 0.48646715 -0.03302271 -0.6403714 0.09514644 0.2105895 -0.11793713 0.27251726 -0.2418434 -0.1096996 0.29121703 -0.066106476 0.43778312 -0.098668195 0.11158196 -0.10973217 -0.30943814 0.03566718 -0.57315 -0.8043305 0.13983509 0.06583196 -0.53858525 -0.14070527 -0.17777482 0.13609125 0.28874472 0.7601809 0.10514152 -0.004084631 0.17685114 -0.048638567 -0.2970886 0.06475822 -0.21707204 -0.18511382 -0.036498677 0.18378353 -0.60751754 0.17869657 -0.26282898 0.007828116 0.47815683 -0.15967502 0.33748823 -0.36339268 0.48306367
C0053230 -0.07255755 -0.13613 0.18992804 0.045618564 0.17478961 0.1707549 -0.14793018 -0.082896076 0.11126077 -0.18417594 0.12899724 -0.23799948 -0.3223576 0.010328518 0.13964589 -0.4158229 -0.14839321 0.26796487 0.24087662 0.35867685 0.34921277 -0.047625285 0.06655434 0.050633922 -0.094018035 -0.41956806 -0.013608219 -0.11549666 0.12847112 0.26121065 0.24235529 0.15465516 0.12680876 -0.48350143 0.19367136 -0.15153047 0.19930635 0.5244761 0.5290774 0.4808416 -0.037733965 0.2661363 -0.4798857 -0.3819017 0.23798656 0.26781198 -0.08475574 0.23382223 0.08821841 -0.17637081 0.011735608 -0.26827583 -0.13481843 -0.13662317 -0.32182512 0.028686848 -0.2483669 0.08142477 -0.095579855 0.06568815 0.24576992 -0.20712481 0.12873961 0.39013293 0.39356193 0.23266524 0.0068726055 -0.26344508 -0.587716 0.26541469 0.5902586 0.036009558 -0.06963504 -0.06249785 -0.06669167 -0.24798779 0.14160757 0.24746114 0.16020165 0.10391482 0.085002184 0.12946588 -0.20584433 0.19373713 -0.13712609 -0.49824646 0.15292978 -0.03555156 -0.17530088 0.19027832 0.17933257 -0.14164649 -0.12796356 -0.44070658 0.03770379 0.1217215 0.33049777 0.17274453 -0.3527208 0.20554529
C0028741 -0.34378612 0.29431778 0.009914535 -0.015021404 -0.07816682 -0.24975738 -0.44034612 0.22680637 0.02809966 0.061480585 -0.36067513 -0.0051647117 -0.5596446 0.23523167 0.079744674 -0.45689836 -0.3245468 0.653088 0.22962399 0.06973362 0.19297034 -0.3485286 -0.37469304 0.12052354 -0.026070166 -0.43934423 0.043107815 0.4143711 0.31212467 0.056631777 -0.29700685 -0.2045131 -0.29413947 -0.18030241 0.06075704 0.20135878 -0.05472816 0.1768428 0.18452932 0.22896737 0.45895627 0.30181125 -0.41982788 0.20367907 -0.16993192 -0.2392256 0.35213166 0.564154 0.49730286 -0.21388821 -0.25676244 -0.4955732 0.1098548 -0.65919715 0.023759989 0.06598377 -0.26943654 0.29377085 -0.19023909 -0.19236578 -0.016823452 -0.56445813 0.22614066 0.10226391 0.32019335 0.0054119835 0.15840602 -0.45287076 -0.24622928 -0.3203412 0.39376712 -0.28416884 -0.015334646 -0.114692956 -0.017619347 -0.5477573 -0.41169256 0.14821313 0.5260569 0.026259547 0.337515 -0.6705397 -0.123632036 -0.26854533 0.22852764 0.16302739 -0.31103587 0.12381055 -0.44617844 0.48044375 0.6483605 -0.56197876 0.10733697 0.28213245 -0.111229435 0.00066606555 0.18152484 0.6474842 -0.28039756 0.21257469
C0023660 0.13561802 -0.11049276 -0.39675853 -0.39857805 0.1684085 0.07690056 0.4026582 0.08774403 -0.061527416 0.19614874 0.14553005 0.07952554 -0.33807284 0.19808365 -0.05325154 -0.20726997 0.010312728 0.11126814 0.31866938 0.017034324 -0.019903937 0.13292013 -0.14933926 -0.0651801 -0.17129521 0.12212062 0.15110031 0.065512694 -0.4303972 -0.14736441 -0.007205558 -0.35076407 0.49332827 -0.18629481 0.3047074 -0.21778466 -0.008278247 0.40477836 0.32693738 0.46485075 0.22145905 0.1048531 0.19602521 0.52078706 -0.25817025 -0.14992024 0.18780155 0.15389821 0.005987222 -0.3849013 -0.056960966 0.057170678 0.41137022 -0.35532287 -0.072766006 0.022895232 0.4208533 -0.15423343 -0.18312272 0.02340768 0.097305715 -0.10267008 0.18768017 -0.18592559 -0.26145202 0.034866765 0.40583518 -0.0031632273 -0.22048485 0.17282498 -0.14510806 0.1004408 0.0045927097 0.131629 0.35767832 -0.12964286 0.14196977 0.23282337 0.18838406 -0.029401049 0.1788081 0.15417768 0.22279954 -0.39187673 -0.0155890845 -0.47073495 0.10128921 0.17555146 -0.095725656 -0.15156417 0.27083585 0.12953915 0.19026946 0.0056230226 -0.12855884 0.109738775 0.1089821 0.24415098 -0.3027845 0.25848255
C0029995 -0.63309705 0.22171545 0.0027778079 0.113471925 -0.16391367 -0.15489684 -0.6674158 0.42047796 -0.056528483 -0.031015348 -0.27222574 0.42056254 -0.3584337 -0.011414 -0.25903094 -0.5892916 -0.05185441 0.19303052 0.46331328 0.0353162 -0.15973465 -0.28463033 -0.24867545 -0.03667401 0.33712974 -0.3638795 -0.27156055 -0.12531872 0.5115474 0.08779045 -0.30521592 -0.11057646 0.047563322 -0.26050475 0.06758208 -0.5812791 -0.30013973 0.43337992 -0.12557168 0.3908743 -0.46612984 0.35324994 -0.07551792 0.31239405 -0.28626186 0.39900133 0.52066815 0.47265315 0.07568394 -0.19462948 -0.010379039 0.24552065 0.64605856 -0.026021643 0.21391866 -0.27734026 -0.13265613 0.33801782 0.14034186 0.21289277 0.40560254 -0.06932292 0.104374535 -0.032329474 0.3616878 0.08208802 -0.22011127 0.44712225 -0.1066912 -0.08951012 0.07699 0.166018 -0.34962988 0.17853501 -0.07950144 -0.4527345 0.36354858 -0.32429898 0.4653278 0.44335976 0.3260367 -0.25461325 -0.25688434 -0.29037917 0.015764685 0.013985188 -0.06660593 0.30949447 0.06269056 0.21313432 0.22241795 -0.37477183 -0.09048336 0.22527516 -0.2401902 0.12851205 0.30649555 0.1523286 -0.12849493 0.23314863
C0014806 -0.28469887 0.15572931 -0.16797528 -0.13512379 0.20312889 -0.29841316 0.1009983 0.15028583 -0.012414557 0.23094495 0.019135294 -0.046476662 -0.06951281 -0.35565493 0.36384675 -0.3156052 -0.24376081 -0.6109211 0.49014017 -0.114123076 -0.35342523 -0.23626575 -0.42742646 0.39786112 0.33713228 -0.060545262 -0.17873976 0.14962406 0.1993942 -0.2011305 0.13067439 -0.3188813 0.3041271 -0.06323814 0.16580012 -0.6017141 -0.008016575 0.1726927 -0.046652734 0.46206585 0.13784105 0.14946209 0.19131316 0.017483499 -0.2179192 0.03273315 -0.21972425 0.179732 0.13277778 -0.08616817 -0.20079653 0.5161454 0.2682055 -0.10147038 0.46270278 0.35576874 -0.022599401 0.35269547 0.37441266 -0.14091057 0.4226905 -0.5247281 0.037118066 -0.22355889 0.43305433 -0.08725774 0.22030713 -0.067700356 0.1036421 0.13016611 -0.08089362 -0.025650965 -0.38356614 -0.08194637 0.09639022 -0.7464822 -0.08517116 0.09391776 0.23482426 0.31137383 -0.25053564 -0.08856413 -0.10914591 0.15534864 0.36856437 -0.18329976 -0.27820215 -0.056486934 0.15633288 0.28551576 -0.1207049 -0.16879739 0.07337927 -0.44093266 -0.08143384 -0.32711807 0.36325675 0.2189849 0.059123445 -0.23355217
C0022322 -0.14448896 -0.15824793 -0.12833153 0.2300773 -0.2616283 -0.22727595 0.2506148 -0.13509604 -0.14206642 0.0040629636 0.061339874 -0.0071539553 -0.49458048 0.06580859 -0.18156996 -0.21971653 0.20246601 -0.11831703 0.31171307 0.03839256 -0.36305544 0.020910209 -0.19886877 0.256058 -0.1581991 -0.11044051 -0.30719852 -0.096576475 -0.29168555 -0.21123669 0.17048894 -0.17068693 0.08282797 -0.11488488 0.04063716 -0.07499631 0.14475533 0.2082663 0.5517026 0.5604291 0.07605164 0.18610086 0.4044953 -0.12225027 -0.73238486 0.3181641 0.17596413 -0.10286605 0.40579572 -0.1896478 -0.27620226 0.62754655 0.30087683 -0.36562145 0.24241997 -0.10954519 -0.21866564 -0.048605658 0.09028243 -0.08928159 0.1141184 -0.43048638 -0.028077887 -0.22860049 0.5406089 0.36231518 0.21194911 0.34079957 -0.10061763 -0.057407025 -0.12799813 -0.041185047 -0.03967989 -0.26488602 -0.024151193 -0.4424447 -0.11851508 0.32576886 0.38377547 0.9805927 0.15285186 -0.20756954 0.32245183 -0.024561685 0.06735887 0.02197524 -0.5399874 0.37527782 -0.5558059 0.45097932 0.20048095 0.21823783 -0.066638105 -0.27831665 -0.302894 0.34934098 0.31388927 0.36654282 -0.20176892 0.08409109
C0026187 0.19969033 -0.017578024 0.12821019 0.15622318 0.1707297 0.32043368 -0.21711586 0.11005871 0.04835788 -0.085494444 0.09536407 0.062615395 -0.11750553 0.116297096 0.20229807 -0.068842985 0.0036222958 -0.50154245 0.23013622 0.00686637 -0.15473604 -0.2545854 -0.30973914 0.283755 0.12674932 -0.07272798 0.08501204 0.17698167 -0.2086207 -0.06353253 -0.19493851 -0.06417436 0.5110647 0.22921024 0.04630475 0.07291809 0.123378985 -0.05176383 0.20902258 0.44942844 -0.0897652 0.46867546 0.060906194 0.054596 0.15727314 0.004459625 0.2545647 0.21228573 0.04399872 -0.66220725 -0.23510487 0.17265972 0.6133262 0.06816303 -0.19548927 -0.20254761 -0.16726226 0.16611914 0.0410253 -0.04913043 0.11298866 -0.293033 -0.009630204 0.26826155 0.38584107 0.05243415 0.13296437 0.2665442 -0.18926272 -0.2596075 0.45502773 -0.08817992 -0.13062228 0.20882098 -0.0910917 -0.09940055 -0.091668345 -0.19510002 0.17262246 0.056754638 0.43359035 -0.08047036 -0.1623446 -0.183819 -0.62695503 0.14047348 0.19324288 0.07043317 0.13248026 0.27693433 0.43981883 -0.20630616 -0.17180035 -0.22054903 -0.15795888 0.22893566 -0.46952957 -0.083555855 -0.103748344 -0.06685543
C0209368 0.04977084 0.027440168 -0.18593842 0.20421329 -0.031172713 -0.3074292 -0.028577842 -0.25400296 0.19619903 -0.26206684 -0.07600977 -0.11003107 -0.20987353 -0.18230598 0.1333017 -0.20147273 0.07256883 -0.16540365 0.07655935 0.06937353 0.1278878 -0.11272477 -0.6124294 -0.109329425 0.1649236 -0.3209943 0.026179347 -0.20041575 -0.3717914 -0.30455932 0.040235505 0.045191728 0.09298168 -0.00955861 0.16552962 -0.08367119 -0.05311628 0.033672266 -0.019872414 0.38329664 0.056040213 0.15298435 0.0939881 -0.13345203 -0.5173403 -0.1678865 0.08334191 0.31183115 -0.122274235 -0.14426866 -0.4739177 0.35725206 0.19152184 0.19839104 0.23447828 -0.37324148 -0.20192236 0.04861849 0.027517796 -0.041970216 -0.04877213 0.24578734 0.32204214 0.2924862 0.02689483 0.21478319 0.22984208 -0.061891858 -0.067159995 -0.08163604 0.14284045 0.066308536 0.244028 -0.10616989 0.124706194 -0.18450919 0.03930602 0.019616242 0.050489277 -0.043359574 0.35665318 0.37924615 -0.19258946 0.09347173 0.038351905 0.17818934 0.078828625 -0.25121528 0.028596329 0.19358175 0.5321981 -0.16327488 -0.18779705 -0.44866648 -0.07701289 0.12400502 -0.06791492 0.5153042 -0.09161721 0.2322103
C0030840 -0.15151459 -0.03075083 0.055955272 -0.25777844 0.2565108 -0.054053616 -0.24947003 -0.09808886 0.11965148 0.14847101 -0.15761375 -0.11905826 -0.011546283 -0.16775647 0.19843051 -0.22742106 -0.18415065 -0.168457 0.12802283 0.05224505 0.009626824 -0.44238645 -0.1824557 -0.17027603 -0.18275322 -0.30507457 0.1373466 0.03477744 -0.2973332 -0.08944524 -0.13561589 -0.042519577 0.24807708 0.109127864 0.24454086 0.29592496 -0.12690112 0.49489614 -0.062457692 0.17144525 0.055648595 0.117093414 0.35708398 0.16940485 0.17135593 0.18246633 0.57241535 0.18033136 -0.07910655 -0.36431047 -0.5123418 0.41328076 0.2546855 0.28546378 0.1659792 -0.4630873 0.13241462 -0.11952307 0.25183806 -0.20214035 -0.13201582 0.28259456 0.10722803 0.07786856 0.7071425 0.010894633 -0.27488628 0.07277068 -0.091189735 -0.17266354 0.23072112 0.25637573 -0.21738753 0.07337298 0.22703874 -0.06338226 -0.04646918 0.36827224 0.025366278 0.054135755 0.087508805 0.090245664 -0.25161287 -0.078354016 -0.12243869 0.40617087 0.17229146 0.0034156297 0.070291996 0.18013005 0.37491968 -0.35237488 -0.03717692 -0.34294885 -0.3267912 0.521679 0.2386642 0.35468176 0.32549998 -0.15238994
C0304317 -0.29767773 -0.23808765 -0.16884209 0.050731745 0.0077882777 0.026694454 -0.5110377 0.26135203 -0.3149485 0.13195962 -0.5976778 0.007869907 -0.31807852 0.34947807 -0.15426835 -0.105672576 -0.47032875 0.13197422 0.502677 -0.042447336 -0.13717468 -0.054232735 -0.49611267 0.021269256 0.21017523 -0.316371 -0.14530632 0.25207177 0.20825288 0.19637084 -0.4510063 0.047172893 -0.14320113 -0.2511411 0.42080724 -0.36141524 -0.101589404 0.60810745 0.3053499 0.44378436 -0.247541 0.10000188 0.06903664 0.5629315 -0.19917548 0.28741655 0.43263495 0.43776527 0.3629586 0.0829368 -0.034515716 0.230631 0.22819594 -0.26050746 0.402369 -0.020900069 -0.41666898 0.3547872 0.011748043 -0.3522046 0.0011050345 -0.119610175 -0.27704418 -0.4142218 0.3164379 0.13681957 0.22793289 0.40981993 -0.21106602 -0.17355557 0.21570516 0.08849266 -0.080660865 -0.24272732 0.17203495 -0.61273 0.098824844 0.014497752 0.55100596 0.36288732 0.41171038 -0.056007046 -0.04755021 -0.10166496 0.1398586 0.15857312 -0.27514595 0.4886905 -0.50674105 0.5090541 0.18520717 -0.17654021 -0.0048540505 0.1787111 -0.119724594 0.48588517 0.3637093 0.59771234 -0.24713151 0.48944864
C0028978 -0.00436196 0.5254058 0.2143115 -0.28329083 0.030535461 -0.19900301 -0.37384823 -0.03219657 -0.06261058 -0.26726687 -0.32121575 0.2598427 0.13531898 0.013558684 -0.059426706 -0.17144193 0.22549863 -0.10804207 0.13491648 -0.19063728 -0.25844973 0.22002593 -0.0278344 -0.000470921 0.10503015 0.02076762 0.18376587 -0.08825009 0.3913042 -0.026337182 0.0016156827 -0.55904335 0.02294518 -0.041512124 0.028434927 -0.14643684 0.30867517 0.44119537 0.34646118 -0.015185146 0.421047 0.08159678 -0.25973284 0.2920995 -0.20943262 0.41511166 0.18410642 -0.11821063 0.29063454 -0.27657366 0.048822537 0.011453701 -0.2939948 -0.22694764 0.19970308 -0.4051887 0.06392145 -0.1945181 0.7035151 0.02243787 0.084357254 0.16295023 0.121304065 0.25406322 0.13340601 -0.009606578 0.33776948 0.0026206835 -0.13657649 -0.17838688 0.1219562 0.18560056 0.07704213 -0.039105754 -0.06995333 -0.08307214 -0.21277015 0.17330593 0.24632573 -0.13102692 0.10314086 -0.09679579 0.08154997 -0.09163549 -0.056474067 0.11308366 -0.05226672 -0.13110615 0.08043236 0.12203888 -0.056476135 0.44505575 -0.2655741 0.16469423 -0.25789806 0.27636653 -0.5866661 0.23517402 -0.30780932 0.4542114
C0123091 -0.027649373 -0.18798806 0.385638 0.13419577 0.19695136 0.054090407 0.34150863 0.37249476 0.029753724 0.011366812 0.081363514 0.42736316 -0.1755939 0.112895645 -0.19589299 0.18513133 0.061943423 0.04097516 -0.22821389 -0.015095137 -0.112902485 -0.0030487527 -0.24317661 -0.012259695 0.018802615 -0.056732204 0.14886776 -0.18096092 -0.09318915 -0.35417965 0.088893674 -0.116993785 -0.17720263 0.25615582 -0.0879944 -0.14385922 0.14541808 0.23070164 0.37556615 0.11959477 -0.14382495 0.13210228 -0.12400307 0.20870884 0.3415806 -0.1799709 0.024584087 0.1523545 -0.3637075 0.27457064 -0.0635397 0.13252304 -0.10080646 -0.34019816 0.43348315 -0.15509883 -0.34837693 0.059738416 0.23534419 0.12309602 0.49479502 0.07546081 -0.060030296 -0.0043349084 0.23888223 0.03519222 -0.0650194 -0.017391829 0.06395376 -0.3584433 -0.06253562 -0.37448233 -0.020451806 0.26774898 -0.21689071 -0.0798938 0.026442038 -0.010101121 0.23117797 0.011593206 0.21306178 0.1133738 -0.11654087 -0.009615794 -0.16955441 -0.13310568 -0.21375896 0.17635758 -0.033765987 0.11321755 0.47138166 0.07345937 0.19595633 0.12334046 -0.070812985 -0.18539487 0.2527037 0.6744859 -0.00547971 0.151815
C0017710 0.58651054 0.18748167 -0.054277744 0.15541402 -0.012427039 -0.025209831 0.35353705 0.29667166 -0.036367904 -0.20247017 0.039943244 0.029926604 -0.26916146 0.07373948 -0.1404493 -0.67124075 0.0018967125 -0.22951996 0.089347854 0.24376424 -0.0356484 0.12768495 -0.10451178 0.08664532 0.14973742 -0.17619354 0.22421242 -0.11268184 0.22148336 -0.12970038 0.2361131 0.19216649 -0.1309839 -0.019325137 0.16048475 -0.35269484 0.0146413585 0.28101173 -0.085178204 0.008687444 -0.28927892 0.11764931 -0.1745544 0.49904805 -0.324232 0.12192259 -0.13658848 -0.37731302 -0.20154354 -0.54699236 -0.19592053 0.20898798 0.15728654 -0.37467563 0.004576422 -0.1716561 -0.22139958 -0.025038177 0.22173338 0.22305816 -0.14831671 -0.3573511 0.25465357 0.06407617 0.14279732 0.064424515 -0.15055564 0.24731229 -0.21895139 -0.012577998 0.07136781 0.37622812 -0.12955877 0.4900155 0.48444593 -0.22955443 -0.16154161 -0.13873792 0.1312037 0.4528293 0.059629276 -0.03731184 -0.15381798 -0.0805058 0.24095248 -0.47599527 0.0722714 -0.2621744 0.13599995 0.052869372 0.20562321 -0.23588026 0.00217889 -0.12740135 -0.06468506 0.0057949293 -0.004853388 0.13414201 -0.27960515 -0.023167046
C1260298 0.021684622 -0.11739261 -0.084510155 -0.37704378 -0.19156584 0.20541154 -0.5202486 0.16969587 0.26477236 -0.0833727 -0.29065952 0.21971896 0.028398134 -0.03383599 0.23821937 -0.2185071 -0.06872242 -0.29467544 0.25437057 0.2825832 -0.20379299 -0.4129398 -0.5903381 0.008159453 -0.07868158 -0.45317063 0.042765025 0.4505621 0.27478164 0.10187652 -0.39198992 0.19494791 -0.078739576 -0.21147181 -0.113503 -0.037468318 -0.11083876 0.4191071 0.43077213 0.63319355 -0.113732934 0.46503386 -0.15341684 -0.17258644 0.6629561 -0.16480625 0.21827006 0.27140602 0.23128386 -0.15848362 -0.02477436 0.15287408 0.17878096 0.06450474 0.22070055 0.09179364 -0.3820339 0.38730574 -0.23112412 -0.17908497 0.27568206 -0.21373588 0.0920112 0.19951494 0.42133284 -0.42253065 -0.09253552 0.013281372 -0.005066354 0.03391405 0.63800716 0.15721998 -0.05208472 -0.10741978 -0.13160887 -0.3127063 -0.2435408 -0.054965213 0.34447113 0.47375363 0.24780884 0.023509135 -0.19858652 -0.5893207 0.3519007 -0.2908194 0.24894911 0.30309823 0.12969305 0.094940655 0.15308785 0.11264383 -0.06421634 0.016260492 0.1853702 0.4874738 0.10246032 0.06515881 -0.057218388 -0.016334055
C0250480 0.18876366 0.0695721 -0.054423228 -0.44502652 -0.27768853 -0.05516053 -0.46743223 -0.32916233 0.02778261 -0.11611216 -0.311011 0.19205569 0.020449676 -0.05044537 0.15234078 -0.099680595 -0.21002837 0.07569786 0.14472273 0.30058327 0.12150771 -0.16769113 -0.43340215 0.022991769 0.20985283 0.05104224 0.4237745 0.02037823 -0.34895632 -0.3741573 -0.2963271 0.09188056 -0.027595185 -0.2042941 0.053259455 -0.2457797 -0.15553504 0.4003508 -0.3844848 0.7815951 0.12330221 0.16427606 0.085374326 -0.31267488 -0.06764942 -0.11932572 -0.017954472 0.39468074 -0.051415503 -0.042845313 -0.13055475 0.28011492 0.13792546 0.22840163 0.43596908 -0.0868475 -0.087454766 0.4019251 -0.2819791 -0.22926396 0.2410194 -0.05600826 0.13607009 0.26831576 0.06760689 -0.097765245 0.08037899 0.16815156 0.052731134 0.100065835 0.010347781 0.29843917 0.047924474 -0.18759376 0.067808546 -0.026688397 0.0485386 0.22682464 0.14942987 0.48300123 0.3510529 -0.19277269 -0.6040029 -0.35413915 0.010888645 0.039902464 0.13519447 0.07802131 -0.05583588 0.06177465 -0.15136808 -0.19256027 -0.33420926 0.054506235 0.021618268 0.13700318 0.12497028 0.45101628 -0.06025064 0.03843173
C0028365 0.05775812 -0.059114296 0.13967393 0.41523865 0.16787556 0.11926733 -0.48884717 0.18590799 0.008252253 -0.13491884 -0.2948023 -0.48474213 -0.1069606 -0.5571378 0.14155227 -0.16473252 -0.39503124 -0.16965984 0.14597647 -0.024088297 -0.31501555 0.15036444 -0.34937003 -0.2301492 -0.0153046865 0.41288927 -0.24078415 0.11119817 -0.32409057 0.13214976 -0.034913834 0.24164358 -0.0132140415 -0.29549322 0.5077658 -0.24110636 -0.2688311 0.3449705 -0.09322414 -0.008610538 0.30808702 0.086049266 -0.05926009 0.16599154 0.15766846 -0.03990974 0.5613909 0.3100525 0.07279523 -0.16277665 -0.061995037 0.30204147 0.31817964 0.018641723 0.26384515 0.2482148 0.12927443 -0.20702003 0.0148705505 0.02612864 0.30907595 -0.07812893 0.25899485 0.18366717 -0.054179296 0.211164 -0.25581756 -0.0033511978 -0.07491198 0.2546489 0.13943686 0.11250072 0.22438408 -0.07095281 -0.32511044 -0.19604757 0.19928499 -0.074157804 0.25724736 0.24233358 0.01912777 0.1089401 -0.31315914 0.018344795 0.0818573 0.027148 0.07405002 0.32951638 -0.21562733 -0.10768891 -0.008371274 0.21023579 0.26859352 0.19456245 -0.16952269 0.2825944 0.10484807 0.38332254 -0.26602954 0.239698
C0052432 0.14025381 0.19843729 -0.42601871 -0.32974318 0.043328017 0.051881235 -0.13807596 0.28934976 -0.26094007 -0.06490376 -0.12797591 0.040971413 -0.08943571 0.90247446 -0.41991892 0.111444615 -0.038711887 0.072624266 0.29329768 -0.12289982 -0.028179547 -0.16354808 0.00199829 0.21092 0.033688236 -0.23176648 -0.11735961 0.34936538 0.5995827 -0.068382844 0.06743452 0.09259838 -0.23185144 0.1769262 -0.029145168 -0.14453237 0.08631498 0.08881571 -0.08016343 0.2963205 0.22296989 -0.16651608 0.3672382 -0.09533616 -0.27477205 0.6496768 0.34102032 0.29008114 -0.40494192 -0.38623843 -0.12055978 0.17879859 0.23418707 -0.14048997 0.43193927 -0.2394793 -0.12575117 0.09829392 -0.024339 0.31626117 0.21070704 -0.51188797 0.44619814 -0.20892413 0.15694456 -0.19825692 0.077524394 0.05411974 0.060771737 0.16947481 0.021083912 -0.12160356 -0.12859908 -0.3283529 -0.3367177 -0.29114157 0.09805906 0.021625752 -0.24267584 0.20929573 0.07389031 -0.10708475 -0.10528513 0.032248896 -0.4507865 0.42583212 0.09255953 -0.19579242 0.011679868 0.029763386 -0.10792013 -0.16482894 0.05813532 0.00036490578 -0.07703806 -0.15470654 0.5431004 0.4824088 -0.6133924 0.3875125
C0700599 0.16273881 -0.06991937 -0.31148526 0.2936637 -0.24399492 -0.06631023 -0.105809696 0.33677036 -0.34191045 0.13888496 -0.25844845 -0.2560761 -0.6020073 0.28059983 -0.07713231 -0.14198883 -0.2593118 -0.22342739 0.44522566 0.10602895 -0.14165434 -0.21412617 -0.20846573 -0.30042613 -0.08033728 0.08552426 -0.23688143 -0.11726403 0.43902457 0.085494645 -0.22260067 -0.05295028 0.06285211 -0.10948139 0.032206185 0.053361326 0.17387405 0.013996146 0.21329802 0.27456102 0.040755324 -0.015211217 0.3608863 0.27778468 -0.5417405 0.49529862 0.4525613 0.10758533 0.28894362 -0.09885779 -0.13849482 0.30955106 0.07999648 -0.24224581 0.53730685 -0.14220168 0.0066673127 0.06975722 -0.20567249 0.14013475 0.49678847 -0.19484395 0.053614374 0.013881183 0.43952283 0.2264735 -0.04611898 -0.27972534 -0.111888744 0.08033716 -0.048813023 -0.2195715 -0.4899685 -0.27348983 -0.08538172 -0.6577338 0.1430063 0.14215061 0.6621363 0.5477359 0.091024116 0.16696097 0.5881291 0.07346865 -0.3355984 0.13053884 -0.15274185 -0.21533243 -0.23715204 0.17419101 0.18715979 -0.2817321 0.13885094 -0.40136972 -0.11993761 0.061012384 -0.049179416 0.30756363 -0.42297676 0.5125909
C0055003 0.31471503 -0.011080444 0.03402824 -0.37790695 0.3832541 0.1685981 -0.2639671 -0.033446256 0.0152765205 -0.005498517 -0.18533377 0.213769 -0.0016256005 0.08404367 0.12590685 -0.114985436 -0.08515084 -0.30566084 0.42558113 0.041962735 -0.20731792 -0.062787995 -0.49505532 0.016771048 0.062530674 -0.25191242 0.092250206 0.09811209 0.15571806 -0.119970195 -0.051967017 0.1365514 -0.2112401 -0.11288588 0.14701156 -0.051353887 -0.35041958 0.38413596 -0.30242667 0.432931 -0.24052562 0.19917352 0.082896605 0.2588482 0.4315709 -0.36222187 0.10658381 0.29910332 0.62384975 0.11325308 -0.001566247 0.41670647 -0.32400677 -0.090116955 0.5009917 -0.02114861 -0.043405123 0.051897064 -0.17046736 -0.26831314 0.4123029 -0.083422355 0.14515997 0.13196546 0.078416154 -0.38288647 -0.218164 -0.35848895 -0.27244344 0.16838504 0.2651378 0.20629832 -0.20540561 0.08246015 -0.25531617 -0.27512598 -0.21943615 0.0824365 0.053436294 0.9825604 0.3096281 -0.35649264 -0.21039942 -0.2172365 0.35501865 0.020431926 0.18874913 0.44092792 -0.10719001 0.017953616 -0.22954674 0.068757266 -0.1470347 0.44743037 -0.010571338 0.09415738 -0.09988623 0.68001443 -0.105541535 0.23352535
C0304320 0.06146593 -0.019444395 0.14359206 -0.22128052 0.12296321 0.2625342 -0.27290243 0.058065977 0.23402059 0.5636225 -0.3716227 -0.17095044 -0.21304633 -0.08268741 -0.04932022 -0.19874538 -0.35170758 -0.30802327 -0.072018 0.3269614 -0.1570225 0.57403946 -0.22964332 0.027780812 -0.0590396 -0.23083355 0.36558 0.30586538 0.18141973 0.13778138 -0.07350616 0.16480392 -0.48633242 -0.22381471 0.13159329 -0.18067141 -0.13622324 0.556659 -0.21348475 0.6788535 0.0065530464 0.14086424 0.3212186 0.22321069 0.17693582 0.15943232 0.31162956 0.21525931 0.27453113 -0.16002487 -0.037795223 0.5270243 0.30188853 -0.080460474 0.30443078 0.11912459 -0.33654577 -0.13126421 -0.4736656 0.007562925 0.118282795 -0.30237994 0.3270894 -0.16480336 -0.06669826 6.298001e-05 -0.028924447 -0.012635263 -0.2365388 0.23096152 0.16329181 0.27944145 -0.3624412 0.13194592 0.0954579 -0.1384956 -0.13601665 -0.10288617 0.4148662 0.7139912 0.33790845 -0.27327734 -0.13763128 -0.24988912 0.33096078 0.3785184 -0.043498505 0.57425857 -0.13149367 -0.15316187 -0.21268022 -0.53299594 -0.09173208 0.1358537 -0.07136277 0.14254308 0.21882471 0.80753136 -0.095349096 0.40886307
C0008269 0.15141842 0.33600527 -0.04068095 0.18402435 -0.19190474 -0.23015219 0.23905702 -0.1909086 -0.3220506 -0.009719061 -0.47536573 0.07265792 -0.38515094 0.5733107 -0.13896099 -0.08961113 0.09087655 -0.28319845 0.46765873 0.2746334 -0.23316121 0.03289018 -0.14128381 -0.21669678 -0.11242589 0.02474741 -0.030466827 0.0681636 0.5569154 -0.020348558 -0.02758091 0.047352113 -0.099094234 -0.35850883 0.27948424 0.09249596 0.12025024 -0.15600643 0.34619424 0.12640958 -0.02286676 0.18996088 0.2954186 0.1734634 -0.42579165 0.6162645 -0.026666539 0.03126409 0.098907985 -0.16879892 -0.09770949 0.34338346 0.4089818 -0.1905311 0.8281957 -0.38793072 0.013299303 0.29649675 0.06933804 0.105300695 0.02616451 -0.3472287 0.046223953 0.036721844 0.19000109 0.17357117 0.003065198 0.21134897 -0.36384168 -0.14434409 0.2645512 -0.24275859 -0.024318963 -0.03144519 -0.017642777 -0.41864026 -0.024645055 0.22624257 0.6616581 0.54797745 -0.12447456 0.042992294 0.38664067 -0.0020445117 -0.2585828 0.105641104 -0.1066141 0.25600183 -0.25850117 0.1988532 0.23091745 -0.40302932 0.11915068 -0.08344747 -0.45999312 -0.13558887 0.044713207 0.31645522 -0.5309053 0.594666
C0025872 0.0047241948 0.100986496 0.12104149 -0.057992056 0.16786987 0.08152896 -0.41941318 0.25601268 0.19772391 -0.51758134 -0.37542102 0.09593925 0.25081348 -0.17141213 -0.065576985 -0.15222877 -0.38214597 -0.13459867 0.403438 0.43943715 -0.13101514 0.15799375 -0.14357333 -0.14800009 -0.10354708 -0.11891292 0.01043353 0.47761676 0.26022854 -0.12692504 0.009015355 -0.09556028 -0.013585627 0.36951235 -0.032635286 -0.4274658 0.06155077 0.44613364 0.2959048 0.6083097 -0.17581415 0.26953474 -0.29531172 0.33343363 -0.0043113646 0.17278427 0.003001781 -0.03538336 0.39620662 -0.10734508 -0.1903397 -0.078992404 0.14708658 0.031292297 0.57320446 -0.18627127 -0.29674816 0.29874215 0.3861929 -0.11257426 0.45208862 -0.31824395 -0.27793765 -0.18439688 -0.00922225 0.10939359 -0.21110596 0.24399889 -0.022040121 0.02196027 -0.27937195 -0.23532797 -0.1847474 -0.071000636 0.39501154 -0.13191815 -0.2869411 0.04853347 0.12142633 0.25471547 0.13509116 0.026781365 0.07719586 -0.42678162 0.10028068 -0.012239808 -0.12726834 -0.16540238 -0.32405204 -0.31884274 0.14538838 0.13760383 -0.30108482 -0.013723923 -0.09668558 0.44637537 -0.54158956 0.15692577 -0.40835094 0.45792726
C0032952 0.059971616 0.04270542 -0.0676442 -0.004362034 0.59574455 -0.02610234 -0.2682314 -0.046650305 -0.5178518 -0.21689272 0.006651914 -0.46650916 0.003408537 0.13612428 0.06199891 -0.0045951484 0.04781989 -0.013702563 0.11189361 -0.17403439 -0.2270757 -0.04243165 0.04547876 -0.06218639 0.23153098 0.2686893 0.02155725 -0.05611531 0.2509587 -0.28730822 0.1795114 -0.04050484 0.119005404 -0.15159957 0.5322096 -0.11135395 0.42397213 0.113430224 0.3218835 -0.09065069 -0.48678952 -0.102423675 0.061822936 0.2872896 -0.19051886 0.1180811 -0.25677916 -0.2122752 0.010518223 -0.17234188 -0.48045608 0.14423253 0.2637888 -0.20175248 -0.14580503 0.08548609 -0.1594589 0.16863173 0.19695668 0.13642895 0.32603565 -0.29065794 0.22795624 0.04878975 -0.019246152 0.17952122 0.038938012 0.14288934 0.09974065 -0.35882133 0.019528488 0.34544423 -0.30362472 -0.11424806 0.10007657 -0.22873732 -0.1909395 0.14325388 0.102315165 0.2646432 -0.011709316 -0.11572346 -0.21784584 -0.25406533 0.31033632 -0.15308025 0.37495682 -0.2248949 -0.10067601 -0.03606024 0.20827591 -0.507505 -0.11277323 -0.23231228 -0.10641287 -0.07262118 0.040110465 0.012481649 0.25068316 0.28585553
C0282215 0.06267878 -0.10540565 -0.2122423 0.22061396 -0.02633372 0.068951234 -0.6615051 0.096697494 0.03116342 0.26101843 -0.54743046 0.18133797 0.14452998 -0.09569006 -0.014238672 -0.38729668 -0.18440972 -0.20670572 0.2909297 0.38827348 0.16264428 0.08990146 -0.33023193 0.15169574 -0.07373125 -0.27664444 0.2697268 0.30063987 0.48857963 -0.012577976 -0.16316938 0.052210063 -0.09965672 -0.20323685 -0.30255547 -0.38401258 -0.07080435 0.5713216 -0.009366635 0.5690174 -0.051243596 -0.099733226 0.113621294 0.12019166 0.10885015 0.20452613 -0.0058888425 0.13433707 0.19850816 0.07031899 -0.063017674 0.5153217 0.30318087 0.06434941 0.3788614 0.25553352 -0.368777 0.43154338 -0.14909618 -0.18413548 0.19334087 -0.08138383 0.196506 -0.16241123 0.5952739 -0.24204376 0.06164776 0.13487506 -0.33237258 -0.23996994 0.061424494 0.24873619 -0.03458022 -0.096666045 -0.05956399 -0.4045935 -0.38602054 0.07701403 0.18181694 0.7111284 0.23709999 -0.01399761 -0.227731 -0.6142279 0.40605095 0.06271785 -0.14449227 0.43857178 -0.34852394 -0.06774605 0.222568 -0.27840054 -0.43144116 0.3248659 -0.044482928 0.27551398 0.14048265 0.32606336 -0.17959201 0.4657357
C0085149 0.06731234 0.24602643 0.041504264 0.413378 -0.026863253 -0.4017979 -0.23774204 -0.032832533 -0.07486964 0.2173597 0.1527041 -0.32257304 -0.48220655 -0.26720414 0.059465416 0.31900272 -0.18644577 -0.33833936 -0.12547603 -0.015820496 -0.24640399 -0.29223448 -0.3750935 0.1742889 0.065576866 -0.30486867 -0.23028624 -0.2287076 0.2235605 -0.41286212 0.47956252 -0.020925868 -0.1076622 0.13161574 0.097968996 -0.52983034 0.22158185 0.13994758 0.116447926 0.48258352 -0.11888922 -0.0012658775 -0.23830937 0.3555402 -0.63522583 -0.020526955 0.03838094 -0.16930659 -0.11320339 -0.20809063 0.17679639 -0.011603784 0.25384617 -0.31886557 0.27902398 -0.28521493 -0.16562545 0.22888418 0.09923195 -0.069596134 0.21968305 -0.36052543 0.2238025 0.032224916 0.34997693 0.4360385 -0.00010800945 0.38068816 0.028068738 0.36980438 -0.099709556 -0.35358575 -0.509872 0.07760399 0.16131529 -0.3008798 -0.30759943 0.047561355 0.31954396 0.3833837 -0.14529267 0.22622319 0.08216704 -0.2046666 0.40935653 0.06401761 -0.215734 0.015603412 0.30495194 0.002184811 0.23914817 -0.018753445 0.064825565 -0.59342384 -0.5396391 -0.041773435 -0.010128402 0.03242894 0.22326082 0.5326314
C0393080 -0.062569745 -0.045770135 0.13673775 -0.13918279 -0.045751106 0.09353702 -0.41160667 -0.053691104 0.35587972 -0.15148564 0.054305967 -0.16191365 -0.28488067 -0.16645546 0.1378103 -0.1310321 0.0954548 0.1109242 0.00795518 0.3189194 0.11970838 -0.15599672 -0.420841 0.12491501 0.08211041 0.106629424 -0.084101014 -0.0009555649 -0.15525787 -0.1636282 -0.08028894 -0.06502983 -0.1845961 -0.031007253 0.116391376 0.030948065 0.24405406 0.25261357 0.46895897 0.16406798 0.23439354 0.21900794 -0.39110076 -0.22012702 -0.07971014 0.027927887 0.015827874 -0.0015303643 0.17406318 -0.29513595 -0.26833916 -0.26785734 0.045857396 -0.095579796 -0.037642024 0.03751416 -0.14148538 0.042391453 -0.23343723 0.04109961 0.25841078 -0.2642978 0.44214597 0.2934188 0.5199529 0.2653185 -0.20866893 0.13785541 -0.4436417 0.13507508 0.83562386 0.055899616 0.055716127 -0.13632812 -0.062225025 -0.2306092 0.03236957 0.1532866 0.17456797 0.072415635 0.022144109 -0.41774145 -0.19561824 0.038693927 0.25960088 -0.38087642 0.075369366 0.14347099 -0.030511104 0.27698252 0.3648222 -0.008584903 -0.17490008 0.041101005 0.10053474 0.19666569 0.21268094 0.15890452 -0.4136445 -0.07567407
C0936150 0.10835006 0.1574575 -0.11310237 0.115124404 -0.040513974 0.09668387 -0.054381676 0.09281402 -0.26938635 0.29166147 -0.35183555 0.12927327 -0.11024119 0.45657825 -0.085709825 -0.18397354 -0.40802625 0.13181166 0.6093936 0.18520592 -0.1165606 -0.07563272 -0.26166683 -0.2336404 0.27813184 0.1351769 -0.19751154 0.12266401 0.6518256 0.1476473 -0.10494997 0.06740803 0.024728147 -0.070077755 0.070146106 0.22252887 -0.04442019 0.051003695 0.13704449 0.2530512 0.13805318 -0.13600664 0.19230914 0.3834774 -0.4444414 0.5478219 0.2869107 0.25407022 0.10182374 -0.2610503 -0.1516703 0.3840207 0.16392444 -0.12187298 0.71389204 -0.054694135 -0.1075143 0.3633822 -0.058436405 -0.0033000784 0.26944923 -0.14453378 0.15682463 -0.07823218 0.16503887 0.2729091 0.11155946 -0.08823174 -0.30903476 -0.107966974 -0.0069546513 -0.50638634 -0.49363545 -0.18883839 -0.3923568 -0.60953534 0.013601216 0.11728979 0.3473148 0.9838504 0.18113017 0.052807786 0.15111145 -0.141848 -0.5580565 -0.030053878 -0.31630763 -0.121038124 -0.33258766 0.5043264 0.15816587 -0.5576078 0.11294731 -0.43180326 -0.18983804 0.13239573 0.14933474 0.34658808 -0.42048848 0.45086998
C0017436 0.4071767 -0.04534573 0.009377424 -0.46370608 -0.47144464 -0.027360385 0.019081187 0.060333118 0.20816125 0.06617754 -0.45258987 0.13190041 0.24395916 -0.2445786 0.3043456 0.085841596 -0.020472866 0.06619145 0.09827388 -0.102416635 -0.030056724 -0.28092778 -0.34430233 0.18826245 0.1889931 -0.28176698 -0.0011249337 0.33821857 -0.05077405 -0.34369457 0.16712339 0.022358274 -0.14422266 -0.077886365 0.18151578 -0.2328736 -0.11464725 0.29553434 0.17252427 0.22174665 0.0006104206 0.0773574 0.10001055 0.3299808 0.049584918 -0.3350106 -0.2309866 0.081041366 -0.0015458665 -0.10343082 -0.20908499 0.4485953 0.001588308 0.0460374 0.47325253 0.03160173 -0.19113679 0.31210634 -0.24056654 -0.21711816 0.29425547 -0.37025654 -0.34440082 -0.41393352 0.079689145 -0.118169464 0.010958592 -0.066674374 -0.29553905 -0.12932798 0.17503503 0.13112678 -0.17758945 0.28157508 -0.1579278 -0.23250052 0.41110495 -0.10499161 -0.06114277 0.1541854 0.37196463 0.21605268 -0.3878523 -0.26027867 0.2734543 -0.18529102 0.16412738 0.53598154 0.007250669 -0.36766744 -0.059780218 -0.09662832 -0.374584 0.026373867 -0.15035501 0.5421145 -0.11880889 0.79979146 0.06561699 0.24123502
C0032857 -0.044563603 0.12581828 0.1753308 0.41551945 0.22591838 0.17932971 -0.24794896 0.24672848 -0.3697956 0.12798366 -0.4397729 -0.4609987 -0.035539307 0.31624657 -0.351577 0.21513647 -0.5281717 -0.045736175 0.19137388 0.57901883 0.12447913 -0.48379472 -0.09275856 0.10248796 0.1637484 -0.3161843 0.15664577 0.12356192 -0.13110523 -0.306326 0.12932247 0.08715509 0.15940128 -0.22345299 0.57532966 -0.35285828 0.2514973 0.18673022 0.20667335 0.5108205 -0.3122382 0.04794781 -0.09794734 -0.021095755 -0.18183728 0.25081384 0.19688077 0.31822562 0.43619147 0.3579971 0.04174761 -0.076694414 0.013245265 -0.13413453 0.24039857 -0.12608376 -0.11092028 -0.07035364 0.062912844 -0.2419264 0.114275634 -0.18522726 -0.36414668 -0.20647435 0.32743534 -0.12225549 0.15997055 -0.23534968 -0.43751854 -0.35821903 -0.1724476 0.16591018 0.14753917 -0.22135164 0.12494501 -0.49598923 0.45080414 0.5478145 -0.14820138 0.060160395 0.8882006 -0.33548287 -0.11956034 -0.030942276 0.26471195 -0.15274389 0.36666664 0.25628737 -0.03895452 -0.061196398 0.5091861 0.03229604 -0.1474672 -0.19153711 -0.28852847 0.040891163 -0.021675127 0.112669274 0.4058121 0.6185292
C0007716 -0.3303835 -0.052892793 -0.017106293 0.35339576 0.24012572 -0.070241764 -0.29203582 0.062919006 0.16488096 0.15914015 -0.03440943 -0.5412003 0.35947105 0.25500053 -0.019630594 0.12767626 -0.09428726 -0.046021942 0.31158617 0.17681861 -0.42015126 -0.07289838 -0.75564 -0.15656175 -0.17969342 0.19846156 -0.24690542 -0.011754691 -0.3906143 0.029448286 -0.50651294 0.09575525 0.12877905 -0.09563397 0.18518417 -0.18568073 -0.05708946 0.45135581 0.22253594 0.4106433 -0.050686225 0.16192566 0.007719191 -0.107546225 -0.05738798 0.14318469 0.38999683 0.35711572 0.1396997 -0.33008277 0.023964884 0.2924217 0.11444943 -0.51395714 -0.1057795 0.10040621 -0.080443166 -0.11372382 0.07813357 -0.0925745 0.3664603 -0.011648345 0.30804244 0.4190099 0.077867754 0.0454727 -0.0996329 0.10430301 -0.06889862 -0.021433132 -0.05381746 0.293661 0.01204771 -0.05456927 -0.46747145 0.076849066 0.0019130423 0.3076407 0.36867645 0.23616202 0.074118115 0.02463432 -0.52420783 0.13454144 -0.118476704 0.14667495 -0.076429516 -0.0769021 -0.23622023 -0.07938409 0.24421595 -0.08172669 0.042420313 -0.378458 0.07390032 0.7101235 -0.1033322 0.05228476 0.096837364 0.26732972
