1317 100
C0020443 -0.27095327 0.08023892 0.012486207 -0.06537147 0.09146984 -0.33841276 0.3151059 0.06609188 -0.31724864 0.05278254 -0.4052712 -0.06424465 0.046179816 0.12659769 -0.0014153227 -0.071863525 0.0035752996 -0.23750414 0.07300299 -0.3621372 -0.18276413 -0.08410054 -0.12887377 -0.23077658 0.39250863 -0.41716915 0.15406567 -0.15403149 -0.29342607 0.213602 -0.015423538 -0.21000722 0.5589776 0.03117774 -0.0856911 0.019550499 -0.44191986 -0.17973292 0.19626977 0.04257373 -0.27911317 -0.103439555 0.3497078 0.26658073 -0.14146477 -0.37832153 0.10645758 0.04617028 0.096560106 0.17746668 0.0036089616 -0.27083546 0.04807203 0.05617098 -0.3503816 -0.059574414 -0.11572283 0.15042715 -0.3931847 0.35976106 0.61593354 -0.12783563 -0.3269102 0.12888929 -0.3561424 0.08081699 0.08512959 0.024622718 -0.002053028 0.096843466 -0.12694697 -0.221535 -0.15552403 0.023733415 0.55608016 -0.3291631 0.47630572 0.17500739 -0.3638393 -0.14441258 -0.40874827 0.1369094 0.34663028 0.14728886 -0.14429171 -0.08537772 -0.9268549 0.4169356 -0.25742418 -0.04715336 0.010963974 0.56413114 0.407427 -0.10517031 0.23143482 0.19690165 0.417041 -0.0023429154 -0.30641738 -0.40605855
C0085542 -0.00800195 0.3781613 -0.08886484 0.0653813 0.102975994 -0.48045245 0.2574021 -0.13310005 -0.2851249 -0.5394666 -0.14332566 -0.03220573 -0.1605933 -0.035213813 -0.30668253 -0.052742194 0.073108606 0.048417713 0.18992563 -0.12662119 -0.13285103 -0.0110563105 -0.08683781 0.0033331004 0.07482404 -0.03528833 0.12192886 -0.36190343 -0.09059009 0.3781322 0.20131326 -0.030142382 0.4045241 0.1316307 -0.2342223 -0.08004761 -0.462937 -0.33892676 0.026254421 0.1779838 -0.04729164 0.032602724 0.2962518 0.20243335 -0.42389905 -0.20275916 -0.0063238605 0.10459387 0.26678973 -0.04817827 -0.14716205 -0.33576646 0.14613299 -0.055376742 -0.1521092 -0.009063447 0.00049364695 -0.081801906 -0.3149617 0.18697141 0.24921706 -0.15963666 -0.2981809 -0.027630448 -0.32764077 0.4955627 0.023897557 0.047374822 -0.041607134 -0.05577046 -0.182332 -0.328518 -0.15041187 -0.07589777 -0.10334569 -0.14265905 0.45197394 0.35640326 -0.36532858 -0.09456685 -0.46993122 0.04634212 0.16036092 0.3052302 -0.14729512 -0.012241959 -0.44848132 0.4645336 -0.26464537 -0.32215655 0.018940786 0.36380768 -0.25476658 0.2073888 0.07410629 -0.12341838 0.25956395 0.01708388 -0.25984105 -0.22602345
C0286651 -0.031369794 0.1339198 -0.052442 -0.05164389 0.03449119 -0.17628044 0.114095084 0.18087675 -0.1245745 0.060302965 -0.5562082 0.021025253 -0.11555514 0.15153328 -0.13220711 -0.23598182 -0.117726445 -0.07462772 0.2986141 -0.15003939 -0.22352836 0.06122149 0.07118134 -0.16080537 -0.1590905 -0.11027254 0.060172576 -0.2659526 -0.34755915 0.1360481 0.089904115 -0.16573639 0.124595284 -0.16952592 -0.25119972 0.076367326 -0.2217383 -0.17344792 0.2829993 0.3067713 -0.07405734 -0.09898517 0.18888128 -0.024919203 -0.09751732 -0.4291459 0.23867051 0.18873979 0.15768655 -0.27297747 0.1145433 -0.40772942 -0.004794002 -0.17426977 0.12553555 -0.1302279 0.062715694 -0.084747225 -0.13185908 0.2661164 0.05994361 -0.16102006 -0.5575969 -0.32832748 -0.20917822 0.05460234 -0.08145183 0.13925302 0.17519213 -0.23134752 -0.43983582 -0.14021909 -0.20919138 0.19081485 -0.022643281 0.08686449 0.23278941 0.32025117 -0.1940687 -0.13613832 -0.1265555 0.07817036 0.34768096 0.1639999 -0.23871142 -0.16639456 -0.7467388 -0.07685194 -0.38518605 -0.19278595 -0.13433649 0.52369535 -0.102128156 0.016690481 0.21129028 -0.19246155 0.4194564 0.1130351 -0.013375047 -0.2656739
C1142985 -0.36899164 0.23478916 -0.07122564 -0.14467055 0.19850503 -0.18118332 0.044136375 0.29263216 -0.27904367 0.20081092 -0.38384908 -0.21261595 -0.20235637 0.3068238 -0.108897544 0.011356072 -0.16168705 -0.35409406 0.0013500586 -0.3896958 -0.11319693 0.35755125 0.07374185 -0.09438695 0.15593377 -0.30005863 -0.07278206 0.056494217 0.004034345 0.13174629 -0.054196086 -0.24976496 0.52511317 -0.122659475 -0.17049082 -0.16803075 -0.1864104 -0.522535 0.26527643 -0.034486607 -0.006165582 -0.0076932013 0.3010589 0.23210628 -0.2316746 -0.43348464 -0.26026407 0.25200036 0.12563089 0.1522009 0.17282905 -0.16667493 -0.09019419 0.06795718 -0.21999684 -0.29289088 -0.073543884 0.33343014 -0.5737109 0.13458343 0.46689403 -0.14603898 -0.6415244 -0.2412404 -0.33065516 -0.16430272 0.022294214 -0.025525883 -0.042619567 -0.04152023 -0.36088645 -0.11168645 -0.13328125 0.10839172 -0.1289735 -0.45073268 0.32120818 0.24637656 -0.083425336 -0.2880186 -0.2028339 -0.2404333 0.26604632 0.36426395 -0.096018195 -0.19503851 -0.4147843 0.2674712 -0.17554247 -0.12297201 -0.20326163 0.7236956 -0.0059117153 0.15414582 0.07731842 -0.020357031 0.11429026 -0.16353144 -0.32974163 -0.087468356
C0032042 -0.22164781 -0.06433316 -0.22129925 -0.019761354 -0.24487424 0.014147723 -0.12531361 0.080041416 -0.448795 0.043164417 0.07490663 0.059230138 -0.016003225 0.016830718 -0.041205727 0.037419576 0.037013058 -0.39100078 -0.23129106 0.010562718 -0.16515066 -0.24401294 0.08740123 -0.21618441 0.02574249 -0.15697613 -0.053849004 -0.061662875 0.030689633 0.16035667 -0.04149302 -0.13712144 0.35884646 -0.17570624 -0.22576214 0.08042224 -0.038141854 -0.2650885 0.24104741 -0.06713041 -0.14545052 -0.07635469 -0.049120907 -0.111948475 -0.14736111 -0.15916972 0.18083408 -0.135551 -0.09493333 0.43138075 0.17306016 -0.19842988 0.03243549 -0.10448004 -0.1418111 -0.45576558 -0.0026707249 0.025068022 -0.0011527692 0.016080264 -0.022059321 -0.24155933 0.0021795686 -0.13384101 -0.41226125 0.021173114 0.2505912 0.11250561 -0.07626244 0.17164904 -0.10548358 0.008969383 -0.35569242 0.06342794 0.23789449 0.29183817 -0.025951693 0.25432438 -0.1742685 -0.084579 -0.22388995 0.021821672 -0.23550549 -0.13361907 -0.14144465 0.014344181 0.08273078 0.038260456 -0.06683287 0.11349322 -0.053770255 0.3292561 -0.04930485 -0.27997553 0.27792022 -0.06669183 0.55048645 -0.0370796 0.11276936 -0.039596103
C0989914 -0.18787459 0.026397558 -0.10162993 -0.08996996 0.10678896 -0.27405116 0.26429674 0.06086747 -0.33236697 0.049621653 -0.55015904 -0.032654583 0.06399034 0.2529315 0.31984854 -0.07704692 -0.050270032 -0.14825659 0.061076242 -0.34344888 -0.36457932 -0.033491887 -0.03363944 -0.39515296 0.43075708 -0.4646073 0.25779825 -0.28426227 -0.32358086 0.12641372 0.06603877 -0.24903667 0.60760504 0.15716527 0.014325174 -0.048539374 -0.51155704 -0.09985182 0.28413948 -0.09558427 -0.36971697 -0.06443466 0.41519108 0.39803442 -0.10154725 -0.45116732 0.1536373 -0.10975667 -0.0016304324 0.3377886 0.10298553 -0.19901265 0.14645033 -0.0023956394 -0.29806244 0.0066895327 0.0055299015 0.073904864 -0.37174118 0.49036247 0.68819135 -0.42027512 -0.28416613 0.2758894 -0.4419686 0.11937326 -0.037144337 0.015073046 -0.0012531725 0.17108373 -0.12962174 -0.29320985 -0.28921622 -0.029776726 0.5928097 -0.4544008 0.41414317 0.35488018 -0.5085117 -0.34223095 -0.5131297 0.031237872 0.46189034 0.1755456 -0.179763 -0.09358154 -1.1120291 0.43145755 -0.5149854 0.1712373 0.1492637 0.7772429 0.3705372 -0.21549957 0.24989194 0.16303983 0.57059747 -0.074572735 -0.28564903 -0.5329268
C0082608 -0.31806263 0.3475327 0.10532576 0.30767807 0.17854011 -0.47933587 -0.247868 0.09128604 -0.24842224 -0.2245232 -0.10940751 -0.07217415 0.08980487 0.11077362 -0.009032654 -0.30975822 0.16091996 -0.12313862 -0.0484926 -0.50214046 -0.015872343 0.40508735 -0.101519 0.021886237 0.06647724 -0.30037302 0.25240454 -0.061350815 -0.32366952 0.4285568 0.23685135 -0.21744838 0.3568772 0.07698773 -0.30837458 -0.12006598 -0.35697588 -0.37281337 0.2199095 0.059523955 -0.4106619 -0.34752327 0.3308487 0.13054743 -0.03811049 -0.16102897 0.20060958 0.298522 0.30561706 0.21032204 -0.17116162 -0.18249047 -0.10838184 -0.19635136 -0.27101213 -0.18485048 0.110482395 0.38544804 -0.27717113 0.3500673 0.5048926 0.051968127 -0.7221152 -0.07050293 -0.17861778 0.01898002 -0.04157526 0.027406948 -0.13633324 0.28200296 -0.25689456 -0.061671026 0.23994114 0.110060185 0.110874504 -0.23597161 0.1826726 0.07591447 -0.37969992 -0.010951701 0.017558724 0.41241238 0.22643434 0.35584542 -0.24305095 -0.19385757 -0.6938143 0.07166751 0.13049267 -0.1345409 0.1953871 0.38423428 -0.050755497 0.18118264 0.19688408 0.14654584 0.085619785 0.11940752 -0.10602732 -0.017661018
C0074554 -0.33453768 0.13853887 0.1543888 -0.16338761 0.04436553 -0.18718177 0.23381814 0.21160382 -0.40618303 -0.11749905 -0.45653272 0.014056871 -0.42843184 0.16004585 -0.2506059 -0.3094621 -0.17870595 -0.18484068 0.4264973 -0.29326496 0.14094932 0.005805974 -0.104026325 0.027544089 -0.12468545 -0.52082455 0.06468063 -0.13236025 -0.45103773 0.0805378 0.0071450723 -0.20989567 0.1293836 -0.08291999 -0.19187686 0.23672013 -0.26523894 -0.024937628 0.31374165 0.056779176 -0.10008068 -0.13669547 0.26069397 0.06420855 0.11119075 -0.36315924 0.15267424 0.31682494 -0.017636579 0.11334513 0.17070885 -0.46848786 0.047450483 -0.080857255 0.016263876 -0.24151637 -0.056407385 -0.052968424 -0.26939085 0.1756331 0.39399746 -0.23036455 -0.4212468 -0.13096398 -0.15969619 0.1485676 0.064633794 -0.06426416 0.36709872 0.116412334 -0.23204403 -0.2964202 -0.13915765 0.16505565 -0.041095324 -0.014452189 0.21460275 0.19451723 -0.18093066 0.08342631 -0.21529488 0.080952816 0.24599162 -0.04290571 0.0816111 -0.13755785 -0.5722483 0.038417816 -0.36752266 -0.35484222 -0.04438754 0.3906691 0.025323229 0.343221 0.26689067 -0.27352694 0.42886382 0.07329271 -0.005442869 -0.067154124
C1331111 -0.5844663 0.080514126 0.18420164 -0.18282132 0.23492886 -0.13083836 0.08569545 0.17015927 -0.21736957 -0.06273609 -0.31792185 -0.2227082 0.057942107 0.35009313 0.19310796 -0.22400711 -0.13593295 -0.16631994 -0.06572254 -0.5889124 0.008871508 0.0015294997 -0.511144 -0.0902538 -0.022304127 -0.25292253 0.10448316 -0.20477796 -0.0659327 0.10478891 -0.03129313 -0.071028404 0.6136817 0.081826024 -0.10927551 0.12761427 -0.49382314 -0.24280126 0.19668141 0.11149216 -0.21427909 -0.03185827 0.37093467 0.1888436 -0.19527191 -0.55020857 0.10267828 0.28353822 0.315974 0.078158274 -0.0072217677 -0.021823647 0.22820964 0.2502393 -0.12464305 -0.2632344 -0.4680725 0.2995437 -0.23186491 0.6547453 0.37952948 -0.26518252 -0.4290483 0.40691498 -0.3961244 0.016059233 0.028666433 -0.001255686 0.08910086 0.19956478 -0.12972511 -0.15401538 -0.4344655 -0.122266665 0.36929473 -0.16817419 0.40249962 0.19502123 -0.44568276 -0.027622396 -0.54828525 0.13499285 0.029548308 0.39201385 -0.02401138 -0.39796275 -0.8551717 0.3826873 -0.24516684 -0.24025461 -0.13232383 0.59543955 0.580799 -0.086847946 0.14403094 0.10904422 0.36479366 -0.011973085 -0.15346102 -0.3254632
C0014912 -0.019675784 -0.042173367 -0.081647225 -0.3136219 0.2008969 -0.5150665 0.18746836 0.096208386 -0.08237934 0.20748138 -0.5317352 0.041171867 0.0074862507 0.033481847 0.10573502 -0.09327745 -0.20264581 -0.22667827 -0.22261974 -0.20795055 0.36245304 -0.17712538 0.15683976 0.08205735 -0.04409627 -0.2136014 0.27113685 0.23422796 -0.3909713 0.51636404 -0.14213042 -0.12060116 0.010886412 -0.10611443 -0.1774613 0.20944773 -0.14401503 0.23867323 -0.077093706 0.08868408 -0.3980722 0.05875319 0.24685417 0.123755306 -0.043807734 -0.022391276 0.12437846 0.09654115 -0.15610553 0.51013803 0.18206422 -0.1565944 -0.37468222 0.12261606 -0.27675188 0.0475907 0.0020060914 0.06229204 -0.06118697 0.092404 0.34140113 -0.015551136 0.06665221 0.26466253 -0.42843133 0.27645877 0.31600374 0.2259567 0.16297345 0.16251962 -0.21903512 -0.33538932 0.0412807 0.24902329 0.07866375 -0.17707495 0.6716095 0.1897549 -0.51585567 -0.28262877 -0.35245585 -0.25111273 0.058502685 0.07122086 -0.15534043 0.05358879 -0.16765915 0.21554472 -0.078067444 -0.007082608 -0.3218262 0.42419243 0.1326271 -0.038838908 -0.075725324 0.36720845 0.050068546 -0.07950794 -0.23543552 -0.45945492
C0989915 -0.20481096 0.13786861 -0.05419157 -0.15236476 -0.069002695 -0.33836526 0.17903577 -0.084150285 -0.3650216 0.008162669 -0.4087887 0.006364022 2.1800235e-05 0.19295646 -0.0018722457 -0.019808762 -0.10412082 -0.38901052 0.07288164 -0.42499813 -0.3481404 0.06090147 -0.0017906007 -0.16157463 0.47197104 -0.55166465 0.3643552 -0.2511333 -0.30580014 0.26464647 0.0010925796 -0.27064753 0.64899546 -0.00018625488 -0.030188361 -0.09791231 -0.38380867 -0.14052175 0.3395924 -0.07828671 -0.32360047 -0.06669975 0.49605414 0.34788212 -0.31312463 -0.43348238 0.2909344 -0.01610799 0.19440997 0.16432098 -0.010604566 -0.09759993 0.2868712 0.025835246 -0.28946358 -0.051514234 -0.031073246 0.29765153 -0.37348932 0.49928614 0.53449726 -0.3054823 -0.2754994 0.06754018 -0.5467958 0.00568755 0.1313041 0.0195571 -0.1216712 0.14189507 -0.1592436 -0.37619433 -0.45439777 0.11206428 0.7602533 -0.18406878 0.57787853 0.047077656 -0.55799955 -0.31438223 -0.34714657 0.1444973 0.50530523 0.056224655 -0.27401686 -0.13051865 -1.0974466 0.429679 -0.4277691 0.14362414 0.15174349 0.7397051 0.4876209 -0.1329194 0.29843658 0.33400577 0.5111773 0.063297436 -0.3086098 -0.58730304
C0965129 -0.44141534 0.29625443 0.23283084 -0.16004245 0.047222145 -0.2747989 -0.022047652 0.1720858 -0.29463267 -0.35449874 -0.17368452 0.008287174 -0.08721262 0.2282519 -0.24759702 -0.2915396 0.15538816 0.0011247415 0.055938616 -0.3836096 -0.13681763 0.0034456616 0.0030830705 -0.3167916 0.039750997 -0.29272225 0.027230745 -0.23383076 -0.2387303 0.32377726 -0.029009843 -0.15848936 0.34558633 0.0035445637 -0.25729573 -0.16278364 -0.27416322 -0.37749186 -0.035097837 0.12056989 -0.08380601 0.044173352 0.19022629 -0.027535407 -0.409418 -0.365254 -0.03996802 0.22042006 0.31586337 -0.07100321 -0.15851422 -0.37234113 0.08651392 -0.26346886 -0.02437568 -0.074751765 -0.13302964 -0.30271667 -0.32260782 0.18046251 0.27495357 0.11153647 -0.48618853 0.0016456922 -0.37389484 0.17353086 0.15002243 0.18968573 0.06689951 -0.041932907 -0.4351119 -0.28815815 -0.020198354 -0.003510813 0.1344939 -0.27014235 0.21140328 0.28111216 -0.21457243 -0.0071518207 -0.31564555 0.123208985 0.19246957 0.26536706 0.04252211 -0.15741165 -0.6847241 0.45054957 -0.08643695 -0.1474649 0.28572398 0.33806363 -0.14359552 0.1738332 0.12945725 0.112929806 0.08528729 -0.056517757 -0.17807588 -0.48769462
C0360714 -0.26520965 0.13322864 0.26601794 -0.14405271 0.14451556 -0.33036202 0.29148257 0.25202304 -0.06558609 0.06656737 -0.25260597 0.11836575 -0.0563165 0.20178643 -0.03243995 0.06493675 -0.029381406 -0.1880273 0.23765343 -0.49030247 0.027422508 0.050842464 0.27568248 0.05244357 -0.065738775 -0.40694535 0.30246568 -0.32100868 -0.2832163 0.50223017 0.28268793 -0.02098444 0.17981294 -0.106042065 -0.2158596 0.046908095 -0.11086404 -0.11619217 -0.003557727 0.22398338 -0.29622853 -0.024570134 0.03534227 0.048645675 -0.36386997 -0.2322257 0.15153845 0.0028768566 0.06953514 0.13739626 -0.12743545 -0.3520088 -0.06614543 -0.15006223 -0.1508623 0.005167612 -0.24073651 0.13080755 -0.39318636 -0.16625528 0.20756942 -0.04909256 -0.46794719 -0.2726307 -0.17656325 -0.15837917 -0.0398535 0.048625443 0.0032486175 -0.13696997 -0.50448096 -0.12885834 -0.25141117 -0.013752014 0.029402489 -0.1078834 0.27468023 0.52889764 -0.037379183 -0.25519845 -0.30940711 0.1339199 0.14180304 0.17271619 -0.45841485 0.10504877 -0.2616059 -0.059140034 -0.2921476 0.091885075 -0.30834788 0.5223646 0.2391704 -0.47308043 0.25798804 -0.28980753 0.061639316 -0.07314489 0.03485096 -0.10901296
C0948265 -0.36414745 -0.026832473 -0.07626032 -0.056158397 0.25764084 -0.026288385 0.08070808 -0.027163962 -0.19887064 0.04575449 0.02445412 -0.28732908 -0.10000052 0.19897291 0.20444347 -0.057787966 -0.29334983 -0.22925034 0.06796433 -0.2806823 0.25768936 -0.31176147 -0.3342175 -0.05684523 -0.1757828 0.06404994 -0.017512636 -0.23943384 -0.13232559 0.20504534 -0.39920825 0.052712377 0.30836594 -0.2445537 0.22084309 0.3619689 -0.4327066 -0.15707576 0.0065416894 -0.17198752 -0.3633708 -0.083976634 0.274736 0.07828927 0.03841112 -0.37996483 0.2378453 0.25741157 0.16991735 -0.02078563 -0.031061614 -0.19006546 -0.22309233 0.087221995 0.06666953 -0.016462613 -0.09773975 0.18241477 0.12300604 0.16055383 0.24800384 -0.18608163 -0.51408887 0.38736376 -0.12732215 0.13530406 0.34868127 0.11325313 0.13794929 -0.11146964 -0.3255993 0.113488 -0.30450016 0.16811746 0.18222098 -0.06915725 0.059447862 0.34693977 -0.39429063 -0.17461044 -0.5307585 -0.038394585 0.103311166 0.353407 -0.111320145 -0.23599377 -0.7528078 0.26648366 -0.100822605 -0.70164204 0.04047142 0.49698606 0.26127815 0.09336061 0.31441954 0.16076043 0.22690278 0.21522322 -0.0597375 -0.2485373
C0073393 -0.40870675 -0.31777588 -0.14867075 -0.27988002 -0.08367414 0.10080289 0.03161227 0.11823455 -0.52507263 -0.12812656 -0.12668659 -0.404637 0.08472942 0.18789034 0.06995092 -0.07257853 0.3244582 -0.35837042 -0.41068423 -0.18554455 0.35837725 -0.19345188 0.2509025 -0.12346978 0.2626629 0.040250894 -0.13201286 -0.30126408 -0.21165423 -0.049567364 0.056864318 0.02149636 0.16416639 -0.38851106 -0.022944918 0.12740716 -0.27164418 0.2706165 0.10137955 -0.056146827 -0.19066168 0.47324064 -0.16847391 -0.0393812 0.018816387 -0.4616178 0.45052597 0.34258842 0.17037687 0.14085022 -0.11387749 -0.17336342 -0.23945627 -0.03871852 0.09049168 -0.029656515 0.18488549 0.025744012 -0.041726127 0.27635717 -0.14265817 -0.14591432 0.07549041 0.10545081 -0.3715044 -0.020885538 -0.123636365 -0.099239774 0.08650092 0.18125921 0.08840358 0.07558438 -0.29393694 0.05063073 -0.22495222 -0.14761889 0.16235825 0.051797576 0.08214116 -0.26859626 -0.21298316 0.026915884 0.031518076 0.38786346 -0.008637297 -0.06976804 -0.02358388 0.09276732 -0.058808364 -1.2909863e-05 -0.082598925 0.1953896 0.11485828 0.02520283 0.18004948 -0.069874264 0.5385998 -0.31921825 0.24237211 -0.1788585
C1322815 -0.2689755 0.16744453 -0.070725255 0.29807702 0.41959774 -0.2827512 0.07604607 0.16378833 -0.3023691 -0.32268548 -0.5332179 -0.36673462 -0.1715458 0.047213383 0.09238895 -0.12891711 0.057929102 -0.23718232 -0.11460748 -0.41106385 -0.05585051 0.0997237 -0.07133952 -0.25579235 -0.23432967 0.10221364 -0.03860074 -0.027816338 -0.36003587 0.69057834 0.049270824 -0.18867353 0.09270119 -0.010330736 -0.22215883 0.008870724 -0.3211272 -0.14830695 -0.12550402 -0.36096847 -0.08896215 -0.051217474 0.21087363 -0.13725156 -0.22349171 -0.4768209 0.46760625 0.24919517 -0.13118723 0.023449175 0.28200728 -0.28582105 -0.09389782 -0.3934822 -0.032016616 -0.20961398 0.1863127 0.3110088 -0.14944677 0.11753664 0.16581522 -0.16313311 -0.6578884 0.11572912 -0.28294167 -0.14573573 0.4201384 0.049666554 -0.06264215 0.19458237 -0.68373626 0.15217695 -0.07482324 0.17236811 -0.0521368 -0.0959676 -0.18392147 0.2419028 -0.1992148 -0.2360293 -0.3159119 -0.023019997 0.10339323 0.33098778 -0.06962211 0.003424492 -0.31576827 -0.098522924 -0.13338557 -0.51742095 0.028561713 0.43037605 -0.1164761 0.1214446 0.10942266 0.096319385 -0.021783346 0.05090408 -0.2789745 -0.029556766
C0071097 -0.4291973 0.32236484 0.031177172 0.094755135 0.21640202 -0.2010289 0.026249968 -0.07742199 -0.050626483 -0.23106632 -0.11786056 -0.015169532 -0.21162045 0.4399054 -0.11663071 -0.27249372 -0.17323528 -0.14942208 -0.069050394 -0.5756905 0.3448433 -0.30602846 -0.34245723 0.0041500716 -0.2663971 -0.04255164 0.1766348 -0.09479687 -0.07310566 0.3653162 -0.11884924 -0.30526847 0.24250008 -0.21520638 0.12125879 0.3189853 -0.2900708 -0.30040732 -0.17214356 0.15074183 -0.14225465 -0.16667286 0.17812538 0.07926929 -0.28162602 -0.2105513 0.039030172 0.25298837 -0.016244972 0.23922361 0.18049009 -0.17203224 0.040672842 0.006884598 -0.22451656 -0.27989936 0.10393951 0.18723537 -0.3012442 0.034310482 0.18351865 0.14745875 -0.3019669 0.12357928 -0.13933428 -0.15950403 0.09418319 -0.0013672365 0.01584454 0.2663775 -0.43339333 -0.2623513 -0.37987465 0.14186369 -0.22219507 -0.1976288 0.3978568 0.37282425 -0.37737897 -0.17080511 -0.22924998 0.015405671 -0.018145457 -0.017404927 -0.10068296 0.14121787 -0.42420363 -0.05492598 -0.20172349 -0.46174648 -0.20988236 0.6356207 0.13137078 0.3121376 0.38466817 -0.062873155 -0.2854069 -0.2936359 -0.3484697 -0.2748521
C0248719 -0.02267802 0.10674059 -0.1852637 -0.22670603 -0.17900684 -0.11396505 -0.15883861 0.16868846 -0.0092769135 0.058315914 0.10281728 0.050288502 -0.0590755 0.0041074473 -0.070783734 -0.33782604 -0.08729302 0.00045275915 0.1665275 -0.114824206 -0.117506064 -0.22377585 -0.5550652 -0.053730506 -0.27238235 -0.062068246 -0.06329657 -0.15673375 -0.15649973 0.049229648 0.24022458 -0.2203047 0.17453368 -0.04628034 -0.48867527 0.01678339 -0.34571183 -0.14086384 -0.03038874 0.1031701 -0.04912584 0.11503329 0.3144787 0.052188028 -0.34295762 -0.166537 -0.14003101 0.3734897 0.16175456 0.017118942 -0.1383615 -0.4269976 -0.2284665 0.17398377 -0.1145909 -0.1418335 -0.0111836195 0.11525167 0.09507715 0.4535516 0.19465722 0.17157468 -0.31053436 -0.14119506 -0.012194553 0.1385843 0.03733344 0.14065652 0.31001157 -0.005126103 -0.06838223 -0.20163354 0.033857193 0.039180417 -0.07520409 -0.21559481 -0.08004282 0.52899647 0.12781242 -0.07885563 -0.10099129 0.37594688 -0.08781178 0.32527432 -0.24781443 -0.20500186 -0.28416753 -0.043150075 0.24369356 -0.23206872 -0.38891155 0.2244354 -0.053258047 0.3456728 -0.005681723 -0.2221492 0.078098334 0.020594131 -0.098593436 -0.28072867
C1098320 -0.000990771 0.3101565 0.22114372 -0.18024975 0.08233641 -0.14837915 0.038707245 -0.10710617 0.2546502 0.01510333 0.055359066 0.1652385 -0.15315183 0.15976629 -0.21098597 0.007964227 -0.2757203 -0.008467701 0.14533123 -0.032747332 -0.21283561 0.06286587 -0.3819862 -0.022245608 -0.17704487 0.15404303 -0.047078487 -0.1916881 0.058550578 0.25551966 -0.14538658 -0.6107037 0.28934893 -0.27513883 -0.19969508 0.2768929 -0.45556128 -0.20597173 0.082159 -0.06559333 -0.39398775 -0.29181 0.5298926 0.007821434 -0.29699972 -0.14538106 -0.1503097 0.25489715 0.12929763 -0.027383173 -0.2004293 -0.4725856 -0.26780212 0.20041803 -0.17712808 0.008021978 -0.025600754 0.056039304 -0.06381476 0.23311703 0.03214947 0.40081093 -0.46058 0.048713338 0.1165661 0.51635855 0.38368097 -0.06711116 0.21030118 -0.029869689 -0.063006006 0.02956463 0.1928207 0.05125756 -0.13202678 -0.005740316 0.20063137 0.72955155 -0.18989155 -0.24939032 -0.292613 0.27869922 -0.05572806 0.19486843 -0.19689833 -0.01826954 -0.12602256 0.037879623 0.06497634 -0.095722035 -0.1711536 0.24392492 -0.0749373 0.29488918 0.43462786 -0.1432714 0.2224719 -0.08261885 0.03465053 -0.3456979
C0033228 -0.30425802 0.23172055 0.18447606 0.32099104 -0.053793654 0.07265219 -0.011261356 0.09409756 -0.23035422 -0.06330817 0.03760429 -0.19842866 -0.002759402 0.20722105 0.078919575 0.05814349 -0.0055613695 -0.06773234 0.088464625 -0.17628388 -0.042562943 -0.1341269 -0.4661364 -0.059258174 -0.3623616 0.112607636 0.057149794 0.16342762 -0.038131736 0.4213713 0.18531941 0.155761 0.120505325 0.02333297 0.0142241 -0.28136766 -0.11218925 -0.11823004 -0.1079209 0.36352903 -0.23340735 0.033653732 0.22895776 0.3553518 -0.37819353 -0.11079313 -0.15078968 0.11026806 0.24689475 0.045403842 0.32248437 0.33087564 -0.06092384 0.15841818 0.16252618 -0.04576535 0.17690873 -0.024273109 -0.47436467 0.13119031 0.3128038 -0.13102613 -0.24578299 -0.09511617 -0.3712876 0.063397184 -0.10965144 0.16265891 0.113393284 0.2176411 -0.14629225 -0.16708523 -0.18575668 0.089882605 -0.28648305 0.14622302 -0.077632524 -0.046675242 -0.29985344 -0.453361 -0.239935 0.16028203 0.006785413 0.14521706 -0.42488998 0.0965337 -0.36001801 0.07864704 0.27849987 -0.2496727 -0.42025307 0.41397417 0.26418805 0.39111525 -0.056911837 0.16788809 0.17856209 -0.25111938 -0.48330787 -0.16803017
C0299792 -0.16826144 -0.24936058 0.035534963 -0.33461705 -0.024586692 0.048642818 -0.010741021 -0.051521845 -0.39082643 -0.22750846 -0.1101625 -0.2570159 -0.040277526 -0.06378911 0.093697004 -0.09633198 0.18916278 -0.32377514 -0.25878853 0.15040916 0.1270669 -0.062924296 0.004571769 -0.062174805 0.2787201 -0.006115098 -0.15407975 -0.0666435 -0.067265436 0.13223991 0.095222495 -0.033953294 0.15402582 -0.051184006 0.07881337 0.09469855 -0.30944425 -0.066988856 -0.031793248 0.010896137 -0.25753868 0.073146306 0.07488495 -0.041084327 -0.21016957 -0.25380945 0.27731016 0.40869883 0.0014376647 0.23217966 -0.23270063 0.011753799 0.06252723 -0.20139277 0.22679833 -0.1297707 -0.03464888 0.031219995 -0.064431146 0.10305569 -0.08491096 -0.2551385 -0.04445305 0.11864379 -0.3051996 0.3499658 -0.050526988 0.040562436 0.06504738 0.14229277 -0.2275936 0.33608478 -0.09387885 -0.08875667 -0.36443564 -0.46502525 0.14003403 -0.07231007 0.24332902 -0.15269326 -0.10493561 0.04249028 0.15461013 -0.110620804 -0.08474949 -0.056865394 0.13680388 0.080462925 -0.13739519 0.045300823 0.030055383 0.056130003 0.34786227 0.2790751 0.1527086 -0.11200149 0.22229825 -0.30239 0.21756722 -0.046993516
C0038257 -0.3673799 0.29034603 -0.10793304 0.30952665 0.4784663 -0.22675768 0.12634261 0.16713417 -0.34530228 -0.40416035 -0.35935193 -0.35322678 -0.17650598 0.06925841 0.15466139 0.041646574 0.0019756618 -0.16007796 -0.12782653 -0.2942115 -0.02587974 0.19817433 -0.18678655 -0.15665549 -0.21547598 0.15685791 -0.035423618 -0.080531575 -0.26213577 0.668436 -0.10988254 -0.2928689 -0.04652885 0.10289704 -0.26076892 -0.038631227 -0.3241491 -0.118005775 -0.085564636 -0.36108705 -0.1703732 -0.10229162 0.18421085 -0.11235078 -0.106389694 -0.48973322 0.43797746 0.21094273 -0.07176858 0.040518265 0.30619156 -0.3025547 -0.02760835 -0.23618187 0.0010576501 -0.20320082 0.27930337 0.16814427 -0.12580529 0.04223638 0.16297083 -0.106317885 -0.5919255 0.06463858 -0.21297258 -0.16273154 0.44555914 0.06179138 -0.0045130514 0.14544806 -0.67174816 -0.08248963 -0.09618571 0.25129294 -0.10124828 -0.006154931 0.07273895 0.18442254 -0.18717621 -0.2809168 -0.39168602 -0.09235292 0.090336725 0.41754413 -0.051042855 0.035180617 -0.19753149 -0.042489402 0.016258258 -0.6153267 0.034596708 0.3343782 -0.06391607 0.13000411 0.052481912 -0.058799952 0.07843749 0.027918626 -0.17044026 -0.07965016
C0025598 -0.4536938 0.09276945 0.17988652 -0.25913465 -0.19775131 -0.33602494 0.111689106 0.32409754 -0.58408195 -0.16701214 -0.34334013 0.25708914 -0.27005067 0.47564405 0.099233165 -0.13766184 -0.40196374 -0.30994162 -0.15661354 -0.54221267 0.20099539 -0.1851689 0.20241441 -0.17798497 -0.08422715 -0.06819814 -0.1946174 -0.20150644 -0.0637976 0.49255407 -0.02084893 -0.17719984 0.21350507 0.027448919 0.025117112 -0.11011457 -0.13205841 -0.16101946 -0.011636013 -0.16085695 0.021369137 0.13856743 0.32979476 -0.09027059 -0.12730703 -0.060018253 -0.11083154 0.46813813 0.14762132 0.117682055 0.025443695 -0.2633994 -0.31902733 0.00743574 -0.018111102 -0.103028916 0.1268053 0.23378532 -0.22568953 -0.05712612 0.015806548 -0.21927454 0.027805798 -0.20013906 -0.14936812 -0.09104763 0.09264984 -0.13556099 -0.0029117388 -0.0117966 -0.57723296 -0.20135485 -0.09346565 0.2117346 -0.36940572 0.00053217146 0.03926938 0.300921 -0.34018314 -0.18719186 -0.10104044 -0.33405206 0.0060171126 0.2549617 0.048850805 -0.18805599 -0.29557636 0.22614598 0.22089468 -0.17635304 -0.084215574 0.6754992 -0.22917329 -0.20578513 0.0365591 -0.15793467 -0.22265857 -0.25459537 -0.17521147 -0.2377544
C1532737 -0.66396236 0.20470926 -0.044372845 -0.15089679 0.33044907 -0.34063497 0.29244602 -0.28588697 -0.1709185 -0.026800664 -0.01363389 -0.5269405 -0.14994195 -0.2100839 -0.49992394 -0.018955383 -0.4222352 -0.111478135 -0.16970398 -0.15837432 0.0632388 0.2095593 -0.32936877 0.1803305 -0.050097886 -0.1543885 0.040432066 -0.24674687 -0.024294535 0.36318246 -0.08514058 -0.28673482 -0.27042368 -0.06592265 0.15085399 0.2156178 -0.38673374 -0.12067009 0.050121315 -0.17727436 -0.35933694 -0.20917094 0.14302619 -0.0651698 0.20784266 -0.4470359 0.16372833 0.58956915 -0.01612578 0.11025567 0.17643197 -0.3055683 0.12660146 -0.03579111 0.2611399 -0.4641542 0.048464272 0.057797126 -0.40886378 0.06512091 0.25099143 0.14805938 -0.37097788 0.35851672 -0.17346251 0.1893736 0.13120353 0.11903834 0.22979592 0.14386356 -0.28426945 -0.106226295 0.034114894 0.19867338 -0.2031144 0.026956065 0.035176978 0.49579844 0.0045831073 -0.3847159 -0.7984739 -0.122752815 0.26617566 0.3078041 -0.109864555 -0.37295038 -0.4042006 0.14528655 -0.17342775 -0.5853779 0.30860898 0.5951117 0.13966952 0.12931946 0.1637133 -0.259644 0.32147247 0.23837775 -0.35442176 0.09930102
C0076275 0.06648454 -0.13763125 0.07444278 0.19903149 0.18423386 -0.073712595 0.21755925 0.11244842 -0.42759463 0.47860864 -0.11331008 -0.20440382 0.0028275922 0.29917046 0.1900769 -0.3397034 -0.24074106 -0.16050091 0.119754314 -0.25778052 -0.021322729 -0.40220788 -0.16335508 0.13922413 -0.11400201 0.054397196 -0.35819453 -0.15986523 0.16590859 0.1795885 -0.29563883 -0.02648902 0.20866747 -0.4651533 -0.20829803 0.032488756 -0.4426084 -0.06525309 -0.15425245 -0.13423109 -0.50082505 -0.25369132 0.07503016 -0.13082294 -0.029019859 -0.11447059 0.15183918 0.5164801 0.10948422 0.4207365 -0.15688793 -0.41171864 -0.28839836 0.24490786 -0.25548166 -0.16178423 0.032430593 0.23628125 -0.040911935 0.09196978 0.123321764 0.06562712 -0.12325311 0.002439497 -0.28820825 0.032994486 0.20114821 0.11022791 0.23659413 -0.030879006 -0.13614428 -0.40814885 0.22183913 0.11267985 -0.15576725 -0.15643798 0.78130066 0.12536627 -0.41169629 -0.093058765 -0.2952861 -0.0124724815 -0.31349975 0.1261802 0.07735823 -0.12065113 -0.41154537 0.27702475 0.19075227 -0.4759181 -0.39668396 0.55958325 -0.2720213 0.34981704 0.05169923 -0.18629038 -0.23800008 -0.1530881 -0.14162205 -0.2850328
C0025219 -0.50383335 0.36453 -0.38808426 -0.19569057 0.07995462 0.07364941 0.21134637 0.24873483 -0.33689025 -0.033637684 -0.22339424 0.018843446 -0.18332094 0.040403403 -0.11342962 0.38883883 -0.15863699 -0.46498394 -0.12525256 -0.16499996 0.5463953 -0.013427497 0.05532925 0.0069738077 0.17984153 -0.24015549 -0.16790658 -0.16516404 -0.3435015 -0.060330432 0.28617072 -0.24726084 -0.096519135 0.08613231 -0.13773543 -0.14340588 -0.12714775 -0.55651325 -0.056017518 -0.44784242 -0.15421836 -0.11044381 -0.06708733 -0.08636705 -0.16020931 -0.3485649 0.39314404 0.4246041 0.15497354 0.10776182 0.04247772 -0.32912475 -0.32654914 -0.059875824 0.3408794 0.19287811 -0.15808432 0.32376045 0.14503086 -0.2746668 -0.038368084 0.0141636245 0.08660921 0.22277544 -0.5951048 0.061378192 0.29790565 0.16873303 -0.1928285 -0.00096424203 0.19215268 0.24332145 -0.17994754 0.2854498 -0.18674254 0.12674174 -0.23063968 0.36288762 -0.052320614 -0.23675 -0.3076166 -0.275156 -0.14048308 0.24855456 -0.113551855 -0.19369134 0.22298715 0.035765346 0.16800167 0.15545262 -0.02610832 0.30924478 -0.029224562 0.14793457 -0.067781866 -0.08277188 0.21882577 -0.02122859 -0.21711093 0.02276939
C0027996 -0.40497467 0.12008738 0.016210623 -0.07917818 0.4625311 -0.14165191 0.3399099 0.22520223 -0.40828025 -0.22323337 -0.229917 -0.2598177 -0.16210473 0.37004575 -0.016627453 -0.20298183 -0.0016590664 -0.047977336 -0.12430001 -0.64771914 0.03610594 0.13017018 -0.22882465 0.00015575982 -0.5204142 -0.19408183 0.12546599 -0.13783048 -0.06750617 0.3261061 -0.3090395 -0.23477414 0.07466178 -0.32096884 -0.029560579 0.15121491 -0.22068842 -0.40061656 -0.17997423 0.17796287 -0.12677643 -0.20040965 0.29635966 0.033096407 -0.29545027 -0.26365638 0.3601855 0.2097594 0.29003075 0.08638913 0.32498237 0.12120718 0.0105657065 -0.16306265 -0.23124447 -0.26952222 0.07930409 0.39188412 -0.37396377 0.39021462 0.37515464 -0.075229906 -0.4629539 0.17798615 -0.13920105 0.16149817 -0.124159016 -0.048712514 0.3096851 0.083447695 -0.4068933 -0.34212613 -0.19037902 -0.26775062 0.007936877 -0.04452674 -0.0113694845 0.019867247 -0.36167577 -0.036123894 -0.115788095 -0.043598678 -0.0019796814 0.08079566 -0.10926572 -0.3645228 -0.29349127 0.3558758 -0.08761799 -0.65653974 -0.2757475 0.27244386 0.48039493 0.14846139 0.3145274 0.07742815 0.13060376 -0.23732305 -0.091247894 -0.08375586
C0288171 -0.5287837 0.29136467 -0.018064247 -0.1830659 0.04823638 0.20664723 0.35713542 0.016909694 0.054608982 -0.37747627 -0.11554394 0.14938456 0.06731522 0.33200845 -0.10218677 -0.057913143 -0.0926135 0.10752376 0.08189389 -0.073298424 -0.16920328 -0.16152275 -0.19672327 -0.46833533 -0.49346346 0.18390764 -0.2812586 -0.032694913 0.253539 0.7118039 -0.24619392 -0.3489207 0.33720103 -0.17631641 -0.08918299 0.088521466 0.04452071 -0.25585514 0.14232759 -0.22179432 -0.15492581 -0.03643986 0.671028 0.077454336 -0.28939757 -0.3055654 -0.04553841 -0.012469348 0.25493497 -0.1010379 -0.06809055 -0.30238572 -0.42395207 0.1497295 -0.15266412 -0.10378741 0.007923204 -0.2567991 -0.051940355 0.14180587 -0.098004505 0.69302714 -0.42399675 -0.28869763 -0.013977054 0.34569335 0.3612395 -0.07135227 -0.0686411 0.28475 -0.16060962 -0.015279493 0.0600567 0.05692282 -0.0793333 -0.019657793 0.3225335 0.40276542 0.14469653 -0.2861317 -0.42235997 0.06250769 0.1262883 0.41347086 -0.31093186 0.188999 -0.35324165 -0.014624029 0.019326907 -0.18748905 0.023439834 0.31766102 0.08721754 0.1299462 0.34047812 0.20647448 0.22559804 -0.07493097 -0.07978495 -0.2037585
C0009079 -0.25175798 0.14937058 0.06314974 0.037418306 0.20969762 0.08875739 -0.01614922 0.009298271 -0.5213835 0.22636662 -0.08783614 -0.21489705 0.0105234 -0.11270121 0.115197815 -0.16729875 0.082655005 0.09099741 -0.23657617 -0.16050152 0.0018834351 -0.15265751 -0.1550138 0.08005463 0.30069065 0.3890115 -0.32059097 0.06093093 -0.106213994 0.002635899 -0.23217022 0.26976466 0.07398367 -0.14181148 -0.02805911 0.042407993 -0.42602158 0.035719153 -0.021519698 -0.22530842 -0.18367153 -0.012307018 -0.18893489 0.061024822 -0.23862092 -0.10347021 0.3587174 0.09412679 -0.059215926 0.3692221 -0.10082808 -0.019927772 0.12758975 -0.15275846 0.1011156 -0.055367608 0.21669336 0.067678966 -0.0042187464 -0.046390742 -0.08059337 -0.05315136 0.18285604 0.06011572 -0.23863229 0.020032633 0.029087007 0.061767284 0.053995296 0.03040706 -0.21480538 0.26728067 -0.17335592 0.03411825 -0.29921255 -0.07229413 0.14820848 0.21119773 0.15157668 -0.12607463 -0.16596721 0.2163116 -0.1823503 0.18149382 -0.30352756 -0.30061123 -0.03694344 0.026211845 -0.06930573 0.36741138 0.11584562 -0.1206862 0.43293357 -0.07927271 0.021495784 -0.20416841 0.33077836 -0.080865 0.0070674387 -0.3877776
C0021186 0.09328129 -0.03757933 -0.12757152 -0.11269912 0.38864622 -0.049564842 0.20048024 -0.1474718 0.03961579 0.039841563 0.07242824 0.020529818 0.08861764 0.24277371 0.3517433 -0.34632385 -0.32354707 0.089554 -0.29648605 -0.32009828 0.20313773 -0.028451182 -0.3906188 -0.25427833 -0.09363652 -0.031185258 0.19167933 0.15648758 -0.028121026 0.037687544 0.20307902 -0.395688 0.10245494 -0.13570084 0.07624792 0.06449592 -0.20091681 -0.27768594 -0.14684506 -0.22798173 -0.06279636 -0.015079701 0.080432735 0.17273894 0.028629446 -0.36927444 0.28689343 0.23758486 0.033418912 -0.1708446 -0.052700296 -0.13699338 -0.078950964 0.30599788 -0.3087531 0.007235174 0.18195742 -0.047795895 0.11574793 0.014499681 0.056156572 0.09265298 -0.25658554 -0.19490393 -0.31003594 0.6237763 0.31054363 0.05749789 0.44155726 0.26619372 -0.3000224 -0.263899 -0.24243824 0.27723986 -0.14574732 0.10011864 -0.5074388 0.48212612 -0.10751676 0.10017848 -0.23491575 -0.16209406 0.025754334 -0.25593078 0.100211464 0.022287322 -0.23554803 -0.3050645 0.15330498 -0.07590196 -0.28567865 0.016983826 0.2650887 0.21938202 -0.20731507 -0.46900108 0.5590527 0.14099467 -0.035451896 -0.34287804
C0039601 0.0044117086 0.107082 0.19468853 -0.053547602 -0.42565235 -0.26517612 0.28970072 0.05224455 -0.28754732 0.11632557 -0.39438248 -0.16082324 -0.09899244 0.42615443 0.1751483 0.27453557 -0.13016762 0.14810997 -0.09568124 0.10240683 0.11429206 -0.083269104 0.2018512 0.14387055 -0.16855127 0.2635144 -0.073996544 -0.14343287 -0.11369784 0.37388676 -0.09383252 -0.21822886 -0.08006243 0.12873715 -0.2417946 0.37231332 -0.19609618 -0.25618112 -0.20320183 0.34036696 0.16982915 0.023943452 0.11862159 0.2155752 -0.26512817 -0.07296251 0.0138435755 0.19076511 -0.15229723 0.15865391 0.042134292 -0.100666456 -0.11984924 0.039491028 -0.23770042 -0.05503685 -0.08869684 0.13882972 -0.09273402 -0.2203875 -0.1793569 0.20619269 -0.16172889 0.17942244 -0.37323236 -0.2380284 0.0020387808 -0.014657725 -0.0065835034 0.57782894 -0.2334025 -0.046664644 -0.1986427 0.2571652 0.098335914 -0.114795566 0.16224754 0.38243848 -0.17522974 -0.10773936 -0.022920761 -0.32223144 -0.2580907 0.32119355 -0.31787145 0.049814224 -0.299548 0.089510985 -0.33531368 -0.2686701 -0.49949723 0.19917001 -0.21990858 -0.016984941 -0.10192875 -0.04269529 0.3316109 -0.02935902 0.3356563 -0.15615723
C0039286 -0.06684911 -0.10034129 -0.17052245 -0.2872611 0.067404464 -0.071141705 0.026998572 0.24498859 -0.28556016 0.06286917 -0.20813355 -0.38543 -0.059831023 0.4526326 -0.26259837 -0.21291097 0.18621998 -0.12127509 -0.6742295 -0.021732919 0.041125283 -0.21500696 0.036441796 -0.16013414 0.09411755 0.030900795 -0.28841504 -0.22400266 0.10958957 0.081592016 -0.8071354 0.053409778 0.02148243 -0.41546902 -0.3462794 0.14139749 -0.21115494 0.053917333 0.00032215015 -0.16657132 -0.16963272 0.27071506 0.23347871 0.26829648 0.039256323 -0.72723126 0.06504104 0.63672036 0.024284786 0.34414512 0.32951355 -0.050954998 -0.1597658 -0.021608822 0.2560223 0.03407846 -0.03218106 0.3060939 -0.34247378 0.21633808 0.24807405 -0.41228995 -0.27832615 -0.01749997 -0.18247549 -0.041675165 0.074561924 0.6049982 0.4070022 0.19513598 -0.375329 0.3470001 0.21741682 0.09660575 -0.1590776 -0.22086288 0.045125496 0.21733056 -0.06959538 -0.29432836 -0.24028839 -0.05329365 -0.26502624 -0.056204442 -0.122254625 -0.09900858 -0.22660945 0.44667968 0.088693276 -0.34452587 -0.02953032 0.13644426 -0.1956882 0.19596352 0.37435144 0.3753265 0.008034215 0.18039165 0.039850265 -0.07965024
C0008677 0.094540566 0.37214816 0.05136877 -0.34841147 -0.04352438 -0.11164947 -0.38603085 0.053533655 -0.5149372 -0.20458919 0.26377338 -0.43531325 -0.19707908 -0.25433636 0.033302058 -0.0037403253 0.19798408 0.042045508 -0.053630248 -0.086812206 -0.1381368 0.22178946 -0.049193863 -0.008353916 -0.10020154 0.28020412 -0.09176306 -0.16554676 0.33794352 0.27559662 0.0011942185 0.002739189 0.056179892 -0.16421272 -0.43915477 -0.3452624 -0.23322438 -0.30105573 0.0837779 0.06959348 -0.43350184 -0.1875453 -0.2450149 -0.24970146 0.07671091 -0.05914913 0.06112405 0.09824187 -0.24387696 0.17352614 -0.57318574 0.15976913 -0.09418669 -0.0005194224 0.17074262 -0.1423837 0.20976987 -0.07909845 -0.047113907 -0.16243115 0.26261368 0.05111653 -0.24151203 -0.12733237 -0.39009753 0.007978852 -0.116749905 0.22082889 0.004204297 0.19455856 -0.30479705 0.11625414 0.34215555 0.3193704 -0.23262502 0.5869712 -0.04211898 0.11419232 -0.6100907 -0.054773573 -0.5099733 0.06274296 0.34476873 -0.055168778 0.051372793 -0.005646286 -0.20484672 -0.19642602 0.046144184 0.017902879 -0.07501939 0.3112474 0.5073827 -0.5743492 0.32708725 -0.061204225 0.20945212 -0.2997683 0.13680814 0.19921252
C0054066 -0.14822623 0.22264689 -0.16228902 -0.26864508 0.03852998 -0.382024 -0.13502157 0.00451695 -0.37605652 0.027302487 0.008229991 -0.24800259 0.12998617 0.052766345 0.28195822 -0.16245542 0.30545732 -0.08522049 0.13969137 -0.3135479 -0.023325102 0.049579788 0.19367579 -0.1743493 -0.12366541 0.34259465 0.102505535 -0.2912065 0.1451962 0.34334442 -0.20577985 -0.5624811 0.3331868 -0.34832004 -0.47434118 -0.0076163798 -0.2533553 -0.080752745 0.3389272 -0.11837835 -0.36973137 -0.18894975 -0.39722085 -0.3089725 -0.14220044 0.20123817 0.011862633 0.25887308 -0.15356433 0.4656458 -0.38767225 0.07332859 0.049863916 0.0079013 0.1254138 0.017097777 0.2706349 -0.16651216 0.0068432614 0.110936806 0.37064558 0.25887176 -0.5181295 -0.2218325 -0.180672 0.14006983 -0.35897815 0.173042 -0.13102978 0.29758826 0.16573858 0.10452882 0.63182706 -0.059304833 -0.018315198 0.2949762 -0.16842632 -0.13035844 -0.507577 -0.103197664 -0.18734245 0.35599506 0.2903505 0.24706252 -0.030707823 -0.03651263 -0.45657697 0.054230303 0.084579244 0.013705006 0.11975984 -0.08512978 0.18578026 -0.22630678 0.20095332 -0.11784995 0.15377535 -0.2659063 0.1579663 -0.054427657
C0052796 0.3082254 -0.25670737 -0.06392638 -0.15573378 0.0012460572 -0.1808467 -0.22624484 -0.03964656 -0.38210848 -0.14924307 0.05193624 -0.3042628 -0.1654689 0.325605 0.10355715 0.20730221 -0.12550317 -0.15128338 -0.102129325 -0.11270525 -0.19304201 -0.24359891 0.0033612468 -0.35135564 -0.31965113 0.19564499 -0.078814074 -0.147757 -0.13789271 0.37714824 -0.027466927 -0.43248242 -0.04390853 -0.1530832 -0.2610679 -0.058430623 -0.33931026 -0.20804054 0.14933698 0.09807728 -0.2763259 0.028916096 -0.30591956 -0.31148097 -0.15311776 -0.07496192 0.19323927 0.14568289 -0.17217629 0.2329307 -0.22739193 -0.13631688 0.21119617 -0.3107095 0.1841275 -0.15916114 0.085982226 0.07770096 0.20196933 -0.09985549 0.06634894 0.12888959 -0.2447989 -0.41587397 -0.24663292 0.078757256 -0.16356406 -0.073384896 -0.2472018 0.6399529 -0.24866648 -0.079768196 0.11897289 -0.20653217 -0.19901611 0.035699893 -0.09421754 0.10615278 -1.0119193 0.01618474 -0.40723336 -0.14866172 0.25909483 0.005956621 0.20769112 -0.2388851 0.02939912 -0.32584184 0.098549135 -0.11057953 0.18762153 0.1220171 0.09663283 -0.07016677 -0.12641403 -0.16457161 0.13846324 -0.30360067 -0.11894259 0.26599813
C0533545 -0.00035102453 0.34477976 0.3018642 -0.316044 0.14669748 0.01550051 -0.37039408 0.15861434 -0.28673226 -0.030113693 0.1644326 -0.24936841 0.04032863 -0.19689447 0.032047927 0.031147925 -0.46254712 0.09499705 -0.27273485 -0.030408876 -0.1360645 0.09134968 0.21811052 -0.042528067 0.095916614 -0.15976436 -0.46196187 0.039076254 0.06505667 -0.20753835 0.27484483 -0.028088624 0.20042145 -0.23123184 -0.5800197 -0.16974817 -0.2133275 -0.1526949 0.056590687 0.027246507 0.029283447 -0.020018611 -0.4963808 -0.3077542 0.12768197 -0.19771756 -0.24477576 0.13051079 0.020572506 0.014095908 -0.39448303 0.2633177 0.24979684 0.2636098 -0.035890676 0.18055129 0.2360506 -0.070263505 -0.30393183 -0.47691667 0.018043961 0.20269999 -0.28931734 -0.44430283 -0.4620013 0.09606315 0.11623525 -0.10086165 0.3028115 0.2688963 -0.44981468 -0.21695782 0.043586902 0.29600847 -0.17615195 0.72550046 -0.14829509 0.20660812 -0.090719596 -0.35969952 -0.28464746 0.4849553 0.36971804 -0.3082424 0.06442485 0.014210539 -0.068182796 -0.027617916 -0.05873492 0.057114813 -0.07873695 0.16140978 0.46616003 0.0993288 0.13054119 -0.043340504 0.013408211 -0.021159166 0.2845395 -0.074062616
C0907410 -0.19164182 0.26864216 -0.02379395 -0.34748456 -0.31593698 -0.2064563 -0.07252207 0.100667864 -0.36646956 -0.18753926 0.21307018 -0.29761952 -0.21300322 -0.018679462 -0.12966858 -0.06537961 -0.20187542 -0.08825992 0.04209187 -0.414 -0.14692026 -0.04212508 0.22680964 -0.21528988 -0.18201897 0.34254414 0.11150963 -0.39408293 0.026828546 0.27760726 -0.19035156 -0.06512711 0.051450185 -0.21680969 -0.46710438 -0.0030002974 -0.10382549 0.18418182 0.4806406 -0.056663208 -0.2323296 -0.1464138 -0.53690875 -0.06961335 -0.1408633 0.0028788147 0.06344114 -0.09626268 -0.16438937 0.14670855 -0.4956852 -0.007950011 -0.17345081 0.03482991 0.36521384 -0.15389827 0.14661726 -0.19522262 -0.4389868 -0.14131173 -0.041859724 0.25145397 -0.0885205 -0.29137138 -0.3083247 0.12991579 -0.019332122 0.41891265 -0.16644505 0.16917945 -0.20959146 -0.18739569 0.56735003 0.31949213 -0.2600549 0.5093016 -0.100500576 -0.016633244 -0.6381023 0.058419622 -0.40443155 -0.121817306 0.25592598 0.19516638 0.36473796 0.20398466 -0.1524682 0.037671685 -0.06931254 -0.1789084 -0.08782441 0.067055196 0.50196576 -0.54969114 0.23353939 -0.07486027 0.07980801 -0.23552161 0.10188986 0.10620874
C0053882 0.16305682 0.1751683 -0.15326963 -0.31670856 0.16206826 -0.025281327 -0.37085453 -0.020455541 -0.6563267 -0.3813086 0.23701955 -0.4770481 -0.09209066 -0.32921955 0.44530666 0.05028463 0.19934459 0.0038371983 -0.0021715427 0.059727494 -0.00268044 -0.12247522 0.14950316 0.0177114 -0.17151776 0.3071106 -0.029016597 -0.14986588 -0.13127016 0.053318642 -0.11804278 0.086516574 0.25143638 0.23293282 -0.10713876 -0.13322613 -0.09183801 -0.28044987 0.15757187 0.19639593 -0.5742576 -0.42507404 0.072562754 -0.25823984 -0.2884302 -0.12076086 0.01649168 0.016599922 -0.21008831 0.2923945 -0.40807253 -0.037940778 0.3044477 0.14587586 0.4514434 -0.39485472 0.23215157 0.07907573 0.19557151 -0.0013088374 0.3242773 0.11790275 -0.012598467 0.28257847 -0.111022346 0.18946807 -0.054648202 0.50970244 0.12902114 0.052784704 -0.3047181 0.38785183 0.38038433 0.2811038 -0.5158038 0.23059772 0.006917251 0.004422799 -0.28028366 -0.20983134 0.085182734 0.26990262 -0.20875105 -0.2078221 -0.103130445 0.076403774 -0.23592219 -0.20543133 -0.26532292 -0.007104975 -0.048462074 0.27582428 0.49228865 0.21181834 0.05398799 -0.2656689 0.072691105 -0.14880003 0.19776317 0.21843737
C0753645 -0.03675001 0.33966887 0.044393364 -0.37740624 -0.0770722 0.03361914 -0.27490854 0.19478005 -0.4007203 0.058040656 0.20781545 -0.50069934 -0.2565774 -0.21114786 0.32040113 -0.0011675821 -0.11051284 -0.17329244 -0.058020215 -0.15008925 -0.35094672 -0.05586166 0.018584099 -0.12569603 -0.4194695 0.25791922 -0.05038202 -0.16495402 0.061650053 0.19800553 -0.029482769 -0.10805267 0.054845624 -0.15594704 -0.64266455 -0.29929227 -0.07885067 -0.17691648 0.107363515 0.33532917 -0.027628612 -0.06736221 -0.37998042 -0.29295176 0.30805507 -0.22840437 -0.07552605 0.34554982 0.087049365 0.4349627 -0.33434138 0.25461423 0.23544364 -0.21830784 0.12289326 -0.06953389 0.1720105 0.013102086 -0.45057222 -0.48392752 0.24599026 0.19734448 -0.2848787 -0.23408519 -0.12295132 0.06712693 -0.0762347 0.27752113 -0.03395397 0.12771468 -0.13049038 -0.09047547 0.091593586 0.37265304 -0.3242698 0.31442216 -0.10813712 0.22534482 -0.4178921 0.07255242 -0.2451386 -0.0216783 0.43306586 -0.06815794 0.3970559 0.1327296 -0.1664206 -0.19698465 -0.115228266 0.1202738 -0.1042598 -0.028447557 0.48873335 0.057359204 0.1419054 -0.08506692 -0.2343595 -0.07214415 0.15124099 0.24953331
C0055856 0.029468108 0.23912139 -0.15057713 -0.36897224 -0.16234009 -0.6729311 -0.055776354 0.15266365 -0.2672789 0.19521818 -0.066750474 -0.46838585 -0.10061361 -0.05292547 -0.063266866 -0.10045356 0.14468731 -0.0780344 -0.12862168 -0.25927904 -0.3246485 -0.13295785 0.0637575 -0.0041749454 -0.36667505 0.43241215 -0.13740557 -0.366017 -0.22162862 0.45493668 0.15315013 -0.15161733 0.11676806 -0.15545212 0.026460811 -0.04424059 0.0329913 -0.21605258 0.34814924 0.07453702 -0.11424839 -0.22928202 -0.28306952 -0.2609406 0.012353308 0.05323581 0.12032512 0.00020908602 0.18959148 0.1482729 -0.2508102 -0.003609187 -0.12532079 -0.24890663 0.17940614 -0.3893241 0.17489909 -0.084909864 -0.103864886 0.023733372 -0.045322105 0.13402948 -0.19691364 -0.2929099 -0.114650056 0.3009515 0.034095507 0.13356018 -0.1249118 0.12709317 -0.40579757 0.30620998 0.22367956 -0.07854641 0.2608124 0.3330044 -0.09284912 0.12204886 -0.76643443 -0.3129764 -0.35734883 0.035884384 0.23664956 -0.05843572 -0.0026087274 0.21375999 -0.27786168 -0.17999502 -0.10608422 -0.2994934 0.08671346 0.14476432 0.15445699 -0.59542006 -0.03103606 -0.31391403 0.08421424 -0.24418074 -0.00980378 0.16079299
C0282386 -0.18602388 0.39830986 0.27264622 -0.3692685 0.0039006392 0.05463728 -0.37491903 0.16945821 -0.23233853 0.27801952 0.28115866 -0.37262246 0.04775722 -0.112207904 0.17993121 0.06761946 -0.011939843 -0.011526354 0.16039243 0.02462058 -0.31355605 -0.29170242 -0.24347743 -0.06997848 -0.3625223 0.21688712 -0.0031853653 0.17600095 -0.23416007 0.01845993 0.37093285 -0.015334258 0.035075154 -0.16046396 -0.38893047 -0.34405202 -0.16872492 -0.22313175 0.15576817 0.106853224 -0.25451562 -0.040824845 0.0043034744 0.060796995 -0.18409494 0.22957624 -0.04513478 0.3109268 0.19059041 0.31253737 -0.35487914 0.30828893 -0.0056207553 0.07369655 -0.2526031 -0.043987703 -0.10382072 -0.29300317 0.027036516 -0.23032668 0.17387584 -0.0968122 -0.2997732 -0.4401406 -0.25676665 0.18472998 0.02151197 0.012923509 0.11752872 0.1893487 -0.2295832 -0.057352886 -0.017145077 0.35808527 -0.35357383 0.40124464 -0.10489502 -0.2457283 -0.091675654 -0.40550897 -0.2025939 0.2534938 0.3750499 -0.17572035 -0.018518625 -0.06276896 -0.15155742 -0.023733754 -0.08041198 0.08975854 0.029482894 0.106510565 0.5474388 -0.1725504 0.15672392 0.24115881 -0.029238371 -0.037529096 -0.024502298 0.17878105
C0536495 0.2683458 0.27096808 -0.056965187 -0.31578425 -0.19728248 -0.20031205 -0.33648825 0.29192865 -0.34046468 0.05591955 -0.073363714 -0.5885042 -0.0045603407 0.22268467 -0.0088584 -0.061870214 -0.06298212 -0.08260674 0.07878375 -0.20112954 -0.22172597 0.009980613 -0.14105473 0.09578522 -0.2294748 0.26394486 -0.10223067 0.032181077 -0.08531441 0.122893624 0.23259929 -0.18816127 0.11788918 -0.11391964 -0.68650806 -0.37029245 -0.09771972 -0.03983003 0.22804682 0.08852142 -0.204472 0.046810698 -0.42615473 -0.3755405 0.1981335 -0.19185863 -0.1232559 -0.1338651 -0.013006158 0.24216188 -0.5456187 0.29230648 0.11681954 0.041944228 0.049674172 0.09524788 0.16587426 -0.12770396 -0.47169498 -0.2129399 0.21486701 0.2869704 -0.1699614 -0.24398586 0.097189195 0.33549976 -0.080491155 -0.002667868 -0.09277323 0.33828586 -0.21655375 -0.14850102 0.20309669 0.45783558 -0.071105726 0.44987884 -0.049987245 -0.0919132 -0.57744265 -0.047627237 -0.3527863 -0.0008095432 0.49996808 -0.10623096 0.12571603 -0.20554562 -0.04905114 0.023684632 -0.26645556 0.34197128 -0.05400875 0.18996912 0.4493902 -0.37972698 0.4393891 -0.025174133 -0.013765843 0.02708964 0.16375892 0.04172861
C0110038 0.07142052 0.24051578 -0.13536581 -0.2706857 0.05130474 -0.09648322 -0.47749445 0.1879743 -0.70576984 -0.30904955 0.083415434 -0.03013454 -0.22698887 -0.15427037 0.09237201 -0.10619748 0.16648516 -0.12164187 0.15109356 -0.047067832 -0.0028623983 -0.24651343 0.08703327 0.16955112 -0.14546207 0.1314978 0.011992716 -0.27535272 0.6441921 0.14769442 -0.10830432 -0.48125145 0.08727551 -0.2523719 -0.14406356 -0.1907702 -0.34608662 -0.50159895 0.045696124 0.015517116 -0.7279901 0.032998055 -0.37915725 -0.3894684 0.048615582 -0.06621252 0.12897065 0.15038458 -0.26510042 0.2291878 -0.3556649 0.21161273 -0.04433544 -0.22661668 -0.2888571 -0.20694852 0.06728767 -0.08897146 -0.09473874 -0.34142947 0.23029655 -0.05540819 -0.27336347 -0.46154553 -0.39815876 -0.115518354 -0.22224887 0.65268636 -0.2817467 0.22196749 -0.029045586 -0.068363115 0.28773913 -0.028868467 -0.16545501 0.27216232 0.17218077 0.2629486 -0.41882634 -0.05738443 -0.6945248 0.0573066 0.2319852 0.28220633 0.023122424 0.23359436 -0.24144243 0.051404946 -0.20662586 -0.18392968 -0.11249141 -0.23260804 0.34954923 -0.640039 0.07859194 -0.04271661 -0.2138945 -0.18005198 -0.07937897 -0.096174404
C0003232 0.07093619 0.15362091 0.052453637 -0.07071925 0.14836246 -0.09445162 -0.19836995 0.23030391 -0.57889915 0.18303162 0.02033691 -0.10464826 -0.048022877 -0.027919618 -0.0966577 0.20800455 0.11407959 -0.17268376 0.22289985 0.12150438 -0.15242328 0.023445098 -0.09391472 -0.19671866 -0.25578398 0.13538763 0.016070155 -0.0940985 -0.15737087 0.4541087 -0.20000853 -0.3769285 0.020123465 -0.45055833 -0.16343918 -0.1761534 -0.21364734 -0.08269818 0.14309956 0.18866986 -0.24129072 -0.23334414 -0.16307713 -0.45790103 -0.26303816 -0.28631732 0.25602743 -0.2705381 0.19447733 0.44628388 0.23388074 0.07797048 0.04693677 -0.17310995 -0.005631326 -0.18094277 0.062426522 0.15393643 -0.30516785 0.12418054 0.10355847 -0.052032076 -0.25420013 -0.27366292 -0.12778454 0.04041059 0.13624085 0.19276601 -0.05783805 0.5392878 -0.28172985 -0.058990847 0.27141342 0.079446666 0.16578752 0.4500159 -0.04853034 0.13226102 -0.53298676 0.13607444 -0.17349213 -0.15312949 0.36424884 0.22025314 -0.13556258 -0.33372164 -0.05349442 -0.204812 0.07996297 -0.13029261 -0.13862205 0.14550081 -0.057841092 -0.3566924 -0.316976 -0.41061416 0.23773181 -0.30328995 0.082917035 0.13941473
C0021311 0.14022198 0.1707022 -0.08459982 -0.16272148 0.02950304 -0.120788604 0.046673052 0.03527372 0.04644469 0.1298255 0.18532926 -0.31313792 -0.15910725 0.16429198 -0.15606318 0.15871054 -0.026576404 0.11588149 0.2590065 -0.2537986 0.10635958 -0.41863903 0.06589719 -0.15030035 -0.23856011 0.14336722 -0.21295673 0.014938885 -0.05022444 0.4527343 -0.11239131 -0.45300782 0.48730233 -0.29657093 -0.416678 -0.3263544 -0.23853628 0.17442493 -0.07407475 0.122177675 0.112642616 0.15601851 -0.42808098 0.23808661 -0.09791077 -0.17559406 -0.12855959 -0.03318953 0.019551449 0.35912052 -0.3997604 0.09043075 0.099604614 -0.2281126 -0.08749367 -0.12834802 -0.087523244 0.38072613 -0.23474823 -0.039526924 -0.06320326 0.23667331 0.04251729 -0.115346886 -0.3162055 0.2222918 -0.3478608 0.17436095 0.14361656 0.14805713 -0.49709907 0.008437748 0.6246689 0.34512112 -0.290876 0.32309154 -0.15733616 0.14539702 -0.21652654 -0.06368083 -0.30654126 0.1839671 0.13328366 0.37775534 0.22694096 -0.018146185 0.1543337 -0.018020988 -0.23054485 0.30515233 0.12075573 0.029492892 0.2067349 -0.109181635 0.20683053 -0.22630137 0.44289798 0.15990613 0.06957031 0.26139265
C0008196 0.18138386 0.14753284 -0.3389203 -0.43618482 -0.032785106 0.12773961 -0.2637731 -0.18901674 -0.23722285 -0.06608474 0.28930464 -0.3469735 -0.1343259 0.15847561 0.021966882 -0.16898245 -0.14053075 -0.10644606 0.24755031 0.03539923 0.052672386 -0.13994259 0.20061544 -0.22048287 -0.109934255 0.03411536 -0.040681418 0.015783245 -0.28859827 0.10868299 -0.057308197 -0.2296819 0.13381341 0.21017206 -0.20248733 -0.15202445 -0.25860134 0.027077433 0.25182065 0.37955335 -0.06258327 -0.13202317 0.16349128 0.047043946 -0.6370858 0.34591073 0.113679275 -0.15298389 -0.017188385 0.10507553 0.018424563 -0.061542444 0.36895275 0.0038078842 0.2476988 0.028360572 0.34787786 0.06423428 -0.010404527 -0.24546999 -0.15326722 -0.0030838074 -0.116223015 0.01587945 -0.30609867 -0.09352959 0.023529472 0.27497292 0.108236775 0.14483581 -0.13714677 -0.034019295 0.12636511 0.3375165 -0.04194718 0.21677968 -0.3228863 -0.08465046 -0.19122545 -0.22613937 -0.080341645 -0.0666423 0.19830257 0.34691197 -0.026029307 -0.15557295 -0.41431502 0.11566367 -0.45649606 0.101395 -0.026450988 0.117426716 0.13271412 -0.08779325 -0.028509656 -0.3512946 -0.13008943 -0.030312018 0.55655664 0.21911505
C0002645 0.068164885 0.10469867 -0.083208114 -0.20941435 0.17862529 -0.5419846 -0.22523536 -0.045484696 -0.82638377 0.09859969 0.018812388 -0.53520024 0.11040336 0.10602999 -0.12771207 0.1058236 0.09953226 -0.17121172 0.15117316 -0.12214754 -0.13713102 -0.088719994 0.08116878 0.21327397 0.02883515 0.086284906 -0.21978241 -0.21494778 0.049538992 0.012115533 0.185615 -0.3348491 0.25191084 -0.42100352 -0.15521178 -0.3394632 -0.38922957 -0.19505724 0.44980252 0.029981067 -0.08091311 0.10090932 -0.50727123 -0.3050475 -0.09105987 -0.024083467 -0.027022628 0.14869447 0.04060151 0.38903126 -0.1949378 -0.055625074 -0.110350005 0.13239527 0.13042171 -0.10446158 0.51833314 0.111442566 -0.33202502 -0.18231954 0.07823774 0.43506497 -0.16746932 -0.32810128 -0.2599567 0.061599474 -0.31609294 0.046079084 -0.024090482 0.30212843 -0.43129253 -0.07746549 0.066521116 -0.15254878 -0.01677802 0.42500043 0.022642456 0.05098155 -0.25672317 -0.11881881 -0.061302505 0.22045757 0.29080513 0.13609356 -0.0329965 0.28988448 -0.2612003 -0.07035109 -0.17957449 -0.22532272 0.123292066 -0.2413938 0.15957806 -0.5412857 0.10306692 -0.29670352 -0.01821058 -0.11915149 -0.031250883 -0.087945566
C0007561 -0.23363854 0.2569038 0.025324853 -0.12978049 -0.09429934 -0.18636563 -0.14985317 0.20620531 -0.26436517 0.15823936 0.26115435 -0.42806354 0.069707856 -0.0620065 0.31015536 -0.16714188 0.1663156 -0.061180133 0.053785987 0.063679874 -0.30969527 -0.43570828 0.17414534 -0.38623962 -0.3465556 0.2727338 0.09568653 0.23442052 -0.094957 0.11141256 -0.021620423 -0.01938022 0.180102 0.081163175 -0.097161606 -0.16241056 -0.2710325 0.05396782 0.21322262 0.09222238 0.13787997 -0.039268207 -0.13175677 -0.07494346 -0.29270753 -0.244085 -0.17661437 0.23476708 0.18731335 0.26513988 -0.026721459 0.115572505 0.22998239 -0.12987316 0.3076102 -0.18409587 0.28361923 -0.22036496 -0.15271518 -0.3404215 0.12720123 0.28394136 -0.3357302 -0.13185899 -0.16124964 0.1922841 -0.109996416 0.3817607 0.1423161 0.100967385 0.1497672 -0.16116141 -0.038912065 -0.014952684 -0.37561554 0.2309924 -0.21328013 -0.046815924 -0.31708142 -0.13337724 -0.20910189 0.17213124 0.34542236 0.4150687 -0.0055667865 0.3373392 -0.27363974 -0.15322295 0.23954673 -0.06686206 -0.29183128 -0.003860157 0.55238134 0.042293165 -0.09584446 -0.0035475465 -0.057239242 -0.22185072 0.03973007 0.0782204
C0016277 0.055111177 0.525894 0.1860014 0.29073492 0.035599496 0.027255712 -0.18331116 -0.30738756 -0.17544352 -0.17252028 -0.10935155 -0.03590234 -0.029780792 -0.011879382 0.13099335 0.15396868 -0.15436177 -0.012292194 -0.058494065 -0.05742033 -0.1542548 -0.21513546 -0.2670508 -0.023469416 -0.28542253 0.06975242 0.05454097 0.22224067 -0.09539286 0.23680097 0.04715668 0.07574929 0.25654027 -0.14239457 -0.4021765 -0.14116302 -0.041430518 -0.05417734 -0.28164047 0.06411068 0.05917243 -0.121016845 -0.23565327 0.39776397 0.19041643 0.103962995 0.48276865 0.46596473 0.24651764 0.08186574 -0.3928409 0.11788278 0.4505558 -0.11351256 0.06247946 -0.42809823 -0.03998355 0.16446511 0.004722578 -0.48709434 -0.18221648 -0.11706775 0.21129589 -0.07749309 0.2195034 0.029602237 0.22483866 0.36871818 -0.014260206 0.20889723 -0.45600104 -0.04204992 0.18007056 0.14542884 -0.40769747 0.4722254 0.07620691 0.1787339 0.41232392 0.1805767 -0.10787835 0.24261613 -0.08463633 0.1152251 -0.08528295 -0.44289675 -0.21282476 -0.038997244 -0.044762827 -0.068153605 0.24553372 0.22443889 0.4747827 -0.18266922 0.22967486 -0.16021198 0.39515084 -0.38259032 -0.21899506 -0.20291758
C0001617 0.11751541 0.14948374 -0.14168783 -0.21411449 0.045472007 -0.08601307 -0.08190688 -0.13403614 -0.22565639 0.031228555 0.008384549 0.07989016 -0.19075048 0.18477453 0.030107392 -0.27402014 -0.13141233 -0.022490054 0.18081544 -0.23202495 -0.23551573 -0.1301762 0.36575577 0.0069091073 -0.3522214 0.11485012 -0.039396696 -0.14968912 0.0066706557 0.38380867 0.14357962 0.042843804 -0.03579041 0.17421459 -0.24199218 0.11192946 -0.011096834 -0.32068917 0.27963716 -0.09238609 -0.2531158 -0.2649345 -0.15584917 -0.25349572 -0.11286585 -0.17257689 0.37244147 -0.052476667 0.2401297 0.08066848 0.2608602 -0.2559611 0.12932627 0.048020415 -0.12989284 -0.19913279 -0.22375663 -0.092133 -0.28856635 -0.1934665 -0.2108795 -0.017184261 -0.3351947 0.021693602 -0.38557312 -0.1618635 0.2413878 0.6264107 0.2965405 0.3390444 0.15602967 -0.121385604 0.2625458 0.13315403 0.44608533 0.07237769 -0.03793777 0.55408067 -0.3571718 -0.090546556 0.39297453 0.034897618 0.0029999872 -0.0024807411 -0.31368667 0.14547293 0.21168983 0.18998292 0.021198485 -0.099240914 0.05166408 0.11348202 0.37839028 -0.16242507 0.04295426 -0.012795836 0.29961053 -0.24904475 -0.028608736 0.012730977
C1120106 0.15495926 0.15433039 0.26821703 -0.28964788 -0.056447502 0.09665836 -0.056528315 -0.11576885 0.041184064 0.10187471 0.33892113 -0.22190581 -0.1301232 0.5863149 0.04677975 -0.26526067 -0.24138789 -0.13741347 0.28195372 0.21959314 -0.22978832 -0.09744122 -0.22854383 0.3524317 -0.23918551 0.19984137 -0.018093217 -0.03346864 -0.43777433 -0.045576002 -0.0114265755 -0.4856057 0.23531094 -0.11631572 -0.3499845 0.15012002 -0.18338536 0.26271468 -0.031149717 -0.043450326 -0.28247845 0.06529813 0.06307344 -0.02734079 -0.18241423 -0.3745485 0.0090678595 -0.005029882 -0.3213898 0.39941615 -0.2679239 -0.29025716 0.31666815 0.251429 0.1297839 0.27615657 0.10683758 -0.16592678 -0.0015782767 -0.089220524 -0.063159205 0.115123086 -0.5780319 -0.20514263 0.11727691 0.535376 0.082130395 0.17528746 -0.15346009 0.036775004 0.027950186 -0.34571967 0.5269908 -0.16273145 -0.06700437 -0.016247755 -0.40364245 -0.0049734856 -0.2812179 -0.004113179 -0.47923717 0.121144064 0.28277227 0.08990089 0.20066448 -0.159648 -0.047651865 0.36554763 -0.0501237 0.37524092 -0.09994098 0.02499083 -0.028531153 0.005102078 0.31643066 -0.5096166 0.40751317 -0.028123599 0.3823267 0.049656827
C0041044 -0.15866177 0.19839229 -0.20774074 -0.22802572 -0.07412496 -0.1075739 0.07603204 -0.1780712 -0.096672975 0.30413336 0.18387249 -0.59570044 0.28290802 0.42072526 0.42730287 0.08307137 0.11091262 0.074226774 0.14144212 0.24715465 -0.19398071 -0.36063623 0.18827285 -0.49222156 -0.18408449 -0.012549402 -0.2394891 -0.08217669 0.24307416 0.02739046 -0.42576835 -0.41679546 0.4378702 -0.67994016 -0.2140293 -0.20091611 -0.040143557 -0.1967169 0.50018597 -0.07610984 -0.34473372 0.1396375 -0.3121937 -0.1321872 -0.28818002 -0.19732334 -0.29265538 0.582828 0.19316086 0.47085676 0.18280257 -0.03276264 -0.0885806 0.07026469 0.06381032 -0.21257162 0.062949 0.050961275 -0.02583386 0.0038765185 -0.015436924 -0.057429787 -0.4008853 -0.28195733 -0.35156196 0.13366112 -0.58534366 0.28500742 -0.16980347 0.17640994 -0.31811973 0.024960538 0.61289173 0.22562166 -0.21649891 0.041032903 -0.085234545 -0.2021462 -0.5098906 0.19010341 -0.35905272 0.17310698 -0.19223532 0.24349321 0.16992158 -0.10339361 -0.13723807 0.1312486 -0.054712683 -0.05084683 0.034589674 0.32244715 0.0065733604 0.15083629 -0.019318746 -0.15862237 0.111385874 -0.28015214 0.17328788 0.14731759
C0352155 -0.03528505 -0.032399602 -0.08981978 -0.2936325 -0.34976208 -0.4937154 -0.070818804 0.0068410225 -0.19614089 0.12732182 0.042728875 -0.4787698 0.02729362 0.16098207 -0.20484221 -0.21422309 -0.41423914 -0.5351116 0.62906945 -0.17660451 -0.17695637 -0.20599914 0.058738396 -0.07976762 -0.14580981 -0.1132313 -0.37068608 -0.14002897 -0.19528022 0.21014582 -0.16845527 -0.65951556 0.4642241 0.009198982 -0.5036479 -0.24511564 -0.17149283 0.24835753 0.36670396 0.45555905 0.23302189 -0.09317646 -0.3034642 0.058838915 -0.20395422 -0.22484125 -0.2572872 -0.046738226 0.13364215 0.0079404805 -0.43301567 -0.4754673 0.07822984 -0.15700333 0.21873222 -0.35987642 0.44432464 0.3425861 -0.1884207 -0.355278 0.042916972 0.011216337 -0.3544994 -0.08482233 -0.27934226 0.015325241 -0.34882143 0.067438476 0.38719183 -0.011428599 -0.46323454 -0.32911637 0.29911688 0.34883478 -0.24187657 0.15333462 0.07238436 0.12255629 -0.3925879 -0.08805981 -0.28787243 -0.10040131 0.4627817 0.19111876 0.27836204 -0.07494656 -0.38578805 0.4881296 -0.115367144 0.21154682 0.50522816 0.30811632 0.13103929 -0.17602436 0.30428052 -0.37051433 0.391429 0.18926612 0.0531101 0.13301519
C0040341 0.055291727 0.17572442 0.0070283003 -0.15585299 0.08380161 -0.13643189 -0.4296766 0.3332839 -0.27849883 -0.3396337 0.21676403 -0.24627954 0.046792813 0.04649885 0.12120219 0.0113895 -0.015040701 0.048116393 0.18707353 -0.14133596 -0.33012903 -0.35976362 0.012212736 -0.186252 -0.28824335 0.27920717 -0.22525516 -0.035484023 -0.0042954786 0.3350899 -0.23839213 -0.3543545 0.27015138 -0.54391634 -0.085058965 0.114721484 -0.28678304 -0.39583984 0.567239 0.12836812 0.02703125 -0.047727432 -0.38395098 -0.042496715 -0.024000349 -0.12806314 0.18566558 0.12317039 -0.39746368 0.4251508 0.06683615 0.32559457 0.2548931 -0.15394488 0.10599703 -0.09198801 0.041835506 -0.061258562 -0.19031404 -0.20432597 -0.05803599 -0.21217908 -0.28863382 -0.19955195 -0.45433906 0.19915925 -0.20357089 0.48711455 0.07236245 0.4284947 -0.16677663 0.006312086 0.5154009 0.12438069 -0.2411665 0.13845283 -0.45787004 0.15692441 -0.7365418 -0.011214277 -0.32340568 0.23923053 0.5720962 0.36453265 0.26851588 0.53678894 0.22767597 0.15607238 0.037109718 0.2057908 -0.11440033 -0.20105745 -0.04329219 -0.34496242 0.0074160383 -0.3633358 0.45190546 -0.21128549 -0.22061822 0.20027715
C0013090 0.15875678 -0.2734669 -0.18668218 -0.25328177 0.022055982 -0.60894835 -0.21115379 0.061742503 -0.13670501 -0.10209113 -0.12934075 -0.08641666 -0.06539722 0.45992264 0.1605137 -0.019540904 -0.10652829 0.24781856 0.3428313 0.025108522 -0.18225445 -0.27682078 0.12024312 -0.51188344 -0.16762844 0.014583008 -0.12432431 -0.060301106 0.17153805 0.25471926 -0.120507844 -0.7535595 0.19620907 -0.19679198 -0.34023523 -0.30437082 -0.0021458606 -0.22476971 0.1624349 0.16528109 -0.13444996 0.12128596 -0.2875503 -0.25891107 -0.123142034 0.052689955 -0.09142173 -0.03415444 -0.09407625 0.44469213 0.16460039 -0.37009272 -0.04478503 -0.37747434 0.16971935 -0.17238031 -0.12315114 0.26694113 -0.17073071 -0.2322625 -0.20522642 -0.22426444 -0.3596823 -0.3328556 -0.43238434 0.146516 0.10187771 -0.04381382 0.017677197 0.06749856 -0.5606463 -0.07388276 0.055205557 0.13618809 -0.032778125 -0.25724682 0.012618397 -0.09147084 -0.28044623 -0.18662919 0.14263563 0.10522168 0.6732678 0.32541662 -0.16830845 -0.4656754 -0.1602529 -0.10696161 0.13807489 -0.06630804 -0.12548839 0.15572011 0.28709126 -0.33360624 0.3201118 -0.22438765 0.09634134 0.05349874 -0.0980837 0.023360923
C0042839 0.20821273 0.040865045 -0.31717023 0.12925866 -0.2687656 0.026417634 0.2012531 -0.3747061 -0.15537362 0.4187475 -0.29216707 -0.5265676 0.01428748 0.27113497 -0.59129834 0.42488977 -0.24045755 -0.018933622 0.21056516 -0.3217545 0.3575806 -0.4642581 0.058052003 0.23088405 -0.0052989596 0.049625784 0.015223049 -0.06471575 -0.039925802 0.32986528 -0.3886721 -0.56043273 0.328188 -0.3115119 -0.27622503 -0.50878584 -0.41201746 -0.1919617 0.27623102 -0.31774345 -0.472814 -0.008327847 -0.32882112 0.22721748 0.13176638 -0.38628697 -0.48757985 0.17833893 0.40401462 0.058973365 0.25671843 -0.08731501 0.09297592 -0.26841658 -0.2677763 -0.28704482 0.05678407 0.011231648 -0.082760744 -0.44970807 -0.14584208 0.30813134 -0.32254168 -0.08567233 -0.20183429 0.4422156 -0.04456325 0.39049876 -0.23286593 0.01783565 0.06154945 0.06236742 0.06759511 0.29638743 -0.26940012 -0.0045064646 -0.22542737 0.59048235 -0.18830809 -0.092372514 -0.45816356 -0.075598694 0.14892122 0.49799663 -0.21182959 -0.07711857 0.3852788 0.052405965 0.09507717 0.24549623 0.11450206 0.28117 0.41529748 -0.06339931 0.3155997 -0.22269271 -0.018506322 0.20698582 -0.3993905 0.38465375
C0053230 0.083040334 0.26092166 0.32686356 -0.17512473 0.5080226 -0.16975324 -0.14831543 -0.27701074 0.15653683 0.08086549 -0.3794557 -0.18083139 0.024632161 0.37828735 0.00329495 -0.33086875 0.13428424 0.33695316 0.2243753 -0.12968135 0.4457405 -0.21855438 -0.055064604 -0.4529288 -0.1250038 -0.33465672 0.07998339 -0.0038107159 -0.17390941 0.0028145064 -0.1516035 -0.05816691 0.22336178 -0.0496066 -0.7779777 0.16531782 -0.11334477 0.37818614 0.35026896 0.25587937 0.06792666 0.082314566 -0.3678477 0.25969884 -0.19383101 -0.07906531 0.08092511 0.0884074 -0.12416569 0.055102717 -0.4488567 0.9022135 0.002300259 -0.15799466 -0.13542849 -0.31513008 0.27948028 0.115273595 -0.23418179 -0.08240553 -0.092313185 0.19465815 0.14643611 -0.21089572 -0.27441412 0.17124878 0.20813805 0.13934222 -0.07747971 0.033065856 -0.20952466 0.18530773 -0.23518269 0.0534106 -0.24689159 0.22984472 -0.20399803 0.3633094 0.14918062 -0.20688957 -0.0009208671 -0.052744832 -0.072530575 0.042814847 -0.2831792 -0.060969874 -0.082650654 0.1447472 0.18037544 0.034860637 0.36115783 0.50424206 0.06725344 -0.144916 -0.22968298 -0.3177777 -0.0432276 -0.12481932 0.03075124 -0.06933242
C0028741 -0.111190185 0.44811893 0.17389286 0.09369661 0.36416993 -0.38230363 -0.05776565 0.040773377 0.18751054 -0.24542826 0.068869576 -0.123049825 -0.14747727 -0.22490436 0.14070891 0.40106085 -0.09608802 -0.33619562 0.16802146 -0.24284086 0.010378132 -0.29864267 -0.11456309 -0.12724665 -0.36967942 0.091524795 -0.42075258 0.048112165 0.04204018 0.75220734 -0.24173824 -0.19080704 0.82783216 -0.16612001 -0.53679425 -0.19238003 -0.3197045 0.47481626 0.03874438 -0.15914235 0.42302796 0.064180106 -0.27980798 0.31157416 -0.17638165 -0.42626962 0.529686 0.14077498 -0.11700485 0.34623417 -0.33911425 0.21418071 0.16906199 -0.37902847 -0.41325283 -0.1575079 0.09910771 0.46770653 -0.052854687 -0.31817505 -0.07226041 -0.21809907 0.044133816 -0.0034324338 0.26348713 0.13066067 0.40352967 0.4545171 -0.09173646 0.29666364 -0.91479504 0.09104387 0.36368144 0.17280218 -0.34474477 0.5644197 -0.16262563 0.29570973 0.12111404 0.09720739 -0.23083113 0.14239681 -0.0754831 0.75077367 -0.05474213 0.21650892 -0.13652325 -0.18107231 -0.35564917 0.12646282 0.17193516 0.42914698 0.21110722 -0.27952275 0.27123243 -0.12272617 0.388852 -0.05713979 -0.16229168 0.22365536
C0023660 -0.5116533 -0.25311413 -0.23726623 0.05474399 -0.10244623 -0.0026534086 0.090525255 -0.15242842 -0.08110661 0.24902762 -0.016033376 -0.098596826 0.09530628 -0.076094 -0.033803288 -0.095142975 -0.11548744 -0.23796006 0.14996864 -0.13036782 -0.34279057 0.050638083 0.38103107 -0.58939505 -0.31320494 -0.056008525 -0.031665146 -0.055213124 -0.08900548 -0.49166587 0.17978327 0.028771179 0.18889284 0.2296229 -0.25448743 -0.060920127 -0.24718282 0.013017184 -0.055724397 0.086358696 -0.13698186 -0.14050944 -0.27993673 0.17069949 0.07830997 0.12337178 0.5715068 0.17591424 0.17381628 0.22830892 0.38287556 0.06036118 0.042513292 -0.2331368 -0.08966773 -0.18820159 -0.36319014 -0.1410533 -0.12097671 -0.35164258 -0.11727915 0.056481812 0.18282561 0.070836626 -0.2388462 0.37488976 0.27079085 0.23880863 0.03196202 -0.05949475 -0.42060915 0.037582025 0.60274225 0.22354741 -0.08297468 -0.15626581 -0.0768427 0.14114931 -0.21072476 -0.0927108 -0.071012035 -0.41942364 -0.24930412 0.04496747 -0.39866593 0.17477387 -0.14009221 -0.32604814 0.3198238 -0.05884818 0.020577565 0.3391353 -0.058301024 -0.09147856 0.25382647 -0.17959125 0.21689625 -0.16997048 0.15868963 -0.23439866
C0029995 0.0019501651 0.3929909 -0.032024637 -0.53391266 -0.031180905 -0.14316046 -0.14222153 0.22274789 -0.117149726 -0.040932793 0.14251798 -0.11455662 -0.08891972 0.33017465 0.0063809105 -0.06728203 -0.3359121 -0.18763536 0.54351926 -0.37741625 -0.12030901 -0.40303722 0.021433849 -0.23473486 -0.48126882 -0.23883723 0.0318558 -0.19831645 0.060888 0.6273757 -0.005513576 -0.28875038 0.023298625 -0.16310169 -0.38786456 -0.019446768 -0.16728254 0.14059249 0.34744167 0.052206744 -0.2016523 0.20644644 -0.28117734 0.17206442 -0.05006009 -0.21674171 0.111408025 -0.31432995 0.18348451 -0.07141114 -0.50345725 -0.0756137 -0.21324782 -0.14388455 -0.26685092 -0.16451588 -0.34724134 0.38666284 -0.45395327 -0.23932844 -0.28508595 0.30731627 0.35490006 -0.5234218 0.075250916 0.026881117 -0.25940922 0.60878545 -0.17279395 0.25948638 -0.69033045 -0.03626436 0.63650835 0.1897986 -0.49832526 0.018323831 -0.4042725 0.17150646 -0.40844968 -0.03333197 -0.31062418 0.30626357 0.047892302 0.31557253 0.2422326 -0.022428878 0.0637354 0.33807498 -0.10915528 0.010982102 0.13835979 0.14733875 0.5553256 -0.65159535 0.32471025 -0.13649918 0.13919823 0.20099516 0.19106099 0.059271354
C0014806 -0.1496814 -0.087069675 0.11615453 -0.52982366 -0.41339812 -0.40524027 -0.47407404 0.15873651 -0.2012973 -0.09558332 -0.08417491 -0.26854166 -0.046338826 0.48607403 0.1147742 -0.07756571 0.06913326 0.032680735 0.40272444 -0.13932297 0.29364684 -0.27242705 0.31948996 -0.28903905 -0.39026323 -0.14311917 -0.20700715 -0.45169517 0.10912083 0.30056083 -0.16203251 -0.31102252 0.3204474 -0.4204956 0.10066586 -0.2874777 -0.25430173 -0.53208375 0.20446406 0.041533798 -0.30566618 0.052134637 -0.2235645 -0.12120032 0.2199301 0.08182552 0.31824332 0.086097695 -0.2154862 0.45303038 -0.19565597 0.102504134 0.30308625 -0.51288086 -0.06611018 -0.05803546 -0.18357828 -0.060496006 -0.29249933 -0.028830161 -0.21610981 0.48639423 -0.113998264 -0.25034645 -0.02512412 0.3032959 0.17842074 0.090185866 -0.038265187 0.267602 -0.50677896 -0.06844011 -0.010221081 0.15484202 -0.09087651 0.122619405 -0.011131132 -0.24883184 -0.6159799 0.29193643 0.055988003 0.16420549 -0.15247622 0.25862238 -0.06381302 0.101573266 0.03750617 0.1721612 -0.08900519 -0.16714828 -0.27575698 -0.102667846 0.2909043 -0.42711854 -0.2691353 -0.3548794 0.2164479 0.088091165 -0.4494589 0.20533669
C0022322 -0.17053229 0.13328241 -0.33485067 -0.21537778 0.11712065 -0.49598533 0.062479887 -0.37479782 0.054288656 0.27382085 -0.32270408 -0.49522296 -0.08255478 0.21738568 -0.009441399 0.30692014 -0.0015365584 0.20578793 0.05778236 -0.3950567 0.2885132 -0.036473073 0.37633482 -0.3613328 -0.64851725 -0.3394598 -0.18355957 -0.21427187 0.054874275 0.20606574 -0.15018347 -0.35350266 0.31997848 -0.3505769 -0.29132336 -0.28404108 -0.20306394 -0.3116986 0.00037631846 0.06836763 0.121439695 0.28894994 -0.5573921 0.52982515 0.18250082 -0.11284062 -0.13859197 -0.3859858 0.5298305 0.82803464 -0.056284167 -6.954628e-05 0.21681148 -0.19987181 0.102794446 -0.36229515 -0.033485137 0.5003486 0.07403001 -0.03908432 -0.35871518 0.070492 -0.22696441 0.31437272 -0.1665537 0.31436232 -0.10753509 0.0647161 0.023415735 0.28477272 -0.32824317 -0.14492173 0.30747426 0.1669923 -0.2599531 -0.38281816 -0.24802761 -0.09839164 -0.25407258 0.02390507 -0.25452712 -0.19908752 -0.14160559 0.25460717 -0.11644224 -0.14707331 -0.062804006 0.044078235 -0.094125055 -0.42223138 -0.274689 -0.22919442 0.63280773 0.00551933 -0.02520299 -0.30798998 0.33215946 -0.011649873 -0.3357171 0.03606071
C0026187 0.050861273 0.04559515 0.1393276 -0.62419635 -0.020768203 -0.3567861 -0.25810656 -0.040865302 -0.15338454 -0.26854467 -0.15878277 -0.42729148 0.21056044 -0.027910857 0.019224595 0.434644 -0.49113825 -0.015108844 0.09021672 0.24479675 0.13193911 0.18684188 0.13027315 0.043758076 0.13339633 -0.45268038 -0.12826167 -0.41530448 0.07660993 0.23640865 -0.13962206 -0.3711723 -0.07143227 -0.10175568 -0.27488187 0.13323875 -0.05818381 0.07194981 0.16188547 0.1043601 -0.33061305 -0.11865025 -0.25896987 -0.08212542 0.01773067 -0.18751064 0.139746 0.15953882 0.050675336 0.037745282 -0.029264456 -0.25484285 -0.21107511 0.15287253 0.017796706 -0.29516938 0.05828867 -0.016686447 -0.27163202 -0.28549325 -0.28677908 0.34333476 -0.0569668 -0.047444016 -0.0867389 0.094890244 0.35026303 0.09697926 0.35794872 0.27230364 -0.28642416 -0.06422807 0.023214268 0.11398597 0.3606614 -0.052110348 0.14004363 -0.22653046 0.12187378 -0.6880455 -0.35018194 -0.025907941 0.3061108 0.33596766 -0.42063594 -0.18366207 -0.08056952 -0.17672874 0.20444787 -0.0060113943 0.095756665 -0.016722731 0.34824234 0.045814965 0.24078794 -0.19494016 0.2471315 -0.1812024 0.10992296 -0.17459752
C0209368 -0.066319115 0.18718387 0.032142345 -0.12107522 -0.120027445 -0.10321938 -0.22721694 0.031738482 -0.23762739 -0.14445938 -0.4143585 -0.13228342 0.27953964 0.11314679 -0.29152676 -0.057487674 -0.023268273 0.091496736 -0.06010708 0.16990572 -0.29022884 0.40265015 0.24429081 0.103101216 -0.049744442 0.13870434 0.07704999 0.07612351 0.19808935 0.12435971 0.20223652 0.074485265 0.43885067 -0.2015729 -0.38305464 0.25393954 -0.35341382 0.21420236 0.2586171 -0.0395533 0.11523812 -0.21158129 0.16652161 -0.13193642 0.26935226 -0.2016995 0.060447708 -0.04038803 0.31884447 -0.074053265 -0.1152937 0.26636538 0.4166644 -0.08101442 -0.15152994 0.09629706 0.16688898 0.30971584 0.058589604 -0.10464561 -0.28690764 0.07327394 -0.23227175 -0.3008635 -0.38727242 -0.038914997 0.18771411 0.21833298 0.30908385 0.19217227 -0.43611372 0.0415265 0.11897263 0.28262085 0.11855492 -0.3513539 -0.24947974 0.07885241 -0.4696373 0.03769703 -0.210372 0.3864689 0.05527429 0.38043487 -0.17933387 -0.07627117 -0.13678877 -0.24303807 0.14338282 0.27382252 -0.009285552 0.14079636 0.074833535 0.17258957 0.14866129 -0.14268659 -0.20998861 -0.020593442 -0.018702693 -0.10123402
C0030840 -0.0169901 0.34241793 0.03049554 -0.18893035 -0.34006885 0.109696865 -0.4404114 -0.15268444 -0.37693483 -0.16070488 0.16698478 -0.4532889 -0.048563827 0.041385163 -0.15042143 -0.05847667 -0.48344132 -0.036458038 -0.13738959 0.07527562 -0.2538331 -0.045090534 0.1911191 -0.12054151 -0.4251212 -0.09015704 0.09140447 -0.3737692 -0.37355196 -0.024142371 0.06623233 0.11980827 0.18007413 -0.45723665 -0.15683226 0.05784294 -0.103330046 0.22841325 0.4143574 -0.048474684 -0.120743364 -0.30268076 -0.058220133 0.15697335 -0.10081531 0.17861873 0.27278844 0.12178668 0.2784446 -0.0040748655 0.0018508374 -0.029899526 0.47499537 0.1020756 -0.120058924 0.012331107 0.4090201 0.09677718 0.00502952 -0.1199753 -0.3183678 0.41845998 -0.13004112 -0.32695147 -0.4142609 -0.20141117 -0.029355606 -0.023630867 0.46517116 0.3714258 -0.34378725 0.1889814 0.2987597 0.2150375 -0.048138287 -0.1688265 -0.094598055 0.039787363 -0.14070377 -0.28934318 -0.40042883 -0.14290491 0.09495799 0.118726395 0.17564179 0.09855555 -0.12540318 -0.26077697 -0.28168336 0.23114423 0.24149103 -0.11334282 0.08654013 -0.10573617 -0.024108075 -0.2861426 -0.30313885 -0.061751854 0.06043566 0.19418164
C0304317 0.08180766 0.08634734 -0.091046415 -0.3450041 0.09940243 -0.1953439 0.05659555 -0.008986377 0.094650425 0.25770095 0.26098084 -0.3261968 -0.23932205 0.13867052 -0.17051837 0.053211078 -0.050481312 -0.0075249765 0.467493 -0.28666738 -0.007690637 -0.6281111 0.18585847 -0.017324835 -0.50241 0.11524807 -0.10484953 0.10667931 0.013870684 0.5012381 -0.12618656 -0.34522444 0.45419964 -0.257652 -0.5857034 -0.2935208 -0.08330414 0.17766851 0.20100376 0.044436447 0.2746135 -0.047849774 -0.7809876 0.34256026 -0.16563012 -0.3268179 0.060991466 -0.13399564 0.24233222 0.35938865 -0.37874445 -0.11430952 0.18723986 -0.25219047 0.06240379 -0.18744695 -0.10601259 0.25515234 -0.25337014 -0.24350451 -0.11703023 0.39877856 -0.14173856 0.06076814 -0.07464835 0.21497919 -0.09678135 0.42936087 0.10584564 0.18297626 -0.41977465 0.17573248 0.55389225 0.39507577 -0.4310895 0.115203984 -0.24483605 0.03908501 -0.2542698 -0.049400613 -0.3717214 0.28755113 0.23147008 0.5312645 0.104679555 0.1180541 0.16931541 0.10471133 -0.35874128 0.31978363 0.06606179 0.11974897 0.2799685 -0.023253882 0.39862153 -0.36314964 0.50791174 0.07876017 0.16358903 0.3406577
C0028978 0.12985192 0.08598011 -0.21070229 -0.17074303 0.09511208 -0.019346563 -0.07268228 0.17537332 -0.18426964 0.21430476 -0.45165896 0.007823517 -0.058349837 0.12846811 0.17797595 -0.03960185 -0.12785518 -0.021893585 -0.03619642 0.03258134 -0.46508956 -0.42952833 -0.19428119 0.47095928 0.09283012 0.22416125 0.16898622 -0.057253238 -0.34066024 0.31732106 0.025717543 -0.26078352 0.28703192 0.13060626 -0.11001229 -0.11756958 -0.3797825 -0.05555704 -0.051787015 -0.09149257 -0.38653597 0.29549158 -0.38163686 -0.27003458 -0.15419152 0.21635003 0.33893752 0.068806045 0.083281346 0.20448978 -0.19377515 0.12048875 -0.17150669 -0.27536306 0.41231287 -0.47801423 -0.014559602 0.24344422 0.101522155 -0.0003587486 -0.3370661 -0.15319589 -0.122129284 -0.12568608 -0.053907834 0.32533267 -0.17191862 -0.024111247 -0.043353785 -0.18883039 -0.40384197 0.17911278 0.019275771 -0.0584396 -0.05091128 -0.32065013 -0.08934803 0.24906696 -0.03351602 -0.3002781 -0.4590808 0.04377392 0.039280944 -0.4369613 -0.17694308 0.28551674 -0.18110971 -0.20384844 -0.111172 -0.28226802 0.02103373 -0.14387682 0.13871925 -0.26917717 0.45578307 -0.118643306 -0.061862838 -0.27698335 0.0361957 0.01527088
C0123091 -0.31110877 -0.065118454 -0.12248739 -0.20286092 -0.147503 0.20236376 0.110700645 0.08363853 -0.17867301 0.08484345 0.19389988 -0.4103927 -0.07597879 0.15389352 0.07150301 -0.16991782 0.1647576 -0.5342996 -0.31474105 -0.06444506 0.2371015 -0.39974314 -0.22620746 0.045860913 0.018946536 0.07499376 -0.04008271 -0.25310022 -0.23699117 0.0069186543 0.14846033 -0.04963754 -0.02518529 -0.2591438 -0.15670593 0.34630892 -0.26462537 0.31469402 -0.12091506 0.0005370997 -0.16156897 0.15911718 -0.09596108 -0.15121733 -0.08969901 -0.3560802 0.2993579 0.20799474 0.16986409 0.2189147 0.15682718 -0.214768 -0.06630792 -0.449872 -0.10364072 -0.041884128 0.12614244 0.13698573 -0.13466373 0.004553388 -0.052367605 -0.15166248 0.16185668 -0.111965984 -0.09728275 -0.1635425 0.2768129 0.2866051 0.022895059 -0.09288622 0.103879355 -0.055926576 -0.0915465 0.091250695 -0.22773251 -0.20352535 -0.17552818 0.062592775 0.16050796 -0.088538155 -0.2948248 -0.087747045 0.040998723 0.06462991 -0.1328232 -0.18565452 0.0023975845 0.29168007 0.24246952 0.4142575 -0.06412751 -0.164643 0.25392494 -0.03916016 0.21540299 -0.15102918 0.49436703 -0.03737809 0.06490789 -0.21785131
C0017710 -0.23399052 -0.016142394 0.015197008 0.15747975 -0.21651122 -0.32841006 -0.09530844 -0.0075487597 -0.36851203 0.10080148 -0.3204179 -0.0038450551 0.15643957 0.29641032 -0.18884885 -0.36552247 -0.006395784 -0.18138663 0.12080832 -0.07428096 0.10308418 -0.24388753 0.33593476 -0.12942928 -0.30328813 0.14567822 -0.09627879 0.039503936 -0.14595279 0.70395744 0.22389726 -0.26720905 0.012586166 -0.14019318 -0.29175204 0.24727985 -0.08006868 -0.13215362 0.1024283 -0.2551228 -0.37573415 -0.17082968 -0.22500356 0.39354968 0.15555438 -0.115366615 -0.17978162 0.22473033 0.17537317 -0.07721502 0.09957299 -0.104604214 0.0857218 0.12562244 0.04051423 -0.17393108 -0.7537634 0.025400685 -0.36107737 -0.15482712 -0.37087128 -0.20984463 -0.18229328 -0.32188767 -0.27186358 0.43924502 1.7651988e-05 0.002105246 0.23166588 0.09791219 -0.059054058 0.061306473 -0.07331539 0.2155545 0.3383766 0.19280182 -0.04835243 0.428478 -0.20272467 0.11257899 0.0369149 0.034304783 -0.015357844 -0.09165185 -0.42824352 -0.13310525 -0.28743407 0.17826469 0.04286944 -0.031100763 -0.031407338 0.34076577 0.11190092 -0.38915768 0.15235119 -0.29695186 0.14679758 0.035961907 0.37946615 0.31002337
C1260298 0.1715191 0.3423139 0.26190272 -0.3883094 0.4171266 -0.103989944 -0.44101343 0.022968702 -0.23131032 0.0058611105 0.037670314 -0.31629014 0.33960116 -0.02408869 0.28725913 0.07046062 -0.23959376 -0.15267402 0.2925847 0.054392107 0.04040937 -0.3935865 -0.16094668 -0.19482927 -0.23107505 -0.09052354 -0.17108649 -0.17736453 -0.43103075 -0.07005353 -0.23108152 -0.56280917 0.49768156 -0.36919627 -0.317366 0.05063587 -0.15115163 0.31056058 0.536728 0.16097188 -0.096580505 0.0706225 -0.40240484 0.13820346 -0.07229311 -0.28830934 -0.09722014 0.009878029 -0.062318757 0.46980742 -0.38903728 0.042716905 0.342985 -0.09063702 -0.19290875 0.21025926 0.28275037 0.08606032 -0.4876519 -0.0591249 -0.35219055 0.20516743 -0.21709321 -0.38330245 -0.30831227 0.021728318 -0.18190892 0.153449 0.0063124495 0.19603461 -0.121527515 0.048005044 0.71159434 -0.28996935 -0.122797854 0.43507266 0.29701468 -0.4022377 -0.05377692 -0.569928 0.050856378 0.111229375 0.33037767 0.2485389 0.08845709 -0.2178857 -0.111293465 -0.05286957 0.022109179 0.24753144 0.15115331 0.18672594 0.13563938 -0.15000115 -0.16553016 -0.26100317 0.41387668 -0.26411852 0.19122936 -0.05815662
C0250480 0.12384527 0.15508614 0.00014705167 -0.2410446 0.31508195 -0.16375509 -0.39994982 -0.39783973 -0.34331712 -0.09118055 -0.08031563 0.2696728 0.36443228 0.22289129 0.3182707 -0.22120634 0.01564633 -0.33469087 0.24934532 0.09504187 -0.31770515 -0.1055724 -0.0046477453 0.062584475 -0.0743342 -0.15767606 -0.09976442 -0.21599151 -0.14539352 0.053756777 0.122846015 -0.15275751 0.057989344 -0.21413662 -0.20675053 0.0047751185 -0.48566946 0.016460052 0.23708925 0.25326326 0.03711045 -0.25465453 0.13771303 -0.060211115 -0.10799133 -0.10600446 0.04059377 0.065601975 0.05846098 0.32255483 -0.039329004 0.23829466 0.39318588 -0.2211778 -0.050604176 0.10402163 0.16332787 -0.016359044 0.042178046 -0.062434565 0.016411167 -0.058496 -0.21314542 -0.41055334 -0.30061364 0.18585782 -0.26379254 0.3432679 -0.20855993 0.2134178 -0.43911445 0.068106845 0.73104817 0.26453832 0.16714543 0.08895098 -0.14172937 0.011646835 -0.34362763 -0.24145731 -0.19616717 0.6010275 0.2613769 0.362006 0.255876 0.00044906704 0.0806536 -0.08948334 0.023066802 0.49835905 -0.16787459 -0.040630806 0.2379971 0.44770098 -0.09673523 -0.20115525 0.11683038 -0.110076845 0.11106771 -0.013956803
C0028365 0.038523488 0.73143774 0.01629722 -0.3655585 0.20930743 0.07134806 -0.23269929 0.06310568 -0.3739062 -0.021937063 0.14170991 -0.50726914 -0.21585613 0.020364987 0.15638563 0.12663023 -0.12890373 -0.122774675 -0.022145582 -0.20340432 -0.3119006 -0.18143237 0.15243281 -0.31599185 -0.120121345 0.1951583 -0.37211663 0.24911569 0.21983281 0.02432015 0.27545336 0.084216915 0.19357784 -0.0019314463 -0.3300222 -0.19017956 0.10527598 -0.09834407 0.14297874 0.35604155 -0.30163875 -0.080540426 -0.016026817 -0.22588617 -0.1889423 -0.12229709 -0.02389963 -0.012983496 -0.04405346 0.16325586 -0.23754802 0.16433565 0.48936215 0.08941315 0.19389093 -0.029776812 0.19287223 -0.107633546 -0.371998 -0.23664777 0.20803875 0.27219057 0.033716626 0.3288404 -0.09449034 0.38936967 -0.36087868 0.3517422 0.012859962 0.050569564 -0.38967386 0.047642104 -0.15974016 0.48925483 -0.23099004 0.33085266 0.072707854 -0.050600577 -0.11201697 0.046870943 -0.14747329 0.07544856 -0.04458894 0.0033165817 -0.12500376 -0.041488964 -0.02483921 -0.10489438 -0.029241193 0.32240552 -0.040987756 0.029729692 0.70043504 0.0029403658 0.11344551 -0.09148604 -0.032620892 0.32244328 0.59184384 -0.047953837
C0052432 0.19535656 -0.08147576 -0.07859385 -0.006658232 0.09571836 -0.20240372 0.34175313 -0.32049197 0.09073688 -0.20454562 0.147824 0.23832037 -0.41082263 0.47993872 -0.21450385 0.2519591 -0.09720489 0.22385885 0.26467785 0.22818518 -0.13886276 -0.19395415 -0.05234796 -0.49705544 -0.2896147 -0.096910566 0.05660261 -0.30237445 0.057632603 0.33257863 -0.14426164 -0.5428464 0.21567239 -0.19345927 -0.31938198 0.13345934 -0.5159115 -0.24287228 0.41144446 -0.24415419 -0.3287441 0.04100796 0.38562924 0.19112594 -0.17853263 0.2736568 -0.00023002637 0.18842521 0.62313986 0.34173024 -0.26507115 -0.11709825 0.07687352 -0.18487819 0.042017583 0.011187755 0.018136805 -0.035035238 -0.064080134 0.26796895 -0.14900744 0.14204349 -0.035500284 0.114296414 0.1999681 0.8216472 0.11208679 -0.13259976 -0.18806733 0.06628768 -0.040419668 -0.1548692 0.26253015 0.08713143 -0.29543978 -0.1310546 -0.014339987 0.22584632 -0.3766516 0.17883609 -0.52157724 0.26766297 0.15854062 0.5741602 -0.017384332 0.14985599 -0.18131122 0.10853535 0.082850054 -0.2470767 0.05340193 0.17246947 0.07901729 0.17000759 0.3835172 0.010204123 0.53233755 0.16324902 -0.054825597 -0.036592733
C0700599 0.25204188 0.2031778 -0.29881075 0.15889789 -0.19534679 -0.0728534 0.050882958 -0.24879953 0.09791079 -0.18448229 -0.21112117 -0.38934454 -0.4533351 0.3439669 -0.21767917 0.5505529 0.19342558 0.109124616 0.1966989 -0.20282254 0.110399105 -0.19036378 0.30559286 -0.46826878 -0.29323283 -0.18626846 -0.15465952 -0.06998965 0.20784183 0.20170161 -0.14850147 -0.55802923 0.15746768 -0.32832366 -0.2319685 -0.46129477 -0.114701964 0.056425545 0.45487833 -0.16431081 0.046809733 0.18860357 -0.31292954 0.39130482 -0.16356845 0.04492583 -0.12311346 0.05134168 0.56462514 0.37420872 0.18854333 -0.026652744 0.025077712 -0.38689086 -0.25238854 -0.14210702 0.09808415 -0.07428601 -0.042215582 -0.31543174 -0.50807744 0.04891586 -0.21624753 -0.12279737 0.056774978 0.4003253 -0.18396649 0.2346711 0.12987907 -0.093750834 -0.25541416 -0.13184702 0.32628468 0.19964348 -0.25777623 -0.26238102 -0.24390143 0.20070997 -0.33808658 0.027967872 -0.14054477 0.004311429 -0.1280899 -0.0008252839 0.11711002 0.1007023 -0.032923155 0.15132314 0.110914744 0.012346126 0.08766361 0.07886239 0.9025364 -0.007879469 0.058135595 -0.6038214 0.36549756 0.043293342 0.07059797 0.29383245
C0055003 0.08185053 0.31901187 0.0034082127 -0.12153455 0.24789958 0.08550634 -0.21344325 0.1026677 -0.24782059 0.016203355 -0.007379388 0.035135407 0.16473038 0.14610486 0.57467544 -0.13521229 0.13207002 -0.44230068 -0.15081769 0.21082948 -0.147521 -0.5324777 0.026841192 -0.21992473 -0.39700413 -0.06049188 -0.14220531 -0.06540618 -0.1508452 -0.18602565 -0.09144073 -0.39625224 0.49778894 -0.22103171 0.21832135 -0.15898642 -0.2907043 0.18163614 0.4992642 0.1473992 -0.15654054 -0.19590797 -0.46317592 -0.0786668 -0.09547349 -0.14316173 -0.20363656 0.20761651 0.03899451 0.37856627 -0.07507904 -0.039482147 0.31423926 -0.27277455 0.04668741 -0.27099255 0.27061027 0.009445632 -0.5055095 -0.2180722 0.12026626 0.18277848 -0.34261882 0.12810749 -0.5557745 0.21621883 -0.29954225 0.5901817 -0.05245397 0.09297162 -0.31219083 0.0500922 0.45455962 0.019964121 -0.067282595 0.21369404 -0.12679003 -0.009946052 -0.4020115 0.003867803 -0.10370023 0.39929992 0.5358202 0.32172504 0.33668175 -0.016498912 -0.055094797 -0.12532856 -0.171763 0.19773711 -0.30403063 -0.110587396 0.06065842 -0.405821 0.02427278 -0.36338928 0.34371734 -0.3008449 0.2915143 0.18898103
C0304320 -0.03795681 0.13156512 0.077308945 -0.32309708 0.026909491 -0.17885411 -0.17530707 0.07842195 -0.03759119 0.3622315 0.30097204 -0.2578096 0.20990224 0.19501007 0.0954614 -0.41858807 -0.17544998 -0.3909161 0.06593609 -0.06401015 -0.1282298 -0.5239272 -0.043975685 -0.61901915 -0.15222931 -0.2148984 -0.23854993 -0.016668143 -0.32835853 0.28783277 -0.056344252 -0.268417 0.45408207 -0.101174355 -0.28348613 -0.43367276 -0.1717626 0.04965939 0.4374921 0.31314102 -0.0012303328 -0.3059911 -0.52086234 -0.31420103 -0.08291197 -0.11590866 -0.10662024 0.12628557 0.2442402 0.3130592 0.12026096 -0.22748475 0.19768006 -0.18625589 0.020083206 -0.052661777 0.103181764 0.4129393 -0.4382792 -0.383407 -0.2845589 0.28049073 -0.32426947 -0.017700344 -0.36879358 0.15759447 -0.45057264 0.52303535 -0.12459555 0.046040718 -0.3878407 0.082251675 0.37356925 0.39632928 -0.017325288 0.30145097 -0.010756895 0.24950957 -0.45148283 0.34077036 -0.43999693 0.18133129 0.41985902 0.26398262 0.38923308 -0.0051431116 -0.28716916 -0.36114153 -0.21181883 0.20621073 -0.0497713 0.2104216 0.40346748 0.0877709 -0.07599293 -0.09874014 0.24703631 0.12194479 0.44727218 0.28770852
C0008269 0.24765162 -0.14511865 -0.34084347 0.22261736 0.06405098 -0.060927074 0.14998189 -0.51222456 0.28368342 -0.039156627 -0.22134961 -0.055810638 -0.47045264 0.32856688 -0.19340348 0.2875812 0.32112244 0.10120853 -0.012409352 -0.083065785 0.02115327 -0.49348167 0.37770137 -0.13227692 -0.3728988 -0.0480637 0.21674529 -0.026692288 0.2444092 0.4085012 -0.2101466 -0.34523207 0.11584779 -0.4727633 -0.519046 0.2127987 -0.08745737 -0.20399092 0.26123083 0.0059134723 -0.03502393 0.023647912 -0.48162 -0.010457194 -0.114787474 -0.08879485 0.10131872 0.3326808 0.39076623 0.36558497 -0.07401202 -0.19994093 -0.044851772 -0.1970291 0.2065068 0.0075849867 -0.024529174 0.2861149 -0.39653745 -0.099673755 -0.26317596 0.025970308 0.09043115 -0.027275616 -0.26902163 0.34889993 -0.0018965343 0.093182884 0.13273476 -0.033340998 -0.58086735 -0.17011155 0.25572044 0.37151912 -0.12129907 -0.17832313 -0.06849131 0.062621795 -0.08374845 -0.08230176 -0.3329166 0.2731394 0.06566539 0.18097061 0.23315114 -0.31963116 -0.1451871 -0.11472788 0.029036647 -0.2152932 -0.023872593 0.14609784 0.7601294 -0.24006203 0.43109807 -0.35973674 0.16773497 0.13223353 -0.04775463 0.57647413
C0025872 0.01522219 -0.065511584 -0.28913072 -0.0077067767 -0.06833859 -0.23316242 -0.45245305 0.05185844 -0.33079037 0.377533 -0.24371843 -0.3794072 0.09299805 0.007842651 -0.079089515 -0.22711466 -0.016477264 -0.24058242 0.38033524 -0.13459922 -0.20455259 -0.20479372 -0.00753496 0.38534257 -0.19763735 0.2952343 -0.27408335 0.20957005 0.016411422 0.31056494 -0.30398226 -0.9734661 0.16926612 0.06613083 -0.4031536 -0.3261214 -0.16223735 0.21543053 -0.25283247 0.09784685 -0.19283767 0.1973903 -0.4300557 -0.2552009 0.09493859 -0.16104542 -0.06527805 0.2883414 -0.061750825 0.2024354 -0.056888696 0.06948539 -0.0738257 0.13700555 0.04911707 -0.27260688 0.022017889 0.054016538 0.19384703 -0.27900305 0.1559105 0.10589948 0.12088652 -0.20382121 0.060150962 0.40874222 -0.096514925 0.4864444 0.08910086 0.25803205 -0.15190943 0.03428831 0.2653263 -0.0005379217 0.07520034 0.10755146 -0.018149413 -0.045371667 -0.8396568 -0.20249374 -0.398431 0.04283257 0.5665641 8.727284e-05 -0.13252899 -0.20276402 -0.106214836 0.07317148 0.10979893 0.15822819 0.23303561 0.11018887 0.21813025 -0.23774269 0.21613923 -0.113224864 0.1468075 -0.26819316 0.26109678 -0.008616445
C0032952 -0.1482833 -0.28337994 0.30558077 0.028982814 -0.11505876 0.022124965 -0.26570973 0.035558086 -0.044659145 0.07374927 -0.42574874 -0.15532213 -0.06525489 -0.16932078 -0.20010965 -0.30057564 -0.09939847 0.13890143 0.10090512 0.022391139 -0.21095885 0.008436672 0.33368817 -0.018540652 -0.07374726 0.15837047 0.1527186 -0.015706966 0.08796242 0.17704673 -0.012151148 -0.6505897 0.04502629 -0.04818241 -0.2245564 0.15711169 0.15389177 -0.025014115 0.3001221 0.03948128 -0.37152487 0.12521689 -0.16074689 0.03553979 -0.51090074 -0.0078177275 -0.04300787 0.05128592 0.042142935 -0.015367 -0.41312513 -0.25293258 -0.0050434847 0.12146685 -0.13121484 -0.2332799 -0.35576993 0.086834095 -0.17828773 -0.17012271 0.017198721 -0.048139 0.07576116 -0.08140921 -0.31187996 0.073576085 0.28132194 0.404248 0.17855084 0.2596145 -0.20757195 0.032810356 -0.04633891 0.50095075 0.28856352 -0.10925037 0.15930328 0.25328752 -0.2227172 0.086691976 0.07451518 -0.034956608 0.3445573 0.22494854 -0.44146955 0.4198703 -0.0871547 0.32721326 -0.19334014 -0.14004152 -0.15564337 -0.06255104 0.378576 -0.16552147 -0.035175588 -0.28149134 0.073869936 0.13491186 -0.16058922 0.17878555
C0282215 0.07169109 0.20751819 -0.03483483 -0.13710052 -0.1940355 -0.46266937 -0.12897712 0.06693988 0.032772493 0.1859389 -0.03804585 -0.2901521 0.25620374 0.2369422 0.12592925 -0.21247102 -0.08335622 -0.22824843 0.36202794 0.03816456 -0.038904943 -0.35183093 -0.0588829 -0.13449627 -0.1741647 -0.023911266 -0.030822467 -0.029742923 -0.47010216 0.25350937 -0.36316425 -0.40328035 0.5338659 -0.044550568 -0.44291493 -0.32203013 -0.19429052 0.19773488 0.19211365 0.010958158 -0.21330579 -0.11665926 -0.6324283 0.0009057738 -0.15007557 -0.22976491 -0.13009658 -0.22903317 0.20227408 0.4612541 -0.36895102 -0.2643839 0.3693115 0.11184744 0.0997196 0.2567554 0.19073237 0.28663328 -0.41609412 0.10395119 -0.2723694 0.22183186 -0.17208347 -0.1815417 -0.300286 0.10660489 -0.23557246 0.5709314 -0.10981861 0.2947311 -0.5455463 -0.08306961 0.65594035 0.15324277 0.119965814 0.4392553 0.045874562 -0.20580965 -0.50736916 0.15103705 -0.41070107 0.2820938 0.37589824 0.2538702 0.3218833 -0.057836622 -0.12983288 0.060551684 -0.087014385 0.46243232 0.00013117174 0.051711146 0.21506493 -0.025796482 0.22145493 -0.1394554 0.3678216 -0.23295824 0.1507019 0.3115942
C0085149 -0.07834184 0.092600994 -0.029449206 0.039703086 -0.30339375 -0.29392487 -0.050658192 0.051252175 -0.3511108 0.3002116 -0.34359804 -0.24730766 -0.2899312 -0.08530448 -0.5100205 -0.28406903 0.43558624 -0.14134535 0.040768426 -0.53357506 -0.028598502 -0.37314963 0.05891249 0.10277132 -0.27318576 -0.0054777805 -0.16055824 -0.33777407 0.39855686 0.21899353 -0.0846928 -0.12908837 0.5788321 -0.09554016 -0.2619737 0.3620716 -0.08454184 -0.12156207 -0.11087051 0.41663894 -0.06529647 0.05073754 0.0800124 0.3451728 0.07191141 -0.06085212 0.28431496 -0.025012031 0.49004215 0.11401918 0.06094229 0.1426337 0.32558998 -0.05200209 -0.08539559 -0.33369 -0.51203644 0.62457573 0.10856513 -0.03293753 -0.21258396 0.42051628 -0.49041775 -0.21104646 -0.055133626 -0.061094336 0.19352251 0.1311414 0.60808915 0.056620795 -0.30038574 -0.0715951 -0.07844489 -0.07502589 0.17002033 -0.12435757 0.272261 -0.11680239 -0.5240325 0.19394398 -0.16762678 0.07526798 0.30953044 0.030229932 -0.42775312 -0.17747596 0.19276989 0.07527288 -0.13785248 -0.04032859 -0.41949522 -0.15388194 0.5992421 0.06973452 -0.19771966 -0.19067074 0.32878688 0.020272939 -0.007036522 0.2301278
C0393080 0.14118892 0.48730126 0.29718494 -0.41357765 0.3767834 -0.22411318 -0.39773443 -0.256942 -0.14006172 -0.053525873 -0.21333809 -0.0153032625 -0.07862697 0.2207922 0.29372525 0.082887456 -0.05320746 0.053919066 0.03718961 -0.17879964 -0.0049905917 0.06717288 -0.29982075 -0.037303142 -0.11782426 0.062153343 0.041211106 -0.06099224 0.009382278 0.006486463 -0.10021241 -0.031737022 0.27591303 -0.30954608 -0.60108286 -0.10279683 -0.2954388 0.05133567 0.021352803 0.20615903 0.09614867 -0.067182556 -0.29575336 0.36655095 0.16066788 -0.10450715 0.12684806 0.25865063 0.051993854 0.072603665 -0.5382385 0.5382856 0.1769397 -0.25996685 -0.03882696 -0.14996576 0.1813855 0.1557213 -0.13005406 -0.39047307 -0.10232762 -0.21938504 -0.072395355 -0.14967483 -0.068786986 0.10729868 0.14403039 0.31507903 -0.12826428 0.032164186 -0.32672364 0.105567075 0.020643586 -0.13779634 -0.1474422 0.21684287 0.1051635 0.2977713 0.40308216 -0.13711515 0.10909322 -0.13307446 0.04483953 0.24615149 -0.08219185 -0.28020528 -0.019330524 -0.07201845 -0.037778575 0.11332617 0.14147843 0.23274349 0.38660255 0.19384757 0.07566693 -0.23013858 0.16959888 -0.3000993 -0.22820035 -0.009820307
C0936150 0.30002582 -0.06903386 -0.22145788 0.12009134 -0.10431773 0.027061086 0.091493875 -0.4716385 0.061440587 0.01226745 -0.16357566 -0.13835128 -0.36512977 0.26441064 -0.109219484 0.6180207 0.11444884 0.27835223 0.24581541 -0.05385502 0.085944034 -0.36303222 0.3432678 -0.4636583 -0.4907378 0.021637253 -0.033354647 -0.16822442 0.16748522 0.50980884 -0.094938084 -0.61332184 0.30421928 -0.23788978 -0.37928978 -0.25216836 -0.27252102 -0.02565565 0.28942642 -0.18451457 -0.23222017 0.2069285 -0.3351817 0.25772417 -0.20806913 -0.052969377 -0.19353113 -0.07265395 0.3131395 0.41350704 0.020355728 -0.06525469 0.0054519423 -0.19166583 -0.26728535 -0.28136566 0.24169815 0.16361159 -0.05316339 -0.09103327 0.004240437 -0.0017241993 -0.18675105 0.02771252 -0.29117873 0.45234495 -0.16674261 0.106793225 0.011013119 0.232771 -0.49054068 -0.22178596 0.3113254 0.5581621 -0.39713594 -0.23575619 -0.3105384 0.29531068 -0.22506417 0.12216981 -0.33438438 0.15659375 0.23967856 0.23100072 0.2522407 -0.007604778 0.19626579 0.06108057 0.3189941 0.29976514 0.32538128 0.27744818 0.7751829 -0.048081685 0.33773655 -0.3789222 0.34885353 0.11379672 0.09705468 0.5685436
C0017436 0.01534321 -0.042645086 -0.006135695 -0.35730308 0.075921886 0.008192025 -0.14258721 -0.100497074 -0.17182186 0.10042057 0.13589835 -0.20222253 0.34535816 0.43218386 0.25620982 -0.43890262 -0.24745141 -0.015190003 -0.066169344 -0.11909555 -0.15025759 -0.3092752 0.17914085 -0.36849633 -0.088672265 0.29469946 0.040547706 0.070141144 -0.15335396 -0.1514562 0.135634 -0.30737177 0.1271402 -0.059119415 0.28505898 -0.11862541 -0.19031826 -0.16465142 -0.024784332 0.19598706 0.044379007 0.2573612 -0.4674389 -0.06038391 0.19947506 -0.52252525 0.036141444 0.17293216 -0.09737219 -0.14076877 -0.060053468 -0.17634872 0.4552628 -0.089109644 -0.2537528 0.061544262 0.36424965 -0.18307115 0.15822747 -0.32932925 -0.124181 -0.20831774 -0.5376517 -0.40116674 -0.46006188 0.43244144 0.3386373 0.16933618 0.19530596 0.30097792 -0.26289696 -0.18215156 0.3971647 -0.122917295 -0.18580812 0.3356945 -0.25448737 0.13192193 -0.47464368 -0.044982336 -0.3592697 0.27842674 0.31996447 0.08407619 0.22370705 0.061389223 -0.09445319 -0.14426689 0.03996368 0.33877254 -0.32859915 -0.052496493 0.25059742 0.06100205 0.12401201 -0.21154045 0.4705642 -0.24080323 0.023257215 0.015501921
C0032857 -0.10809667 0.01487399 0.07908842 -0.13240494 0.62937135 0.1867655 0.25048247 0.07690655 0.13259062 0.44304195 -0.20404157 -0.19138137 0.00024515978 -0.002446611 -0.07303392 -0.22468977 -0.06848758 0.114795215 0.104936026 -0.068571135 -0.20779909 -0.23186366 0.16177154 0.09400001 -0.3082219 -0.4992022 -0.013458806 -0.06678331 -0.056353576 0.24279362 -0.20393708 -0.5265248 0.17586589 0.3074824 0.18011998 -0.1230229 -0.18500748 0.6846901 -0.1983213 0.0570588 -0.035880215 0.1819206 0.028604694 0.35617626 -0.45379883 -0.20400904 0.24582942 -0.22757807 0.3095207 -0.14474283 -0.16141586 0.35893416 -0.049347136 -0.034367368 0.38132912 -0.1644445 0.072477534 0.13063277 -0.12735367 -0.3716196 -0.1946812 0.29973423 0.1790633 -0.47457823 -0.21089976 -0.015367505 0.5297846 0.50316596 0.35048833 0.30326092 -0.3282197 0.15898198 0.12506081 0.91372776 -0.47103488 0.30723342 -0.593402 0.06708147 -0.58869654 0.13954303 -0.021289779 -0.09680919 0.51679057 0.32095724 -0.12875162 0.24049364 -0.02013084 0.3985862 -0.17634678 0.32035688 0.0373961 -0.18444504 -0.037755385 0.13950175 0.3349738 -0.21002136 0.20492576 0.0921954 0.09364555 0.5448811
