1317 100
C0020443 -0.038842738 -0.09591764 0.15054242 0.014205508 -0.18551023 0.057634354 -0.0481196 -0.045801472 -0.011764341 -0.077974424 -0.10890286 -0.0038039766 -0.14579433 -0.15238255 0.22833207 0.07724242 0.06242273 0.06831585 0.07790675 0.1018838 0.02283751 -0.21098995 -0.20374423 -0.008583755 -0.078475095 0.022820167 0.0710968 -0.023916377 0.09623337 0.12395481 0.20134568 0.06828964 0.1412085 0.017598733 -0.15408193 -0.14124079 0.16435865 0.27666846 -0.1086146 0.012462939 0.11415702 0.06442772 0.06840518 -0.06124687 0.06150733 0.12963526 -0.115634955 -0.04361948 0.056427814 0.2689169 -0.0039137937 -0.21570145 0.123762876 -0.12326289 0.20488802 -0.0133753065 -0.17111889 0.07805228 0.07447997 0.105780505 -0.09159247 -0.25371534 -0.113375336 0.32643396 0.44644764 0.12154213 -0.110253066 0.23321848 0.09453389 0.046455972 0.3510353 0.09814151 0.10263239 0.06468868 0.11541426 0.099588946 -0.14288592 -0.069297366 0.020673234 0.22476333 -0.08527853 0.22546382 -0.027988458 -0.24207625 0.09135776 -0.011133771 -0.25116146 -0.12939225 0.29998282 -0.033830702 -0.009325213 0.07480877 0.01769216 -0.041827675 -0.06677668 0.078454055 -0.04753254 0.074093364 -0.37909234 0.22288159
C0085542 0.20110284 -0.08734717 -0.07345451 0.05796762 -0.16337042 0.0025319562 0.0018299147 -0.3329348 -0.22173376 0.016041342 -0.363197 0.0831697 -0.15611681 -0.014195578 -0.08759535 0.18804087 -0.37189245 -0.11845419 0.32028136 0.20800596 0.0022247853 0.07049959 -0.060759354 -0.15656896 0.028184315 -0.25123155 0.18411428 0.20388514 -0.11671023 0.058052268 0.13133498 -0.031617835 0.3687441 0.07152947 -0.20411594 0.039680984 0.08913669 0.46169713 -0.3114992 -0.044817343 0.25169948 0.19021142 -0.028238064 0.06796306 0.07511397 0.015129292 -0.50215644 0.31365985 -0.09429871 0.07075559 -0.3324636 -0.03006812 0.04567721 -0.082625434 0.38317668 0.15394574 0.019378746 0.5891905 0.37163165 0.34206447 -0.20642014 0.039587103 -0.04047205 0.055865053 0.1292132 0.23831603 -0.19609596 0.48606548 -0.03874425 0.06588157 0.22436015 0.25208762 -0.054381743 0.10724231 0.097817816 0.0038477562 -0.3101661 -0.04325963 -0.06256079 0.26948467 0.36404282 0.61413693 -0.25759372 -0.5596646 -0.3372176 -0.11558302 -0.18357944 0.09322606 0.08106653 -0.01533401 0.119295865 0.0060010315 -0.103734255 0.35746375 0.13914558 -0.1317682 -0.12286306 0.0009072335 -0.21635477 0.020509746
C0286651 0.21410246 -0.049717776 -0.040968936 -0.047891837 0.25356367 0.1257548 0.019667089 -0.1838397 -0.2939718 -0.136813 -0.23292823 0.07251674 -0.12925887 0.015119954 -0.02286761 0.20406254 -0.19794138 0.040564526 0.024797574 0.13472132 0.023521658 0.1953429 -0.21277648 -0.14287119 -0.006445044 -0.2967413 0.18850861 -0.1550545 -0.13785183 0.13523498 0.204933 -0.13601905 0.11329519 -0.0054961117 -0.1714727 0.094388254 0.023876233 0.37983608 -0.34154558 -0.076107144 -0.132642 -0.05262631 0.027053175 -0.077802576 0.03433633 0.4000768 -0.37651554 0.3258681 -0.062315002 -0.055940665 -0.12225617 0.019855198 0.18953077 -0.042780064 0.04413566 0.14313383 -0.06070726 0.11983543 0.18223266 0.51786274 -0.1664432 -0.12168101 -0.0035041193 0.15032917 0.42928305 -0.12595771 0.20925424 0.3618492 -0.08719405 0.067871705 0.42041528 0.28743547 0.13883656 -0.047864735 0.069423184 0.1585846 -0.07912698 -0.049705397 -0.06644975 0.1577799 -0.14502634 0.47661695 -0.20228039 -0.52912796 -0.051716425 -0.24094181 -0.22641602 0.035840098 0.22632912 -0.15555038 -0.07077477 0.27177975 0.052873205 0.22542405 -0.028053114 -0.0752771 -0.34657156 0.04861944 -0.07942896 0.328184
C1142985 0.12673374 -0.25215843 -0.27270305 0.17179471 -0.04606704 0.33802098 -0.023985732 -0.40404072 0.027141953 -0.09037381 -0.2553565 -0.034374177 0.009004739 0.08267339 0.043934632 0.40821546 0.17746474 0.19577672 -0.20787933 -0.046615858 0.18398994 0.07644627 -0.07134353 -0.06613342 0.07711148 -0.1686645 0.29237488 0.02922867 -0.15793861 -0.13278602 0.08537958 -0.118505985 -0.08809227 -0.05376609 -0.17736243 0.3184577 0.3100929 0.2741001 -0.23418963 0.22260754 -0.16924295 -0.30117264 0.20486483 0.1413918 -0.08617656 0.038193647 -0.5441132 0.4951096 0.14926337 0.222616 -0.13642293 -0.17664936 -0.056197762 -0.106500596 0.12341151 -0.033160415 -0.047019158 0.3417514 0.40897608 0.6434374 -0.09606019 -0.20441355 -0.10078065 0.109717675 0.46870664 -0.17013188 0.19360417 0.28666633 0.09894896 -0.044015825 0.56690335 0.29416734 0.12474829 -0.0061272657 0.16983919 0.46328628 -0.1168085 -0.05084017 0.18578216 0.22834133 -0.056076046 0.33003506 0.05499847 -0.100927465 0.0087878555 0.24979877 -0.3001424 -0.3878192 0.44154772 -0.040406264 -0.058680832 0.104783244 -0.28514594 -0.20942564 0.22991292 -0.23823552 -0.08331433 0.1274884 -0.2273845 0.2681125
C0032042 0.115508005 -0.0953245 -0.102188826 0.041005727 0.084071755 -0.08694907 -0.1487513 -0.030680161 0.12718138 0.008974113 -0.19253968 0.032010008 -0.18514906 0.016184371 0.018365791 0.17122127 0.10420081 0.08259076 -0.11173933 0.16177896 0.08198466 -0.115906365 -0.35599115 0.0043396847 0.15910904 -0.3048701 0.01611468 0.039072867 0.18890812 0.12357137 0.27487424 0.045129336 0.31150296 0.08732582 0.014284014 -0.0059344564 0.2429251 -0.100996636 -0.1911447 0.21072759 -0.08952264 -0.22896808 -0.07843684 0.10502245 -0.21705955 0.22221074 -0.05253941 -0.07637069 0.04931621 0.054385167 -0.03627086 -0.20487744 0.21722545 0.07110223 0.022822402 0.40932804 -0.31799796 0.18075302 -0.005128693 -0.095233686 -0.07948684 -0.2950735 -0.18762904 -0.044626217 0.16266192 0.019956538 0.12779272 -0.0896767 0.030258633 0.040467978 0.12622687 -0.09924625 0.2065283 0.14305484 0.13516968 0.24364945 -0.17997609 0.05347177 -0.010801327 0.30980074 0.09224065 -0.10432849 -0.17204353 0.038896415 -0.043207735 -0.14025518 -0.086416245 0.14232667 0.3275705 0.23794593 0.03266155 0.05042029 0.0004797934 0.14086086 -0.01810463 0.049077533 -0.25459397 0.07526883 -0.071958885 0.003559483
C0989914 0.18335281 -0.21839964 0.22901835 0.1417132 0.040657613 0.30418912 -0.12804115 -0.29935488 -0.5884629 -0.21961455 0.18663207 0.38130757 -0.058150318 -0.13587436 0.26713315 -0.13572568 0.22794946 -0.30659008 0.13242404 -0.055571128 0.11597232 -0.32864395 -0.349725 0.0039707962 -0.08573273 0.051292174 0.32287204 0.117392085 0.25792158 0.12192992 0.20715462 0.16773517 0.18570246 -0.30046973 -0.17085029 0.19838478 0.3991565 0.716218 -0.5525577 0.15953448 0.2755347 0.042314116 0.34506878 0.35132498 0.10070983 -0.23273966 -0.5131074 0.055882 -0.10129316 0.47341275 0.032220535 -0.14649023 0.23809075 -0.41403794 0.33304003 -0.25419566 0.13148564 0.34783617 0.43281838 0.29234195 -0.51391417 -0.14653811 -0.21110839 0.15329069 0.7173736 0.29112774 0.13261761 0.3697326 0.39641514 0.02201415 0.45928636 0.11467986 0.2147301 0.0028582686 0.2089988 0.080087505 0.12814361 -0.51591134 0.055845354 0.25922617 -0.34223238 0.35486254 -0.6269421 -0.18853442 -0.0032145847 -0.119557135 -0.23122987 0.24025723 0.648351 0.08781058 -0.068579525 -0.07095807 -0.2022173 0.067673504 0.1668864 -0.0435152 -0.5388885 0.045184184 -0.16788535 0.56111956
C0082608 0.08189171 -0.004112406 -0.27624545 0.045395643 0.25189346 -0.059389047 -0.06557533 -0.23308736 -0.05197401 -0.3654255 -0.23728117 0.21943206 -0.114724614 -0.15222088 0.21797708 0.20961769 -0.14589857 0.0622287 -0.19272298 0.20913175 0.016528282 0.043220248 -0.23799956 -0.09385951 0.22976808 -0.04442834 0.10885201 0.25678363 -0.10655213 -0.08957006 0.21641158 -0.36716923 0.12518606 -0.29435283 0.027775826 0.11279125 0.08180195 0.36441484 0.28042862 -0.17353833 0.17765076 -0.31313497 -0.002611588 0.2413281 0.03498012 0.19518317 -0.6360015 0.39393976 0.052766766 0.1797705 -0.44501963 -0.40012202 0.3005723 -0.46983325 -0.18402235 -0.08209131 -0.0353392 0.1828888 -0.008113844 0.50503147 -0.4658525 -0.16314891 -0.022020336 0.17490567 0.2670753 -0.1832143 0.035856966 0.40388784 0.3028462 0.08219639 0.24499002 0.3391085 -0.010531759 0.48940748 0.2505769 0.33252683 -0.4576239 -0.13542673 -0.1229596 -0.11754085 -0.19605868 0.38204533 -0.122055076 -0.222989 -0.18714339 -0.10001519 -0.20103239 -0.23126602 0.3388168 -0.26903862 -0.31132826 0.11754597 -0.1371761 0.068616904 0.17814708 -0.373501 -0.017552579 -0.17335634 -0.13239118 -0.072223574
C0074554 0.14608464 -0.04828402 -0.061607394 0.06684406 0.12653959 0.13721685 0.0022928126 -0.25978985 -0.09411534 -0.2688344 -0.10825767 -0.067911975 -0.0039011599 -0.021334305 0.0004152858 0.3019518 -0.22168955 -0.043878336 0.01836785 0.11621645 -0.008392572 0.21605755 -0.23662806 -0.19574508 0.021218225 -0.40423706 0.06501506 -0.32782784 -0.1788655 0.021559302 0.31812248 -0.1691117 0.28371015 0.013152874 -0.100422174 0.09727852 0.03392485 0.48195845 -0.24132946 0.0165257 -0.15643255 0.04587579 0.008865991 0.10336639 0.035875645 0.5656336 -0.4579587 0.27609462 0.009808386 0.07072828 -0.20539828 -0.1756972 0.2252245 -0.15815362 0.284797 0.19138776 -0.03638953 0.17409691 0.1472 0.52565575 -0.16480786 -0.010478553 0.22136931 0.28228414 0.021475112 0.017385231 0.2670624 0.49738806 0.015594305 0.17012493 0.39402446 0.053466298 -0.10712401 0.0010594084 0.06333918 0.30806962 -0.10057769 -0.043691903 0.077842064 0.20373218 -0.096267514 0.20644471 -0.16636568 -0.5157769 -0.10331238 -0.3552131 -0.24446543 -0.2702675 0.14742188 0.07066015 -0.11421945 0.47586295 -0.10209409 0.29516894 0.03387104 -0.20741612 -0.3721913 -0.004263817 -0.03438948 0.3953002
C1331111 0.104228176 0.12300559 0.032144744 0.09298859 -0.3643887 0.061823856 0.008005384 -0.28760496 -0.3202339 -0.00835513 -0.04734824 0.41626316 -0.04695312 -0.21222985 -0.105320625 0.56847805 -0.19577076 -0.32989144 0.010471693 -0.026535919 -0.097509354 -0.44539678 0.0708365 -0.11852521 -0.12686509 -0.31431967 0.16253681 -0.01726316 -0.0025234246 0.10758696 0.17711595 -0.037128676 0.17441112 0.058909256 -0.40986022 0.19981334 0.4320788 0.69545317 0.008538092 0.016188357 -0.14576313 0.17640613 0.41633213 -0.021317322 0.0060320846 -0.18786065 -0.25450215 -0.17817082 0.12715867 0.37091404 -0.06506221 -0.09007608 0.10571361 0.076619744 0.24352813 -0.17731631 0.23295404 0.44085622 0.70952725 0.36044452 -0.5849551 -0.017054737 0.26658818 0.21945982 0.7181486 0.4576755 0.14880057 0.37243947 0.26155153 -0.0044500926 0.38968608 0.0057617966 0.13833033 0.42036265 0.10836545 0.5249421 -0.109463684 -0.16812202 0.03911609 0.36286184 -0.06764687 0.4336102 -0.06710668 -0.48100522 0.053652525 0.013387482 -0.33982444 -0.20820281 0.48530477 0.3866009 -0.11606608 0.20225011 -0.1617371 -0.06574314 0.4039439 -0.52263767 0.0696666 0.20739101 -0.21748388 0.38453397
C0014912 0.12939143 0.21569729 -0.095610574 0.098685935 -0.2996625 0.055641707 -0.076742664 -0.13505878 -0.114465855 -0.22245218 -0.2612946 0.35063893 0.04958242 -0.10353304 0.38719246 0.060418706 0.061627816 -0.019819433 -0.13627476 0.36643276 0.037716344 -0.12512305 0.107686564 -0.049716584 -0.25931725 -0.13933775 0.069294795 -0.13044485 0.088783324 0.06898048 0.47256574 -0.116962075 0.1426133 -0.21465231 0.21037214 -0.081467725 0.5590185 -0.14248124 -0.5409081 0.042149283 0.28536507 -0.33255023 -0.14056258 -0.13562925 -0.2252399 0.055788435 -0.55331993 0.03793158 0.14343892 0.54089844 0.16677703 0.083681956 -0.051821705 0.20437439 0.065905035 0.34840196 -0.17859837 0.017138211 0.29525453 0.18865316 -0.26821083 -0.0011875889 0.29508418 0.4564569 0.13752924 0.3010181 -0.05801232 0.18698524 0.21320637 -0.019285468 0.2845912 -0.113634795 -0.089860484 0.11513438 0.23141909 0.07335329 -0.24735202 0.008827167 -0.22929733 0.22721706 -0.09414809 0.17288588 -0.05764238 -0.2669649 -0.022960369 0.0062177246 -0.014600083 -0.027287893 -0.10265718 0.16352509 -0.051112715 -0.23328754 -0.23000108 0.047832057 0.07663177 -0.038713988 0.27595004 0.1030657 -0.1003846 0.47919792
C0989915 0.40308985 -0.15657483 0.06473268 -0.07124158 -0.1655971 0.25672156 -0.095189966 -0.13305932 -0.4251334 -0.08782537 0.067938395 0.44981882 -0.114987105 -0.2967832 0.30363947 0.03513382 0.13753393 -0.34509268 0.072043456 -0.14182872 0.24218373 -0.5793342 -0.18414292 -0.101838864 -0.1827264 0.019936347 0.5368928 0.09334671 0.2821944 0.14771697 0.19336058 0.105887964 0.31528115 -0.06393584 -0.3203043 0.32755375 0.5463272 0.6447351 -0.5885685 0.018103536 0.28093043 0.01161539 0.4346832 0.19780965 -0.013345489 -0.04472131 -0.33307827 0.13135205 -0.0576578 0.43963495 0.07132209 -0.39016297 0.47134978 -0.2277009 0.30635598 -0.21048997 0.36839342 0.4283877 0.35971963 0.35216877 -0.3691517 -0.21869558 -0.20358245 0.22918344 0.64734346 0.36374646 0.0074111368 0.29635143 0.33699426 -0.09352188 0.30481538 0.039294563 0.29171318 -0.03210244 0.4119136 -0.07124963 -0.121012874 -0.4414651 -0.06196667 0.26485616 -0.31373277 0.26346555 -0.5422691 0.03481903 -0.02236991 -0.14084531 -0.3838088 0.03984677 0.556024 0.16603717 -0.029326936 -0.08787678 -0.41549647 -0.16847706 0.19067071 -0.14875332 -0.64363563 -0.088167444 -0.12038514 0.505211
C0965129 0.115595974 -0.021335207 -0.24580471 -0.01523578 0.060499292 -2.0815522e-05 -0.0007326515 -0.27627572 -0.098555 -0.15889612 -0.40382594 0.31359363 -0.24578883 -0.118063346 0.0077367825 0.30014744 -0.23134416 -0.038590156 0.34586018 0.00409924 0.10260232 0.10228337 -0.056265723 -0.4062372 0.009042377 -0.3506193 0.24598458 0.24875093 -0.17344628 0.010239178 0.25592875 -0.03330147 0.14621878 0.10138112 0.030643953 0.117118746 0.17024142 0.75877637 -0.17005922 -0.07242682 0.14540349 0.014410832 0.1520587 -0.048776377 0.04242679 0.15387742 -0.43150598 0.27692226 0.01183713 0.06479202 -0.23457865 -0.09224317 0.043763556 -0.12214411 0.24028039 0.09271089 0.09594959 0.29986373 0.4174496 0.3938351 -0.16890943 0.07388765 -0.052809067 0.08819802 0.26826087 0.14331412 -0.08488093 0.4182777 0.027484594 0.11887759 0.33644342 0.3333566 0.040617045 0.25876015 0.2411399 0.22387934 -0.37667957 -0.14360848 -0.055450965 0.2671744 0.05129469 0.44125858 -0.1315269 -0.52427995 -0.28640738 -0.08421698 -0.24399117 -0.19419093 0.35998884 -0.011543978 0.16899277 0.061121136 -0.046121802 0.14253588 0.106690325 -0.1602679 -0.16573824 -0.056023017 -0.170454 0.0033050303
C0360714 0.08337883 -0.22243996 0.023198443 -0.06166135 0.095485486 0.22490801 0.08697285 -0.15974733 -0.19189535 0.014841445 -0.26652524 0.065738104 -0.21935482 0.15183023 0.13168566 0.09703067 0.2234102 0.15927537 0.22345248 0.08803573 0.056536853 0.23140517 0.030803015 0.07464674 -0.0013888794 -0.03281449 0.15083547 0.24983163 -0.10373034 -0.13524309 0.26198834 -0.2674765 0.14198287 0.02280586 -0.05122192 0.039369475 0.11752527 0.20154174 -0.34468514 0.015251385 -0.047902867 -0.290292 -0.056784835 -0.048690967 -0.012451043 0.06420367 -0.19881439 0.25076774 0.21164094 0.33531457 -0.17322636 -0.30129224 0.05070326 0.035061464 0.069191046 0.21125707 -0.027237257 0.07880204 0.3754092 0.3215575 -0.17954957 -0.24551128 -0.023981323 0.3855762 0.32110742 0.1718296 0.18440104 0.2698588 -0.07238168 0.07649732 0.5588216 0.09124885 0.05941692 0.15363747 0.08942005 -0.027649539 -0.3644794 -0.04679672 -0.12624073 0.2618453 -0.26632634 0.40763572 -0.0063191857 -0.21144901 -0.068697736 -0.06714432 -0.32547832 0.10120632 0.08758043 -0.3766827 -0.13530317 -0.0018090461 0.052050516 0.20124856 0.19899401 -0.058896713 -0.15950346 0.044030145 -0.23974708 -0.024872381
C0948265 0.08916973 0.23898871 -0.29286167 0.030341737 -0.15443425 0.20267348 -0.059752185 -0.20876083 -0.3295852 -0.15530065 -0.034761943 0.27204537 0.2042474 -0.27935657 0.038302064 0.5800035 -0.44042304 -0.34856895 -0.016084285 0.3394581 0.055549547 -0.22906408 -0.111550234 -0.15844351 0.15691203 -0.43530336 0.07829068 -0.05525007 -0.14826274 0.1068906 0.32068586 0.02492758 0.08710163 0.10886088 -0.3192206 -0.05161658 0.08036927 0.37298602 -0.29604763 0.16137557 0.09690975 0.19554839 -0.08254097 -0.4197361 -0.33534056 -0.25600806 -0.0028124342 -0.1645791 -0.037559215 -0.043453548 -0.3679604 -0.07259434 -0.06825457 0.2165553 0.3500668 -0.061919384 -0.119411826 0.35153118 0.41952547 0.15642947 -0.84928197 0.09430724 0.03382224 0.2514461 0.41733366 0.0089185815 -0.058542874 0.21842395 0.32599473 -0.021611629 0.12237137 -0.11755025 0.023594404 -0.012312064 0.14893956 0.5517227 -0.09040844 0.1219851 0.1328526 0.37009647 -0.082092814 0.2256143 0.19088767 -0.5927332 -0.16353603 -0.3133099 -0.030837849 -0.36199188 0.31498337 0.24680915 0.075987205 0.17837767 -0.017157208 0.169461 0.14745705 -0.3983544 0.081152506 0.06936872 -0.21211751 0.1584269
C0073393 -0.047194652 -0.09172952 0.22645555 -0.025873946 0.025863476 0.1836144 0.0012830064 -0.015819907 0.31975773 0.23011076 0.021706125 0.34711975 0.10476565 -0.2778103 0.22370946 0.2290755 0.09637222 0.18152863 0.23268247 -0.14417528 0.0210742 0.15293494 -0.4345758 0.20118803 0.21144222 -0.27933094 -0.10962708 0.046072852 0.08229246 0.22989696 0.18665804 -0.07915159 0.13059354 0.19693059 -0.045785163 0.17215198 -0.10452929 -0.111317575 0.23777635 0.25300264 0.1860692 -0.20270623 0.022618588 0.0776962 -0.12995318 0.083877325 -0.21792503 -0.15323338 0.28429216 -0.13504602 -0.010258874 -0.26291037 -0.11889616 0.101765014 0.23475634 0.05426325 -0.058177155 0.20425954 -0.17056581 0.15255462 -0.20876019 -0.21235813 -0.29738528 0.48286057 0.34145692 0.26081723 0.046823487 0.06402545 0.2119613 0.039368063 0.12156038 0.040098798 0.10262742 -0.2975444 0.29382166 0.272045 0.24650776 -0.11450411 -0.18882963 0.19964033 -0.2711973 0.41067553 -0.099207506 -0.32328215 0.14087793 0.24416547 -0.010516386 -0.3389712 0.2736 0.24131274 0.2727608 0.10005313 -0.07708957 0.07024395 -0.20366469 0.0345651 -0.17781785 0.09609738 -0.29093534 0.2781659
C1322815 -0.18895952 0.12620029 -0.29540718 -0.20739871 0.30665696 -0.10556649 0.19236559 -0.14449136 -0.39740625 -0.17179716 -0.22646303 0.21397771 -0.41629407 -0.14193945 0.28814802 0.3966105 -0.11013614 -0.23794603 -0.31793916 0.09635578 0.006612203 0.27067894 -0.22188984 -0.2392644 0.35909167 -0.4000949 -0.0033836493 0.182489 -0.28126466 0.21722773 0.35623875 -0.3028986 0.30242732 0.14823648 -0.15360804 -0.13553642 0.11442452 0.22167648 -0.2612949 0.0713786 -0.0060323756 -0.3972973 0.20563954 0.04082302 -0.45661864 -0.011145841 -0.52888674 0.18171646 0.3242375 0.6704658 -0.26788923 -0.25510597 -0.07089489 -0.049164828 0.23332049 -0.090782724 -0.1548946 0.18643235 0.14997014 -0.2156921 -0.429211 -0.32227188 -0.007025333 -0.15173519 0.13105336 -0.115694605 0.1310806 0.07828971 0.4153193 -0.193075 -0.08307201 0.464808 0.10795743 -0.017973112 0.32759687 0.38591763 -0.2206132 -0.41314587 0.15452987 0.46228737 -0.2630385 0.23433623 0.23414952 -0.6104098 -0.233575 -0.12695871 -0.006701323 -0.22624493 0.35986435 -0.19837742 -0.19093236 0.34778398 -0.019891914 0.09078706 -0.03361396 -0.14031847 0.11685947 0.059410658 -0.17215341 -0.15131165
C0071097 -0.064708725 -0.25050244 -0.29459643 0.028218964 -0.1160094 0.30587342 -0.07526305 -0.038357817 -0.29837078 -0.07982442 -0.025512459 0.09041044 -0.051337846 -0.11318933 0.31216016 0.27044967 -0.26772857 0.09489614 0.066196926 0.2818575 0.14978859 0.35914233 0.17940584 -0.20514627 -0.13491334 -0.37932888 0.18267845 -0.13552706 -0.107386224 0.1185479 0.30802885 -0.2579032 -0.040348645 0.12551707 -0.09339954 0.22110607 0.21063262 0.16538696 -0.12999508 0.2279594 -0.23832768 -0.1962924 -0.013710777 -0.0835428 -0.24706052 -0.14175473 -0.22379063 0.25970104 0.42136726 0.4202105 -0.23855674 -0.17112638 -0.28694782 0.013857383 0.06213884 0.08957311 -0.15029982 0.20994353 0.37650335 0.28501812 -0.32922602 -0.08924014 0.05160407 0.3696865 0.3219564 0.0540884 0.055190552 0.24329227 0.008742774 -0.17189221 0.26691753 0.24260254 -0.10082607 0.44334343 0.101265684 0.48041674 -0.3310559 -0.088061504 -0.26584628 0.4501392 -0.014126243 0.25181007 0.0070314086 -0.33328658 -0.1975722 -0.45569822 -0.31564584 -0.32160386 -0.07113565 0.07834021 -0.28955132 -0.02881224 -0.18014288 0.086623125 0.38157597 -0.24034612 0.11691555 -0.08780571 -0.07484786 0.28388914
C0248719 0.06664837 0.09344592 0.13118397 0.08635516 0.06353687 0.36284506 -0.008062486 -0.122972615 0.0626609 -0.25133726 -0.2612191 -0.0039283796 0.032829 -0.1546851 -0.13580011 0.22834657 -0.07503438 0.074640945 -0.2749929 0.24675986 -0.2730563 0.17504813 -0.039528478 0.14305682 -0.34580168 -0.36219347 0.19374695 -0.06968767 -0.37889332 -0.09786328 -0.028036557 -0.087676905 0.038364816 -0.17755589 -0.2091227 0.29268128 0.09460068 0.11609586 -0.17899539 0.10582268 0.25813752 -0.10939173 -0.00968961 -0.2716039 0.03473466 -0.14842243 -0.089175284 0.2252171 0.09946577 -0.045929737 -0.02975642 0.026298348 0.021661738 -0.045220528 -0.1453235 0.1487853 0.058714103 0.16568007 -0.1515099 0.1937855 -0.25630093 -0.24776728 0.014803834 -0.08275097 0.16954687 0.035130985 0.011529699 0.4869861 -0.016257627 0.021985535 -0.05035633 0.34029406 0.005076759 0.37184423 0.14702985 0.097251214 0.06202081 0.20646852 -0.2907388 0.11454619 0.20648663 0.34974375 -0.14216742 -0.44979897 0.14072947 -0.22744007 -0.066208884 -0.32477275 0.15312055 0.1894469 -0.1490356 -0.10646397 0.116011776 -0.02024769 0.11945211 0.06034225 -0.35800388 0.082993515 -0.08456295 0.20371778
C1098320 0.23326628 -0.19250007 -0.0007103768 0.21867791 0.03845317 0.21948892 -0.046637967 -0.33790258 -0.1512551 -0.19253455 -0.24362269 -0.058181178 -0.055864103 -0.07497085 -0.015608512 0.1752906 -0.25836322 -0.10731507 -0.12710242 0.3562476 -0.14906429 0.076793306 -0.2510229 0.024578677 -0.13429987 -0.15922658 0.019196158 0.18028855 -0.27243596 0.05688254 0.28654 -0.3378324 -0.02396137 -0.29506183 -0.3037287 0.28821245 0.05503679 0.09420751 -0.25831702 0.10165779 0.23221058 0.021751387 0.11053521 0.0907501 -0.09903951 -0.29614225 0.16822429 0.19629782 -0.009545171 -0.103260025 -0.2934362 0.13767232 -0.120780714 -0.018330839 -0.31765354 0.15832987 0.21725865 0.3163296 -0.1861315 0.26741505 -0.3728454 -0.056553654 -0.023740903 0.1719825 0.32684302 -0.23486373 -0.21645804 0.5100012 -0.30946624 0.027064702 0.24324141 0.052395906 0.085138135 0.25437915 -0.13428728 0.3877538 -0.2546409 0.19863275 -0.31474212 0.36405793 0.41880324 0.1313159 -0.29582188 -0.63180524 -0.098495595 -0.25704807 -0.2730477 -0.44840115 0.061368085 0.019725392 -0.26823252 -0.07036094 -0.073507875 -0.07703002 0.17563868 -0.0102181295 0.22754958 0.16014853 -0.19044827 0.24464925
C0033228 0.15204184 0.2686503 -0.0034207676 -0.2200257 0.066114195 0.10267399 -0.109172225 0.006795517 0.05609207 -0.027260192 -0.17454273 -0.12053746 0.06972316 0.082182765 -0.074760415 0.2346187 0.02755153 -0.31534293 0.032459144 0.5756722 0.1334961 0.14054067 0.39043665 0.016372532 -0.10872478 -0.67336345 0.709136 0.004640578 -0.03061838 0.12225049 0.017510943 -0.0027784663 0.08731223 -0.013454012 -0.39370257 0.20196818 0.22992523 0.0881175 0.12015674 -0.0158225 0.24198018 0.069105044 0.14621687 0.021580977 -0.27002415 0.015272036 -0.22299093 0.18568026 0.25729784 0.18466718 -0.30992705 0.112473026 -0.42922527 0.004496244 0.06001583 0.077807344 -0.31253898 0.13845512 0.22819933 0.13666587 -0.1286899 0.046653263 -0.032299902 0.15915819 -0.115219094 0.1659314 -0.08340724 0.11623805 0.11137435 -0.17717972 0.078305274 0.16293989 0.06552093 0.25112766 -0.024547422 0.18128182 0.086533435 0.07658259 -0.076848045 0.25322944 -0.14550887 0.36302957 -0.062978566 0.010237132 0.1606814 0.076772474 0.0440958 -0.056889143 0.68250465 0.20008558 -0.29984534 0.12857036 -0.23473807 -0.010894605 0.28629422 -0.056901123 -0.2225541 0.23369887 -0.1608376 -0.12797558
C0299792 0.10221056 -0.16480134 0.27491263 -0.11961191 -0.061257936 -0.07036856 -0.04428414 -0.15024097 0.085309185 0.2634558 -0.03236536 0.33843654 0.03586464 -0.29153106 0.09511787 -0.0037082555 0.021975117 -0.047261067 0.18151218 -0.09322716 0.18782401 0.19311069 -0.4784288 -0.043380085 0.13354383 -0.047658563 -0.091133945 -0.14918678 0.025584625 0.046410955 0.38628712 0.06214561 0.04868794 -0.054049652 -0.047995936 0.09055603 0.02478387 -0.031474072 0.22349784 0.29900005 0.26506692 -0.17900607 0.093024805 0.1622657 -0.13429293 -0.14704344 -0.012004195 -0.03298009 0.3570561 -0.16639806 0.035906833 0.031333335 -0.31682256 0.20393738 0.2172771 0.19936824 -0.008623774 0.14349152 0.03313829 0.03923478 -0.27577734 -0.2538575 -0.057025027 0.2845546 0.2275411 0.2051255 -0.17804265 0.18453856 0.084362224 0.10832037 -0.26201925 0.075149685 0.19326967 -0.0040903753 0.183511 -0.024247782 0.20839731 0.037790548 0.0047910484 0.06835578 -0.012395181 0.46072295 0.16861819 -0.119584545 -0.05495922 0.24949808 0.07898791 -0.13038713 0.29264426 -0.06821303 0.21812357 0.006866289 -0.05190759 0.111429445 -0.062892504 -0.057147693 -0.11176133 0.13422492 -0.27636558 0.22423612
C0038257 -0.03341514 0.17906839 -0.30108485 -0.059441898 0.25799423 -0.092131324 0.045081366 -0.22049287 -0.36531863 -0.039329045 -0.29682365 0.19573782 -0.3148963 -0.13020018 0.3704246 0.5130228 -0.05004028 -0.25963604 -0.24355064 -0.03237651 -0.22253501 0.29708675 -0.02639422 -0.21328308 0.24807084 -0.42351094 0.00013592921 0.029334934 -0.28685296 0.11207118 0.3946816 -0.21046653 0.25304452 0.21251346 -0.19151649 -0.07487053 0.18547907 0.065314785 -0.20150194 0.024952548 -0.06526791 -0.16348521 0.18826927 0.08299654 -0.27721208 -0.09487782 -0.50472146 0.20174961 0.30194557 0.59823686 -0.46751153 -0.35315368 -0.24738254 0.09497359 0.16076711 0.015821496 -0.1956535 0.45907387 0.060609963 -0.1891852 -0.49844176 -0.36168438 -0.13442211 -0.03361801 0.06255851 -0.049886998 0.041138493 0.11986113 0.22127508 -0.114215076 -0.19659525 0.3815801 0.15238726 -0.18174228 0.24232754 0.38510582 -0.12589508 -0.20559181 0.23832873 0.4718617 -0.13470627 -0.012548441 0.29858974 -0.45145142 -0.25178573 -0.11928418 -0.08422396 -0.45623946 0.23310183 -0.22718894 -0.4208225 0.3614504 -0.100677215 0.054272994 0.043403175 -0.014654641 0.10892617 0.11989467 -0.1651145 0.061517652
C0025598 -0.09204422 -0.19924177 -0.30269307 -0.14382207 -0.022059849 0.004576762 0.09369965 -0.1965401 0.12933221 -0.013528392 -0.15250592 0.16380383 -0.09934155 -0.15030313 0.10982701 0.21377718 -0.0675668 -0.011217475 -0.014435865 0.03670416 -0.027907204 0.11132204 0.01314192 0.11405892 0.06331492 -0.35726663 0.345198 -0.06723597 -0.16916385 0.03273525 0.21720268 -0.15548 -0.0101495525 0.27748066 -0.0837047 -0.17118621 0.24885459 0.098760165 -0.24363266 0.17117207 -0.12500511 -0.14677343 -0.048858944 -0.1853793 -0.09530999 -0.00236603 -0.37660733 0.14453362 0.53485346 0.35839555 -0.12883265 -0.046982106 -0.08946709 0.12378429 -0.0991527 0.3465133 -0.047254086 0.028240072 0.3910773 0.41258425 -0.116121754 -0.13071315 -0.097519234 0.14636394 0.36750165 0.22758015 0.07878064 0.10003686 0.091456145 -0.056985818 0.19281457 0.19708565 0.026468145 0.21589042 0.056499604 0.39527285 -0.131204 -0.14555447 -0.006425902 0.2187664 -0.10324693 0.09758289 -0.12180105 -0.3515733 -0.048133336 -0.04314135 -0.10608224 -0.35916334 0.20177819 -0.20165908 0.13961698 0.17145787 -0.09121735 -0.08506143 0.1747113 -0.15842669 0.036279388 0.21806104 -0.46820155 0.19822572
C1532737 0.094778135 0.0039793765 -0.27405453 0.01845171 -0.13563102 0.32503054 0.3212646 -0.18340284 -0.21397509 -0.30463123 -0.10688535 0.18345352 -0.0055593513 -0.2202137 -0.1203344 0.6384428 0.22766985 -0.37785742 0.031671282 -0.28379434 -0.05613041 0.12993057 -0.04786205 -0.3862375 0.1331679 -0.2911575 0.46925226 0.0651801 0.01606394 -0.10511164 0.3953976 0.09900767 -0.22131315 0.11800322 -0.46938652 -0.012127809 0.29077724 0.041175835 -0.06799772 0.29098138 -0.19839783 -0.06781036 0.017504474 -0.24903524 -0.16609237 -0.07415379 -0.33683735 0.16219214 0.006982635 0.17585655 -0.34337315 -0.03875327 -0.2832961 0.34706742 0.8188217 0.35945958 0.022411503 0.57835066 0.02777161 -0.01979379 -0.43075746 0.002466374 0.25128657 0.4744512 0.26226306 -0.08837422 0.37739104 0.3357997 -0.123296164 0.16540237 0.2459877 0.03469298 0.07183112 -0.056600492 -0.09466449 0.87764806 0.03823423 -0.22489806 -0.1534986 0.39309958 -0.07612463 -0.023910236 -0.08201356 -0.5334012 0.004415324 -0.4160981 -0.10964304 -0.13924102 0.5062211 0.16614574 -0.13464312 0.3320879 0.0052493815 0.14468583 0.24758668 -0.5451631 0.53621984 0.080898166 -0.24570645 0.3929258
C0076275 0.037848245 0.0059306906 -0.41912717 0.23326676 -0.01822527 0.24754174 0.16078606 -0.2362213 0.15051967 -0.26421413 -0.4247761 0.1474399 0.122469954 -0.479494 0.27014107 0.36000785 -0.2937884 -0.022239018 -0.14685477 0.46705738 0.075382866 -0.09929455 -0.08633441 0.21459673 -0.57549924 -0.3625631 -0.10839601 -0.18756333 -0.56921923 0.19309431 0.16332188 -0.15426677 -0.106289364 0.0239676 0.118774354 0.09017669 0.05974321 0.0012486925 -0.20421271 -0.03801555 -0.007890563 -0.18347242 -0.39883873 -0.12509644 0.299795 0.041114185 0.03390756 0.046166766 0.4281731 0.22255813 -0.2771163 -0.023558324 0.14608316 0.102778964 -0.06185577 0.38793427 -0.039012656 0.24211566 0.27290523 0.10450175 -0.50538284 0.0714591 0.04635735 0.20882733 0.2861453 0.11108491 0.11951443 0.016393263 0.09498133 0.027525486 0.07806439 -0.07102995 -0.08496011 0.27482077 0.094374985 0.4532532 -0.3225587 0.025411356 0.30511189 0.293437 0.09645044 -0.014523012 -0.2163145 -0.50976604 0.22910587 -0.12094101 -0.06273246 -0.38171744 -0.0022437247 0.31760457 0.14086398 -0.32713196 -0.028444625 0.12889554 0.45288706 -0.42844844 0.04575467 0.37306482 -0.27797973 0.36360347
C0025219 0.1888091 0.14570571 -0.052836496 -0.051533975 -0.02177661 -0.15896909 -0.03309152 -0.40814152 0.034500528 -0.01691641 -0.049207307 0.100818686 0.07502486 0.15021934 0.4673752 0.3548238 0.16499868 0.1486384 0.0069750967 -0.4017786 0.100155845 -0.31935877 -0.4114313 0.08894832 0.26431763 -0.16594087 0.10525456 -0.16199143 0.1636001 -0.007476207 0.17151138 -0.13258567 -0.09748442 0.23989373 -0.025494264 0.039399683 0.12650618 -0.04298982 0.018258536 0.044630673 -0.082715176 -0.23357406 0.22887468 -0.33183512 -0.5175984 -0.17574598 0.11836422 -0.03269354 0.3104313 0.44363022 -0.16685778 -0.18380786 0.5692414 0.022146674 0.25028774 -0.020081155 -0.19532189 0.04888586 0.019717732 -0.2315791 -0.22279978 -0.1602982 -0.11009624 -0.029862028 0.29237333 0.18498687 0.21765386 0.22804643 0.18295448 -0.2538116 0.28306836 -0.028854918 0.09002038 -0.16936849 0.31551576 0.44881314 -0.05213384 0.17195371 -0.17348969 0.2654642 0.17556193 0.16326511 -0.15905246 -0.22226512 0.04011343 0.050133374 0.25254026 -0.19402355 0.17238115 0.09176733 -0.15480219 0.10866435 -0.014232001 0.008297977 0.20716855 -0.023803335 0.025028422 0.006106259 -0.5136152 0.105500765
C0027996 -0.46376154 -0.077093855 -0.2282599 -0.03684661 -0.10781275 0.1289434 -0.052345734 -0.23816009 -0.049735367 0.059801467 0.102769025 0.23894036 -0.12867834 -0.04906181 0.34444723 0.44591376 -0.13207275 -0.18615486 0.19274735 0.18112053 0.11753101 0.011579822 0.18886837 -0.3034629 0.052753005 -0.3683231 0.35491225 0.090138555 -0.49790147 0.0791726 0.09786794 -0.16877687 0.24250372 0.076619394 -0.25455204 0.247911 0.15171887 0.19952138 -0.043187004 0.15861051 -0.2932183 -0.05820657 -0.20011275 0.061840355 -0.18609929 0.035111554 -0.4852552 0.07174069 0.20496945 0.50383335 -0.232784 -0.23841922 -0.18210496 0.16007493 0.22242096 0.19940722 0.101890504 0.33531666 0.6229555 -0.017376577 -0.47705692 -0.12806675 0.013379159 0.43569955 0.32113615 0.015329969 0.12198362 0.30402595 0.037948452 0.13583341 0.11511008 0.29270893 0.07364962 0.28925022 0.20641042 0.40533513 -0.06866621 0.18353198 0.17257774 0.3191005 -0.023831688 0.2851944 -0.011105431 -0.3134968 -0.2622121 -0.068075694 -0.3706599 -0.2765138 0.14284398 0.19469465 -0.19230437 0.08930518 0.03179313 -0.0052672145 0.31151974 -0.17188124 0.18628603 0.046778467 -0.043908216 0.06292632
C0288171 0.19321336 -0.29611987 -0.4703692 0.12659106 -0.07735895 0.13152906 -0.17423488 -0.2912635 -0.30101043 -0.115678966 -0.4665345 0.07743946 0.09668173 0.017319888 0.07823613 0.36492106 -0.11533193 -0.03984415 0.05939848 0.038478076 0.022140622 0.12295909 0.066069245 -0.14629701 -0.042383336 -0.3674891 0.33613136 0.09388784 -0.27928016 0.032933056 0.30188134 -0.068574004 0.15187287 -0.10353521 -0.13085277 0.24040467 0.0731134 0.017084647 -0.058790535 0.1982242 0.36631343 0.18208772 0.2641849 -0.1513534 -0.24288884 -0.09214398 -0.046699796 -0.028154533 0.24954769 -0.011775441 -0.30066687 -0.13921274 -0.35226527 0.052340843 -0.37732902 0.12088809 0.012682223 0.18066716 -0.09778632 0.22437727 -0.21386392 0.27792856 -0.14038394 0.3114125 0.37031004 -0.08497734 -0.2076954 0.482381 -0.2715657 -0.20281252 0.2343262 -0.014409312 0.33639833 0.11392501 -0.109516285 0.23935719 -0.10661466 0.0111535285 -0.29183793 0.5350482 0.30375153 -0.047632325 -0.056138877 -0.4405101 -0.21468732 -0.008960732 -0.28857303 -0.35547405 0.2484251 0.05259748 -0.3126229 -0.12787715 0.17873311 -0.1028383 0.24274284 0.04602282 0.25075135 0.31322703 -0.08841452 0.18381704
C0009079 0.17064324 0.07674477 0.0076257554 -0.1479784 0.016083717 0.045461405 -0.04424102 -0.18656251 0.28813893 0.09521068 0.14096867 0.23527057 -0.1406827 -0.028751748 0.001724176 0.32953072 0.03958214 0.009061007 0.09393913 0.20913087 0.14121564 -0.13895953 -0.10149942 -0.024614243 0.40392953 0.11288388 -0.21536833 -0.29569194 -0.015800029 -0.09000877 0.31846398 -0.07726612 -0.019307798 -0.09674815 -0.06150742 -0.021226278 -0.08412104 0.017593784 0.18044083 0.28406882 0.23791571 -0.22092503 0.034057215 -0.061238848 0.014844042 -0.17010948 0.17700233 0.09372414 0.3428152 -0.14233303 -0.0073184404 0.13488853 -0.119602755 -0.17760132 0.41490135 0.16322197 -0.058516584 -0.020520145 0.1581135 -0.036913443 -0.07970404 -0.46174175 -0.17959198 0.11568072 0.04953663 0.24303098 -0.12152979 0.036463 0.032428455 0.12731858 -0.16134353 0.25704166 0.3627734 -0.034253206 0.21582088 -0.06980605 0.17674074 0.12610789 -0.121809445 0.20755017 0.066049874 0.07640067 -0.028583469 -0.15334772 -0.002009561 0.028936049 0.15293324 -0.10306707 0.008941638 0.06581607 -0.20699464 0.10029247 -0.025308695 0.38862553 -0.05117419 0.052553684 -0.2916441 -0.004042393 -0.26148027 0.37646624
C0021186 -0.14985426 0.101334706 -0.041645665 -0.089206055 0.09800191 0.076771535 -0.16232257 0.030569386 -0.035074998 -0.47496766 0.12324188 0.100222126 0.31869304 -0.5054645 -0.07697822 0.26288775 0.017456455 -0.056536708 -0.048216853 0.14965555 -0.17404698 0.120087326 -0.07265648 0.2685118 -0.040478576 -0.22274369 -0.33246496 -0.36039862 -0.31406105 -0.02759797 0.07027186 -0.28953046 0.12853359 -0.13893762 -0.03050595 0.23002481 0.22269228 0.22184692 -0.2731677 -0.069653325 -0.23414053 0.24401349 0.18767591 -0.1454345 -0.21186627 -0.14914401 -0.029733963 0.23832324 0.08719755 0.09068775 -0.31686857 -0.118466154 -0.31115243 -0.14038365 0.10823553 0.4897968 0.0023672348 -0.09106584 0.15822437 -0.120513305 0.05131035 0.14138485 -0.19240166 0.046006843 0.36272255 -0.1372164 -0.10455329 0.45367417 -0.2620353 -0.13087022 -0.08629905 -0.21388645 -0.004165777 0.03858883 0.3906125 0.05311374 -0.12669258 0.72439784 -0.3246234 0.37138063 -0.0154467635 0.5661473 0.056124978 0.01577136 0.1295774 -0.4044014 -0.10539124 0.084829725 0.15960601 0.38093817 0.041060742 0.29464898 0.03523645 0.14988182 -0.1034334 0.06161116 0.24050668 -0.1651029 -0.14364345 0.44760093
C0039601 0.2103586 0.024928479 0.1005288 0.06897212 -0.08707102 0.146047 -0.23386429 -0.1052263 0.12422325 -0.1690669 -0.013718781 0.22193226 -0.18587598 0.118728094 0.14146572 0.030154137 -0.21930945 0.18507197 -0.10132096 0.17039935 0.017558226 0.2726614 -0.26934212 0.09602564 0.14725187 -0.40617493 0.10941107 0.0017464345 -0.07955532 0.029168934 0.15713273 -0.20893762 0.13737054 -0.08823529 -0.11606349 -0.18093532 0.26838002 -0.19615556 -0.23685095 -0.17565535 -0.060513508 0.24651185 -0.14175004 0.017406872 -0.24136828 0.3673978 0.19724166 -0.1327781 0.28634307 0.23581478 -0.15140715 -0.24076118 -0.15001388 0.116533756 0.03618825 0.14474803 0.12872966 0.16855916 0.40529484 0.1742549 0.056182325 -0.24951543 -0.21017583 -0.021941805 0.28225312 0.086077765 0.04513978 0.24104081 0.08837079 -0.13206054 0.2667882 0.2353046 -0.13183437 -0.022172991 -0.36832136 0.051130325 0.04924526 -0.17072673 -0.20829538 0.3239571 0.012248429 0.31001803 -0.31775504 -0.26556063 0.088747606 -0.10439784 0.31338352 -0.13686329 -0.019977234 -0.3219535 0.09987963 0.030417232 -0.029291404 0.25342247 0.3241055 0.10805962 0.24245903 0.4571856 0.06960012 0.14079963
C0039286 0.07585432 0.29834476 0.05127483 0.23503205 -0.08845348 0.24906673 0.06520565 -0.03375947 0.13885196 -0.04817772 -0.27673563 0.50180376 0.18567581 -0.043482285 0.17132638 0.091771446 -0.18717264 0.13245806 -0.022483002 0.1470878 0.25461787 0.14770795 -0.12985012 -0.117012136 -0.15439573 -0.5674099 0.30807278 0.119862944 -0.4733946 0.15392509 0.3102242 -0.008656237 0.29674906 0.00046597183 -0.09138113 -0.20890208 0.004662408 -0.09607361 -0.048516195 0.18874933 0.0035442112 -0.18520612 -0.19387397 -0.06695941 0.06608118 0.14833611 -0.3081224 -0.24143536 0.14674303 0.26220435 0.22217408 0.059509832 -0.2076609 0.4954313 0.28294912 0.4347239 0.34772062 0.31139138 0.3210027 0.19722413 -0.3191288 -0.11235192 -0.08259363 0.4549376 0.27005285 -0.24804468 0.07074452 -0.3064174 0.48685357 0.19148138 0.05240132 0.13657878 0.34376615 0.06515571 0.3343029 0.28238916 0.37838522 0.05614358 0.3376891 0.083633445 -0.06505242 0.14010006 0.14191227 -0.15315923 0.055014554 0.23644991 -0.09715463 -0.6398932 0.54562455 0.6566515 0.23362759 0.059664495 0.22910556 0.23112333 -0.023867978 -0.30042025 0.42008385 -0.26584432 -0.36193565 0.34715003
C0008677 -0.055489957 -0.096802995 0.086759046 -0.019836597 -0.08004671 0.05517133 -0.08306228 0.1313168 0.04003092 -0.06904711 -0.23746625 0.090772785 -0.1356429 -0.06499391 0.16108207 0.017714232 0.15843481 0.04310801 0.040409952 0.13112803 0.13550529 -0.21780533 -0.25626782 -0.037281867 0.018215021 -0.06413062 0.083630435 -0.029864948 0.077617444 0.012291029 0.24717817 -0.00015301189 0.20711282 0.012136275 -0.2531538 -0.18443097 0.34230247 0.09882601 -0.045632336 -0.052682385 0.10136131 -0.10892826 0.10119599 0.06597338 0.19735734 0.027805649 0.077733114 0.016148075 0.2204846 0.26552853 -0.12292062 -0.23176575 0.16027656 -0.1232461 0.038229883 0.17737015 -0.1304593 0.038316883 -0.082440585 0.019034626 -0.03700415 -0.079579934 -0.29171383 0.31333515 0.3014735 0.0752523 -0.101320155 0.14627108 -0.019637035 -0.049957722 0.2586755 0.035475608 0.31336442 0.062333595 -0.04216028 0.046261784 -0.12133732 -0.129766 0.14579885 0.1725964 -0.06947817 0.15264507 0.04957982 -0.17980535 0.1558057 -0.024919527 -0.2228448 -0.24835354 0.18030395 -0.06771909 -0.03250754 0.06969336 0.07194086 0.05606244 -0.24364582 0.17380252 -0.08172682 0.071589105 -0.39455855 0.13499095
C0054066 -0.09012565 0.2195626 -0.19793588 0.10652611 -0.02866328 0.03720167 0.22786494 -0.07775087 0.10563807 -0.06637482 -0.22349712 0.06136261 -0.49656624 -0.10531785 -0.117325924 0.07346446 -0.39525068 -0.02264197 0.038615514 0.12864897 -0.09359174 -0.35536253 -0.48902875 -0.15437624 0.03806878 -0.0015093159 0.41906452 0.27063805 -0.45156986 0.27038965 0.23953207 -0.17162769 -0.0026316806 -0.28401932 -0.07090097 0.16562401 0.4640561 -0.42714766 0.37280422 -0.13958113 0.3182198 -0.26217958 -0.12881415 0.17771646 0.29668882 -0.0392983 -0.16926873 0.031364582 0.22883199 -0.15631026 -0.15375559 -0.51239043 0.08035307 -0.2737403 -0.13615495 0.28455168 0.080801986 -0.040442448 -0.57875085 0.30491352 0.024524536 0.09156587 -0.26952747 0.27895233 0.2861834 0.24578804 0.070981696 -0.09804853 0.09350944 -0.0075026406 0.2896203 0.074783154 0.18509416 0.4334018 0.14466728 0.14667867 -0.5237449 0.22003748 0.3772498 0.18028076 0.051344424 0.22335203 -0.052722905 -0.07689834 0.011949952 0.15705441 0.1895353 0.17973945 0.17761901 0.028621295 -0.06021278 0.3544116 0.35808206 0.3569106 -0.0870111 -0.27107698 -0.09181945 -0.30934617 -0.09044642 -0.13177553
C0052796 0.06098701 -0.19633834 -0.026952576 -0.012946732 -0.108707696 0.06102024 0.03560772 0.021277659 0.20845672 -0.12408858 0.034530595 -0.04949808 -0.3679773 -0.08650956 0.036475774 0.07624261 -0.20683509 -0.14101775 0.0069641382 0.10426328 0.08535789 -0.14606373 -0.3301755 -0.1548523 0.02928565 -0.033098243 0.24168305 -0.17519051 0.038024805 0.32986683 0.27956626 0.059559073 0.34623906 -0.007851432 -0.3832803 -0.046431538 0.43455687 -0.16534467 0.13039553 0.0062345313 0.10182786 -0.296479 -0.07065409 0.13138463 0.15788703 -0.43150508 -0.38789016 0.004050984 0.502294 0.18360804 -0.36940956 -0.15863909 -0.16414899 -0.07229359 -0.26470828 0.3645821 0.13383302 0.08226867 -0.33821812 -0.38151875 0.31039888 -0.19682302 -0.23615058 -0.097146034 0.38092223 0.13320677 0.17606798 -0.09013955 0.35174915 0.24191625 -0.18174566 -0.026470413 0.05038937 -0.029061258 0.016115805 0.08857618 -0.6386157 0.020578243 -0.004084602 0.18792881 -0.1338144 0.27735937 0.15635607 -0.14302857 -0.123978145 -0.31955677 0.043607734 0.045297056 -0.032265503 -0.10818628 0.14385828 0.316058 0.051167734 0.2728884 -0.07535464 -0.19696592 0.10679995 -0.12711854 -0.011516324 -0.15093961
C0533545 -0.43784067 -0.15855387 0.12786777 0.20769152 0.369137 -0.0685867 0.28422526 -0.39863825 0.2493097 0.015091808 0.10146687 -0.3579034 0.030450385 -0.085410245 0.18016417 -0.18434988 -0.06306565 -0.027741069 0.15948729 -0.09251609 -0.10592531 -0.21915366 -0.011514338 0.1373378 0.13287748 -0.016381193 0.19356991 0.0014999696 -0.2317579 -0.12388063 0.0852559 -0.1518538 0.4741193 -0.14146064 -0.39793053 0.1610575 0.6067316 -0.057510536 -0.14608328 -0.10413963 -0.0753549 -0.18690558 0.18178484 0.09420347 0.2787703 -0.2870394 0.18485555 0.21560115 -0.06627383 -0.1454518 -0.39300442 -0.30595407 0.019590277 -0.101159014 0.17242296 0.21837054 0.09634391 -0.119497545 0.09563741 0.14092411 -0.07770966 0.18523633 -0.34676877 0.16403493 0.19063504 -0.12430173 -0.16521835 -0.12821317 0.2341463 -0.30304748 -0.010008378 -0.008601557 0.4077964 -0.3113508 0.07156973 -0.2770796 -0.2453904 0.38609 -0.16251308 0.36144012 -0.27754667 -0.10288946 0.12978403 0.14773537 0.45069858 -0.4290242 0.15527052 -0.36609274 0.3345994 -0.051244266 -0.30909517 -0.10749994 -0.103062645 0.6224006 -0.030667748 0.253525 0.014292861 -0.14547364 -0.0003461705 0.4850177
C0907410 -0.030897953 -0.34895384 -0.048140112 -0.012857172 -0.08692206 0.022256 0.19341116 0.03521362 0.17025487 -0.070845164 -0.24780697 0.14601828 -0.15460709 -0.12095108 0.09996347 0.1993053 -0.061699342 -0.011478032 0.46062145 0.20780842 -0.139379 -0.0044024778 -0.0002517531 -0.21684018 -0.076832816 -0.21164024 0.15981573 0.02164257 -0.3500983 -0.1202304 0.50148225 -0.09334605 0.359258 -0.23951596 -0.4209011 -0.13591439 0.6003596 -0.07674187 0.13805026 -0.20560077 -0.027386768 -0.35065955 0.13200556 -0.11604737 0.28396732 -0.12581176 0.13145913 0.029593011 0.1324927 0.23064725 -0.6315781 -0.3614149 0.17017293 0.3085022 -0.26234338 0.3555708 -0.06932739 -0.04596824 -0.34813792 0.22434044 0.25714883 0.043052424 -0.20971863 0.33403096 0.5353275 0.26412016 -0.14633818 -0.24184597 0.12530759 -0.06944211 0.087506205 0.036498114 0.27168217 0.051269073 -0.16935635 -0.00016583902 -0.31033838 0.09651352 0.38686034 0.18053049 -0.20906685 0.10121607 -0.14508922 -0.07613052 0.02666933 0.4001019 -0.018684668 0.04884194 -0.14575383 -0.08609304 0.12266138 0.41506907 0.24746636 0.46368083 0.0018922408 0.14559788 -0.22415948 -0.3783106 -0.3567911 0.0092909625
C0053882 -0.0040718704 0.057896852 0.06589199 -0.22821638 -0.12270841 -0.012353087 -0.35973907 -0.32576784 -0.0633131 -0.07832606 -0.18358856 0.1717467 0.018657586 -0.23377798 -0.44201997 -0.19552769 -0.08174278 -0.31502822 -0.18538238 -0.14452025 0.118217185 -0.13636994 -0.22942293 0.038862485 0.31515148 0.07444549 -0.07321762 0.073735 -0.044396292 0.2286284 0.39642465 0.1552629 -0.41838902 -0.37346318 0.009813429 0.07822431 0.5527659 -0.13335939 0.23380892 0.21125901 0.3679055 -0.1437999 -0.1515 -0.030829938 -0.021862809 -0.30865285 0.50374633 0.1694809 0.29540986 -0.20925415 -0.25658047 -0.16912957 0.048470803 -0.027259735 0.260355 0.4570482 -0.04850351 -0.2333464 -0.0059489054 0.0035227183 -0.31246093 -0.013635913 -0.26465073 0.04702497 0.06095549 0.24485414 0.05154592 -0.19966818 0.25456843 -0.16780272 0.22170708 0.37017593 0.53884906 0.057736352 -0.09742376 -0.5556768 -0.2319437 -0.072604075 0.4198371 0.0109010115 -0.20972407 0.30206308 0.28300884 0.20242493 -0.017138882 -0.2545215 0.26736376 -0.24327943 0.2742063 -0.15643352 -0.18559112 0.2380947 0.07288236 0.32426897 -0.3197348 -0.21960229 -0.1260939 0.33607492 -0.103303075 0.22454557
C0753645 -0.34661952 0.0026482414 -0.24690205 0.14089683 -0.25252655 0.2568746 0.38815364 0.044313658 0.029169835 -0.017725822 -0.12463813 0.0056542414 -0.15563191 -0.10090229 -0.11270477 0.03180965 0.11273479 -0.061540857 0.4434798 -0.19510609 -0.23690966 -0.079105884 -0.09615568 0.13218033 0.005741056 -0.057798576 0.41281134 -0.20371935 -0.34073794 -0.02998 0.09444317 0.058176327 0.3180541 -0.106575795 -0.46879032 0.075240605 0.51431644 -0.023521518 0.22109345 0.10764187 0.056481495 -0.2624006 0.11313004 0.1436533 0.27278987 0.024402516 0.26969916 0.41544637 0.2319898 0.15263364 -0.61718154 -0.11803333 0.19640727 -0.11601934 -0.23970944 0.2437265 -0.0765906 -0.27778307 -0.17776145 0.2225285 -0.03746939 0.1366472 -0.36322576 0.06320314 0.030006643 0.08753201 0.003630502 -0.15512674 0.044188425 0.20126367 -0.016630076 0.04003016 0.59913266 -0.27125257 -0.35848382 -0.21175873 -0.5672478 0.09849643 0.3557827 0.42336765 -0.1188275 0.2084203 0.2977264 0.1405537 0.25008875 -0.2135621 0.39761415 -0.3230827 0.1729957 -0.2855536 0.0066913557 -0.046998307 0.0970917 0.51226526 0.16549486 0.18930903 0.0046631116 -0.17413239 -0.12138925 0.061341025
C0055856 0.056244627 -0.046078715 0.22627518 0.027779978 -0.1707299 -0.011130293 0.20378965 0.16270843 0.19845605 -0.3060911 -0.10873078 0.21352072 -0.45810932 0.008813634 -0.068773836 0.09335607 -0.1433181 -0.072802626 0.119686276 0.11453321 0.07113749 -0.053020183 -0.30414635 -0.292442 0.23791012 -0.06346619 0.27426004 0.09580334 -0.08476513 0.413745 0.09099418 -0.012841275 -0.04540964 -0.17693943 -0.22582085 -0.059975985 0.24015997 -0.06736572 0.0756882 -0.007149352 -0.12666935 -0.6770636 0.13754523 0.18028969 0.38491967 -0.220698 0.019028971 -0.16433947 0.23512411 0.23398542 -0.5523764 -0.3007784 0.18639225 0.20669928 -0.0015807273 0.6678828 -0.08086008 -0.024598308 -0.20789145 0.15785739 0.08653108 0.107591584 -0.20457096 -0.07318073 0.46136457 0.10150265 -0.04883243 -0.18146077 -0.17193258 -0.070239276 0.11993244 0.34199435 0.09385172 0.12339703 -0.14133649 0.07260531 -0.45817542 -0.0214353 0.17874213 -0.004094805 -0.42832398 0.17074385 0.01996298 -0.21449602 -0.22356279 -0.2972285 -0.07531754 0.42176113 0.13357437 0.06394375 0.102754615 0.11786952 0.31143707 0.5087603 -0.11114651 -0.05380422 -0.11195941 -0.020145927 -0.36935347 -0.0973661
C0282386 -0.22474247 -0.20288673 -0.13454372 0.28387484 -0.025912888 -0.12292565 0.17938022 -0.016070252 0.08538079 -0.10556657 -0.03706025 -0.056556903 -0.10850844 -0.008684679 -0.07943937 0.14371203 -0.07382162 -0.021469332 0.18983468 -0.019166546 -0.17922017 -0.25156224 -0.08868517 8.665032e-05 -0.050037347 -0.09505373 0.5246387 -0.122328565 0.040286217 -0.01044574 0.16048796 -0.048786554 0.33750919 0.05865314 -0.44770905 0.09961411 0.43884772 -0.1711 0.19383939 -0.110856 0.13385026 -0.32138658 0.29730558 -0.056125566 0.19557911 0.18112285 0.051508434 0.07160297 0.1679378 -0.12248807 -0.2278579 -0.08925162 -0.25226143 -0.012631772 -0.16426387 0.13947599 -0.09868685 -0.07161727 0.0026340187 0.009303786 0.035637043 0.17535432 -0.10524093 0.17489444 -0.20014282 0.04537329 -0.0038704292 0.16697375 0.2192471 0.022981774 -0.1270994 0.18962081 0.4459322 0.1283359 -0.13212113 -0.296245 -0.3000538 0.37166753 0.034838866 0.2687555 -0.38868582 0.037426542 0.10644885 0.101710804 0.28283218 -0.13882342 0.342176 0.13169624 0.50718063 -0.14773081 -0.26958445 -0.2830518 -0.035331793 0.26839817 -0.0063261422 -0.022376822 -0.2725829 0.117124856 -0.14512886 0.022039942
C0536495 -0.3569169 -0.06749063 0.09321426 0.2138693 0.09805237 -0.0024774359 0.3699813 0.1677358 0.20032687 0.1579377 0.12946028 0.10066742 -0.3731989 -0.39091 0.007447077 0.05532867 -0.011026265 0.11616765 0.11170225 0.033118784 -0.18412338 -0.19713485 -0.07474846 -0.19871023 -0.09178761 0.094603114 0.3330399 -0.2015643 -0.25228497 -0.14802614 0.39377627 -0.20190623 0.28772697 -0.012134322 -0.6095336 0.23965786 0.63501894 0.03923419 0.35620892 0.12937789 -0.18536668 -0.3950685 0.17477365 0.13065663 0.48332906 0.0012954395 0.014734969 0.11240643 0.11178325 -0.14779948 -0.4144511 -0.28809205 0.3236076 0.053754408 -0.20285463 0.24706331 0.02107435 -0.14074154 0.00050497614 0.302379 0.21710606 0.22035001 -0.39419237 0.07657211 -0.14597891 0.2702512 -0.07440974 -0.03093722 0.10850468 0.015022619 0.022611285 -0.19383495 0.25243032 0.032533925 -0.45957083 -0.2925942 -0.49322706 0.097125076 0.30952084 0.6932885 -0.26633057 0.06322233 0.014827937 -0.15412271 0.2051123 -0.18227461 0.03915412 -0.093703516 0.08140856 -0.0071379743 -0.3194707 0.001200236 -0.019124992 0.48672724 -0.036725912 0.21258281 -0.006262177 -0.08591758 -0.15602751 -0.03974621
C0110038 0.04576902 -0.318852 -0.1757973 -0.021513514 -0.13927723 -0.11875605 -0.032173477 0.3528834 -0.1564369 0.009053318 -0.4907581 -0.1860389 -0.19588128 -0.061826415 0.2054525 0.025141165 -0.17655696 -0.22588375 0.35161224 0.043904174 0.1338439 -0.11010282 -0.052990057 0.14898413 0.22253741 -0.45383686 0.33888847 0.22966018 -0.38503996 -0.05320758 -0.119862944 0.030575106 0.14070722 -0.14729589 -0.17573062 -0.21246669 0.25395638 -0.01514752 0.19833472 -0.1139901 0.64128715 -0.5292391 0.1254584 0.20536071 0.4671744 -0.0741043 -0.23183207 0.18569645 0.30265486 0.03437372 -0.22868025 -0.6501051 0.6393248 -0.22833532 -0.32228538 0.79330546 0.13976572 -0.02320323 0.09676542 -0.53756607 -0.21032092 -0.13984552 -0.46948275 0.40258598 0.26193967 0.05115532 -0.1754155 -0.18507923 -0.20960121 -0.0002814572 0.24163935 -0.13844705 0.32819757 0.087368265 -0.06944985 -0.10427289 -0.26787496 -0.023709632 0.37572107 0.27142397 0.016010318 0.21804167 0.04663181 0.1714627 0.19628258 0.11300845 0.21303427 0.19046439 -0.077453546 -0.21279809 0.006142778 0.01734632 0.44345847 0.66781306 0.1336323 -0.3849692 -0.03805387 -0.5174326 -0.14498062 0.16298422
C0003232 0.11085916 0.05714698 0.02709397 0.1161186 -0.04663748 0.06256051 -0.027848084 0.022774456 0.040290277 -0.0086988965 -0.26587558 -0.119415775 -0.48389208 -0.06310666 -0.119658925 0.11082201 -0.060094796 -0.00034171055 0.09505571 0.035462175 -0.038741026 -0.03634675 0.043782007 -0.56785834 -0.08008195 -0.23555131 0.36852413 0.1315596 0.13846527 -0.14329192 0.14740047 -0.20996088 0.16580707 -0.19552515 -0.16535045 0.057672147 0.414951 -0.29758376 0.0019867704 0.058203794 0.16847353 -0.47789386 0.13477905 0.3012754 0.061383676 -0.04740962 -0.13058187 -0.24694045 0.5000266 0.23073755 -0.2834927 -0.32501397 0.16115329 -0.11798617 0.02771634 0.31765544 0.001571401 0.043096088 -0.20453958 -0.28851438 0.057567608 -0.19856904 -0.35655487 -0.122846596 0.22203715 -0.032026824 0.05093429 0.033103433 0.13437124 0.31350553 0.13252567 0.093433395 0.309923 -0.25636396 0.032313854 0.44385433 -0.49708787 0.10572148 0.029792141 0.15067972 -0.10739267 0.13527147 -0.077001385 0.14726415 -0.020260137 -0.2726439 0.022724558 0.1177774 0.03317363 0.051832385 0.06925558 0.2980674 0.1971964 0.060330402 0.07456358 -0.06527676 -0.26522857 0.11488065 -0.2328724 0.011794175
C0021311 0.2091455 0.1380378 -0.052985817 0.45472866 -0.21787558 0.30543107 0.027724074 -0.32660252 0.14633481 0.03979369 -0.33670348 0.092512965 0.12814845 -0.15934274 -0.37716872 -0.10442645 0.058432773 0.109643474 0.20942935 0.11231611 -0.101615354 -0.26280844 0.0024549745 -0.17592344 0.08748741 0.24239688 0.1364575 0.29039693 -0.23195139 0.30125973 0.23155649 -0.17387842 0.34305984 -0.29769424 -0.39605415 0.30352172 0.45515585 0.17568646 -0.079582855 0.29156286 -0.07143352 -0.09196902 -0.051589858 -0.019141193 0.05217811 0.1132745 0.01846903 -0.115495004 0.17635661 0.105643295 -0.18208961 -0.21859597 0.13390645 0.07969329 0.20787074 0.012764863 0.0150109315 -0.028506648 -0.28208643 -0.011717231 0.74514174 -0.25413236 -0.21751408 0.18239254 -5.799038e-07 0.103369005 0.06935013 -0.29481032 -0.08180907 -0.20153785 -0.25116998 -0.22192226 0.26885566 -0.04745189 -0.046180464 0.011299616 -0.40433565 0.17096096 0.08449536 0.20989932 -0.1551586 0.04292629 0.032686487 -0.01797381 -0.15762977 0.22349404 -0.022012379 -0.006327101 0.19311965 -0.28869906 -0.27593404 0.23004724 0.13703844 0.5853892 0.046468128 -0.2701801 -0.16465953 -0.23774488 -0.24439171 -0.24127384
C0008196 0.013545635 0.06264897 0.043892972 -0.08615766 -0.10737828 0.15998234 -0.21777067 -0.11220816 0.13198975 0.09937273 -0.23250464 0.16213596 -0.29820955 -0.25724456 -0.088106655 0.06779668 -0.3184589 0.054482732 -0.19217086 0.053199258 -0.21003047 -0.19700941 0.018633874 -0.15411583 0.3025619 -0.049860213 0.14529909 0.22561024 0.13818656 0.008306643 0.0345909 0.013342436 -0.083964296 -0.19819042 -0.2906369 -0.0076527256 0.27964908 -0.59499073 -0.051173497 0.3773751 -0.043991424 0.21482064 0.062320337 -0.37133038 -0.26399454 0.35041803 0.091416396 0.17299432 0.09732485 0.06808218 -0.14036247 0.019008195 0.17697512 -0.05803392 0.20834944 0.09045331 -0.005846619 0.06471597 0.051450938 -0.09720422 0.31380707 -0.12225263 -0.21729554 0.20361318 0.059581418 0.22826652 0.26791823 0.117289536 0.31648308 -0.139039 -0.04431426 0.3295867 0.32031447 -0.15398833 -0.11560938 -0.61538523 -0.18137397 0.04987378 -0.010471976 -0.17172636 -0.078071855 0.35553923 -0.0237507 0.023476778 0.09077149 -0.24610032 0.12442167 -0.076800644 0.32076642 -0.13944636 -0.020814778 0.20945153 0.15737192 0.19441068 0.1159605 -0.03623174 -0.0972461 0.25779918 -0.034648266 0.102805056
C0002645 -0.11980175 -0.25936592 0.24064302 0.28325662 0.09815 -0.04091695 0.09770077 -0.01624782 0.30560148 -0.35636735 -0.021458726 0.048914537 -0.3097743 0.011322055 0.16364512 0.027172424 -0.29924864 0.11440505 0.09001631 -0.13524476 0.10707074 -0.11350966 -0.050054774 -0.2678985 0.27319363 0.15775818 0.29749364 0.14756736 -0.40386924 0.13154979 -0.084213495 0.04410993 0.14837635 -0.17635266 -0.056974653 0.1103931 0.28112683 -0.2807021 0.009493411 0.13077028 0.12700655 -0.75812465 0.12255697 0.25595662 0.31000608 -0.2636021 -0.016168376 0.18189436 0.1948615 -0.13158344 -0.28553453 -0.7953471 0.22482961 -0.12024294 0.28060952 0.31271344 -0.03143687 -0.09419059 -0.033278875 0.35864595 0.17864916 0.15690845 -0.51937985 0.16483395 0.35872263 -0.06666509 0.0045780567 -0.1408409 0.028120728 0.056390606 0.20841923 0.08283964 0.060268715 0.13239747 -0.043483406 -0.015829066 -0.45821086 0.17367764 0.25667048 0.21969092 -0.20207557 0.116073355 -0.06277547 -0.00048322507 0.15295368 -0.17176765 0.08982819 0.31398028 -0.0163624 -0.05134524 0.038777072 0.12829345 0.33919865 0.5291912 0.022551632 -0.061908416 -0.2607037 -0.16139404 -0.117319204 0.20569824
C0007561 -0.07370477 0.16723228 -0.04251904 -0.0974428 -0.099284366 0.17268494 0.18316285 -0.016960518 0.25468916 0.019118821 -0.19274776 -0.07563171 -0.103149645 -0.034129463 -0.139432 0.05290871 -0.05506062 0.0441142 0.2079196 0.11562449 -0.015018948 -0.18523717 0.15077746 -0.17942744 0.020261193 -0.5009653 0.49535853 0.12756164 -0.14542903 0.3368291 0.009262363 0.14512187 0.16858138 -0.1932716 -0.09867562 -0.14504398 0.6065567 -0.19183438 0.22270717 -0.025602173 0.32816532 -0.09985189 -0.049346887 -0.069531076 0.035863116 -0.028605094 0.2663959 0.21871182 0.26394644 0.102719955 -0.44910192 -0.30527365 -0.33842874 -0.28195137 -0.13762704 0.10019451 -0.2894264 -0.17871955 -0.22577216 0.16222882 0.11479884 -0.023638196 -0.30061537 -0.15108357 -0.0491789 -0.13506125 0.17834765 -0.104760565 0.23499887 0.051583804 0.07496436 0.046444476 0.4685917 -0.05447984 -0.04582178 -0.094855025 -0.081257686 0.07025913 -0.06961337 0.14607629 0.06203067 0.43196175 0.21047251 0.04562144 -0.055297997 0.031086275 0.21147321 -0.032836147 0.22167397 0.122798406 -0.26269647 0.21199876 -0.14714776 0.41837677 -0.005819509 0.1881008 -0.23158081 0.14315774 0.004106272 0.109228276
C0016277 -0.112858966 -0.077793926 -0.035622403 0.113797896 -0.12658274 0.15193556 -0.025033172 -0.4598573 -0.030975912 -0.14509775 -0.0999698 -0.0040864674 -0.25515077 0.07074051 0.10106641 0.2312099 0.27714884 -0.17438991 0.20968077 -0.21226974 0.20554416 -0.102538414 -0.15301841 0.1259956 0.22920085 0.26490033 0.16927886 -0.13343047 -0.008665212 0.13980654 0.12736157 0.2433154 0.24284887 -0.19582616 -0.27542952 0.4688962 0.17654811 0.3201712 0.26504305 -0.096939474 -0.13441211 0.28226206 -0.304232 -0.21980779 0.05605501 0.42468524 -0.07557431 0.09566211 0.3257103 -0.11238769 -0.20472987 0.02829001 -0.17592247 0.2140486 0.16938527 -0.05733542 -0.029083112 -0.21977839 0.09433112 -0.21205153 0.047707267 -0.24401917 -0.3494346 0.0560344 0.033119634 0.071116924 -0.6147478 -0.018287487 -0.1875984 0.041114286 -0.32994148 0.14760925 0.31004888 0.52189875 0.162737 0.12060829 -0.16103576 0.029671663 -0.31709683 0.30271676 -0.21604195 -0.23735197 0.031067524 0.43307778 0.18549587 -0.1459077 0.22436078 0.10893769 -0.0024251116 -0.06567451 -0.41450924 0.24582386 -0.11828731 0.6010554 0.27669257 -0.041412782 -0.41189477 0.055145226 -0.30181798 0.069702476
C0001617 -0.20977345 -0.12941998 0.15251471 0.26380685 0.120631166 0.040872563 -0.026062619 -0.16956818 -0.11271567 -0.21806066 -0.14087187 -0.17062126 -0.18438005 0.12105839 -0.06056253 0.06385029 0.21259992 0.047329687 -0.16118975 0.21255733 -0.19370095 -0.24650328 0.12466301 0.050892174 0.31780523 -0.30966693 0.044358 0.013115889 0.1764066 -0.15509476 0.13236614 0.008683954 0.17296156 -0.2080522 -0.061917186 -0.09165039 -0.26095885 -0.07155295 0.04593266 0.122035675 0.26016727 -0.31413847 -0.1387332 0.09514439 -0.0814097 0.39342946 -0.07425953 -0.09136588 0.018781036 0.5558803 -0.15545198 -0.37824437 -0.049905274 0.1501004 -0.044199914 0.5455467 -0.26611993 -3.3262484e-05 -0.031281948 -0.028347544 -0.0062597785 -0.03997135 -0.019565532 0.0050152964 0.108153656 0.1419506 -0.046121564 -0.09576052 -0.21823949 -0.0059157843 0.20585206 0.26477465 0.04105375 -0.09152577 0.100371726 0.13817666 -0.40351778 -0.13113004 0.08813761 0.041086216 0.3002438 0.23722102 -0.27560794 0.053049915 0.23778003 -0.24932657 -0.17199335 -0.14633815 0.19607922 -0.2034703 0.21949632 0.23339543 0.31464213 0.42308867 -0.038041852 0.22088796 0.09857883 -0.09516709 -0.088414274 0.010246045
C1120106 -0.24008147 0.062255368 0.13683438 0.30108926 0.16232558 0.11586947 0.111136995 -0.03517887 0.33623627 0.21213594 -0.22084492 0.11997727 -0.0610816 -0.7700842 -0.111438796 -0.00015940215 -0.05693936 -0.36306563 0.10629407 0.08695046 -0.17105323 -0.42736962 -0.38258374 -0.16830246 -0.6552112 0.019086841 0.14636286 0.04005434 -0.056235455 -0.037799507 0.2318552 -0.34253818 -0.049539153 -0.31190106 -0.43288726 0.18902618 0.11855166 -0.22473758 -0.28706437 0.25520915 -0.018259434 0.10752083 -0.13756736 -0.12786952 0.26576185 0.16951631 0.2517102 -0.22264746 0.08837547 -0.18561466 0.18496081 -0.17884865 0.014223313 -0.016876765 -0.06391635 0.14960633 0.13598537 -0.16121922 -0.061454106 0.08799886 0.22452982 -0.23691875 -0.30957198 -0.09285492 0.09181689 0.10676453 -0.073426865 0.36346582 -0.029435655 0.24923173 -0.008307438 -0.091445625 0.025062082 -0.03548232 -0.20375292 -0.20571001 -0.5764568 -0.042257816 -0.092548974 0.2759939 0.6442908 0.05316301 -0.06379534 -0.44538552 -0.29460192 -0.1729942 -0.16170445 -0.030329088 0.43669719 0.1454646 -0.26235166 0.62340945 -0.07190156 0.08759805 0.08295629 -0.10716447 0.12869374 0.056773826 0.11421724 -0.031146618
C0041044 0.20570202 -0.027457735 -0.45088446 0.38898623 0.0073250327 0.08346881 -0.003459401 -0.27745086 0.23168308 0.017921356 -0.16230758 -0.107231 -0.18925722 -0.29472032 -0.19052573 0.232318 -0.31838912 0.09266213 -0.07112311 -0.09866625 -0.067002825 -0.3232433 -0.3515612 0.007962116 -0.21241987 0.036734812 0.2650352 0.028234007 -0.3788275 0.34269065 -0.041509837 0.06932308 0.11405856 -0.45266098 -0.07470417 0.29033533 0.4516814 -0.2275079 -0.08883381 0.08890524 0.15830475 -0.037874464 -0.21195127 0.12000789 0.14422472 -0.0952266 0.3071548 0.075469986 0.54446983 0.25415653 -0.23293816 -0.16951506 -0.16051814 -0.13887995 -0.04016872 0.12704186 0.22645344 -0.036480725 -0.32920024 0.067861795 0.4439708 0.013379714 -0.15017152 0.28810507 0.43563232 0.05709103 0.4465306 -0.248388 0.07614886 -0.043600798 0.16504802 0.04795579 0.5196547 0.17516154 0.11062285 0.3052668 -0.17232943 -0.3331019 0.48389295 0.5567726 -0.094928585 0.47219422 0.035312038 0.042134717 -0.03559335 0.26027822 0.1313931 -0.14697328 0.56317836 -0.081790924 0.15067342 0.3567119 0.026763137 0.0036884253 -0.065908544 -0.25856546 -0.29872838 0.18409571 -0.09081038 0.07306678
C0352155 0.3344682 -0.083136395 -0.16665426 0.2560251 -0.21379174 0.30906725 0.3926786 -0.7648439 0.60861665 -0.19718194 -0.26779568 -0.0008358817 0.00036914356 -0.2280792 -0.23277728 0.21880604 -0.17990541 0.2989722 0.4826628 -0.27871275 -0.18385954 -0.2639249 -0.25058335 -0.19458878 0.048914354 0.09447137 0.090063125 0.16987902 -0.57313484 -0.19751814 0.06998181 0.09669629 0.14912215 0.29405603 -0.29331943 0.08793165 0.5264109 0.13444433 -0.43944165 0.30419832 -0.17015944 0.040295765 0.17110555 -0.21244207 0.2343434 0.27908036 -0.17764062 0.26329368 -0.102833144 0.2020914 -0.14473553 -0.37784865 0.33888322 -0.23436107 0.3775788 0.3430274 -0.049565233 0.17303431 0.0047531696 0.67471075 0.580746 -0.3853501 -0.3011433 0.1595587 0.25013098 0.32658064 0.25187257 0.009489637 -0.15455969 -0.06706544 0.038205322 0.37111217 0.18168381 -0.26058263 -0.13332115 0.036712117 -0.4655975 -0.038926214 0.1968801 0.32733557 -0.20393175 0.1553532 -0.056021016 -0.09482143 -0.059251644 0.12651636 -0.30761594 -0.14391747 0.23227455 -0.4134434 -0.17858884 0.3717279 -0.1282578 0.22392505 0.071192585 -0.14181405 -0.5380936 0.017619716 -0.26281673 -0.041827474
C0040341 0.11420681 0.2656239 0.21597943 0.10786932 -0.18017814 0.13103837 0.39951336 0.18719488 0.05574508 0.16964722 -0.37359253 -0.11450018 -0.14241593 -0.09861433 -0.63009995 0.22198564 -0.031577285 -0.36771107 0.37238598 0.27363193 -0.06688465 -0.21406905 -0.022225719 0.07136618 0.45613164 -0.036841806 0.45863995 0.13174616 0.06527724 0.26830328 0.07368168 -0.18196173 0.3342954 -0.48383945 -0.26483476 0.14597665 0.41027275 -0.270525 0.024933891 -0.073031336 0.23912038 0.056063414 0.08019346 0.20140499 0.37302375 0.31805682 0.015576979 -0.21064024 0.431021 0.38337442 -0.3958352 -0.4589106 0.121838555 -0.13720225 -0.36629215 0.35551006 0.36978576 -0.2546071 -0.48233786 -0.17564103 0.17043045 -0.3567993 -0.43307784 0.22087793 0.5791931 -0.07456374 0.39395586 0.0144845415 0.034993146 0.30104464 0.23532498 -0.30678263 0.16196536 -0.04118668 0.10096909 0.007880485 -0.8967607 0.041328065 0.16103747 0.44339386 -0.028244797 0.07032408 -0.07223656 0.14569858 -0.20477358 0.29653946 0.20753275 0.30350798 0.10967481 -0.064904206 0.025405783 0.40926102 0.19829169 0.42934972 0.1689934 -0.14180613 -0.28561938 -0.52149457 0.054495085 0.23350002
C0013090 0.3296758 -0.2631904 -0.27285692 0.29281646 0.29618034 0.034126747 0.2718067 0.051449228 0.40049338 -0.15670969 -0.39450088 -0.18983293 -0.2958794 -0.12623547 -0.073005885 -0.12418028 -0.3509895 0.2377389 0.07803767 0.10378483 -0.016807422 -0.12880433 -0.078785434 -0.02962069 0.1701857 0.06501987 0.3798254 0.14759846 -0.11234853 0.114864975 0.082377814 0.11374235 0.19560693 0.08035952 -0.16490333 0.095190994 0.36990088 -0.07821641 -0.11309916 0.13324128 0.11595348 -0.20059627 0.045564793 -0.19948032 -0.042145345 0.02450451 -0.50021243 -0.19256634 0.5904721 0.21611308 -0.07896719 -0.087469436 -0.16911726 -0.11514727 -0.0010750842 0.29117033 0.11540268 0.13232249 -0.030732848 -0.052994456 0.3194626 -0.38067517 -0.063367136 -0.013169687 0.48555833 0.11728743 0.5616991 0.11375175 0.0018846255 0.29076806 -0.093332976 -0.1451452 0.20483921 0.050481576 0.21950676 0.07006971 -0.1673415 0.056213167 0.04723319 0.40079018 -0.16264215 0.11910042 0.0069080535 0.06698119 -0.0397685 -0.23013362 -0.41035336 0.08240863 0.037901305 -0.59562 0.018267501 0.089881636 0.16339247 0.2823746 -0.26316833 0.04775074 -0.21798243 -0.11682925 -0.08806363 -0.13035932
C0042839 0.44280383 -0.23344404 -0.21740684 0.16035505 -0.17634007 0.30370587 -0.10936897 0.026273478 0.43778217 -0.12400265 0.09634116 -0.28464654 0.05035842 -0.02015948 -0.028487917 0.14695555 0.19570857 0.048364684 -0.0012774427 0.050871328 0.24520087 -0.24425635 0.46574366 -0.031398807 0.21243702 0.4264535 0.2729122 -0.026147114 -0.14944181 -0.23413101 0.17094961 -0.038846992 0.30817536 -0.08870958 -0.6252957 0.051938344 0.3483482 -0.22574122 -0.16901784 0.28047043 0.103977636 -0.18005148 -0.11849143 -0.057608213 -0.2647548 0.11372866 0.11245905 0.055061333 0.3844856 0.20942804 -0.32318553 -0.09071402 0.47162217 0.1880584 0.047022726 0.2808681 -0.00020829048 0.16654499 -0.20275345 0.24393119 0.30890396 -0.43632635 -0.10697799 0.47585675 -0.27873275 -0.19169298 -0.22032095 -0.04889944 -0.5897379 -0.62421554 0.07881918 -0.10586372 0.36610883 -0.28794187 0.12762031 0.40627462 -0.4162416 -0.23578784 -0.14410362 0.5755356 -0.059050765 0.6432546 -0.15888982 -0.33611175 -0.15117821 0.19914904 -0.13392541 -0.27155367 -0.04908167 -0.25183028 -0.3064457 -0.08428203 -0.18535103 0.07957793 -0.095681086 -0.5979225 0.10532722 0.08227815 -0.606217 -0.18910593
C0053230 0.1248315 0.4510124 -0.19164969 0.12729575 0.017048197 0.2693335 0.041721407 -0.27137956 0.12481898 -0.23171973 -0.050343506 0.13531095 -0.18360674 0.02546674 -0.031206753 -0.21948355 -0.0057048793 0.35058236 -0.036773518 0.09177367 0.18498753 0.26616895 -0.29365852 0.11424345 0.008676355 0.3625535 -0.069607474 0.25492418 -0.11480634 -0.21702059 0.22919399 0.089368105 0.27860665 -0.5558014 0.29568878 0.37179998 0.03411985 0.251075 0.050560627 0.27246618 -0.35952967 -0.2514562 0.31431943 -0.37749422 0.29096228 0.30698994 -0.08177083 0.18386461 0.12709664 0.050516874 -0.05976254 0.08545822 -0.41243404 -0.18215124 -0.03187875 -0.015843475 -0.3294789 -0.3560529 0.05324967 -0.4717414 0.39920512 0.014786166 -0.1284892 0.21001877 0.46934396 0.18789054 -0.43510595 0.0052349865 0.1367461 -0.4669838 -0.0062949206 0.27099973 0.41419974 -0.24832724 0.06650456 -0.21060456 -0.120709054 0.2884234 -0.019100262 0.3670077 -0.3125541 -0.04081955 -0.37461025 -0.21288398 0.36151326 -0.3353342 -0.06509525 -0.03396242 0.085997775 0.22143212 -0.05742791 0.02853839 -0.6265554 0.27445135 0.31951115 -0.057326913 0.07926713 0.05201818 -0.14690724 -0.28525546
C0028741 0.05523502 0.23317431 0.026967637 0.5320876 -0.26187444 0.56737745 -0.36414364 -0.90283483 -0.039075408 0.13197331 -0.74125904 0.03348043 0.12117403 -0.60914516 -0.16413656 -0.051589794 -0.11747491 0.256371 -0.13075384 -0.04018905 0.5102907 0.19586894 -0.084884554 0.042676393 0.36411437 -0.24491003 0.15853627 0.08633877 -0.06771209 0.14116065 0.14632338 0.37743676 0.85554045 0.13287899 -0.49337646 0.45514527 0.43613502 0.43702468 0.31473646 -0.35482284 -0.6178951 -0.15057856 -0.07968569 -0.26189893 -0.05240312 0.25857985 -0.18821459 -0.48031673 0.28328183 0.5678791 -0.49478284 0.09116826 -0.1131816 0.43970403 -0.1148794 -0.050072122 -0.34047788 -0.37467584 -0.5088342 -0.43107536 0.15439552 -0.7267484 -0.43558118 0.25680017 0.14766127 0.041657824 -0.600596 -0.072528265 0.06268921 -0.020814866 -0.20866616 0.051616862 0.34917426 -0.062038705 0.16965479 0.32155243 -0.49047986 0.37083352 -0.123986356 0.30413306 0.22384025 -0.28992262 0.36312273 0.3086574 -0.19882861 0.56773764 0.15706815 0.42429912 0.116767116 -0.34236568 -0.82915705 0.38398594 0.2609728 0.7161483 0.62451375 0.114015654 -0.6088821 0.1555876 -0.3097197 -0.13268237
C0023660 0.23449062 0.019006155 -0.19211073 -0.097826384 0.15551834 -0.15255767 0.1528725 0.1208238 0.19685523 -0.08450241 0.013556304 -0.12047477 -0.39730164 -0.041837268 0.14560677 -0.059886586 0.50672555 0.11611004 -0.01494651 -0.051601026 -0.059745405 -0.03381585 -0.20601018 0.13881129 -0.09436958 -0.090319976 -0.1939238 0.3242711 -0.056200184 0.19315355 0.17556292 0.073396266 0.081310555 -0.21534385 -0.09484374 -0.07267289 0.10908215 0.12512162 0.1666576 0.017660981 0.26540855 -0.005163276 -0.06761762 0.159495 0.11878367 0.5298972 -0.033481553 0.39278308 0.06295097 0.48028862 0.021921821 -0.05616244 0.19599773 0.85174334 0.13698386 -0.00058568746 -0.578356 -0.18136951 -0.18923353 0.06937987 0.25663674 -0.16893414 -0.08564893 0.02314658 0.19394055 0.23094748 -0.046238445 0.16967015 -0.18402368 -0.08257185 -0.04481046 -0.023559393 0.30102327 0.051473137 0.050044954 0.15007414 0.036303073 0.3323492 0.014322333 0.49303955 0.009075787 0.16813242 -0.16811275 0.2848008 -0.3710045 -0.31800795 0.16596991 -0.31853402 0.106406584 -0.075345226 0.16079447 0.006556657 -0.017428875 -0.14883393 -0.07277991 0.0021405423 -0.074390136 -0.08141484 -0.12520744 0.031251207
C0029995 0.09946031 -0.12813473 -0.028871596 0.43068257 -0.28533188 0.19348648 -0.10526004 -0.35844797 0.11395478 0.2838777 -0.13645679 -0.07853549 0.10783551 -0.31843325 -0.50771374 0.017813787 0.13074097 -0.064938 0.4324837 0.20149808 -0.30771965 -0.050452735 0.23398337 -0.2819002 0.0688365 0.24677475 0.0162419 0.5151881 -0.56493974 -0.07454445 0.17037998 -0.21449362 0.35479838 -0.20583223 -0.30131936 0.075657725 0.62074727 0.21981077 0.064894 0.26077226 -0.27744663 -0.19687936 0.28497803 -0.30284578 0.17895596 -0.082051866 -0.010351759 -0.17324182 0.18922192 0.40109178 -0.31879964 -0.45303044 0.24783784 0.54389554 -0.3512447 0.32357082 0.17766137 0.051249143 0.009072212 0.21085106 0.6092753 -0.089777686 -0.3013311 0.5553173 0.48321977 0.50934225 -0.070826694 -0.4380081 -0.051598404 -0.26257527 -0.16121352 -0.23073108 0.32315236 0.43105012 -0.16007543 0.031880997 -0.3790371 0.051950466 -0.12720382 0.41237006 -0.05974535 0.19028054 -0.069971085 -0.10423984 -0.2071165 0.48924342 -0.23990913 -0.21338598 0.014870912 -0.22159988 -0.41826087 0.42622694 0.26021963 0.25752532 0.16001834 -0.23955135 -0.17097607 -0.3452292 -0.359964 -0.09843784
C0014806 -0.12540403 -0.23343807 0.14721438 0.08864026 0.003771402 -0.043276254 -0.19219412 -0.0009414082 0.064803995 -0.5826816 -0.103949405 -0.20131202 -0.18996225 -0.020792041 -0.3616976 -0.1231128 -0.16898473 0.41122666 0.49057686 0.3675619 0.16959724 0.40228432 -0.3044734 -0.38112727 0.17065471 -0.08592975 0.25573072 -0.11875188 0.07211994 0.16102222 0.36621866 -0.09821421 -0.034570076 -0.33086762 -0.3845747 0.07860446 0.2627885 0.1404282 -0.0040953564 -0.1274262 0.111608915 -0.45962 0.076594904 0.020152273 0.21014607 -0.07342676 -0.0948927 -0.2934745 0.3041639 0.38646033 -0.36791193 -0.29524362 0.23083611 0.2853407 -0.45661166 0.16484407 -0.14842467 -0.2500151 0.100058794 -0.09278306 0.160256 -0.07899083 -0.5295134 0.37701845 0.3532456 0.17159405 0.33288175 -0.18089193 -0.16958827 -0.14354528 -0.37350592 -0.20770623 0.30473393 0.04037167 -0.17466827 0.08809824 -0.40770042 -0.38007703 0.15646552 0.46299782 -0.01607091 0.34421635 -0.10273083 0.12301309 -0.29298234 -0.08705006 -0.07549571 0.1227287 0.10837955 -0.2607943 0.089532 -0.016126035 0.0867791 0.1588348 0.074370876 -0.05532956 -0.17136614 -0.19718619 -0.25580117 0.13906226
C0022322 -0.33549544 0.069620915 -0.3443669 0.1258504 -0.14649434 0.24144681 -0.22529064 -0.3036847 0.43593332 -0.2830002 -0.07876457 -0.048961557 -0.2932861 -0.45266268 0.39015657 0.00038695836 0.21540916 0.04928596 0.33856604 0.31294352 0.10425084 0.015865311 0.03444667 -0.30957988 -0.056268506 0.58527356 0.24882938 0.06688738 -0.58679605 0.2501495 0.30372787 -0.15465774 0.22689405 -0.1782777 -0.43843782 0.08013964 0.3053713 -0.056490425 -0.056922168 0.1659834 -0.027442817 -0.18559821 -0.26039395 0.016240027 -0.15241458 0.037913084 0.024149625 0.034203902 0.15393461 0.7396458 -0.40877533 -0.3517701 -0.04927298 0.70051366 0.4516735 0.006002194 0.13636671 0.06669087 -0.29038265 0.21902521 0.39000475 -0.3220239 -0.19903871 0.28063357 0.32916927 0.08409478 0.15525176 -0.051491093 -0.26962763 -0.52304256 -0.14501528 0.06654925 0.08277735 -0.10526402 -0.26670116 0.27586493 0.15277804 -0.30341223 -0.095515154 0.62334925 0.02762724 0.39193898 0.18557881 0.15949951 -0.1766323 0.107518375 -0.2658645 0.19844678 0.1795483 -0.036943544 -0.18375106 0.03033656 0.16793886 0.13489708 0.069079526 -0.18697818 -0.24560575 -0.32908684 -0.1620194 -0.099222206
C0026187 0.029211363 0.030835828 0.24987748 0.3048226 -0.037799716 0.038399413 0.097572684 -0.120459095 0.2477726 -0.03264296 -0.27596742 -0.0029820378 -0.19949757 -0.23040171 0.30396348 -0.118483424 -0.066948 0.101534285 0.21669258 -0.12972686 0.10612208 -0.010621593 0.0032245612 0.03228105 0.40978652 0.08299967 0.1694605 0.14811985 0.078301534 -0.28686917 0.32879698 -0.05931484 -0.09802348 -0.23079865 -0.11667689 0.069563806 0.3147456 -0.3710716 -0.10339086 -0.023579145 0.08752057 -0.12219044 0.1510139 -0.10819569 0.21839333 -0.04988336 -0.40926346 0.13178635 0.06399242 -0.018127114 -0.4041034 -0.44842267 -0.13653299 0.15968512 0.2820784 0.2325611 0.084568515 0.29218712 -0.2419327 0.13261318 -0.06806244 -0.24913993 0.14592667 0.24668327 0.20848699 0.2110698 -0.1595024 -0.14431638 -0.08264479 -0.20714085 -0.069999374 -0.37610307 0.19579148 -0.0025822807 0.096051395 0.21111706 0.14497113 0.08687132 -0.25552216 0.24838227 -0.23814048 -0.17477445 -0.06416012 -0.055462934 0.0018604149 -0.49198806 -0.120748326 -0.3393324 0.43871605 -0.4750862 -0.21682349 0.11970297 0.2265589 0.07808122 0.02214042 0.038204025 0.04380782 0.11732237 0.10140817 0.31585267
C0209368 0.05452703 0.052743256 0.23719487 -0.10694428 0.5831154 0.16373669 0.40215117 -0.07885545 0.57148784 0.11676343 0.10002392 -0.10719852 -0.051988576 -0.094199 0.06890574 0.06096451 -0.20284908 0.15784763 -0.03384648 0.13132109 0.034138408 -0.120905474 0.004988404 -0.056836892 0.16944411 -0.042391375 -0.09050598 0.004283724 0.10578831 -0.20235711 0.3287264 -0.2705711 0.2875149 -0.45188266 -0.0495124 -0.10919754 0.1138491 0.19058643 0.17886336 0.21908116 -0.09501166 0.21276702 -0.08107064 0.31853113 -0.03954271 0.067741446 -0.3900634 0.067295164 0.18330367 0.120943084 -0.39098617 0.12334138 0.04885448 0.06238744 0.074959315 0.28223598 -0.07722199 0.06137203 -0.04023186 0.24457943 0.29648903 -0.18232083 0.079155475 0.05183133 0.28051192 0.09053137 -0.11267273 0.08157043 -0.14815724 -0.17799549 0.10710991 0.123060204 0.24845266 0.13617368 -0.040901348 -0.22853163 0.07161016 -0.17488804 -0.13296057 0.17807402 0.14173605 -0.06579716 0.25866088 -0.1663116 0.19493917 -0.24615297 0.16545624 -0.17749137 0.41866702 -0.14160286 -0.21267202 -0.06896883 0.18865493 0.20155527 0.06302214 -0.15181239 0.12167589 0.045201603 -0.022199582 0.09235774
C0030840 -0.046480656 -0.18848881 0.16872926 0.35538062 -0.029191349 0.33019504 0.10020439 -0.17455433 0.26633048 0.049383577 0.090154946 0.30263457 -0.010538427 0.009197571 0.18888685 0.17481671 -0.39505446 0.11984529 0.24307123 0.094181165 -0.012426333 -0.026444897 0.18923518 0.021111893 0.10515216 -0.012558539 -0.13536662 0.17509091 0.03670171 0.23594332 0.31746867 0.023985552 0.10366477 -0.3427131 -0.18816555 -0.42983925 0.26588368 -0.32737306 0.08403517 0.08605212 -0.16447657 0.06949113 0.48400956 -0.048415497 0.2995403 0.20447038 -0.07575618 0.43545932 0.21497174 -0.015011632 -0.3569393 -0.13861729 0.1071689 -0.035217047 0.2558121 0.10408862 -0.17807762 0.08927965 -0.31218007 0.1094796 0.56449556 -0.2778408 0.09084155 -0.03479565 0.32566646 0.17070451 -0.11989096 -0.047869544 0.05812668 -0.29237083 0.07220335 0.029847758 0.25013766 -0.06723638 -0.121051066 -0.42589292 -0.27018934 -0.08599353 -0.2517828 -0.23892649 -0.056133922 -0.17663738 0.3107734 0.068388425 0.09398434 -0.4237737 0.37608272 -0.12261232 0.4268553 -0.21687974 -0.110415734 0.12049102 0.51348495 0.1647687 0.29350924 -0.27606678 0.054711692 0.14414902 0.024971064 0.2625205
C0304317 0.30421486 0.2435738 -0.021615086 0.69171846 -0.14844652 0.42359102 -0.08702177 -0.5782993 0.26167843 0.019294523 -0.080896296 -0.014163312 0.382222 -0.13594334 -0.3549393 0.08643926 0.09830349 -0.06103143 0.25115663 0.15900692 -0.090668835 -0.023754537 0.104657136 -0.3668365 0.15943713 0.3600569 0.025891248 0.34487486 -0.69635916 0.19124511 0.13709496 -0.100022 0.39181742 -0.36874536 -0.50848067 0.41188818 0.64967513 0.17207406 -0.37556094 0.43003175 -0.37406203 -0.062220667 -0.14944139 -0.08467293 -0.1726084 0.2148634 -0.10567506 0.102353655 -0.054192036 0.37269545 -0.36783993 0.0068725385 0.009408983 0.473273 0.16278471 0.12590215 -0.22842929 -0.028677054 -0.31846738 0.010294342 0.73662573 -0.3227996 -0.46734342 0.42929357 0.21633759 0.2947397 0.086934425 -0.49860498 -0.52447885 -0.45290172 -0.344036 -0.2830754 0.41833514 0.17410636 -0.059232946 0.06168931 -0.6306921 0.29884383 0.07164103 0.469809 -0.089931086 0.09056038 0.103535265 0.09899912 -0.3678831 0.7273374 -0.16250591 -0.05686153 0.24383634 -0.122907184 -0.541435 0.32786795 -0.06306964 0.5305889 -0.012868975 -0.2793165 -0.26934084 -0.11767385 -0.21577556 -0.4106591
C0028978 0.1989754 -0.24314293 -0.046191975 -0.0013838632 -0.069547914 -0.025793463 0.095291145 0.260285 -0.14697821 -0.08153012 0.05186325 0.015527192 -0.45517218 -0.32364115 0.1671279 0.21541283 0.22401068 -0.016136596 0.16332094 0.0012728382 -0.055496722 -0.26498872 -0.34795836 -0.06298804 0.149321 0.015655078 -0.001723485 0.07888479 -0.3097377 0.30763885 0.22525959 -0.010365944 -0.025417874 -0.047918502 -0.18843251 -0.21344137 -0.12018822 0.019905359 -0.27788252 0.34568945 -0.22030312 -0.2940388 0.14165246 0.14961511 0.035006948 -0.20769629 -0.010643562 -0.18130049 0.5896632 -0.11181106 0.22836007 -0.08824359 -0.05057552 -0.00799908 0.15065226 0.46529496 -0.16093174 0.051556524 -0.036426987 0.2533811 -0.23024136 -0.41412464 0.019227404 0.20383705 0.23560834 0.14225467 -0.24710898 0.2701997 -0.12594666 -0.255972 -0.2894618 0.30986574 0.11211252 0.3829352 -0.12724133 -0.10996913 -0.028952781 0.43756652 0.24632388 0.08057617 0.06537243 0.12873857 0.044705294 0.08712593 -0.15320924 0.006073857 0.065756105 0.20986904 0.037782386 -0.36810863 -0.16347603 -0.26007202 0.1183793 0.5087859 -0.024721982 -0.0220936 0.0032477265 0.16888034 -0.14069717 0.013861435
C0123091 0.029555243 0.14918706 0.20871668 0.12722117 -0.09127284 0.4006152 0.07124226 -0.10773956 0.45409048 0.20245185 0.06797216 0.35749233 0.21126983 -0.057366997 0.060285036 -0.048151158 0.18987939 0.20272984 0.20811775 0.091299176 -0.033682857 0.027607482 -0.405333 0.16876167 -0.13864402 -0.0809106 -0.12993258 -0.0031096598 -0.14303337 -0.051518362 0.03478022 -0.4020203 0.09425376 0.34197924 -0.10624166 0.2259826 -0.08317344 -0.05153062 0.2273621 0.28388998 0.2252649 -0.21018498 -0.056749802 -0.22714627 -0.20953423 -0.038586773 -0.023880098 0.0009126993 0.27668557 0.085760795 0.005119786 -0.21306595 0.25416002 0.052620422 0.051941834 0.18766521 -0.21356104 0.14674759 -0.091766424 -0.1361749 -0.04729527 -0.40641803 -0.21574676 0.25531998 -0.009187243 0.13905779 0.028802352 0.22842547 -0.12477568 0.116672404 0.06905597 0.1700498 -0.020472104 -0.042971116 0.33172336 0.07638099 0.12908696 -0.09074662 -0.29659605 0.17133051 -0.116290994 0.11763627 0.062436495 -0.2254945 -0.014386892 0.05501324 0.17023692 -0.115678996 0.45766246 0.24652839 0.020204248 0.16358203 -0.017094368 0.14310008 -0.073857054 0.3480604 -0.27601922 -0.12295776 -0.22685589 0.23440732
C0017710 0.37761462 -0.2721785 -0.10793357 0.09480689 0.11044996 -0.1528709 0.09034749 -0.14807138 0.1010372 -0.15577373 -0.11882144 -0.16814423 -0.3245597 0.15864831 -0.16836104 0.16295467 0.16127759 -0.17673324 -0.07991266 0.44165385 0.16002877 -0.1917677 0.03613281 -0.040531687 0.033310264 -0.14944181 -0.009614295 0.18811433 0.008026085 -0.1266752 0.26517686 -0.15135047 0.19280638 -0.07198613 -0.18619499 -0.1409231 -0.022580156 -0.027199538 0.18047905 -0.053555623 -0.32531863 0.1810312 -0.38716626 -0.056914188 -0.045132358 0.55682504 -0.09921129 -0.064289756 0.28292114 0.2801979 -0.16222066 -0.33479634 0.030261567 0.27579865 -0.098327845 0.29862088 -0.1610484 0.038535062 0.04148776 0.2318251 0.061870653 -0.27938452 0.046661012 0.08124767 0.24060719 0.19251265 -0.052346565 0.09938589 0.12699966 0.014797417 0.21753447 -0.024953293 0.16693288 -0.041159526 -0.19481708 0.37890926 -0.03905792 0.043985296 0.07307376 0.20474267 -0.018011967 0.22319023 -0.04005167 0.04365795 0.17357805 -0.15508705 -0.5727391 0.18039677 0.25538275 -0.00016186558 0.2012354 0.070323035 -0.03698651 0.35175678 -0.0018305097 0.2657891 0.07091442 -0.0064851544 -0.47936985 0.19092552
C1260298 -0.2460039 0.22050768 -0.18736799 0.3205788 -0.25250965 0.093521625 0.45388746 -0.31601173 0.08097813 -0.094183736 -0.20092152 -0.0044188844 -0.19102016 -0.13021743 -0.23042105 -0.08944337 -0.59796894 -0.16171633 -0.028617615 -0.17908083 -0.4420417 -0.13306059 -0.23481354 -0.34696746 0.040299576 0.18583235 0.08517328 0.13911252 -0.31833547 -0.09085152 0.14946415 -0.25791883 0.04638322 -0.5083932 -0.16434553 0.06549342 0.35312998 -0.6841358 0.07968453 0.08253672 -0.14233264 -0.26570845 0.17931433 0.14868185 0.46966037 0.10322361 -0.15873408 -0.459579 0.19914998 -0.15533686 0.15989959 -0.5525382 -0.3990089 -0.29985002 0.25251162 -0.099900365 -0.029521583 0.095979296 0.02077791 -0.01380433 0.4066495 -0.3006044 -0.34735575 0.35669896 0.24521859 0.5058805 0.17722417 -0.2113777 0.1919952 -0.10841533 -0.0020214089 -0.2715483 0.46036527 -0.20467485 0.20941027 0.18481855 -0.47594452 0.0032676714 -0.25665498 0.39604336 -0.032449562 0.10196665 -0.18364549 0.095672205 0.037359975 -0.19711933 0.1530407 -0.22791691 0.3267746 0.023949506 -0.41839844 0.547412 0.13998449 0.27832037 0.15532821 -0.21671571 -0.39019945 0.13722761 0.115787014 0.27285355
C0250480 0.084252976 0.29510164 0.05257022 -0.20000729 0.47715923 -0.08374621 0.37191302 -0.12104443 0.08518815 0.13267761 -0.15612438 -0.38420144 -0.05444608 -0.30605888 -0.33047614 -0.16640547 -0.35658816 -0.11267082 0.040653475 0.104200274 -0.1757263 -0.22791177 -0.18089125 -0.23584631 -0.17536551 0.13821977 0.19788772 -0.034877054 -0.023305465 -0.07496751 0.0047704843 -0.06663072 0.08557924 -0.394585 -0.07956804 0.007151651 0.16360596 0.003496833 0.12347083 0.040935557 0.12924166 -0.013707198 -0.15652727 0.25472164 0.10919058 -0.04700769 -0.094711035 -0.27334455 0.38188294 0.051126007 -0.038033415 -0.22845514 0.1691195 -0.06197531 0.100323915 0.2434245 0.2228419 -0.25641727 -0.36603782 0.1502417 0.47312662 -0.08067134 -0.20127144 0.40029782 0.22239946 0.34776148 0.19979025 -0.16278225 0.08444168 0.08362368 -0.1110091 -0.015245892 0.15745857 0.18345283 0.047291152 -0.23323843 -0.555459 -0.011238161 -0.30261543 0.14880843 0.25387144 0.1601873 0.04777281 -0.10626485 0.32446432 0.039070696 0.09326751 -0.035923563 0.7372933 -0.010491941 -0.2037989 0.12992157 0.36325556 0.1539816 0.023305878 -0.37484348 -0.03420507 0.2739599 0.01914614 0.19659805
C0028365 -0.2652114 -0.016254874 0.34731197 -0.040834885 -0.16159864 0.12596446 0.02175875 0.00091225165 -0.12077862 0.21938914 -0.15302502 0.1314244 -0.3191951 -0.21982092 -0.3707517 0.12960584 0.13895763 -0.12088702 0.05598215 -0.07812047 0.035232704 -0.36132586 0.033074163 0.034407545 0.20121099 0.17514421 0.26311606 0.04201016 -0.040364295 0.08779132 0.28358173 0.18130201 0.32992116 -0.32265568 -0.2392843 0.22567438 0.524284 0.028267672 0.1781493 0.39727697 0.039166175 -0.4197588 0.0010922621 0.029094813 0.105183885 -0.07774323 0.4510816 0.43475077 -0.20253178 0.09097904 -0.2726872 -0.02733727 0.19970934 0.08949576 0.085517235 0.047953058 -0.040771965 -0.14759947 0.27824304 0.2704873 0.08999127 0.18796448 -0.16551685 0.101546764 -0.16746244 0.13185851 0.2900058 0.04099708 0.26006505 0.008227249 0.025813704 0.013939168 0.6016251 -0.15810633 0.028968977 -0.70466626 -0.18738613 0.15085344 -0.00037907713 0.36906436 -0.110742 0.110137425 0.14542527 0.29354012 0.27231935 -0.012634513 -0.026785357 -0.34945318 0.18701698 -0.14020993 -0.19339933 -0.030232154 -0.058593865 0.3776219 -0.0665862 -0.066332065 -0.04202681 0.22016175 -0.029031003 0.20976849
C0052432 0.5260262 -0.42274597 -0.28487378 0.42814922 -0.14216064 0.1920199 -0.12952839 -0.4044731 -0.22858217 -0.285878 -0.105471104 -0.06010063 -0.06021545 -0.2424297 0.06151505 0.35149035 -0.7281265 -0.03927195 0.26992586 0.032880705 0.033118714 -0.041535012 -0.24525739 0.048292797 -0.24026464 0.28081894 0.3107291 0.33411577 -0.29271632 0.4239392 0.016475596 -0.055308674 0.2835159 -0.3820568 -0.47094527 0.33164784 -0.11992181 0.1697133 -0.26825246 0.21671951 0.75530905 0.27114654 -0.094421074 0.22520879 -0.093805164 0.110406905 0.05898488 0.07057193 0.20713305 -0.060148895 -0.41709733 0.016761588 -0.10896052 0.12537059 -0.2717848 0.17121948 0.11302389 0.23473282 -0.3591325 -0.07041799 0.17250057 -0.03598881 -0.09777379 0.051331054 0.290205 0.015386397 0.03464113 0.62731737 -0.055619333 -0.055482365 -0.05924652 -0.008779462 0.08145879 -0.04083224 -0.10234534 -0.05678068 -0.064909786 0.075123586 -0.31974322 0.2900784 0.45998496 0.042141687 -0.48579636 -0.4909344 -0.19205856 -0.0059396685 -0.2713091 -0.08386646 0.12534602 -0.00037171377 -0.17248584 0.079393566 -0.016217763 0.046547342 -0.13772203 -0.05354759 0.035285745 -0.18436204 -0.32569966 -0.13373578
C0700599 0.1535854 -0.26327097 -0.25217798 0.27170867 -0.041634772 0.33316404 -0.2543437 -0.32688162 0.083537124 -0.29496318 0.15124176 0.21442154 -0.06471214 -0.013480224 0.14433654 0.110997654 -0.011256711 0.17835188 0.29267702 0.027913485 0.07007198 -0.27461308 0.16656356 -0.04321643 -0.11489162 0.34392515 0.13769524 0.1778352 -0.4211478 0.085399985 0.08177333 0.026174463 0.38205874 -0.20220143 -0.068117164 0.25210702 0.26542446 0.13013104 -0.3968268 0.24207678 0.0166904 0.08767285 -0.09912607 -0.02957313 -0.1304595 0.25373352 -0.026522191 -0.12337397 0.5680019 0.50470173 -0.4638116 0.06757939 0.07154961 0.2902708 -0.23146974 0.35233456 0.21943001 0.3315388 -0.17831363 -0.20250887 0.76365334 -0.2995246 -0.1695717 0.21299043 0.21794711 0.1816873 -0.006803995 0.05742366 -0.13561763 -0.46904036 -0.08974238 0.09405558 0.3073933 -0.3929348 0.1932934 -0.09225131 0.06528325 -0.14753674 0.1260834 0.66956884 -0.015455445 -0.17818831 0.01664758 -0.0052357623 -0.23920797 0.18942112 -0.30200878 0.07014695 0.09090085 -0.24531105 -0.33324268 0.2498458 0.027688887 0.24602167 -0.47371256 -0.21395989 -0.36579114 -0.04204033 -0.28198898 -0.26319075
C0055003 -0.023016624 0.14269574 0.03987612 0.010949204 -0.3351487 0.075491466 0.4806432 -0.099957675 0.004341687 -0.06624277 -0.23582454 -0.28029183 -0.30016422 -0.22105221 -0.5058581 -0.17135873 -0.16512462 -0.051644955 0.24973682 -0.12721847 -0.30364385 -0.20456839 -0.15342522 0.009959317 -0.5020672 0.06877359 0.40870148 0.23240314 0.22140795 0.39736065 -0.36362985 -0.06709764 0.5181418 -0.0829155 0.17020763 -0.18067601 0.26390857 -0.6711124 0.010228644 0.35810608 0.095951445 -0.122147255 0.111619785 0.4801512 0.021808056 0.046256892 0.24035466 0.11843614 0.326509 0.15326399 -0.08775408 -0.40344772 -0.19632746 -0.23703705 0.06743757 -0.00970389 0.11228804 -0.24852401 -0.21673805 -0.12123803 0.12868607 -0.2585381 -0.38950604 0.23187514 0.2554252 0.25839338 0.42733273 -0.005435958 -0.025239518 0.12311941 0.19137919 -0.27120715 0.56748956 -0.09283039 0.40711817 0.11461101 -0.6948434 0.039634615 0.26862994 0.21352063 -0.0073551866 0.32501674 0.15168741 0.028978134 -0.28555065 0.32311255 -0.046977665 -0.26636907 0.35421732 -0.07229834 -0.19042765 0.44570187 0.34121647 0.4877246 0.49899784 -0.100281596 -0.4123157 0.015887987 -0.12216955 0.52274024
C0304320 0.3112639 0.3393137 -0.112422176 0.16688111 -0.2647972 0.051131964 0.22144195 -0.11796604 0.11214257 -0.36600688 -0.22786959 -0.22809723 -0.09401263 -0.06511765 -0.5040781 0.07892034 -0.092183515 0.266735 0.4866279 -0.065596744 -0.48221436 -0.28275436 -0.30722335 -0.44552568 -0.19585581 0.17565018 0.013525461 0.28157112 0.054057598 0.19500306 -0.17074293 0.26409197 0.5977254 -0.42255703 -0.093469635 0.080383375 0.7242323 -0.25266495 0.10981547 0.19566128 -0.3135886 -0.06387896 0.20803635 0.0746877 -0.277531 0.03965285 0.39198992 0.5017982 0.09581227 0.55820966 -0.43171853 -0.09506747 -0.0042370213 -0.19085133 -0.034141604 0.11560246 0.1519213 0.0009420466 -0.3139488 0.15752384 0.5818115 -0.18402497 -0.293171 0.29639935 0.21532273 0.30207142 0.61066496 -0.21888764 -0.09995082 0.32365033 -0.24630925 -0.22828759 0.7145791 -0.09029995 0.10405235 0.4387924 -0.6895732 0.09677941 0.10384919 0.19555071 -0.087958574 0.5472842 0.11264298 -0.07560784 0.09471598 0.22302671 -0.33578244 -0.26660928 0.12386287 -0.024017746 -0.13627498 0.26698998 0.4138705 0.27530682 0.22339639 0.07996256 -0.20850757 -0.0031172712 -0.06680589 0.12845866
C0008269 0.42919084 -0.35202196 -0.38243395 0.67483646 0.0964622 0.47404665 0.013920436 -0.08627363 -0.09305449 -0.17836188 0.027550152 0.16746917 -0.16214888 -0.035186842 0.3065255 0.2104885 -0.04398746 0.16828685 0.03404559 -0.050836448 0.13204332 -0.15607299 -0.049818978 -0.1131292 -0.1058287 0.39676267 0.13784079 0.020091362 -0.5266251 0.29548958 -0.13735132 0.008926038 0.44946873 -0.18265024 -0.13058515 0.58758116 0.15259978 -0.04914349 -0.25838318 0.3769025 0.095526196 0.2348826 -0.16189708 -0.055455003 0.0032998607 0.08902802 -0.15802552 0.068417974 0.67801446 0.4590405 -0.35905793 -0.06763572 -0.152874 0.4382885 0.107158646 0.33746332 0.112976015 0.2524765 -0.30567068 -0.3403222 0.3665271 -0.259228 0.092396 0.24001233 0.4724122 0.1011482 0.2958748 -0.08224001 0.016067034 -0.07020797 0.026718784 0.18158865 0.13543148 -0.19440107 0.10084832 0.012862721 0.07381694 -0.11417779 -0.09368809 0.30269644 -0.072587654 0.09144896 -0.0069316537 0.026719788 -0.1518922 -0.16598469 -0.55165607 -0.047609165 0.1618887 -0.32310897 -0.287449 0.052980106 -0.0893413 0.46622294 -0.28546694 -0.047543794 -0.30327666 -0.28236338 -0.10809879 -0.3124159
C0025872 0.20196678 0.14188078 -0.06624289 0.16212134 -0.16307645 0.08678485 0.19071832 0.4660475 0.39191496 0.011113204 0.06789447 0.14986822 -0.3284119 -0.3551616 -0.13093771 -0.11693766 0.13217974 -0.2725124 0.111089945 0.09926941 0.045053627 -0.65586805 -0.17853849 -0.35190898 -0.17479573 -0.037334394 0.35725433 0.033355065 -0.20010069 -0.0049508726 -0.0070751114 0.14292291 -0.13365972 0.069709145 -0.41102973 0.0031580841 0.5324855 -0.39119324 -0.022659034 0.0791313 -0.12384894 -0.2568254 0.13605468 -0.0036396119 0.20667346 0.163853 -0.20912293 -0.07371529 0.46975675 -0.2279944 -0.04999221 -0.37915322 0.29755613 -0.2206541 -0.29604965 0.2744538 0.03896146 -0.23724735 -0.19954005 0.19270337 0.3216416 -0.36316547 0.008554395 0.1974596 0.13954867 0.21505745 -0.07121179 -0.15303124 -0.33518866 -0.00087367545 0.01863455 0.019320095 0.027454328 0.19811666 0.047152244 0.120300405 -0.51457477 0.19577031 0.05501206 0.5220538 -0.39911285 0.17291845 -0.042512476 -0.27182454 -0.2084173 -0.06438302 0.05087921 -0.20390116 0.046923656 -0.034847356 -0.14061113 0.22745217 -0.012096901 0.5932849 -0.5006337 -0.22998174 0.22936583 -0.18863502 -0.12706009 -0.08416096
C0032952 -0.03279798 -0.17856885 0.13450764 0.2964153 -0.040571228 0.2680676 -0.14469863 0.09934632 0.17866865 -0.026254853 -0.17323597 -0.3146817 -0.12773305 -0.028266974 -0.03460144 0.05221063 -0.041327514 -0.0013220238 -0.12485342 -0.02262302 0.03978664 -0.15929173 -0.1695048 0.062125146 0.15703958 -0.03458803 0.22843869 0.11192059 -0.08191607 -0.24864316 0.2951048 -0.38627097 -0.11221487 -0.20546888 0.1307239 -0.17215353 0.21574856 -0.011611402 -0.010621902 -0.008255364 0.22431129 0.058508053 0.3391272 -0.21673824 -0.31165248 0.4590749 -0.0514168 -0.08614492 0.00031899032 0.094864234 -0.2555357 -0.20976284 0.012775758 0.38344535 -0.15302378 0.27633014 -0.39431864 0.1750542 -0.0016412595 0.028096717 0.20125079 -0.20742661 0.09520493 0.19194257 0.24665777 -0.006380822 -0.14148454 -0.08104366 0.032943 0.113752626 0.07276229 0.13289486 -0.063525125 0.16128069 0.27131104 -0.06905514 -0.26884913 -0.19154616 0.25970608 0.122364506 0.027339796 0.4766094 -0.20194265 -0.066755265 0.33147994 0.058069643 -0.47388333 0.13069104 -0.080775596 -0.0024447867 0.14479282 -0.08749347 -0.12623037 0.5640454 0.024300657 0.0648558 -0.018389804 0.111724526 0.18259107 0.24495041
C0282215 0.39867768 0.055546943 0.07550634 0.3620438 0.018143391 -0.075768046 0.47550598 -0.4834299 0.23444371 -0.0059418865 -0.0132010495 -0.18209644 -0.16564965 -0.22710048 -0.16652097 -0.016362188 -0.04899738 0.1804254 0.33635253 -0.16852747 -0.43930957 -0.33960915 -0.33538097 -0.48611417 -0.21362244 0.21156986 -0.1269624 0.13056245 -0.5149845 0.1276523 0.2510181 0.026370956 -0.03858072 -0.37764725 -0.1952688 0.22467574 0.8840318 -0.34752163 -0.1800674 0.111355305 -0.28824967 0.019022824 0.11785817 -0.041466627 0.12691091 0.18862209 0.032795846 -0.14207847 0.029337388 -0.03075876 -0.2290287 -0.37696368 0.13296652 -0.24161063 0.2059754 0.0676227 0.14863136 -0.26979956 -0.4542431 0.014444156 0.86747277 -0.31679493 -0.5207226 0.5634878 -0.12121619 0.7132912 0.38451335 -0.37626207 -0.26012018 -0.04307367 -0.14611898 -0.22889978 0.10456603 0.060075924 0.1370661 0.15951696 -0.87933564 -0.20712107 0.3171568 0.1792875 0.17604756 0.38534102 -0.25788775 -0.06353084 -0.060754165 0.20772135 -0.11494594 -0.3026367 0.33523804 0.03591334 -0.5757209 0.52629256 0.112695694 0.28163335 0.10353057 -0.1546732 -0.22948831 0.15836646 -0.13825135 -0.113189004
C0085149 -0.244616 -0.15687974 0.38905352 0.009689557 -0.03767239 0.4353548 -0.102550946 -0.122014314 0.526239 -0.35371053 -0.15959285 0.21979871 -0.17149629 0.13690701 -0.0111583825 -0.18697457 -0.10031119 -0.05330768 0.14659382 0.14584775 0.09555287 -0.25612473 0.09710587 -0.45357126 -0.2996182 0.020896297 -0.044533268 -0.2687642 -0.30896977 0.05966276 0.3463255 0.037139706 0.025117425 0.21401303 -0.5958866 -0.20067307 -0.08950295 0.2457545 0.22517475 0.14033526 -0.15861243 -0.0081635 -0.123741835 0.022827419 -0.19930752 0.12733349 -0.16804056 -0.15058893 0.29420835 0.312435 -0.20531517 -0.38139644 0.00048800884 0.16856532 -0.29645914 0.3772275 -0.12117202 -0.039768957 0.14480914 0.43768838 0.133102 -0.38921785 -0.16517349 0.085010126 0.49829167 0.18944767 -0.014474559 -0.3102963 -0.17206453 -0.3167396 0.11714153 0.19310473 -0.089675985 0.117581494 0.095068246 -0.041837357 0.07377324 -0.28515694 -0.17740917 0.42338404 0.31106645 0.18895064 -0.14513668 -0.015445698 -0.08430889 -0.006027904 -0.4963979 0.07425199 0.11860615 0.27741203 -0.13053784 -0.06613891 0.012487899 0.27441463 -0.20117661 -0.26102495 -0.1157173 0.17761526 -0.13533188 -0.07077424
C0393080 -0.031920508 0.22978391 -0.13107407 -0.026564695 -0.040409684 0.3267169 0.035202928 -0.33610335 0.12384116 0.019964369 -0.25680014 -0.017768899 -0.088489525 -0.04068678 0.008023618 -0.18477824 -0.061517086 -0.2599888 0.15640858 -0.021459678 0.22264238 0.22642379 -0.29823184 0.31066355 0.07930528 0.3830729 0.10631011 -0.15058815 -0.10312014 -0.16223851 0.4043798 0.10278668 0.33795267 -0.27385905 -0.11641923 0.56680214 0.13296488 0.23079996 0.17271885 -0.07499972 -0.16566364 -0.31951198 0.016223451 -0.2863716 0.23483676 0.281978 -0.113069765 0.06793233 0.20702773 -0.103284016 0.11684747 0.15912846 -0.3800667 -0.036139563 0.21806058 0.009841574 -0.057618547 -0.037129655 0.10701953 -0.034661967 0.087406196 -0.26824793 -0.29336202 -0.016851274 0.13562214 0.25169137 -0.50310093 -0.2307379 -0.15062091 -0.104307085 -0.17062408 0.20968784 0.2895633 0.009954979 0.12804633 -0.008186125 -0.24815574 0.30535987 -0.18612093 0.31761408 -0.30374095 -0.03899575 -0.017571006 0.08699543 0.41587436 -0.060556512 0.2687573 0.08215895 0.16295515 -0.046132296 -0.3863005 0.13279495 -0.13976294 0.37719887 0.3415201 -0.035963036 -0.24694581 0.12699364 -0.14013822 0.0879405
C0936150 0.53708065 -0.30799586 -0.38241234 0.544412 -0.028048936 0.2118511 -0.22586356 -0.35264722 -0.01468953 -0.21954413 0.30069393 0.1846384 -0.007184516 -0.45962647 -0.0032055005 0.14695908 -0.08646148 0.22952859 0.0753215 -0.08577368 0.26429188 -0.15083693 0.008909346 -0.005183134 0.17287232 0.43402722 0.19149452 0.076520555 -0.5120605 0.41737345 0.025533646 0.16404773 0.59203166 0.05746409 -0.10831454 0.49064457 0.40704286 -0.15425012 -0.48865455 0.24362576 0.31166413 0.29927862 -0.14934674 -0.0766931 -0.15397345 0.37332353 -0.10063533 0.0008734941 0.5114158 0.5590555 -0.24599585 -0.090880595 0.0044623786 -0.038203847 -0.13191262 0.6556631 0.22153395 0.25479653 -0.24093646 -0.47297964 0.75643384 -0.36943522 -0.24266979 0.20778766 0.33286583 0.16158505 0.12628238 0.0022930745 -0.13125423 -0.42469892 -0.14750007 -0.19855571 0.17869808 -0.39564216 0.027766174 -0.11922774 -0.31798497 -0.10986193 -0.0731234 0.5160014 -0.036651246 -0.022080258 -0.018327184 -0.0029004116 0.08744029 0.044294283 -0.43325523 -0.122248255 0.2759156 -0.20025621 -0.46839717 0.28998584 -0.23877333 0.11762462 -0.33734742 -0.25795025 -0.38106444 -0.07090704 -0.37137124 -0.49687433
C0017436 -0.16543503 0.2018608 -0.11257834 0.00832341 0.2203778 -0.11325359 0.29006964 0.07410219 0.32338262 -0.19855589 -0.13936329 -0.22753814 0.20037943 -0.26108927 -0.24336019 0.20691055 -0.0932629 -0.1401212 0.30859 -0.00055200484 -0.430247 -0.18659866 -0.049946714 0.081461675 0.11623939 -0.1808545 0.017561544 -0.059851892 0.07038579 0.31703132 -0.004794478 -0.23494753 0.35084262 -0.25043255 -0.36673668 0.027189154 0.18052818 -0.151491 -0.15091597 -0.08340865 0.036326397 0.14242852 -0.26532778 0.062847525 0.0038341782 -0.2527193 0.09119167 -0.17187898 0.28598133 0.0269907 0.03510861 -0.08513691 -0.05926529 0.05976113 0.050123606 0.25588334 0.10613753 -0.18107569 -0.28171209 0.006449856 0.2605733 -0.24721627 -0.49511656 0.22776261 0.0228034 -0.137066 -0.043904986 0.010451509 -0.2929696 0.039080407 0.24161606 -0.336902 0.28673285 0.021843925 0.24201646 -0.1742264 -0.53729 0.24457343 -0.40158173 0.43155038 -0.1573856 0.58235705 0.18314087 0.11436193 -0.022305971 -0.36121032 -0.045505784 0.008994381 0.20792982 0.12021428 0.048294734 0.7562305 0.04214262 0.33280158 -0.11206737 0.028565256 0.16341297 0.00065297866 0.17196296 0.34477225
C0032857 0.28950045 0.440179 -0.039535988 0.14885278 0.16393736 0.3356773 0.18794839 -0.42328373 0.12784234 0.04080554 -0.49010965 -0.017139351 0.12742618 -0.2657869 -0.29582784 -0.5585939 0.12628151 0.16318476 0.1630626 0.25322685 -0.351353 -0.5970835 0.44824502 -0.57314837 0.12223402 -0.11409028 0.37681112 0.02245584 0.0039338693 0.1603744 0.2915009 -0.87451434 -0.3797507 0.5276959 -0.22953875 -0.15076238 0.07130073 0.18401991 0.054475855 0.42622033 -0.11840369 0.16885227 0.54074144 -0.042242505 -0.59386796 0.29727986 -0.25073314 0.036375575 0.34809992 0.00768841 -0.3686222 -0.25427303 0.25815544 0.38270485 -0.03258655 -0.018613514 0.019376548 -0.29693508 -0.18740973 -0.48060784 0.7593249 0.26358336 -0.011443071 0.2801993 0.5035432 0.031920556 -0.3047849 0.12841077 -0.21594645 0.06319655 0.088786416 -0.30583543 0.104927264 0.009526009 0.053947754 -0.24775195 -0.19979954 0.51009643 -0.075445645 0.32566437 -0.09679617 0.3455435 0.057987086 0.122265056 0.2303468 0.43959257 -0.08957806 -0.30334342 0.0486436 -0.007059362 0.059446443 0.26488224 -0.18773252 0.52644444 0.4177641 0.104664 0.269779 0.13094182 -0.0044186586 -0.12658109
