1317 100
C0020443 0.26325405 -0.07742936 -0.009327449 0.11417725 0.068375476 -0.19246651 -0.08798728 0.12418103 -0.045268036 0.096289374 0.056356296 -0.05896645 -0.032000702 0.07189046 -0.1572926 0.06817016 0.066750504 -0.061785456 -0.12741221 -0.015541264 -0.04994506 0.10883682 -0.0060948487 0.05732956 -0.18817548 0.055154547 -0.09975525 -0.04917469 0.076421835 -0.1462847 0.18146357 0.13470265 -0.14628895 0.008027279 0.098449 -0.07078535 0.16624184 0.42836806 0.09834232 0.042826314 -0.118460245 0.08027024 -0.14326705 -0.039804522 -0.030777298 0.124948174 -0.16342553 -0.012677476 0.20879245 -0.16925924 0.13943295 -0.027934996 -0.024127172 -0.16137707 0.14451873 -0.13527453 -0.047280055 0.016074477 -0.17054428 0.1032264 0.2705207 -0.025880912 0.2887025 0.22445802 -0.09528318 -0.08188732 0.16009998 0.07715601 0.114870586 -0.005350422 -0.33350232 -0.06831019 -0.120535314 -0.06703608 -0.008807052 0.01616047 0.14591193 0.13259631 -0.15422128 -0.0025723274 0.033895224 -0.0043018414 0.13561526 0.096495055 -0.012238772 0.017349187 -0.052912436 0.060564723 -0.18281946 -0.18062699 0.1973213 0.06087073 0.09723324 0.011232045 0.110773996 -0.083716005 0.1434345 -0.13317561 -0.063957594 0.015870644
C0085542 0.26507574 -0.0870715 -0.16129725 -0.01606721 0.08819398 -0.2605307 0.06204767 0.30560103 -0.37776977 0.32402277 0.076801226 -0.085225694 0.15056826 0.17690907 0.04640018 -0.022510454 -0.17028548 0.21629293 -0.24867792 0.21298937 -0.18155056 -0.17651217 -0.26167256 0.012808926 -0.34375587 0.25349534 -0.08816543 0.21708925 0.23859581 -0.15380447 -0.073712446 0.16565667 -0.33573404 -0.04032367 -0.117528066 -0.41445088 0.23313579 0.27553228 -0.22085385 -0.08734896 -0.046308134 -0.13781092 -0.074311025 -0.16019224 -0.42326194 0.09629807 0.32230183 0.09758949 0.14389321 0.27392596 -0.093340404 0.22830375 -0.01074954 -0.05123261 0.15612549 0.05545332 -0.23084266 -0.21955664 -0.21175975 0.45359653 -0.04548505 -0.12775609 0.37238654 0.17014742 -0.22751604 -0.00611493 0.14982226 0.19570765 0.14450666 -0.06611643 -0.30065912 0.20524266 -0.26078126 -0.18499362 -0.105460346 -0.118790895 0.22935402 0.106468886 -0.04100833 -0.07691914 0.22730349 -0.23214577 0.17143849 -0.0408292 0.20640236 -0.26049292 -0.16259256 0.07109698 -0.22580108 -0.118254215 -0.19144458 0.03482554 0.25964344 0.17252123 0.18490385 -0.25467563 0.17342193 0.06898481 -0.1114647 0.060113747
C0286651 0.5576004 0.09835574 -0.19869782 -0.0742815 -0.055483032 -0.088082604 0.054253727 0.2902836 -0.23091003 0.41642112 0.02449388 -0.027396718 0.10278394 0.153974 -0.16509052 -0.07153295 -0.18738416 0.054914348 -0.06171174 0.19938818 -0.14256388 0.038612507 -0.29974604 0.25551012 -0.252455 0.115622684 0.0019595788 0.22669159 0.11152394 -0.1952442 -0.048650872 0.0912784 -0.124269195 -0.27221483 -0.03921382 -0.21987386 0.27624863 0.16973451 -0.16809854 -0.11331081 0.008963688 0.039704025 -0.22260478 -0.11965184 -0.001381338 0.09688423 0.031366535 0.2077011 0.045341518 0.16142653 -0.24299383 0.13414207 0.14175451 -0.027162874 0.07784236 0.11351574 -0.2751033 -0.036995243 -0.25865737 0.2079225 0.105602495 0.09473625 0.24587356 0.18757066 -0.028059807 0.022524385 0.13746163 0.061053537 0.013598314 0.05289826 -0.30524376 0.36554095 -0.15478657 -0.21625641 -0.083741695 -0.24363312 0.26810107 0.12831087 0.011112423 0.18235396 0.0044200593 -0.11051922 -0.19110385 0.059430797 0.074793786 -0.1265292 0.13845138 -0.030286632 -0.13471182 -0.1403631 0.111952685 0.0953024 0.14093278 -0.10566603 0.040529974 -0.051731862 0.26983675 -0.2765061 -0.17367493 0.17485425
C1142985 0.47350174 0.07735879 -0.11822896 -0.04085661 0.110166155 -0.2521074 0.013917662 0.36662796 -0.6310543 0.2886772 -0.0100509515 -0.15125354 -0.17781013 0.2032888 -0.065572366 0.08852629 -0.35620278 -0.03196593 -0.16391745 0.20565543 -0.17246114 -0.07596288 -0.18437456 -0.025573432 -0.0014441755 0.22210193 -0.17230566 0.22213677 0.2569438 -0.28926203 0.21261334 0.006151249 -0.22013195 -0.27690277 0.0788497 -0.19517505 0.13770784 0.21393463 -0.18443099 0.013304832 0.087207034 0.15662315 -0.10747413 -0.20030147 -0.24580455 -0.072140574 0.06879948 0.1231959 0.0024480985 -0.09956524 -0.25315902 0.38410315 0.32999852 -0.074604124 0.3995164 -0.08933988 -0.016359294 -0.21596909 -0.10906287 0.29986906 0.21810997 -0.11566761 0.20065089 0.22688049 -0.15473416 0.1934392 0.07688232 0.2681123 -0.016167201 -0.09937767 -0.4134928 0.7086763 -0.09988167 -0.096461244 -0.1657056 -0.03455028 0.034548994 -0.053853318 0.12647587 0.083536886 -0.06428698 -0.48101217 0.21202673 -0.15430768 -0.032500565 -0.114356786 0.012561149 0.13958582 -0.24365151 -0.08559121 0.24228254 0.38240665 0.19526494 -0.23415451 0.11650089 -0.23932028 0.018476062 0.11890259 -0.24373044 -0.13968694
C0032042 0.084704936 -0.060275264 0.0063376096 0.12502067 0.049728334 -0.22099186 0.09866915 0.11684938 -0.13101794 -0.122246526 0.15830283 -0.24788572 -0.13495184 0.26712748 -0.1888877 -0.3078062 -0.26576272 -0.19782671 0.1054318 -0.26520887 0.14308639 0.15524457 -0.058191713 -0.042064887 0.043570578 -0.14594872 0.04031429 0.16391926 0.18497749 -0.11869771 -0.17623681 0.14883657 0.049802464 0.056904454 0.028209867 -0.09100138 0.113906115 0.08382794 -0.029179437 0.23667772 0.2201919 -0.09792096 -0.013946668 -0.013677244 0.011142204 0.0053520612 -0.23344947 0.13239095 0.08177689 -0.03116464 0.14914048 -0.082942106 0.0805991 -0.07491967 -0.1344679 -0.0024610774 -0.081489325 -0.16392799 -0.20028065 0.04212176 -0.010968813 -0.21873264 0.14640999 0.0470878 0.14447099 -0.07363918 -0.073531404 -0.08491693 0.15811636 0.007168276 -0.024695167 0.021636682 -0.018711349 -0.17226323 -0.014933179 0.04889795 0.15834974 0.15154327 -0.22368297 -0.23650539 0.1909528 0.07838602 -0.010590423 0.058574583 0.19091058 -0.13281293 0.10368977 0.30221102 -0.23970778 -0.24657659 -0.06927206 0.014873858 0.12727888 0.04794673 0.025699165 -0.058288224 -0.0040165423 0.03705637 -0.15609047 0.10744504
C0989914 0.37852922 -0.11174292 0.01548459 0.28257746 0.29802597 -0.49976802 -0.34107012 0.2408877 0.2451597 0.28660432 0.2808782 -0.26262423 0.026390165 0.32230765 -0.35126513 -0.38193214 0.060320813 0.26578137 -0.60194296 0.0022814956 -0.2946588 -0.56900114 0.054518774 0.03448029 -0.15727976 0.5979804 -0.5195948 0.049027815 -0.0060068965 -0.09351699 0.054169357 0.06419828 0.15265028 -0.13023637 0.33365262 -0.3970142 0.079233564 0.6301796 0.09162214 0.023966178 -0.010715548 -0.010005517 -0.066812344 -0.4051754 -0.07546438 0.046231233 0.05586369 0.052878514 0.1899067 -0.12360628 0.21864283 -0.04822256 0.3590483 0.078231156 0.237569 -0.15685399 -0.30553854 -0.061682384 -0.41044816 0.31433898 0.54085255 0.1860445 0.24125993 0.31430864 -0.034300067 -0.0260592 0.20336848 0.46859667 0.118015744 -0.48552662 -0.37421483 0.2413132 0.039605442 -0.14410308 -0.27261794 -0.41699436 -0.0038069037 0.15792695 -0.11781177 -0.16398999 0.42886502 -0.03501975 0.3725984 0.28584763 0.12127043 0.021107905 -0.21104361 0.254235 -0.6069952 -0.19453879 0.35610405 0.06144312 0.08971137 0.1931192 0.19168627 -0.18752472 -0.06444991 -0.14081606 -0.10810003 0.2716409
C0082608 0.4693977 -0.1412787 -0.058764007 -0.13286304 0.19778572 -0.0061404123 -0.16328166 0.19723539 -0.44232574 0.58674735 -0.21277967 0.10179767 -0.24153374 0.3232164 -0.35502547 -0.12606804 -0.45437804 -0.03973365 0.119863294 0.08680657 -0.036257632 0.049251676 -0.09696139 0.33418742 -0.12292264 0.23964384 -0.18081956 0.0939089 0.28476545 -0.0585031 0.22547975 -0.03372587 -0.01743174 -0.4175466 -0.13877848 -0.41462958 0.18024915 0.36563262 -0.32721356 -0.13857166 -0.15337265 0.021127883 -0.2767548 -0.44170845 -0.33943725 -0.00035151665 -0.18103062 -0.020487826 0.06379634 -0.30703872 -0.31742778 0.22644962 0.06964945 -0.124210484 0.26915804 -0.24929719 -0.024558624 -0.23996764 -0.19808066 0.2523087 0.022946876 -0.05950462 0.23884764 0.090076685 -0.09345891 0.410255 -0.22118822 0.2520622 -0.07384504 -0.17095512 -0.25981712 0.2716885 0.015441592 -0.21027082 -0.16449635 0.016525647 0.14202967 -0.075149074 0.01824326 0.29681024 0.007673566 -0.008349217 0.14372018 -0.11335222 -0.0043754745 -0.22582832 -0.10926136 0.12531263 -0.2208344 -0.15559113 0.39152947 0.34924582 0.07906346 -0.16375485 0.26639742 -0.32721332 0.031052051 0.10019201 -0.12587062 -0.14208028
C0074554 0.2625745 -0.0285393 -0.16998146 -0.122498244 0.13470949 0.026417404 0.021856943 0.19278796 -0.28345194 0.2984528 0.1357569 -0.15160085 0.0034708793 0.16059865 -0.09962302 -0.19044551 -0.3873604 0.1938829 -0.083652735 0.35774752 -0.11593945 0.101672776 -0.03852555 0.31704196 -0.122061074 0.4804422 -0.13586427 0.22905588 0.3507544 -0.24002635 -0.014316468 0.067498356 -0.19357611 -0.076856986 0.050015677 0.00929147 0.19998477 0.38213274 -0.22459798 0.025339775 0.05087548 0.20707533 -0.18973705 -0.37154996 -0.16633411 0.1733838 0.15991046 0.021256229 -0.032277793 0.11495777 -0.16515511 0.005747097 0.21441758 -0.1606456 0.08835909 -0.12886626 -0.17968206 0.066014156 -0.33914834 0.34680763 -0.056865707 0.030178508 0.42079753 0.35169354 -0.04324785 0.061839245 -0.01897386 0.14894955 0.1252594 0.22745816 -0.053449184 0.31537044 -0.111675836 -0.25773582 0.039181255 0.08820692 0.111156605 -0.06521131 -0.106824555 0.042582028 -0.057686955 -0.07906206 0.03766282 0.06911249 0.3135446 0.07982785 -0.101983555 0.25721452 -0.113130696 -0.062489633 -0.0901735 0.09514738 0.25572652 0.10520394 -0.09766163 -0.18900055 0.1729403 -0.1185233 -0.2085372 0.028049774
C1331111 0.2540807 -0.36059928 -0.122698925 0.13060786 0.429503 -0.30233276 -0.14288808 0.5986516 -0.13879785 0.4057561 0.27548712 -0.03569123 0.39994434 -0.1358221 -0.10501121 -0.14390773 -0.3100162 0.3036489 -0.10168459 0.17037371 -0.21481374 -0.13700809 -0.1432992 -0.09678301 0.07788319 0.46804073 0.0037930505 -0.18326187 0.23342395 -0.36579564 -0.08395452 -0.24305838 -0.23147689 -0.054613125 0.027584754 -0.47714123 0.5346227 0.64533406 -0.34325573 0.14866452 0.000435723 0.22121246 -0.43765774 -0.22137678 -0.13037422 0.25707898 0.121111125 -0.2616342 0.20942795 0.05115779 0.12539262 -0.04139744 0.3152175 -0.26526177 0.17742507 0.010829875 -0.56015146 -0.06606844 -0.24331123 0.82864726 0.4305574 0.057759684 -0.26059046 0.16714576 0.12498998 -0.090590484 0.07219233 0.37358674 0.005077997 -0.0633589 -0.34923443 0.105108164 -0.30415443 -0.0872553 -0.24850766 -0.020452822 0.21367684 -0.09895442 -0.06742663 0.0023673621 0.24951467 -0.14314124 0.20294234 0.08736281 -0.035201784 0.11094633 -0.034131978 0.19407903 -0.26747522 -0.11599969 0.1109671 0.010877376 0.4026116 0.15290707 0.08747296 -0.21936552 0.0087264385 -0.07365124 -0.068957984 0.052602258
C0014912 0.19544154 0.08898245 0.24756491 -0.012241022 0.30836558 -0.24245274 -0.15486485 -0.10878935 -0.39826685 -0.11010014 0.33482802 0.025769016 -0.055890575 0.20941806 0.024060627 -0.09015017 0.15550323 -0.15077293 0.0883498 0.15223742 -0.29180303 -0.18262322 -0.14968759 0.15730663 0.18241091 0.2426235 0.11077142 -0.018973354 0.15919729 -0.057682026 0.04854056 0.19787964 -0.20029832 0.18898593 -0.12673369 -0.12996246 0.27555314 0.53016657 0.036968585 0.19183712 0.023275703 -0.23102175 -0.22881751 -0.1445337 -0.17329706 -0.04626156 -0.116356835 0.24750331 -0.04502341 0.18884315 0.031077864 0.10266437 0.050890855 -0.067344934 0.204534 0.13613024 -0.20945768 0.15944636 -0.4457998 0.16080515 -0.19889712 -0.19661613 0.18092918 0.33923212 -0.093089215 0.035599336 0.095984355 0.16625588 0.07219172 -0.0020809025 -0.3073287 0.1123029 -0.41203564 -0.038191304 0.24252011 -0.03434902 0.13210297 -0.09426709 -0.14020747 -0.0067366567 -0.04616239 0.1123711 0.45048016 0.106139936 -0.09954713 -0.11911264 0.011566732 -0.0829513 0.070894115 0.025063353 -0.2389411 -0.20283951 0.2520665 0.25490955 0.1445807 -0.52517295 0.17457964 -0.14328028 -0.0061044204 -0.022571107
C0989915 0.31132644 -0.24143259 -0.013772372 0.34877503 0.24763545 -0.5027379 -0.48038965 0.36158106 -0.0011454053 0.064226106 0.26366794 -0.14988086 0.13577388 0.30936047 -0.3354879 -0.25780576 -0.039910965 0.26408917 -0.5261693 -0.037788697 -0.30204904 -0.28337282 -0.02655262 0.014887741 -0.054489866 0.7150679 -0.35634416 -0.02522389 -0.05140638 -0.19702539 0.13752607 0.014272538 0.20228153 -0.10460319 0.2092386 -0.31811216 0.12134326 0.5983801 0.03209747 0.03992907 -0.04622779 -0.08158386 0.11571451 -0.40883535 -0.015967822 0.118421055 0.16339353 0.04929571 0.3048701 -0.2286999 0.17400481 -0.10836041 0.24075443 -0.04098728 0.34385374 -0.24844556 -0.17402959 -0.007794945 -0.23986907 0.54268163 0.5216394 0.11344351 0.15680322 0.27096334 -0.011259277 -0.00730667 0.2491918 0.3103339 0.15010335 -0.36981925 -0.3666516 0.14961092 -0.10421609 -0.029207539 -0.22001779 -0.35355872 0.066210836 0.09197257 -0.097515725 -0.12662622 0.17997824 0.10121268 0.52783704 0.28773496 -0.018128417 0.15683758 -0.12879956 0.330274 -0.48843902 -0.1468732 0.29841828 0.018102048 0.14567828 0.0048490027 0.37432182 -0.11564259 0.03853128 -0.0016046143 0.2107461 0.44478014
C0965129 0.46024257 -0.062119424 -0.09644507 -0.1359495 0.11890265 -0.22545148 -0.0015727807 0.24372178 -0.45873925 0.4026588 0.09514104 -0.010460841 0.021199841 0.05146074 -0.2377617 0.0020086044 -0.16858213 0.10067807 0.038216013 0.20768578 -0.07595726 -0.19869852 -0.12566073 -0.01155717 -0.19472744 0.19687478 -0.12745824 0.23785599 0.12925172 -0.23642538 -0.040789597 0.1835748 -0.21988156 -0.18607369 0.18114284 -0.3341616 0.3005593 0.2746467 -0.08222785 -0.023360409 -0.1274392 0.099847496 -0.28748503 -0.16100225 -0.25545767 -0.002749081 0.06835712 -0.013133483 0.107550904 0.09017774 -0.2688498 0.3151384 0.037051298 -0.22071375 0.11892569 0.038192116 -0.24148057 -0.28100485 -0.048685674 0.29234895 0.1677999 -0.038912665 0.118977636 0.19777277 0.04970483 0.022184117 -0.12287443 0.23295315 0.084893644 -0.19831084 -0.25397837 0.39635333 -0.24188595 -0.010713967 -0.029761173 -0.0716264 0.24418037 -0.024221132 -0.03404559 0.2574356 0.02044751 -0.17008825 0.056436732 0.021859609 0.08613138 0.017188374 -0.03198928 0.012580213 -0.24061458 0.05122771 0.012017956 0.24515483 0.295143 -0.16790739 0.12964001 -0.38648593 0.10668847 -0.1525681 -0.25014365 -0.030136362
C0360714 0.40635532 0.068897694 -0.008431975 -0.058988158 -0.08839588 -0.1440566 -0.0708626 0.12021814 -0.15755853 0.25156137 0.024003254 -0.049931847 0.12944114 0.44539276 -0.22087716 0.15127404 -0.12160508 -0.034406763 -0.14440775 0.2069473 -0.07169181 -0.14088508 -0.198309 0.28172138 -0.43564767 0.10216729 -0.0396312 0.23639524 0.04505456 -0.07479019 0.027686885 0.1677095 -0.10082898 -0.19978324 -0.21612944 -0.27252308 0.3234087 -0.016827041 -0.2070823 0.011824573 -0.006867874 0.011515321 -0.047222987 -0.15818118 -0.2590375 -0.01877222 0.0051228967 0.004741437 -0.045205925 0.05537426 -0.29927838 0.29302806 0.026538717 -0.051338587 0.076833606 0.009201172 -0.07000387 -0.021553053 -0.21475932 0.21626481 -0.10564867 -0.16029166 0.40506372 0.16530228 -0.13836479 -0.04434343 0.10578349 0.12960681 0.29782563 -0.029208533 -0.21500023 0.2738995 -0.19702822 -0.14323466 0.04477787 -0.27280328 0.17557584 0.11832307 -0.20901534 0.07363936 -0.011148593 -0.04449179 -0.041975424 0.16605538 0.13077492 -0.0716831 -0.009206515 -0.09821032 -0.19475827 -0.10821458 0.17082638 0.06966523 0.09914317 0.014677114 0.11968557 -0.19245087 0.10114857 -0.14353603 -0.15036279 0.11587593
C0948265 0.36537308 -0.07420581 0.06910527 0.121880494 0.4064546 -0.6198856 0.08643128 0.59645915 -0.35037264 0.38475358 0.19448307 0.042461608 0.16374806 -0.072982945 0.17459658 -0.27290472 -0.13710068 0.14073016 0.27371353 0.23079054 0.10231885 0.09520383 -0.11952719 -0.05474286 0.0398738 -0.08766901 0.13419482 -0.24956667 0.3532317 -0.19242756 -0.10366751 -0.22288053 0.0022620084 0.100234725 0.40964863 -0.36662713 0.5181179 0.5052208 0.019331923 -0.040668074 -0.24863653 0.3371624 -0.5255664 0.08620639 -0.10321273 0.3907624 0.10372301 -0.15154725 0.039398883 0.5232715 -0.039722037 0.1372057 0.059766285 -0.34291488 -0.05307333 0.30551517 -0.46340203 0.088815495 -0.20015149 0.61079717 0.35982752 -0.083519295 -0.01138061 0.17829283 0.049361438 0.14646646 -0.07512684 0.2934083 0.08106318 0.12182859 -0.24848089 0.0067301765 0.017322054 -0.33306965 0.14489552 0.23801897 0.15276332 0.098147325 -0.0431065 0.23360567 0.30944777 -0.13213791 0.24641806 -0.3347875 0.19031885 0.056620095 -0.10031922 -0.07860538 -0.010982344 -0.17363179 -0.16808487 -0.16535304 0.31540543 0.24700451 0.28024673 -0.1978746 0.0031333528 -0.06445003 -0.17358807 -0.03752537
C0073393 0.032917794 -0.0695121 0.21201494 0.079535194 -0.028534519 -0.15601154 0.09884524 0.06840872 -0.122414045 0.17787233 0.004231661 0.02271177 -0.13795644 0.2687437 -0.08227213 0.04835832 -0.061475806 -0.25413296 -0.03773609 0.17458701 -0.11169838 -0.01697299 0.04409863 0.03810559 -0.1098138 -0.070102856 0.18575312 0.0966376 -0.30761072 -0.319123 0.25880828 0.024476366 0.19203186 0.2379915 0.0748827 -0.010548215 0.11966494 0.37838057 0.0070222286 0.25031936 0.007921834 0.01927977 0.096082 -0.20088977 0.33157417 0.1371046 -0.15391964 -0.29284635 0.11425576 0.039247297 -0.08129087 0.12097309 -0.114031546 -0.24482869 -0.15350448 0.15766782 -0.44419646 0.09210092 -0.33672532 0.2829639 0.2504657 -0.18071143 0.014648523 -0.07056271 0.064637765 0.04621161 0.27038482 0.14495978 -0.064030476 0.107612684 -0.07055894 0.15909679 -0.30262962 -0.20051366 0.02031751 0.56274474 0.082399435 0.15923491 0.05217805 -0.00269505 0.029901683 -0.08047504 -0.019424163 -0.0802183 -0.24452527 0.13855426 0.0814168 -0.19777237 -0.4094561 -0.03361076 0.2081526 -0.08347105 0.23890723 -0.13931529 -0.17264149 0.023159163 -0.05430541 -0.04480283 -0.20595685 -0.005356845
C1322815 0.47671705 -0.2357033 -0.030278988 0.009099858 0.37309042 -0.25157574 0.074822515 0.071432665 -0.30004978 0.59432644 0.1777839 0.42741796 -0.1528089 -0.15413116 -0.28023455 -0.4313325 -0.12755857 0.063496724 0.12150217 0.084137216 0.04828717 -0.12904222 0.063185476 0.38567123 -0.2842687 -0.074974485 0.0729105 0.41407615 0.53456247 -0.1540493 0.010564553 -0.22887291 0.04943495 -0.22108762 -0.00015316442 -0.08448967 0.24427252 0.21148154 -0.26525003 0.06504915 -0.13042814 -0.14534986 -0.076624945 -0.321065 -0.26686022 -7.988776e-05 -0.005384635 0.020604447 0.12764196 0.08241886 -0.090611294 -0.06077628 -0.14580089 -0.50092226 0.11655196 0.025501253 0.023743393 0.03411841 -0.30904946 0.110734075 -0.14155625 -0.021529483 0.14467524 0.29251006 0.3919341 0.43266287 -0.13329202 -0.011600587 -0.03843375 -0.16309202 -0.16561724 0.14825134 -0.07063909 -0.37717697 -0.05834788 0.14153616 0.32692963 0.2614785 -0.016973592 0.69177306 0.11075705 0.07731393 0.10161242 -0.19725862 -0.11953391 -0.16793552 -0.33601284 -0.0049223676 -0.3219126 -0.18346484 0.15028231 0.20728372 0.32895216 0.01496788 0.31911525 -0.19586886 0.0130295055 -0.21297076 -0.08968259 -0.11683025
C0071097 0.28158844 -0.12996832 -0.029159293 -0.25475827 0.37487376 -0.22429228 0.23574165 0.11039927 -0.592968 0.3316909 0.05040962 -0.08421372 0.04714677 0.20115781 -0.020897955 0.07487813 -0.23771794 0.1225247 -0.07439379 0.324477 -0.17240022 -0.051095217 -0.08928677 0.046238754 0.002614754 0.273889 0.05671519 0.017052278 0.28701553 -0.0012983136 -0.10521837 -0.12232125 -0.39692542 -0.07192639 0.08615195 -0.09835805 0.5118455 0.43604746 -0.16938338 0.0048365677 -0.24679272 -0.004927227 -0.29005098 -0.08364539 -0.30570006 -0.20979297 0.09379819 -0.053841546 -0.08591112 0.16596167 -0.3728959 0.07209792 -0.09859011 -0.16694093 0.022978315 0.029745532 -0.2773893 -0.24444342 -0.28163353 0.28925633 0.030299833 0.13239801 0.2675591 -0.15595056 0.059675705 0.032819986 -0.08759754 0.18967448 0.2465791 0.08371984 -0.15443176 0.10089802 -0.6087682 -0.24202608 -0.10708453 0.13217798 0.31725797 0.057318043 -0.13788092 0.21507388 0.07990075 0.28795737 0.21573 -0.05937791 0.048154626 -0.015673708 -0.22660446 0.18696383 -0.032679476 0.1119923 -0.18179949 -0.046913784 0.25184873 0.039482087 0.121862836 -0.24480508 0.1560828 0.08558802 -0.053333785 -0.15485235
C0248719 0.6820542 0.009908461 -0.038970914 0.08554012 0.08158494 -0.26858807 0.007710934 0.29220995 -0.5335136 0.1937429 0.041619718 -0.088702776 0.03916612 0.17703493 0.090858355 0.15328941 -0.32628164 0.16572027 0.021945408 0.25182405 -0.18233451 -0.037600648 -0.1962787 -0.17230721 -0.005965766 -0.044846613 -0.025809292 -0.040654015 0.4361778 -0.09842959 -0.03286347 -0.06350083 -0.24330352 -0.096206814 0.04183426 -0.2920235 0.14865203 0.19998403 -0.02016409 0.20645925 -0.06250838 0.08592377 -0.15634377 0.050980743 -0.36245048 0.037486557 -0.12703364 0.040009066 -0.06125992 0.3769894 -0.43246767 0.33100742 0.09531616 -0.14365838 0.001939375 0.29001826 -0.3672813 -0.34187943 0.059480295 0.11281675 0.45062205 -0.1183336 0.04253743 0.15118293 -0.054874126 -0.09959037 0.016190302 0.3433688 -0.12834308 -0.04197378 -0.052812338 0.3273686 -0.28586406 -0.14584862 0.12180552 -0.0063973838 0.46568722 0.08854278 -0.007437071 0.28029725 0.16277768 -0.1939607 -0.13979319 0.23016831 0.033772785 0.06802982 -0.06708098 0.0760007 -0.14100483 -0.16060941 -0.13987797 0.25871992 0.25336048 -0.030098088 0.09887798 -0.19003537 0.035674114 0.042294975 -0.28000736 0.014626937
C1098320 0.53002346 0.15652925 -0.016863039 0.12756619 0.20233835 -0.34556735 0.1846789 -0.18166631 -0.54931134 0.09612585 0.08350007 -0.08857253 0.15774131 0.27242827 0.16739367 0.22107399 -0.29149368 0.10572972 0.113945544 -0.11650735 -0.264713 0.30231944 0.0027845546 0.012161218 -0.25973806 -0.0046272497 0.23840766 -0.1107971 0.21407638 0.0707165 -0.20621532 0.05732165 -0.19696857 -0.1464228 0.3201484 -0.18852375 0.49668252 0.44957316 0.12207603 0.1209864 -0.18124293 0.15372573 -0.45970657 0.033061616 -0.18707836 -0.11138621 0.12210853 -0.01571024 -0.037282206 0.24171802 -0.35785085 0.060925823 -0.0029297334 0.05908896 0.17125905 0.21654451 -0.31346473 0.08692292 -0.08186698 0.113283105 0.1675509 0.10487457 0.058132883 0.1031506 -0.17578217 -0.076533295 -0.0124401385 0.2751053 -0.030039605 0.21515241 -0.48186356 0.1987477 -0.48316756 -0.24780545 0.092855304 0.09800229 0.31077683 -0.02016291 -0.06283944 0.15551442 0.15416801 -0.12204686 -0.33501393 -0.056236282 0.06408957 -0.021623753 0.089551754 0.32349613 0.14505452 -0.16588557 -0.3493333 -0.02916121 0.43249616 -0.048103917 0.13092765 -0.20787047 0.041810397 0.2147259 -0.39355335 0.06776264
C0033228 0.26369274 -0.00024865408 -0.13582657 0.08342144 0.22515309 -0.15939279 0.16449055 0.39670366 -0.5314627 0.46461156 -0.15507668 -0.106232956 0.15042831 0.13735995 0.27594852 0.040374245 -0.3476142 -0.09696031 0.08115929 0.30347842 -0.24253313 -0.28428292 -0.14737874 0.0026488584 -0.13237414 0.28850538 0.1423187 0.27393344 0.17287011 -0.06825377 -0.08464189 -0.015577183 -0.5352342 -0.0071067824 0.22133456 -0.12373576 0.6035168 0.2890924 -0.3498943 -0.19165848 0.14599596 0.0074940035 -0.20532149 -0.22446603 -0.40569758 0.2174452 0.1413813 -0.031606138 0.13442129 0.12739591 0.013772996 0.29847628 0.1039188 -0.038429096 0.07703786 0.085095935 -0.24300905 -0.30309772 -0.16241156 0.5258251 0.1825879 -0.15312472 0.1802264 0.19081083 0.10596749 0.030546809 -0.04770668 0.27258822 -0.079788096 0.087060004 -0.1614139 0.07101187 -0.48846665 -0.3119721 -0.07391817 0.036605477 0.21782024 0.14891334 -0.002032133 0.0033860544 0.1769651 -0.020242829 0.25936034 0.009717424 0.15810081 -0.063891575 -0.07569941 0.015114598 0.07221035 -0.06969841 -0.1765256 0.121197335 0.17787632 -0.07849283 -0.051149044 -0.2482706 0.12481631 -0.059406128 -0.061763402 -0.15786105
C0299792 0.10149705 0.0067974804 0.3961398 0.007387623 -0.15669931 -0.05974148 -0.005249173 -0.0040934295 -0.03478973 0.316172 0.031277545 -0.04808724 -0.024647055 0.054550868 -0.050160892 -0.03741974 0.0633125 -0.18896265 0.073751144 0.32015157 -0.1951993 -0.034376346 0.09548052 0.1163313 -0.003293223 0.06937388 0.22127445 0.006582463 -0.31275165 -0.36935902 0.20677441 -0.10613315 0.19662426 0.35910088 0.09299293 0.020683095 0.18024349 0.47076017 -0.079019174 0.26409245 -0.14385301 -0.17260496 -0.00030701334 -0.096470855 0.30313745 0.0953137 -0.20092967 -0.053264864 0.046017222 0.017413188 -0.04777577 0.21782073 -0.2492513 -0.24517895 -0.04599809 0.13407555 -0.44387254 -0.029515121 -0.4259276 0.20705076 0.21780889 -0.2588849 -0.033689566 0.11043987 0.20367604 0.082657546 0.08826501 0.17866729 -0.034277998 -0.05661756 -0.021316662 0.0687689 -0.11881123 -0.1611382 -0.13470048 0.49323428 0.007240293 0.108800694 0.010904195 -0.107531905 3.8740363e-06 -0.20521705 -0.06252758 -0.105920516 0.018506667 0.22671756 0.049792856 0.018501937 -0.15304036 -0.16657904 0.18839392 -0.009057744 0.19891538 -0.016231894 -0.07250603 0.03773473 0.05840413 0.015631763 -0.27818957 0.113972485
C0038257 0.35180137 -0.10236464 -0.021433474 0.026637586 0.23201406 -0.32821745 0.123050936 0.070985965 -0.4269555 0.38583222 0.2009235 0.27824953 -0.10686182 -0.15638806 -0.16246343 -0.40639958 -0.048613958 0.104606874 0.07773317 -0.016414806 0.024305275 -0.17548577 0.08252177 0.3426771 -0.19270347 -0.19913618 0.2107581 0.44937247 0.484493 -0.1861155 -0.011913467 -0.36033142 0.012810004 -0.16749991 -0.10573463 -0.08311214 0.12204467 0.25765893 -0.11609315 0.16033897 -0.07883907 -0.046298295 0.06611726 -0.30816984 -0.24832235 0.004277421 0.07657757 -0.076832585 -0.05859615 0.32113326 0.0006792523 0.05173603 0.111225314 -0.4189674 0.06278918 0.080203354 0.055134628 -0.010190821 -0.22450984 0.12795065 -0.1087868 -0.1121909 0.1345636 0.24402498 0.22675203 0.49784133 -0.041190483 0.004811595 -0.028990047 -0.09688838 -0.0137941325 0.14310211 -0.19070254 -0.38407147 -0.063043915 0.22072823 0.44746518 0.37681085 -0.16764571 0.6332561 -0.07841595 -0.11370864 0.2967161 -0.2888846 -0.041056857 -0.118646875 -0.41079223 0.13561906 -0.18171313 -0.26951417 0.13239509 0.21058105 0.2471756 0.16351818 0.21226057 -0.18613397 0.07051878 -0.094318315 -0.100833505 -0.10238637
C0025598 0.39618668 -0.073598295 0.0095502995 -0.0360462 0.21194957 -0.15799949 0.26974806 0.08020029 -0.34387887 0.025538394 0.17612952 -0.07325693 0.05136671 -0.14233553 -0.08844068 0.025034167 0.023640329 -0.11995673 -0.08946601 0.42102408 -0.10383949 -0.15065452 -0.16465402 0.13961422 0.15129475 0.12458876 -0.13017781 0.2722373 0.21915352 -0.35475728 0.03055433 -0.025169613 -0.28530625 -0.09837473 0.036675453 -0.18834756 0.33850372 0.23590145 -0.15141618 0.1483363 -0.28868875 -0.124641486 -0.06909527 -0.14883283 -0.09496161 0.078836024 0.17575411 -0.14058432 0.006488844 -0.04512602 -0.13962169 0.29947326 0.27971056 -0.16074014 0.15057334 -0.0041471417 -0.32130507 -0.26497743 -0.20050304 0.20260262 0.028705334 -0.0730333 0.44685802 0.22315268 0.16312294 -0.0548312 0.10318639 0.17413186 -0.050810315 0.21108416 0.046506453 0.16825995 -0.3145457 -0.020179281 0.22218512 -0.042783383 0.2379254 -0.01345912 0.00022835738 -0.03722522 0.018298235 -0.088540174 0.11209297 -0.06984171 -0.063307084 0.13676365 -0.07098875 0.02845181 -0.059138514 -0.1256524 -0.037208352 0.051349893 0.21789038 0.037182633 0.026599545 -0.40994942 0.09852587 -0.017742382 -0.08767982 -0.14545871
C1532737 0.17671187 -0.116945416 0.036987394 0.25247383 0.35922703 -0.08703036 0.13630544 0.0069121346 -0.49822125 0.32468033 0.44692135 -0.29410094 0.090420656 0.12724832 0.10540802 0.034742333 -0.43809605 0.17036077 0.024310406 0.5032395 -0.15769535 0.11412686 0.050328698 0.2737551 -0.04741004 -0.074122146 -0.053374987 0.09105158 0.38756654 -0.043699343 -0.19070731 -0.1196008 -0.25254038 -0.25423783 0.14646523 -0.14560632 0.43900123 0.3403083 0.20472834 0.25298017 -0.032327525 0.53961533 -0.05827729 -0.12011842 0.052604567 0.154917 0.40749487 -0.044924498 -0.106354535 0.66168827 -0.1284093 -0.043980412 0.05971066 -0.6491003 0.20589846 -0.053232457 -0.17708471 0.1546224 -0.35078394 0.6793125 0.09314969 -0.29991955 -0.019679178 0.20217602 -0.21946687 0.19734259 -0.09851718 0.019354006 -0.16851707 0.2897637 -0.1466894 0.49897373 -0.050188456 -0.43557274 0.03577327 0.11371866 0.35421222 0.26845878 -0.20956597 0.2544146 0.17187405 -0.3298645 0.23450464 0.09017983 0.4870544 -0.2597514 0.07196933 0.3687681 0.16678178 0.11048738 -0.052058246 0.2566984 0.47409448 -0.17032947 -0.042161833 -0.055255186 0.0068516117 -0.18663715 -0.04043692 -0.03162144
C0076275 0.49274594 0.12496412 0.37359682 -0.063209355 0.3508274 0.10287685 -0.08634374 0.44423386 -0.48647854 0.18023965 -0.10846592 0.033194423 0.0032289936 0.003825653 0.15180941 0.12903863 -0.21165945 -0.070535295 0.19267963 0.4157157 0.0014843788 -0.09395189 -0.12119725 -0.2755904 0.15009892 0.13164686 0.06638996 0.3357951 0.507726 -0.39812666 -0.13783816 -0.10618228 -0.14079498 0.07101838 0.060417477 -0.12907974 0.42642882 0.44761008 -0.37863404 0.14943632 -0.068162225 0.0323368 -0.03195763 -0.107394345 0.107938275 0.14991541 0.19144136 -0.118013516 0.065772146 0.14404635 0.017226556 0.30280626 0.054814532 -0.1266544 -0.06368608 -0.026730433 -0.15048297 -0.24983259 0.009405516 0.19231899 0.16229436 0.07565442 0.3468828 0.017166872 -0.03478004 0.045858484 -0.14668752 0.07699993 -0.22282343 0.011060892 0.22544031 -0.19510813 -0.19398375 -0.17828909 0.0919074 0.14550476 0.6908477 0.15605274 0.21079677 0.057737295 0.08410736 0.087222986 0.5609027 -0.06989898 0.05735664 0.19155318 -0.25547096 0.102253914 -0.0732273 -0.08918696 -0.0041670348 0.2803478 0.3547179 -0.098897636 -0.13785625 -0.08875103 0.08947708 -0.048438035 -0.093206644 0.02287059
C0025219 0.05833316 -0.27882487 0.10836247 0.21466711 0.28160882 -0.5368648 -0.20182018 -0.100160286 -0.25573146 0.19241552 0.059573393 0.10030551 0.0772528 -0.12159102 -0.23543213 0.049644727 -0.13750304 -0.12223305 0.16596015 0.2056372 0.008050508 0.30088106 0.10315219 0.2325857 0.0182902 -0.3816517 0.094695486 0.2046825 0.13872609 -0.35341498 -0.08042993 -0.21615456 0.009674293 -0.057266228 -0.07848244 0.0795411 0.123568416 0.12526952 0.21552154 0.080842376 0.07806898 -0.033675026 -0.09466506 -0.05304138 -0.08645481 0.22806723 -0.028703135 -0.251995 0.048157066 -0.25027898 0.11027905 -0.014189797 -0.09477653 -0.20569053 -0.2308674 0.2056348 0.06835664 0.12882224 -0.089683704 0.40317214 0.1507826 -0.088502705 0.16337524 0.11389918 0.059036966 0.051149856 0.36960378 0.067277804 -0.17833744 0.017959066 -0.33269072 0.012192042 -0.33973 -0.17912008 0.5166811 -0.14244121 -0.14249651 0.20067725 -0.30188024 -0.020885374 0.08043095 -0.47380906 0.024352588 -0.07694498 -0.0010439575 -0.24185632 -0.1013807 0.064162664 -0.25014374 -0.051755857 -0.03362026 0.040434163 0.088620566 0.0077942186 -0.03749851 -0.047166172 -0.20556468 0.028193371 -0.3802866 0.22489163
C0027996 0.24975303 -0.23792887 0.015224805 -0.13420676 0.25071073 -0.16725874 0.1352093 0.26031256 -0.22733651 0.66570425 0.06429335 0.054709338 -0.00042579786 0.0029306908 0.024213681 -0.07571881 -0.28428987 -0.01369731 0.19173793 0.19674546 -0.29844284 -0.10383122 -0.07883639 0.19715634 0.10045236 0.3624346 0.04287927 -0.0005073775 0.20864555 -0.013038134 -0.093698 -0.28145248 -0.30395865 -0.16222385 -0.23969525 -0.22231086 0.31969616 0.47192916 -0.09942454 -0.18396322 -0.010368359 0.13957988 -0.5442716 -0.3673082 -0.47359285 0.032472968 -0.106687576 -0.18107821 -0.08717164 -0.011244606 -0.2797115 0.14134905 0.04739581 -0.18458422 0.06267203 -0.12705757 -0.40380824 -0.14932737 -0.25223318 0.5278925 0.20592265 -0.016661078 0.13326766 -0.015504189 0.05758288 0.0021152804 -0.03141915 0.14558852 -0.047166675 0.029738143 -0.102709346 0.16814485 -0.16188782 -0.27633086 -0.08317151 -0.0037060026 0.47050792 -0.024948504 -0.036671024 0.1509456 -0.21728453 -0.026617173 0.063052654 -0.116331816 0.048131578 -0.0134075545 -0.10110776 0.20540199 -0.060412485 -0.16030163 -0.06093147 0.12847394 0.5070713 0.34272957 0.13013273 -0.14419836 0.06298919 -0.14297636 -0.0053213574 -0.24146247
C0288171 0.56659466 0.1281457 0.031860903 0.18994188 0.094039656 -0.14067245 0.36142582 0.052379675 -0.6192657 0.08225408 0.02140605 -0.04270657 -0.01378732 0.072141565 0.14247297 -0.03171962 -0.20936757 0.096557505 -0.108466975 -0.085652195 -0.12368075 -0.03972715 -0.13077573 -0.14295003 -0.16378832 -0.09925157 0.39499086 0.029689549 -0.10086694 -0.16781066 -0.28311628 -0.08684488 -0.21480368 -0.07369592 0.5447536 -0.15725397 0.39138842 0.39805636 -0.07665538 0.17999557 -0.14339748 0.22155677 -0.23684883 -0.035380572 -0.04291947 -0.0133490125 0.1821124 -0.0011571988 -0.121306 0.24124385 -0.16284391 0.27495447 -0.031985547 -0.04667774 0.20977546 0.25311092 -0.2172723 -0.110152595 0.08463255 0.2433657 0.19602975 0.05982592 0.14753768 0.14125215 -0.019583112 0.044380326 -0.11643168 0.11387781 -0.07670914 0.045722984 -0.3663089 0.24860935 -0.47696352 -0.1670115 -0.047948282 -0.061136324 0.5677802 0.24697402 -0.085218936 0.21449631 0.006646655 -0.14428812 -0.1358613 -0.35828245 0.04938824 -0.028914908 0.02424833 0.25201625 -0.013781655 -0.26016113 -0.15145117 0.08124288 0.113154985 0.04638944 0.23125125 -0.21273005 -0.013450986 0.15163586 -0.3000153 0.007600864
C0009079 0.012305416 -0.12248288 0.6449836 -0.10992757 0.14996688 -0.03505175 0.043363698 0.029979058 -0.047653053 0.26421854 0.1285745 -0.28250784 -0.01036872 0.34762248 -0.16999173 -0.21687391 -0.039696157 -0.52738476 -0.05325725 0.19061384 -0.25080657 0.19760975 -0.12726673 0.036530413 -0.23047435 0.063255444 0.27550045 0.025117919 0.075804375 -0.1530172 -0.008497549 -0.24197264 -0.06877078 -0.07817331 0.14782745 -0.10863761 -0.04334771 0.25059462 0.23297164 0.17314528 -0.063017346 0.060064156 0.032727845 -0.027324187 -0.031175843 0.06623557 -0.19643627 -0.30880708 0.12981717 -0.002857148 -0.042162318 0.06304447 -0.097212434 -0.38741037 -0.28890705 -0.10308185 -0.33851856 0.14475112 -0.41770232 0.3641839 0.25219193 0.108948335 -0.0006891158 0.04998383 0.028721817 -0.21182525 0.3584669 0.20728974 -0.13452564 0.057810288 0.3317596 0.014095648 -0.18528253 0.0663492 0.032867678 0.3264482 0.06581991 0.15830958 -0.009144231 0.00666144 0.011141 0.05838653 0.11861306 -0.15577658 -0.14027208 -0.17909056 0.117737494 -0.13977307 -0.18219279 -0.29244816 0.15549125 -0.06267311 0.040771525 -0.03191839 0.23848465 0.20829403 -0.118939064 -0.357681 -0.18512577 0.22592284
C0021186 0.37017724 -0.08874164 -0.05847208 0.075026095 0.5024588 -0.4045817 0.11249311 0.15430945 -0.47368863 0.19919065 0.15261903 0.09457687 0.14445327 0.14234121 0.13232476 0.120416395 -0.12411747 0.21298048 0.21318375 0.1158642 -0.007244605 0.45416883 0.065874 0.17319643 -0.039497413 0.03125233 0.55997217 -0.111175716 0.5850544 0.15980907 0.039381765 -0.18428837 0.14427306 0.06838972 0.11710609 -0.35335392 0.40233567 0.6393086 -0.07831419 0.374578 -0.079617396 0.08323192 -0.3971794 0.17706326 -0.23963697 0.12974483 -0.23755033 -0.056268312 -0.26483855 0.45308512 -0.2375346 0.20154642 0.06217413 0.0046755006 -0.16327927 0.19746228 -0.6455699 0.0047468576 -0.26027146 0.045870785 0.37316266 0.12531306 0.06760636 0.22457063 0.12580177 0.07401049 -0.1420193 0.58111364 -0.22202012 0.22381705 0.003776944 -0.16441646 -0.34605625 -0.23705766 0.19901422 0.11653166 0.54155207 -0.022389188 -0.069953345 0.41896448 0.392655 0.08671982 -0.16607668 0.08704044 0.0055408245 0.04466382 -0.20925267 0.21587491 0.26112267 -0.3392287 -0.3277942 0.2138044 0.58768994 0.18764241 0.025981694 -0.16366383 0.03597269 0.10896447 -0.23186219 0.30206248
C0039601 0.27610943 -0.055527516 0.086550556 -0.03927034 0.09995549 0.06079543 0.09929412 0.35714242 -0.36833513 0.15970717 -0.14346492 0.012894601 0.0274076 -0.042793583 0.0630031 -0.1998486 -0.004989968 0.06783747 0.026704546 0.22724265 -0.055707306 -0.15884171 -0.14354353 0.21503285 -0.41388714 -0.17893977 0.2906083 0.20061144 0.21831284 -0.20294449 -0.078964286 0.021307232 -0.14839941 -0.0015786622 -0.12287596 -0.25552619 0.5421232 0.07802113 0.009389319 0.25687173 0.10163001 -0.026823265 -0.10420946 -0.04329961 0.16056085 -0.032712504 0.03687377 0.04861566 0.05207484 -0.13600141 -0.09380195 0.13783683 0.11709943 -0.07327971 0.07547196 0.056760374 -0.11312652 0.01745479 -0.22329086 0.12114536 0.17382757 -0.3477679 0.20718613 0.104549356 -0.03151501 -0.11451019 0.07798343 0.0800407 0.08928342 0.15081167 0.113390066 -0.25020757 -0.28322634 -0.2235785 0.14396892 0.08725576 0.48696494 0.11652199 0.0043341476 -0.21116532 -0.06221109 -0.06945624 0.26602462 0.24515176 -0.031028025 0.14140196 -0.2222569 -0.033200774 -0.09506029 -0.1548513 -0.08397869 -0.4700317 0.1171111 -0.16049823 0.071106836 0.0857486 0.0923358 -0.1977339 -0.17446776 0.3561381
C0039286 0.45868468 0.018502194 0.21201687 0.1842452 0.0818733 0.07797695 -0.060281023 -0.0013034329 -0.34749672 0.27412656 -0.029620577 -0.04607888 -0.30072665 -0.24967472 0.16720092 0.082601584 -0.07030917 -0.5229721 0.11405735 0.09879214 0.1661212 -0.05710823 -0.30056348 -0.5314068 0.23164673 -0.02047636 0.1683856 0.19431114 -0.15593395 -0.41731724 -0.20428483 -0.12383906 -0.28240934 0.28743112 -0.13113797 -0.19058706 0.24177897 0.37506798 -0.23217985 0.23540285 -0.016597195 0.21839717 -0.48558143 -0.27092212 0.18825848 0.041848253 -0.12216921 0.2006398 -0.25336984 0.33278626 0.2440594 0.28593066 -0.18363802 -0.16734976 -0.14435421 0.19090506 -0.67207676 -0.019671923 -0.24945505 0.38170674 0.1351718 -0.19441095 0.08391528 0.285117 0.0015228246 0.047524452 0.03695402 -0.050695468 -0.29320985 -0.22859968 -0.0965711 0.38872257 0.0068776123 -0.063033625 0.11608934 0.075949535 0.06934382 -0.21081476 0.44022378 -0.06872575 -0.09614121 0.13073981 0.38549456 0.31448966 -0.26543784 0.036942553 -0.118854165 0.024076186 0.08014471 -0.15461709 0.15257312 0.107589774 0.49777904 0.27093884 -0.20587052 -0.2696794 0.044134106 -0.38730833 -0.13277355 -0.00057512516
C0008677 0.28668183 -0.13133262 0.10461245 0.09363665 0.005608804 -0.009796531 -0.02119646 -0.05750667 -0.07916797 -0.030123038 0.038737167 -0.15649106 -0.031669002 0.091440104 -0.100323796 0.052262545 -0.04257215 -0.036553327 -0.17720416 0.039117176 0.034087937 0.11634814 0.07012017 0.120046176 -0.33415022 -0.011282342 -0.059935126 -0.06698979 0.080933854 -0.22391164 0.049497765 0.03840597 -0.084007084 0.14783883 0.0028395301 -0.1595555 0.11699285 0.28236502 0.099915996 -0.017155081 0.018628974 -0.06005436 -0.057295628 -0.059505362 -0.06724724 0.13126805 -0.041432407 -0.13494842 0.13052718 -0.17862971 0.1905302 -0.030549672 -0.043225568 -0.08532056 0.087773256 -0.07165862 -0.02206465 -0.1270953 -0.20662405 -0.07550952 0.24718854 -0.11442861 0.17963384 0.27420825 -0.050272387 -0.0003825974 0.109184936 -0.057065323 -0.054562733 0.04392234 -0.22093762 0.006492614 -0.18738611 0.0125801535 0.061699707 -0.035963003 0.19845034 0.09968501 -0.21626067 -0.0977007 -0.051753283 0.05912274 0.0032187814 0.09308057 0.051030148 -0.16322255 0.10407873 0.062420826 -0.025381152 -0.14709184 0.3042899 0.089309245 0.11570309 0.07607325 0.22188906 -0.13397661 0.23141576 -0.077488884 -0.14931104 0.07207965
C0054066 0.46485478 -0.07112325 -0.24912523 -0.32083473 -0.12538512 0.22557633 0.16757575 -0.052649315 0.047989536 -0.22869806 0.110419005 0.24343751 -0.1304938 0.19693983 -0.074444875 -0.050166298 -0.27367666 -0.16211255 -0.32327336 0.36813146 0.055155884 0.07913592 0.11221032 -0.2802575 0.10593479 -0.68806624 -0.22868803 0.17913336 0.017641425 -0.37591672 0.20070735 0.0669517 0.17473362 0.26226947 -0.06906631 -0.35875696 -0.011247084 -0.0009388824 0.2219284 -0.31971562 0.0687123 -0.044325583 0.069512166 -0.05975942 -0.07750642 0.14959952 0.043681327 -0.012352471 0.04914258 0.20444892 0.436131 -0.30153558 0.017584082 0.11167666 -0.05711816 0.11903542 -0.1013311 -0.18436573 -0.41519856 -0.010996376 0.19519466 -0.26478285 0.15057445 -0.12679319 -0.18963067 -0.094779566 -0.36449626 0.1688399 0.10319687 -0.24708664 -0.08903282 -0.026669383 -0.5467216 -0.19604567 0.2074025 0.06562226 0.17858452 -0.10342303 -0.10914816 -0.032667354 -0.0748173 0.175483 -0.25812837 -0.06409605 0.0035859926 -0.049163483 0.17736953 0.26925275 0.1638716 0.01402133 0.5602562 0.0649188 0.5226421 0.19983521 0.3784136 0.085064285 0.39400578 -0.18965182 0.07587403 -0.07826564
C0052796 0.026180414 -0.12911579 -0.022733375 -0.12973075 0.13661872 0.18998414 0.22818452 0.20273188 -0.034921076 -0.046597358 -0.15047066 0.12838995 -0.28423187 0.17645445 -0.23853137 -0.3786384 -0.2485192 -0.019609762 -0.12090387 0.26992843 0.077521786 -0.008060841 0.029816339 -0.26130852 0.036500033 -0.47127196 -0.14775598 -0.14065145 0.104470044 -0.19530304 0.23995127 0.38043448 0.35925084 0.20412846 -0.034154978 -0.41005382 0.17049183 0.0019527695 0.17122418 -0.016963627 -0.18852283 -0.3176492 0.4099915 0.008438808 -0.0038444868 -0.052888986 -0.16953544 -0.32384148 -0.02494791 -0.07583916 0.1818525 0.15068372 0.45120087 0.09484653 0.092135616 -0.047060385 0.074100725 -0.21250482 -0.23768452 0.07852114 0.1121645 -0.06271062 0.14493687 0.18861482 -0.05668757 0.069602475 -0.043599553 -0.069147974 -0.11405842 -0.21860616 -0.16255672 -0.04088487 -0.41043767 -0.114749655 0.09847926 0.10494417 0.4074066 -0.12396679 -0.33451688 0.07964632 0.07288933 0.23018412 -0.00040346137 -0.20546614 0.2438766 -0.21144229 -0.03096716 0.27324712 -0.019777462 0.11201486 0.18239912 0.15757571 0.6646552 0.19238138 0.28737822 0.08983005 0.13672061 -0.26598284 0.087224275 -0.13382214
C0533545 0.4767663 -0.19850479 0.03279456 0.0520687 -0.11900161 0.0150883235 0.013821249 -0.19634898 0.10143312 -0.055412095 -0.16442662 -0.20711738 -0.24472244 0.0528165 -0.25077984 -0.04676359 -0.064764485 0.3995736 -0.3546886 0.08273503 0.2303815 0.11136884 0.14328577 -0.006906921 -0.34436658 0.062170096 -0.07604164 -0.14237823 0.1561363 -0.30781814 0.30561095 0.18038663 -0.3069578 0.09353054 0.08619089 -0.11632319 0.30433425 0.5347662 -0.081511796 -0.21344697 0.04657829 -0.072025806 -0.29898223 0.063801005 -0.07216186 0.11912798 0.25788322 -0.1457831 0.08283498 -0.033889025 0.46214128 -0.2170006 0.13869786 -0.0094827935 -0.38819814 -0.17100339 -0.14764613 -0.12521863 -0.051786948 -0.13058388 0.00096657267 -0.23828737 -0.039793786 0.4887742 -0.20215002 0.010666149 -0.1509049 -0.14619854 0.037241034 0.008631928 0.14739895 -0.22321975 -0.1971976 -0.4255173 0.31621107 0.019095456 0.6367173 -0.20081691 -0.17776151 0.11308684 -0.39630562 -0.031926032 -0.24190289 -0.25262672 0.12008038 -0.49954003 0.29428932 -0.0290263 -0.3064695 0.0067425184 0.64623946 0.3813549 0.38376436 -0.09326011 0.23282994 -0.11086522 0.25310993 -0.3045504 0.009748789 0.117904276
C0907410 0.13839938 -0.16524708 -0.13639796 0.105258234 -0.37633997 0.12056749 0.41980383 -0.18124238 0.27263573 0.0069815535 0.07652496 -0.03484417 -0.20665522 0.22078991 -0.049697395 -0.0016798865 -0.023699906 -0.091394275 -0.4367565 0.22709538 0.04184357 -0.1259395 -0.21914682 -0.04168054 -0.32456166 -0.22379905 -0.17837511 0.1354392 -0.1507861 -0.262849 -0.059824094 -0.09511746 0.08640167 0.21923493 0.10516727 -0.25995028 0.12931441 0.40612644 0.08531738 -0.19077298 -0.18846123 -0.053892877 -0.24692596 0.007963058 -0.18815158 0.0016214459 -0.20710775 -0.25829437 0.067073226 0.03301413 0.4028011 -0.07894683 -0.07631857 0.23475936 -0.4905312 0.19629538 -0.045501053 -0.10031986 -0.34583429 -0.00034525996 -0.13182335 -0.11039784 -0.054217555 0.10916266 -0.19220464 0.003998203 -0.40728962 -0.01682048 0.037658814 0.06880604 -0.398828 -0.09719708 -0.39998782 -0.28532967 0.28518337 -0.5258481 0.36647457 -0.24852599 -0.13894174 0.06684633 -0.13011055 0.1963828 -0.18754229 -0.1707162 0.40848047 -0.15242 0.38377932 0.038683202 -0.057056583 0.049969427 0.5955313 0.15086266 0.4894567 0.07769915 0.23940964 -0.31598595 -0.04020516 -0.19742244 0.035036266 -0.06671005
C0053882 0.8718438 0.28109527 -0.26085553 -0.38557148 -0.0091880215 0.23141757 -0.045792516 -0.13515909 -0.2711191 -0.2605716 -0.21632421 -0.23221049 -0.21276052 0.40819985 -0.33896273 -0.2904992 -0.39075944 -0.23470703 -0.72908413 0.2813566 0.34406188 -0.11727716 0.08075666 -0.6782231 -0.06112854 -0.37907195 -0.37392506 0.10931872 0.11711304 -0.29294494 0.1045892 0.13378426 -0.37296307 0.554365 -0.13022837 -0.010923045 0.24614719 -0.08016942 0.53282666 -0.5723837 0.05263831 -0.29992348 0.48075086 0.14595087 0.2872053 0.33223692 0.119334936 -0.22447127 0.14002295 0.0838521 0.3639942 -0.42936713 -0.05587884 -0.08676186 0.16263728 0.21576788 0.081649475 -0.05224819 -0.65949196 -0.25923106 0.5655749 -0.33199945 0.004110691 0.2394887 0.2675367 0.19070393 -0.6993263 0.099512726 0.30797717 -0.028804567 0.09883511 0.02239641 -0.44932836 -0.33613774 0.54702556 -0.23442815 0.30495113 -0.21619202 -0.13846229 -0.19821425 -0.06084834 0.08799198 -0.48753178 -0.46408656 0.016640656 -0.2068927 0.04115854 0.2024319 0.1887741 0.06669806 0.31662026 0.19081426 0.7073559 0.0082284985 0.10756129 0.2288367 0.6266057 -0.1980298 -0.091127925 -0.02588792
C0753645 0.37318787 -0.104923025 -0.20148897 -0.21439426 -0.09665843 0.20302412 0.30268183 -0.2171062 -0.13413712 0.00070858654 -0.11129351 -0.14529543 -0.12015041 0.5896183 -0.08046603 0.04681942 -0.1858918 -0.039577372 -0.247525 0.5752714 0.13444884 0.14195372 0.23080589 -0.31252846 -0.044230264 -0.33829919 -0.23060703 0.17831454 -0.24957362 -0.23597778 0.28110766 0.20221135 -0.24707995 0.25011307 0.02705234 -0.1977402 0.00031212848 -0.07614955 0.23604752 -0.3457637 -0.05451725 -0.29274198 -0.19523011 0.085613504 -0.16395445 -0.23921163 0.38103813 -0.28753266 0.1384668 0.33708546 0.30400038 0.081671365 0.1628659 0.01725192 -0.37948704 0.08773229 0.10884432 0.051749695 -0.19800733 -0.0036374535 0.34322885 -0.30810374 -0.116086274 0.1229549 -0.24617848 0.1825971 -0.046666063 0.0027227371 0.068467624 -0.22557981 -0.018630289 -0.2170185 -0.18571045 -0.16713583 0.29862502 -0.03027964 0.04784755 -0.11969607 -0.23207766 -0.054210458 -0.23326886 0.163181 -0.0067644618 -0.34134242 0.44255286 -0.37847158 0.22120684 0.26704776 -0.08297401 0.16920309 0.49436653 0.59364265 0.6676526 0.15932366 0.44710225 0.11184008 0.17297995 -0.32790342 -0.020898188 0.037230603
C0055856 0.34811383 0.016604565 -0.057851397 -0.25809255 0.00717907 0.2957647 0.2990676 0.19585407 0.29118317 -0.18195434 0.013436907 -0.002372967 -0.09287293 0.025205595 -0.26081896 -0.02456164 -0.43103218 -0.27889526 -0.16799298 0.27004147 0.15526603 0.056292247 -0.07865261 0.026224865 -0.2312859 -0.2463752 -0.30480394 0.049020953 -0.23828143 -0.076519 -0.029928405 -0.042027965 0.19168164 -0.18562992 0.025314096 -0.6237051 0.5527562 -0.06801539 0.2916701 0.1070484 0.0025034843 -0.09848704 -0.0020998542 0.27418733 -0.13799253 0.103632435 -0.23516564 -0.17938894 0.087296166 0.089524105 0.13890293 -0.10237483 0.0813177 0.07649413 0.12685943 0.12878287 0.03238612 -0.1274337 -0.4601989 0.03812917 -0.07140136 -0.12509622 0.28247032 0.16528636 -0.025490118 -0.020428935 -0.1886009 -0.19633794 -0.27333897 -0.18792267 -0.1076603 -0.1631462 0.063283026 -0.20270996 0.19079266 -0.12316109 0.34062922 -0.0037893876 -0.14792733 0.12249432 0.020635052 0.30189756 -0.2112344 -0.056126256 0.036329947 -0.16835849 0.38872218 0.1730235 0.07311547 -0.055323567 0.32834658 0.28055054 0.57143015 0.0031137078 0.24806185 0.0027575486 0.24393933 -0.18199411 -0.06632138 -0.14485782
C0282386 0.4550476 0.06126169 0.07940656 -0.3221915 -0.03981839 0.08811484 -0.07364375 -0.1521167 0.18360545 -0.24927641 0.075795695 0.14635037 -0.46399686 0.18545717 0.33388233 -0.09995961 -0.48921496 -0.016862655 -0.38008347 0.15246646 0.25389612 0.038223933 0.0077034654 -0.14828382 -0.17373085 -0.4343276 -0.15149392 0.4375774 0.15611064 -0.28345007 0.35865676 0.18054208 0.2569753 0.14137948 0.13939658 0.14707558 0.2642043 0.29864046 -0.0032018381 -0.49742058 0.30115038 -0.19897701 -0.36669642 0.32925105 -0.11661054 -0.047096774 0.20835659 -0.23275949 -0.067018725 -0.08122194 0.17294826 0.104381174 -0.07640941 0.052933797 -0.063702874 0.34471735 0.05890799 0.0055502453 -0.13529077 -0.043580644 -0.14854355 0.036868423 0.040647548 -0.06637814 0.1830198 -0.060906976 -0.0021600884 -0.32640275 0.14197655 -0.34913912 -0.17295663 -0.03777048 -0.54097104 -0.06503055 0.17604035 0.2647728 0.3262993 -0.27489698 -0.28415886 -0.41267872 -0.28365597 0.15417534 -0.078488916 -0.15753323 0.31617004 -0.4266625 0.17832777 0.5019628 0.24182107 -0.14623567 0.36269292 0.18137838 0.60062903 0.016788613 0.2081353 0.29827046 0.3493158 -0.475021 0.123232394 0.0052097016
C0536495 0.038934 0.051970977 -0.22677818 -0.23427264 0.007950835 0.27414316 0.18519375 -0.14784734 0.2766714 0.03126246 0.23082475 0.12299003 -0.13792038 0.2522095 -0.08271439 0.06303407 -0.34990746 -0.01447289 -0.34244978 0.3578004 0.13308074 -0.040239967 -0.21532753 -0.10834082 -0.27767143 -0.6205739 -0.37112755 0.393077 -0.3832186 -0.3254218 0.2339727 0.12932587 0.24162516 0.29041776 0.32947484 -0.55822176 0.17515267 -0.030971155 -0.045797635 -0.38477796 0.063974865 0.1081842 -0.3873097 -0.048857924 -0.23585472 0.018258978 -0.16281933 -0.14826769 -0.06617351 -0.3037061 0.74678314 -0.13726905 0.12667026 0.23360993 -0.32970366 0.094092466 -0.010743054 -0.13547371 -0.3966822 -0.09959175 0.018013118 -0.07973252 -0.4504594 0.09229767 -0.51485723 -0.18129474 0.13784093 -0.23890774 -0.013381256 -0.08960708 -0.27445927 -0.30323532 -0.5515198 -0.10006877 0.30034226 0.23810689 0.16716656 -0.03628501 -0.12658931 0.16513766 -0.113787435 0.0832585 0.04692395 -0.18035659 0.13326812 -0.16665895 0.45562834 0.40185335 -0.009300866 -0.16900563 0.46556503 0.22328508 0.4956348 0.02684068 0.24298546 -0.123210445 0.04240005 -0.3441569 -0.034348797 0.006992884
C0110038 0.44214535 -0.22252549 -0.2402689 0.009911824 -0.17575745 0.025187245 0.15982783 -0.08531411 0.07936852 -0.37983048 -0.25075504 -0.3212966 -0.080122694 0.43449163 -0.08786764 0.16444445 0.012577919 -0.08438656 -0.57504404 0.3008032 0.12000925 -0.07207576 0.039964933 -0.22998178 -0.29831818 -0.6242459 0.0052676294 0.2185594 0.119524606 -0.24887392 -0.21286133 0.13013275 -0.108619824 0.3375892 -0.05657935 -0.43913865 -0.020371296 -0.06152425 -0.008829647 -0.22660251 -0.17225014 -0.49652964 0.2508393 -0.17791487 -0.0063401107 -0.05568722 0.26652876 -0.18542118 0.1212683 0.3104441 0.33437696 -0.06366187 -0.52651465 0.11684798 -0.15820384 0.30417746 0.16087931 0.02340702 -0.24995424 0.28805488 -0.3776983 -0.24760593 0.17955662 -0.09363566 -0.2549237 -0.1375118 0.22211201 0.31285498 -0.11064075 -0.04282601 -0.17998706 -0.036484808 -0.26136604 0.048236262 0.17180365 -0.08682085 0.31746063 -0.033352904 -0.06751191 -0.45542464 -0.044862423 0.19426022 0.041502044 -0.15218721 0.48365462 -0.15949228 0.18880707 0.09844908 -0.26553187 0.15689927 0.29535586 0.31638747 0.60121655 0.35786214 0.5495865 -0.29736304 0.47551447 -0.12705001 0.12308738 0.029805956
C0003232 0.1829041 -0.08746556 -0.27734497 0.001497913 -0.15087159 0.10832674 0.23620456 0.044853695 0.015417858 -0.018162765 0.13596652 -0.11531925 -0.13601448 0.35572895 -0.065385886 -0.12639666 -0.42299423 -0.023891732 0.23665248 0.01968361 0.020813804 0.03451683 0.0934718 -0.01778609 0.13007468 -0.46188015 -0.041014757 -0.15702817 0.053829562 -0.2396663 0.14623588 -0.0017177347 0.20877005 -0.05277661 0.10278026 -0.41805688 0.1857904 -0.1036302 0.024337377 0.15901932 0.21503098 -0.22139025 0.10800198 0.07298834 -0.07180887 0.048748806 -0.23011118 -0.08152461 0.09499509 0.061891396 0.3611028 0.16289735 0.1916323 0.015352467 0.02069088 0.042355694 0.32000592 -0.21500385 -0.24709623 0.4334418 0.0025362223 -0.35332504 0.21610041 0.1870454 -0.023077374 0.08501981 -0.16366294 -0.11644984 -0.09853797 -0.27493674 -0.08109995 -0.09384443 -0.29966748 0.13690388 0.022944584 0.09456996 0.3111292 0.10877775 -0.11409799 0.12442777 -0.116670094 0.17427507 -0.1661994 -0.29363853 0.21713892 0.028787745 -0.3077033 0.13699926 -0.14658476 0.018472759 0.4031335 0.113692544 0.41012567 0.15701006 0.27815115 -0.07621152 0.115661316 -0.269545 0.03289412 -0.010845057
C0021311 0.08055682 0.05227572 0.0411406 -0.050754476 0.041055627 0.017431444 0.0403995 0.077215075 0.117331095 0.2804674 0.15404332 0.039461598 -0.1299923 0.19894466 0.1108203 0.007079882 -0.022330616 -0.24478228 -0.048768587 0.48402148 -0.04784114 0.06057036 -0.16256683 -0.4226652 -0.014508352 -0.34249783 0.03778816 0.04487847 -0.14508843 -0.062421385 0.525112 0.24078389 -0.118171126 0.19537362 0.11778081 -0.34142998 -0.1345316 -0.10449312 -0.01799101 -0.21507522 0.3953032 -0.04223678 -0.20927241 0.079537585 -0.17161527 -0.113836914 -0.030767022 -0.5377005 0.18206812 0.2657838 0.28674904 0.112293035 0.26597238 0.39763558 -0.33899677 -0.16672792 0.23823646 -0.16987889 -0.16644602 -0.070358254 -0.02036382 -0.28830186 0.33825433 -0.007349799 -0.0034374304 -0.02623757 -0.4706085 -0.23737077 0.44674718 0.12039917 -0.3426902 0.27615613 -0.5636426 -0.015199486 0.048574958 -0.3349235 0.00833177 -0.059176404 -0.40878528 -0.12436363 -0.01066521 0.20919545 -0.11730535 -0.20251887 0.05392134 0.06846973 -0.18818879 0.51310146 -0.08002442 -0.25133887 0.17422187 0.18506514 0.4810863 -0.27088115 -0.12963553 0.33436257 -0.12708062 -0.18549946 -0.18924102 -0.14138848
C0008196 0.42698804 0.3161206 -0.26062694 -0.10058068 -0.24582528 0.03644377 0.15988724 -0.067740336 0.028233374 0.04832452 0.35538492 0.005281243 0.07135126 -0.06752648 -0.1435356 -0.24296878 -0.31816247 0.37059423 0.082628116 0.19036986 -0.3873394 -0.04344825 0.015075627 0.13930662 0.33503675 -0.050992664 -0.3633594 -0.2421697 0.12714449 -0.28544354 0.366015 0.62999916 0.12615699 0.2011873 0.0013737575 -0.23616338 -0.088781886 0.29104346 0.13144252 -0.22437938 -0.17752524 -0.32745114 -0.035119325 0.3747944 -0.08032329 0.2274156 0.15513492 -0.1329342 0.3169405 0.18826962 -0.050296422 0.41590446 0.26436335 0.25338766 -0.45905024 -0.032728016 -0.3416776 0.035955377 -0.17672043 0.20147954 0.34677765 -0.5533626 0.39875808 -0.0048919953 -0.13917075 -0.2207866 -0.1642872 -0.15925811 0.29372594 -0.12570588 -0.2857102 0.23819406 -0.27619866 -0.14782263 0.029960707 -0.20537655 -0.05002199 0.28792346 -0.31958997 -0.0705374 -0.107615 0.12735374 -0.45886698 0.047069505 0.0063796826 -0.069255926 -0.07355964 -0.07445027 -0.15644114 -0.028462986 0.36815032 0.25673804 0.27220666 -0.16424933 -0.31416517 0.07337974 0.08079995 -0.2529085 -0.003975934 -0.107023716
C0002645 0.32801047 -0.03580646 -0.10490564 -0.41296977 -0.3675248 0.05664934 0.25917727 0.036488388 0.2435657 -0.23538457 0.030677611 0.09537526 -0.0654817 0.1202905 -0.21357921 0.11927938 -0.37276822 -0.0057543493 -0.26308984 0.4586303 0.07492448 0.14282613 -0.26446298 -0.09195923 -0.1748565 -0.298736 -0.355251 0.15534332 0.029573673 -0.25357008 0.078292 0.048040748 0.055041965 0.11089632 -0.084028356 -0.7271063 0.23104316 -0.08230079 0.2784689 -0.0312994 0.20715621 -0.3079882 0.24051233 0.077410005 -0.12445429 0.16930021 -0.18401352 0.014396239 0.15993774 0.44979995 0.30885983 -0.11305384 -0.1907961 0.2238894 -0.0051248884 0.19678591 -0.087814055 -0.21450047 -0.2008922 0.078599215 0.0054680402 -0.21550292 0.43509248 -0.1728759 -0.22626297 -0.024905661 -0.18974717 0.0018321555 -0.019753378 -0.33254293 -0.2008572 -0.016785925 -0.16948292 -0.14348486 0.06755812 -0.018904284 0.19368413 0.010699524 -0.04402821 -0.007966666 0.05074224 0.0686238 -0.062028036 -0.20697847 0.032073352 -0.07586343 0.1860297 0.169331 -0.11619394 -0.0616419 0.3201213 0.12595034 0.60055494 0.14801532 0.29200807 0.21087866 0.46945012 -0.122512884 0.10576437 -0.16691862
C0007561 0.28114656 -0.025388988 -0.077160195 -0.13965665 -0.03851704 0.25929126 0.19853076 -0.017153386 0.011334335 -0.133012 -0.04261752 0.06026058 -0.17199971 0.35832903 -0.10896849 0.08412899 -0.24765134 -0.0571833 -0.042372793 0.2840527 -0.10756547 0.24960507 0.019112661 -0.13935162 0.090091065 -0.27628815 -0.31169188 0.28672823 -0.056235928 -0.15074618 0.04237849 0.10657276 -0.09498949 0.6185755 0.092579804 -0.02329276 0.14335573 0.037581995 0.0809666 -0.05878649 0.10501343 -0.4632859 0.18763128 -0.211968 -0.21169807 -0.33970773 0.025272356 -0.2375306 0.17758301 0.4774463 0.39730635 0.08147127 0.3513625 -0.016817247 -0.41369787 -0.17094763 -0.083789304 0.035237685 -0.29840603 0.2366067 0.5257765 -0.13253926 0.11415845 -0.19042796 0.10280415 -0.0385862 -0.7153253 0.10291466 -0.020839404 -0.09714272 -0.13682541 -0.05335408 -0.5033115 -0.16941267 0.19829933 0.043606397 0.16477554 -0.025553197 -0.13517313 0.11664274 0.100714974 0.008615562 -0.2999755 -0.07378222 0.20567535 -0.16939636 -0.09662398 0.17607129 -0.07278967 0.19068307 0.4567742 0.1957456 0.469029 0.034905553 0.3411813 0.28657565 0.21092328 -0.50304055 0.10573344 -0.020835185
C0016277 0.12700887 -0.37397853 -0.36285406 -0.081130646 0.076290615 -0.11493622 -0.17440067 0.4326033 -0.12590414 0.30961704 0.07363729 -0.11990393 -0.08095031 0.36642003 0.4466852 0.33113545 0.094344296 -0.47906074 -0.10610334 0.10939639 -0.5627184 -0.073218495 0.01602012 0.1754451 -0.15900321 -0.37637162 -0.24993362 0.20375602 -0.23031032 -0.07184097 0.70193297 -0.21218143 -0.5826387 -0.18104196 -0.29270446 -0.09603462 0.10074293 0.052666742 -0.050386883 -0.022454537 0.3498881 0.25242814 0.18056001 -0.20268309 0.06577444 -0.13565508 0.33911294 -0.1277088 0.31377286 0.08950039 0.027699959 0.46660033 0.4780761 0.23622163 -0.5825276 0.029945532 -0.07383619 0.0075387303 -0.12984012 0.22145295 -0.2143718 -0.26650736 0.22241485 -0.010811049 0.21264848 0.06554605 -0.50452596 -0.26229036 0.22860208 0.27048314 -0.76101995 -0.15581669 0.0075814417 -0.4082351 0.022062395 -0.47448733 0.12643218 0.44258395 -0.1765022 -0.10465938 0.3224876 0.389665 0.015168341 -0.26911744 0.11067135 0.18440275 -0.06376286 0.5627486 0.25964555 -0.29365414 -0.15791543 0.016436039 0.32858655 0.17882514 0.1431899 0.4887647 -0.096965 -0.29601005 -0.3576315 0.20374112
C0001617 0.22357841 0.040396884 -0.12820463 0.23478004 0.054640517 0.060709517 0.34200728 0.25524852 0.15041785 -0.016748251 0.061727412 -0.07082284 0.034984116 0.2190603 -0.06000148 -0.11887807 -0.25034156 -0.041258246 0.20864385 -0.14645381 0.09996694 0.24639994 0.16941617 0.20711568 -0.31810474 -0.13754995 -0.12971929 0.07973134 0.032777827 -0.09808289 -0.16801319 -0.17214678 -0.18891801 0.03438053 -0.17688534 0.03651011 -0.008311769 -0.2527566 0.2524174 0.20384467 -0.07392474 -0.045600172 -0.1376358 0.011067753 -0.19991516 0.10546723 -0.16666971 0.05901081 -0.088533394 0.061759375 0.23677403 0.09817904 0.038474176 -0.00088086317 -0.02941912 -0.27811894 -0.13939661 -0.011356797 -0.41179463 -0.10986938 0.039137546 -0.3742833 0.36285213 0.26911652 -0.23788367 -0.30812225 0.035301253 0.23589195 -0.01527456 -0.06576661 -0.045740865 0.21737868 -0.23733884 -0.069962576 0.013528403 -0.338922 0.09181967 0.1466189 -0.11926794 0.012643901 -0.20506848 0.29373676 -0.016596273 -0.051633425 0.4042077 0.12089207 -0.18006988 0.082763925 -0.32744363 0.15196435 0.051379852 0.10818973 0.24175614 -0.09857169 0.30476287 -0.07737007 0.10225519 0.13029015 0.0716566 0.22846206
C1120106 0.24217848 0.14796534 -0.4135117 -0.39670694 0.10102349 0.4093802 0.019466938 -0.2737384 0.13163994 0.27308276 0.383585 0.045883834 0.06736395 0.11911169 0.15945815 0.23678112 -0.44222125 -0.07838492 -0.0791616 0.0788004 -0.16909993 -0.03168371 0.0025400026 0.024615662 0.3508309 -0.6946879 0.020625196 0.1338428 -0.14273259 -0.55350083 0.32028213 0.27809116 0.1944933 0.37465727 0.13509241 -0.24826345 0.073396474 0.19010486 0.083468504 -0.6940446 0.06220956 0.047412906 -0.57595 0.044086087 -0.13099404 0.078242145 0.28739122 -0.11117223 -0.11443546 -0.018756203 0.5237045 -0.31261802 0.0018055853 0.33264196 -0.30877545 -0.3728883 -0.1153583 0.046806805 -0.5258983 -0.13269904 0.27422106 -0.6674806 -0.17259409 -0.011796374 -0.30855694 -0.41854036 -0.45803657 0.016722556 0.2970435 -0.2691584 -0.29514453 -0.0895854 -0.88417935 0.009413331 0.12342108 0.12951274 0.26169488 -0.09144813 -0.65169305 -0.057599876 -0.075700335 -0.07401376 -0.030031579 -0.17813528 -0.1419429 -0.017473103 -0.02301331 0.44834116 0.015507969 -0.2225138 0.52085346 0.26615325 0.117528655 -0.22158849 0.14146362 0.1679825 0.04021989 -0.33047637 0.01245857 -0.20046668
C0041044 0.5768717 -0.08947582 0.1778489 -0.17868367 -0.14981118 0.05631336 -0.006491316 0.08874518 -0.43495464 0.13759011 -0.10923121 -0.0057912134 -0.13991272 0.02949006 0.1714219 -0.2922058 -0.015342974 -0.11750605 -0.1286699 0.2608534 -0.03018717 0.15255728 -0.12469635 -0.5382016 0.53580254 -0.20817804 -0.04664895 0.025300976 0.08522258 -0.6334832 0.032668985 0.035990294 -0.018270487 0.3039959 0.23165984 0.014524318 0.25754017 0.24984968 0.15041918 -0.42590976 0.07274029 0.003426016 0.24612027 0.029079655 -0.24300554 0.13264604 -0.047793422 -0.06803023 0.0110479025 0.3489878 0.2648528 0.02540893 0.056778412 0.15653272 0.116885856 -0.2400032 -0.116662025 -0.19577749 -0.036709454 -0.1616136 0.4041873 -0.35042277 0.25284433 -0.27644742 0.09338281 -0.024781747 -0.671803 0.019448983 -0.033052847 -0.09998451 -0.12504159 0.20722714 -0.53032297 -0.1285757 -0.05105734 0.15575631 0.41779917 0.15480633 -0.1880568 -0.11425216 -0.21468903 -0.10363223 -0.109853774 0.00090206374 0.10209166 -0.07175841 -0.2079444 0.10325131 0.11081498 0.06165066 0.5405174 0.060598478 0.38816565 -0.21366975 0.030952003 0.3715461 0.26917812 -0.26785544 0.04761034 0.08303372
C0352155 0.2768255 0.20187502 -0.026937092 -0.24631865 -0.23777492 -0.03253524 0.15579458 0.12984918 -0.13542596 0.4598386 0.2379808 0.07994589 0.023782168 0.14326103 -0.17550926 -0.035187744 -0.03304125 0.51610553 -0.24635985 0.31619328 -0.035496302 0.12220331 -0.25005317 -0.29794458 0.08409364 0.15276976 -0.46913275 0.117838345 0.078548096 -0.42206848 0.5656261 0.36593723 -0.18877852 0.030001499 0.2773518 -0.64694214 -0.02612812 0.33447748 0.14025703 -0.2382408 -0.031476397 -0.08720828 -0.4130214 -0.020598423 -0.31552175 0.29148546 0.0628884 -0.19445711 0.33352757 0.17840809 0.12921837 0.49956128 0.49683636 0.2167134 -0.17549677 -0.24280216 -0.12834814 -0.072177045 -0.0060582454 -0.06460519 -0.06769345 -0.3711348 0.4278606 0.37558082 -0.09601717 -0.29515868 -0.2372897 -0.23739634 0.6482366 -0.019463928 -0.35063723 0.20245065 0.043985497 -0.15949006 0.26961875 -0.24935347 -0.0032245978 -0.0907361 -0.16246137 -0.04101264 -0.07123108 -0.31022838 -0.28584287 -0.091297634 0.21014823 -0.09747172 0.050625164 0.19635898 -0.2578089 -0.49584475 0.21183227 0.23419768 0.33208293 0.032745197 -0.049695898 0.090628915 0.02894212 -0.4320222 -0.23348314 -0.03272931
C0040341 0.27503735 -0.5955848 -0.047118854 -0.13325696 0.0014331349 0.2832365 -0.083353445 0.012680304 0.3191777 -0.22063942 -0.13806322 -0.08585386 -0.06321305 0.5065 0.020861655 0.052134324 0.09607058 -0.017777372 0.037765693 0.4382802 -0.20116322 0.1877526 0.10989431 -0.139188 -0.09875976 -0.45676762 -0.0117098745 0.044450216 0.19703893 -0.120442204 0.024414182 0.5311967 0.1921963 0.3719409 -0.022130916 -0.2029479 0.08692866 0.125944 -0.24712032 -0.16819113 0.26708612 0.0040059406 -0.026102766 0.30096167 -0.20768361 -0.24572417 -0.06076682 -0.103038885 0.29337877 0.15706189 0.5726033 -0.28764766 0.0056921924 0.6236881 -0.4152025 -0.25667062 -0.16585149 0.0384131 -0.21085909 0.116417445 -0.033216357 -0.58162934 0.124402985 0.18085416 -0.319913 0.08452988 -0.3209263 0.29960606 -0.26737773 -0.16071075 -0.46301007 0.057014883 -0.4852964 0.24750866 0.15124084 -0.3407614 0.16123764 -0.0077579655 -0.23189378 -0.40581402 0.20826085 0.21533976 -0.30332676 -0.47185293 0.52900124 -0.07814721 -0.13538925 0.24876004 -0.23871213 -0.11339609 0.40898302 -0.022029692 0.6668691 -0.15956096 0.4978929 0.0106956065 -0.008178207 -0.30840138 -0.07844168 -0.6324719
C0013090 0.29813904 -0.09154164 0.22392258 -0.18821333 -0.01987261 -0.14076719 0.27673143 0.05700505 -0.21722665 -0.09255403 -0.03181743 0.26679277 -0.037667494 0.1279677 -0.18375804 0.0089815855 -0.082187645 -0.040441617 0.03487924 0.25130653 0.058307067 -0.046157677 -0.25253153 -0.24650313 0.05075155 -0.53190297 0.008507122 -0.040809363 0.14798541 -0.10843871 0.09224746 0.38166973 0.035124186 -0.028356034 -0.10681584 -0.20781319 -0.09806066 -0.068008214 -0.2091219 -0.047633767 -0.06876936 -0.16411662 -0.077593744 0.09957162 -0.28129372 0.1685648 -0.25256422 -0.040514164 0.2369634 0.00028235003 -0.06121633 0.3239488 0.8476389 -0.02708186 0.08183063 -0.38669688 -0.11163769 -0.22766376 0.19055553 -0.01380657 -0.11498873 -0.37251595 0.32995927 0.18983957 -0.056961622 0.014884332 0.02549019 0.10763027 0.02361054 -0.21554102 -0.089361705 0.40089834 -0.24208823 0.043671448 -0.01964759 0.10445676 0.14118269 0.0203128 -0.46411982 0.011506593 -0.08743278 0.15883252 -0.09371958 0.11195766 0.10611228 -0.0009772744 0.15563037 0.38139695 -0.15243305 -0.1692501 0.34744522 -0.009770586 0.11465069 0.38363194 0.16307217 0.122451395 0.23493807 -0.27562162 -0.020746384 -0.11377224
C0042839 0.10680199 0.1758269 0.1486776 0.23110677 0.12418947 0.37700814 -0.0014042768 -0.5286328 -0.4100424 0.26702955 0.25170296 -0.27421767 -0.05571214 0.21544948 0.3959358 0.29878563 0.08482978 -0.112618305 -0.050562646 0.03115314 -0.074949704 0.23250197 -0.3192009 -0.38767055 -0.20820813 -0.08240233 -0.11028896 0.17447573 0.31291747 -0.3007855 -0.09006392 0.058553047 -0.2187006 -0.04843825 0.20321392 -0.21224038 0.1639281 -0.0024383827 0.109699614 -0.33636948 0.15711033 -0.16421138 -0.014273177 -0.14381132 -0.19848466 -0.0024540697 -0.15774445 -0.12529446 0.084591955 0.16716835 0.35962185 0.37249374 0.15618536 -0.06599823 0.22300321 0.011237815 0.21616673 -0.010472013 -0.3502013 0.25482705 -0.15166587 -0.1264357 0.19325715 0.03399245 -0.16738187 -0.30195922 0.15348831 -0.40563214 -0.03198674 0.41368306 -0.55771244 0.32929716 -0.74435234 -0.33203712 0.15387705 0.12312713 0.032928273 0.4395042 -0.26204503 0.08687972 0.07169504 -0.024271043 -0.13856573 -0.16050078 0.18505159 0.09785164 -0.091389194 0.19373256 -0.02343062 -0.023599343 -0.021959297 -0.18692754 0.27896136 -0.57356894 -0.20813724 0.19974299 -0.013605084 0.09429045 0.07773012 -0.06379576
C0053230 -0.19465941 0.1513149 -0.03413919 -0.037868224 0.19412802 0.07582693 0.24803218 0.024762738 0.06187108 0.6295203 0.1623546 -0.060603887 -0.04767012 0.28493494 0.099459365 0.22644913 -0.08676809 -0.3620111 0.3480718 0.33566383 -0.15905096 -0.08524434 -0.41135478 -0.4763707 0.022987565 -0.25531235 0.08041485 -0.06866476 -0.12155547 0.07991587 0.5239261 0.21914941 0.016755976 0.3690984 0.13615273 -0.42104462 -0.26928508 0.3471649 -0.17122495 -0.45867264 0.31612504 -0.17270498 -0.29968524 -0.077912234 -0.69982094 -0.13246217 0.021126093 -0.7576167 0.052072424 0.32746717 0.26043022 0.32925284 0.28828758 0.5603535 -0.28273824 -0.18127452 0.33962893 0.08150962 -0.3550162 -0.2898073 0.044979393 -0.5436969 0.62503517 -0.25087345 -0.04923921 -0.38902816 -0.46785855 -0.3292659 0.6998401 0.2533583 -0.36454278 0.111014605 -0.7302743 0.031453744 -0.019661268 -0.466882 0.016487032 0.018379042 -0.4902283 -0.1567725 -0.07400974 0.41825587 -0.16421044 -0.42692235 0.21214394 0.20772389 0.098330595 0.5240963 0.029331742 -0.2619294 0.34932646 0.18304858 0.67750704 -0.15454344 -0.18659627 0.34042668 -0.22010888 -0.054968048 -0.39696735 -0.27266142
C0028741 0.123805165 -0.5005261 0.08906396 -0.23405884 -0.013030479 -0.313174 -0.27834535 0.23960796 -0.2536271 0.397569 0.021767627 -0.42181277 -0.3082834 0.5507833 0.10457969 0.33194062 -0.00482463 -0.33944955 0.24417938 0.05829883 -0.5397125 0.22301692 0.0756455 0.10224065 0.06350492 -0.64310867 0.11426681 -0.037881907 -0.37790182 -0.24502917 1.115463 -0.22934052 -0.43997213 -0.31204316 0.16277377 -0.20767781 -0.03185837 -0.0096571855 -0.41822442 -0.30710948 0.25303555 0.14252213 0.2724957 0.09126395 -0.22677338 -0.25008583 0.29388964 -0.35587963 0.48151731 -0.14421633 0.18413049 0.5551422 0.30833638 0.1743063 -0.57538277 0.3111013 0.14312261 -0.053179648 -0.53483874 -0.072263665 -0.5560693 -0.3348165 0.32248753 0.3190028 0.31533602 0.009158097 -0.7077866 -0.37675056 0.35148564 0.22332239 -1.0683833 -0.13578333 -0.29302484 -0.3383908 -0.10005886 -0.9052458 0.035991825 0.4221182 -0.3815313 -0.21497539 0.33604628 0.47139412 -0.19402348 -0.46507156 0.1722933 0.26762795 -0.16465454 0.62183124 0.3677604 -0.2878864 0.09256916 0.12251228 0.49178696 0.3472431 0.3190338 0.42404664 -0.3015257 0.226784 -0.8182252 -0.0012475505
C0023660 0.29058737 0.11863663 0.036682464 -0.16613168 0.03674118 -0.19091538 0.31433576 0.04816455 0.22577146 0.108569145 0.27753863 0.007292842 -0.035784096 0.11937521 -0.20536399 -0.28987005 0.2180503 0.064930424 -0.17649022 -0.17243558 0.16178994 -0.09074543 -0.25675645 0.06549621 -0.11277978 -0.15130547 -0.044023145 0.29595187 0.3368273 -0.27262905 0.084531955 0.009734526 -0.36724544 0.114008985 -0.013747795 0.278104 -0.114763126 0.12332477 0.39051726 -0.13747807 -0.05013608 -0.05594999 -0.120275944 -0.17825803 -0.035552986 -0.16487962 -0.57522434 0.075576514 -0.046601653 -0.28379372 -0.050128765 0.12728874 0.025638796 -0.061645396 -0.28833145 -0.19433601 0.1046013 -0.10334149 -0.18583944 0.35807252 0.17299883 -0.17716107 -0.018703764 0.13337359 0.07661956 0.022000523 -0.28955626 0.08186333 0.05631707 0.06928744 -0.01786509 -0.079788305 0.17410338 0.17000763 0.1614458 -0.17609791 0.15046865 0.253298 0.16718024 -0.083730824 0.17958356 0.31062132 -0.19346759 -0.003736172 -0.028590571 0.13578545 0.23013203 0.20299423 0.091175616 -0.053621527 0.3090031 -0.260358 0.21144134 -0.18152219 -0.03481295 0.046685524 -0.15845115 0.32173976 0.19730888 0.1687862
C0029995 0.22611725 0.11376087 0.049666665 0.3604721 -0.15298256 0.26262 0.24298945 -0.016764117 0.11702198 0.29558244 0.16887276 0.21879447 -0.07441983 0.1980531 0.3712201 0.24901298 -0.0065910155 0.06711849 -0.31133398 0.30300352 -0.008847702 -0.19815646 -0.5524244 -0.030831061 -0.20606649 -0.24852131 -0.014808167 0.17680861 -0.22856593 -0.21147802 0.42598814 0.12704045 -0.0244373 -0.07701609 0.18829764 -0.31774846 -0.019559 0.2687473 0.118130594 -0.33395484 -0.12710199 -0.11433912 -0.39418042 -0.24312659 -0.36164466 -0.12557471 0.0020562548 -0.71808857 0.12282683 -0.031661496 0.3201689 0.35952947 0.034690574 0.098516256 -0.22971262 -0.11963013 -0.04357572 0.20709227 -0.05672812 -0.49353516 -0.2835893 -0.38080445 0.48493677 -0.091243334 0.15011853 -0.19052763 -0.5640925 -0.08178943 0.49224296 0.12922682 -0.4294315 0.1932737 -0.8028528 -0.010578628 0.24556205 -0.3816506 0.21548714 -0.31646377 -0.3901578 -0.08616549 0.2133461 0.046004254 -0.10003494 -0.39096147 0.31338862 0.08951911 0.15690665 0.3873095 0.065358214 -0.09721232 0.46392554 0.23994258 0.5880217 -0.2321718 -0.22824247 -0.1268094 -0.2131485 -0.08983376 -0.2500007 -0.13646704
C0014806 0.19973646 0.010300574 -0.07661574 -0.021757348 -0.07816773 0.06519027 0.19012882 0.018781498 -0.13651359 -0.050754648 -0.39082667 -0.13976818 -0.088520706 0.255601 -0.15934412 0.08034425 -0.24976465 0.23977588 -0.099874854 0.3072301 -0.15390977 0.23379815 -0.21355912 -0.013598583 -0.20931692 -0.18571143 -0.103291735 -0.06866853 0.15550798 -0.34116647 0.15427372 0.3766033 -0.12619051 -0.14056328 -0.05146722 0.012449718 0.30598947 -0.013754538 0.3057341 0.06403391 0.012712579 -0.06742577 -0.15088466 0.11488126 -0.014701223 -0.029459596 -0.5793765 -0.42108148 0.23314393 -0.013209234 0.64963347 0.07143523 0.048047315 0.22388916 0.14623424 0.23265684 0.15961596 -0.095089085 -0.037573878 -0.07985891 -0.32922995 -0.08072897 -0.16179653 0.08032037 -0.16529743 0.15636076 0.10193558 0.23327462 0.16031793 -0.07039796 -0.11281288 0.1368451 -0.22690704 0.16018124 -0.001628076 -0.16071752 0.50482714 -0.092012614 -0.18052493 -0.2638082 -0.3085706 0.6541559 0.056625806 -0.521896 0.27285853 -0.08367067 0.078760706 0.11893209 -0.25368503 -0.010123745 0.17816894 -0.21765849 0.34271082 -0.19685437 0.12965603 -0.024196694 0.453266 -0.36448053 0.02971762 -0.12754898
C0022322 0.16570157 -0.1935453 0.1230748 0.09154268 0.15989788 0.08519234 0.47072265 0.10678968 -0.32685834 0.59047633 -0.11093094 0.12963706 -0.178697 -0.03796215 0.27554798 0.28094855 0.057331726 -0.4397748 0.05709106 0.33564687 -0.19373 -0.14437929 0.01785741 0.13579744 0.07211851 0.046597693 0.0865337 -0.40253717 0.42898762 -0.3125005 0.1922563 0.1757907 -0.38960665 -0.24592388 -0.11666334 -0.2344219 -0.09933809 0.2549652 0.3198104 -0.32276738 0.025292328 0.018992737 -0.39919454 0.20962259 -0.2713094 -0.28303558 -0.5543138 -0.5955157 0.12015442 0.24459721 -0.0117886225 -0.15466307 0.3200016 -0.08156803 -0.07354074 -0.24895148 0.23766606 -0.21177146 0.050681084 0.07416643 0.21414138 -0.3738675 -0.1344953 -0.16953774 -0.12595315 -0.023302522 0.0027660648 -0.31582823 0.36792055 0.14355683 -0.052862853 0.42381868 -0.21460754 -0.05427783 0.101438865 -0.12886277 0.2139766 0.09130274 -0.1534989 -0.08284695 0.021156082 0.3256222 0.0917937 0.14477529 0.00783852 0.1610667 0.44905978 0.11156552 -0.16533208 -0.2227312 0.4879921 -0.36812058 0.35156465 0.061691303 -0.0024610953 0.36441547 -0.101858936 -0.11328519 0.016150061 -0.079328746
C0026187 0.11705276 0.22141828 -0.029958462 0.10623682 -0.18842502 -0.18724875 0.1812853 -0.29061234 -0.38138917 0.047491055 0.12168221 -0.16597459 0.025335558 0.09186917 -0.06821719 0.1331872 -0.24786718 -0.08841961 0.07440168 0.2810937 0.16035102 -0.11216793 0.007129424 0.18924095 -0.18007351 -0.38997185 0.13989186 -0.026519181 -0.097749725 -0.17250413 -0.1417616 -0.010190079 -0.08886815 0.20979069 0.156868 0.08445966 0.044321828 0.34260985 0.2067112 0.17517696 -0.13498652 -0.033795737 0.008597138 0.010317932 -0.018181177 0.14040059 0.014811587 -0.06929195 -0.017004948 0.18847089 0.041012887 0.3487784 0.31547883 -0.22064635 0.24078502 -0.18025473 0.13488473 0.10650475 -0.06602333 0.2590982 -0.37260512 -0.45682672 0.13945071 0.23216335 0.05888322 -0.057753876 0.18193324 0.071884 0.03239094 -0.005376162 -0.08757926 0.24938026 0.028486067 -0.14732945 0.1494894 0.21951115 0.20026812 0.30104232 -0.3127637 -0.06987758 0.07838077 -0.11217133 -0.06820581 0.27959025 0.1405189 0.37358803 0.09308829 0.41821137 0.10273144 -0.10584062 0.24934225 -0.13192865 0.14168884 0.19197494 0.13780773 0.20365413 -0.0030205883 -0.3229984 -0.22458121 0.037748937
C0209368 0.19579777 0.0148908775 0.45264342 0.20938052 -0.08877178 0.18639968 -0.020065822 0.007079766 -0.0711561 0.18161246 0.12149884 0.12504211 -0.09342585 0.1810915 0.011457244 -0.036341745 -0.019602004 -0.1276622 0.26622722 0.1345896 -0.13992786 0.14688314 0.09295765 0.1370415 -0.2545584 -0.114383884 -0.3090971 0.50979125 -0.117861606 0.17205226 -0.12064728 -0.03179185 -0.20273386 0.055689495 0.14659363 -0.18769792 0.22959374 0.08206897 -0.06905992 0.010775261 -0.38433456 -0.21234877 -0.17576595 -0.30602512 -0.15323736 0.0057495194 -0.36600828 -0.11919472 0.23889765 -0.053478014 -0.094551094 0.3369172 0.21038182 -0.11452117 0.058007635 -0.08691381 0.027181715 -0.13027205 -0.14291865 -0.17294328 0.16566285 -0.20934257 0.119792715 0.030009914 -0.35986516 -0.21544047 -0.06050068 -0.29860178 0.100210756 0.029348968 -0.33195522 0.16859421 -0.18819886 0.29152995 0.3263714 -0.29802778 0.10823967 0.3211261 -0.17463188 0.19253775 0.09938361 -0.1085995 0.022481786 -0.0025138217 -0.064490646 0.16280943 0.2695556 0.12916107 -0.47517595 0.016245762 0.14914468 -0.06824964 0.22217993 -0.11393315 0.28649026 0.47752556 -0.097229704 -0.12075682 0.08009062 -0.05447942
C0030840 0.54129696 0.16997147 0.06917299 -0.18931095 -0.011079585 0.2153317 0.43119752 -0.0951528 0.3908366 0.18705222 -0.3686555 0.02547467 -0.13469504 -0.052249495 -0.5056285 0.14472361 -0.15457994 -0.096827 -0.20516214 0.3906169 0.06151632 0.054975532 -0.05390589 -0.5450068 -0.19181302 0.015595861 -0.42854127 -0.37050807 0.07660062 -0.2301074 0.31129974 -0.030379083 0.19222377 0.2059549 -0.09594976 -0.79021823 0.37934 0.2806954 0.45036465 -0.27753562 0.10780288 -0.065918006 0.276775 0.037855007 0.10334848 0.2686728 0.10232576 -0.12968172 0.14759834 0.16847938 0.3751685 0.018034 0.05196859 0.37400776 -0.22249228 -0.06462709 -0.21936193 0.25796905 -0.18243591 -0.19683914 0.15935744 -0.5062748 0.6915482 0.4068963 0.08976036 0.14457297 -0.54295045 -0.1908493 -0.034313437 -0.33601233 -0.17922725 -0.07820946 -0.51708215 -0.37737972 -0.031689953 -0.67982095 0.20282313 -0.058738932 -0.43678755 0.18384373 -0.14055678 0.19482347 -0.3759473 -0.37658092 -0.110109515 -0.027143363 0.3299066 0.1084317 0.20002997 -0.1853889 0.05704292 -0.15955588 0.8339054 -0.14481637 0.08276766 0.19220862 0.26465297 -0.1279229 -0.31142038 -0.22275348
C0304317 -0.03137232 0.012893435 0.19878457 -0.009929649 0.09444199 0.0879914 0.34791094 -0.04678561 -0.0022098774 0.73441094 0.08753355 0.0529201 -0.12690648 0.4046729 0.31562215 0.14376846 -0.15912542 -0.25488472 0.21751313 0.26129153 -0.03376439 -0.1628202 -0.31392676 -0.24289836 0.027957013 -0.20183885 0.11867766 0.14326978 -0.08160735 0.03007787 0.541303 0.32451573 0.02305342 0.2646214 0.28508735 -0.41091055 -0.34528896 0.20623107 0.03428606 -0.41429228 0.27164027 -0.10977073 -0.4232312 0.044864833 -0.6387614 -0.28380927 -0.051012013 -0.67039955 0.37045553 0.18539834 0.23494713 0.27098086 0.2097387 0.47524855 -0.45425126 -0.15503694 0.49493212 0.21323566 -0.3405801 -0.36155334 0.017140176 -0.4733086 0.48231158 -0.2220583 -0.15774153 -0.36341286 -0.5481168 -0.25740853 0.6466418 0.42533714 -0.3679722 0.24400836 -0.60018814 0.08336308 0.1040668 -0.47192356 0.057488255 -0.09739966 -0.3412048 -0.37679192 0.03899619 0.23759104 -0.06403681 -0.45430267 0.11482058 0.1313127 -0.016710779 0.5658787 0.0046393247 -0.42821106 0.28103843 0.16238658 0.76420486 -0.24004179 -0.088317886 0.21477547 -0.16224632 -0.16028638 -0.1886736 -0.07733346
C0028978 0.36495453 -0.09084655 -0.15708321 0.025576338 0.17742024 -0.07794868 0.36649266 -0.1814354 0.04401793 -0.12725404 0.16384222 -0.021599028 -0.12029279 -0.028757488 -0.06589295 0.025735803 0.19185862 -0.21560533 0.098356865 0.44162983 0.49076357 -0.090510696 -0.13130273 -0.0029938705 -0.29200792 0.07980611 -0.1711642 0.32833743 -0.19289608 -0.33783793 0.012148053 -0.25018525 -0.021809066 -0.18437977 0.180001 -0.20976786 0.025656916 -0.1060108 0.22202122 0.002603406 -0.11732487 -0.18561397 0.06315902 0.088096134 0.027362293 -0.2383668 -0.15588136 0.1108455 0.30956385 0.12449932 -0.24180624 -0.017140083 0.035000596 0.101324245 0.08129257 0.05608212 0.011743719 0.010195479 -0.2582702 -0.08283826 -0.18213412 -0.07959116 0.34839654 0.17239262 0.03817055 -0.15839535 0.22533558 -0.34975612 0.010944151 -0.1940345 -0.0900538 -0.1678571 -0.3928413 -0.23088534 0.04157869 0.11285192 -0.119437374 0.2441187 -0.22836347 -0.15690859 0.47752985 0.19351344 0.17164819 0.07381322 -0.06534729 -0.13732222 0.20426033 0.5277596 0.058816884 -0.3895473 0.34485123 0.22000185 0.32424563 0.1848505 0.1981078 0.20429125 0.29478255 -0.15965547 0.20269844 -0.14734116
C0123091 -0.010030553 -0.13683239 0.4364336 -0.08180357 -0.038721547 -0.05143507 -0.0051340004 0.047289837 0.0046165837 0.19240996 0.08814923 -0.06919763 -0.3227026 0.29180425 -0.14958748 0.03541245 0.022631193 -0.46296278 0.010147885 0.10094153 -0.09208856 0.27211422 -0.017572213 -0.1116834 -0.06682333 -0.081769265 0.06373414 0.063258044 -0.16818024 -0.12402227 0.15122831 -0.009919672 0.021184744 -0.03425434 0.010838727 0.11689766 -0.09912037 0.2940138 0.033980776 0.15868449 -0.025972981 0.04779112 -0.0158358 -0.10979664 0.11640649 0.027182167 -0.07651341 -0.24350278 0.16480532 -0.047850896 0.023453282 0.14952797 -0.3049634 -0.35081193 -0.21468735 -0.008830524 -0.31775457 0.12958355 -0.43022388 0.16662246 0.03843135 -0.26025623 0.110471256 0.17581062 0.021342259 -0.0008402757 0.3182322 0.102011584 -0.010523964 0.022880802 -0.014639022 0.023279557 -0.27181032 0.11554207 0.2649261 0.48194823 -0.07682084 0.031021154 -0.11777074 0.10560232 0.09517752 0.16533467 -0.017676933 -0.09544981 -0.11794484 -0.23705493 0.12172703 0.0226213 -0.21138154 -0.17476507 0.16235259 -0.19164747 -0.0076151104 -0.21333233 0.0024671883 0.15803905 -0.24288797 -0.26583293 -0.4368816 0.24118604
C0017710 0.18650827 -0.04972478 -0.080205314 0.203141 0.035240404 0.30010667 0.06946247 0.120945245 -0.013572368 0.10024248 0.07403983 -0.24482675 -0.042953122 -0.061914627 0.18010592 -0.040720236 -0.09112384 -0.20620203 0.047943305 0.14390352 0.016692674 0.3672144 -0.10463421 0.32926804 -0.25630632 0.032383606 -0.003633774 0.1762541 0.27141175 -0.10045992 -0.08853033 0.10708698 -0.11324175 0.05425067 -0.15515229 -0.008667218 0.25505072 0.02364353 -0.18414095 0.13991243 -0.09315665 0.30786964 -0.19924328 -0.32483867 0.018059986 0.28046948 -0.1300641 0.096578896 0.02825571 -0.14571041 0.21825929 0.2636458 0.29540497 0.13794124 0.14832093 -0.18016867 -0.24542636 -0.12162845 -0.06255884 0.012049352 0.0074016354 -0.39010063 0.24748425 0.16980122 -0.35380346 -0.14001562 0.017801773 0.011390614 0.3115075 0.19845271 0.18993762 -0.149513 -0.32948065 -0.25339088 -0.06961042 -0.22572389 0.16612588 -0.0032755411 -0.016981348 -0.031827137 0.1016568 0.3039506 -0.22050244 0.13906461 0.2591285 -0.29223886 0.03618924 0.2119042 -0.10756881 -0.110622324 0.09030805 0.032927655 0.19350863 -0.066737846 -0.055469137 -0.0060990714 0.013228206 0.26186097 0.0011600986 0.26552716
C1260298 0.24442641 0.061957937 -0.2165964 -0.53067225 -0.048193246 0.23805782 0.30146116 0.04787383 0.17579257 0.010145328 0.075838916 0.28159487 0.16445813 0.056712907 0.048992917 -0.0024390188 -0.28491837 0.09584796 -0.02109831 0.20477013 -0.33175987 0.26901355 0.053636875 0.13142872 0.58537096 -0.8021527 0.20643131 0.15908958 -0.122949 -0.54373586 0.39578435 0.46405187 0.19657777 0.3259565 0.2178214 -0.42342252 0.08918495 -0.035717767 0.100111105 -0.5543619 0.42448524 -0.1645882 -0.24226719 0.0336799 -0.05948994 -0.110958084 0.15532976 -0.11398255 -0.055333827 -0.024534801 0.620923 -0.14329967 0.14381139 0.15688583 -0.3346046 -0.17649612 -0.25925678 0.012588737 -0.63591063 -0.03353826 0.29884645 -0.52638113 0.04665307 -0.15295485 -0.014618996 -0.273699 -0.4087028 0.1805741 0.52908325 -0.35733497 -0.1972323 0.14391124 -0.73029137 -0.19862974 0.002338101 0.17255838 0.13653877 -0.1355555 -0.51862085 -0.19872282 0.06286688 0.1230137 -0.26066265 -0.12877083 -0.13560908 0.024136173 -0.3331438 0.25360653 -0.24932876 -0.017294224 0.5945303 0.26593894 0.23497552 -0.19569951 0.017302517 0.33618897 0.3085781 -0.18760888 0.080841176 -0.20718361
C0250480 0.38021785 -0.10937038 -0.24098128 -0.54738265 0.10413398 0.07740006 0.041697953 -0.06623371 -0.0039308607 0.14550537 0.022665331 0.27044058 0.11884428 0.21775904 0.012654477 0.20514888 -0.11528719 0.15180945 -0.02203219 0.11360648 -0.31018603 0.33512482 0.05453784 0.112872146 0.37279764 -0.61578405 0.106410384 0.1320789 -0.065756455 -0.46750388 0.246858 0.5235152 0.01986629 0.3523747 0.22558953 -0.3071883 0.013778286 -0.09278602 0.042992827 -0.44893143 0.28752348 -0.015976964 -0.12280996 -0.07512424 -0.09737872 0.13587902 0.27591553 -0.076284036 0.022014828 0.2655095 0.67563564 -0.050718542 -0.0829005 0.1332298 -0.3574009 -0.3456119 -0.21249938 0.13205472 -0.3535614 -0.032692555 0.19294304 -0.5530671 0.108059086 -0.13529907 -0.16381377 -0.25913575 -0.45194426 0.1940011 0.2767497 -0.38097277 -0.21620893 0.1994088 -0.75642836 0.12972155 0.16416141 0.019927196 0.20128208 0.05050383 -0.32178855 -0.15822515 0.16790408 0.31029195 -0.17392063 -0.026431834 -0.07721857 -0.17193195 -0.11943336 0.05218656 -0.02833988 -0.09609421 0.59238076 0.18787314 0.21748771 -0.13172387 0.17327587 0.29876515 0.36485457 -0.26459473 -0.009393511 -0.3387209
C0028365 0.032776993 -0.10270184 0.12895253 -0.01692893 0.15958327 -0.30591756 -0.07969521 -0.2551877 0.09627674 0.6167754 0.30795264 -0.14440411 -0.34653756 0.5803222 0.22292228 0.100246936 -0.21658367 0.095245585 0.040479 0.4450456 0.1517232 0.46205267 -0.29911315 -0.0502102 0.30639094 0.25966057 0.32284853 0.06536131 -0.11734539 0.0134485 0.119665116 0.11482799 0.28227505 0.21974558 0.18072824 -0.22806045 -0.13408968 0.24962766 -0.102646224 -0.15356821 0.1451423 -0.23869991 -0.10119837 -0.2598716 -0.6312295 -0.47867462 0.15791488 -0.5482219 0.11163674 0.22308308 0.3195742 0.43720794 0.2541927 0.37783003 0.018194092 -0.10988451 0.07221131 0.1824973 -0.032179397 -0.38585147 0.5168134 -0.466618 0.80613524 -0.06179118 0.064818986 -0.18629113 -1.043016 -0.18596743 0.30537462 0.20907299 0.053455636 0.030550266 -0.695472 0.14118291 0.20521042 -0.27714875 0.5044172 0.5380917 -0.5354978 0.00543458 0.062164184 0.22550306 -0.25686717 -0.21043807 0.13532142 -0.039587647 -0.45649788 0.22029491 -0.16598657 -0.27340463 0.274828 0.30588144 0.5195693 -0.27331454 -0.14068002 -0.030017328 -0.25001767 -0.04445817 0.13722907 0.11596727
C0052432 -0.26217368 -0.0885147 0.29492828 0.12404157 0.13814597 -0.10584002 0.16418085 -0.08184839 -0.45474088 0.2239695 -0.15235974 -0.009621482 -0.016098028 0.07431779 0.40003037 -0.3672435 0.23494695 -0.3923335 -0.048829217 0.026734466 -0.013871656 -0.08060169 -0.13396287 -0.98405373 -0.069499716 -0.15697162 0.2062083 -0.039826352 -0.04888481 -0.47739074 0.69959736 0.264037 0.19065727 0.19399786 -0.27330726 -0.36780095 -0.13018437 0.17816278 -0.14137857 -0.41759497 0.06464332 -0.22548504 -0.20168088 0.15486185 0.039774932 -0.17745046 -0.6752391 -0.6190281 -0.012575424 0.47638234 -0.0029658778 0.24947523 0.64947474 0.3488749 -0.0801467 -0.39953896 0.5590532 -0.17424208 -0.15151784 -0.35868865 0.22714056 -0.621227 0.55671203 -0.33326653 -0.15583523 -0.15315598 -0.2416241 0.072187826 -0.291636 0.41109657 -0.52816063 0.41579705 -0.4538407 -0.10732818 0.29433322 -0.073574014 -0.03190444 -0.01966391 -0.62639296 0.3662126 0.03821086 0.09362699 -0.1077045 -0.098721 0.5275928 -0.25158998 -0.043206643 0.60826427 -0.004888555 -0.6622611 0.13220344 -0.25035745 0.32537878 -0.07270744 -0.26603422 0.020999793 0.16498277 -0.34124857 -0.21348163 0.3228131
C0700599 -0.18516362 -0.07085648 0.18148106 0.04045776 0.046266597 0.06109977 0.33628523 0.062828474 -0.24292171 0.1635773 0.040453427 0.092047915 0.097909614 0.23535636 0.35351676 -0.1906312 0.36768484 -0.4191019 -0.07047883 -0.13131951 -0.13069572 0.05482169 -0.020383567 -0.5895763 -0.051211696 -0.017244088 0.2755759 -0.10569244 -0.0183675 -0.50902975 0.31214362 0.06558363 -0.18094169 0.11900512 -0.14779381 -0.1876271 0.02983684 0.1748363 0.032042865 -0.42227793 0.008970234 -0.021588651 -0.19532228 0.049529217 -0.08182242 0.012169233 -0.4422141 -0.4075442 0.19890046 0.35477895 -0.10099817 0.23293088 0.35168895 0.18590547 0.2643654 -0.37358156 0.41285175 0.027515884 -0.19098677 0.13443488 0.11488078 -0.21541686 0.17301935 -0.055549275 0.016922839 -0.051599625 -0.21427368 -0.38883397 -0.017918522 0.29023665 -0.52313346 0.27458918 -0.429133 0.062357306 0.1631263 -0.08419329 0.24122645 0.20608778 -0.38819653 0.31885058 -0.3790325 0.2787481 0.074001364 -0.22176675 0.28775737 0.010582388 0.18822417 0.28246897 0.01551381 -0.5980305 0.1926136 -0.30112642 0.052229587 -0.07059838 -0.34760705 0.06790601 0.07150683 -0.006369862 0.1061784 0.16151083
C0055003 0.3859192 -0.08568108 0.10068876 -0.40003592 -0.036173277 -0.052191563 -0.03838561 0.09309432 0.15051019 -0.0182762 -0.21806957 -0.005283927 -0.08481132 0.23912686 0.015717259 0.09435169 -0.1566611 0.28170598 0.063892566 0.2787632 -0.234844 0.43794054 0.074674875 0.25799116 0.465835 -0.2986951 0.4368805 0.16009207 -0.04898801 -0.28054336 0.06240411 0.45871305 0.11612582 0.2587483 0.077939734 -0.34541264 0.024571009 0.0362556 -0.07918906 -0.17114115 0.17286307 -0.47036916 -0.01833107 0.16298336 -0.24017705 -0.1674363 0.11358045 -0.18380079 0.042762816 0.33739063 0.5372614 0.08228055 0.19520769 0.05586462 -0.3413773 -0.032363724 -0.29169962 0.2825093 -0.4144876 0.19643009 0.5365852 -0.51852703 0.32650873 -0.1529625 0.061004385 -0.098527186 -0.6153057 0.0054097353 0.16970761 -0.2988797 -0.2588486 0.1960731 -0.4841204 0.11827431 -0.01871798 -0.11075065 0.1864717 0.04254093 -0.39007849 -0.12549947 0.063907266 0.2489377 -0.40177432 -0.13961196 -0.11089243 -0.20416072 -0.4516843 0.07079436 -0.11095214 -0.0015939989 0.5738769 0.33425775 0.34000143 -0.21723822 0.061334945 0.19105376 0.28573593 -0.17005105 0.11584175 -0.2729542
C0304320 0.22107287 -0.09201041 -0.057400294 -0.16811202 0.032317363 -0.05997911 0.28246522 -0.06229039 -0.20050639 0.17930453 0.048725788 0.2952973 -0.17563654 0.4422292 0.019638907 -0.022102328 -0.2638585 0.37387735 0.38406432 0.40430975 -0.027011644 0.35997736 -0.16115718 0.022245651 0.11002055 0.06545905 0.037609752 0.05713961 -0.20712774 -0.035821244 0.23260617 0.30328965 -0.061732024 0.503089 0.2841498 -0.3103508 -0.1582253 0.23102175 0.35720846 -0.05256521 0.19030847 -0.21497634 0.19153999 -0.16803409 -0.46493968 -0.12794082 0.17092614 -0.60089815 0.16218632 0.39607394 0.527214 0.6164388 0.20725553 0.20492488 -0.32449514 -0.39846724 -0.11780274 0.15077576 -0.01782829 -0.051034257 0.784596 -0.2651579 0.64306563 -0.12412002 0.17129853 -0.22923407 -0.7322804 -0.12868914 0.54324883 -0.15125215 -0.08688997 -0.005841057 -0.43476903 -0.051733386 -0.024194006 -0.28093696 0.22580507 0.14734946 -0.4157129 0.33270594 -0.18563586 0.22874741 -0.1899198 -0.19173223 0.3224751 -0.49477166 -0.19337392 0.101915956 0.024398394 0.04620632 0.53865296 0.43004295 0.18111327 -0.17946947 0.019832905 0.16367352 0.19511865 -0.24703589 0.12314694 0.31758252
C0008269 0.0022142024 0.031079391 0.35623172 0.05020944 0.026870303 0.04550316 0.19020464 -0.106483504 -0.35476923 0.07487172 -0.119582355 0.055849135 -0.061937295 0.2358 0.30073786 -0.23485117 0.35268626 -0.4490866 0.0367908 0.112043716 0.11364858 -0.14894967 0.1536767 -0.609604 0.18578069 -0.11525144 0.16159916 0.06365378 -0.0582227 -0.31778008 0.2593661 0.03641002 -0.03782933 -0.013559409 -0.49317762 0.005151499 0.15537171 0.19452801 -0.10398381 -0.20800148 -0.12918343 -0.076254465 -0.25285482 -0.031249795 0.047251277 -0.05932627 -0.6129614 -0.18040274 -0.1652817 0.37668404 -0.19405685 0.19191545 0.5369784 0.10507145 -0.03346559 -0.3034902 0.45928514 -0.09571173 -0.17071554 -0.23081706 0.26962382 -0.22251453 0.39082935 -0.40069008 -0.21038494 0.12812474 -0.15690854 -0.073181905 0.047009 0.26949123 -0.48225734 0.26227987 -0.42138904 -0.1530956 0.13671806 -0.1562548 0.24913077 0.06980994 -0.26807728 0.48715845 0.07668376 0.3103674 -0.012951507 0.014197279 0.36479378 -0.1115691 0.27822334 0.49140736 -0.06835924 -0.43827486 0.14492084 -0.013533598 0.17028262 0.12854119 -0.07445974 0.26231864 0.014551554 -0.3187091 -0.011610072 0.18671507
C0025872 0.21416776 0.09892184 -0.14437984 -0.16561246 0.25486717 0.4256441 -0.27005702 -0.1909355 0.05441813 -0.056275245 0.34665537 0.21027368 -0.16098037 0.2701171 0.1766359 -0.19429514 -0.1322153 -0.06006159 -0.3003119 0.13136323 0.12029897 0.05014233 -0.12450146 -0.07776345 0.019477779 -0.4203525 -0.43133292 0.2858599 -0.120390184 -0.4346431 0.070405826 0.19666873 0.26523906 0.44916973 0.09269006 -0.39342946 -0.17192723 -0.03519164 0.02004729 -0.39425468 -0.13275827 -0.044364627 -0.008376146 0.1112574 -0.27564764 -0.09768206 -0.029788 0.020279896 0.19245657 -0.15154485 0.20145519 0.03538322 0.374662 0.15939921 -0.05122525 0.030870475 -0.025102545 -0.04413873 -0.31982478 0.14286894 0.031240791 -0.20282744 -0.064716086 0.07671621 -0.48636985 -0.16474235 0.26909596 -0.27547666 0.02049377 -0.09985915 -0.07592154 -0.12817322 -0.5610043 0.03383754 0.26751015 0.5062193 0.21191132 0.11225003 -0.13300529 -0.12698181 -0.0062191356 0.108352594 -0.17352131 0.13524349 0.10089371 -0.1161197 0.102172814 0.5600115 0.18000458 -0.33714432 0.21457739 0.33180213 0.4131339 0.057993066 0.10258472 0.052235365 0.027084505 -0.27827585 0.04253683 -0.2867122
C0032952 0.29404575 0.05509882 -0.23586218 0.26573923 -0.12870802 0.06924401 0.061098386 0.049710523 -0.14313152 -0.12027599 0.13044438 -0.06490633 0.05736359 0.25408024 0.19537212 -0.1586494 0.053887405 -0.4377636 0.117968075 0.06306239 0.016580882 0.14343192 -0.10236117 0.12444668 -0.330507 -0.16584454 -0.21817024 0.2972124 0.21220537 0.011052435 -0.052147478 0.08803122 -0.16543472 0.2235678 -0.034666788 -0.22218424 -0.12920524 0.24897431 -0.15694535 0.024308272 -0.21723166 -0.0840045 -0.101568505 0.10547806 -0.113626726 0.04854702 -0.4381994 0.09255315 0.028361464 0.003628645 0.27613476 0.07001093 0.17820628 -0.08056236 0.023239313 0.1928745 0.000787897 0.16863523 -0.3419573 -0.12293118 -0.33020654 -0.2149179 0.24182199 0.042294614 -0.58867216 -0.17495652 0.2608237 0.23097546 0.21007255 -0.026827674 -0.28289828 -0.12030917 -0.14214048 -0.12667602 -0.41874906 -0.26801077 0.239636 -0.08738444 -0.34219337 -0.025967943 -0.20497096 0.0012058304 -0.007556917 0.092981264 0.27926847 0.19077483 0.11778908 0.16242525 -0.360183 0.102555804 0.45597082 0.08417086 0.066525325 -0.02939486 0.10730484 0.075051956 0.07305549 0.08971155 -0.24423088 0.16857934
C0282215 0.24596015 -0.014619093 0.074717194 -0.26497826 0.21285337 0.15163822 0.39837354 -0.042806905 0.07254328 0.024790538 0.04003478 0.56199604 0.17024232 0.2122965 -0.021220263 0.08387071 -0.47916073 0.15594497 0.2785197 0.415365 -0.14836308 0.28816134 -0.08474013 -0.031675488 0.47649208 -0.1972799 -0.30733487 0.4938362 -0.32855567 -0.75085455 0.40780777 0.40877667 0.3188991 0.5281479 0.25267115 -0.49990505 -0.11454898 0.21316232 0.20376228 -0.61780065 0.23587905 0.035065334 -0.19468147 -0.21321426 -0.20982999 0.12181609 0.1342964 -0.3521067 0.026612042 0.018320886 0.65837914 0.1319092 0.31282297 0.5196098 -0.47986224 -0.30074346 0.0069824695 -0.20026793 -0.22405936 -0.19535004 0.10498816 -0.5425266 0.22739671 -0.006161574 -0.42615122 -0.3440684 -0.46610114 -0.15980297 0.55347043 -0.27052978 -0.3872781 0.052214175 -0.7862674 -0.09634966 0.062429428 -0.08438057 0.12884963 -0.045419183 -0.47869024 0.11156574 -0.20317927 0.12154161 -0.033093162 0.06636023 -0.082673505 -0.14023688 -0.01702952 -0.022231521 0.07653938 -0.28031576 0.37775835 0.20614497 0.18940407 -0.37915954 -0.015501864 0.039392985 0.08024619 -0.15726814 -0.033330824 -0.06836007
C0085149 0.11243076 0.10989268 0.047184326 -0.052728623 -0.023157818 0.38754675 0.18325686 0.006080992 -0.03937357 0.6860719 0.008460232 -0.19828528 -0.28430307 -0.06792792 0.39040908 -0.08671571 -0.3122196 -0.2892914 0.25283793 0.060955327 0.024119366 0.40228403 -0.045961507 0.07973957 -0.1915437 0.2583637 0.043422207 0.017671585 0.13959162 -0.23936737 -0.003962922 0.132611 -0.49422878 -0.025728885 -0.3081198 -0.13794422 0.012753181 -0.0045918487 0.007827109 0.20916349 -0.111468635 -0.23937397 -0.14528702 0.20224203 -0.2908818 0.09680013 -0.4434264 -0.48655093 0.30502668 -0.1697323 0.12085446 -0.063207895 0.19816278 -0.12432566 0.15902296 0.10604136 -0.3123519 -0.027951008 -0.14727063 0.13849936 0.091031775 0.042060424 -0.06235922 0.4928436 -0.4983534 -0.1829753 0.030455673 -0.08228578 0.4535358 0.040405873 -0.178258 -0.025875775 -0.1824579 0.2700512 0.28362495 0.1163012 0.30442286 -0.013111799 -0.22382943 -0.14596249 -0.085170634 0.14764246 0.057434194 0.20560706 -0.14572446 0.25958148 0.19966134 0.14196876 -0.2720281 -0.20598845 0.036122512 -0.11642454 0.16708748 0.0017947673 0.02098527 0.43329874 -0.05616795 -0.19198401 -0.061486945 -0.008520194
C0393080 0.29368284 -0.53544784 -0.114496306 -0.41807792 0.16598764 -0.041310698 -0.17540564 0.3515635 -0.24784294 0.29423478 0.00046029044 -0.44768444 0.08433986 0.71194524 0.34523925 0.28717127 0.37689072 -0.29614028 0.17271368 0.53566587 -0.5085569 0.08097348 0.02577542 0.14468305 -0.2244931 -0.49392328 0.21652916 0.105201125 -0.46200857 0.045454476 0.8008803 -0.03861562 -0.6769557 -0.24981649 -0.09931187 -0.5955166 0.036353532 -0.09999205 -0.42372426 -0.39658868 0.35939318 0.13205318 -0.013004919 -0.12682304 0.0049538086 -0.11299864 0.19857724 -0.15203059 0.21743609 0.27432176 -0.02129605 0.3124981 0.36028123 0.11691656 -0.51670307 0.16158757 0.12659293 0.0048745214 -0.18260418 -0.11524909 -0.13519606 -0.6319575 0.3410434 -0.10905687 0.003200942 0.10415411 -0.51904094 -0.3071811 0.3758024 0.17784521 -0.70094955 0.073149286 -0.007608955 -0.05430724 0.08021835 -0.36839256 -0.094766416 0.33136398 0.078029 -0.26665926 0.43955317 0.247549 -0.054536697 -0.20803325 0.43510985 -0.05893786 -0.17190814 0.30452332 0.20485428 -0.06305227 0.16932774 0.38992956 0.6982153 0.20467384 0.2679738 0.5481486 0.1354311 -0.22428657 -0.5419493 -0.07595271
C0936150 -0.32462126 -0.10710105 0.18690448 0.061265107 0.12870649 -0.043807916 0.1714101 -0.20891121 -0.37310642 0.16012393 0.07323377 0.07400155 0.028038664 0.25953117 0.3277072 -0.4531132 0.28813273 -0.31077158 -0.015336768 -0.12578608 0.111390054 0.10357335 -0.009532353 -0.9222864 -0.13432898 -0.17669052 0.16847068 -0.012882645 0.0841478 -0.43326932 0.7125407 0.18669178 0.055947077 0.19856346 -0.16004813 -0.23807424 -0.018629473 0.192006 -0.013153745 -0.43256328 0.06624626 -0.1329443 -0.09796478 -0.04422783 0.06147364 -0.083753385 -0.56721723 -0.59838206 0.0013337578 0.35620636 -0.0728197 0.32065976 0.4720677 0.3081287 0.16710901 -0.44527638 0.44974047 -0.115335874 -0.1478442 -0.28815496 0.22163385 -0.50790834 0.6144816 -0.19237891 -0.13344498 -0.32241467 -0.17990825 -0.08680868 -0.1960186 0.47713983 -0.68216234 0.3521632 -0.5628962 -0.02386974 0.21544358 0.006908359 0.017809547 0.07544452 -0.39603263 0.40832263 0.060011398 0.04805893 -0.17210886 -0.013413213 0.48432437 -0.06873199 0.009763205 0.6359283 -0.042939022 -0.6920358 0.03719458 -0.32303345 0.3141063 -0.17961921 -0.28280365 0.033818018 0.12135606 -0.25178427 -0.092148 0.08431969
C0017436 0.30216497 0.05060099 -0.1321531 -0.074265234 0.044145513 0.4779029 0.054289363 0.1506921 0.03728219 -0.16681542 0.020454785 0.1310471 0.14569378 0.13357225 -0.044937205 0.21836212 -0.2744815 -0.013276238 0.10188084 0.0076909964 -0.2651398 0.14736582 0.04295373 0.19598931 0.09149458 -0.40865278 -0.21397875 0.26421526 0.050840437 -0.20698972 0.053377382 0.5520355 0.06873629 0.43931296 0.13605906 0.062429957 0.18245302 -0.0017322503 -0.11483438 -0.029880326 0.056047205 -0.29199705 0.08198834 0.15736373 0.03660391 -0.39625806 0.01032286 -0.13027237 0.21085447 0.14670275 0.4849883 0.064082876 0.6995485 0.24206835 -0.5628674 -0.30018568 -0.2627643 0.30548105 -0.26898298 0.20992178 0.47982335 -0.36118057 0.08897376 0.052186146 -0.04936603 -0.07729534 -0.28833288 0.016545663 0.083160855 -0.13083372 -0.26401338 -0.022080127 -0.47381097 -0.17821085 0.14421284 0.09295268 0.0044042757 0.13822737 -0.5259747 -0.0041580736 0.30321983 -0.04989195 -0.38451442 -0.29775316 0.010153783 -0.22651704 -0.16671614 0.2774555 -0.18441948 0.018795732 0.43483663 -0.018350719 0.37691605 -0.085639834 0.11299449 0.27791914 0.16613807 -0.49331945 0.1576049 -0.3448064
C0032857 0.09016155 0.24641664 -0.37645328 0.069493756 -0.3567826 -0.14954852 0.06820227 -0.17851382 0.1508685 0.13952863 0.90942353 -0.16501442 0.0037881806 -0.18427484 0.05761808 -0.10908731 0.02720778 -0.079394445 0.44796255 0.27410755 -0.111646906 0.19206965 -0.18988557 0.263744 0.022404155 -0.08819203 -0.065122604 -0.3617936 -0.014596873 -0.09418251 0.6698874 0.5587296 0.03524843 -0.11116072 -0.043106593 -0.025151871 0.049171563 0.23668239 -0.044278298 -0.40146732 -0.23084706 -0.42896107 -0.10670967 0.5263276 -0.36138982 0.057542756 0.058106497 -0.19739522 0.30808887 0.21695283 0.11067644 0.61085254 -0.026753763 0.7372998 -0.42580676 -0.044975393 0.090504356 -0.027525632 -0.09372065 0.1714989 -0.28091475 -0.36356467 0.23019595 -0.26180118 0.006665698 -0.14990447 -0.5018582 -0.1256897 0.32685488 0.0070297807 -0.26355544 0.31464648 -0.8105758 0.35789734 0.17893872 -0.20588675 -0.16175844 0.10788955 -0.24417192 -0.2341791 -0.32244542 0.3615537 -0.084084496 -0.25261095 0.18863642 0.3458267 -0.007679298 0.37241617 0.3762394 -0.17061529 0.58491695 0.16673107 0.5376288 -0.29830012 -0.16709265 0.44329503 -0.50637275 -0.08119135 -0.49883574 -0.28471625
