1317 100
C0020443 -0.10931798753298971 -0.3075392578269245 0.1393232909966861 0.3760495838501052 -0.2314724232607046 -0.03711039038861094 0.22100461324238854 0.37091563108062847 0.08268388277603045 -0.14296027026059677 0.15900294007411056 -0.09957088581079382 -0.16660910134022042 0.06750720917874885 0.13925968210202197 -0.22600690100687681 -0.027750526190196263 -0.16869939965452146 0.24652920871409686 -0.2788640190039068 -0.2355005809532237 -0.3404969290365502 0.31444767760372716 0.47090345921104393 0.21584273294825904 0.24895569260527659 0.256899550700982 0.15886040981378552 0.6137031475433761 0.06961140273914962 0.6927317448312732 -0.7659555202605792 0.9497438175140529 0.9136887137024512 -0.7002544520175988 0.07535598027889052 0.05140405708453191 0.3752262909694418 -0.1316463896366613 0.040251652570972477 0.072760839007019 0.22575845681850115 0.46978161164254545 0.16129094455269788 0.9912148685154192 -0.1871582940792936 -0.23147280592098157 0.6315484568666317 0.8852489437197295 -12.350701863089759 -0.10931798753298372 -0.3075392578269348 0.13932329099668092 0.3760495838501054 -0.23147242326070905 -0.037110390388610776 0.2210046132423981 0.37091563108062675 0.0826838827760289 -0.14296027026060326 0.15900294007411894 -0.09957088581079168 -0.16660910134021195 0.06750720917874724 0.1392596821020192 -0.22600690100688084 -0.027750526190192925 -0.1686993996545226 0.24652920871409692 -0.2788640190039032 -0.235500580953223 -0.34049692903654993 0.31444767760372605 0.47090345921104687 0.21584273294825554 0.24895569260528017 0.25689955070097875 0.15886040981378127 0.6137031475433762 0.06961140273914222 0.6927317448312674 -0.7659555202605817 0.949743817514048 0.9136887137024566 -0.7002544520175938 0.0753559802788937 0.05140405708452871 0.3752262909694336 -0.13164638963666048 0.04025165257096956 0.072760839007016 0.22575845681850001 0.46978161164255294 0.16129094455269813 0.9912148685154163 -0.1871582940792851 -0.2314728059209872 0.6315484568666391 0.8852489437197298 -12.350701863089762
C0085542 -1.0869448714839665 0.19654461523568625 -0.014506058341752604 -0.22943042010685757 -0.17032993887962453 0.2838695473724433 0.380312247072578 -0.33460878961051854 -0.13907936024152082 0.1454827118594039 -0.07227416947358278 0.20785849275341511 0.30597981865754675 0.17506975589054224 -0.38185613488801357 -0.6984696916311407 -0.23292911348068146 -0.1849700387068323 0.0866277490932272 -0.3634197920477851 -0.10848186690426692 -0.17012897243033956 0.0498778852731952 0.055312139985188545 0.13136123890725784 -0.12318556251888882 0.2899758394457467 0.31679897321921424 0.24692890425069677 0.48767239837414816 -0.6393144026383047 -1.4280939679239384 -0.15725910472498222 -1.3134073405237274 -1.6843902486721027 0.5570836802878008 0.6253398856150113 1.3699368027164838 -0.011381527301929963 -0.7716909623516623 0.4690852918481546 0.6092814369159837 -0.8991890760689182 0.6592243970044165 0.658810584473506 0.9563482799206119 0.7931232132819891 0.4286726821425229 -0.792990047667021 -1.1146986689625273 -1.0869448714839673 0.1965446152356855 -0.014506058341754002 -0.22943042010685702 -0.17032993887962472 0.28386954737244224 0.3803122470725796 -0.33460878961051616 -0.13907936024152176 0.1454827118594036 -0.07227416947358256 0.20785849275341586 0.305979818657548 0.1750697558905423 -0.3818561348880127 -0.6984696916311398 -0.23292911348068088 -0.18497003870683312 0.08662774909322773 -0.3634197920477858 -0.10848186690426659 -0.17012897243033986 0.04987788527319496 0.055312139985189024 0.1313612389072567 -0.1231855625188868 0.289975839445747 0.3167989732192155 0.24692890425069702 0.4876723983741488 -0.6393144026383049 -1.4280939679239384 -0.1572591047249829 -1.3134073405237283 -1.684390248672102 0.5570836802878016 0.6253398856150113 1.369936802716482 -0.011381527301929026 -0.7716909623516637 0.46908529184815423 0.609281436915983 -0.8991890760689185 0.6592243970044159 0.6588105844735053 0.9563482799206126 0.7931232132819884 0.4286726821425234 -0.7929900476670205 -1.114698668962531
C0286651 -1.007915069259049 -0.21809012735437028 0.2230249568143825 -0.7418809447025119 -0.2200837140633021 -0.3158928922851706 0.31057287167650227 -0.08849366357908843 -0.3582308240545523 0.11320757982557014 -0.31590903019942745 0.11161829794766634 0.07193852145328379 0.5504857446327112 0.0458930261320472 -0.3638261847827634 0.25373921413701184 0.07885655200380125 -0.376121994582337 -0.48794848738829283 -0.6521960192410352 0.15635307374966628 0.5744993212203335 0.48046220075738927 0.010332180894517205 0.17257793423057682 0.14072094534688628 0.09288164178855388 0.23327604121163037 0.5082046019609165 -0.6042367037936702 -1.5554309928916934 0.36758294319004303 -1.8144495656381696 -1.8791199974367723 -0.03915872291408607 0.4710836241714649 1.4521436378870134 -0.38756594348333306 -1.4969346151163827 0.9127448009058917 1.034732565679659 -2.0146179098875643 0.31741067318417915 0.6535982774453095 1.1448216159310973 1.1728101383726395 0.754103054387914 -0.4241002157085439 -2.378951823923917 -1.0079150692590497 -0.21809012735436922 0.22302495681437848 -0.7418809447025084 -0.22008371406329968 -0.31589289228517337 0.31057287167650366 -0.08849366357908815 -0.3582308240545529 0.1132075798255697 -0.31590903019942934 0.11161829794766451 0.0719385214532864 0.5504857446327127 0.04589302613204855 -0.36382618478276524 0.2537392141370122 0.07885655200379962 -0.37612199458233575 -0.487948487388292 -0.6521960192410353 0.1563530737496654 0.574499321220336 0.48046220075738866 0.010332180894513498 0.17257793423057793 0.14072094534688556 0.09288164178855471 0.23327604121163084 0.508204601960914 -0.6042367037936709 -1.555430992891692 0.36758294319003826 -1.8144495656381712 -1.8791199974367725 -0.039158722914083295 0.471083624171465 1.4521436378870112 -0.3875659434833328 -1.496934615116385 0.9127448009058904 1.0347325656796598 -2.0146179098875643 0.3174106731841803 0.6535982774453076 1.144821615931099 1.1728101383726373 0.7541030543879158 -0.4241002157085422 -2.3789518239239165
C1142985 -0.03737759714066371 -0.06819342039613696 0.33733141630771735 -0.3029360594028914 0.260199635809974 -0.05653857757395193 0.21257820525955334 -0.5312420998945195 -0.20487101750629025 0.054340225642337245 0.1376211704284148 -0.06865440903733586 0.27920898645374226 0.17047157838898647 -0.23747600107944009 -0.17579812755715393 0.021511967055062062 0.21618793808224082 -0.3926454415760605 -0.18837858210325117 -0.1949155361789381 -0.022770043081867832 0.2529801489956484 0.36637066457933254 0.10524111658901499 0.12085756744773539 0.09679680358299034 -0.23296285656283433 -0.10078395960710876 0.14819131427427584 -0.7862638270786292 -0.6763381118407833 -0.06703429556093343 -1.202061409126999 -0.8750478655313626 -0.0695109344744302 0.20132010516092283 0.5321266444336582 -0.0805232052442028 -0.5994804078323173 0.47155741885119196 0.25411477404696103 -0.85738782939732 0.22026821425022616 0.23945533360969606 0.4115571995141145 0.3163126048602659 0.2980679761574994 -0.03865604390505062 -0.8457144693659089 -0.03737759714066623 -0.06819342039613537 0.3373314163077154 -0.3029360594028889 0.26019963580997524 -0.05653857757395321 0.21257820525955404 -0.5312420998945195 -0.2048710175062906 0.05434022564233806 0.13762117042841096 -0.06865440903733568 0.2792089864537446 0.17047157838898852 -0.23747600107944014 -0.17579812755715302 0.02151196705506104 0.2161879380822392 -0.3926454415760599 -0.18837858210325006 -0.19491553617894006 -0.022770043081869237 0.25298014899565024 0.3663706645793323 0.1052411165890142 0.12085756744773454 0.09679680358298967 -0.23296285656283336 -0.10078395960710725 0.14819131427427523 -0.7862638270786289 -0.6763381118407836 -0.06703429556093403 -1.2020614091269997 -0.8750478655313636 -0.0695109344744288 0.20132010516092302 0.5321266444336564 -0.08052320524420276 -0.5994804078323172 0.4715574188511921 0.2541147740469607 -0.8573878293973195 0.22026821425022589 0.23945533360969584 0.41155719951411485 0.3163126048602656 0.29806797615749914 -0.038656043905050806 -0.8457144693659098
C0032042 0.6369340855991532 -1.3373919743165557 -1.093195770870928 -0.1332623872192859 -1.1310840349763414 0.42530900466291227 -1.6399285028739112 -0.5613711214280791 1.0224944944775676 1.0971463722255064 1.3474252155204312 -0.27176526521540734 0.581881747865609 -0.3539728961558768 -1.8524056883855438 -1.4029915598350302 0.14311450036125453 -1.1473251676448786 0.2735081714145245 2.426151371446682 3.2274644847851865 1.5411694472293296 -2.037350705147754 -0.46145650400670063 -2.4255048708912947 0.9805624154445853 -1.0385374332492883 -4.152352000886809 -3.2296244906127005 0.27341179836598833 -2.785513978240526 0.618305334339296 3.317287075461325 0.9662567156381884 -1.2528798369882852 -1.3083009466535505 0.7781085411443444 0.887605922602522 0.528668147791683 -1.941578229620508 2.310120065924075 -0.03778409904106229 -1.6151009559180154 0.8747775946037117 -0.07515844039798299 -2.5610271735321426 3.2025460290169003 6.307987512502829 -1.1463569277647578 -11.892923709367482 0.6369340855991606 -1.3373919743165616 -1.0931957708709414 -0.13326238721928366 -1.131084034976348 0.42530900466291827 -1.6399285028739157 -0.5613711214280671 1.0224944944775687 1.0971463722255168 1.3474252155204365 -0.2717652652154069 0.5818817478656152 -0.35397289615587374 -1.852405688385562 -1.4029915598350282 0.14311450036125706 -1.1473251676448808 0.27350817141452355 2.426151371446694 3.2274644847851865 1.5411694472293325 -2.037350705147758 -0.4614565040067023 -2.425504870891297 0.9805624154445858 -1.0385374332492974 -4.15235200088681 -3.2296244906126934 0.2734117983659822 -2.7855139782405316 0.6183053343392979 3.317287075461312 0.9662567156381977 -1.2528798369882785 -1.3083009466535522 0.7781085411443439 0.8876059226025189 0.528668147791685 -1.9415782296205097 2.310120065924066 -0.03778409904106115 -1.6151009559180072 0.8747775946037133 -0.07515844039798807 -2.561027173532145 3.2025460290168972 6.307987512502842 -1.146356927764763 -11.892923709367494
C0989914 -0.010621677307400055 -0.02977523790149087 -0.013411022985517732 -0.03611653002512116 -0.022150622771217782 0.003543254615411465 0.02083939898331811 -0.03484934754317237 -0.007708245413862962 0.01317272477752922 0.014550494931304626 -0.008851094612196391 0.014701827641221622 0.005901332935188785 -0.01209581902467978 -0.019316709791681052 -0.002352540360081775 0.01421401763465782 -0.020245345084045605 -0.022737592782913613 0.018888667184427433 0.02654521135463133 0.024485958365029068 0.035826129471832786 0.016056191059782614 -0.018150379558374976 0.01856191431221195 0.011361300590413962 -0.043759225000498225 0.004738738317737842 -0.04692507177752099 -0.0497286691776541 -0.06112828064966578 -0.05772792351027153 -0.04319166140914411 0.004391046025461543 0.0028862861154708994 0.020755974033092088 -0.007146159217698219 0.0020746436216250346 -0.0036671820919702185 0.011177296913103447 -0.02282247638160537 0.007812808260696151 0.04168230922376574 -0.007780587994414463 -0.008963933770757996 -0.02112628909143781 0.019193547430084983 -0.0834010745250198 -0.010621677307401137 -0.029775237901490184 -0.013411022985517898 -0.03611653002512046 -0.022150622771217206 0.00354325461541117 0.02083939898331806 -0.03484934754317294 -0.007708245413862947 0.013172724777529326 0.01455049493130333 -0.00885109461219644 0.01470182764122249 0.005901332935189234 -0.012095819024679733 -0.019316709791680788 -0.0023525403600823647 0.01421401763465728 -0.020245345084045484 -0.02273759278291333 0.018888667184426736 0.026545211354630706 0.024485958365029915 0.035826129471832405 0.016056191059782243 -0.018150379558375337 0.01856191431221166 0.011361300590414016 -0.043759225000498066 0.004738738317737669 -0.046925071777520685 -0.049728669177654165 -0.061128280649665696 -0.05772792351027146 -0.043191661409144134 0.004391046025461606 0.0028862861154708833 0.020755974033092008 -0.007146159217698192 0.0020746436216250532 -0.003667182091970201 0.011177296913103438 -0.022822476381605374 0.007812808260696087 0.041682309223765784 -0.007780587994414559 -0.008963933770757939 -0.021126289091437815 0.01919354743008512 -0.08340107452501953
C0082608 -0.019145463605616083 -0.23806619332070186 0.19692458634023852 0.003805932957292331 0.2688805258356171 -0.4560763092767705 0.39889135942979115 -0.4415538551033065 -0.17631796056274698 0.26939460557836975 0.12337116926703605 -0.11709574706319074 0.20475718583094252 0.5728936535980722 -0.4450056169146515 -0.2790500327451277 -0.26401536803174247 0.3536697655682228 -0.38815983684546745 -0.5193924714683278 -0.20104086281608416 -0.17873174027075064 0.4411858659171345 0.04564196671753431 -0.18012415383971725 -0.046786661471240054 0.3062332940101145 -0.10079984107752891 0.006401164885484365 0.250709655228199 -0.755432519178418 -0.7645739981491385 0.021960140453334817 -1.0308805516748785 -0.9419682696523709 0.1001938281535637 0.39580763101897914 0.4894059712792118 0.05922615874923513 -0.8399346238724448 0.2682456794502916 0.43680923514060166 -0.7059365461698108 0.23116355108386433 0.5103206557830329 0.6310296626317673 0.578766777814761 0.13857299277054957 -0.16585167600201486 -0.7889272595151023 -0.01914546360561339 -0.23806619332070492 0.19692458634023755 0.0038059329572918644 0.26888052583561484 -0.4560763092767695 0.39889135942979165 -0.4415538551033022 -0.1763179605627475 0.2693946055783702 0.12337116926703952 -0.11709574706319031 0.20475718583094116 0.5728936535980715 -0.4450056169146524 -0.279050032745127 -0.2640153680317405 0.3536697655682234 -0.38815983684546834 -0.5193924714683282 -0.20104086281608255 -0.17873174027074842 0.44118586591713177 0.04564196671753626 -0.18012415383971567 -0.04678666147123908 0.3062332940101158 -0.10079984107752829 0.0064011648854851695 0.25070965522819966 -0.7554325191784186 -0.7645739981491384 0.021960140453335074 -1.0308805516748782 -0.9419682696523705 0.10019382815356395 0.3958076310189791 0.4894059712792113 0.05922615874923536 -0.839934623872445 0.2682456794502916 0.4368092351406013 -0.705936546169811 0.23116355108386422 0.5103206557830328 0.6310296626317684 0.5787667778147599 0.13857299277054963 -0.16585167600201478 -0.7889272595151007
C0074554 -0.7453745867288407 -0.4729568663717281 -0.18828491536949096 -0.47492433376476484 -0.16992373938681046 -0.38734212572125815 0.46613904608029627 -0.49262944310068946 -0.5278768734433038 0.0583127669464071 0.06119228251272696 0.3106719600890565 0.4679006531123202 0.15781612358494593 -0.7678002168659451 -0.4016884490080973 0.3043104705338669 0.20861298144646184 -0.00989223597875744 -0.5302431602335107 -0.5261734854066419 -0.015205132546652081 0.6240284442271317 0.7900567759146487 0.05461475104518425 0.3942409661759568 0.21851471251714186 0.11113524475187568 -0.09586750045794049 0.4726530877933188 -0.6862288720159624 -1.3366335932892046 -0.38042499096490373 -1.3919948263140118 -1.6590954899481858 0.03806715087210778 0.3046468587658526 1.351127635248618 -0.2749094406644808 -1.3630689625550176 1.0213687549906578 0.7285837151046404 -1.089125426483715 0.5826278546759288 0.263321288891497 0.825388946917332 1.1598598853807056 0.7461308176886816 -0.5050539863725183 -1.5219996147793473 -0.74537458672884 -0.4729568663717289 -0.18828491536949393 -0.4749243337647628 -0.16992373938681152 -0.3873421257212583 0.46613904608029716 -0.49262944310068796 -0.5278768734433057 0.05831276694640608 0.0611922825127281 0.31067196008905584 0.4679006531123207 0.15781612358494707 -0.7678002168659466 -0.4016884490080977 0.30431047053386795 0.20861298144646162 -0.009892235978757305 -0.5302431602335097 -0.5261734854066414 -0.015205132546651606 0.6240284442271323 0.7900567759146486 0.05461475104518268 0.39424096617595855 0.2185147125171421 0.11113524475187646 -0.09586750045794025 0.47265308779332055 -0.6862288720159628 -1.3366335932892046 -0.38042499096490606 -1.3919948263140125 -1.6590954899481853 0.03806715087210914 0.30464685876585273 1.3511276352486157 -0.2749094406644805 -1.363068962555019 1.0213687549906585 0.7285837151046414 -1.0891254264837138 0.5826278546759297 0.26332128889149636 0.8253889469173332 1.1598598853807036 0.7461308176886831 -0.5050539863725181 -1.5219996147793458
C1331111 -0.020190781697111616 -0.05693206841577723 0.061882567078659474 -0.11983225943760623 -0.05761910371568733 0.021000277090015524 0.11221815223809518 -0.21253144119872944 -0.041249971529272046 0.02624051627439059 0.0909319893784123 -0.021904285704984337 0.07196089029289518 0.00432119624283433 -0.12054787123885788 -0.05988057117997946 -0.0041919225664091885 0.06974027341540769 -0.07425562938414904 -0.04848867248623879 -0.005284794399750341 0.05884817870941349 0.10105403927498349 0.11271440400454669 0.0840768464261128 7.926332225264626e-05 0.05484362762828412 -0.008292244998678526 -0.12040762834831438 0.023991998515520408 -0.2480301649194163 -0.22227787575704644 -0.18376911023389564 -0.3504251678760658 -0.2547013448269975 0.012269051849152598 0.01777239057614206 0.14274807153969218 -0.03515371038841097 -0.07742385908021933 0.07077866387118166 0.06426143201096589 -0.1652572679769535 0.09510555998100709 0.14916127141650004 0.01906263249847547 0.0248051893872298 -0.014369368073107871 0.02448628541493204 -0.2539975047241923 -0.020190781697110565 -0.05693206841577837 0.0618825670786596 -0.11983225943760685 -0.057619103715687986 0.02100027709001576 0.11221815223809557 -0.21253144119872863 -0.04124997152927192 0.026240516274389558 0.09093198937841385 -0.02190428570498443 0.07196089029289486 0.004321196242833613 -0.12054787123885755 -0.05988057117997941 -0.004191922566408377 0.06974027341540787 -0.07425562938414901 -0.04848867248623921 -0.005284794399749589 0.058848178709413924 0.10105403927498276 0.11271440400454744 0.08407684642611335 7.926332225289278e-05 0.05484362762828453 -0.008292244998678214 -0.12040762834831412 0.02399199851552061 -0.24803016491941635 -0.22227787575704594 -0.18376911023389544 -0.3504251678760657 -0.25470134482699724 0.012269051849152567 0.017772390576141935 0.14274807153969188 -0.03515371038841098 -0.07742385908021965 0.07077866387118167 0.06426143201096593 -0.1652572679769533 0.09510555998100699 0.14916127141649974 0.01906263249847583 0.024805189387229608 -0.014369368073107675 0.024486285414932286 -0.25399750472419175
C0014912 0.3175649057116024 -0.36189239733902534 -0.8767841886630566 -0.4389530341130364 0.27512059450942056 0.441158520313071 0.1513870446465667 -0.039016056142290124 0.14478702412331987 -0.07189495576959916 0.346852602937448 0.21461278428318256 0.3925947537526427 -0.10599736545735326 -0.21533418393830894 0.39733976747987576 0.060300818957325704 -0.05703874249248252 0.5663888323207709 -0.17010677815093087 -0.26632437925988595 -0.8041168868692735 0.02996551565944531 0.5527789074324417 -0.040567775161684326 0.007861691865442444 0.5930925885002797 0.10665472636794923 0.07273518269423009 -0.32236388135204985 -0.004153084550991378 -0.41666007702983565 0.1601483588597916 -1.0137124888927644 -0.7415266983704055 -0.26630887441218226 -0.17021236533158268 0.6418993643302531 -0.19371916696877242 -0.6526317434714592 0.8265730285946862 -0.0596742964665442 -0.26687966086572307 0.5179406769779286 -0.34536546495387105 0.7821239206741692 1.0748382787234783 1.22250820067442 -0.8182540461041966 -1.5770657968578803 0.3175649057116032 -0.3618923973390265 -0.8767841886630598 -0.4389530341130357 0.2751205945094211 0.4411585203130693 0.15138704464656777 -0.03901605614228951 0.14478702412331823 -0.07189495576959988 0.3468526029374499 0.21461278428318317 0.3925947537526442 -0.10599736545735307 -0.2153341839383087 0.39733976747987254 0.06030081895732645 -0.05703874249248174 0.5663888323207726 -0.17010677815093117 -0.2663243792598836 -0.8041168868692744 0.029965515659446072 0.5527789074324402 -0.04056777516168584 0.007861691865443199 0.5930925885002797 0.10665472636794873 0.07273518269423028 -0.32236388135205013 -0.004153084550991481 -0.4166600770298349 0.1601483588597902 -1.0137124888927649 -0.7415266983704047 -0.26630887441218076 -0.1702123653315826 0.641899364330251 -0.1937191669687721 -0.6526317434714599 0.8265730285946873 -0.05967429646654323 -0.2668796608657222 0.5179406769779297 -0.3453654649538716 0.7821239206741709 1.0748382787234758 1.2225082006744212 -0.8182540461041986 -1.5770657968578767
C0989915 -0.010621677307403423 -0.02977523790148835 -0.013411022985518196 -0.036116530025118915 -0.02215062277121611 0.003543254615410502 0.020839398983317856 -0.03484934754317406 -0.007708245413862841 0.01317272477753066 0.014550494931300242 -0.008851094612196539 0.01470182764122397 0.005901332935190359 -0.01209581902467957 -0.01931670979168041 -0.002352540360083822 0.014214017634656349 -0.020245345084045522 -0.022737592782912684 0.018888667184425362 0.02654521135462982 0.02448595836503172 0.035826129471831406 0.016056191059781254 -0.018150379558376156 0.018561914312211075 0.011361300590413929 -0.043759225000497844 0.004738738317737188 -0.046925071777520186 -0.04972866917765429 -0.061128280649665794 -0.05772792351027142 -0.04319166140914424 0.004391046025461717 0.0028862861154709454 0.020755974033092022 -0.007146159217698129 0.0020746436216252918 -0.0036671820919701855 0.011177296913103502 -0.022822476381605512 0.007812808260696049 0.04168230922376605 -0.00778058799441483 -0.00896393377075783 -0.021126289091437916 0.019193547430085122 -0.08340107452502021 -0.010621677307401137 -0.029775237901490184 -0.013411022985517898 -0.03611653002512046 -0.022150622771217206 0.00354325461541117 0.02083939898331806 -0.03484934754317294 -0.007708245413862947 0.013172724777529326 0.01455049493130333 -0.00885109461219644 0.01470182764122249 0.005901332935189234 -0.012095819024679733 -0.019316709791680788 -0.0023525403600823647 0.01421401763465728 -0.020245345084045484 -0.02273759278291333 0.018888667184426736 0.026545211354630706 0.024485958365029915 0.035826129471832405 0.016056191059782243 -0.018150379558375337 0.01856191431221166 0.011361300590414016 -0.043759225000498066 0.004738738317737669 -0.046925071777520685 -0.049728669177654165 -0.061128280649665696 -0.05772792351027146 -0.043191661409144134 0.004391046025461606 0.0028862861154708833 0.020755974033092008 -0.007146159217698192 0.0020746436216250532 -0.003667182091970201 0.011177296913103438 -0.022822476381605374 0.007812808260696087 0.041682309223765784 -0.007780587994414559 -0.008963933770757939 -0.021126289091437815 0.01919354743008512 -0.08340107452501953
C0965129 -0.7137419403152472 -0.08558978957615108 0.16535092392391568 -0.0006948315705892166 0.23721489699423917 0.11052036581471503 0.626242080085372 -0.0637498530064279 -0.25429531558907287 -0.2641298523535614 -0.061505661063377175 0.20564643811000755 0.02423085552957244 0.3842976417425106 -0.1912096355631861 -0.4987133729148633 -0.0988975783891931 0.2222633963414851 -0.07639491012940072 -0.6681200430415765 -0.38290572443059084 0.09201882175825166 0.36640363803931786 0.296700403870187 0.15936170510258338 0.25020168364428735 0.20009223972764692 -0.15092786692428228 -0.0191269755905172 0.37242547018571537 -0.9606458884215515 -1.3850067798292078 0.051327985352014625 -1.1349619413319063 -1.6954278330636552 0.04771916912662043 0.5620561446566916 1.0735531868252386 -0.14310013193954962 -1.2066160776902393 0.5904380012045096 0.6495692716326728 -1.1801463485871326 0.42513507363270114 0.6322798000555072 0.7724994614705624 0.7073479300216134 0.3054248646001579 -0.18224622321348732 -1.330003481993507 -0.7137419403152445 -0.08558978957615404 0.16535092392391446 -0.0006948315705903778 0.23721489699423776 0.11052036581471614 0.626242080085374 -0.06374985300642456 -0.25429531558907337 -0.2641298523535613 -0.06150566106337429 0.20564643811000766 0.024230855529572364 0.38429764174250997 -0.19120963556318615 -0.49871337291486245 -0.09889757838919094 0.22226339634148468 -0.07639491012940293 -0.6681200430415758 -0.38290572443058923 0.09201882175825368 0.3664036380393157 0.29670040387018914 0.15936170510258468 0.2502016836442893 0.2000922397276478 -0.15092786692428095 -0.019126975590515162 0.37242547018571526 -0.9606458884215526 -1.3850067798292078 0.05132798535201345 -1.1349619413319065 -1.6954278330636559 0.047719169126620414 0.5620561446566917 1.0735531868252368 -0.14310013193954954 -1.2066160776902395 0.5904380012045092 0.6495692716326721 -1.1801463485871324 0.4251350736327013 0.6322798000555054 0.7724994614705628 0.7073479300216123 0.3054248646001583 -0.18224622321348705 -1.3300034819935065
C0360714 -0.23521321253122587 0.22035080379914476 -0.1342857106969424 -1.0748490437699099 -0.20218980770891223 0.2099217833835248 0.16343182750418395 0.19672467306567418 -0.4343482661888517 -0.23838691154381067 -0.24917068047180574 -0.03768659689592578 0.15522127927038634 0.5045741007170085 0.06573909924377166 -0.0017541977844256547 -0.007481415100865151 0.46506880140242285 -0.17497002912087015 -0.4218776525474612 -0.42701033682877476 -0.023144364535693837 0.15733996806550613 0.6844768212587292 0.14188855658365565 0.06100600430374168 -0.13334889920556844 0.06169255020434838 0.3096700723795707 0.10127728000993386 -0.5825850407936953 -1.0555043564938031 0.21683813768115068 -1.7718738064872073 -1.0750349888678836 -0.0464409493376036 0.46313951073852916 0.8038175705274339 -0.206681177605082 -1.538637719295437 1.2991113055484524 0.46823254768796146 -1.9353447467557388 0.221289955909067 0.15958130598670858 0.8509839850344707 0.8164679013333415 1.2084602725588844 -0.2812264410947028 -2.724267843759505 -0.23521321253122832 0.22035080379914562 -0.13428571069694473 -1.0748490437699105 -0.20218980770891126 0.209921783383521 0.16343182750418647 0.19672467306567107 -0.4343482661888528 -0.23838691154381625 -0.24917068047180657 -0.03768659689592666 0.15522127927039087 0.504574100717008 0.0657390992437737 -0.001754197784428013 -0.00748141510086461 0.46506880140242235 -0.17497002912086726 -0.421877652547462 -0.4270103368287736 -0.023144364535695145 0.157339968065509 0.6844768212587296 0.14188855658365157 0.061006004303745094 -0.13334889920556864 0.06169255020434868 0.3096700723795707 0.10127728000993437 -0.5825850407936952 -1.055504356493805 0.21683813768114787 -1.7718738064872084 -1.075034988867882 -0.04644094933760107 0.46313951073852866 0.803817570527431 -0.20668117760508123 -1.538637719295437 1.299111305548452 0.4682325476879602 -1.9353447467557345 0.22128995590906822 0.1595813059867046 0.8509839850344739 0.8164679013333418 1.208460272558885 -0.28122644109470163 -2.7242678437595047
C0948265 -0.08639338430160269 -0.13191117422893084 -0.03641805902359443 -0.12135649994106021 -0.1318890152236096 -0.1388639749127355 0.2439479922504925 0.397780983592297 0.02956720581506473 -0.13935828118330704 0.26226549454407233 0.04238224522262328 -0.41819878805958194 0.19450155097535296 0.24251583107502558 -0.025136721290156216 0.20244461536030575 -0.06597703441541967 0.15828014120271242 -0.046038017985837364 -0.03329115491762526 0.11769157110415848 0.3870822960639394 0.2344730672436293 -0.10257382720675765 -0.538063620907689 -0.14308338892242978 -0.4280289375850811 -0.05517146812889194 0.2908109834008324 0.9021840090587807 -0.6998689518579583 -0.17198552358332536 1.1832970453988592 -1.1591880979148839 0.06684869474496039 0.05393123875348902 0.728363432755094 0.0017135557165557846 -0.8932902399324069 -0.9493635083405949 0.14233529348865984 0.5500190606015031 0.712803511183071 -0.054148382299536925 0.35018277065254905 0.5676262337766497 -0.8109148561602453 -0.5546253677006382 -0.26722510284078244 -0.08639338430160512 -0.13191117422892898 -0.03641805902359559 -0.12135649994105809 -0.13188901522360758 -0.13886397491273617 0.24394799225049255 0.3977809835922961 0.029567205815064324 -0.1393582811833067 0.2622654945440699 0.0423822452226224 -0.418198788059581 0.194501550975354 0.24251583107502617 -0.025136721290156577 0.20244461536030448 -0.06597703441542033 0.15828014120271372 -0.046038017985835795 -0.03329115491762764 0.11769157110415705 0.3870822960639409 0.2344730672436273 -0.10257382720675888 -0.5380636209076892 -0.1430833889224306 -0.4280289375850806 -0.05517146812889251 0.290810983400832 0.9021840090587804 -0.6998689518579588 -0.17198552358332675 1.1832970453988594 -1.1591880979148836 0.06684869474496004 0.05393123875348895 0.728363432755094 0.0017135557165566223 -0.8932902399324069 -0.9493635083405958 0.1423352934886588 0.5500190606015029 0.7128035111830708 -0.05414838229953658 0.3501827706525491 0.5676262337766497 -0.8109148561602452 -0.5546253677006391 -0.26722510284078493
C0073393 -0.16421943675974035 0.49574450874834813 0.4567340792586408 -0.3890823669164402 -0.0648961103802798 -0.10742352584501981 -0.19480757808767077 0.35657779856581623 0.6816285664137945 -0.6067224371866561 0.2614261983722782 -0.1150587858253155 -0.21298916870983492 0.22802113531825888 0.9446521151267842 0.6467088103341506 0.13173375602074278 0.13452225065902965 -0.6503091578382583 -0.4924762866562708 0.21467541409598143 -0.16866127944504317 1.2990566719797543 0.19182779972548833 -0.047011599633027444 1.369224461663429 -0.8056438195841666 -0.737844894393766 0.6062745069749981 -0.24691959008097222 -0.623839814469294 -0.1471661371121745 -0.35994611373029767 -0.09016650297999078 0.16793426719931212 -0.09607940938157414 -0.6258619799774998 0.2607318689972419 0.43985773090250774 -0.8699643908024036 1.9844818591792082 -1.266563397698275 1.8836154105781655 1.3274243581589396 -1.6418623756449369 -0.9397762042109401 0.5689290019850213 2.1893379741359706 -0.8299157399543227 -2.4551664015006534 -0.1642194367597414 0.4957445087483501 0.4567340792586378 -0.38908236691643866 -0.06489611038027998 -0.10742352584502159 -0.19480757808766924 0.35657779856581495 0.6816285664137928 -0.6067224371866548 0.2614261983722773 -0.11505878582531702 -0.21298916870983228 0.2280211353182584 0.9446521151267836 0.6467088103341494 0.13173375602074336 0.13452225065902815 -0.6503091578382588 -0.4924762866562716 0.2146754140959811 -0.16866127944504303 1.2990566719797545 0.19182779972548789 -0.04701159963302991 1.3692244616634288 -0.8056438195841673 -0.7378448943937663 0.6062745069750002 -0.24691959008097192 -0.623839814469294 -0.14716613711217527 -0.3599461137302964 -0.09016650297999096 0.16793426719931237 -0.0960794093815726 -0.6258619799775001 0.2607318689972386 0.4398577309025083 -0.8699643908024048 1.9844818591792084 -1.2665633976982749 1.883615410578168 1.3274243581589387 -1.6418623756449358 -0.9397762042109383 0.5689290019850196 2.1893379741359698 -0.8299157399543263 -2.4551664015006565
C1322815 0.1802076262291456 -0.28685474428109725 -0.17596408045115725 0.48866059432864206 0.5325424418325926 -0.4220794622161967 0.22851105665779572 -0.03278318001722598 -0.07158137749850829 0.0023981417471584097 0.46233440879107407 -0.12301446597753138 0.5264530615193026 0.05479205724318987 -0.27609322152474414 0.0934441440246673 -0.03800401810918581 0.28376878127634125 -0.3506212313606886 -0.2354265858584913 -0.0849850506069645 -0.1687356320116377 0.01945564697218512 0.41853893363660466 -0.0689817590406798 0.2417355359553779 -0.15102441221230653 -0.17656307954588596 0.016881908481426934 0.12642019880610933 -0.5675650930533543 -0.5075857438971954 0.11330515259004345 -0.7586694610482304 -0.7225753448566956 -0.07471690507821749 0.26978989938189135 0.45116510570277046 0.006400738812216653 -0.7114052176942217 0.5779559989107387 0.22952444866322436 -0.8848158879681685 0.13333370442674125 0.17677391589115915 0.264340841656678 0.35955800004442856 0.38379982664533147 -0.08571859151400785 -0.6126725985310171 0.18020762622914813 -0.28685474428109875 -0.17596408045115766 0.4886605943286408 0.532542441832592 -0.42207946221619663 0.22851105665779664 -0.032783180017224814 -0.07158137749850856 0.002398141747156985 0.46233440879107657 -0.12301446597753171 0.5264530615193023 0.054792057243189245 -0.27609322152474375 0.09344414402466629 -0.03800401810918477 0.28376878127634164 -0.3506212313606889 -0.2354265858584918 -0.08498505060696226 -0.1687356320116367 0.0194556469721836 0.4185389336366053 -0.06898175904067974 0.2417355359553793 -0.1510244122123061 -0.1765630795458862 0.016881908481426997 0.12642019880610944 -0.5675650930533551 -0.5075857438971958 0.11330515259004233 -0.7586694610482315 -0.7225753448566951 -0.07471690507821652 0.26978989938189163 0.4511651057027698 0.006400738812216893 -0.711405217694222 0.5779559989107385 0.22952444866322494 -0.8848158879681679 0.1333337044267418 0.1767739158911591 0.26434084165667865 0.35955800004442834 0.3837998266453322 -0.08571859151400678 -0.6126725985310183
C0071097 0.23475698724566915 -0.032836159661512314 0.04945677143610011 0.26059752075025905 0.07223891538953295 -0.00230978669772624 0.08737619556588297 -0.14461209727310828 -0.1763162146089508 0.06199535321842327 0.1362212657162172 0.20966571043659904 0.20809785114338092 0.013707052094947983 -0.43681311002881573 -0.12969896838374265 -0.015908252877299724 -0.04627975340072726 0.09282078083997637 -0.03093508847157707 -0.2651515774015337 -0.10018272467288657 0.10660524100511277 0.2830054872978292 0.10937381168412531 0.18833460066051816 -0.03998938832554829 0.20934874457706124 0.23681912245126932 0.08046033601013422 -0.11877249555608019 -0.5714599817665402 -0.09130708575587596 -0.9706738753639377 -0.6487823819221766 0.06041570486033048 0.18831934487422022 0.48012884015662477 -0.19915845370761237 -0.7308121987839673 0.614725165999549 0.23031518197147724 -0.836340038599036 0.31946479341683504 0.12842916094823234 0.34008524760154674 0.5816468058790483 0.634440520444568 -0.31770119601962965 -0.45640933435035536 0.23475698724566677 -0.03283615966151121 0.04945677143609925 0.26059752075026016 0.07223891538953386 -0.002309786697727414 0.08737619556588341 -0.1446120972731086 -0.1763162146089513 0.06199535321842375 0.1362212657162148 0.20966571043659873 0.20809785114338286 0.01370705209494877 -0.43681311002881595 -0.12969896838374254 -0.015908252877300827 -0.04627975340072839 0.09282078083997661 -0.0309350884715771 -0.2651515774015345 -0.1001827246728874 0.1066052410051145 0.2830054872978289 0.10937381168412373 0.18833460066051805 -0.0399893883255485 0.20934874457706198 0.23681912245126963 0.08046033601013387 -0.1187724955560804 -0.5714599817665396 -0.09130708575587597 -0.9706738753639372 -0.6487823819221762 0.060415704860331265 0.18831934487422042 0.4801288401566243 -0.19915845370761218 -0.730812198783967 0.6147251659995489 0.2303151819714774 -0.8363400385990349 0.3194647934168355 0.1284291609482319 0.340085247601547 0.5816468058790487 0.634440520444569 -0.3177011960196293 -0.4564093343503558
C0248719 0.4902004876400347 0.4883165365092538 0.8406535233625402 -0.007252462004303698 -0.29629666158926293 0.5354591712737178 -0.1586134653921262 -0.45636989716227605 -1.1790099979904092 -0.39877696116051076 -1.6728899045275925 -0.6406788106382885 0.12816658066722114 -0.1271223447760145 0.30931848932545464 -0.20588292906304753 0.7960483829187182 0.29761872515965815 0.38939694008195747 -0.2668649652198524 -0.6837632729209054 0.22346615299564654 0.8371331979223098 -1.231820866802522 0.08584873873104476 0.3728103453796627 0.19027226739495842 -0.38719095274088355 -0.23235342215588023 1.1069185433142712 -1.152944234738022 -0.34089243426395305 0.4717723324721871 -1.5551553999508874 -1.5172484000122277 -0.5831303564329279 -0.44826006245899397 1.289262781991103 0.9487095882987936 0.4993135966000062 0.5097187791680213 0.7262121359935563 -1.3553104438054318 1.9033692547541705 0.961717431811681 2.2654487660106803 0.5261317583256444 0.08072084514820062 -2.847293137417125 -1.115944604205978 0.4902004876400348 0.4883165365092545 0.8406535233625373 -0.007252462004303167 -0.2962966615892623 0.535459171273717 -0.15861346539212232 -0.45636989716227555 -1.1790099979904107 -0.398776961160514 -1.6728899045275936 -0.6406788106382885 0.1281665806672219 -0.12712234477601433 0.3093184893254573 -0.20588292906304836 0.7960483829187182 0.29761872515965615 0.3893969400819592 -0.26686496521985503 -0.6837632729209044 0.2234661529956463 0.8371331979223103 -1.2318208668025201 0.08584873873104369 0.3728103453796647 0.1902722673949592 -0.3871909527408819 -0.232353422155878 1.1069185433142728 -1.1529442347380208 -0.340892434263955 0.47177233247218675 -1.5551553999508885 -1.5172484000122295 -0.5831303564329259 -0.4482600624589936 1.2892627819911016 0.9487095882987925 0.499313596600005 0.5097187791680214 0.7262121359935568 -1.3553104438054309 1.903369254754171 0.9617174318116806 2.2654487660106817 0.5261317583256422 0.08072084514820016 -2.847293137417128 -1.1159446042059722
C1098320 -0.2709080608040174 0.7900591288029294 0.07999417923669905 0.45019580012575466 -0.33606266480640196 0.19125923559512986 -0.42521668353578607 0.2163434959741332 -0.07953246411476328 0.10318716543509539 -1.0220681910339593 0.26441251192531495 -0.3991033136339263 0.43949263406631967 0.6201598059694777 -0.7492050991343151 0.5210565035655397 -0.326281629787772 0.33522062652598406 -0.06628649815088657 -0.1415072795572413 -0.3297568630350299 0.2583022811149894 -0.9065483524844755 -0.26033690327925363 -0.10386489634901531 0.3731217284195976 -0.33949492809336645 -0.07791670970274246 0.6653907815947121 -0.2884243500105101 -0.0016936971368167657 0.44026348982571245 -0.957921180451462 -1.1359624899927185 1.001009403056318 -0.2884743594129288 0.54552687880954 0.24203858142178644 0.21074264564798736 0.15704649456081457 0.269503124768298 -0.5608189519082935 0.8791330138821741 0.7983389723532589 1.4962803680823094 0.9528539219203599 0.06452930257631612 -0.6811970563450355 -0.6495957282956317 -0.2709080608040168 0.7900591288029286 0.0799941792366959 0.45019580012575533 -0.3360626648064025 0.19125923559512922 -0.42521668353578546 0.2163434959741354 -0.07953246411476454 0.10318716543509676 -1.0220681910339586 0.264412511925315 -0.39910331363392626 0.43949263406632083 0.6201598059694773 -0.7492050991343142 0.5210565035655397 -0.32628162978777214 0.33522062652598317 -0.06628649815088662 -0.14150727955724146 -0.32975686303502966 0.2583022811149892 -0.9065483524844747 -0.26033690327925385 -0.10386489634901476 0.37312172841959707 -0.3394949280933659 -0.07791670970274071 0.6653907815947108 -0.2884243500105099 -0.0016936971368173008 0.4402634898257118 -0.9579211804514615 -1.1359624899927183 1.001009403056318 -0.28847435941292904 0.5455268788095397 0.2420385814217872 0.21074264564798642 0.1570464945608148 0.2695031247682982 -0.5608189519082932 0.8791330138821729 0.798338972353258 1.4962803680823098 0.9528539219203593 0.06452930257631596 -0.6811970563450349 -0.6495957282956301
C0033228 0.3471060339392823 0.03987132511671293 0.08606093405449994 0.01705794021914443 -0.10356597386553672 0.017057896718176497 0.1908323436815692 -0.33865649844140255 -0.508806247113718 0.59175236103231 0.7633107900628838 -0.1872813628817823 0.014049044649377972 0.19380172058626907 -0.7475003445317412 0.06900406326401219 -1.0814312891001348 0.38240015789089526 -0.3613364192501049 0.7242406966465047 -0.3017195646625956 0.08579586531898453 0.8682222256061758 -0.26766965569858725 1.0288730143358713 0.07110543601708452 0.41375965034352546 0.14948210975342333 0.07590278523328337 0.37958322169826636 -0.4940813075354184 -0.7805638568787089 -0.20385954283272795 -1.1315641619946453 0.019212102860631276 -1.7985322496520573 0.725939950059097 0.07679151031020687 0.15441861210402186 -0.16857474982984474 0.5387875375501499 0.7931815989320287 -0.5888363179709502 1.493134587003331 0.6665141366251591 1.1868808488095406 0.09440265456218459 0.27474663175605485 -2.1026495937139633 -0.6272160916802254 0.3471060339392841 0.03987132511671062 0.08606093405449874 0.017057940219142628 -0.10356597386553826 0.01705789671817737 0.19083234368156846 -0.33865649844139917 -0.5088062471137182 0.5917523610323111 0.7633107900628875 -0.18728136288178004 0.014049044649377876 0.1938017205862687 -0.747500344531743 0.06900406326401307 -1.081431289100132 0.3824001578908975 -0.36133641925010573 0.7242406966465048 -0.3017195646625931 0.08579586531898642 0.8682222256061732 -0.26766965569858536 1.028873014335871 0.07110543601708615 0.4137596503435263 0.1494821097534237 0.07590278523328213 0.37958322169826675 -0.49408130753542023 -0.780563856878707 -0.2038595428327312 -1.1315641619946442 0.019212102860633313 -1.798532249652057 0.725939950059098 0.07679151031020943 0.15441861210402277 -0.16857474982984536 0.5387875375501474 0.793181598932027 -0.5888363179709519 1.493134587003329 0.6665141366251573 1.1868808488095393 0.09440265456218459 0.27474663175605374 -2.102649593713965 -0.6272160916802281
C0299792 -0.44292088337714447 0.9413349936136389 -0.727237531248411 -0.31173402676166884 0.16938781461323868 -0.6383903142666536 -0.05278527820642993 -0.24883379438686432 -0.6725599459963523 -0.35287373962614865 0.797223121019501 -0.5316893897225508 -0.6755269285698553 0.03887252371738716 1.3132844942176582 0.533757203114716 0.41144180820900617 -0.04297685779910923 -0.07010974958737777 -0.951693231045168 1.096054132919303 -0.8982890736174884 0.19580111292064878 -0.2862535100982783 -1.0272670772965284 0.4860424053619571 -1.0430724052616698 -0.38511514098274463 0.9191397635279785 0.06026526623226355 -1.5319326340506865 -0.20501215418150173 -0.5994379488685055 -0.09618137963375609 -0.5335330782561856 1.1174003006443232 -0.23276370947582203 -0.62024473899336 0.00789760027282661 -1.284645523259831 1.5987833391544581 -1.5270932144848381 1.8074538512241447 1.463211736130002 -1.881836963998385 -1.0723022263969135 -1.4519319878191388 1.9092670062539943 -3.867860324471997 -2.14059984612284 -0.44292088337714447 0.9413349936136445 -0.727237531248413 -0.31173402676166745 0.1693878146132381 -0.6383903142666553 -0.052785278206425236 -0.248833794386869 -0.6725599459963536 -0.3528737396261517 0.797223121019502 -0.5316893897225512 -0.6755269285698519 0.03887252371738441 1.3132844942176611 0.5337572031147159 0.41144180820900705 -0.04297685779911012 -0.07010974958737563 -0.95169323104517 1.096054132919302 -0.898289073617489 0.1958011129206496 -0.28625351009827726 -1.027267077296529 0.48604240536195764 -1.043072405261671 -0.3851151409827439 0.9191397635279808 0.0602652662322649 -1.531932634050687 -0.20501215418150368 -0.5994379488685068 -0.09618137963375711 -0.533533078256184 1.117400300644324 -0.23276370947582284 -0.6202447389933613 0.007897600272827189 -1.2846455232598313 1.5987833391544573 -1.5270932144848393 1.8074538512241458 1.4632117361300003 -1.8818369639983838 -1.0723022263969135 -1.4519319878191403 1.9092670062539938 -3.867860324471999 -2.1405998461228415
C0038257 0.24443123980676285 -0.2970633270919217 -0.2735787171441786 0.5179040203691312 0.3902625087246459 -0.39433026014553046 0.13313626401250012 -0.03971240927028509 -0.150831307055381 0.15823863042845618 0.49804204585139017 0.04822399495808269 0.49917986575393164 0.10548596728759445 -0.36292075983832445 0.06679619973050173 -0.061920252269913156 0.15445938415791607 -0.30220747875079984 -0.11473972777534733 -0.03886183969987152 -0.12355102634185328 0.10274411094355146 0.4239674475793067 -0.07954860309170737 0.21921022352772987 -0.19312209129163188 0.18052279137055846 0.2151438498307213 0.08652229062319752 -0.2777424785880704 -0.5709914205061744 -0.11263685345410024 -0.9319328950113862 -0.6695950690155149 -0.03341843405016292 0.31175886090477056 0.49458414804293543 -0.10066755037671499 -0.9128723806627462 0.6994405575001068 0.2663829041117236 -1.0453580804068525 0.1828506301612114 0.09907033290315918 0.2900737665284321 0.6102822846357802 0.7317258772097003 -0.2822343256494601 -0.7070996647934804 0.24443123980676476 -0.2970633270919225 -0.2735787171441793 0.5179040203691295 0.3902625087246449 -0.3943302601455305 0.13313626401250025 -0.03971240927028399 -0.15083130705538123 0.15823863042845462 0.49804204585139256 0.04822399495808225 0.4991798657539314 0.10548596728759346 -0.36292075983832417 0.06679619973050065 -0.06192025226991177 0.1544593841579162 -0.30220747875079906 -0.11473972777534817 -0.03886183969986916 -0.1235510263418527 0.1027441109435505 0.423967447579307 -0.07954860309170772 0.21921022352773173 -0.19312209129163097 0.1805227913705586 0.21514384983072074 0.08652229062319798 -0.27774247858807183 -0.5709914205061736 -0.1126368534541008 -0.9319328950113861 -0.6695950690155141 -0.03341843405016202 0.31175886090477023 0.49458414804293427 -0.10066755037671492 -0.912872380662746 0.6994405575001064 0.2663829041117236 -1.0453580804068512 0.18285063016121225 0.09907033290315849 0.2900737665284332 0.6102822846357802 0.7317258772097014 -0.28223432564945916 -0.7070996647934796
C0025598 0.46725573936446363 -0.22501988185609062 0.03573163575389157 -0.2064032758476641 0.2684108512045769 0.1576429256543477 0.24046312297223407 -0.6880937202152756 0.11659082377813873 -0.5331753814476147 0.4205096080546408 0.15659025165816182 0.9668841537145939 0.2672803322793222 -0.4508593032406688 0.21811527102283595 -0.21952331249964366 0.38713475712745626 0.004986492881149773 -0.1675637342659869 -0.24969344138715255 0.026195569536835207 0.33730163062666557 0.6452901119643544 0.17798018176571312 0.3849829223821861 -0.13446461543695654 0.15026582556303622 0.41758348599740563 0.062413965411518633 -0.4564317121534666 -0.5683338447155879 -0.19629736627439348 -1.2857479994803722 -0.9288786650600953 0.1852461357647617 0.3682847013242988 0.5051482434727256 -0.03693697715096175 -1.0001657089258427 0.8552541620377375 0.23280873927869292 -1.0131446644839721 0.3445542060037559 -0.1928462940919729 0.5625026177829339 0.8437515618273924 1.2122972902955365 -0.4273694571024434 -1.69359735167685 0.4672557393644642 -0.22501988185609184 0.03573163575388968 -0.20640327584766247 0.26841085120457664 0.15764292565434757 0.24046312297223552 -0.6880937202152752 0.1165908237781379 -0.533175381447616 0.42050960805464194 0.15659025165816157 0.9668841537145956 0.26728033227932185 -0.4508593032406665 0.21811527102283362 -0.21952331249964194 0.3871347571274556 0.004986492881151571 -0.16756373426598764 -0.2496934413871521 0.026195569536834662 0.3373016306266655 0.6452901119643552 0.17798018176571356 0.38498292238218706 -0.13446461543695637 0.15026582556303691 0.4175834859974068 0.06241396541151845 -0.45643171215346673 -0.5683338447155888 -0.19629736627439426 -1.285747999480373 -0.9288786650600953 0.18524613576476395 0.36828470132429836 0.5051482434727227 -0.036936977150962044 -1.0001657089258436 0.8552541620377379 0.23280873927869286 -1.013144664483971 0.3445542060037572 -0.19284629409197374 0.5625026177829353 0.8437515618273906 1.2122972902955371 -0.4273694571024423 -1.693597351676851
C1532737 0.040679073870728506 0.09233195771837627 0.10771042738221198 0.1434880293018926 0.2732218962043645 -0.12928967285801515 0.17098036566245356 -0.12969620961764952 -0.15112844743994852 0.07845505236592118 0.050138549117660455 -0.051976811738038274 0.17803621989811969 0.020138293236951797 0.0034233392812676906 0.020187010939226768 0.10599695822130097 0.17496192270354985 -0.15644467448051877 -0.12102493637000435 -0.021243816060966616 -0.09550883313439931 0.10633562077264026 0.15368445850660523 -0.019205120464683544 0.09207380987306972 -0.03417548447709266 -0.1281498843520095 -0.045071228523371365 0.09192960982140698 -0.3126884417797621 -0.2162118367346801 -0.0704099733387855 -0.3853092845513245 -0.3095721894919184 -0.03448345374026071 0.06742568085687316 0.22509198330936178 0.01267780297434974 -0.34953235178821124 0.2886472784808428 0.09270594494642406 -0.3812490305930688 0.10734030514583821 0.08420667342580526 0.11625827642723215 0.22052735759893047 0.21629408068062794 -0.08618721140994379 -0.17837473215467936 0.04067907387073063 0.09233195771837462 0.10771042738221213 0.14348802930189128 0.2732218962043634 -0.12928967285801454 0.17098036566245398 -0.12969620961764824 -0.1511284474399488 0.07845505236592 0.05013854911766346 -0.05197681173803835 0.17803621989811827 0.020138293236950527 0.0034233392812679196 0.02018701093922625 0.10599695822130234 0.17496192270355035 -0.15644467448051871 -0.12102493637000505 -0.02124381606096473 -0.09550883313439794 0.10633562077263872 0.15368445850660636 -0.019205120464682604 0.09207380987307072 -0.03417548447709213 -0.12814988435200916 -0.04507122852337142 0.0919296098214076 -0.3126884417797626 -0.21621183673468003 -0.07040997333878525 -0.38530928455132457 -0.30957218949191806 -0.034483453740260676 0.06742568085687292 0.2250919833093613 0.012677802974349719 -0.34953235178821157 0.28864727848084265 0.09270594494642403 -0.38124903059306847 0.1073403051458386 0.08420667342580514 0.11625827642723266 0.22052735759892997 0.21629408068062797 -0.08618721140994366 -0.17837473215467833
C0076275 0.26317433339583024 -0.1886715839692117 0.4114157330261335 -0.007990978967635523 0.18212903998683494 -0.20961139646555163 0.07028039379489971 -0.1926585750325567 0.06348747008887205 0.13466067860180372 -0.10227511321600168 0.23449801562592928 0.47434916510161107 -0.04756792662667244 -0.6332362810200597 -0.028279134100736 0.014776908427699442 -0.026931246482970045 -0.23049450170439928 0.012008707096031707 -0.001324558206747025 -0.062336658073018726 0.26244288171336455 0.22680845282247633 0.01867853182696153 0.2176302219934017 -0.014105375017102581 0.19760959294247699 0.3095389541501662 0.16402445500147764 0.06379113516699847 -0.19144054114946976 -0.2124718769810497 -0.22250776560644567 -0.6388109113835096 0.022662961782816352 0.13727474610641932 0.45075150702546046 0.006721647893411531 -0.7433165801442473 0.4559880593285416 0.2461153713405634 -0.38839037273590393 0.37969369586668866 -0.14534086404006835 0.602098948744986 0.7056018672037545 0.48744333924362004 -0.4345920314328928 -0.5618491777263224 0.26317433339582846 -0.18867158396921013 0.4114157330261315 -0.007990978967633365 0.1821290399868364 -0.20961139646555332 0.07028039379490032 -0.19265857503255848 0.0634874700888707 0.13466067860180309 -0.10227511321600476 0.23449801562592848 0.47434916510161435 -0.04756792662667184 -0.6332362810200579 -0.02827913410073679 0.01477690842769845 -0.026931246482971266 -0.23049450170439822 0.012008707096030635 -0.0013245582067484176 -0.06233665807302046 0.26244288171336677 0.22680845282247555 0.01867853182696017 0.21763022199340123 -0.014105375017102807 0.19760959294247743 0.3095389541501663 0.16402445500147758 0.06379113516699829 -0.19144054114946987 -0.2124718769810504 -0.22250776560644592 -0.6388109113835092 0.022662961782816966 0.13727474610641893 0.4507515070254595 0.006721647893411987 -0.7433165801442472 0.45598805932854114 0.24611537134056385 -0.38839037273590415 0.3796936958666891 -0.14534086404006819 0.6020989487449864 0.7056018672037541 0.4874433392436203 -0.4345920314328937 -0.5618491777263238
C0025219 0.37552776291483864 0.1308983831744443 -0.5824054559139129 0.24860899333868364 0.07181264943654714 -0.10482098464026687 0.3016566498316621 -0.4685052519507333 -0.299041354238615 -0.09170991636113804 0.1845982490334707 -0.009358162661282034 0.19624293585154345 0.5271621106185777 0.3211268693456269 0.271442976530726 0.15922314821148054 0.03725679395710266 0.1157628097882142 -0.08984023201847506 -0.3619999819969594 -0.3195062300638628 0.04848074221431282 0.1460958869491193 0.02096119597935955 0.2675545946553128 0.09659091841524003 -0.22827262803787834 -0.16120586134823295 -0.02253661763445812 -0.049060002833688915 -0.22240350187783997 0.34006717895258326 -0.4390237468278722 -0.29436911913888825 -0.2797801497702681 -0.1469644299789034 -0.0858848782415019 0.09673020714785785 -0.03771123621218133 0.4049845684897915 -0.3889624085678808 0.8852421212420174 0.3150504875071203 -1.4007053326579224 -0.4684503737438113 0.9915576198910053 2.1770439307133436 -0.7793889903389338 -2.1306398475215675 0.375527762914839 0.1308983831744431 -0.5824054559139156 0.24860899333868283 0.0718126494365464 -0.10482098464026675 0.30165664983166274 -0.46850525195073217 -0.2990413542386147 -0.09170991636113883 0.18459824903347338 -0.009358162661282714 0.19624293585154493 0.5271621106185763 0.3211268693456263 0.2714429765307249 0.15922314821148184 0.03725679395710133 0.11576280978821424 -0.0898402320184745 -0.3619999819969591 -0.3195062300638625 0.04848074221431231 0.14609588694911937 0.020961195979358284 0.2675545946553142 0.0965909184152402 -0.22827262803787848 -0.16120586134823203 -0.022536617634458175 -0.049060002833690365 -0.22240350187784144 0.3400671789525845 -0.4390237468278729 -0.2943691191388878 -0.279780149770266 -0.14696442997890322 -0.0858848782415034 0.09673020714785721 -0.03771123621218139 0.404984568489792 -0.38896240856788 0.8852421212420192 0.31505048750712045 -1.4007053326579237 -0.46845037374380977 0.9915576198910022 2.1770439307133462 -0.7793889903389343 -2.130639847521569
C0027996 0.07432833171804745 -0.07490269539525234 0.19445553228649387 0.03299720103305648 0.19705303338477337 -0.11334737343221835 0.19074977860382872 -0.32347416132923273 -0.1640478425811071 0.13046386968828347 0.20901968392953343 0.06826556687445386 0.1844113491179332 -0.021213482827705733 -0.2955925518614139 -0.06028063371026513 -0.0893242028358321 0.11630040138921975 -0.16156021520814273 -0.004609606559247273 -0.07246660128478119 -0.035534224523145155 0.1593247768997339 0.23509848181084725 0.08041870759960798 0.0833051635714637 -0.08177900097606478 0.29891561294134755 0.16344111030199532 0.03149810385795167 -0.11545053319916973 -0.4057654734585985 -0.3544847881943392 -0.7405028025085272 -0.4297596809754879 0.019191355831275264 0.20198614204866702 0.3196762691463924 -0.13409363198864857 -0.6179101485598526 0.4302011265762473 0.23564312698205542 -0.7000023249318676 0.19420138488208502 0.0642874587653334 0.22010955077287986 0.47781996573602853 0.5511771587675883 -0.2608842674683377 -0.43672934833098453 0.07432833171804756 -0.07490269539525288 0.1944555322864938 0.0329972010330567 0.19705303338477237 -0.11334737343221891 0.1907497786038289 -0.32347416132923157 -0.1640478425811074 0.1304638696882835 0.20901968392953338 0.0682655668744541 0.18441134911793336 -0.021213482827706055 -0.2955925518614143 -0.06028063371026541 -0.08932420283583169 0.11630040138921934 -0.1615602152081425 -0.004609606559247658 -0.07246660128478068 -0.03553422452314531 0.15932477689973382 0.23509848181084775 0.08041870759960783 0.08330516357146443 -0.08177900097606426 0.29891561294134816 0.1634411103019951 0.03149810385795232 -0.11545053319916994 -0.40576547345859865 -0.35448478819433854 -0.740502802508527 -0.42975968097548795 0.019191355831275937 0.20198614204866686 0.31967626914639174 -0.13409363198864843 -0.6179101485598533 0.4302011265762475 0.2356431269820557 -0.700002324931867 0.19420138488208574 0.06428745876533322 0.22010955077288 0.47781996573602853 0.5511771587675889 -0.26088426746833715 -0.4367293483309843
C0288171 -0.18563416536904284 0.5038436927684498 0.227812573532635 0.23461724387332392 -0.07834867477509735 0.2504620800502769 -0.4604115468365391 0.17032707963681407 0.09724991488414034 -0.11622334118740453 -0.23112331849723944 0.5083237369928081 -0.17091828088091784 0.4413778874796189 0.3404105565854449 -0.4778191598254521 -0.009052440748421122 -0.44781035371167616 0.2778675142348671 0.22971295617477486 -0.1964461435555305 0.06451312399382947 0.6319695246847798 -0.33504984485495765 -0.22291510547360863 0.4061778588588846 0.3886644560603276 0.027234938541229877 -0.3243782887774439 0.2033240616580506 0.18814217425368518 -0.011589173442545895 -0.12153938014415812 -1.202994463992382 -0.6857844456018098 0.4209349892229354 0.10012437212733348 0.3735037682043145 0.07034438789352698 -0.07204237649576069 0.4990405677404904 0.25852339134320446 -0.950558454887781 0.766335130241347 0.6441775315082818 1.0849068070455157 0.8907939015679874 0.4524150020490995 -0.6035650173835624 -0.8777467711995279 -0.18563416536904356 0.5038436927684511 0.22781257353263093 0.2346172438733257 -0.07834867477509612 0.25046208005027604 -0.4604115468365392 0.17032707963681498 0.09724991488413984 -0.11622334118740342 -0.2311233184972407 0.5083237369928078 -0.170918280880916 0.4413778874796202 0.34041055658544495 -0.47781915982545153 -0.009052440748421469 -0.4478103537116769 0.2778675142348683 0.22971295617477444 -0.19644614355553133 0.06451312399382847 0.6319695246847817 -0.33504984485495753 -0.22291510547360993 0.40617785885888424 0.38866445606032674 0.027234938541230293 -0.3243782887774424 0.20332406165804998 0.1881421742536849 -0.011589173442546763 -0.12153938014415917 -1.2029944639923829 -0.6857844456018096 0.4209349892229365 0.10012437212733279 0.3735037682043131 0.07034438789352719 -0.07204237649576109 0.49904056774049027 0.2585233913432047 -0.9505584548877807 0.7663351302413471 0.6441775315082804 1.0849068070455157 0.8907939015679861 0.45241500204909996 -0.6035650173835623 -0.8777467711995279
C0009079 0.25178689940899657 -0.9340281034121506 0.4481060250635949 1.1976487140691527 -0.45896315595380144 0.6899686399319883 0.4242287143735772 -0.7243924330494178 1.4816243083844638 0.9406781281470528 -0.3273668092226206 -0.7159563729117967 -0.24103122239092153 -0.13405076786109074 0.54196112623027 0.5791007051936113 -0.18854542858501236 0.30291074452729655 -1.1108906036492812 -0.0776018347652589 0.736376894159841 -0.5090055678500319 0.6677356821280375 -0.28735513692854797 -0.012960774523598563 1.9976879530421654 -1.7154160221380095 -0.2468603375018905 0.7282026302521726 -0.04670996006303372 -0.2942090823911398 0.2631929748286245 -0.21992316958933528 0.057582474412897454 -1.7453367190054758 1.211176768074583 -1.5197316970725783 -1.6878376565323023 -0.7018204828120838 -2.1979930205339664 0.9540314428718327 -0.5567432857278178 0.6538042203748353 0.5185413242268038 -1.00836121638095 -1.3471220313611931 -2.4520863525737093 0.9426408327759551 -4.85092547309589 -1.7411328811296782 0.251786899408994 -0.9340281034121519 0.4481060250635912 1.1976487140691572 -0.45896315595380177 0.6899686399319879 0.4242287143735784 -0.7243924330494165 1.4816243083844636 0.9406781281470538 -0.327366809222621 -0.7159563729117966 -0.24103122239092017 -0.13405076786109218 0.5419611262302704 0.5791007051936108 -0.18854542858501097 0.3029107445272953 -1.1108906036492787 -0.07760183476525917 0.7363768941598389 -0.5090055678500318 0.6677356821280388 -0.28735513692854725 -0.01296077452359725 1.9976879530421654 -1.7154160221380101 -0.2468603375018901 0.7282026302521742 -0.0467099600630331 -0.29420908239114113 0.26319297482862564 -0.2199231695893355 0.057582474412898446 -1.7453367190054743 1.2111767680745835 -1.5197316970725774 -1.6878376565322986 -0.7018204828120828 -2.197993020533968 0.9540314428718303 -0.5567432857278184 0.6538042203748363 0.5185413242268038 -1.008361216380951 -1.347122031361195 -2.452086352573711 0.9426408327759522 -4.850925473095894 -1.7411328811296822
C0021186 -0.19529491563852885 -0.8854987077806629 0.39564859549687875 0.6279240368141606 -0.49139362052003044 0.25438053951220035 0.8819504819477161 0.3269828392302582 -0.020071214716383873 0.30265350041258926 0.21873807761138955 0.2173544658278748 -0.1975504615534194 0.3113509762741901 0.29154091264444476 0.9312697362811101 1.7494831607899297 0.06441391041232328 0.21345796000938846 0.5788980473583405 -0.3991467402571608 0.29166571998857266 0.11654776412454351 -0.06009378393935364 -0.12359630494049403 0.21490783676348832 0.33959402084535173 -0.46341539368569595 -0.28957431671829154 0.5285218851260467 -0.24369284419023768 -0.6446351682383016 0.3968954693750854 -0.7487117461990417 1.0685457723596763 0.4067119924990391 -1.0237263224625417 1.7045673167564095 -0.5250212757512459 0.338295308493737 0.094694014254563 1.8027863681452911 -0.4102766410684674 0.31753557011882555 -0.22058605124496222 0.14037683488615807 0.000602263332969007 -0.10407927791866024 -1.2002023153697507 -0.3540367329998721 -0.1952949156385271 -0.8854987077806634 0.395648595496879 0.6279240368141575 -0.4913936205200307 0.25438053951220146 0.8819504819477167 0.3269828392302583 -0.020071214716383422 0.30265350041258726 0.21873807761139327 0.2173544658278743 -0.19755046155341968 0.31135097627418845 0.29154091264444426 0.9312697362811092 1.7494831607899313 0.06441391041232417 0.21345796000938838 0.5788980473583395 -0.3991467402571579 0.29166571998857466 0.11654776412454203 -0.0600937839393531 -0.12359630494049403 0.21490783676349004 0.3395940208453524 -0.4634153936856948 -0.28957431671829253 0.5285218851260475 -0.24369284419023923 -0.6446351682383021 0.39689546937508474 -0.7487117461990419 1.0685457723596776 0.4067119924990392 -1.0237263224625417 1.7045673167564066 -0.5250212757512448 0.33829530849373673 0.09469401425456471 1.8027863681452907 -0.41027664106846656 0.3175355701188269 -0.22058605124496306 0.14037683488615796 0.0006022633329681378 -0.10407927791866159 -1.2002023153697496 -0.3540367329998693
C0039601 -0.048162854686526306 0.4736021660907191 0.18821236311430378 0.18363477215666432 -0.5167525935507327 0.8174647635697786 0.6611157862803158 0.5626475670422167 0.7499301113034821 -0.2369275910861522 0.5201857291357626 0.3927004135143792 1.194091383136796 -0.5463180734180345 -0.6820864339482038 0.9539059605145346 -0.3110680941204727 0.38947348879716387 0.08307219913829536 0.2543000495820582 -0.20944553978164446 -0.0947573284766222 -1.0989582907743114 1.6338162575145436 1.0289771873805846 -1.093214231649998 0.13244958693887163 -0.450573756412646 0.9550939092854956 -0.7469859406191174 -1.0487818335605479 0.11290831397850168 0.4343722407665617 -0.8732340048228446 -0.413377431523869 0.6009523523120095 0.21750609356981362 1.2482413879482606 0.233517915183921 -0.5763011702071086 1.3128271970410132 -1.6819762340827773 -0.08230055578886372 0.24787792810241452 0.09392064382773739 1.5917181039682313 2.076511504498174 1.4605355838476834 -1.7225808394744575 -2.2519480819233 -0.048162854686527735 0.47360216609071704 0.18821236311430098 0.18363477215666368 -0.5167525935507316 0.8174647635697789 0.6611157862803164 0.562647567042214 0.7499301113034812 -0.2369275910861538 0.5201857291357639 0.3927004135143783 1.1940913831367976 -0.5463180734180345 -0.682086433948205 0.9539059605145319 -0.3110680941204729 0.38947348879716465 0.08307219913829597 0.25430004958205954 -0.20944553978164357 -0.09475732847662362 -1.098958290774309 1.633816257514543 1.0289771873805815 -1.0932142316499966 0.1324495869388703 -0.4505737564126454 0.9550939092854952 -0.7469859406191179 -1.0487818335605479 0.11290831397850372 0.4343722407665592 -0.8732340048228427 -0.41337743152386486 0.600952352312008 0.21750609356981565 1.2482413879482597 0.23351791518392226 -0.5763011702071107 1.3128271970410115 -1.6819762340827777 -0.08230055578886199 0.24787792810241133 0.0939206438277356 1.5917181039682302 2.0765115044981717 1.4605355838476843 -1.7225808394744577 -2.2519480819233038
C0039286 0.06819591271374621 -0.057288754603646755 0.3380427205807974 -0.07831530894655775 0.047694570691401775 0.0836811036781606 -0.10928845726237431 -0.28643328063721163 0.11870808618674974 0.23998173763860792 0.3032119516210856 -0.004977480411488971 0.1499264837473238 -0.35226569285623 -0.10961014022400924 0.0015624488600180708 0.08760352470866814 -0.24203076022071274 -0.4358613882439415 0.09744696537658253 0.1096190164485357 -0.15438596644411787 0.3439160827424237 0.27203500361048255 -0.04185804627085022 0.2821887810124848 -0.16065711469402857 0.02924969686944984 0.17231891349658485 -0.06814343509995198 -0.0666919563113693 -0.044426322478463336 -0.15713350775410537 -0.34322526413692456 -0.20856056309801096 -0.039722194574254514 0.06907999801059334 0.21712789501549978 0.027112417967120696 -0.5965262671630711 0.6586768717084772 -0.07645302913882018 -0.12408009854183973 0.3501456328579555 -0.4502054208874596 0.15082993873584877 0.5253486006019066 0.8266631921013446 -0.35577037519461746 -0.5124425734833881 0.06819591271374802 -0.05728875460364762 0.33804272058079704 -0.0783153089465587 0.04769457069140083 0.0836811036781605 -0.10928845726237336 -0.28643328063721063 0.11870808618675002 0.23998173763860683 0.3032119516210875 -0.004977480411489694 0.1499264837473234 -0.35226569285623127 -0.10961014022400813 0.001562448860017041 0.08760352470866936 -0.24203076022071285 -0.43586138824394066 0.09744696537658094 0.1096190164485371 -0.1543859664441172 0.34391608274242297 0.2720350036104834 -0.041858046270850456 0.2821887810124864 -0.1606571146940279 0.029249696869450226 0.17231891349658507 -0.06814343509995084 -0.06669195631137016 -0.04442632247846436 -0.1571335077541043 -0.34322526413692495 -0.20856056309801044 -0.039722194574253536 0.06907999801059309 0.21712789501549903 0.027112417967120727 -0.5965262671630718 0.6586768717084777 -0.07645302913881999 -0.12408009854183932 0.3501456328579564 -0.45020542088746013 0.15082993873584952 0.5253486006019058 0.8266631921013451 -0.3557703751946182 -0.512442573483389
C0008677 0.10628030185625276 0.11973443207642985 -0.017153073807754993 -0.36192768647256884 -0.3744786932404482 -0.246359760398846 -0.324934523024931 0.042006161292341165 -0.053640030935251826 0.15237576947591558 0.26306849133456933 0.20713579128998313 0.020490449486501475 0.04729390075971665 0.31062601336759305 -0.12750935097705804 0.18819805752353347 0.4121826986068095 -0.2717589484691949 -0.23346640283171896 -0.10418504797527899 -0.3585408337398704 0.08713008795798864 -0.0794478807630945 0.23182543804211678 -0.24726443637720216 -0.14136501175046678 -0.050189665874715156 0.14842212223190343 0.37149965673814445 0.3675280127504146 0.3102451466348183 0.9863580010228004 -0.7007687552154693 0.5417698787241538 -0.12427764594800754 0.17243723236419675 -0.2827649807808836 0.2465347751428522 -0.5199245379855673 0.26354936804240975 0.24828975266728148 0.4059032509294391 -0.12229007300756826 0.981142915719673 -0.39363915185801135 -0.32561094597578194 0.568942116556214 0.7364628621933006 -12.08076380714296 0.1062803018562508 0.1197344320764324 -0.017153073807764076 -0.3619276864725745 -0.37447869324044886 -0.24635976039885396 -0.324934523024927 0.04200616129234213 -0.05364003093525779 0.15237576947592185 0.2630684913345736 0.20713579128998433 0.020490449486511696 0.047293900759720224 0.31062601336760315 -0.12750935097706223 0.18819805752353572 0.41218269860680007 -0.2717589484691871 -0.2334664028317093 -0.10418504797529111 -0.3585408337398667 0.08713008795797994 -0.07944788076309524 0.2318254380421047 -0.24726443637719503 -0.1413650117504678 -0.05018966587471286 0.14842212223191364 0.37149965673814017 0.36752801275041297 0.31024514663481667 0.9863580010227982 -0.7007687552154717 0.5417698787241568 -0.1242776459480023 0.17243723236419603 -0.2827649807808884 0.2465347751428527 -0.5199245379855658 0.2635493680424109 0.24828975266728245 0.4059032509294556 -0.12229007300756506 0.9811429157196643 -0.3936391518580028 -0.32561094597578316 0.5689421165562225 0.7364628621933016 -12.080763807142965
C0054066 0.004920918771669791 -0.28767711569305693 0.19396737567797206 0.26756752991882266 0.3545548047989836 0.06098138963712318 -0.19447229240299718 0.3167490111119528 -0.1550098795929703 -0.386459972286781 0.07002614727557112 0.5013184973058105 -0.0286826889929443 0.08979996691515303 -0.16423864727366616 -0.11534559440811509 0.04853424932630987 -0.5671188060567851 0.28982994208145835 -0.8713231796341258 -0.7686213715463253 0.15346116136610644 0.15354731555139284 -0.5484859333272482 0.573310831758443 0.07573016651930876 -0.1934530217257551 -0.08840037835424173 0.3397258564000983 0.8241134338529725 -0.5050926321200377 1.1209330592360902 -1.1139615625998982 2.0221756207048376 0.6989698719543078 -0.01917634320454903 0.7996009757975431 -0.07708668984803853 0.3190612738452713 -1.4834311480239388 0.6181289640348069 0.4693825213859911 -1.4057958371075654 -0.26209597688594377 0.795371474863401 -0.2381253429529165 0.7434962582212035 0.7786752084293251 -0.4660232210186482 -0.7005633144004836 0.004920918771669173 -0.28767711569305654 0.19396737567797187 0.2675675299188213 0.35455480479898316 0.0609813896371226 -0.19447229240299763 0.3167490111119504 -0.1550098795929699 -0.38645997228678225 0.0700261472755716 0.5013184973058108 -0.028682688992942535 0.08979996691515198 -0.16423864727366594 -0.1153455944081153 0.04853424932630975 -0.5671188060567858 0.2898299420814579 -0.8713231796341245 -0.768621371546324 0.15346116136610477 0.15354731555139345 -0.5484859333272483 0.573310831758441 0.07573016651930994 -0.19345302172575532 -0.08840037835424111 0.33972585640009645 0.8241134338529718 -0.5050926321200385 1.1209330592360873 -1.1139615625998966 2.022175620704837 0.6989698719543086 -0.01917634320454826 0.7996009757975414 -0.07708668984803936 0.31906127384527183 -1.4834311480239388 0.6181289640348064 0.46938252138599135 -1.4057958371075634 -0.26209597688594133 0.7953714748633999 -0.23812534295291551 0.7434962582212032 0.7786752084293262 -0.4660232210186473 -0.7005633144004834
C0052796 0.08643730218416401 0.4055967826781995 -0.36114589579890666 0.7716338506090507 0.36570198297336715 0.40507753470244234 -0.6725615831066559 0.6732128865191496 0.20673357967402936 -0.650261841579572 0.6180448143083319 0.027086811023796047 0.6212619538739488 0.01819310178573693 -0.157538185998589 0.008022918983143067 -0.377799907278514 -0.15021402865037337 0.22044116885844994 -0.6103454826073212 -0.26107159793407003 0.07585366369272281 -0.6966163702464467 0.32156134226523864 0.0825174853932815 -0.1508611784222141 -0.6313137030258501 -0.0911315630178614 -0.4370889684370784 0.9709486381020436 -0.9758316767592357 1.322895191202743 -1.539838231717307 2.2188751545888015 0.9514732023586407 0.40564847290413536 1.2684365610524415 0.6818384205597616 1.024291673230596 -1.6638943441989298 0.6879177328648273 1.209769352609841 -2.2576508309519956 -0.719467876506528 1.205807957400839 -1.0676699651254755 0.8364189802679816 1.6363075826584017 -1.219107824898168 -1.721033844394273 0.08643730218416093 0.4055967826782005 -0.3611458957989091 0.7716338506090533 0.36570198297336926 0.4050775347024421 -0.6725615831066579 0.6732128865191463 0.2067335796740298 -0.6502618415795715 0.61804481430833 0.027086811023797296 0.6212619538739516 0.0181931017857391 -0.15753818599858901 0.00802291898314248 -0.37779990727851537 -0.15021402865037561 0.22044116885844992 -0.6103454826073148 -0.2610715979340722 0.07585366369272019 -0.6966163702464444 0.3215613422652371 0.08251748539327679 -0.15086117842221214 -0.6313137030258521 -0.0911315630178616 -0.43708896843708084 0.9709486381020427 -0.9758316767592359 1.3228951912027411 -1.5398382317173083 2.2188751545888015 0.9514732023586423 0.40564847290413686 1.2684365610524402 0.6818384205597605 1.0242916732305956 -1.66389434419893 0.6879177328648276 1.209769352609842 -2.257650830951993 -0.7194678765065233 1.2058079574008387 -1.0676699651254737 0.8364189802679801 1.636307582658405 -1.2191078248981653 -1.7210338443942714
C0533545 -0.6758827742292215 0.12602102918726077 -0.13800554653355845 0.39553379173934133 -0.7553042432618268 0.7652014599708735 0.22712703079281943 0.07642363645600785 0.10342765958243463 -0.22352877261749773 -0.18836788760887319 0.046422581366957295 -0.03613236368374321 -0.036865548342999294 -0.24753928107874004 -0.6378371307274325 0.6531705537761282 -0.12332255626457317 -0.32608159220243144 -0.36448649144656037 -0.3798127329663359 0.28907060771104004 0.5568065258452254 0.2042339937884081 0.38979384942816914 0.3133242601477956 0.7396583927349173 -0.21376880870787057 -0.3163524674682994 0.30890675250592714 -0.03695042430681945 -0.063656879834968 0.11221073673676805 -0.14083366367226974 1.1666155996147418 0.12744062156861213 -0.7158057027707175 -0.9764931637487637 0.4031392993621876 -1.2295797737886913 -0.09954494549713519 0.8421897357321579 0.1820111249192797 -0.7185061514061337 0.3027327923938292 -0.14601058925853655 0.2640565059288058 -0.28456370288496113 -0.7957626943522056 -0.25102999393975217 -0.6758827742292215 0.1260210291872611 -0.13800554653355798 0.39553379173934017 -0.7553042432618279 0.7652014599708735 0.22712703079282026 0.07642363645600682 0.10342765958243393 -0.22352877261749957 -0.18836788760887252 0.04642258136695675 -0.036132363683742584 -0.03686554834299957 -0.24753928107873965 -0.6378371307274325 0.6531705537761282 -0.12332255626457374 -0.32608159220243127 -0.3644864914465607 -0.37981273296633566 0.2890706077110402 0.5568065258452249 0.20423399378840862 0.38979384942816914 0.3133242601477962 0.7396583927349178 -0.21376880870786955 -0.3163524674682989 0.3089067525059272 -0.036950424306819454 -0.06365687983496865 0.11221073673676767 -0.1408336636722698 1.1666155996147416 0.12744062156861294 -0.7158057027707181 -0.9764931637487637 0.4031392993621865 -1.229579773788692 -0.09954494549713433 0.8421897357321578 0.18201112491928034 -0.7185061514061323 0.30273279239382905 -0.14601058925853658 0.26405650592880453 -0.2845637028849604 -0.7957626943522051 -0.2510299939397512
C0907410 -0.0959033468605256 0.004586549106865771 -0.02922161968926047 -0.09021401614312946 -0.1669878374387472 0.23228431143368913 -0.148398819058874 0.11474472840716118 0.0040108421783104295 -0.24481064158346424 -0.13075300394692985 0.1955562011336288 -0.23617220913429007 0.09454111474139432 0.07331292241716383 0.046310183257968644 -0.04468120206598167 -0.15574880147509268 0.3497995388713789 -0.06386895639282021 0.031328702245163334 0.11863037685626814 0.010554239722549761 -0.10351656361518276 0.06697497719313975 -0.029852888881279974 -0.12254009196200215 0.33802925499531017 0.12537436111234757 0.08689285636501544 0.15463556684386282 0.33628496677658953 -0.5929074441739961 0.5452628066480572 0.432401997212735 -0.03413505520671018 0.2842726766996963 -0.06185779191455892 0.06824234568881611 -0.676040328953006 0.22665732546751757 0.19534836189964713 -0.701341065701227 -0.14542562880182164 0.23685503089342794 -0.02109178480759435 0.3583563278699685 0.45847053177712094 -0.2259818314541951 -0.43050162404962566 -0.09590334686052585 0.004586549106865799 -0.029221619689261246 -0.09021401614312956 -0.16698783743874748 0.23228431143368922 -0.14839881905887461 0.11474472840716046 0.004010842178310808 -0.24481064158346486 -0.1307530039469295 0.19555620113362898 -0.23617220913428916 0.09454111474139403 0.07331292241716418 0.046310183257967805 -0.04468120206598172 -0.15574880147509262 0.3497995388713793 -0.06386895639281928 0.03132870224516334 0.11863037685626783 0.010554239722549373 -0.1035165636151826 0.06697497719314001 -0.029852888881280182 -0.12254009196200276 0.3380292549953094 0.12537436111234795 0.08689285636501479 0.15463556684386245 0.33628496677658914 -0.592907444173996 0.5452628066480574 0.4324019972127357 -0.03413505520670985 0.28427267669969575 -0.061857791914559174 0.06824234568881563 -0.6760403289530054 0.22665732546751757 0.19534836189964708 -0.7013410657012263 -0.14542562880182092 0.236855030893427 -0.021091784807594244 0.35835632786996835 0.45847053177712166 -0.2259818314541946 -0.430501624049623
C0053882 -0.09930458615182983 0.03242051915863043 0.050201634502265016 -0.08443222200256496 -0.6825497633556818 -0.24628667928542203 0.34126489704098023 -0.10327102118686957 -0.2758329992078359 -0.3527424041864535 0.6080285333127255 -0.09572019022974826 0.18736492990361395 -0.22065643052098827 0.140919272750877 0.2144947873570089 0.2056771484597344 -0.4577358119674335 0.5944932046029898 0.08314136267355968 0.1402909381064225 -0.1322771924040836 0.21187697524169247 -0.540875070531192 -0.029573332835789723 -0.5449054248355754 0.2634192511961835 -0.21957546173936657 0.07764483302974833 0.44410673602947937 -0.42056643909474434 0.0942761754657017 -0.08078598740334585 0.30646547808983365 -0.5486364433782689 0.14386970946142963 -0.025365449533945837 -0.6696177753890786 -0.1911948267285717 -1.0996685278828706 -0.07075854261434851 -0.8345533653914287 -0.3395770108731146 -0.6417073272402286 0.14707312207502057 -0.30065616274984935 -0.931233498423992 -0.16921181352960984 -1.323557036468279 -0.17744399116806395 -0.09930458615183006 0.032420519158632734 0.050201634502265065 -0.08443222200256505 -0.6825497633556816 -0.24628667928542253 0.34126489704098134 -0.1032710211868713 -0.2758329992078365 -0.35274240418645453 0.6080285333127261 -0.09572019022974851 0.1873649299036143 -0.22065643052098824 0.1409192727508788 0.21449478735700908 0.20567714845973428 -0.4577358119674338 0.5944932046029898 0.08314136267355948 0.14029093810642196 -0.1322771924040841 0.21187697524169363 -0.5408750705311921 -0.02957333283579066 -0.5449054248355742 0.2634192511961831 -0.21957546173936632 0.07764483302974726 0.4441067360294793 -0.4205664390947447 0.09427617546570077 -0.08078598740334639 0.3064654780898327 -0.5486364433782687 0.1438697094614311 -0.025365449533945882 -0.6696177753890791 -0.19119482672857221 -1.0996685278828713 -0.07075854261434836 -0.8345533653914287 -0.33957701087311326 -0.6417073272402269 0.14707312207502057 -0.30065616274984874 -0.9312334984239926 -0.1692118135296094 -1.3235570364682787 -0.17744399116806386
C0753645 -0.4133747395668951 0.07160986098866168 0.22083962199330245 0.07936693370219498 -0.4558103892246979 -0.27586824699283385 0.14662298453889025 -0.10739754575280423 -0.00020755228083893791 0.08270414577832666 0.17998588283461409 0.46137635858830706 0.06361496820678031 -0.1857325052708269 0.11103678548078853 -0.682479978894328 0.6112259507416952 -0.2785942022871793 0.3462202888871433 -0.5267850388833705 -0.33309674624064717 0.023442505685301932 0.41738876387802754 -0.03430156579762595 0.6659711937437728 -0.0061821384235685745 0.2584302441181325 0.08284930626766271 0.07181494684770237 0.4391450064595717 -0.04381077965489637 0.22320772505697592 -0.7067543335407572 0.677233239784242 1.1862596024733352 -0.477627270005271 0.47714114011491454 -0.9347046211837922 0.5502666813692497 -1.6076403269885793 0.40223878766450094 0.5456496267455422 -0.6771974548023895 -0.32457950308031047 0.6190080593346415 -0.06164399300043301 0.45176956355487863 0.5069320423015766 -0.8200313113577679 -0.3075961553613391 -0.4133747395668928 0.07160986098866011 0.22083962199330265 0.07936693370219226 -0.4558103892246995 -0.2758682469928326 0.14662298453889125 -0.10739754575280278 -0.0002075522808389491 0.08270414577832577 0.1799858828346173 0.4613763585883069 0.0636149682067793 -0.1857325052708281 0.11103678548078873 -0.6824799788943283 0.6112259507416964 -0.27859420228717907 0.34622028888714296 -0.5267850388833704 -0.3330967462406453 0.023442505685302265 0.4173887638780256 -0.03430156579762426 0.6659711937437727 -0.006182138423566972 0.2584302441181332 0.0828493062676625 0.07181494684770139 0.43914500645957144 -0.0438107796548978 0.22320772505697484 -0.7067543335407572 0.677233239784242 1.1862596024733354 -0.4776272700052709 0.4771411401149149 -0.9347046211837907 0.550266681369249 -1.6076403269885793 0.40223878766450083 0.5456496267455414 -0.6771974548023891 -0.32457950308030914 0.6190080593346412 -0.061643993000432516 0.4517695635548782 0.506932042301577 -0.8200313113577679 -0.30759615536133955
C0055856 -0.1821992594081909 0.4933007966313397 0.35085873273772167 0.14345149234430393 0.5524011391314698 0.07486881845728094 0.00702783612629232 0.42820897225096877 -0.11196715109257654 -0.5801575169904589 -0.05669397146814352 -0.11679699900848692 0.421753052242685 0.13813813097726205 0.04894734276520966 0.1786052313390371 0.12318292709163021 0.1784037803019403 0.1681626531745683 -0.07555066232825942 0.3057023729861486 0.16757276273492275 -0.211167017216039 -0.28101871463033473 -0.06865240954020191 -0.11191314562797375 -0.7223061566320946 0.2928496423765444 -0.010595271194946387 0.37533524012938296 0.06926508702949227 0.7166389627340302 -0.588020170030466 1.6312655607369748 0.7262064059386102 -0.1712985517204363 0.7561809506159067 0.09277760093135017 0.2589021995157895 -1.6199758085390095 0.6926678596774236 0.5078724794445176 -2.0968388755712675 -0.16431076405804465 1.3428699166044815 -0.7082449254396154 0.860305893661128 1.0901631858393521 -0.363007307805839 -1.3852472690951634 -0.18219925940819207 0.49330079663134097 0.35085873273772017 0.14345149234430493 0.5524011391314708 0.07486881845728068 0.0070278361262915414 0.4282089722509656 -0.1119671510925766 -0.5801575169904603 -0.05669397146814375 -0.11679699900848556 0.42175305224268783 0.13813813097726277 0.048947342765211274 0.17860523133903616 0.12318292709162944 0.17840378030193937 0.16816265317456963 -0.07555066232825679 0.3057023729861475 0.16757276273492183 -0.2111670172160373 -0.2810187146303359 -0.06865240954020445 -0.11191314562797239 -0.7223061566320963 0.2928496423765437 -0.010595271194947914 0.3753352401293807 0.0692650870294909 0.7166389627340303 -0.5880201700304676 1.631265560736974 0.7262064059386112 -0.171298551720435 0.7561809506159056 0.09277760093134906 0.2589021995157899 -1.6199758085390097 0.6926678596774223 0.5078724794445177 -2.0968388755712684 -0.1643107640580439 1.3428699166044802 -0.7082449254396156 0.8603058936611282 1.090163185839353 -0.3630073078058372 -1.385247269095158
C0282386 0.1980500217471553 0.0711314539513772 -0.3523425799042941 0.14349755710383 -0.9645643770863902 0.8832574132953944 0.4363527482984985 0.1956986278056338 -0.48264960384352695 0.10995857093293174 0.41163895437571196 0.7533685161594091 -0.26405049521167806 0.40950878674544033 -0.21858071253709738 -0.8982455130594033 0.3606970473215042 -0.3771944530314648 -0.08085243136827878 -0.4484794478004683 -0.37008765727141635 0.2673082636842456 0.6463256854975845 -0.16645277762331148 0.37998428764287023 0.07677290590784139 1.0042581851348602 -0.22901985356115478 0.42499997032424364 0.20816368971375718 -0.377963836833041 -0.3035089911770925 -0.7999712644869773 0.9849466324141749 1.7227121425570775 -1.5934560588584286 0.43097783681640767 -2.625999780130635 0.7642966263236867 -1.6487395890580572 0.31632586925003536 0.8485989355314922 -0.7700361440323877 0.3744864185073664 1.363051032098709 0.5053814145934109 -0.23961611043555414 0.23242958535810762 -2.720880096196708 -0.49966394938912406 0.19805002174715464 0.07113145395137777 -0.352342579904295 0.14349755710382872 -0.9645643770863922 0.8832574132953954 0.43635274829849846 0.19569862780563438 -0.482649603843526 0.10995857093293256 0.4116389543757135 0.7533685161594089 -0.2640504952116771 0.40950878674544033 -0.21858071253709882 -0.8982455130594029 0.3606970473215044 -0.3771944530314637 -0.08085243136827942 -0.44847944780046756 -0.3700876572714156 0.26730826368424704 0.6463256854975844 -0.1664527776233096 0.3799842876428697 0.07677290590784143 1.0042581851348602 -0.22901985356115387 0.42499997032424264 0.20816368971375673 -0.37796383683304274 -0.30350899117709046 -0.7999712644869796 0.9849466324141757 1.7227121425570784 -1.5934560588584288 0.43097783681640833 -2.625999780130632 0.7642966263236853 -1.6487395890580598 0.31632586925003214 0.8485989355314925 -0.7700361440323892 0.37448641850736686 1.3630510320987081 0.5053814145934102 -0.23961611043555445 0.23242958535810665 -2.7208800961967095 -0.49966394938912556
C0536495 -0.6384821595256622 0.05638051725761534 0.09541036078202847 -0.10762068565872425 -0.6129114013073156 -0.14356937078299603 -0.2501859699597772 0.4295168921524556 0.22251015689299153 -0.06731917667514105 0.1146179279843428 0.3373476851249086 -0.11956832901264824 0.0349669887895597 0.09950419481714505 -0.8623639065931058 0.8599027664587012 -0.3449919271112186 0.1733563156099511 -0.6005447306241408 -0.24416970000791588 0.3288085774836425 0.366621103637136 -0.05147984004053573 0.5634943734418739 -0.02542009730762488 0.2945633994614239 0.3522687872392703 0.08835885853048939 0.26732041634808057 0.0984115440948231 0.24157904927105248 -0.5277040595694237 0.6084389108946772 1.186698002820128 -0.32903657162736044 0.39961805328679123 -0.9095119434427787 0.422603484023588 -1.452109518033813 0.30029782308706665 0.49009595257012206 -0.6778463881809458 -0.3787169006301144 0.7001854822358888 -0.31716556681483554 0.5509322496412984 0.47505462463238474 -0.6988535318742131 -0.4318986795450188 -0.6384821595256608 0.056380517257613165 0.09541036078202887 -0.10762068565872672 -0.6129114013073166 -0.14356937078299478 -0.2501859699597765 0.4295168921524554 0.2225101568929924 -0.06731917667514187 0.11461792798434499 0.33734768512490854 -0.11956832901264823 0.03496698878955869 0.09950419481714515 -0.8623639065931058 0.8599027664587016 -0.3449919271112191 0.17335631560994957 -0.6005447306241402 -0.2441697000079144 0.3288085774836439 0.366621103637134 -0.05147984004053324 0.5634943734418745 -0.025420097307623984 0.2945633994614244 0.3522687872392708 0.08835885853048976 0.2673204163480794 0.098411544094822 0.2415790492710532 -0.5277040595694243 0.6084389108946774 1.1866980028201284 -0.32903657162736144 0.3996180532867912 -0.9095119434427765 0.4226034840235872 -1.4521095180338137 0.3002978230870666 0.49009595257012134 -0.6778463881809468 -0.3787169006301139 0.700185482235888 -0.3171655668148364 0.5509322496412984 0.4750546246323846 -0.698853531874214 -0.4318986795450172
C0110038 0.09370992954965711 -0.16937284330963162 -0.08119072534092377 0.12746266216230626 -0.09503584895745328 0.19871042893741916 -0.26406276819635066 0.13832361874824184 0.05126673868583086 -0.09045590830118855 0.08925916340593236 0.2659780444653084 0.05064978918419553 -0.000738140482520685 -0.2459979690140254 -0.06403425168125382 -0.056817720416947826 -0.34951224245569207 0.2613367403470913 -0.030124510955331037 0.05704613366224069 0.10268122668485812 -0.0927716916251138 -0.10315071559788508 0.03532099065068086 0.023280715917920525 -0.19423925583796206 0.33277655744802437 0.14209351323394492 0.15719061382656893 0.1142272824271996 0.31934995728178506 -0.49546405472743477 0.4904442348408016 0.33652047375693683 -0.05756264928856435 0.2596989345630123 -0.040102019500672284 -0.005045060630949295 -0.5736290426535323 0.23748207145027153 0.16766727214097735 -0.557355092710939 -0.05608980355615224 0.1693833192762295 -0.03482456771444202 0.3340175055667562 0.4385787429933203 -0.20405481322452615 -0.3410305460171556 0.09370992954965815 -0.1693728433096322 -0.0811907253409234 0.1274626621623048 -0.09503584895745412 0.19871042893741925 -0.2640627681963508 0.1383236187482411 0.051266738685831266 -0.09045590830119002 0.08925916340593487 0.2659780444653082 0.05064978918419538 -0.0007381404825220985 -0.24599796901402532 -0.06403425168125472 -0.05681772041694711 -0.3495122424556916 0.26133674034709126 -0.03012451095533067 0.0570461336622423 0.10268122668485892 -0.09277169162511464 -0.10315071559788441 0.03532099065068095 0.023280715917921517 -0.19423925583796214 0.33277655744802426 0.1420935132339444 0.15719061382656876 0.11422728242719848 0.31934995728178484 -0.49546405472743515 0.49044423484080174 0.3365204737569377 -0.05756264928856433 0.2596989345630121 -0.04010201950067223 -0.005045060630949517 -0.5736290426535323 0.2374820714502711 0.16766727214097749 -0.5573550927109384 -0.056089803556151875 0.16938331927622916 -0.03482456771444182 0.3340175055667561 0.43857874299332106 -0.20405481322452565 -0.34103054601715654
C0003232 0.7136136616199713 -0.38220881437660675 -0.16033205818447888 0.46900802336785513 0.801951417291847 -0.22658656162037388 -0.625911687267569 -0.2635121010014073 0.2781781706875184 -0.0725388294438363 0.08348535239977338 0.17351012707977648 0.3254454030312418 -0.18786179653176607 -0.51155578540347 0.28980234207146854 -0.3429918891567351 -0.11797449547240517 0.03171047004404619 -0.7643824385047706 -0.6297868347692517 0.10124889058223877 -0.8075194183164074 -0.22867985639792984 0.5787336093985257 0.07287399783214622 -0.5953816258862731 -0.5268060551992996 -0.4048753572471636 1.0979907046060855 -1.353765597676194 1.3150865124597917 -0.6284413181346363 2.3345624565142615 0.5636215043101331 -0.3198967636885764 1.3864032871111103 0.43478754375187506 0.33806728105415373 -2.2062085956680804 0.663233773820453 0.9497712022890674 -3.2041320233678827 -0.5224693097062822 1.46795339056901 -0.6860505974869144 1.4090627632472803 1.76836640132034 -0.5758035494560787 -2.7326254604379057 0.7136136616199718 -0.3822088143766075 -0.16033205818447968 0.4690080233678522 0.8019514172918473 -0.22658656162037155 -0.6259116872675682 -0.263512101001409 0.27817817068752054 -0.07253882944383618 0.08348535239977666 0.17351012707977964 0.3254454030312438 -0.18786179653176593 -0.5115557854034708 0.2898023420714682 -0.34299188915673395 -0.11797449547240663 0.03171047004404396 -0.7643824385047648 -0.6297868347692508 0.10124889058223879 -0.8075194183164086 -0.22867985639792984 0.5787336093985239 0.0728739978321492 -0.5953816258862749 -0.5268060551992986 -0.4048753572471647 1.0979907046060848 -1.353765597676195 1.315086512459791 -0.6284413181346368 2.33456245651426 0.5636215043101336 -0.3198967636885733 1.3864032871111103 0.4347875437518725 0.3380672810541536 -2.206208595668082 0.6632337738204516 0.9497712022890683 -3.2041320233678805 -0.5224693097062791 1.4679533905690088 -0.6860505974869132 1.409062763247278 1.7683664013203426 -0.5758035494560774 -2.732625460437904
C0021311 -0.6751101931633864 -0.0577585116923083 -0.4165469005357017 1.1911734591411631 -0.25683477702094115 1.0345480645612501 -0.3106799940242703 0.07550628861040162 0.1562281705363417 -0.7449212206536581 -0.9326500764135175 -0.04708163238278393 1.3322305975342488 -0.19914059907732032 -0.7317267412534582 -0.2169262828757584 0.8430384859887662 0.3311481292766109 -0.38440390644091843 -1.1327022787564056 1.1627487000354138 0.2930547956585589 -0.32236641053456216 -0.1301092478631106 1.0515859647633718 -0.07394947295905509 0.12137628596960119 -1.3401739789190994 0.23530806764832557 0.7269404788736744 1.288626224213359 1.4230049611801738 0.7800618362147798 -2.901072485275539 1.4950007641169092 -0.04054670290379914 1.266654018852912 -0.5545113187141004 0.7887408240754962 -2.9060198599567357 -1.1530953112935918 0.9407106432245446 2.5434773776869952 -0.6524826276018418 1.0782290696721992 -0.33487301925802493 0.9541371504556428 -1.585922262864517 -1.529663327792352 -0.4300267560133167 -0.6751101931633856 -0.05775851169231064 -0.4165469005357007 1.1911734591411607 -0.25683477702094193 1.034548064561252 -0.31067999402427054 0.07550628861040362 0.15622817053634397 -0.7449212206536581 -0.9326500764135154 -0.04708163238278375 1.3322305975342483 -0.1991405990773216 -0.7317267412534589 -0.21692628287575913 0.843038485988767 0.3311481292766091 -0.38440390644091993 -1.1327022787564052 1.1627487000354153 0.2930547956585614 -0.3223664105345638 -0.13010924786311182 1.0515859647633718 -0.0739494729590533 0.12137628596960119 -1.3401739789190992 0.2353080676483226 0.7269404788736711 1.2886262242133564 1.4230049611801714 0.7800618362147783 -2.90107248527554 1.4950007641169092 -0.04054670290379826 1.2666540188529134 -0.5545113187141008 0.7887408240754944 -2.9060198599567375 -1.1530953112935909 0.9407106432245448 2.5434773776869952 -0.6524826276018426 1.0782290696721983 -0.3348730192580238 0.954137150455642 -1.5859222628645173 -1.5296633277923555 -0.4300267560133172
C0008196 -0.7498361187881234 -0.07704187625953728 -0.3513192679061009 -0.8660281862269382 -0.6002418831394389 0.28831998080321575 0.6698393508595156 -0.3949932132996237 -0.7322705519163077 -0.08888628053040575 0.6391838476779259 -0.291103887335144 -0.7480015199056721 0.40377583208053697 0.10007514589526628 0.6642036533039993 -0.01841769553144532 -0.1602307007847252 -0.027787072880651825 0.043296815733909644 -0.9668063559743967 -0.3065642140417114 -0.6004405938817424 -0.1315951785707292 1.4149336356515945 0.5923407240061537 0.8145784138692295 -0.5600641362064631 -0.5911531912603136 0.11538699466302493 -0.07458625234880288 -0.229566989441306 -0.28673329919502427 0.8985858976635117 -0.15167758740665221 -0.5248632853004118 0.43821735815727564 0.07552919644534636 1.4630217058848956 -0.6416461032997732 -0.23497113461701094 -2.1382807710227136 -0.60346388625316 -2.5026028245162792 1.4581268347700056 0.25915809712772436 -0.2359189828806457 0.23063468811979615 -2.893460653322451 -0.6353625560177585 -0.7498361187881223 -0.07704187625953975 -0.35131926790610124 -0.86602818622694 -0.6002418831394389 0.28831998080321714 0.6698393508595152 -0.3949932132996229 -0.7322705519163075 -0.08888628053040591 0.6391838476779292 -0.29110388733514214 -0.7480015199056718 0.40377583208053575 0.10007514589526592 0.6642036533039984 -0.01841769553144487 -0.16023070078472357 -0.027787072880651808 0.04329681573391112 -0.9668063559743931 -0.3065642140417122 -0.6004405938817415 -0.1315951785707287 1.4149336356515936 0.592340724006155 0.8145784138692294 -0.5600641362064616 -0.5911531912603146 0.11538699466302517 -0.07458625234880475 -0.22956698944130524 -0.2867332991950228 0.898585897663512 -0.15167758740665147 -0.5248632853004099 0.4382173581572747 0.07552919644534596 1.4630217058848956 -0.641646103299773 -0.23497113461701252 -2.1382807710227136 -0.6034638862531553 -2.5026028245162752 1.4581268347700027 0.25915809712772553 -0.2359189828806448 0.23063468811979645 -2.893460653322453 -0.6353625560177587
C0002645 -0.1829114785922501 0.35980246592114756 0.7166161022069524 0.43649023297090594 0.12589727405007306 0.06363807311697846 -0.16107117142175348 0.42545816894315475 -0.1126139942045743 -0.32055498039452296 0.09881039095604731 0.12737660646371296 0.6643400660002754 0.11529534849392957 -0.21032670473146367 -0.1780414744189351 0.4697966822463694 -0.47852530238859614 -0.10254239012977356 -1.0133338755865737 -0.36189823446338915 0.033413406768124855 -0.09322311255020486 -0.044835286542863846 0.5678992672297508 0.06898280808991139 -0.38429880988487164 0.1875350972439961 0.05493441522340489 0.9994216458229723 -0.4626164300160424 0.962800585578445 -0.8554458558383113 1.6662560828778052 0.933180996042229 -0.16066633264415023 0.3935275997208104 -0.18903918107858403 0.26305907492814073 -2.094505467842956 0.8668669376190091 0.58668138129455 -1.7724645745642686 -0.3488409419007159 0.8945837399756568 -0.5747101682291359 0.9061174686956247 0.7326873625242646 -0.6632311085757377 -0.8962866043345902 -0.1829114785922508 0.3598024659211485 0.7166161022069517 0.436490232970907 0.12589727405007337 0.06363807311697774 -0.1610711714217539 0.425458168943153 -0.1126139942045749 -0.32055498039452507 0.09881039095604813 0.12737660646371304 0.664340066000277 0.1152953484939304 -0.21032670473146364 -0.1780414744189364 0.46979668224636917 -0.47852530238859675 -0.10254239012977222 -1.0133338755865695 -0.361898234463391 0.03341340676812389 -0.0932231125502034 -0.04483528654286485 0.567899267229748 0.06898280808991317 -0.3842988098848729 0.18753509724399603 0.054934415223403504 0.9994216458229713 -0.4626164300160429 0.9628005855784436 -0.8554458558383128 1.666256082877804 0.9331809960422285 -0.16066633264414945 0.3935275997208093 -0.18903918107858525 0.26305907492814035 -2.094505467842959 0.8668669376190071 0.5866813812945505 -1.7724645745642666 -0.3488409419007147 0.8945837399756554 -0.5747101682291362 0.9061174686956242 0.7326873625242657 -0.6632311085757381 -0.896286604334593
C0007561 -0.23923270219220594 0.09166091385603559 0.06740942518287102 0.5916561711512582 -0.00606296678257672 -0.325491876868327 0.41668870178771006 0.34994651488885437 -0.45026393338030557 -0.1319136986973834 0.8821815491684917 0.01609846416200686 -0.19618329354320438 -0.11988387739121065 -0.1410273022824769 0.09120369799667645 -0.513247869820336 0.1742894982090542 -0.4451397519158483 0.4190423626354745 -0.6415935504609173 -0.10629146082104896 0.7184844918755975 -1.0645954897566106 1.9148304708012551 0.16170145008933265 0.3131091447174002 -0.08252145438033359 0.2801862404972855 0.8251136811060441 -0.65386278651318 0.7236730680008012 -0.5830039862378732 1.5445432323669082 0.96708383352869 -2.3213005737919934 0.8705399546047858 -0.051757236695556395 0.837959409240983 -1.3691590505617788 0.7679398036110443 0.5885042585329268 -0.994319581364746 0.416958699972222 1.1002688527576505 0.3408912193918981 -0.13865982560563442 0.6766093993541448 -2.8563519864275944 -0.44435561009905367 -0.23923270219220616 0.09166091385603575 0.06740942518287153 0.5916561711512558 -0.006062966782577791 -0.32549187686832703 0.4166887017877084 0.34994651488885264 -0.45026393338030274 -0.13191369869738304 0.882181549168494 0.016098464162008226 -0.19618329354320327 -0.11988387739121166 -0.1410273022824766 0.09120369799667588 -0.5132478698203343 0.17428949820905495 -0.4451397519158479 0.41904236263547595 -0.6415935504609147 -0.10629146082104896 0.7184844918755976 -1.0645954897566117 1.914830470801254 0.1617014500893357 0.31310914471740076 -0.08252145438033187 0.28018624049728175 0.8251136811060442 -0.6538627865131807 0.7236730680007989 -0.5830039862378729 1.5445432323669068 0.9670838335286919 -2.3213005737919907 0.8705399546047838 -0.05175723669555785 0.8379594092409823 -1.3691590505617781 0.7679398036110424 0.5885042585329266 -0.9943195813647424 0.41695869997222346 1.1002688527576499 0.3408912193918999 -0.13865982560563506 0.6766093993541445 -2.856351986427592 -0.4443556100990576
C0016277 0.3769363250078114 -0.3052518493219668 0.120044432285498 -0.3125604328119191 0.16753985657917386 -0.2289034572485081 0.7066104875137056 -0.00219099020808039 -0.25086008713991953 0.12510291691277745 -0.46372865109198863 0.21638229455213953 0.1684678164576264 -0.4562553130266066 0.2377204331515566 -0.653004802127484 -0.24852028951904306 -0.302345301704417 0.22085687278407648 0.3090584538114066 -0.2763495706881885 0.13329659411905823 0.175905856059913 0.9807896111306338 0.0639093573150034 0.13570449121497058 -0.17103323568831608 -0.52378718903571 0.14898154933430677 -0.39420908054241915 0.06164809121739759 -0.8395562204623693 -0.10265005467178819 0.08197897743911918 0.5138128115256123 0.7714023895641736 -0.1523964740738494 -2.124554950209171 -0.6370981626175115 -1.3323702588673343 0.34652384130572633 1.0612076088539577 -0.2758243006796151 0.3596152937075181 0.30564140804598894 -0.31537872833915553 -0.147493449889277 0.4960229625281221 -1.7157443922513411 -0.1492047310495549 0.3769363250078107 -0.3052518493219657 0.12004443228549647 -0.3125604328119189 0.16753985657917408 -0.2289034572485086 0.7066104875137061 -0.00219099020808068 -0.2508600871399209 0.12510291691277792 -0.4637286510919888 0.2163822945521376 0.16846781645762607 -0.4562553130266057 0.23772043315155697 -0.6530048021274834 -0.24852028951904231 -0.3023453017044173 0.22085687278407728 0.3090584538114067 -0.276349570688189 0.13329659411905861 0.17590585605991388 0.9807896111306356 0.06390935731500215 0.13570449121497108 -0.17103323568831674 -0.5237871890357089 0.14898154933430643 -0.3942090805424181 0.06164809121739735 -0.8395562204623699 -0.10265005467178935 0.08197897743911747 0.5138128115256119 0.7714023895641748 -0.1523964740738494 -2.124554950209171 -0.6370981626175118 -1.3323702588673358 0.3465238413057259 1.0612076088539582 -0.275824300679615 0.35961529370752016 0.30564140804598827 -0.31537872833915603 -0.1474934498892779 0.49602296252812167 -1.7157443922513425 -0.14920473104955667
