1317 100
C0020443 0.07851288 -0.19934052 0.042099163 -0.10919874 -0.0009731576 0.00693415 -0.05995458 -0.13032806 0.10947691 0.16892694 -0.05940935 0.015344072 -0.012437876 -0.15409209 0.06490664 0.029381711 -0.07632388 -0.06436549 -0.02016095 -0.40660667 -0.044877212 0.03800071 -0.066883266 -0.25517157 0.077971436 -0.15496185 0.051067036 0.18175988 -0.15446657 0.09360758 -0.10722694 0.057221837 0.10331944 0.109933466 0.13513714 -0.14634186 -0.24981165 0.006650057 -0.062476333 0.050517883 0.012658289 0.1421265 0.13165325 -0.17390318 -0.087785706 0.09822296 -0.1458777 -0.030498177 0.058207303 -4.248979e-05 0.01836939 0.038721964 0.020270947 0.016423421 -0.07193244 0.28697214 -0.0751724 0.0022266575 0.08363156 -0.10787801 -0.29168537 -0.005517278 -0.11627654 -0.066232756 -0.21251059 -0.24495405 -0.17389455 -0.16215 -0.051592346 -0.14052506 0.04141815 0.21616505 -0.2253947 0.11803158 -0.055980746 0.04901259 0.093557686 0.13741724 -0.06964984 0.21372448 0.19594142 -0.0178599 0.08862823 -0.048565693 0.025187682 -0.06430979 -0.0339752 -0.07735768 0.096806794 0.2491646 0.07566758 -0.032107648 0.015539092 0.14971519 -0.1004276 -0.07875115 0.060456395 0.1033655 0.14355572 0.058181114
C0085542 -0.22117847 -0.051126737 -0.14781532 0.15817092 -0.17604224 -0.4307957 0.09307646 -0.15860534 -0.1486734 0.08839935 -0.04619185 0.09922432 -0.067383006 0.04272943 0.12441935 -0.06229878 -0.14145583 0.07358892 -0.09419367 -0.21171293 0.17855081 -0.06787294 -0.20428212 -0.37571302 -0.065382816 0.031618588 -0.21940014 -0.22842701 -0.2881523 0.22875763 -0.19632444 -0.11191409 0.2173045 0.25765377 0.16627404 -0.06168151 -0.30406728 0.0036295524 -0.42059535 -0.22165851 0.13523872 0.19361123 0.06122642 -0.08518728 0.025082637 0.19033803 -0.050411206 -0.017724518 0.544439 -0.049938593 -0.18583673 0.033699945 0.22544564 0.080438815 -0.06008594 0.36856884 -0.15586536 0.0032893855 -0.104697354 -0.120850906 -0.1536195 0.17251791 -0.21603969 -0.21630271 -0.105547234 -0.3423895 -0.23004164 -0.18722634 0.07684413 -0.046868358 -0.21466082 0.30253237 -0.36072895 0.21264948 -0.24091879 -0.1807037 0.26002687 0.19155978 -0.13058862 0.1378411 0.14589098 0.5150252 0.011009648 -0.020755759 -0.3185488 0.1302049 0.118842825 0.10991535 -0.094282575 0.11107822 -0.07844075 0.047243208 0.3572069 0.20675397 -0.0009452524 -0.035189074 0.06918074 0.15952577 0.083027616 0.5997837
C0286651 -0.015329667 -0.068877764 0.018723644 -0.083384216 -0.18729188 -0.19820371 -0.022582214 -0.22746333 0.06313059 0.013401516 0.07333645 -0.049571693 0.15364252 -0.12605703 0.19459885 0.05236866 -0.18354882 -0.14019872 -0.008242883 -0.20129845 0.13843018 0.076989494 -0.020859636 -0.13093556 0.08739494 -0.1206287 0.072731726 -0.14172249 -0.19392094 0.23093513 -0.12651342 0.060103323 0.3039021 0.27708298 0.22010183 -0.0047729 -0.46355507 -0.16625091 -0.19606853 -0.19678597 0.061031953 0.4247275 0.11270709 0.024940757 -0.039803933 0.017788433 0.12202034 -0.06635237 0.39507446 -0.05563167 -0.0007536044 -0.02690895 0.31747293 -0.1241163 -0.048871778 0.45487598 -0.21449693 0.18532507 0.13711911 0.05943928 -0.079416655 0.05435507 0.070123784 -0.07472286 -0.12320762 -0.20375589 -0.19132264 -0.017400885 0.0424931 0.30299586 0.022185627 0.05821506 -0.23302583 0.1423672 -0.06825101 -0.13072085 -0.08412096 0.28076488 -0.14406712 0.24704874 0.039410498 0.5211674 -0.03376017 0.06416455 -0.20747137 0.016163878 0.09116529 0.16183819 -0.021751942 0.023090657 -0.048899505 0.112763256 0.1973299 0.10867826 -0.2515452 0.26554048 -0.040853385 0.06257532 0.057380684 0.27744526
C1142985 -0.011194114 -0.22193131 0.16491784 0.07148407 0.08732053 -0.29920578 0.12516207 -0.09911199 0.21842234 0.34970692 0.3068016 0.28894442 0.25535455 0.10425281 0.23277633 0.1443689 -0.29245573 -0.14723766 -0.03324741 -0.45107022 0.2514661 0.116023906 -0.0038541262 -0.1470131 -0.004397574 -0.14432122 -0.058456387 0.03945264 -0.29035154 0.17621331 -0.17415786 0.16858068 0.08955067 0.3673667 -0.08215085 -0.08558431 -0.59639937 -0.278867 -0.36954063 -0.33141106 0.0004978802 0.40235722 0.15964633 0.03857738 -0.01320232 0.047848552 -0.0074409633 -0.1667971 0.571987 0.099447034 -0.3777431 -0.0035447204 0.0843607 0.006095913 0.108442925 0.26931947 -0.25665337 0.039801136 -0.05723429 -0.29147258 -0.06882532 0.19134471 0.018642575 -0.27516988 -0.049871337 -0.18598789 -0.15021014 -0.2519565 0.25162315 0.2651359 0.16549899 0.48732483 -0.35901785 0.2536044 -0.0060684322 0.13644125 -0.25350454 0.23983704 0.06403828 0.103542976 -0.0132479165 0.44851568 0.15132895 0.09376697 -0.25546053 0.0026139347 0.049828764 0.08351054 -0.25831935 -0.10589898 -0.082218155 0.007406724 -0.027241776 0.09902315 0.033477705 -0.069472924 0.17476143 -0.054502703 -0.10181617 0.22915515
C0032042 0.02425983 -0.1734262 -0.18054289 0.18288964 -0.091561094 0.186294 -0.19928057 -0.041730173 0.22257423 -0.07734473 0.085165486 -0.28788552 -0.015136977 -0.08685673 0.15259999 -0.057547092 0.02749414 -0.011584012 0.02663421 -0.21494526 0.1660253 -0.06370799 0.106524214 -0.12177952 -0.10663271 -0.1804112 -0.057561573 -0.0344929 0.06092818 0.14127956 -0.032923523 0.08054805 -0.05298752 -0.17347406 -0.05543028 -0.2860674 -0.23821697 0.13682927 -0.23686954 -0.11552678 -0.19300169 0.24719548 0.029796405 -0.08455709 0.15981668 0.22135474 -0.045409605 -0.2670648 0.030321054 0.09178146 0.13105032 0.03875506 0.10932966 0.2509638 -0.04517597 0.04486865 -0.030188834 -0.10535683 -0.21722002 0.10563252 -0.19727644 -0.038096797 0.0016143577 -0.16645253 -0.020794671 0.023289794 0.064813145 0.07754928 -0.15680818 -0.098333925 -0.027075127 0.16609997 -0.16605252 -0.064426765 -0.14354931 -0.18552873 0.08791797 0.26035535 -0.025263695 0.1480538 -0.16306914 -0.15172014 -0.022279536 -0.01898028 0.054614894 0.2042356 -0.08205162 -0.012860516 -0.12302776 -0.0074730585 -0.14460881 0.12578832 0.002656766 0.16928974 0.024394054 0.11741281 0.0076098833 -0.20691851 0.13302147 0.23895651
C0989914 -0.19972637 -0.1377393 -0.2700778 -0.06271772 -0.05880944 -0.28198588 -0.17827882 -0.22230986 0.41219085 0.34339616 -0.29780442 0.5017114 0.3849748 0.1897044 0.46488616 -0.10319462 0.024276974 -0.11409233 -0.05152243 -0.41122615 0.123556934 0.06343842 -0.12952042 -0.29676297 -0.014080894 -0.57607484 0.21652056 -0.077144146 -0.56744343 0.46691296 -0.28861853 -0.051084213 -0.062321115 0.26897627 0.32393852 -0.019740244 -0.28650478 -0.123649634 -0.05646831 -0.12124535 -0.04804592 -0.06310294 0.35496172 -0.38756615 -0.0054512983 0.55533755 0.13475776 -0.15241972 0.20510109 0.42587507 0.07681294 0.239685 -0.07528548 0.02168831 0.0014110806 0.014922641 -0.30889195 -0.036317896 0.2633079 -0.52455866 -0.4474622 -0.06574174 -0.29863584 -0.3703244 -0.20266588 -0.2662108 -0.42089558 -0.31764707 -0.031867024 0.04007413 -0.14597195 0.6000431 -0.116081156 0.10829599 0.052194532 -0.23507744 0.12585984 0.33841896 -0.25637797 0.3201595 0.44666436 0.053234436 -0.06571307 0.11810243 0.18264383 0.09300008 -0.14803943 -0.43577364 -0.114470236 0.38129345 0.1073255 0.2149059 0.23428118 -0.06414198 -0.16420938 -0.32391548 0.22092013 0.11692987 0.379293 0.25056717
C0082608 -0.20409636 -0.30078062 0.25619122 -0.040181413 -0.2324941 -0.27753606 -0.002071586 -0.04306502 0.2528174 0.2533852 0.18028094 0.19885117 0.15302232 0.20871104 -0.073306054 0.21611805 -0.4482425 -0.07730835 0.11277969 -0.71814394 0.22772618 0.01650027 -0.074872546 -0.24547769 0.036698077 -0.2385372 -0.06964112 -0.021547217 -0.22629136 0.09332207 -0.02244811 0.15863815 -0.10820509 0.05531202 0.20525156 0.03664826 -0.5307567 -0.20686018 -0.31904086 -0.14772673 0.13009499 0.05696402 0.2095182 0.22856794 -0.04793654 -0.0528747 0.08932322 -0.4009978 0.43874344 0.34138522 -0.2906322 -0.019168632 0.17858924 -0.18975979 -0.064843446 0.4835781 0.0006302864 0.33548003 0.23701617 -0.1379384 0.0016672226 -0.024987556 0.17893487 -0.2349772 -0.14822766 -0.5030041 -0.035028253 0.02656679 0.2252172 -0.0037120502 0.009227725 0.30104893 -0.25946084 0.1290735 -0.21004632 -0.06713397 -0.19850938 0.25962034 0.1442652 -0.005310078 0.011149422 0.5813945 -0.13164657 -0.053623583 -0.1813153 -0.13648197 -0.29193863 -0.16726144 -0.42953143 -0.023670273 -0.040771883 0.061802715 -0.08832056 0.094589606 0.10462547 -0.118495114 0.07466766 -0.12403853 -0.0007733443 0.24057166
C0074554 -0.05182918 -0.18476318 0.18821944 0.033686742 -0.3245978 -0.038501594 -0.08067794 -0.13027851 0.060331363 0.1524973 -0.08832044 0.05557209 0.103835315 -0.15700802 0.15027526 0.05518093 -0.021456102 0.11833929 -0.13713121 -0.12522128 0.2933713 -0.1962959 -0.313886 -0.4143247 0.17786343 -0.0006703599 0.028898653 -0.18125702 -0.34069034 0.3775561 -0.3926889 0.037478488 0.31594986 0.07578793 0.07163443 0.17476204 -0.50510436 -0.18440506 -0.407242 -0.2270012 -0.0850548 0.27380702 0.10424378 0.3193741 0.026203608 -0.011625303 -0.108565494 -0.25254473 0.2932602 0.18278483 0.37388358 0.0938927 0.2654933 0.0006699843 0.083761245 0.22107457 -0.17266442 0.22571352 -0.15283006 -0.2512485 -0.14468393 0.20925334 0.13350932 -0.20052755 0.080862984 -0.16842604 -0.025320925 -0.18330725 0.07831964 0.124496825 -0.22798158 0.14939871 -0.40092212 0.041112233 0.043754783 -0.0031489048 -0.053795505 0.1651804 0.006597908 0.21294554 0.084809534 0.34688225 -0.13042422 0.12602235 -0.32019088 -0.11918598 -0.076422326 0.05726813 -0.18073203 -0.08655943 0.04810624 0.092364326 0.13974562 0.17510316 -0.10210623 -0.02950186 0.14339839 0.24284698 -0.18134904 0.26675072
C1331111 -0.06795029 -0.20945121 -0.13420266 0.03775136 -0.2743489 -0.41813248 -0.015320868 -0.15844297 0.02889506 0.055568546 -0.41976094 0.1771335 -0.011211775 -0.114963494 0.0022079595 -0.02031554 -0.33407572 -0.032054864 -0.08095734 -0.1219768 0.2999453 0.36645097 -0.5279621 0.107510835 -0.08040946 -0.12688202 -0.0994475 -0.13628535 -0.5951566 0.12181689 -0.2393289 -0.42195842 0.18280965 0.37374362 0.19047129 -0.12689185 -0.5415588 -0.098485745 -0.64792055 -0.26053366 -0.11099426 0.056107584 0.31472358 -0.30142426 0.3195516 0.47256124 -0.25774783 -0.37917194 0.3464664 0.031519435 0.085987866 0.24344923 0.032994073 0.04261076 0.15377827 0.39378798 -0.3277205 0.47662207 0.18081486 -0.11591346 -0.3718092 0.08011412 -0.14028493 -0.09401682 0.18578859 -0.09395403 -0.43289807 -0.3572514 0.33814457 0.06655325 -0.09102277 0.23375712 -0.32574776 0.23471166 -0.10982412 0.19177769 0.02047073 0.3586415 -0.19154909 0.20225342 0.5328202 -0.0037188204 0.042616155 -0.15138404 -0.105469 -0.3676772 0.17980747 -0.22525679 -0.22542192 0.3592598 -0.059146456 0.14021835 0.22286314 0.3251501 -0.18673642 -0.3365771 0.12159759 -0.039117657 0.0100696385 0.31533852
C0014912 -0.073453456 0.045895867 0.005141058 -0.043079246 -0.1590688 0.023522597 0.17766461 0.013467417 0.06608787 -0.15080617 -0.19456083 0.072595686 0.031624664 -0.15173587 0.031557303 -0.301624 -0.020109452 0.006566009 0.11407044 -0.30073127 0.018619975 0.08105606 -0.05924892 -0.4017239 0.27270886 0.005753573 -0.14125733 0.4438441 -0.052693762 0.15206859 -0.15330039 -0.18832345 0.31437403 0.05046152 0.37117565 -0.029277418 -0.24895638 0.07649527 -0.33324692 -0.16793822 0.11443514 0.0092747575 0.02269153 -0.32281846 0.08444779 0.18965587 -0.2388348 -0.010527205 0.24338208 -0.06701528 0.34544265 -0.06109942 -0.03377056 0.2439228 -0.047762696 0.18590952 0.07146335 -0.053084143 -0.2518728 -0.40546122 -0.023349326 0.07754474 -0.24123915 -0.34857804 0.1596111 -0.5387967 0.037506342 0.122417584 -0.1666835 -0.03592646 -0.33955976 0.031273007 -0.18048935 0.28366172 -0.04517467 -0.32736522 0.07396045 0.04013527 -0.13474049 0.33616897 0.07105843 0.0031374756 0.08295767 -0.25157925 0.0059747994 -0.1862972 -0.032247573 0.2492137 -0.40573725 -0.0067452886 -0.046822436 0.037351992 0.24843735 0.18158954 -0.089999154 0.17779414 0.1228791 0.16913022 -0.28208032 0.28618348
C0989915 -0.02070926 -0.2254957 -0.13004512 -0.0036000358 -0.084980816 -0.17922837 -0.073927395 -0.25577396 0.31881228 0.20582958 -0.18842943 0.36735559 0.17918111 0.013317822 0.37382713 0.010684412 -0.023120455 -0.066527314 -0.1257808 -0.33694145 0.14317992 0.029979333 -0.20786911 -0.17565604 -0.059620384 -0.47689867 0.36385053 -0.041637406 -0.53678346 0.535406 -0.3253022 -0.02832395 -0.22071671 0.15792288 0.31950983 -0.080187835 -0.30352116 -0.057732243 -0.17356737 -0.0724428 -0.118147366 0.0030657775 0.2997428 -0.48465893 -0.026284404 0.5751818 0.13510387 -0.2297095 0.06640214 0.36659265 0.066495664 0.3332641 -0.050105203 0.05611808 0.004145887 0.07306243 -0.21841025 0.29110813 0.17583995 -0.5545398 -0.503219 0.023783239 -0.38182428 -0.40729463 -0.29151434 -0.41666073 -0.43545133 -0.1708016 0.17034729 0.057279613 -0.18650678 0.47089076 -0.20708576 0.019384153 -0.065543644 -0.21421821 0.044077 0.3860838 -0.32491353 0.27002442 0.28106079 0.20457847 -0.031147003 -0.09011234 0.1457862 -0.31016472 -0.09660913 -0.29930386 -0.033244997 0.29744646 -0.07004961 0.26520944 0.004341259 -0.031585757 -0.23521018 -0.33884013 0.41739392 0.506972 0.17804237 0.19839068
C0965129 -0.17900652 -0.060315803 0.04749651 -0.02819273 -0.19829014 -0.38544884 0.15086772 -0.12067084 0.18263651 0.1964711 -0.013773948 0.16074218 0.19479558 -0.0007022361 0.036000457 0.095105015 -0.19420967 -0.23719107 0.059565194 -0.32733268 0.15830079 0.13117883 -0.2893432 -0.27200326 -0.05858698 -0.033171117 -0.05788558 0.020185893 -0.25599352 0.16511263 -0.17229329 -0.015443031 0.16987799 0.2850641 -0.060529795 -0.17224817 -0.34930387 -0.1594644 -0.25782022 -0.3932437 0.0017782842 0.23656014 0.14838167 0.14697556 -0.015313176 0.080975056 -0.11214077 -0.22754319 0.3353963 0.008980605 -0.25459772 0.21746756 0.23467238 -0.07637635 -0.058321215 0.41914812 -0.28191826 0.07539081 0.14370427 -0.081715554 0.050844118 0.09828364 -0.11748216 -0.1296247 -0.0820582 -0.49913523 -0.0108479215 -0.11054199 0.18550211 0.16704457 -0.049079448 0.31199506 -0.2560854 0.23972428 -0.13390197 -0.100344926 -0.0987913 0.008980621 -0.041156683 0.2376894 0.2513697 0.31895298 0.15863447 -0.028833445 -0.26785296 -0.024749067 0.06368492 -0.0021618702 -0.22879578 0.06780505 -0.0011428403 0.14012302 0.26783726 0.2253491 -0.23573874 0.1545599 0.061240062 -0.16510628 -0.059062604 0.19649841
C0360714 0.06837504 -0.10947609 0.08903427 0.10999691 -0.03985551 -0.25792998 -0.0055742436 -0.17963858 0.21287476 0.08315547 -0.024342498 0.0018116767 0.067849144 -0.025068875 0.1607158 0.05711844 -0.16628635 0.05502308 0.08183119 -0.32056984 -0.014967806 -0.043778416 -0.057362616 -0.2759108 0.04784619 -0.13348024 -0.061388124 -0.043908406 -0.22733085 0.27185073 -0.06631725 0.14265627 0.1328991 0.010397566 0.24646065 -0.024658216 -0.21322003 -0.021064054 -0.09938416 -0.20731859 0.021008298 0.2820146 0.23500039 0.13708146 0.07922608 0.045420513 0.19249171 0.19367643 0.4206018 -0.027927242 -0.0486725 0.11253969 0.43786305 -0.051479533 0.07711763 0.36717206 0.08889768 0.04258513 0.040222 -0.051089086 0.008263536 0.15715067 -0.08597747 -0.13439734 -0.18467046 -0.38149568 0.04242465 -0.0942569 -0.07587848 0.11564334 -0.043002695 0.12986416 -0.2419951 0.23867936 -0.19305986 -0.19592895 0.063928634 0.24880382 -0.035332747 0.1654334 -0.009444133 0.48351514 -0.042038392 0.10456063 -0.29101905 0.10121698 0.13978615 0.09121636 -0.024081172 0.041308094 0.11216231 0.14805645 0.30769175 0.038877927 0.0046699913 0.11605135 0.027578624 0.16562496 0.086500235 0.36938304
C0948265 0.14622572 -0.033533543 -0.21650496 0.2195672 -0.32884714 -0.47949857 0.11021472 0.16528039 -0.3328421 -0.29239228 -0.19708578 0.0917165 0.09797972 -0.35351038 0.034666367 -0.08177792 -0.32704598 -0.29974344 0.17250657 -0.28107935 0.35611692 0.12353548 -0.3335225 -0.15800506 -0.06666553 -0.05877366 -0.057283014 0.14727971 -0.252429 0.33836892 -0.23034966 -0.57002825 0.53285193 0.5480252 0.05588647 -0.18389718 -0.24111605 -0.07098351 -0.6843656 -0.16319667 0.019247271 -0.0036143272 0.18318726 -0.086984284 0.13814521 0.31369686 -0.28964624 -0.11705833 0.1752645 0.030351704 0.1380872 -0.083144784 -0.023167524 0.3273211 -0.118549414 0.486922 -0.47930303 0.09433073 0.22434919 -0.006338096 -0.094330035 0.06745415 0.29687092 0.09349091 0.22780848 -0.16682608 -0.23664711 -0.2785315 -0.014819973 0.0392602 -0.051341712 -0.16155328 -0.7450129 -0.13006797 -0.2551759 0.22269537 0.06976281 0.17480923 -0.0018274565 0.24308346 0.34569404 0.058543563 -0.18546502 -0.37889612 -0.08194509 -0.11436391 -0.17448457 -0.039300323 -0.31276092 0.41007024 0.01835301 -0.17019983 0.2299328 0.30911124 -0.29455656 -0.032175288 -0.07768456 -0.30995813 -0.054334722 0.16725855
C0073393 0.33147985 0.013102308 -0.10966829 0.14891036 0.036768343 -0.023296423 0.026226785 -0.058192413 0.39204904 0.007995024 -0.062433835 -0.24166286 -0.16413034 -0.018599475 0.15908463 -0.03260572 -0.01758333 -0.18159518 0.1962608 -0.36644238 -0.022000827 0.10177983 -0.11974656 -0.08410359 -0.00789951 0.18705241 0.0022984813 0.1528181 -0.15529712 -0.1707134 -0.055216435 -0.16265987 -0.0066997237 0.10287015 0.20238273 0.017189348 -0.25413167 0.13332391 -0.1500488 0.19195364 -0.1415709 0.012949183 0.035642892 -0.18860194 -0.17465985 0.08435873 -0.22647503 -0.19198602 0.033060037 0.24952391 -0.049719732 0.18290204 0.08954014 0.10229749 0.072048105 0.062410265 -0.2659075 -0.19463886 0.13598305 0.10910507 -0.21687357 0.29690063 -0.13529176 0.18154782 0.011090577 -0.13937947 0.1587854 -0.20487264 0.292394 0.22060505 -0.06698872 0.09456764 -0.34858006 0.291951 0.05401549 0.07010829 -0.36250183 0.41508746 0.0346057 -0.056426235 0.054022864 -0.061379515 -0.12867565 -0.21628085 -0.055877272 -0.122476 0.0026603362 -0.05106273 -0.038059358 -0.0020029512 0.023067297 -0.28463116 0.37525386 0.26979545 -0.30090636 0.13818951 0.02786582 0.16734147 0.20503537 -0.3251433
C1322815 0.0658168 -0.0110674845 -0.022752233 -0.0057257633 -0.46548495 -0.1522529 0.18531382 0.20366259 0.30443054 0.0033670948 0.031584837 0.17438574 0.06587579 0.10571032 -0.25142908 0.1981587 -0.16563262 -0.09539771 0.1340007 -0.33943105 0.47819808 -0.11008106 -0.2527282 -0.26198322 0.11941076 -0.17087781 0.12120711 -0.14821929 -0.13326426 -0.124595895 -0.038915608 -0.21797162 0.13385771 0.14987175 0.1622613 0.08758427 -0.53120255 0.13604018 -0.12710479 -0.17498855 0.15186022 0.046836905 -0.013430873 0.4851191 -0.10707399 -0.069664426 -0.036312927 -0.48843598 0.3300384 0.032486603 -0.023249142 -0.08568067 -0.064543955 0.01657359 -0.03740031 0.91937786 -0.23148018 0.06922178 0.06700101 0.061715856 -0.19228126 0.072402485 0.14293948 0.13538525 -0.16422345 -0.5384839 0.13951817 0.05523463 -0.14268033 0.14294627 0.070320986 0.2896002 -0.42770618 0.17509776 -0.46839973 -0.19547972 -0.0687781 0.055425175 0.37757054 -0.12513095 0.15230174 0.21231571 -0.08243732 -0.10372304 0.23507738 -0.15349767 -0.3264961 -0.11179991 -0.44676024 0.1376504 -0.0010485888 0.21273907 0.023059474 0.01898819 -0.27739373 0.15623452 -0.05507819 0.08222756 -0.01373623 0.39027968
C0071097 -0.048380237 -0.084538095 0.20986477 0.059585817 -0.45844498 -0.27879402 0.07170413 0.106565446 -0.11309802 0.21104956 -0.28846022 -0.043602113 -0.16233942 -0.16603224 0.073604144 0.25424746 0.06441746 0.13357922 0.18454014 -0.24638462 0.17372769 -0.12363284 -0.42897356 -0.26028702 -0.049865764 0.09107117 -0.16324152 0.0579465 -0.11104722 -0.17557696 -0.08780985 -0.07182661 0.24113078 0.11168526 0.19512264 -0.0106707495 -0.25369975 0.09712132 -0.33656913 -0.34270167 0.09386698 0.18315779 -0.00074789714 -0.1799406 0.077888444 0.32913232 -0.19900952 -0.16468465 0.44974923 0.11552739 -0.075998396 0.032382563 0.3232585 0.036460575 -0.12403758 0.5358769 0.018434282 0.17658776 -0.27173084 -0.06034929 0.22514386 0.07318149 0.09192726 -0.25373203 -0.057507902 -0.18353714 -0.050058704 -0.24523845 0.21814555 -0.039407924 -0.24123858 0.06658353 -0.5815342 0.14286344 -0.20794745 0.044489536 -0.010758615 0.116918325 -0.16828498 0.28175718 0.34922063 0.26315925 0.13128692 -0.19583017 -0.19327147 -0.1846285 -0.048942983 0.074544616 -0.4138499 -0.10694728 0.02497551 0.22535668 0.3971789 -0.06893931 -0.07143376 -0.05747401 -0.056152396 -0.003228344 -0.30864245 0.16732644
C0248719 -0.09541306 0.04570324 -0.10483878 0.1111384 -0.033341665 -0.2493398 0.19535415 -0.08410235 -0.15609196 0.041135445 -0.09135673 -0.103837974 -0.14464387 -0.02320272 0.30211 0.196078 -0.2766028 -0.15425345 0.13132313 -0.3012536 0.20856477 0.38094357 -0.12861949 -0.38404444 -0.08953071 0.04713842 -0.06289192 0.028116338 -0.09989507 0.32043952 -0.01783059 0.047674935 0.21288584 0.2832541 -0.055712488 -0.38889083 -0.3596327 -0.15748803 -0.38464665 -0.29018638 -0.089687556 0.28212395 -0.30609772 0.23570983 0.003296711 0.21669278 0.072648086 -0.12812757 0.32147023 -0.12090391 -0.34005395 0.048746582 0.21345684 -0.031499546 -0.25823203 0.40510747 -0.14330682 0.124193795 -0.13958924 0.096276656 0.20224187 0.32281426 0.010288607 -0.09814713 0.08236443 -0.15272094 -0.23215432 -0.2269031 0.16718982 0.28428984 0.14328626 0.12826137 -0.39501235 0.29415247 -0.2507393 -0.011951645 -0.2588679 0.16071251 -0.16284737 0.45235866 0.3653651 0.1632433 0.15054582 -0.046261262 -0.4449185 0.20534995 -0.051401224 0.09525717 -0.15319562 0.1229255 -0.073462375 0.1489604 0.13282745 0.16381268 -0.21046527 0.09533683 -0.011657509 -0.12105402 -0.21603318 0.20695826
C1098320 -0.33494684 0.11287421 -0.12939067 -0.013710094 -0.061239414 -0.50902593 0.03452131 -0.0686918 -0.16970539 0.13426025 -0.18450423 -0.11274853 0.14729428 -0.11887091 0.15108003 0.39740056 0.04823468 0.008399751 0.12037571 -0.36442545 0.20782241 0.19293317 -0.16694473 -0.49970925 0.11431771 -0.02103296 -0.30638626 0.13248974 -0.10371146 0.14552622 0.038144343 0.102116294 0.08246094 0.20654784 0.2746859 -0.33714503 -0.1151534 0.0018525794 -0.7161183 -0.13411374 0.2870398 0.35066426 -0.23448794 -0.007049103 0.25767073 0.20799427 -0.35437253 -0.22567526 0.18325238 -0.12316116 -0.122011326 -0.14680529 0.21907248 0.032404803 0.04572805 0.44844055 -0.104957774 0.18190287 -0.22783478 -0.10826531 0.24999222 0.09809002 0.22062795 -0.18614106 0.09208913 -0.21603121 -0.16102564 -0.38602015 -0.012046583 0.119096726 -0.015282554 -0.32551727 -0.32437614 0.057512652 0.06473458 0.29311836 0.02162353 0.45465866 -0.13424024 0.5071587 0.25787303 -0.05084144 -0.017155757 -0.047170963 -0.16958997 0.015144883 -0.050390184 0.2341564 -0.14942591 0.22294684 -0.07337452 -0.042287048 0.2676593 -0.01842308 -0.21951719 0.49304178 -0.13286172 0.0020612152 -0.08262754 0.049375717
C0033228 -0.07627968 -0.16986081 0.03193202 0.056164593 -0.1382317 -0.49534878 0.19043104 -0.14688966 0.05057858 -0.1639626 0.07661207 0.035519492 -0.16625898 -0.17399588 0.23350243 0.16264266 -0.24770364 0.16576442 0.064693585 -0.14582816 0.047705118 0.00028123928 -0.34606203 -0.16124141 -0.07245536 0.39065486 -0.14367798 -0.032898914 -0.3753323 -0.2180753 -0.000585247 -0.032214195 0.52016705 0.36256525 0.0010227915 0.08627358 -0.4150547 -0.12632889 -0.60653055 -0.18714252 0.03464152 0.2174411 0.14634384 -0.14702512 0.11695025 0.25132602 0.0064075924 -0.26401663 0.30919024 0.0466945 -0.16537042 0.12245677 0.17155522 0.08870416 -0.0036742329 0.3685754 -0.13644925 0.19685128 -0.043997392 -0.09391052 0.059974298 0.059510153 -0.066515714 -0.36522838 -0.0630076 -0.10269106 -0.03802219 -0.16146791 0.16757871 -0.094750226 -0.18900204 0.20657669 -0.5679769 0.28356215 -0.104757436 0.05404732 0.092897825 0.067402355 0.077623665 0.1504259 0.47766393 0.542039 0.27814788 -0.09803201 -0.28758717 0.0022609117 0.06338343 0.09550017 -0.39687803 0.1408293 0.001277134 -0.041845422 0.3323398 0.2798417 0.119563416 0.06146307 -0.08345702 -0.1641259 -0.052219726 0.3852255
C0299792 0.14139444 -0.016799165 -0.048188232 0.068554305 -0.06512881 -0.08949641 -0.009008446 0.09916292 0.4442636 -0.07220045 -0.1785622 -0.30137464 -0.16817221 0.11736872 0.13621368 -0.25261736 0.088800766 -0.102077946 0.2357911 -0.24888462 -0.12636064 0.07810612 -0.078531615 -0.108658515 -0.001345628 0.02137578 -0.13547474 -0.022229034 -0.192781 -0.06774025 -0.3293029 -0.046594433 0.11871475 0.25926438 0.17325589 -0.09619708 -0.392574 0.011542154 -0.23762293 0.37025434 -0.09739243 -0.048111763 0.13208865 -0.17245744 -0.27716422 -0.043391656 -0.22439414 -0.15971613 -0.0093292855 0.17836511 0.16204768 0.09076901 0.14756504 0.14788906 -0.08729464 -0.09739144 -0.0010572597 -0.11953272 0.16831185 0.09467388 -0.19911611 0.22133827 -0.083564535 0.18969287 0.13979483 -0.09609236 0.13068546 -0.18958487 0.13538721 0.14877217 0.10504635 0.08908581 -0.4055388 0.08326164 -0.12721464 0.024600212 -0.26170185 0.39361808 -0.021603767 0.008154301 0.18852405 -0.029791152 -0.044307414 -0.32292214 -0.028685186 -0.12249043 0.051536333 -0.0038828803 -0.06328724 0.05925347 -0.14546727 -0.18681304 0.3889273 0.20496212 -0.24241509 0.028794136 0.03329905 0.1004716 0.035212796 -0.43305025
C0038257 0.14049466 0.15142253 0.14741959 0.16941036 -0.40726852 -0.115490936 0.29419863 0.33597878 0.2303542 0.049577896 -0.050486114 0.24898124 -0.22734272 0.033190522 -0.0038787313 0.0005078084 -0.21520418 -0.016735027 -0.034876518 -0.4111596 0.41199347 -0.123198666 -0.17007637 -0.2257638 0.008426962 -0.04563567 -0.018265972 0.027077092 -0.031900544 -0.14883935 -0.06244728 -0.35493386 0.16586134 0.20430923 0.10269055 -0.010410904 -0.52040243 0.23802577 -0.247331 -0.1550424 0.21510956 0.112511195 -0.12550256 0.4816086 -0.20058508 -0.05510332 0.14033586 -0.4319022 0.30840793 0.031109447 0.004267745 -0.09402063 -0.046777125 0.09044894 0.038403984 0.65860295 -0.21711446 0.08719018 -0.11609892 0.053117093 -0.20653187 0.2049554 0.08168459 0.10481066 0.042340443 -0.36081275 0.08316737 0.046851262 -0.21015498 0.14937705 0.08710207 0.29109955 -0.5829207 0.105146155 -0.39913148 -0.097579986 0.11726541 0.18843974 0.3213059 -0.11148312 0.15707251 0.013707733 -0.03730545 -0.07732722 0.27508503 -0.018777525 -0.32347786 -0.153221 -0.38844073 0.16090652 -0.1040974 0.24490476 0.0003792632 -0.14257638 -0.30554256 0.19745857 -0.08046917 0.15059187 -0.114179224 0.46642256
C0025598 -0.012585304 -0.10558684 -0.03564087 0.15962474 -0.15470672 -0.13535018 0.17333776 0.05524918 0.024231339 0.00064073 -0.012518917 0.14758033 -0.016460361 -0.19409059 0.3392586 -0.09398332 -0.19760126 0.12346834 0.004314423 -0.18555175 -0.022136584 0.2136479 -0.31676757 -0.40715325 0.12063872 0.13548838 -0.29218712 0.044472523 -0.1679981 0.009668323 -0.25648633 -0.12905811 0.19791138 0.05064398 0.14836733 -0.02339546 -0.3227046 -0.015603475 -0.20421505 -0.21697436 -0.16394652 0.39919975 0.20324558 0.07593903 -0.06091176 0.025557036 -0.22816743 -0.06508348 0.29994884 -0.07498717 0.044912677 0.22064151 -0.0043930374 -0.0872261 -0.13564241 0.25201768 -0.14336911 -0.20058085 -0.23447667 -0.07332403 -0.008148631 0.05189272 0.14417888 -0.28429207 -0.01750581 -0.21988708 -0.035957884 -0.016079707 -0.009111086 0.17402399 -0.060891207 0.26519144 -0.26415685 0.19305438 -0.09983392 0.1282697 -0.18779019 0.099748924 -0.08902588 0.12672834 0.36711195 0.19544202 0.25739294 -0.009324745 -0.1729911 -0.12786768 0.0037502279 -0.040384352 -0.17081605 -0.10319183 0.13189115 0.14016801 0.16246915 0.1321982 -0.26479778 -0.035187528 0.10725605 0.17890686 -0.35190096 0.32085726
C1532737 -0.014031925 0.021112433 -0.008689041 0.27859825 -0.0044944575 -0.6313687 0.12742081 -0.24455696 -0.18055472 0.08711756 -0.1912347 0.13119893 0.009582301 -0.4266986 0.20237114 0.24801327 -0.32966325 0.1922677 -0.120374694 -0.24940091 0.2036017 -0.36042595 -0.16945434 -0.18989064 -0.12574409 -0.25556663 0.13829112 -0.05758467 -0.22736305 0.24924311 -0.46839768 0.009099496 0.40605557 0.35411665 0.010732026 0.048378233 -0.33110532 -0.42762348 -0.52554864 -0.04065224 0.014051777 -0.0026021642 0.28274557 0.267969 0.26366067 0.27143666 -0.22826798 -0.4459181 0.2961089 -0.20837896 0.2040867 -0.23971862 0.16473135 0.41294974 0.12242555 0.67569125 -0.39455107 0.04513788 -0.29227495 -0.26935142 0.09357929 0.35377422 -0.12522186 0.015768355 0.25907618 -0.269856 0.058038063 -0.30676457 0.18608052 0.53140146 -0.28826815 0.073363245 -0.6109055 0.12779343 -0.23393986 0.07800161 0.10860157 0.21682297 0.030743998 0.09902897 0.17755957 -0.38796192 -0.22926486 0.13794118 -0.24710226 0.16742559 -0.27905467 0.3496759 -0.2603826 -0.15210272 -0.40723366 -0.105071336 0.017779771 -0.0751902 -0.4612526 0.03918187 -0.2930454 0.03437709 -0.096926704 0.19704743
C0076275 0.008938986 -0.3373267 -0.093810394 -0.018770948 -0.014341542 -0.15189786 0.0939593 0.27928504 0.044295058 0.023600994 0.011330793 0.19661757 -0.23347265 0.0004202425 0.3922459 -0.049572784 -0.44227812 0.34947243 0.12021994 -0.05579124 -0.10246441 -0.032194864 -0.21737294 -0.17265631 -0.23726276 0.49515986 -0.011560119 -0.11694204 -0.29099697 -0.020510675 0.09199916 -0.07235665 0.31243965 0.11503979 -0.18280691 -0.18195486 -0.46600166 -0.1657423 -0.1738187 -0.17178778 -0.17517403 0.18753465 0.12984435 -0.027731074 -0.074756674 0.16088389 -0.2265209 -0.38110498 0.32726976 -0.07355541 0.014047933 0.18203485 0.1276314 0.00017461317 -0.18049158 0.4974924 -0.13179919 0.1555623 0.016365465 0.10952397 -0.08530025 0.10718564 0.11170051 0.1939692 0.13143888 -0.15726896 -0.12508029 0.28686458 0.32117856 0.024494195 -0.42617387 0.16624634 -0.7043115 -0.017437868 -0.18625368 0.04430002 -0.2620622 -0.054986913 0.102999404 0.31736922 0.47103816 -0.0147835165 0.1492863 -0.39704174 -0.082667276 0.002269123 -0.42329454 0.13253014 -0.0519397 0.07891048 0.10529161 0.008472455 0.2772186 0.14903152 -0.24220578 -0.15070106 0.23065637 0.04495237 -0.43637383 0.27045292
C0025219 0.26627207 0.05585186 -0.09860336 0.16756167 0.20189871 -0.1744194 0.05088556 -0.2904818 0.14516914 -0.11622294 -0.21569397 -0.02644083 -0.0030946706 -0.07708138 0.04777016 0.1077868 -0.19267577 0.015366964 0.24877003 -0.40057433 -0.126804 0.00089194963 -0.20094492 -0.14000654 0.32879165 -0.082824074 -0.01735032 0.04311324 -0.051665273 0.21981338 -0.08378181 -0.34789765 0.2876375 0.042024855 0.10995833 -0.31939358 -0.11183407 -0.004206539 0.07151893 -0.14594382 0.2102053 0.11819202 -0.089457594 0.3136015 0.09765081 0.10967841 -0.23203783 -0.14834929 -0.12586045 0.22672628 0.005245726 0.05245704 0.030471342 0.05418099 0.11953963 0.21532965 -0.39915127 -0.09501338 -0.1694879 0.20290568 -0.31060383 0.021142257 0.1177891 0.09162785 0.16477688 -0.15814203 -0.010053791 -0.039805282 -0.09287141 -0.23147091 0.08494126 0.112555526 -0.16679226 0.09958705 -0.17053887 0.3690824 -0.4116867 0.37261894 -0.15513334 -0.16039993 -0.23048323 -0.141668 0.055831797 0.18903549 0.115978666 -0.037180178 0.008619731 -0.018584618 -0.35886332 0.30470526 -0.25792283 -0.35366055 -0.063895695 0.09434278 -0.19644795 0.03306159 -0.08035551 0.14107941 0.1912562 0.5379093
C0027996 -0.18099211 -0.110584386 0.20866492 -0.01483213 -0.30294162 -0.41820738 -0.0799273 -0.057138816 0.063941315 -0.02327019 -0.20566063 0.09432825 -0.18930128 -0.10831388 -0.035926774 0.0322905 -0.34297714 0.02868479 -0.119429514 -0.3021419 0.5221846 0.096213885 -0.5463362 -0.07289056 0.054741275 0.08337964 -0.1952876 -0.103984535 -0.104261324 -0.03741144 0.0015104925 -0.18413536 0.11476889 0.1293922 0.26666012 0.18199743 -0.45225817 -0.018426431 -0.44095936 -0.16988237 0.036487717 -0.049814954 0.25010258 0.13398428 -0.16747093 0.074330464 -0.29983932 -0.15252848 0.37092406 0.16845918 -0.11283756 -0.0054541947 0.19301729 0.01962795 -0.19969639 0.4319593 -0.2814896 0.41298756 -0.06239726 -0.03414325 0.15902288 0.13139579 0.051081125 -0.2296008 -0.028820662 -0.32821956 -0.026075829 -0.056740504 0.23236068 -0.035884324 -0.1664867 0.27926874 -0.47269782 0.20481941 -0.20775697 -0.07175 0.0037348084 0.3051591 -0.10262289 0.41120496 0.2803761 0.22991359 -0.037956446 0.100343466 -0.29100582 -0.34250075 0.029451553 -0.124655426 -0.38540545 0.20736088 -0.068017974 0.06828849 0.2907161 0.1435664 -0.060294386 -0.1921481 -0.01083723 -0.048479807 -0.2705499 0.07531136
C0288171 -0.26212978 0.09908666 -0.09574277 0.033523105 -0.13647965 -0.67158717 0.18466339 0.16300565 -0.17989878 0.17034991 -0.022990873 0.03454665 0.010608863 -0.10516483 0.42446473 0.03213269 0.048067186 -0.09097453 -0.04738692 -0.2623493 0.017915765 0.18718801 -0.105776966 -0.2347067 -0.021203648 0.07930523 -0.20112127 0.046105623 -0.15302745 -0.017679268 0.061283186 -0.03350767 0.32257292 0.28937572 0.16428186 -0.34142497 -0.2861336 0.008830152 -0.3648759 -0.25509518 0.12479294 0.4456901 -0.10835813 -0.050168272 0.039973516 -0.027727865 -0.14110604 -0.15824349 0.19493449 -0.011927421 -0.20138228 -0.097852826 0.1077273 0.16894223 0.075507574 0.28166923 -0.2021662 -0.111115 -0.19917609 -0.0056327446 0.19792525 0.07442196 0.10340061 -0.18133263 0.12437044 0.006636547 -0.18332551 -0.27444455 0.06403719 0.2617171 0.034783904 -0.029242218 -0.6539079 0.051909562 -0.064082064 0.22716369 0.086275786 0.25428724 0.1475134 0.4990968 0.40659773 0.12543742 0.35972235 -0.109810844 0.037460446 -0.04975956 -0.09754787 0.17737365 -0.023023428 0.20484124 -0.109103724 0.052049447 0.2380863 0.0025957902 -0.18011153 0.6187595 -0.11593413 0.014361131 0.10067109 0.103431076
C0009079 0.5181148 -0.14675538 -0.25354403 -0.0084361145 0.01688767 0.013679857 -0.11564749 -0.17154945 0.14909168 -0.17076345 -0.1494719 -0.18968245 -0.2928125 -0.16924448 0.016399907 0.04258461 -0.06625423 -0.19906762 0.10004117 -0.3544048 0.15407209 -0.41272715 -0.18195611 0.0017744601 -0.070397854 0.017676793 -0.16496691 -0.043395046 -0.027690016 0.057681415 0.25265813 -0.32035917 -0.2489347 0.027900305 0.16121997 -0.33603632 -0.52330464 0.19331704 0.18671122 0.11531656 -0.25524676 -0.12740804 0.25412235 -0.14821629 -0.080659196 -0.16757007 -0.31269377 0.0978023 0.11596867 0.118430465 0.25996006 0.19248423 -0.08209596 0.04278371 -0.03107751 0.18258667 -0.16583966 0.1205546 0.1523591 -0.008451727 -0.017088965 0.37706798 0.043116763 -0.17753686 0.16177873 0.118121 0.24692258 -0.1998493 0.043975018 0.13490127 -0.09372279 0.02762184 -0.34787306 0.36334595 -0.113352135 0.014380935 -0.30349562 0.42459035 -0.36984164 0.09451175 0.39077443 -0.17919314 -0.20785141 -0.2484241 0.15325542 0.031172704 -0.017150795 0.17851155 -0.23133078 0.07252813 -0.033538952 -0.18826213 0.19424014 0.12330692 -0.18393452 0.03424937 -0.11123994 0.19541559 0.14269061 -0.050432984
C0021186 -0.009655136 -0.06381722 -0.18187012 0.15109374 -0.45036352 -0.11660612 0.14894183 0.13527226 -0.2144202 -0.016357943 -0.2984977 -0.30791909 -0.021204527 -0.13630372 0.21615829 0.2073724 -0.17724754 0.1306028 0.10363762 -0.40489283 0.2625331 0.39434975 -0.28599793 -0.46645665 0.072635196 0.12896012 -0.12004402 -0.047126435 -0.29583266 0.22657831 0.11540297 -0.25770712 0.0945518 0.1946985 0.3533615 -0.4261468 -0.11438232 -0.27165082 -0.7316569 -0.09500149 0.22839439 -0.13828759 -0.47008088 0.18011805 -0.030924994 0.29221258 -0.049429823 -0.2530925 -0.0059133354 -0.07563987 -0.18164504 -0.039333183 0.31048137 0.09557707 -0.24803288 0.71454734 0.046950426 0.6096151 -0.27795544 0.013088886 -0.034892287 0.35548455 0.2807991 0.018240172 0.23562989 -0.21552731 -0.052360207 -0.16385297 -0.15229703 0.21486427 -0.13140379 -0.19950515 -0.46350652 -0.05603621 -0.0805811 0.34023836 -0.06592125 0.2658672 -0.21850461 0.52211654 0.39998725 -0.32615286 -0.02336383 -0.396493 -0.13210395 -0.05199901 -0.3857966 -0.01673724 -0.24347322 0.51050425 0.039246272 0.11496463 0.2712706 0.31461507 -0.25497466 0.32248357 -0.0118638845 -0.22755048 -0.31834152 0.11570243
C0039601 0.07547771 -0.0457838 -0.0008620077 0.2190758 -0.01433788 0.20159368 0.04491349 0.070761524 0.040182315 -0.31589392 -0.12966219 0.0842689 -0.051631294 -0.4163754 0.13600127 -0.013003791 -0.14968136 -0.027401946 0.18952961 -0.28118205 -0.15749033 -0.009221837 0.111398764 -0.09284045 -0.068331495 0.10205936 -0.15161823 -0.27612948 -0.10092044 0.090131566 0.12596723 -0.0675588 0.33543593 0.23025994 0.3563064 -0.1312553 -0.23126319 -0.06694665 -0.247426 0.17969462 -0.04335362 0.26372796 0.13648501 -0.025068108 -0.036138397 -0.04279505 -0.14171924 -0.13537143 0.14182709 -0.25658536 0.28404877 0.31181896 0.16628486 0.22584921 -0.2792424 0.28582236 0.037760004 0.053803198 0.21999615 0.35040286 -0.10832924 -0.14115638 -0.07940261 -0.08769624 0.0016672113 -0.22312386 0.122495994 0.02847943 0.17741618 0.06379288 -0.106489316 -0.053187724 -0.5300344 0.23808417 -0.0047331895 0.011886045 0.037704807 0.25635037 -0.04536823 0.18580125 0.2957854 -0.051892206 0.11942552 0.05052705 -0.18538292 -0.025389692 -0.03187692 0.071001664 0.02231242 -0.12342869 0.11949822 0.18634324 0.3207324 0.06292869 0.14118366 0.09581911 0.23389868 0.18978253 0.024250563 0.47806016
C0039286 -0.108955696 -0.2187496 0.06962742 -0.074993476 -0.28442243 -0.23291269 -0.24352387 -0.0645347 0.10189003 -0.19365194 -0.13851753 0.19513685 -0.1297864 0.3433863 0.19600232 -0.32194296 -0.2793531 -0.029639354 -0.15376945 -0.122840635 -0.05841951 0.3482238 0.036333356 -0.03693961 0.1581076 0.100410596 -0.09295801 0.36805993 -0.19838275 0.06719036 -3.290976e-05 -0.035896193 0.49452174 0.36812672 0.23217812 -0.0039951615 -0.55730474 -0.09491774 -0.46034408 -0.18853024 -0.23897201 -0.06407207 0.24365704 -0.36401978 0.059170138 0.18923753 -0.39397302 -0.23819396 0.07885159 -0.20790802 -0.0042830156 -0.061908614 -0.1242303 0.1829595 -0.21820116 0.22156139 -0.5397932 -0.20837902 0.08841078 0.26615745 0.2648543 0.24546601 -0.16420142 0.14126284 0.36733085 0.15884481 0.26706183 0.63854414 -0.2956463 -0.05764491 0.008404265 0.24205205 -0.3089946 0.35738197 -0.01782646 -0.114369445 -0.35299128 0.066882096 0.13304283 0.32297194 0.18977706 0.103278376 0.11892438 -0.32772335 -0.24670042 -0.054813273 -0.3399687 0.3066067 -0.11408909 0.1298249 -0.17899154 -0.122931525 0.2968624 0.2043019 -0.33537206 0.0806797 0.1563391 0.05830718 -0.09815501 -0.33222258
C0008677 -0.00034330486 -0.11284709 0.065199964 -0.041687272 0.0303509 -0.02590503 -0.038380034 -0.051075798 0.020543419 0.13195944 -0.07924783 -0.1691321 -0.023356345 -0.14113535 0.09460908 0.026654955 -0.115356326 0.0914804 -0.028165005 -0.3931524 -0.14542341 -0.020741696 -0.052214324 -0.17668532 0.093279034 -0.17930925 -0.07843685 0.051912222 0.013263749 0.040165663 -0.0015914087 0.058352146 0.042999435 -0.03904229 0.11762643 -0.20253743 -0.15534759 -0.0040816534 -0.13966897 0.10585639 -0.15583068 0.23156065 0.15875587 -0.08338695 -0.056762736 -0.07156632 -0.1176097 -0.06992321 -0.06320474 -0.0023687626 0.097391576 -0.027595198 0.13673626 -0.1512225 0.05497712 0.2066987 -0.00984196 -0.0883954 0.0678709 -0.24723686 -0.23204976 -0.10129378 -0.15690911 0.17753412 -0.020136625 -0.14236808 -0.059113204 -0.14825895 -0.12590972 -0.11879562 0.0065745567 0.25248477 -0.0877999 0.24671036 -0.11974767 -0.030940114 0.0417306 0.22538239 -0.029437635 0.27861288 0.24732763 0.04626659 0.027585236 0.027502337 -0.03202619 0.040228333 -0.08852035 0.04628932 0.03572662 0.18337391 -0.032354925 0.13834472 -0.009261831 0.1624339 -0.19695611 0.0006525422 0.063869365 0.19971026 0.17163384 0.1724811
C0054066 0.05893564 -0.34722087 0.3814322 -0.1744969 0.12446925 0.028709685 0.452761 0.48962978 -0.15009347 -0.11813909 -0.09738106 -0.41890955 -0.009030107 -0.056315936 0.22703946 0.005150929 -0.013865113 0.26961708 -0.17584072 -0.25279206 0.07707866 -0.02930515 -0.22671004 0.19834533 0.07024053 -0.34224853 -0.2955595 0.3137852 0.018875431 -0.016140243 -0.02690583 0.023925602 -0.21308894 -0.21606931 0.045790937 0.13431242 0.083522104 0.19830595 -0.23534846 0.45224681 -0.16785686 0.33015797 -0.05705558 0.04663726 0.2531815 0.06795698 -0.25696096 0.06409957 -0.005765841 -0.010605897 -0.4263537 0.12365768 -0.022347007 0.061472464 -0.3127965 0.47904804 -0.16174065 -0.27728337 0.15016481 -0.1574855 -0.20863104 0.10371482 -0.030875504 0.4018088 -0.023663063 -0.012345309 -0.07997096 0.026872346 0.032847095 0.07817872 -0.060099863 0.36674654 0.059611496 0.28219223 0.075182095 -0.3626956 -0.18387452 -0.015055407 0.05462066 0.49772775 -0.18705413 0.3778381 -0.12710993 0.103953935 0.27391505 0.5368415 -0.29001793 0.012453567 0.06368356 -0.05643542 -0.101361334 0.007123917 0.032750323 0.2462717 -0.30867544 0.026013535 -0.11096757 -0.049747337 0.18268743 0.13629492
C0052796 0.096892275 -0.124716915 0.3718421 0.100779414 -0.106714405 0.2238222 0.28367323 0.07453366 0.16198978 0.37820834 0.04540928 -0.29674542 -0.008781743 -0.012914442 0.16635448 -0.2676161 -0.22928785 0.007950667 -0.05669007 -0.11868806 0.16290236 0.097378865 0.08818411 0.019650916 -0.14096025 -0.42969167 -0.4953122 -0.021905025 -0.19600098 -0.011301163 0.11730091 -0.18628371 -0.15530664 -0.34553996 -0.06707282 0.10721638 0.15988673 0.121742636 -0.022098865 0.34032044 0.091625154 -0.0011743236 -0.017760651 -0.07032462 -0.056588534 0.1332391 -0.18187264 0.041355733 0.14188142 0.17970325 -0.18861924 0.22201727 -0.07012202 0.028282793 -0.18216693 0.5180505 -0.111632064 -0.37848327 -0.07906458 -0.013622401 -0.1919941 -0.01680689 -0.13515124 0.1655442 -0.0488897 0.0041364604 -0.12097301 -0.28740546 -0.092122704 0.032540962 -0.1866605 0.2631232 -0.17563829 -0.05116393 0.033608627 -0.2874384 -0.31007573 0.18351212 0.3004391 0.3179459 0.33057678 0.04143088 -0.04940602 0.28205746 0.099201895 0.13452123 -0.44070312 -0.078543395 -0.041205768 -0.1669321 -0.059368573 0.3181881 -0.11359126 0.5126636 -0.24733487 0.05888668 -0.07888698 -0.1944912 0.032897644 0.43588138
C0533545 0.02989753 -0.22839372 0.5087018 -0.04201394 0.15826426 0.16622388 -0.08488245 -0.044844802 -0.033184048 0.049682297 0.08544434 -0.20642637 0.11078761 -0.0817691 -0.1611219 -0.06858997 -0.015487767 0.1905872 -0.4192645 -0.5517715 -0.07516469 -0.18436283 -0.48877212 -0.06974526 0.07617019 -0.19625229 -0.04051292 -0.27307564 0.012422387 0.07498725 -0.055934127 0.18447886 -0.01690072 -0.05055297 -0.10914115 -0.15099369 -0.096918404 0.18444858 -0.2849056 -0.0961033 -0.070517585 0.41109395 0.15848863 0.14134827 -0.050611086 0.006351096 -0.22564816 -0.1945493 -0.3473785 -0.00524487 -0.06583322 -0.0018169916 -0.0006776417 0.11281599 0.24334389 0.49101582 -0.18948236 -0.15028253 0.2281392 -0.31991705 -0.48692742 0.051454224 -0.36022398 0.14516619 -0.02401598 -0.16742943 -0.0930514 0.20281911 -0.0035166745 0.19398558 0.04165453 -0.13883254 0.10119429 0.12588204 -0.05968677 -0.37389383 -0.33754316 0.115575254 -0.1098324 0.52544755 0.4456202 0.23195167 0.06848626 -0.3902345 -0.055001777 0.35567638 -0.027714001 0.073203065 0.34482685 0.5012294 -0.26579255 0.41640761 -0.18285426 0.02521828 -0.35079557 0.12241655 0.080883875 0.2351161 0.3507403 0.40770853
C0907410 0.35049713 -0.029415999 0.4337863 -0.1978726 0.13779001 -0.42149433 -0.05606925 -0.023799915 -0.1256372 0.1880984 -0.06272538 -0.1262294 0.21083383 0.08772337 0.1939645 -0.16812298 0.10803419 0.29698008 -0.20011106 -0.41788176 0.17534558 -0.10615574 -0.49144384 0.23707232 0.044412933 -0.316599 -0.35407504 -0.017492803 0.03859302 -0.27405044 0.11582914 -0.16183946 0.17937693 -0.41636992 0.119865775 0.101230435 0.21547514 0.1293757 -0.22925109 0.14391224 0.094376095 0.29797548 0.3250314 -0.027039766 0.12794827 0.027781498 -0.11688147 -0.07776192 -0.065084286 0.058143236 0.019778658 0.16901521 -0.11315477 0.07004262 0.06457568 0.30558375 0.07388836 -0.47052068 0.11942522 -0.20464797 0.04345165 -0.101112396 -0.16917689 0.19029969 0.08196765 0.065058105 -0.26942435 0.21841481 -0.39518553 0.24319787 -0.1508885 0.08909902 0.1207165 0.18081424 -0.020474266 -0.60848534 0.02188281 0.12665051 -0.21237925 0.6328241 0.110737644 0.28006786 -0.018884689 -0.113082305 -0.015017421 0.17909689 0.03396412 -0.05602422 -0.060526896 0.3947434 -0.103978485 0.12918523 0.08102238 0.28504196 -0.47387967 0.13639976 -0.034066044 0.018253328 0.44082513 0.038915463
C0053882 0.22414021 -0.37988037 0.23724568 -0.12029108 0.115554206 0.34157848 0.20617841 0.578047 -0.016357508 -0.42351833 -0.22477514 -0.682162 0.110036284 -0.060427535 0.2178618 -0.20578517 -0.09690125 -0.14431712 -0.18261904 0.27298796 -0.43917447 -0.42688867 -0.44386122 0.26361632 -0.11702347 -0.37870345 -0.1407935 0.2398444 -0.19713247 0.052405138 -0.41705465 0.4852182 -0.20379172 -0.37019587 -0.18674098 0.08847016 0.2824113 0.37928948 -0.53346246 0.6131085 -0.33180326 1.0421216 0.19067746 0.06771741 0.046133637 0.06683957 -0.6233995 -0.11001936 -0.1363062 0.18018281 -0.6118953 -0.099897794 0.02195362 -0.069752984 -0.4147532 0.74150056 -0.33684272 -0.49208724 0.2882197 -0.8927582 -0.05965519 -0.051292673 -0.12875551 0.2695158 -0.043898493 0.05705586 0.054117274 0.07578458 -0.23892444 0.05885794 0.28002608 -0.071564585 -0.17574777 0.12815093 0.36342415 -0.38646045 -0.20847808 -0.07061345 0.30292958 0.63651335 0.09288745 0.20247716 0.0847729 0.23767667 0.18412447 0.38366118 -0.5485174 0.32447803 -0.07059298 -0.06839283 -0.28410912 0.11769056 -0.074502915 0.003659114 -0.504422 0.100131705 0.11279595 -0.0017180444 0.18296564 0.6026476
C0753645 0.095663354 -0.09548052 0.8285755 -0.11824802 0.03559361 -0.013474153 0.0720798 -0.014518642 -0.17579782 0.19726242 -0.0010032362 -0.31875387 -0.1194022 -0.20545258 0.08872271 -0.058283214 0.049433634 0.21000871 0.06977346 -0.23843066 -0.011593691 -0.30491966 -0.60835695 0.12840277 0.09436801 -0.3967823 -0.36692953 -0.27388516 -0.06560819 0.27039716 -0.22725268 -0.0392704 0.023118977 -0.080550544 -0.3807395 0.21974096 0.17619483 0.20289066 -0.24013583 0.3183554 -0.0996633 0.043868314 0.056287184 -0.13162428 0.17644586 -0.059941024 -0.2111253 0.037218273 0.09207662 -0.0008036708 -0.5097262 0.11546927 0.13186607 0.017606266 -0.14677556 0.32139707 -0.2549514 -0.50324994 0.23462465 -0.4647599 -0.026198873 0.051507823 -0.28565258 0.2788155 0.12516153 0.0767994 0.04842436 0.10956287 -0.3163868 0.10169277 -0.1484277 -0.011762847 -0.21820137 8.943963e-05 -0.12144243 -0.46859902 -0.51556164 0.3706688 0.04319311 0.40074024 0.1457148 0.3409074 0.21501221 0.13166223 0.19960281 0.6809935 -0.19152309 0.37038803 0.05653061 0.16232023 0.00594626 0.09901153 -0.087970175 0.10529563 -0.22524093 -0.023850454 -0.17466584 0.029845154 0.030099142 0.05337078
C0055856 -0.09535256 -0.387031 0.05790851 0.08029424 0.106237724 -0.08381566 0.06402395 0.020095216 0.055953316 -0.041479506 0.30958045 -0.35306337 0.056508306 -0.21349318 0.33430606 0.20479716 -0.18654272 0.14332445 -0.118844405 -0.28920045 0.083037406 0.099392615 -0.19004674 0.119034655 -0.09504025 -0.4612817 -0.15306927 0.017746806 -0.11250812 -0.14475264 -0.07104615 -0.19716012 -0.23718438 -0.27062142 -0.01870454 0.1052547 -0.21495166 0.022199634 -0.08007659 0.35394475 0.14587902 0.19554321 0.3862014 -0.048614036 0.13692048 -0.098722786 -0.17278783 0.1545961 -0.08170295 0.0045139333 -0.01022156 0.0055033434 0.13313532 -0.10150068 -0.020616245 0.48094139 0.1110505 -0.27728772 0.20469874 0.05568832 0.2186949 0.049843986 0.049373493 0.21529797 -0.28332585 -0.013163007 -0.29657122 0.061193377 -0.34945542 0.34369415 -0.17175467 0.11162274 0.16472223 0.22736563 -0.089195594 -0.42517182 -0.2035783 0.11274182 0.22390677 0.38869044 0.08089457 0.17984426 0.08997356 0.23275831 0.026356587 0.058556948 -0.35625342 -0.079181895 0.0863005 -0.0870156 -0.10058116 0.462653 0.17281523 0.41211176 -0.35514572 -0.0017789918 -0.20036924 -0.2231447 0.122123994 0.2659964
C0282386 0.011657517 -0.7435154 0.5814483 -0.3088471 0.3698003 -0.0052921507 0.28189412 0.3853474 0.119913444 0.08931337 -0.042058576 -0.44159997 0.19283244 -0.1959784 -0.17803156 0.013116262 -0.11747795 0.2838857 -0.022535669 -0.20727076 0.10334313 -0.0759545 -0.36287257 0.18036991 0.05994476 -0.33727273 0.05477959 -0.13576932 0.24855329 0.09434994 -0.08684776 0.196007 -0.017920876 -0.08940464 -0.0945855 0.10707733 0.1703275 0.22588307 0.107144594 0.2126583 0.07872582 0.17448625 -0.060640503 -0.211208 0.13559914 -0.06094097 -0.19077806 -0.13074154 0.19482763 -0.12538451 -0.04638784 -0.19456661 0.034278747 0.19729446 0.057447005 0.41890875 -0.3236935 -0.30198577 -0.08304298 -0.08392228 -0.022281913 -0.07628975 -0.030753532 0.5818403 0.1409665 0.119572565 0.04258429 0.098409735 -0.47862065 -0.2667134 -0.24433112 0.38407677 -0.2887675 -0.013235656 0.44085252 -0.14756893 -0.3886129 0.26595062 0.03759586 0.6417788 0.2289005 0.2811766 -0.28447267 -0.13214643 0.22659141 0.26739615 0.18808489 0.12633161 0.26984033 -0.1139192 -0.0017708482 0.33186832 0.21151675 0.16142152 -0.006909503 0.3455385 -0.26601604 -0.08065981 -0.072696835 0.582263
C0536495 0.042018987 -0.2200625 0.33484325 -0.5676667 0.20264915 -0.015301617 0.23769195 0.10170096 -0.05808457 0.2374507 -0.24311617 -0.08789535 0.2173167 -0.28143606 0.2673958 0.15769166 0.12332628 0.11361571 -0.33846152 -0.7491033 0.37492907 0.0811851 -0.08387931 0.5553807 0.09184009 -0.38917312 -0.53952473 -0.075469434 0.038019173 -0.16455074 -0.11024745 -0.02223901 0.2139522 -0.2392637 -0.332467 0.21020502 0.23652625 0.18784235 -0.061713878 0.3385551 0.21333565 0.15806913 -0.02841852 -0.15322833 0.39939907 -0.0027866543 -0.21533923 -0.16710898 0.18214518 0.12524047 -0.12890679 0.3952043 -0.13114323 0.026316287 0.24210106 0.06479667 -0.08253063 -0.20361117 0.36277726 0.06494615 -0.10000567 0.031593222 -0.27731842 0.32753477 -0.03760092 0.13961266 -0.14361347 0.13482551 -0.45416987 0.053783864 -0.44559085 0.12654197 0.08262353 0.39722985 -0.0070208614 -0.2005199 -0.4173816 0.14537424 -0.117299296 0.4116788 0.2148436 0.35951582 -0.13719735 0.089985915 0.37970766 0.41541272 -0.15916264 0.15681258 0.07236015 0.103937194 0.20414843 0.17759508 0.08530246 0.53761816 -0.45552346 -0.114628784 -0.23737836 0.13997819 0.32733846 0.099494465
C0110038 0.05425554 -0.019410659 0.038351063 0.19528838 0.30079916 -0.20064452 0.19770801 0.22299369 -0.30659893 0.051838722 0.049136832 -0.09947491 -0.09549201 0.11909405 0.1843964 -0.14254862 -0.18315306 0.34969178 -0.2693354 -0.094731756 -0.079706416 -0.20134613 -0.34689093 -0.4264868 -0.2226243 -0.29431966 -0.49781537 -0.12635234 0.028043667 0.15126361 0.27894408 -0.3581405 0.10383812 -0.34051573 -0.08440636 0.082856305 0.16659072 0.34260842 -0.09135352 0.37142152 -0.19007957 0.356247 0.10027158 -0.13248292 0.27539808 0.11858028 -0.20985082 0.10495784 0.2424002 -0.07060321 -0.25369805 -0.16461544 0.51790756 0.025818028 -0.08569441 0.6234422 -0.040798854 -0.64796895 0.052408278 -0.21188307 0.012812971 0.06362568 -0.3050538 0.39858526 -0.011069179 0.21219295 -0.15294436 -0.16592115 -0.23088698 -0.20948365 -0.24758255 0.24077559 0.03420241 0.22836371 -0.048845604 -0.8299036 -0.13953745 0.2413082 -0.026763732 0.20223689 -0.037901483 0.41423365 -0.035048094 -0.14586405 0.30108148 0.5367932 -0.042452883 0.25148267 0.07909879 0.086747155 -0.13572544 -0.11638487 -0.027482796 0.22119278 0.246266 0.13595413 0.21226624 0.40075555 0.11703545 0.13000277
C0003232 0.082303986 -0.08862609 0.19743039 0.2064229 -0.035655342 -0.0820189 0.29344207 0.2998018 0.30106512 -0.010049984 0.0059793047 -0.26660243 -0.14490253 0.07415206 0.26657015 -0.11754518 0.16227789 0.1431938 -0.20143665 -0.33197206 0.14769134 0.040656287 -0.2103505 -0.17942236 -0.18374388 -0.3361752 -0.30209318 0.08874538 -0.1228332 0.13330595 0.28632933 -0.1871612 0.064597785 -0.16115835 -0.28067976 0.16775058 -0.13403183 -0.06244488 -0.034776364 0.2562179 0.06913771 -0.12700388 -0.017204262 0.11685745 0.10217272 0.029209796 -0.01730528 -0.14785413 0.09194219 -0.06218795 -0.25974208 0.3406046 0.061804663 0.12476811 0.13770984 0.37097967 0.0078039817 -0.24453805 0.18711242 0.07954795 -0.26250324 -0.08846083 0.009308439 -0.053626165 -0.119548194 0.0015314575 -0.19244994 -0.014104272 -0.011800649 -0.08109458 -0.007797236 0.29696837 -0.12864627 0.18410021 -0.04577916 -0.39012146 -0.10421604 0.297297 0.22461846 0.34859657 -0.027910454 0.08466229 0.121810526 0.16389292 0.11578553 0.14314282 -0.19085696 -0.034603454 0.037831143 -0.27474234 -0.3258397 0.38675362 -0.25532982 0.3779521 -0.13080178 0.1055542 -0.18972468 -0.2235969 0.054326728 0.15047505
C0021311 0.2607512 -0.33674568 0.6003095 -0.3150873 0.10029706 0.20936105 -0.1306219 0.13755788 0.1371867 0.05200984 -0.23116864 -0.13784143 0.074746616 0.006552932 0.11875335 0.0765876 0.54364014 0.35263792 0.17029071 0.020164035 -0.17121936 0.032436486 0.001602209 0.21250264 -0.12855572 -0.17466374 -0.42635912 0.017619936 -0.028033685 -0.076502815 0.25301853 0.4046662 0.16603686 -0.1719846 -0.28771606 -0.026598334 0.13970359 0.1734773 -0.3031451 0.18991064 -0.1127491 0.10712392 0.10343324 0.058491256 0.23753205 -0.29859897 0.05431194 0.35245284 0.15159932 -0.12740448 -0.48095894 0.34805858 -0.2613309 0.22647841 0.05515588 0.42834878 -0.14638707 -0.22848794 -0.09923708 -0.11023389 -0.040833548 0.3500773 -0.030438501 -0.15282527 -0.0700859 0.01848302 -0.19551797 0.027381675 -0.10626397 0.034878213 -0.44205943 0.41388148 -0.30271217 -0.19541182 0.06184606 -0.14236714 -0.12277115 0.37377065 0.14359163 0.26412916 -0.34951723 0.12771757 -0.11834044 0.27809826 -0.21637897 -0.00067952997 0.026548317 0.025959712 -0.13667144 0.3007753 0.014459866 0.08775639 0.1277403 0.4493068 -0.3484781 0.06903976 -0.3738922 -0.21361522 0.012951857 0.35757983
C0008196 0.11173232 -0.07444623 0.64280397 -0.16649674 0.08600705 0.10027228 -0.032634534 0.2682815 -0.0054947315 0.1719558 0.09789341 -0.23659825 0.050609127 -0.1293205 0.39615428 -0.5219976 0.33703843 -0.13346976 0.3268896 0.02986327 0.018361537 0.37908688 -0.23027661 -0.23641801 0.12722704 -0.0722891 -0.027512195 0.016107596 0.09894399 0.43083075 -0.31562534 0.12249764 0.08572651 -0.07322136 -0.02100686 0.24260496 -0.37812203 -0.22396217 -0.021497872 0.21256705 -0.024632486 0.13060278 0.074242644 0.09312258 0.085397914 0.39973983 -0.010335293 0.25510728 0.0035142584 0.016125089 -0.517832 0.12411023 -0.12646456 0.24663481 0.024799349 0.09482974 -0.10467707 -0.23869164 -0.08035949 -0.044151958 -0.4560852 0.024228815 0.2741301 0.0036437516 -0.45799047 -0.42141223 0.12300083 -0.11757955 0.25873747 0.19314107 -0.075595096 0.26331055 0.08702198 -0.0017352998 0.09692449 -0.26064414 -0.08595592 0.11743604 -0.15309285 0.49161157 0.02263537 0.15115176 -0.17578328 0.1508065 -0.40673706 0.16661792 0.33081797 0.07878083 0.097400956 0.34450236 -0.11216155 0.27859035 -0.11512109 0.38437063 -0.5681161 0.043701723 -0.3585472 0.05862637 0.12290964 0.22930507
C0002645 -0.03291361 -0.26586503 0.11261134 0.03314454 0.22113962 -0.11370873 0.32613087 0.27777898 -0.2128202 -0.09757234 0.07083912 -0.5079877 0.031231929 0.06640142 0.14829357 0.08557317 -0.07980516 0.2061165 -0.26143464 -0.09726568 -0.09696283 -0.15379302 -0.087853745 0.02356649 -0.23227075 -0.3728304 -0.41576475 0.017700486 -0.17143515 0.08186455 -0.082269095 -0.29145613 -0.085302725 -0.21194834 -0.023446478 0.10836782 -0.21355411 0.20352101 -0.21992677 0.36946067 0.19869356 0.32624736 0.1998753 -0.19348279 0.044295054 0.004135601 -0.15568197 0.21415651 0.062125154 0.0945823 -0.30664736 0.023233315 0.11278733 0.1411004 -0.16176008 0.3651242 -0.035657305 -0.24497548 0.110900566 0.030838903 -0.0823836 0.18137509 0.0026157955 0.21813215 -0.3770487 -0.027262803 -0.37981188 0.023935253 -0.09660076 0.12198509 -0.27654678 0.37565058 0.10096055 0.30806768 0.0030949777 -0.68036723 -0.19059554 -0.019919358 0.058807053 0.36754054 -0.31129134 0.43584144 -0.1065018 0.12661113 -0.10488353 0.31287116 -0.2546174 -0.10505934 0.27533168 -0.027558004 -0.20099884 0.22636694 0.12654103 0.36712584 -0.32257926 -0.09977683 0.06513658 -0.1756876 0.14338751 0.21981181
C0007561 0.32470295 -0.21955204 0.6639327 0.018514799 -0.088940606 -0.15258972 0.2389748 0.3042376 0.13437589 -0.028719617 -0.23443618 -0.5668493 -0.072134346 0.11027586 0.098864 0.034706835 0.039448153 0.19644898 -0.096587874 0.06520153 0.014695965 -0.15831792 -0.4928035 0.107810944 0.08544288 -0.27865535 -0.29598156 -0.3027035 -0.15573275 0.061722882 -0.03472256 0.009255575 0.0018464869 -0.42754477 0.02029204 0.10136423 -0.20020773 0.2619257 -0.041662116 0.35119295 -0.09137293 0.2887659 0.011999573 -0.1607621 0.121804185 0.14162964 -0.014672058 -0.04075626 -0.12446019 -0.17575563 -0.42461133 0.5068025 -0.03733725 0.14479381 -0.2861077 0.21768637 -0.0020439513 -0.12955666 -0.094701074 -0.3968918 -0.039922405 -0.11705687 -0.2952349 0.1118965 -0.21533117 -0.0163303 0.04698427 -0.06634641 0.19367601 0.16258675 -0.3164314 0.18143305 -0.118013375 -0.05130293 -0.02741576 -0.3947409 -0.42971256 0.1484528 0.25865474 0.5236716 0.04600612 0.08529886 0.11423883 0.1622776 -0.06690619 0.5347322 -0.3062912 0.12767251 -0.14369655 0.02881166 0.0067031262 -0.16748941 -0.15134187 0.16170186 -0.4599452 0.19501813 -0.18402763 -0.091946855 -0.0034336764 0.21575637
C0016277 0.11476158 -0.092628956 0.33688527 -0.2774848 -0.37383747 -0.5010387 -0.31281644 -0.033632834 -0.044391494 -0.6231807 -0.085315734 0.04308976 -0.09575534 -0.14855853 0.5327081 0.24142905 0.39004382 0.4926455 0.41043577 -0.25649074 0.08331322 -0.1713967 -0.18900013 0.21572603 -0.06290177 -0.19712842 0.08762284 -0.08586445 -0.1404274 -0.023832692 -0.05334877 0.30621028 0.03487096 0.17879291 -0.01763924 0.33714673 -0.02005829 -0.10752647 -0.3424689 0.4103346 -0.21266802 0.1038747 0.05157901 -0.31917748 -0.05444051 -0.07343296 0.5086532 0.38017026 0.5128763 0.10094928 -0.21791346 0.508857 -0.17426886 -0.13110082 0.18405591 0.71084726 -0.116231985 -0.22107778 -0.21420287 0.13447562 -0.11584827 -0.015669504 -0.42636222 -0.15293282 0.077811316 -0.14302786 -0.17759138 0.28096595 -0.13489111 0.08749492 -0.25305286 0.44709754 -0.44792578 -0.36225733 -0.1372214 0.09534403 -0.095436044 0.44107908 -0.04581769 0.07909576 -0.23694587 -0.2515434 -0.044616304 0.4596332 -0.43402275 -0.061892334 -0.043153994 0.14260325 0.27450934 0.3872303 0.04008371 -0.5424499 0.0028553042 0.18388979 0.14064963 0.15747978 0.029166833 -0.57861733 -0.17526636 0.6494959
C0001617 -0.1435766 0.007902688 0.24463224 0.25345296 -0.0761964 0.16674747 -0.20369533 -0.07237036 -0.14264052 -0.03752117 0.23255664 -0.31028137 -0.11188552 0.08346536 0.23575778 0.19399534 0.12263046 -0.0038068742 -0.09031874 -0.2511739 0.22949982 -0.020875186 -0.061458357 -0.14644694 0.15257218 -0.124164045 -0.034799475 0.13550796 -0.027325401 0.34130916 0.15059984 0.14141233 0.22252217 -0.12302318 0.1428338 -0.063134894 -0.15948178 -0.099638805 -0.083691105 -0.06552929 0.120755486 0.060359135 0.18471941 0.2912287 0.17751104 -0.08818292 -0.30502683 -0.12444827 0.001396286 -0.09978923 -0.05769674 0.39924613 0.4772957 0.038973138 -0.13517456 0.14851159 0.15898667 -0.10110619 0.10259831 -0.09970984 -0.085606255 0.059708316 0.030356921 0.052499823 -0.20517114 0.09337777 -0.034778394 0.0208265 -0.12764008 -0.08278347 0.02903559 0.024776416 0.0057488023 0.066712156 -0.13331993 -0.645903 0.4446538 0.3623394 0.014764638 0.09677783 0.17114386 -0.14399338 0.1538001 0.29447734 0.12920569 0.171609 0.0022370853 -0.0763394 -0.025071627 -0.075952694 -0.08855307 -0.26410076 -0.01993188 0.1460571 -0.25397843 0.0134065095 -0.004336024 -0.011424072 0.15869458 0.2202436
C1120106 -0.09845017 -0.44831142 0.9669978 -0.47809455 0.2084878 0.10856885 0.26611173 0.48690337 0.21934806 -0.029731207 -0.43315917 -0.08700994 0.12518471 -0.16640708 0.23299171 -0.23362516 0.30218822 0.1988424 -0.20817044 -0.3876186 0.19106625 0.13447416 -0.1724034 0.416755 0.21272238 -0.24856085 -0.4243351 0.08462438 0.38648328 -0.021277608 -0.09975056 0.45157418 0.10998807 0.104053095 -0.19090223 0.021300124 0.21323924 0.06062907 -0.12991163 0.5505879 0.044890933 0.33397618 -0.3140846 -0.0093691405 0.6691851 0.22470927 -0.5325781 0.056046445 -0.0007731245 -0.05971692 -0.4651513 0.35140452 0.031021694 0.36793095 0.1720805 0.20891081 -0.07511237 0.06803542 0.3176628 -0.16804524 -0.41200864 0.12668149 -0.099241875 0.27131426 -0.13635103 -0.23460127 -0.012047062 0.27817056 0.13000172 0.1353152 -0.45009503 0.34096688 -0.09929488 0.1883837 0.07366176 0.13286985 -0.011830272 0.18760726 -0.16308238 0.5225756 -0.04217391 0.36013702 -0.2181184 0.03108374 0.32239065 0.33324543 0.08191778 0.022881445 -0.18508986 0.0758114 -0.021818925 -0.16343911 -0.05463011 0.38834378 -0.44666898 -0.20196134 -0.5241313 -0.022632513 0.211874 0.23648496
C0041044 -0.023649473 -0.31856197 0.52360016 -0.109001465 0.15562594 0.02490313 0.3406172 0.59788185 0.40784726 0.13892359 0.15159397 -0.3177073 0.017414646 -0.0309103 0.16515478 -0.16449375 -0.083371684 0.21318737 -0.033413418 0.1770561 -0.059930634 -0.13908084 -0.004990821 0.20521688 -0.2718204 -0.020550929 -0.09703826 0.06571972 0.11538455 -0.15860806 0.13479689 0.23918779 0.08663731 -0.0053595416 0.117790736 -0.45777032 -0.29506627 0.024185166 -0.3516138 0.25361496 -0.31625244 0.3578932 0.0741767 -0.14481074 -0.26143876 0.26205206 -0.24143969 0.039312657 -0.25458422 -0.11586389 -0.48955792 0.37386218 -0.10127492 0.335758 -0.1850599 0.42177737 -0.27279133 0.0006628253 0.1265369 -0.2716217 -0.028298672 0.20505206 -0.050253283 0.2716186 0.057945408 -0.17739692 -0.16232313 0.06568015 0.39132023 -0.026810369 0.017309792 0.3515036 -0.41003245 -0.098125294 0.25313473 -0.013843693 -0.1879916 -0.12991323 0.011556313 0.58792216 0.07427821 0.39168248 0.010465042 0.06850636 -0.04862864 0.31244674 -0.17696702 0.1949646 -0.103055164 0.00073438074 -0.42727175 -0.12674238 -0.11573723 0.20483348 -0.46267143 0.017864347 -0.054424576 -0.14608674 -0.024957456 0.18541327
C0352155 -0.03391275 -0.18703718 0.52273303 -0.22830352 0.17737912 -0.129818 -0.12681264 0.13169523 0.07999941 0.2122657 -0.05892949 0.17486008 0.16632323 -0.23083615 -0.11878024 -0.23232116 0.33658195 -0.2395424 -0.05749873 -0.24884574 0.42295414 0.2027627 -0.20583108 -0.15595227 0.023637239 -0.2970346 -0.38733292 -0.20129804 -0.27920476 0.5802739 -0.47225723 0.24601072 0.21365514 -0.07456299 -0.28620481 -0.29668975 -0.1007488 -0.03913634 -0.34854338 -0.071941115 0.09244613 0.3682711 0.31332317 0.14814626 -0.118745424 -0.18891868 0.049412597 0.5310621 0.24343522 -0.15946004 -0.2818089 0.29252326 -0.41817567 0.14180247 0.18406107 0.15481736 -0.11077443 -0.24704485 0.031546414 -0.21460208 -0.29407924 0.21915284 0.043189846 -0.17461269 -0.31431425 -0.36486995 -0.066599235 0.13337174 -0.055415556 0.16871645 -0.24060805 0.32616085 -0.18803811 0.0514924 0.07911545 -0.20221609 -0.26568064 0.12734003 -0.19424094 0.39929792 0.09179664 0.34018627 -0.12630111 0.27137724 -0.64998007 0.20621471 0.11102848 -0.13857536 0.21809916 0.650506 -0.07202747 0.2413742 0.07861768 0.6286754 -0.47040135 -0.10931156 -0.009338423 -0.14824207 0.10091707 0.30960837
C0040341 0.14580232 -0.27615607 0.3888743 -0.2967103 0.08736934 -0.1568838 -0.22514962 -0.1788493 -0.19040945 0.09558884 -0.276184 -0.3337234 0.2184263 -0.058998104 -0.05193658 -0.15909629 0.014966864 0.6817453 -0.05371038 0.0048858533 -0.17327447 0.14982584 -0.22755018 -0.21247421 0.20402566 -0.4427538 -0.41271925 0.0056979167 0.24201724 -0.1418332 0.65019304 -0.009734566 0.04983295 -0.45801264 -0.18127754 0.09829736 -0.13016708 0.21259362 -0.50591666 0.63729066 -0.09154525 -0.005030398 0.058148906 -0.05233979 0.3557433 0.15005872 -0.1852191 0.23708364 0.07852801 -0.106641196 -0.4287912 0.59533113 0.36096153 0.635413 0.027299147 0.46301997 -0.040230475 -0.2179272 0.33411947 -0.37428132 -0.58272237 0.13539635 0.036790878 0.028033901 -0.05137078 -0.15215324 -0.44739556 -0.07042228 -0.23736535 0.08991223 -0.26654208 0.3351183 0.32607964 -0.22772428 -0.0680205 -0.5647361 -0.39117 0.20139274 0.1350197 0.31334513 0.026778316 0.0566131 -0.13093385 0.06711598 0.22398815 0.3671072 0.04203585 0.016382419 -0.1604025 -0.105505206 0.07782235 -0.12665495 -0.15518817 0.47302598 0.08091591 0.22193559 0.07663006 -0.29464176 0.1980171 0.15895171
C0013090 -0.03399278 -0.2573373 0.33956814 0.10403543 -0.16618861 0.23691094 0.35579494 0.0954659 -0.035113037 0.46701902 0.01321578 0.030260203 -0.11158589 -0.28902864 0.07248088 -0.07380665 -0.27167937 0.026048623 0.15755223 -0.114137724 0.13542955 0.43981016 0.26022175 -0.20808294 0.33827323 -0.21580857 -0.37229466 -0.03782244 -0.19096217 0.1730196 0.1048651 -0.061887585 0.0696274 -0.33422297 -0.037483145 -0.02134359 -0.015012951 0.25356913 -8.459839e-05 -0.11806354 -0.36214817 0.25008857 0.08088305 -0.0551333 -0.13523099 -0.14445224 0.043432664 0.27796048 0.18135053 -0.019157523 -0.055084325 0.3375616 -0.03476473 0.087681554 -0.030548459 0.09132697 -0.15053111 -0.1262245 -0.066325895 0.19423562 -0.20903902 0.23739243 0.030201891 -0.058481414 -0.18841831 -0.280068 -0.22545068 0.1381316 -0.05016086 0.1403449 0.06556643 0.48905158 -0.28541377 0.066456296 0.019520562 -0.20622236 -0.05031997 0.2272684 0.31143573 0.28501675 0.07396903 0.2892111 -0.26461303 0.16378693 0.052765843 0.42310202 -0.03625243 0.04794592 0.051537175 0.15888916 -0.28252947 0.062572956 -0.13510004 0.17487146 -0.062344514 0.18857783 -0.1243188 -0.40787157 -0.097968556 0.1322156
C0042839 0.07658258 0.21190192 0.1428423 -0.39869633 0.40178674 -0.2932734 0.026977153 0.08478341 0.34454352 0.20609409 -0.038209952 -0.035188086 -0.00078287104 -0.15920073 0.3008181 0.35664892 0.25819764 0.24089874 0.119179405 0.04106348 0.041575566 -0.13531968 0.16587053 -0.03420337 -0.1249595 0.25226626 -0.38656002 0.11440037 -0.012344882 -0.21958771 0.009263293 0.17637919 0.5554118 -0.28459272 -0.046923913 -0.21132703 -0.17514546 0.00023773231 -0.20255318 0.01852302 0.19959511 0.25076574 0.21171175 -0.14841485 0.089203015 -0.0940722 -0.42700517 -0.2872915 0.4421016 -0.56915694 -0.13114776 0.12778525 -0.29493982 0.11275679 0.59540886 0.36227614 0.03748903 -0.0936183 -0.05899153 -0.111225665 -0.17086843 0.2855443 -0.10600512 -0.13768668 -0.18502113 0.043133117 -0.12390366 -0.40741432 -0.2171749 -0.2828228 -0.26945186 0.11874462 -0.43328676 0.21688204 0.33432323 -0.080126286 0.083247736 0.21908979 -0.09005686 0.3615127 0.10767735 0.21571968 -0.25871792 0.1546463 -0.30965862 0.08747031 -0.017742883 0.34822667 -0.16251476 -0.17793766 -0.255492 -0.34997937 -0.16562812 -0.05284011 -0.40303898 -0.011222197 -0.3365341 0.04925819 0.10012861 0.28141725
C0053230 0.28742158 -0.30958545 0.7443885 -0.055846993 0.012318099 0.19398677 -0.24842675 0.21149543 0.3581872 0.07700046 -0.011314317 -0.19491258 -0.03236652 0.0008071101 0.11108587 0.018043518 0.6644478 0.29963943 0.4398291 -0.012056593 0.07049965 0.12711172 -0.10928827 0.37140438 -0.19579253 -0.31197217 -0.9187553 -0.04358605 0.1535096 -0.16326673 0.44946587 0.38878095 0.24334443 -0.4249699 -0.23353395 0.08468523 0.063849926 0.28223482 -0.5342275 0.3425375 0.1944331 0.0042613447 0.20121957 0.1107573 0.07936908 -0.38833183 0.13616277 0.27474535 0.27393693 -0.09376854 -0.6227216 0.34772184 -0.19922362 0.18089855 0.17728774 0.22061704 -0.19886824 0.036414493 -0.09259083 -0.4124469 0.018530682 0.55560726 0.03482509 -0.3802398 -0.19556369 -0.21460694 -0.26623815 0.3128387 0.13848813 -0.31339884 -0.8495612 0.3936319 -0.19013725 -0.3070628 0.0564509 0.0032016418 0.110424675 0.5210198 -0.21577089 0.74472576 -0.26717803 0.14233854 -0.25192744 0.46448302 -0.37698328 0.19339874 0.30247372 0.14531027 -0.3431059 0.3594757 0.09223775 0.11332346 0.2447586 0.7379716 -0.29101893 -0.024103796 -0.54879564 -0.16051887 0.030459313 0.18676713
C0028741 0.32374188 -0.11514083 0.36058316 -0.42346174 -0.4728637 -0.45953718 -0.5642272 0.28986543 0.05451535 -0.66074085 -0.01849459 -0.21530189 -0.005542478 -0.054131523 0.58683234 0.296776 0.72789496 0.7101531 0.71449965 -0.4789537 0.17824003 -0.021622827 -0.30484256 0.27073663 0.18945949 -0.5574711 -0.42544174 0.050039247 -0.27088642 -0.21693487 -0.02374711 0.5545624 0.16017856 0.029662482 -0.3718438 -0.17136832 -0.09256581 -0.06303949 -0.24680667 0.45694256 -0.1876885 0.17072663 -0.23221326 -0.2274842 0.003431208 -0.3254792 0.40384856 0.83976567 0.51589495 0.5066324 -0.26470193 0.40978298 -0.25375143 -0.22166587 0.6665334 0.91448534 -0.1958889 -0.560064 -0.3141473 0.07602225 -0.29911172 -0.0111564305 -0.03683756 0.012202277 0.13856633 -0.2377579 -0.34264824 0.20266183 -0.15843752 -0.021179862 -0.050344326 0.43719023 -0.42666927 -0.6396557 -0.094280116 -0.014860951 0.079294205 0.8156122 -0.31843284 0.057351757 -0.23481643 -0.14098491 0.12107084 0.34194088 -0.3563241 -0.011794115 -0.122043125 0.22797446 0.04906418 0.5004047 -0.07325806 -0.029534273 -0.27484077 0.22876199 0.4191961 0.1845467 -0.11115337 -0.6608015 -0.22079661 0.57079697
C0023660 -0.06471285 -0.23354258 0.045167442 -0.2187541 -0.12470113 0.19826883 -0.07916731 -0.03169436 0.0025070203 -0.077615805 -0.0053626182 -0.13892923 0.29221514 0.11327609 0.19100955 0.05742955 0.17513838 -0.2112306 -0.091569155 -0.14283797 -0.04266766 0.06928055 -0.1041798 0.3916768 -0.36988997 -0.098012626 0.37799147 -0.11782342 -0.24458326 -0.06936743 -0.12999369 -0.18916184 -0.11839773 -0.47461414 -0.011072955 -0.06621672 -0.095009975 0.039758727 -0.14477745 0.09992064 -0.0068665617 0.19331919 0.3394137 0.100481965 0.016120097 -0.17360123 -0.05329625 -0.30450925 -0.06844799 -0.22723562 -0.12408796 0.22463146 -0.09396805 0.16750333 -0.26304296 0.15836133 0.13498178 -0.27986625 -0.1818735 0.11404884 -0.10574371 0.068523616 0.19812149 -0.3960509 0.091159664 -0.4348393 0.08503152 0.26431212 -0.054846853 -0.21394135 0.380522 0.022509258 -0.24551138 0.15923437 -0.021397974 -0.24508639 0.07664809 0.16247028 -0.54306257 0.15715183 0.20399229 -0.04749971 -0.19673537 0.0931349 0.17125173 0.071579464 0.10339132 -0.179484 0.0066989595 0.09329355 0.002382881 -0.3052473 -0.21251261 -0.017385762 -0.11924339 0.1600276 0.0869917 -0.090482265 0.0009414908 -0.085033156
C0029995 0.2862241 -0.49050853 0.6833215 -0.10255722 0.39057118 -0.19159444 -0.030959217 0.36196607 0.1669897 0.20927466 0.013661041 0.022208609 0.27842543 0.2573503 0.11469348 0.09533829 0.29967391 0.28413063 0.010614766 -0.23307736 -0.07613854 0.032446966 -0.19876301 -0.13631637 -0.12635748 -0.2523439 -0.5891477 -0.12219367 0.038180184 -0.17429233 0.039328605 0.405411 0.40431663 -0.27886564 0.18972991 -0.11115255 0.660461 -0.08768703 -0.22648425 0.1578475 0.10266363 0.3867629 0.29787278 0.07425213 -0.08599023 -0.12515338 -0.06974188 0.17790766 0.3577496 -0.22105218 -0.28850526 0.34553593 -0.40948018 0.18694498 0.25179347 0.27294597 -0.07990649 -0.27415195 -0.06142338 -0.38793606 0.21821916 0.528267 -0.066090226 0.07130932 -0.0915227 -0.29353356 -0.15342654 0.28503028 -0.11058816 0.15448885 -0.6665047 0.37374163 -0.17641592 0.08142036 0.12925966 -0.09967581 0.16309443 0.39729586 -0.15028134 0.36306968 0.052678637 0.14204194 0.12478019 0.2944745 -0.27421468 0.057198074 0.18985206 -0.24993207 -0.1455444 0.5132878 0.20900042 0.0751439 -0.07069529 0.7578993 -0.18194082 0.3001197 -0.34671596 0.02039791 0.06779753 0.1598961
C0014806 0.14163303 0.011591594 0.341379 -0.433307 0.18090734 0.25323597 0.15596259 0.0064390916 -0.14098279 0.2520147 0.03791452 -0.35171956 -0.06142653 -0.08436927 -0.1299954 0.08086794 0.045079324 -0.00902067 -0.21512422 -0.30557993 -0.35937575 -0.23496905 0.055877335 -0.25955856 0.016331695 -0.16401686 -0.2944799 0.15805219 0.23627552 0.1289808 0.40655002 -0.15292583 0.29031065 -0.4418656 -0.09773434 -0.016783062 0.15061875 0.0038168672 -0.3568343 0.08823756 0.054512657 0.33181563 0.62043494 -0.12279199 0.21865791 0.012424586 -0.056954462 -0.1143552 0.13754447 0.3800377 -0.15241274 0.07696166 0.091730684 0.1473854 0.20613052 0.51336795 -0.062191654 -0.19325517 0.3832835 0.101806134 0.07208685 0.03893125 -0.13747531 0.059329446 -0.23427604 -0.006415873 -0.32502526 -0.017285157 -0.06678214 -0.035331037 0.020875469 -0.038305342 -0.17724822 -0.119415656 0.22597294 -0.43254697 -0.14205308 0.31422412 0.119660355 0.20988096 0.35906857 0.14686283 0.17700796 0.11661373 0.27697995 0.043254945 0.25663322 -0.29953423 0.053226456 -0.21689041 -0.2133513 0.31093583 -0.024166107 0.3623498 0.0053771054 0.30546364 0.20350291 -0.22213541 -0.20831548 0.07652424
C0022322 0.28623232 -0.1312471 0.45784554 -0.2778322 0.27218664 0.21777229 -0.28991023 0.121623024 -0.065010466 0.34461835 -0.1326585 0.02209063 -0.18144818 -0.5648095 0.026880812 0.11618832 0.17330521 0.09536868 0.28884935 -0.022539567 0.14651504 -0.14141774 0.0028101122 0.07998948 -0.38980338 0.0011458073 -0.13647348 -0.12153672 0.11558437 0.042226125 0.38155815 -0.178623 0.22534636 -0.402836 0.15861529 -0.18358232 0.09000993 -0.08465583 -0.5551401 -0.032468 -0.2324402 -0.003287961 0.64071316 -0.13896726 -0.08999364 -0.28141245 -0.07409696 0.10946024 0.14107682 -0.11420786 -0.30468237 -0.054298628 -0.34969673 0.11207521 -0.11231863 0.48573342 -0.43315068 0.21846281 -0.14909948 0.033101153 -0.039695747 0.10786135 -0.19110258 -0.00095351477 0.021831721 -0.3858783 -0.012908321 0.096210964 0.14435208 0.016829059 -0.06747375 0.07840799 -0.24742778 0.41544265 -0.24996682 -0.09506593 -0.011315774 0.6446226 0.03136432 0.27824816 0.06315902 0.11984788 -0.21512957 0.18114516 -0.20659077 -0.032383606 0.300796 -0.16539602 -0.2221277 -0.009689884 -0.11899351 -0.099432126 -0.0053088046 0.12891495 -0.14045668 -0.39909294 -0.27708247 -0.6500123 -0.2590708 -0.2417803
C0026187 -0.044369474 -0.089419365 0.24431702 0.18061508 0.1419339 -0.18867634 0.22431369 0.16999103 0.28541523 0.10428969 -0.23451611 0.23946673 -0.28165442 -0.2658128 0.16243032 -0.25128883 0.10805659 0.045996223 0.42552894 -0.27962074 0.0044188113 0.13417153 0.20188318 -0.40965748 0.16565832 -0.43350887 -0.022340747 0.050381117 -0.16872528 0.16383173 -0.16133346 -0.18221265 0.10455617 -0.1779631 -0.03326949 -0.11399752 -0.022465343 -0.020362917 -0.17545915 0.065762326 0.026273422 0.3496917 0.15916269 0.04053333 0.07683463 -0.31485122 -0.005619232 -0.20355184 -0.08475289 -0.12359606 0.28280932 0.030764017 0.3127084 0.22421749 0.181668 0.11411806 -0.17711885 -0.26470792 -0.2177407 0.036985006 -0.120330505 0.33018446 -0.06140089 -0.008271456 0.026417755 -0.071506105 -0.042895008 0.084685795 -0.028655468 0.11102363 0.048089776 0.18944193 -0.34762734 0.2058723 0.22986636 0.09674308 0.21266125 0.36696532 0.31755942 0.109331824 0.27702028 -0.14812322 -0.19862296 0.17834936 -0.0857067 0.2353803 -0.07546413 0.2472203 0.10117883 0.009294478 -0.25212497 -0.05353868 0.096886806 0.08012055 -0.1126621 0.14596173 -0.10977345 -0.067469425 -0.06822699 -0.21832976
C0209368 -0.3320774 0.15940633 0.053540204 -0.10388434 0.2215413 -0.22246882 -0.1624836 -0.18383351 0.16843216 0.14126405 -0.21624374 -0.0734215 -0.12118382 -0.11022636 0.04721597 0.19670442 0.06550034 -0.13359395 0.2614064 -0.18714498 0.11864159 0.28319255 0.044646956 0.16615972 0.16930835 -0.02263053 -0.38469234 -0.082992665 0.09140124 -0.0035071152 -0.09026575 0.14230837 -0.017889943 -0.22755833 0.10496341 -0.32473004 -0.2090379 -0.12407694 0.37768963 0.06408708 -0.050733086 0.17611241 0.33085158 -0.019896625 -0.07065098 -0.40651518 0.09039899 -0.21350253 0.38661394 -0.22938234 -0.028659882 0.4757622 -0.2098056 0.3493279 -0.12883464 0.27939987 -0.05864027 0.007119515 -0.10011699 -0.281725 0.0002923903 -0.058700982 -0.15520369 0.2474391 -0.5602329 -0.36449152 -0.33013484 0.11485518 -0.040433943 -0.10644918 -0.098946236 -0.13105787 -0.3284332 0.17082737 -0.24472888 -0.15189113 -0.15932621 0.38521057 -0.07104877 0.028620254 0.045007378 -0.019256322 -0.06179516 0.14266665 -0.041592725 0.048979815 -0.22507672 0.09089221 -0.015242762 -0.14442204 0.19171105 -0.25333694 0.15097517 0.02996311 -0.5541299 0.08245227 0.026428526 -0.126976 0.081046365 0.0996255
C0030840 0.14572078 -0.44625705 0.4363582 -0.2248966 0.020089008 0.04229613 0.066939816 0.09298235 0.17997658 -0.3602091 0.33714074 -0.4260847 0.21050142 -0.038277764 0.214156 -0.07889963 -0.08479828 -0.019024115 -0.026307281 0.18840522 -0.24393964 0.010291973 -0.22294801 0.11646491 -0.28092408 -0.41280422 -0.589736 0.36740458 -0.26247823 -0.08413506 0.23058626 0.16046777 0.014999598 -0.4314021 0.046211172 0.09743531 0.03397048 -0.031023737 -0.48126164 0.37661347 0.24102253 0.27380925 0.3139417 -0.21457542 -0.29524398 -0.24836159 -0.6078787 0.40484756 -0.027880445 0.39647272 -0.5013627 0.20488249 -0.260664 -0.1750899 0.16661054 0.6252472 -0.008225286 -0.3578543 0.09187845 -0.2522536 -0.26942962 0.1476817 0.04420364 0.18797393 -0.35913086 -0.17076512 -0.26235476 0.25663134 -0.08703846 0.35617808 -0.1859833 0.09762983 0.24786957 0.09793602 0.15254849 -0.2899121 -0.03950482 -0.09801829 0.48768508 0.9077719 0.042310946 -0.0072327605 -0.1451374 0.4196496 -0.47261786 0.018316893 -0.327452 -0.30536836 -0.094424136 0.54906195 -0.18959153 0.2055228 0.24884012 0.34069204 -0.5331329 0.13153122 -0.10194116 -0.06391246 0.47735745 0.22534505
C0304317 0.472258 -0.33806574 0.5707592 -0.3088249 0.008046587 0.002450965 -0.38914743 0.30197623 0.25935647 0.18329097 0.028664697 -0.06423656 0.10170105 -0.11930042 -0.052264888 0.21081878 0.656327 0.293421 0.31578827 -0.09445668 0.1974919 0.17947719 -0.10981332 0.31057534 -0.023280092 -0.18170525 -0.6077088 -0.12103933 0.15518509 -0.26673105 0.41535303 0.50082546 0.234951 -0.375849 -0.35620677 -0.02587925 0.24537688 0.027569216 -0.4922128 0.31782085 0.09977894 0.087904744 0.13331255 0.118472666 0.29814312 -0.40802863 0.024448713 0.22232707 0.2556068 -0.15311612 -0.58013076 0.26263836 -0.41306198 0.4281064 0.16550209 0.36825934 -0.19485824 -0.14944637 -0.027848661 -0.470698 0.09563426 0.43950382 0.13274457 -0.24718378 -0.24854672 -0.27568468 -0.20560406 0.43279877 0.041911423 -0.18044908 -0.74861765 0.47604895 -0.27735576 -0.1934184 0.22806966 -0.1433792 -0.098234616 0.55654746 -0.20877263 0.54268116 -0.24540736 0.08920952 -0.08695781 0.40793943 -0.16591166 0.17649642 0.32139573 0.028555296 -0.30274385 0.39403737 0.17519258 0.021351269 0.45839798 0.8384994 -0.33666027 -0.05190301 -0.35369036 -0.16332625 0.00039261777 0.3979658
C0028978 -0.06524159 -0.46165213 0.19035436 0.012754361 -0.09213649 -0.06586877 0.18092859 0.07143916 0.09645225 0.19069417 0.20637158 -0.17715414 -0.09992687 -0.2858719 0.26109478 0.1790088 0.03142397 0.07479198 0.15343864 0.298731 0.084722824 0.159445 -0.04540963 -0.32977054 -0.008392828 -0.34800428 -0.21835254 -0.1153012 -0.1007499 -0.18178734 -0.005060001 -0.2608106 -0.027429517 0.10706318 0.12276468 -0.13308366 0.012047208 0.13058814 0.042781074 0.10320194 0.17381243 0.46843696 0.2323718 -0.30430624 -0.054895844 -0.19958138 -0.161701 -0.17292193 0.01819767 -0.052732985 0.10691755 -0.057564117 -0.09055478 0.05627267 0.00789317 0.48081136 0.16777498 -0.26898167 0.06770075 0.05413994 0.014377162 0.23855828 0.011187294 -0.023988333 -0.05918189 0.10777164 -0.0643122 0.17171597 -0.45001656 -0.17681006 0.033037167 0.6424198 -0.08065299 0.26187068 -0.3519591 -0.29691672 -0.16329737 0.24404404 -0.14931366 0.03346776 -0.17255639 0.014545549 -0.37163934 0.23635086 0.15802892 0.24891117 -0.1445266 0.10713976 0.2831229 -0.056975074 0.38819 0.1513636 0.31725723 -0.19400257 -0.27278262 -0.18421859 -0.3132789 -0.05683648 -0.0015495181 0.07382908
C0123091 0.35291353 -0.018846914 -0.07607763 0.0003271658 0.024340155 0.067410134 0.011249795 -0.39153707 0.40188062 -0.051845964 -0.16150247 -0.2803325 -0.17095156 0.06969882 -0.0039349515 0.1263245 0.039279234 -0.22017498 0.15489013 -0.42149392 0.097553566 -0.1353469 -0.03673561 -0.12795384 0.11912484 -0.009741154 -0.08891412 0.18834089 -0.10922392 0.06688351 -0.0041968934 0.058588933 -0.13847834 -0.036527827 0.16572288 -0.2123615 -0.26035812 0.23064537 0.20552191 0.26712218 -0.28555828 -0.12390503 0.262472 -0.15747184 -0.024366729 -0.21619144 -0.34515825 0.025581267 0.10224126 0.060475506 0.10961965 0.2651828 -0.009315474 0.26694635 0.05329513 0.1243401 -0.22786197 -0.12839204 0.026457014 0.10367546 -0.03604065 0.23882034 -0.09479903 0.009359853 0.15352206 -0.10724303 0.1001484 0.08624216 -0.036015116 0.0421253 -0.078927465 0.15492535 -0.08545786 0.17990127 -0.10258961 0.17393745 -0.40025723 0.4472124 -0.14104852 -0.04799338 0.08239142 0.010298463 -0.11504211 -0.27255708 -0.07126592 -0.14579588 -0.041167155 0.1216685 -0.25812182 0.08667007 -0.0650418 -0.23317045 0.15092297 0.20912403 -0.053022992 0.13301663 -0.21313661 0.07331807 0.25282884 -0.15408714
C0017710 -0.36598948 -0.3721014 0.053044185 -0.0865664 -0.03535407 0.2409694 -0.20447935 -0.1415832 -0.19434562 0.030987527 0.2951604 -0.27698594 -0.04561148 0.06366855 0.37059337 -0.03513464 -0.17281121 0.19512285 -0.11106792 -0.26007974 0.18413307 -0.14979279 0.030821975 -0.1077377 0.3079844 0.16879268 -0.27807927 0.059798714 -0.09077766 0.23911522 0.20005012 0.1890983 0.31269497 -0.2062992 0.2660371 0.07375036 -0.023873527 -0.3827658 -0.36958158 0.02588824 -0.18237981 0.196984 0.30847558 0.28744894 0.104285866 -0.07667397 -0.024352992 -0.21262845 0.11852655 -0.11295785 0.2276723 0.41788274 -0.0644427 0.15396951 0.017850047 0.31548092 0.19326185 -0.029785674 -0.0038751622 0.12302992 -0.025578912 0.05442169 -0.153156 -0.054804545 -0.21578881 0.0029659614 0.15461099 -0.15292963 0.040825464 -0.13182127 0.089825414 -0.0007374624 -0.13549034 0.011221064 -0.03746867 0.13613063 0.19452682 0.34017453 -0.073112324 0.19505829 0.0035076446 -0.054976866 -0.066972956 0.003981042 -0.19729568 0.114668734 0.036376767 0.124609135 0.15270127 -0.008939054 0.13546929 -0.007562219 0.06567532 0.051209282 -0.06825336 -0.0055431044 -0.020688413 -0.027587414 0.23087257 0.19111966
C1260298 -0.026105301 -0.41264912 0.9925976 -0.28748417 -0.017647993 0.28369698 0.14186385 0.79767853 0.22563505 0.020367274 -0.26367334 -0.45566094 0.31042907 -0.10662929 0.14550538 -0.073541015 0.2672772 0.48814583 -0.08844629 -0.2217307 0.23079042 0.21700518 -0.05052393 0.49200022 0.161969 -0.1081126 -0.55951935 0.055071518 0.13339904 0.17850608 -0.02859129 0.22956637 0.23874162 -0.043687597 -0.04798001 0.1075146 -0.09053179 0.17645481 -0.055989407 0.6408284 -0.1635314 0.3445947 -0.17059723 0.013412393 0.5447326 0.39870265 -0.29385713 0.33042294 -0.3089927 -0.027715437 -0.71009547 0.14341708 0.101718865 0.25590503 0.08978273 0.06892944 -0.07086618 -0.066876784 0.3074631 -0.0006811276 -0.695914 0.12451028 -0.0025375404 0.08653991 -0.27964294 -0.09607663 0.14109376 0.050533913 0.44078684 0.2662046 -0.21392328 0.31367922 -0.15681136 0.08885745 0.19580524 -0.2370954 -0.10663414 0.2702256 -0.15249763 0.2487497 -0.104362495 0.37534782 -0.08891918 0.029318899 0.31846935 0.24836844 -0.023275867 -0.15276769 -0.15375464 0.08917279 -0.06187693 0.0065241056 0.043953344 0.43461734 -0.39146006 0.039677143 -0.4620183 -0.15659413 -0.0910576 0.23054591
C0250480 -0.040533513 -0.38787016 0.77612084 -0.3273837 -0.04538716 0.05296876 0.13212307 0.49004397 -0.120861 -0.12375451 -0.38328582 -0.48286197 0.16406846 -0.16143996 0.00500638 -0.033339147 0.203052 0.39081982 -0.10701296 -0.16597344 0.013065487 0.06683095 -0.029691348 0.10639693 0.22303015 -0.14672604 -0.38346052 0.016039958 0.0056382813 0.1691296 0.15516353 0.13124382 0.17601362 -0.12783551 -0.037362218 0.03802797 -0.16389924 -0.02281429 -0.06271049 0.4877292 -0.29869792 0.25419584 -0.051196076 -0.04242341 0.40933415 0.3158 -0.14551723 0.49509022 -0.23258111 -0.07982476 -0.7019442 0.24363671 0.18171827 0.43666875 0.22726335 0.3701534 -0.046962377 0.098134086 0.30982575 -0.15897253 -0.4974519 -0.0002700317 -0.14281742 0.17612895 -0.21882847 -0.28820714 0.19238813 0.2544104 0.35844758 0.039474297 -0.29694995 0.38722634 -0.11660881 0.29591477 0.22500117 -0.1289699 -0.09632056 0.100679725 -0.059363093 0.26237532 -0.08344287 0.34915194 -0.07474532 0.09842377 0.30140164 0.46449888 -0.02401941 -0.0040137535 -0.24183828 0.14239621 0.0052806907 -0.17167246 -0.07536293 0.40014476 -0.30287838 -0.0077540134 -0.37806946 -0.12772636 0.03432673 0.12516285
C0028365 0.056223977 -0.25647482 0.34601218 -0.086037375 0.089170225 -0.10406591 0.22214343 0.31736237 0.7652214 0.40962774 -0.04138 -0.5249971 0.030309375 0.17971465 0.036480263 0.19013442 0.53741264 0.4037261 -0.052632246 -0.21063282 -0.19708742 -0.15103334 -0.56462055 -0.2858538 0.09599671 0.08817166 -0.38044217 -0.18678457 -0.1261896 -0.054742333 0.61083317 0.47491097 0.06926019 -0.46029308 0.049552478 -0.46708015 0.09110441 0.051752735 -0.24039076 0.555919 0.21056925 0.09932332 0.0022212449 0.07618916 -0.243376 -0.308555 0.06039146 0.030511715 0.05211737 -0.026510216 -0.9127876 0.42522454 -0.0090866 0.45269874 0.3026678 0.29920885 -0.008136338 0.23035106 -0.16390222 -0.3390017 0.30712062 0.41431147 0.10656227 -0.33600795 -0.114091106 -0.2166195 0.28092936 0.42933694 0.3886922 -0.078448795 -0.5870816 0.44769302 -0.3363716 -0.4219929 -0.10577993 -0.009515541 0.20030923 0.4171074 -0.025780533 0.5490193 -0.15330099 0.09966728 -0.07528486 0.15234828 -0.3529094 0.0727515 -0.1388379 -0.12782516 -0.43844134 0.36031505 0.31651616 0.4246885 -0.11359224 0.09767321 -0.50663674 -0.017277844 -0.33966243 -0.0023587595 0.11211204 0.3413221
C0052432 0.6472009 0.052617203 0.31623724 0.06276773 -0.23778605 0.2789429 0.11031585 0.23162676 0.14050592 0.76428246 0.47217295 0.22502804 -0.029034691 -0.48258585 0.21942614 -0.25892356 0.3118199 0.25711346 0.020404043 0.07619164 -0.3010857 0.5286765 0.27981192 0.1483721 -0.2673514 0.14721642 -0.19190189 0.06631737 0.19270934 -0.20221452 0.19424576 0.51547897 0.053425267 -0.5167862 -0.09612803 -0.5173396 0.22610697 0.13401364 -0.85185647 0.056739096 0.11305387 0.11799115 0.20497866 0.007956129 -0.46857274 -0.08059867 -0.026499735 0.24241297 0.178253 -0.32900393 -0.141481 0.68302184 -0.36952496 0.04965848 -0.24902932 0.40863377 -0.019668391 -0.0504074 0.0096823815 -0.14274947 -0.1377151 0.6076604 -0.46045414 -0.28279772 0.18068153 0.089303724 -0.23687918 -0.010406049 -0.32178178 -0.3753999 -0.5177753 0.42022163 -0.5523881 -0.2768229 0.052853517 0.037178215 -0.38640803 0.67339206 0.18138462 0.50060856 -0.18956861 0.35802716 -0.6044603 0.28547558 -0.14378428 0.12428351 -0.038460106 -0.066572525 -0.4972068 0.3592885 -0.57377416 -0.19490266 -0.042722583 0.31043044 -0.1873078 0.26250997 -0.48864728 -0.37315068 0.24880068 0.37574
C0700599 0.38332516 0.23108095 0.2492914 -0.26084122 0.03051585 0.05461861 -0.065900944 0.06392608 0.103477426 0.5027831 0.2854195 0.10336535 -0.16408938 -0.45289224 0.28038016 -0.20770773 0.28943586 0.21873637 -0.032524664 0.03693995 0.024407359 0.17112179 -0.11098871 0.42207617 -0.27364898 0.31441337 -0.23080838 0.0033643509 -0.08256673 -0.02963569 0.075358264 0.2533664 0.2557865 -0.3073422 0.16853645 -0.516338 -0.033056952 0.2982546 -0.4782527 0.12663446 -0.05149132 0.14879742 0.3929341 -0.13801034 -0.25666225 -0.14167666 -0.1125691 0.14315554 0.27746835 -0.37952325 -0.030628534 0.33417693 -0.25946257 0.011957587 0.06673932 0.34906945 0.16136292 0.061665356 -0.07590193 -0.14854947 -0.017224815 0.14473417 -0.17066783 -0.15177602 0.23248889 -0.08099824 -0.16868289 0.011990323 -0.15841818 -0.35874704 -0.28552154 0.15822679 -0.5748839 -0.15955177 0.06014956 0.087478 0.055340413 0.44720027 0.20258296 0.41479793 -0.094142504 0.2915158 -0.34229755 0.3312304 0.13415398 -0.23569813 0.16891442 -0.19084758 -0.02623105 0.094523974 -0.4487116 -0.15200315 -0.075433545 0.1857628 -0.25021014 0.06808688 -0.35860625 -0.27461267 0.15483244 -0.011369791
C0055003 0.15163307 -0.41251922 0.70138663 -0.029762272 -0.12597717 -0.016500356 -0.10946324 0.6172855 0.31894997 0.084688105 -0.19074486 -0.6496605 0.10717512 0.08852012 0.049392756 -0.07230563 0.06624472 0.39254165 -0.0027555635 -0.020527583 -0.16638823 0.19448157 -0.24902761 -0.036851145 0.3131576 -0.025602788 -0.33523032 -0.2058389 -0.03629562 0.036251683 0.18751323 -0.024735114 0.10213489 -0.26735714 0.20187467 -0.020129774 -0.32137707 -0.07373215 -0.18841298 0.5191081 -0.19884934 0.058408603 -0.06464415 -0.1191144 0.26429552 0.14685237 -0.09728017 0.41145897 -0.2614888 -0.035210323 -0.90397215 0.06424125 0.26362488 0.44398552 0.102704555 0.1937389 -0.10471284 0.013110157 0.12528558 -0.1119373 -0.36618108 -0.100376904 -0.08505632 0.016470654 -0.39989516 -0.18425785 0.14968857 -0.028048154 0.5391055 0.17126356 -0.30837542 0.42009726 -0.107306994 -0.008195419 -0.045856345 -0.4165639 -0.18611601 0.18956943 -0.01351263 0.32772705 -0.1590674 0.15949905 0.035224933 -0.1785957 0.14828278 0.22618681 -0.060200572 0.0015572151 -0.2887725 0.18039286 -0.07225459 0.17736053 -0.23957151 0.17870158 -0.21440382 0.32453927 -0.3104019 -0.12071402 0.09885019 0.23713732
C0304320 0.19055857 -0.11144743 0.96805555 0.0941212 -0.30518964 -0.115418606 0.13983625 0.13723777 0.0501016 0.25145566 1.9575318e-05 -0.7747013 -0.12804924 0.05082922 0.06512359 -0.033777975 0.27813104 0.21926369 0.0014389991 -0.12339584 0.043032654 -0.4890826 -0.16744548 -0.026334722 0.090916485 0.006056288 -0.29552183 -0.14958037 -0.36370116 0.2699622 0.22801705 0.2652473 0.13305129 -0.33048037 -0.032531105 -0.14564183 -0.1482367 -0.010758421 -0.1042835 0.28576776 0.18184072 0.14619386 0.14021267 -0.004544582 -0.18685496 -0.038587026 0.109079316 0.098827645 -0.36701787 -0.031217832 -0.6547435 0.3498722 0.018809516 0.14291443 0.037748054 0.06381706 0.037507035 0.035945654 -0.081308745 -0.43576768 0.046616264 0.17016906 -0.113573246 -0.07022303 -0.20008074 -0.3768629 0.24082963 0.08340065 0.5427541 -0.13731684 -0.579254 0.4190728 -0.2910405 -0.20381753 -0.105834976 -0.27816677 -0.19367678 0.12961544 0.049959898 0.64063865 -0.054387264 0.02338484 0.348336 0.20677185 -0.14840406 0.5051737 0.024956482 0.07553868 -0.010073204 0.5787403 0.16267759 0.41241857 -0.19139872 0.36626908 -0.70269495 0.18017754 -0.574297 -0.17448409 0.100223795 0.393238
C0008269 0.34915763 0.11448763 0.34828004 -0.059482656 -0.20698695 0.039614085 -0.057911582 0.32125044 0.28332895 0.7368438 0.28796992 -0.056516726 -0.24948594 -0.29738045 0.06756866 -0.20465638 0.15004022 0.21000801 0.13271981 -0.034683418 0.019282801 0.40997234 0.15816855 0.17687269 -0.25587022 0.02927918 -0.005997822 0.17587964 -0.025048256 -0.3007857 -0.06995478 0.28238216 0.09634423 -0.37740302 0.08948514 -0.20292227 0.28630376 0.12464713 -0.29895395 -0.093583174 -0.04266859 0.11785126 0.36253446 0.0357609 -0.36285105 -0.06695704 0.051354904 0.16506238 0.23221304 -0.21620712 0.010286456 0.43114322 -0.17267577 0.0014870522 -0.3915445 0.45467293 0.05192927 0.13417748 -0.029225769 -0.12694332 0.0071564545 0.19246374 -0.5359778 -0.14996965 0.08191511 0.1039369 -0.15264075 0.28816915 -0.21801466 -0.25335267 -0.124492235 0.06133859 -0.53642654 -0.13368551 -0.17380038 0.012782703 -0.3258353 0.6704326 0.05185367 0.5861347 -0.29980895 0.055842966 -0.2900098 0.17124102 0.10474371 0.026043015 -0.26370898 0.16548645 -0.1758038 0.21997921 -0.24477626 -0.3119523 0.109750904 -0.094759814 -0.25914186 0.052518424 -0.2944001 -0.32965147 0.08037207 0.15220498
C0025872 -0.20152585 -0.3921037 0.25321057 -0.42940027 0.32400787 0.08143092 0.09889104 0.21437971 0.092011906 0.18254295 -0.09918886 -0.080991186 -0.02012434 -0.27654722 0.16514166 -0.13212636 0.15938136 -0.008008447 -0.08593603 -0.13617212 0.31405237 0.2823767 -0.078643255 0.13674684 0.24763882 -0.25713167 -0.30499116 -0.02314029 0.15440412 0.07403137 -0.12471208 0.050478358 0.2113944 -0.22231972 -0.11468553 0.11018418 -0.000610102 0.23513983 -0.029668832 0.5615145 0.04239313 0.1478492 -0.20581867 -0.14608558 0.21889885 0.06679024 -0.10067418 -0.026212327 0.25928274 0.015692897 -0.12562656 0.224043 -0.12893775 0.12319685 0.011054982 0.17575759 0.010510279 -0.12568478 0.062972225 0.042665716 -0.10808046 0.123291224 -0.1002204 0.032595783 -0.059551805 -0.033741046 0.03332888 -0.28379583 -0.37463608 -0.13428703 -0.39139894 0.54310465 0.11392063 0.30080578 0.04153407 0.09026183 -0.31100294 0.1624929 -0.040482827 0.46414757 0.15140732 0.2220884 -0.43721005 0.16519967 0.32977024 0.45875734 -0.44041038 0.4621984 0.14351983 -0.2945069 0.20680226 0.04766269 -0.058846373 0.41030657 -0.28361145 -0.09643308 -0.19847153 0.23677175 -0.0032945261 0.18421446
C0032952 -0.042355224 -0.004349658 0.3564261 -0.025006322 0.2243004 -0.16815734 -0.2804162 0.0860196 0.07438713 0.34789518 0.18180709 -0.0012649125 0.02156708 0.068309814 0.1786047 -0.055082634 0.17336349 0.0831032 0.08077063 -0.25297225 0.24383746 -0.030367576 0.3196033 0.057519548 0.21649246 -0.13727964 -0.10066687 0.20007934 0.11746155 0.3189824 0.17779878 -0.019593665 0.19340791 -0.20994444 0.17372234 -0.094561994 -0.29774255 -0.032302678 -0.14549018 0.125697 -0.10659392 0.4094574 0.14135525 0.0945244 0.15773772 -0.13551342 0.064036325 -0.35192594 0.47958836 -0.06730812 0.21225023 0.2951419 0.23148142 -0.05315697 -0.17905398 0.17612323 0.087812535 -0.30333808 0.15110826 0.028383538 -0.16926776 0.22269809 -0.08867867 0.065813676 -0.19909884 -0.11837751 -0.47389084 -0.09437648 -0.3497312 -0.12043916 0.046362985 -0.12189309 -0.032438222 0.19931996 -0.00991023 -0.2981533 0.39412275 0.3515055 -0.12244971 0.16023435 -0.20090316 -0.11098517 0.0291303 -0.41630116 0.085773624 0.47881004 0.04942506 0.086601704 0.09801425 0.16257308 0.096791625 -0.10620607 -0.017649196 0.26174515 0.00923549 -0.04757502 0.04510553 0.044288855 0.11785019 0.21351211
C0282215 -0.05017773 -0.3241903 1.2298615 -0.409797 0.012338621 0.04737502 0.0881389 0.29863453 0.054923527 -0.10288063 0.19010931 -0.5800093 0.2759052 -0.2028564 0.28327483 -0.103718065 0.4653899 0.23784919 -0.1641437 -0.36222467 0.24191985 0.04129463 -0.040813018 0.32366014 0.34263974 0.15596345 -0.66398096 0.33406365 0.18005836 0.0417103 0.10296786 0.22154145 0.31948686 -0.2564372 -0.16263257 -0.13808817 -0.06273474 -0.09301661 -0.30514282 0.1966241 -0.00033797201 0.27341634 -0.10657184 0.09512011 0.36958995 -0.08348813 -0.14864874 0.292426 -0.27422872 0.069883116 -0.36895287 0.29961845 -0.2929409 0.29149473 0.069781855 -0.00070049195 0.012155003 -0.03029583 0.013663173 -0.030513916 -0.5278885 0.22055095 -0.06779159 0.14607126 -0.26313502 -0.31046644 -0.1913467 0.4309586 0.44293 0.053008385 -0.6118577 0.3710808 -0.1326268 0.058715165 0.014386733 -0.03823652 -0.29189235 -0.10477441 0.09235609 0.40519187 -0.19873182 0.3865888 -0.23065579 0.44428316 0.19659841 0.4474841 0.008532345 -0.032097146 -0.046383437 0.113792926 0.18882021 0.04175447 0.20790622 0.8286335 -0.5679636 -0.040222485 -0.35440996 0.20942605 0.035815764 0.3113231
C0085149 -0.048605528 -0.10765478 0.26906455 -0.30978295 0.15933122 -0.024837902 -0.3694131 -0.18516447 0.19026767 0.22926275 -0.1065104 -0.44244882 -0.5252806 -0.05326921 -0.0037111265 0.10200183 0.3741374 -0.2045384 -0.0987483 -0.17987415 -0.030451186 0.1941569 0.099325344 0.07892086 0.19562952 0.20896947 -0.32911092 -0.4293543 0.027833367 0.38874394 0.14249241 0.035736945 0.1300668 -0.09290189 0.29607615 -0.22738832 -0.15014336 0.13092063 0.053005304 0.2754612 -0.25870916 0.15447581 0.42799163 -0.0021743944 0.29520732 -0.38512912 -0.49453908 -0.2658199 0.3462134 0.026383659 0.17304637 0.06333023 -0.2685023 0.30487218 -0.017696222 0.48250625 -0.3042017 0.12667221 0.1700449 0.124633625 0.033377424 -0.017880253 0.006886046 -0.12879476 -0.0006055883 0.041722283 -0.038435444 -0.053838424 -0.087758645 -0.16095726 0.07410911 -0.25376558 -0.09186693 0.40937597 -0.2111648 0.012130271 0.21237977 0.2695042 0.17951573 0.21599057 0.25215286 0.12704714 -0.07506583 0.095008984 -0.24000832 -0.12571552 0.1630374 0.0022157186 0.0049120924 -0.10020311 0.11375083 0.07887663 0.09319845 0.2673582 -0.24701434 -0.36512807 0.08691109 -0.27010298 -0.34133515 0.20763406
C0393080 0.08389076 -0.20640944 0.34760413 -0.027303379 -0.22415154 -0.4049361 -0.46135125 0.15482184 -0.11758385 -0.5400006 -0.044696923 -0.093019076 0.08406167 -0.14483029 0.24070059 0.2433053 0.47986412 0.64403623 0.5305374 -0.26847604 -0.10087882 -0.22494712 -0.27526093 0.15237127 -0.018193867 -0.5064065 -0.44288126 -0.27210537 -0.19853275 -0.23511314 0.04040525 0.35487497 0.32475019 0.24968131 -0.23193668 0.13821276 -0.06356443 -0.19326329 -0.55389374 0.34634563 -0.47940254 -0.13327755 0.07024582 -0.31086358 -0.23655818 -0.3416154 0.4814481 0.8605359 0.60366446 -0.013370317 -0.56025887 0.33544794 0.21023817 -0.03477818 0.047879953 0.74850106 -0.3978821 -0.15408373 0.13831292 -0.36305213 -0.12102105 0.22243328 -0.46217525 -0.08356008 -0.10921348 -0.24922387 -0.09716521 0.21610782 -0.004478686 0.05833908 -0.21161185 0.20957093 -0.5372533 -0.12034706 -0.19187869 -0.16326721 -0.28835782 0.58374745 -0.41141087 -0.08636334 -0.59626937 -0.053476088 -0.23473786 0.26214316 -0.361246 0.19338065 -0.17567042 0.40164092 0.24592315 0.20316075 0.1583327 -0.055113684 -0.123584546 0.26566866 0.27435008 0.27822202 -0.12981695 -0.587461 -0.13881435 0.4390431
C0936150 0.48723236 0.18855059 0.21942782 -0.013640024 -0.09960419 0.216804 -0.07475517 0.21543834 0.1505896 0.66303873 0.37732166 0.24535742 -0.13175379 -0.42628476 0.061086934 -0.18135579 0.4678061 0.20892979 0.0024685978 0.037526432 -0.10181209 0.5651682 0.17716287 0.30090088 -0.29411238 0.124038085 -0.2740819 0.18234506 0.07873445 -0.24061505 0.04184976 0.57777584 0.11899086 -0.36589035 0.006629488 -0.5629328 0.10317868 0.18744023 -0.62344885 0.1305651 0.16803183 0.086661085 0.1922624 0.034689285 -0.42799804 -0.05883181 -0.13714801 0.20131242 0.24612093 -0.4384886 -0.08817193 0.70500034 -0.19080733 0.021316955 -0.19658713 0.50764436 0.06721068 -0.09484281 0.016541936 -0.32146177 -0.30255383 0.4615823 -0.32805482 -0.31456825 0.13046305 0.059335127 -0.12397104 -0.10577788 -0.3787766 -0.5795771 -0.4309799 0.41777167 -0.48145077 -0.16535516 0.25830096 0.09729955 -0.34051704 0.5576296 0.13231365 0.53333503 -0.09955232 0.2575081 -0.53250664 0.352108 -0.1589629 0.062154848 -0.07724026 -0.17835337 -0.26838568 0.23120967 -0.4738854 -0.16906624 -0.17440517 0.2729753 -0.18541713 0.11292889 -0.34953746 -0.28563762 0.17406112 0.28495347
C0017436 0.23503144 -0.39556345 0.82152385 -0.11519246 -0.15437806 0.006460087 0.018971799 0.18512736 0.21608585 0.09422327 -0.35767156 -0.27018878 -0.043518215 -0.25017646 0.17478363 -0.07433982 -0.012540315 0.16228203 -0.08399709 0.14219788 0.010936711 0.1830553 -0.10567334 -0.011075132 0.30363324 -0.15407895 -0.093418576 -0.2041001 0.027632223 0.05062819 0.09853608 -0.01607807 -0.008499979 -0.36112118 -0.065954804 0.20607702 -0.29595202 0.038263388 -0.06556471 0.520796 0.048822153 0.34182593 -0.07088943 -0.21329442 0.3827276 0.39977506 -0.06829747 0.056241512 0.03401106 -0.15963483 -0.44222316 0.6218781 -0.17678559 0.44180864 0.1518531 -0.070832625 -0.0010514964 -0.056376137 0.17668995 -0.15016852 -0.5174385 -0.10688271 -0.17414035 0.080995366 -0.5520063 -0.19306391 0.16200674 -0.21330617 0.07815151 0.2784489 -0.2507627 0.07600692 0.08100097 -0.12502669 -0.17088306 -0.17771673 -0.31685275 0.32149062 0.21641107 0.32775414 0.18973021 -0.1048437 -0.015070543 0.25304818 0.0732901 0.43860042 -0.14740048 0.17731634 -0.06764892 0.07164487 0.12074284 -0.2504734 -0.12946887 0.24965824 -0.38061327 0.4231917 -0.26735228 -0.30704015 0.02997804 0.3272422
C0032857 0.3163966 -0.33188927 0.6566422 -0.20963013 0.42032716 -0.083183564 0.11976243 0.5105958 0.10772472 0.031358205 0.23755953 -0.2723305 0.070679374 0.2086642 0.5091721 -0.21650688 0.9289996 0.1451082 0.7127185 -0.040513013 -0.38972735 0.33040845 -0.120200925 -0.22036795 0.056887228 -0.35120776 -0.44839516 -0.20854354 0.4437459 0.095613725 0.016229676 -0.0033103179 -0.004542943 0.027717412 -0.27593994 0.32183582 -0.13632786 0.057102554 0.033107895 0.023678372 -0.11252383 -0.009721935 0.16942394 0.10484754 0.15753427 0.0076246476 -0.026090669 0.15605417 0.19374998 -0.0008278798 -0.5371133 0.564398 -0.2396712 0.28489447 0.10591399 0.67710185 -0.2407769 -0.03248708 -0.16614775 0.043016016 -0.019346468 0.07143314 0.39029405 -0.21008639 0.014158419 -0.6221417 -0.052072126 0.20385607 -0.21050832 -0.2858513 -0.47263813 0.29186693 0.2656481 -0.41730314 0.32426757 -0.021400603 0.22282429 0.35463732 -0.12490354 0.3373886 -0.26554298 -0.052762143 -0.22234622 0.07606339 -0.50594896 -0.18227084 0.7833275 0.12713413 0.022901867 0.2662063 0.0042801476 0.27225307 -0.07170712 0.31334412 -0.26383126 0.1849551 -0.64167434 -0.25461966 0.2629006 -0.23803996
