1274 100
C0000737 0.06486364 -0.01969079 -0.2825397 -0.062531024 -0.32156056 -0.4137216 -0.3754613 -0.19580379 0.18990247 -0.19592455 -0.13453929 -0.38034648 0.18019244 0.14458725 -0.23844922 -0.09944203 0.06025069 0.4889429 0.27441207 -0.33623955 -0.17253779 0.03524841 -0.28906128 -0.34896827 0.034255553 -0.31038153 -0.26844144 -0.35823035 0.14193502 -0.21839376 0.064324066 -0.10650208 0.5073957 0.352579 0.1344296 0.008967702 0.01954316 -0.07450694 0.11202792 0.0789768 0.08161294 -0.36433023 0.3055676 -0.07966586 -0.2035534 0.11575795 -0.093994044 0.04662122 -0.5797236 -0.07906729 -0.021372454 -0.122801736 -0.4623776 0.10567047 0.07219361 0.22326116 0.25367713 -0.103852436 0.5898564 0.14606525 0.14089338 -0.32866415 0.3170393 0.13692711 0.19521469 -0.13425034 -0.112496205 0.21470024 0.0743216 -0.211623 -0.54127955 -0.048804346 -0.14251582 -0.11837224 0.0029762916 -0.24037334 0.40273592 0.004280791 0.11806289 0.5012659 -0.35878706 0.09661085 -0.19034402 0.2327644 0.41833434 -0.17995577 0.25228065 -0.24234678 -0.12163867 0.32992578 -0.22795339 -0.10038691 -0.23945987 0.078968965 -0.071841516 0.11032162 -0.03546244 0.4353039 -0.13821185 0.33871287
C0937846 0.13426694 0.40378746 -0.38288602 0.14453915 -0.27854 -0.23072003 0.032018952 0.16328834 0.02599267 0.03958061 -0.3008291 0.068456925 0.017753024 -0.23884311 -0.2769671 0.14213797 -0.09937602 0.28208148 0.021525778 0.22331546 -0.7185832 -0.07744672 -0.10618073 -0.2467875 -0.19701886 0.03039037 -0.13607529 -0.08019708 0.15937634 0.015307762 0.106828 -0.22432087 -0.016519269 0.15860252 -0.12948574 -0.027400987 -0.025653273 0.0070939055 0.2893524 -0.22355488 -0.34913778 -0.053532667 0.23493108 -0.22647385 -0.1437177 -0.14776209 -0.07226267 0.12708682 -0.07418815 0.2473863 0.10385353 -0.31842592 -0.2184108 -0.15331352 -0.25436366 -0.21098706 0.40176094 -0.13667321 0.18456782 -0.2042065 0.16407739 -0.27559924 0.4313093 0.044285145 -0.19841771 -0.0639497 -0.15500464 0.0028111106 0.1026531 -0.29461932 -0.15746877 0.0055505508 -0.0042730076 0.08341419 0.03157073 -0.28643817 0.16569425 0.02737945 0.052868757 -0.07522284 -0.07801216 0.06817319 -0.24493985 -0.11159481 0.09286548 -0.396628 0.20616817 -0.15434802 -0.06954582 0.22402118 -0.0860113 0.10132983 -0.27717373 -0.31136274 0.049009014 0.08142997 -0.18366899 -0.060692564 -0.18447539 -0.083989084
C0379199 -0.113645054 -0.22266786 -0.070339225 0.5327614 -0.011237114 -0.18341035 -0.1803144 -0.1555161 0.06099149 0.03495927 -0.1836721 -0.23361324 0.36331055 -0.4371853 -0.031791683 0.29800364 -0.13178973 -0.20809127 0.67831147 -0.13545276 0.13759243 0.024148244 -0.21563141 0.11484795 -0.0857902 0.025111329 -0.0561538 -0.5797215 -0.11938519 0.061012533 -0.08611466 -0.1514523 0.3252547 0.32707518 -0.18118328 -0.2285826 0.21705128 -0.13045874 0.06789026 -0.14169541 0.14304976 0.10115775 -0.10887699 0.08696244 -0.3041378 -0.06430198 0.35588294 0.011807835 -0.1227501 -0.1768683 0.04606115 -0.17353007 -0.3055505 -0.08152145 0.052483104 0.09099969 -0.04318216 -0.13123147 0.4499252 0.15271144 -0.2810252 -0.028454201 0.44115666 0.35416564 -0.5386455 -0.2746508 -0.42910954 0.113991834 0.10963977 -0.25688496 -0.1400824 -0.09965229 0.019307679 -0.17886627 0.41720623 -0.14887026 0.16517672 0.13727158 -0.38208032 0.4124464 0.22836244 -0.04465715 0.06463945 -0.31219134 -0.06732161 -0.28184736 0.17643599 -0.5388749 -0.106450096 0.028178653 -0.15378 0.013266722 0.05017853 0.09765076 0.035777345 0.20706068 -0.0064504608 0.091921255 -0.22536129 0.24768949
C0008845 -0.13174628 -0.20237353 -0.24256644 0.42072088 -0.17209423 -0.17631002 0.019440321 -0.02671193 0.16007785 -0.19382235 -0.17684665 0.1403707 -0.19703983 -0.19362272 -0.048679538 0.24281259 -0.10814656 0.041471083 0.05479039 0.3680745 -0.13151887 -0.06821865 -0.26901144 -0.07393055 -0.060907993 -0.034865543 -0.060042176 0.060648106 -0.08494049 0.2501014 -0.06258517 0.07523665 0.07807225 0.019237744 -0.1467507 0.029563582 0.036849175 -0.3397017 -0.1799733 0.17990546 -0.11454995 0.072623305 -0.11525414 -0.15674965 -0.21219896 -0.30526364 0.2368149 0.18970776 -0.03396208 -0.037952673 0.06352044 -0.052325837 -0.041107334 0.17502236 0.05525061 -0.02158621 0.054821476 -0.21450949 0.3712669 0.039566107 0.15101108 -0.21636881 -0.04521164 0.30707014 -0.068199486 -0.47497576 -0.0050428626 0.48653695 -0.01856164 -0.100926265 -0.028107606 -0.041016873 0.18092185 0.19193639 -0.18709166 -0.057605896 0.27164292 0.016339533 0.016721414 0.24548075 -0.40702385 0.15303735 -0.057563175 0.16103408 0.30048883 0.29585835 -0.12573081 0.14167953 -0.097175315 0.118248604 -0.48908165 -0.16470438 0.08871493 0.14723136 0.10674863 0.17976046 -0.05593366 0.1553654 -0.18596092 0.04112193
C0015846 0.47869572 -0.33418927 0.015031038 0.09526394 0.03351977 -0.052426033 -0.23464946 -0.18771549 -0.060274016 -0.034545697 -0.17395285 0.291461 -0.01292153 -0.26540834 -0.08972314 -0.22291966 0.367666 0.07386293 -0.07069979 -0.24526933 0.20159137 -0.05738369 0.06728953 -0.39344987 -0.18653183 -0.018081222 -0.264052 -0.21172188 -0.08593841 0.04820521 0.17256562 -0.11004562 -0.029634412 0.12768914 -0.3004021 0.3137765 0.39627257 0.1464414 0.19304927 -0.016669737 0.3405435 -0.069477975 0.04288154 0.16990541 0.18368031 -0.11073371 0.04643845 0.3113513 -0.06268485 0.073271856 0.13086815 -0.047762856 -0.07062556 -0.15626489 0.088332914 0.2917616 0.22231941 -0.07039834 0.3950571 0.16428438 0.10012863 -0.17059714 0.103978224 0.051305633 0.32263398 -0.24000634 -0.19816154 0.042808276 -0.034951996 -0.031778395 -0.06385427 0.09707454 -0.07711286 0.14082895 0.33158693 -0.124749914 0.13890745 0.06540936 0.33044958 0.077895716 -0.04251216 0.22915235 -0.15003529 0.10462671 0.13759603 -0.17213441 0.13687693 -0.21081556 -0.38200548 0.05935996 -0.13557401 0.052592017 0.12203425 0.14212434 0.09992674 -0.03526869 -0.4427437 0.42432612 -0.36409616 0.32243526
C0032042 -0.09335102 -0.15744847 0.11005512 0.116538584 -0.12634186 0.04428329 0.03866358 -0.42828026 0.23271714 0.09492559 0.0068696076 0.05239625 -0.19307917 0.019629847 -0.12137511 0.15991704 0.21684413 -0.09182242 -0.031255197 0.015194078 0.011430753 -0.07869648 0.022114025 -0.2660924 -0.24551433 -0.13109356 -0.10300674 0.102222964 -0.1377285 -0.17215768 0.027015585 -0.09116761 0.12564984 0.06751216 0.05357587 -0.0384622 -0.12078708 0.06269319 0.07622035 -0.11879539 0.045827694 0.027559638 -0.1345138 0.016555749 -0.17383488 -0.0060159457 0.010985649 -0.33977002 -0.016048795 -0.09729726 -0.14106451 -0.26565313 0.11808632 0.09481943 -0.005877745 0.11557701 0.14154993 -0.09255032 0.27097744 -0.2017914 0.07955591 -0.14080113 0.27202025 -0.08064623 0.0451634 -0.12209293 -0.13122004 0.30310076 0.2571994 0.018482203 -0.03414691 -0.2062927 0.084091246 0.034166005 0.16618161 -0.061493613 0.20694536 0.083621845 0.028010452 0.18376364 -0.044831924 0.01270722 -0.24329855 0.16198255 -0.15324906 0.17353892 0.05510546 0.2836689 0.11008246 0.05577761 0.17938271 0.06653666 -0.03235781 -0.07668059 -0.11885858 -0.035238672 -0.19397365 -0.08816853 0.13555624 0.12836137
C0041044 -0.4148602 0.1148782 -0.16457812 0.06463381 0.3324105 -0.15512657 -0.32722297 -0.5922288 0.1784361 0.21173598 -0.24890955 -0.43195474 -0.017724948 0.10988804 -0.35313773 0.203613 0.19616538 0.0072814464 -0.25215495 0.10241006 -0.13220993 0.022734487 -0.21101749 -0.024074389 -0.34884506 -0.30235362 -0.09530952 -0.29676437 0.034080233 0.089058004 0.034363117 0.17980444 0.44556746 -0.0022411174 -0.11682682 0.07309201 -0.075217366 -0.23315239 -0.0059860814 -0.1567878 0.16106866 -0.110505946 0.34899536 0.07796114 -0.17398362 0.17208044 -0.36922857 0.114976294 -0.5869252 -0.17080243 -0.20578405 -0.03411433 -0.46412823 0.42195365 -0.15105209 0.121349484 -0.10848031 0.23839608 0.33360094 0.129564 -0.007300857 -0.3190372 0.31821597 0.82546574 0.18179205 0.22649066 0.121135 0.07350109 0.10172259 -0.08189693 -0.24905053 0.15257286 0.16522744 -0.039775286 -0.29424456 -0.34687287 0.4782411 0.12290838 -0.02552454 0.28065625 -0.61850685 0.18721464 0.055225197 -0.13033572 0.631554 0.1453821 0.43499997 -0.24726123 -0.35307673 0.21820147 -0.055968467 -0.19643392 -0.54394406 0.08989543 -0.57459813 -0.21733844 -0.1350455 0.07562629 -0.08496033 0.014208924
C0032036 -0.24911027 -0.35739082 -0.07497236 0.088384956 -0.744208 -0.050140627 -0.9637332 -0.31707388 0.12044105 -0.51097345 -0.32302395 -0.15305999 0.3018133 -0.029911675 0.032790255 -0.25984415 -0.21019495 0.53453267 0.33406866 -0.18803604 -0.2889333 0.08773032 -0.3327683 0.042531963 0.20048812 -0.41034538 -0.28896883 0.04796516 0.1436529 0.24508251 0.12236537 -0.31952918 0.46392015 0.41532588 0.09346507 0.2971265 -0.21295467 -0.24575979 0.26304916 -0.109120145 0.09197328 -0.69537336 0.65371966 -0.015029113 0.097589575 0.39254826 -0.02186632 -0.014224218 -0.8542215 -0.03925693 -0.53988755 -0.1786382 -0.4993735 0.15206356 0.12550062 0.08047022 0.39815396 -0.21480288 0.5504702 0.33318007 0.13752608 -0.42324722 0.21696086 0.2672184 0.55155337 -0.19377555 -0.30812162 0.23011343 0.0069867154 -0.023412019 -0.59454 -0.284172 0.024909012 -0.07179123 0.118537754 -0.112403855 0.28887433 0.03265652 -0.52149546 0.31636253 -0.08880048 -0.15812753 -0.6170856 0.19325453 0.68759364 -0.07024741 0.1825547 -0.2698889 -0.09454423 0.08078133 -0.0731327 0.18746462 -0.07690596 0.11566477 -0.10209957 0.08737047 -0.21011406 0.3739337 -0.06380745 0.36935955
C0015620 0.34155148 0.15599015 -0.30397522 -0.10024179 -0.62884927 -0.0808672 -0.36596265 0.11654818 0.15354934 -0.019433472 -0.06579063 0.19912054 0.16749077 0.1778695 -0.32763267 0.12842529 0.25639594 0.13884939 -0.11017146 0.117102124 -0.5682926 -0.15447323 -0.27648255 -0.50939035 -0.091044635 0.16653025 -0.13838662 -0.4891105 0.27603894 -0.056216706 -0.07015579 0.20470664 0.17713845 0.29254225 0.07866756 0.04036077 0.002582249 -0.092168115 0.19881745 -0.012209216 -0.06465683 -0.25383368 0.06810511 -0.5571288 -0.055859573 0.15083744 -0.20385464 0.082558855 -0.14390405 -0.12233791 -0.22829142 0.044225115 -0.30364648 0.024476033 -0.31106883 -0.22575253 -0.09922846 -0.5017109 0.33008534 0.0015425024 0.3326357 -0.19085494 0.69916636 -0.13762522 -0.22979158 -0.06430631 -0.38571042 0.6207822 0.3033055 0.009602838 -0.66152954 -0.4169544 0.0821325 -0.41857764 0.1813099 0.00067538716 0.580208 0.19915916 0.11665146 0.1725659 -0.26124826 0.11677301 -0.35396805 0.19189417 0.1343176 -0.027132759 0.3130847 0.030341705 -0.13179044 0.3393898 -0.12219085 0.12205612 -0.06450731 0.4056063 -0.27126193 -0.060735457 0.005018864 -0.29570314 0.016530948 0.31750822
C0069562 0.41518608 0.09393677 -0.11297849 0.0870179 -0.4282296 -0.28397354 0.2620407 -0.014947455 0.2843109 -0.11437869 0.006067728 0.13128768 0.12622127 -0.08646494 -0.18166362 0.15731934 -0.0037539164 -0.035396103 -0.25238743 0.12141733 -0.2473859 -0.051768564 -0.070705645 0.01347529 -0.11924934 -0.043874674 -0.11923078 -0.60601616 0.25107133 -0.018143784 -0.18970656 0.20595339 0.096043766 0.1339549 -0.0375429 0.09403884 0.16287994 -0.14089431 0.16438943 0.4498142 0.015297525 -0.0028281994 0.4788124 0.109858856 0.42351794 0.107363835 -0.14156657 -0.18531235 -0.16971287 -0.29544228 0.118189074 -0.048267543 -0.0201155 0.12529707 0.061097 0.37622893 -0.12715021 0.008050182 0.2778243 -0.48261288 -0.15689375 -0.049827524 0.022889562 0.24132848 -0.10984228 0.12051391 -0.51557726 0.15465821 0.0066326703 0.027422693 -0.3882619 -0.14991423 0.25834334 -0.28772002 0.005704101 0.07788829 0.2973492 0.10400491 -0.067437455 0.3732166 -0.3672786 0.09370322 -0.44970575 -0.01582381 0.41857448 -0.0038583698 0.21211545 -0.0007443839 -0.13163768 0.5370274 -0.3581164 -0.14642008 -0.4106204 -0.07085939 -0.28032896 -0.14677635 0.2273918 0.3561273 -0.28637356 0.4158171
C0061996 0.028045407 -0.19195633 -0.20425816 0.2971311 0.16898905 -0.7165699 -0.17791955 -0.33740592 0.8420616 -0.66365427 0.12518622 -0.28754586 0.36891878 0.17221732 -0.18872373 0.19860011 -0.0028083483 0.4180195 0.098296404 0.0025125542 -0.45579818 -0.011550275 -0.22742331 -0.6393077 0.102894545 -0.25624943 -0.12654027 -0.33143768 0.20003343 -0.45509753 0.24502519 -0.22834581 0.9014064 0.3421516 -0.24219345 0.2531412 0.24162914 0.050297532 -0.027444394 -0.006993081 0.2601316 -0.5079376 0.26109707 -0.02942125 0.28847647 -0.11998925 -0.32645977 0.15905952 -0.14534336 0.029268282 -0.059871368 -0.1498738 -0.59883153 0.118856125 0.27139112 0.48937586 0.036652714 -0.3729104 0.52134955 0.20797852 -0.0337649 -0.45263746 0.12980929 0.07006975 0.07604562 0.023846626 -0.4568484 -0.3919329 -0.28606263 -0.06727771 -0.65783036 -0.17356513 -0.1755341 -0.047866948 -0.0015151531 -0.16703509 0.12087075 0.09274159 0.30695713 0.103292875 -0.15818882 0.09521626 -0.4105413 0.27634713 0.46984625 -0.21340483 0.18130174 -0.20967256 -0.07270213 0.07464005 0.046373766 0.081128284 -0.13915762 0.06109964 -0.12623465 -0.12805869 -0.11965046 0.81081 -0.038633224 0.26189163
C0291772 -0.065043606 -0.20347703 -0.16661893 0.26421964 0.092795976 -0.18733552 -0.06137203 0.18340899 -0.030700838 0.14229251 -0.08766039 -0.022293983 -0.12710539 -0.27453685 -0.2938003 0.0075543793 -0.14630108 0.030455405 0.35903996 0.2529502 -0.25412112 -0.070227265 -0.13450757 0.040882774 -0.088717125 0.32883796 0.059243582 -0.210497 -0.12696753 -0.105882235 -0.090865195 -0.20392224 -0.03194136 0.10931056 -0.14672616 -0.01270733 -0.11905233 0.07823356 0.12769412 -0.39464432 -0.025884563 0.11722485 0.31977114 -0.048563715 -0.1327933 0.014643958 0.0065133087 0.08232436 -0.056723278 0.29053688 0.37684393 -0.07540394 -0.3336856 -0.1588929 -0.019563764 0.19197233 0.1326312 -0.015148515 0.061864503 -0.00743781 -0.21419692 -0.266012 0.4024635 -0.05471608 -0.016952908 -0.07820908 -0.11529939 -0.1192861 -0.028112043 -0.11845575 -0.17308913 0.0712956 -0.08818622 0.08877884 0.1543593 -0.044482157 0.39827183 0.2636424 -0.4019525 0.32684723 0.038334552 0.31134784 -0.18675679 -0.21341203 -0.14843458 -0.2710278 0.20278336 -0.3057172 -0.18935145 0.10096125 -0.26858342 -0.070082135 -0.13763525 -0.28637344 0.06737369 0.22491781 -0.073551424 0.026052656 -0.14201793 0.22665991
C0018546 -0.31832024 -0.20697927 -0.08872261 -0.1902407 -0.09759038 -0.0616157 0.13097891 0.029020444 0.30840826 0.22248904 -0.3453049 0.053473745 -0.09873487 0.3002541 -0.19378404 -0.09699147 0.112187006 0.06470228 -0.067259 0.19128816 0.2456336 0.1419433 -0.04790105 0.1652055 -0.09933976 -0.30865043 -0.41184905 0.055708557 0.055737883 0.07844012 0.3573386 -0.4802258 0.23642184 -0.14620866 0.117479704 -0.21781303 0.23215805 -0.0445221 0.05083522 -0.07935401 -0.13793768 -0.30342913 0.1575452 0.074132994 -0.004347544 -0.03015514 -0.098244295 -0.06301757 0.011075153 0.1312145 0.010916306 -0.07375791 -0.2434472 0.020116203 0.2662712 -0.18460125 -0.05236644 -0.33777946 0.24768148 -0.24671774 0.013120307 -0.045545056 0.21294339 0.017077278 -0.19787185 -0.09942634 0.048752118 0.2304115 -0.049726695 0.08611654 -0.13153112 0.118150204 0.041220184 -0.07684884 0.3568777 -0.12120408 0.5276355 -0.21360488 0.3313522 0.43576494 0.022155598 -0.002101699 -0.18612383 0.19984289 0.08864414 0.2408781 -0.15741481 -0.117516495 -0.23659557 0.25573346 -0.053707186 0.186433 0.18178713 -0.1464495 -0.015078328 0.61030304 -0.45278436 0.085322574 -0.33332545 0.24880941
C0023660 -0.20728444 0.2323217 0.09910495 -0.19009192 -0.2528677 0.06625101 -0.103799544 -0.33332548 -0.28611377 -0.06243101 -0.43366915 0.31193724 0.18309297 -0.046533372 -0.017573366 0.054386813 0.16509871 0.068479724 0.10239797 -0.31399047 -0.12995277 0.19846962 0.10924248 0.038543224 -0.42373124 -0.09693091 -0.6771617 -0.20079601 -0.14543031 -0.13754347 -0.06995076 0.1174798 -0.32151207 -0.11488773 -0.10237421 0.11329487 0.047971625 -0.006912256 -0.06941075 0.16534774 0.115721464 -0.14076556 -0.03243565 0.16320612 0.09672781 0.08384845 0.011093095 0.08974484 -0.045612052 0.07485848 0.022460965 0.052849263 0.0070994943 -0.14702545 -0.038615685 0.03429573 0.04447723 -0.3309239 0.4319636 0.25350296 -0.053043183 -0.39576635 -0.027557306 0.23558135 0.412782 -0.20035514 0.08369831 0.07537308 -0.035628524 0.05173694 -0.50269026 0.060172476 0.09963116 0.3165142 0.20173635 -0.0148853725 0.0053923912 0.11885486 0.07453917 0.2577281 -0.16741364 0.07089384 -0.23475729 0.20636447 0.15125944 -0.1522944 0.24294981 -0.30879787 -0.28615606 0.2559528 -0.19285172 -0.20616658 0.14785637 0.20759778 0.06437283 -0.12452461 -0.45683306 0.28886423 0.022936594 -0.022847496
C0000970 -0.15101054 0.10364962 -0.052911237 0.113271646 -0.29635832 -0.13710187 0.10395938 -0.20530976 -0.09192039 -0.07984383 -0.3819974 -0.12601948 0.1111966 -0.07189902 0.16056456 0.12633853 0.010624762 -0.025606954 0.18769234 0.076522686 -0.062241003 0.0675482 0.053758923 -0.41996497 -0.2165398 -0.01634283 -0.36291453 -0.07476451 0.2728618 0.30437413 -0.26637644 0.0668571 0.045915507 -0.24926831 -0.21214366 0.04740914 -0.055941623 0.25791344 0.050171874 -0.073877044 0.23423259 -0.11813938 0.3289446 0.1301992 0.035575815 0.20719609 0.2560919 0.22165325 -0.10016969 0.038971335 0.1775634 -0.37645105 -0.07706022 0.21730345 0.1290813 0.28113872 -0.09497986 0.0063866056 0.25302657 -0.09973125 0.21282822 -0.22440463 0.09223368 0.10693847 0.025234668 -0.16778854 -0.18657401 0.22730502 0.09348566 0.22726895 0.09099513 0.15625888 0.09327036 0.08821605 -0.04440973 0.023380673 0.2637092 0.00436357 0.0695438 0.22996557 0.114463925 -0.162233 -0.089380585 0.065894656 -0.18515709 -0.19869295 0.009743525 -0.006433364 -0.26164156 -0.007873574 -0.050856706 0.06285719 0.020761963 -0.16839628 -0.22162949 0.12950653 -0.18639493 0.25583032 -0.100913845 -0.017430853
C0003232 -0.22139454 0.2592637 -0.08567878 0.055799697 -0.15501498 -0.015569237 -0.21552697 -0.12571426 0.49105564 -0.017552396 -0.19586746 -0.2025103 -0.04799199 0.092067964 -0.0047623976 -0.22575444 0.005562248 0.056101058 -0.10949239 -0.06816396 -0.05389112 0.041895088 0.17470354 -0.21503834 -0.36985806 -0.26620507 -0.15028143 -0.40955546 -0.15662779 -0.04348454 -0.29898995 0.27894613 0.43196312 0.25619668 0.12714292 -0.09137425 -0.045398302 -0.31871456 0.3584142 0.26313496 -0.044054817 0.018914426 0.088269316 0.13521898 -0.32262787 0.074432194 -0.20421764 -0.09609343 -0.21227482 0.107407235 -0.13028577 -0.52623034 0.08015133 -0.25130364 -0.09831625 0.08957226 -0.012360392 -0.17740934 -0.0074633644 -0.25173187 -0.078083865 -0.29338837 0.1603834 -0.021948397 0.07325558 0.15932694 -0.31292763 0.0864944 -0.053265255 -0.035185497 -0.10425063 0.088691235 -0.06967393 0.007442765 0.03798296 -0.15096845 0.060170915 0.31235042 -0.0813064 -0.42769676 -0.48302284 0.121123835 -0.29714608 -0.18193306 -0.11875156 0.15714896 0.13890138 0.16775738 -0.19101895 -0.12508968 -0.03013974 -0.01464644 -0.20922168 0.2399916 -0.24660744 0.20430647 0.025007877 0.23881026 -0.029220829 0.13156934
C0000786 -0.18512231 -0.47603315 -0.2683801 0.07718778 -0.11829133 -0.20356612 -0.13889173 -0.25056624 0.52078074 0.09628016 0.05753176 0.0018062744 -0.0367099 -0.11944003 0.04199709 0.36270267 0.35175848 -0.066413976 -0.11609899 0.26758033 -0.1607793 0.35094368 0.4233429 0.27010036 0.010129671 0.07483772 -0.30496544 0.09739081 0.01692853 -0.36644644 -0.2317414 -0.48364344 -0.14412725 0.13581619 -0.28617364 0.19689241 -0.74206096 0.02568179 0.07923398 -0.10393834 0.13375351 -0.054665264 -0.018552762 -0.041627888 0.03609323 -0.012500926 0.30017155 0.1732309 -0.20219645 0.06365388 -0.4836796 -0.24412446 -0.019088585 -0.05415156 -0.12027102 0.12197529 -0.10632671 0.37224883 0.30136535 -0.63048184 -0.07741328 -0.026731096 0.226646 -0.10962358 0.22507231 0.039708063 0.14811589 0.21317786 -0.0052162698 0.099063374 0.31897232 0.05922724 0.27901113 0.08837362 0.14077134 0.16059436 0.35386622 0.19413802 -0.27738854 0.31465763 -0.010171947 0.21620284 0.4206697 0.01797733 -0.15540743 0.08387197 0.1448328 0.011325004 -0.16103117 -0.07030573 -0.13716638 0.1284091 0.08857661 -0.16422918 -0.39368147 -0.008255307 -0.3377471 -0.31079912 0.02406546 0.025080316
C0020268 0.13931857 -0.38685963 -0.2579004 0.30011374 0.008186593 -0.012753056 -0.117890626 -0.15864053 0.34216115 -0.14986137 -0.1511416 0.27020946 -0.32568416 -0.08005154 -0.0466057 0.29645273 0.16937985 0.10213502 0.10342361 0.09938884 0.06850487 0.06744503 -0.24112308 -0.012902923 -0.016355446 -0.123048425 -0.11803942 0.026046636 -0.20073277 -0.043846026 -0.051778205 -0.19733007 -0.045843024 0.0822949 -0.011548086 -0.18142368 0.035686623 -0.1715796 0.36095634 0.20047799 0.051172167 0.12886988 -0.18871573 0.17336838 0.14428067 0.053476784 0.09562379 -0.03979767 0.1425961 0.11344896 -0.1166318 -0.23612735 0.05996967 0.17524338 -0.16027746 0.014235976 0.07901918 -0.1012331 0.3354016 -0.12533522 -0.07858752 -0.3250217 0.122232586 -0.16219305 0.17060696 -0.026872478 0.006604033 0.28675216 -0.12175945 -0.09350082 0.23857285 0.08972441 0.2958567 0.0581447 0.20789938 0.017190417 0.30537066 0.1797076 -0.2893996 -0.099980265 0.104622714 0.12276093 0.119937085 -0.25701845 0.10822356 -0.13355619 -0.19476268 0.011499433 -0.12486121 0.07948353 -0.03862008 -0.19736212 0.26833585 0.02895299 -0.010257186 -0.1990339 -0.1253505 -0.12945162 -0.31147897 -0.025521882
C0025598 0.15126354 -0.16066985 -0.02053614 -0.1677024 -0.08506932 0.08123751 -0.10831004 -0.421387 0.5248985 0.037083484 -0.19346718 -0.18712793 -0.12081771 -0.050600387 -0.05089812 0.2715425 0.10923024 0.027526135 -0.15697904 0.35569078 0.030835103 0.22619654 0.102161326 0.12827796 -0.2515567 -0.12189876 -0.30514306 -0.040319003 0.08297444 -0.023626605 -0.47718886 -0.08806746 -0.06819019 0.17866169 -0.19856055 0.05645592 -0.057312872 0.18260032 -0.09521483 -0.057124056 -0.114766754 0.08710537 -0.15706038 -0.26595768 0.0012881999 0.12769337 -0.07593881 0.031527907 0.11093548 -0.025069868 -0.2611229 -0.44880658 -0.44312504 -0.3514148 -0.055466764 0.23250173 0.13214159 0.10634714 0.21954972 -0.06593432 -0.31791252 -0.10618089 -0.036311314 -0.29927945 0.2119681 -0.004119477 0.113569975 0.1573376 0.055777416 -0.12380821 0.17259966 0.38560686 0.13948599 -0.13480483 0.24677643 -0.067391545 0.07603366 -0.081808284 -0.23456845 0.07536588 -0.028408311 -0.05020148 0.29500687 -0.057248212 0.013898508 -0.0025500746 -0.14603284 -0.050444167 -0.10702625 0.28359884 -0.4665988 -0.09279057 -0.174784 -0.22898029 -0.14384009 -0.26281482 -0.33208752 -0.37518254 -0.020969821 0.029166246
C0006230 -0.21779361 -0.18352777 -0.2996596 0.18708621 -0.33507538 -0.06087142 -0.017669698 0.029652126 0.3708568 0.083222866 0.033074223 0.05854125 0.0037329737 -0.2780848 -0.23594758 0.25217617 0.2345653 -0.062285814 -0.03827971 0.08771526 0.054914244 -0.010286966 0.29201984 -0.047898054 -0.16609468 0.027241059 -0.46426138 -0.19612032 0.033697564 -0.1224827 -0.30414164 -0.39419013 -0.27022427 -0.27784166 -0.26805162 0.047807753 -0.17686424 0.31089124 0.091867775 0.17441776 -0.017415691 0.19274014 0.12167373 -0.07997736 0.26140684 -0.14480776 0.1877137 0.51999104 -0.11955369 -0.09648286 0.012739921 -0.17093505 -0.07082868 0.29990438 0.20450161 -0.033178203 -0.122722276 0.10457578 0.12479792 -0.25906765 0.1304835 -0.18430428 0.43743664 0.26250613 -0.07247374 -0.17307684 -0.30191 0.35304695 -0.10045588 -0.16886885 -0.08213399 0.024222951 0.16416438 0.019905059 -0.11326889 0.15089446 0.2786029 -0.061879344 -0.057787403 0.07258551 0.18977687 0.18933447 0.2784748 0.0034438833 -0.2139709 0.32078785 0.07785476 -0.11208345 -0.30869943 0.014625884 -0.11387754 -0.07931897 -0.025193475 -0.09316239 -0.27815926 0.28893358 -0.15820622 -0.073633775 0.14021203 0.11561725
C0033308 -0.04503449 -0.17624505 -0.15924981 0.004527543 0.24184437 -0.2840468 -0.12966733 -0.11412372 0.20985423 -0.20122716 -0.1640884 -0.0433751 -0.26425618 -0.2943665 0.07752499 0.044833038 -0.30070743 -0.27503338 -0.013737128 0.2513697 -0.43172455 0.24959035 0.07724886 0.07739872 -0.17171343 0.28986543 0.034397498 -0.014011218 -0.10461398 -0.39654982 0.09839262 -0.13225023 -0.25258127 0.35306025 -0.19229025 -0.27932456 -0.50239205 -0.094961725 0.15535842 -0.36188132 -0.035112366 -0.097239144 0.06134431 -0.07053102 0.14982702 -0.017450903 0.35996956 0.02304358 -0.2163112 0.009706942 -0.16949043 -0.1863072 -0.108967066 -0.27699682 -0.06770822 0.306193 -0.15677223 0.17681031 0.116825 -0.18362132 -0.11377516 -0.12743877 0.5629286 0.10967721 0.0074672126 0.23095341 0.08690922 -0.16835487 -0.09538709 0.18555787 0.02547335 -0.26386937 -0.0014327865 0.22961375 0.089465834 0.41930282 0.47323963 0.099368796 -0.06241943 0.6085361 -0.1908099 0.33918014 0.120222285 -0.2999534 -0.3140237 -0.024368213 -0.17007358 0.0054182042 -0.20107844 0.038961068 -0.18592408 -0.157093 -0.14829066 -0.21650822 -0.04319638 0.2704922 -0.24499145 0.17792968 -0.19946581 0.08353476
C0025219 -0.07935746 -0.41942373 -0.04212265 0.10947578 -0.1707065 -0.24462004 -0.19392678 0.025028013 -0.014837382 0.018310271 -0.005579581 0.19069266 -0.15373191 -0.34008074 0.09488569 0.40315804 0.2210493 0.05764855 0.16999245 0.4331337 0.21093136 0.2714663 0.13461311 0.20213172 -0.15023816 0.12134903 -0.251262 -0.22853099 -0.08227955 0.2727723 0.048255425 -0.36756912 0.14758842 -0.0010583953 -0.17582394 0.45187902 -0.22005475 0.0636611 0.16291761 0.037187055 -0.0044129062 -0.40859967 -0.1286844 -0.018687295 -0.23693624 -0.103219 0.1593041 -0.06286401 -0.16406634 0.06796066 -0.1769391 -0.17600206 -0.16970369 0.153861 0.22419555 0.120953664 -0.02466436 0.13478181 0.27232283 -0.54163873 -0.14791486 0.12736914 -0.1272741 -0.045996442 -0.08699138 0.097823806 0.13492268 0.49711353 0.015363755 0.20045067 0.17614856 0.08688603 0.092842095 0.17192438 0.10022395 0.28872848 0.29947385 0.063916385 0.19135144 -0.23062815 -0.3291267 -0.035370167 -0.29422018 0.0089465445 -0.10031551 0.03443767 -0.05363101 -0.08729477 0.1790211 0.2905826 -0.23021188 0.3412846 0.01363778 0.022753231 -0.079092026 -0.028958872 -0.34282035 -0.3232724 0.033957656 0.12570186
C0001144 -0.16849963 -0.03029286 0.517124 0.08500476 -0.49774864 0.7085078 -0.21777993 0.32257208 0.37217125 0.10530602 0.024318703 -0.30511284 0.23612122 0.89014375 -0.26857924 -0.37710312 0.22106859 0.1424569 -0.3576533 -0.038666744 -0.16770303 0.2831144 0.07675323 -0.3455404 -0.40283862 0.3860081 0.075659625 -0.11874254 -0.11639268 -0.28474978 -0.14987811 -0.15936989 0.6760288 0.1749902 -0.43346184 -0.2950128 -0.42554334 -0.04321393 0.06619544 -0.18823963 -0.10737554 0.5070635 -0.30862436 0.8432987 -0.36085352 0.67162126 -0.26377454 0.011302373 -0.12893282 -0.115871355 -0.262704 -0.53062963 -0.41228184 0.05001979 -0.07583099 0.1605746 0.027244627 -0.65110815 0.07843087 0.13251215 -0.29756266 -0.16196232 -0.1416068 0.2872484 0.24637334 0.06639515 -0.7785791 0.36626336 0.1957556 -0.16081554 0.8619883 -0.31730032 -0.0422361 0.07663583 -0.17475101 -0.0048647355 0.40470096 0.11812695 -0.12659048 -0.38963494 -0.9214083 0.5273158 -0.28594252 -0.26534882 -0.17087476 0.23466955 0.2126289 0.0813233 -0.8505169 0.08276923 -0.3239314 -0.013249791 -0.07125682 -0.03429724 -0.30701706 0.1407711 -0.4684092 -0.40162897 0.35613012 0.39563453
C0013090 -0.24549565 0.012710557 0.25927922 -0.11132557 -0.2866541 0.22348672 -0.04416747 -0.03244101 0.09934697 0.23949036 0.24518849 0.11302971 -0.32556334 0.27063105 -0.13058601 -0.011857899 0.16312976 0.2576288 -0.28215107 0.27376136 -0.12567855 0.045469284 -0.2695958 -0.018646909 -0.49403796 -0.051368665 -0.340875 -0.52693254 0.031824112 -0.22263226 -0.50796145 -0.33466184 0.54432493 -0.023907568 -0.3179691 -0.017148742 0.042762876 -0.15454121 0.013640412 -0.20848617 0.2674705 0.2712682 -0.037218582 0.2723464 -0.527661 0.21857186 -0.4529399 -0.10763607 -0.19901498 -0.03923267 -0.21340472 -0.22020279 0.1433685 0.03438248 -0.44065747 -0.100773185 0.0019618385 0.026048295 0.015914297 -0.18893933 -0.06271986 -0.068318225 0.17824182 0.37204823 -0.08615828 0.16632318 -0.34566167 -0.18037164 0.122348905 -0.27119336 0.1926673 0.029116366 0.34896147 0.4028917 0.082733646 -0.16442843 0.08215456 0.03024329 0.02237592 -0.014990168 -0.40406945 -0.10766976 -0.24433608 -0.30705178 -0.11198188 -0.1459859 -0.108463034 -0.06898502 -0.15543416 -0.07712512 -0.03652877 -0.038506348 -0.12561312 0.16705109 -0.2689185 -0.5986532 0.020420924 -0.057773396 -0.008317867 0.16795526
C0039651 -0.20392486 -0.14206856 0.14132199 0.19783597 -0.24224819 0.30116847 -0.5814759 0.07926902 0.13219193 0.060287956 -0.208836 0.15800716 -0.05238011 0.1935318 0.20209198 -0.12571 0.30639184 -0.36506686 -0.18330671 0.048711497 0.15936463 0.19783549 -0.32414797 -0.3922622 -0.15137386 0.109740585 0.0047737644 -0.17396669 -0.16605031 -0.061799485 -0.2530962 -0.22283551 -0.16610016 0.037162498 0.06218133 -0.18289554 0.35296655 0.12276806 0.32969996 0.10390205 0.031697392 0.058629718 0.059849903 0.4172137 -0.10730266 -0.0023226594 0.035857063 0.4488739 0.08076941 0.016869567 0.34326583 -0.3519448 -0.32467934 0.18563765 -0.11422454 0.20257615 -0.027819501 -0.22804919 -0.08575981 0.11479905 -0.08283048 -0.054675005 0.13756423 0.31913537 0.0002893966 -0.20571662 -0.035502452 0.079488695 -0.09969923 -0.105938956 0.14024284 -0.12300907 0.16455771 -0.18911219 -0.05949436 -0.07985074 0.30246195 0.2707958 0.07725595 0.0959069 -0.06586054 0.47065252 -0.044449292 -0.031057602 -0.3215314 -0.03786278 0.17194225 -0.27040514 -0.28699565 0.04253815 -0.19719867 0.07477064 -0.12606356 -0.15685008 -0.049709935 -0.056018468 -0.23595622 -0.096900135 -0.008156532 0.62764513
C0036079 0.18626915 -0.27342618 0.45334116 0.013251899 -0.11518376 0.42895725 0.027439874 0.21548381 0.13955434 -0.07538974 -0.15405644 -0.3012202 0.26438466 0.54186386 0.07797644 -0.22229801 0.21145181 -0.18957914 -0.35406235 0.19706118 -0.31596503 -0.065345496 0.19860505 -0.022756303 -0.14570631 0.2582162 0.121078946 -0.05810799 -0.45107305 0.015676038 -0.2441111 -0.15402243 0.7517593 0.10067634 -0.5394731 -0.38835004 -0.2009742 -0.08385982 -0.35003176 0.05161609 0.30186307 0.39335674 -0.51084256 0.27359223 -0.22300936 0.19885115 -0.45203203 0.25413254 0.10650399 0.13949516 0.2363212 -0.68846035 -0.43948627 0.04311957 0.02834718 0.05128603 -0.14081809 -0.48881742 0.21165746 0.06362823 -0.36001414 -0.14168258 -0.16107504 0.39650515 0.1468536 0.05672961 -0.61199623 0.13465331 -0.00859921 -0.14930709 0.8963207 -0.45247054 0.32418475 -0.13944677 0.24490455 0.15584232 0.09050463 0.029705102 -0.12985834 -0.4878368 -0.75955516 0.49305645 -0.30235583 -0.11571373 -0.18777148 0.31820196 -0.019388687 0.040042397 -0.27661544 0.22556852 -0.07978668 0.20472947 -0.14862086 -0.25373715 0.061362725 0.05130672 -0.2812087 -0.20538585 0.23125145 0.18471837
C0980801 -0.18817194 -0.14615744 0.71943957 0.017434796 -0.622626 0.7848238 -0.34700105 0.29932675 0.62760013 0.06990698 -0.12511183 -0.52449715 0.36778206 1.0173819 -0.21566446 -0.1615807 0.25458714 0.2809913 -0.46526995 -0.12629518 -0.35585237 0.21479233 0.13545935 -0.28383887 -0.3127879 0.47443375 0.23674934 0.015657268 -0.13858263 -0.43207994 -0.28632796 -0.29640132 0.88435435 0.10795204 -0.48502058 -0.3782881 -0.32934466 -0.19872548 -0.020741852 -0.3946298 -0.1440818 0.725496 -0.47682688 1.0716656 -0.49450228 1.02987 -0.16298127 -0.00949714 0.08906437 -0.06262986 -0.10414076 -0.5174084 -0.4175626 -0.12444034 0.15180124 0.08711939 0.10989203 -0.52401143 0.26599005 0.3337972 -0.48047888 -0.2579965 -0.10559465 0.35513785 0.05809745 -0.12501542 -0.93119496 0.41596505 0.27601203 -0.32353967 1.1821325 -0.3609254 -0.036277905 0.030779257 -0.34989157 -0.19589265 0.2309371 0.04221938 0.039001383 -0.6187605 -1.0659246 0.79871655 -0.3907001 -0.14336543 -0.2071068 0.5679433 0.43772918 -0.07379581 -1.186737 0.16225123 -0.3398611 -0.33182427 -0.1858542 -0.13479513 -0.46347016 0.25413358 -0.44621018 -0.47625652 0.44312635 0.50433314
C0980477 0.038038608 -0.1760647 0.44846368 0.14095193 -0.3779448 0.6895711 -0.39626732 0.305766 0.16145128 0.02090377 -0.19222729 -0.12759188 -0.106127515 0.92406666 -0.13069098 -0.32442564 0.25504175 0.22349009 -0.43972844 -0.05758742 -0.11815849 -0.034766912 0.37187272 -0.22958246 -0.18384434 0.34778643 -0.030780802 0.04273317 -0.16963881 -0.4057912 -0.11567285 -0.08310803 0.71001846 0.21091902 -0.5415454 -0.40142977 -0.21847774 -0.17320317 0.05538754 -0.09578642 -0.13755919 0.78724873 -0.12128378 1.0165117 -0.50658864 0.6198072 -0.18890798 -0.0046081683 -0.09245822 -0.256199 0.042105597 -0.6915337 -0.5253937 -0.08490904 -0.0393003 0.19777772 -0.24963814 -0.68429214 0.09524322 0.44618 -0.60660464 -0.20831034 0.014631272 0.20796224 0.251022 0.13767563 -0.6781954 0.40222907 0.318923 -0.1709116 0.8862291 -0.49634337 -0.25796548 0.006891698 -0.09513154 0.021959284 0.20516066 0.12502688 -0.058229003 -0.45435378 -0.79757947 0.72550917 -0.3189164 -0.37788808 -0.2796657 0.60123634 0.054112136 0.0603421 -0.96161014 0.26243433 -0.39946362 -0.1540527 -0.17244364 -0.33742818 0.0025963814 0.13604662 -0.4485376 -0.13092667 0.47097597 0.3754901
C0039644 -0.4274736 0.23684701 -0.08877164 -0.012674088 -0.16895291 0.26529217 -0.14508374 -0.2421761 0.098494396 0.11604944 0.16586657 0.002507726 0.013933182 0.520456 -0.33850312 -0.093494855 0.20548834 0.08995272 -0.17406608 0.08930278 -0.13349354 0.103232466 0.15486272 -0.095707834 -0.23455048 0.1257325 -0.19765353 -0.19626535 0.21447864 0.024092605 -0.11628556 -0.19211845 0.61800396 0.44535995 -0.5627764 -0.097598806 0.20619304 -0.19444765 0.31344527 0.39045382 -0.084392056 0.2817059 0.25623196 -0.021712959 -0.46803185 0.031319708 -0.2494867 -0.29157618 -0.21547423 0.45438284 -0.103995204 0.027866501 -0.57939494 0.019394744 -0.25919697 -0.096354336 -0.36442947 -0.34231412 0.3058235 0.12602702 -0.020654386 -0.032379925 0.13836765 0.38108665 0.037474945 0.19888781 -0.339277 0.1809106 0.15277019 0.082063295 0.32700324 -0.36391944 0.021612978 0.11061103 -0.15332429 0.10994999 0.33564964 0.06286234 0.14452119 -0.3705866 -0.4304132 0.40942302 -0.3757509 -0.33867982 -0.12122662 0.4391757 0.49194267 -0.04177573 -0.46544564 0.28258994 -0.024213528 -0.14502546 -0.1439164 -0.16676345 -0.4142653 -0.26251236 -0.23794669 -0.31778252 -0.24851245 0.24234498
C0005088 0.041523647 -0.20080109 0.50415623 0.092943914 -0.25537094 0.7225434 -0.48525178 0.36471105 0.17780767 -0.008495926 -0.20614074 -0.15948789 -0.030087085 0.93084884 -0.19924195 -0.3862506 0.34062275 0.27635208 -0.3834439 0.09674694 -0.082116544 0.11991499 0.31885132 -0.2535796 -0.3426857 0.38704655 -0.020802971 0.14186275 -0.13121463 -0.32369864 -0.08414924 -0.08098931 0.70921695 0.25159827 -0.5779169 -0.2517221 -0.42762738 0.019254562 -0.0020926234 -0.09407275 -0.1651176 0.6748993 -0.17525291 0.96560496 -0.5353945 0.65527153 -0.20434502 0.105355114 -0.13733925 -0.24703406 -0.006483016 -0.73453265 -0.5571083 -0.09463672 -0.052803643 0.21497011 -0.28099862 -0.5801501 0.14280058 0.38874152 -0.62122816 -0.3478792 0.061006375 0.2790146 0.21306172 0.27921036 -0.75303453 0.33968735 0.3152729 -0.24937971 0.94800663 -0.44575986 -0.30202806 -0.071187 -0.1635935 -0.041299462 0.22690147 0.088261895 -0.10665809 -0.5789706 -0.9254686 0.6613146 -0.36517367 -0.390742 -0.18194698 0.6787931 0.063016355 0.12285575 -0.9637676 0.2943941 -0.44120848 -0.12300069 -0.06504911 -0.30434525 -0.035613805 0.17609158 -0.39833844 -0.25988784 0.4729336 0.52754045
C0165631 -0.32395408 -0.15526752 0.80909234 0.13063481 -0.5424818 0.72055507 -0.3746849 0.32560655 0.6009321 0.2666807 -0.076580085 -0.40861237 0.32155547 1.0965995 -0.25290382 -0.1667302 0.43584025 0.38227704 -0.39442962 -0.13647795 -0.3338327 0.26484787 0.04511693 -0.19674201 -0.33742326 0.5066891 0.22677891 -0.003994651 -0.17557475 -0.5906147 -0.13796023 -0.24086805 0.91818947 0.09444633 -0.6357984 -0.3665504 -0.416738 -0.14318122 0.11443405 -0.32731906 -0.2978229 0.67370325 -0.31321558 1.0362171 -0.5123661 1.0600803 -0.14308438 -0.15799539 -0.1308155 -0.15007004 -0.107980825 -0.58858246 -0.37512216 0.020566003 0.08920363 0.29850718 0.13298878 -0.53895944 0.122824855 0.3387045 -0.44090337 -0.3862746 -0.10395163 0.33561 0.0444266 -0.08354428 -0.90035456 0.35963657 0.19930147 -0.26465556 1.1417208 -0.41571936 -0.009359112 0.14298317 -0.36470607 -0.20290245 0.13100314 0.047364682 -0.0003151818 -0.67767686 -1.1283752 0.81140345 -0.26218095 0.07307842 -0.20021893 0.41623023 0.56375873 -0.05182072 -1.1867312 0.07869196 -0.43192273 -0.36934566 -0.2831969 -0.0885213 -0.476897 0.2029964 -0.53705186 -0.4171494 0.47391948 0.5542351
C0024200 -0.18090153 -0.0042585838 0.25617135 0.43876114 -0.3835104 0.044786017 0.35532162 0.31709108 0.3439131 -0.20449568 0.15754677 -0.1415394 -0.31022105 0.384195 -0.044176824 0.09018535 0.36461222 -0.09546043 0.033813417 0.29596996 0.019640185 0.36335632 -0.06156843 -0.6799149 -0.3246091 0.416657 -0.41590878 -0.03205835 0.0042787865 0.07507065 -0.047824208 0.23451173 0.13440923 -0.09167849 -0.26618278 0.13507113 -0.060465615 0.20554702 -0.060398422 -0.0013509141 -0.18855497 0.48753574 0.0033502565 0.47422993 0.02549886 0.5072953 -0.048135735 0.1464528 -0.308926 0.17381352 0.1403264 -0.24596693 -0.013362866 0.15026994 -0.2899794 -0.34487846 0.050370995 -0.036233075 0.014629187 0.13522725 -0.00012478094 -0.34293956 -0.07196024 0.39144826 0.16005419 -0.2904539 -0.5745775 0.20115887 0.071709104 -0.15436162 -0.003604675 -0.28350118 0.0386094 0.32505366 0.118316114 0.08153956 -0.0052388147 0.13417791 -0.15494928 -0.08248018 -0.44013125 0.17925657 0.15346105 -0.35449663 -0.08592855 -0.025550574 -0.0056995205 -0.07412877 -0.6005354 -0.018866813 -0.65655535 0.283076 -0.26160312 -0.21262397 0.12306344 0.5809473 -0.16837123 -0.072813675 -0.14176911 0.19382733
C0023556 -0.3887412 -0.123512946 0.84591323 -0.04384984 -0.45117316 0.7367375 -0.26602444 0.37783092 0.520652 -0.05711921 -0.114125505 -0.26349038 0.2373426 1.0542281 -0.21455404 -0.29860458 0.40046033 0.22765408 -0.41005704 -0.11059721 -0.31065533 0.39579052 0.09768782 -0.14214724 -0.29333434 0.4436925 0.28946632 -0.05472127 -0.26081884 -0.5174793 -0.20611598 -0.32649842 0.98177737 0.116460666 -0.58650094 -0.197373 -0.44010866 -0.22740506 0.0037948736 -0.32099178 -0.13761228 0.77887785 -0.3931338 0.8830965 -0.36892122 1.0060494 -0.1633923 0.024554683 -0.043929197 -0.12700115 -0.17118806 -0.6287073 -0.2647752 -0.0035296148 0.29806033 0.023819158 0.0714588 -0.5943835 0.15668005 0.32852626 -0.3886454 -0.31845775 -0.045234796 0.31449544 -0.024922132 -0.025514707 -0.9838878 0.3544796 0.37068993 -0.27127147 1.0219496 -0.3173421 0.03240364 -0.06128136 -0.4256394 -0.13761266 0.40363282 -0.09460853 0.178406 -0.6144461 -1.1095536 0.84101194 -0.37325984 -0.14763075 -0.23842947 0.45089826 0.40784636 -0.15912601 -1.2517715 0.24646237 -0.48041752 -0.24752834 -0.17957082 -0.057691883 -0.50078356 0.11941435 -0.40684712 -0.5607847 0.55299807 0.45402864
C0001311 -0.26665974 0.3745238 0.23920311 0.13853246 0.31279027 0.11126886 -0.2095736 -0.15167925 0.32512462 -0.30426067 -0.3259058 0.17312245 -0.18159206 0.20354925 0.12392407 -0.45294875 0.09596401 0.26320365 -0.018210165 0.1386996 -0.12867469 0.082895584 -0.26260707 -0.15461202 0.16647829 0.009729872 -0.097436585 -0.3602636 -0.2634359 -0.23486635 -0.48702884 -0.05782575 0.5089242 -0.18263316 0.014586778 0.26298735 -0.10062192 -0.4507585 0.29846928 0.5782582 0.16462149 0.42565006 0.07260748 0.14852497 -0.24707879 0.13805544 0.47781837 -0.37384376 -0.32503763 0.2898173 -0.03638262 -0.5614214 -0.0765217 0.271063 -0.1510496 0.28517607 0.09915398 0.37125078 0.13450952 0.40342984 -0.25445387 -0.40833858 0.47653112 -0.26914623 -0.19773251 -0.12614484 -0.10713102 -0.07208975 -0.12861949 -0.21954131 -0.17995489 0.03250361 0.19999206 0.032109376 -0.090810604 -0.11618784 0.043060232 -0.040089313 -0.36693215 -0.7143217 -0.39044932 0.26421076 -0.24559385 0.0129654445 -0.17165734 0.12262431 0.1838952 0.108756505 -0.5189987 0.31797874 0.012808434 0.099518366 -0.28542447 0.017972814 0.030413052 0.52750856 0.035269704 -0.0019743347 -0.3890625 0.14441486
C0298130 -0.22693464 0.11721076 0.12364893 0.17765518 0.31139562 0.22024928 -0.1190753 -0.2526231 -0.20565847 -0.050198533 -0.24899694 0.16034465 -0.33551154 -0.06478234 -0.007642177 -0.102318496 0.030388804 0.09702819 0.19473864 0.29697037 -0.0059264116 -0.06837175 0.094073266 -0.07725013 0.00934377 0.032807488 -0.22856575 -0.26210532 -0.021070063 -0.24824056 0.17950237 -0.43554688 -0.037167046 -0.30748147 -0.052631173 0.32374588 -0.31227487 0.02405914 0.04299356 0.31737253 0.07610095 0.28730276 0.41510838 -0.08099421 -0.014663265 -0.11255803 0.1545532 -0.4777082 -0.17750552 0.6659223 -0.14861698 -0.33447817 -0.094491325 -0.030673813 -0.16629435 0.23678069 0.06386857 0.17804527 0.20053893 0.26995346 -0.15249844 -0.32651398 0.4245366 -0.15213887 -0.07838609 -0.2690008 -0.17520916 -0.23493466 -0.34089428 0.025224 -0.045556 -0.06977291 -0.011928452 0.10952716 -0.18843012 -0.15179291 0.31073406 0.10936615 -0.15702072 -0.09476054 -0.15015884 0.33394492 -0.14539233 -0.022258397 -0.45173123 0.016068287 -0.014353704 -0.04725101 -0.35561568 0.3939932 -0.07031197 0.030655658 0.1679527 -0.20855159 0.028803702 0.1374759 0.07990079 -0.23008643 -0.32224026 0.32775223
C0036082 -0.39816123 -0.0265937 -0.06572537 0.4739905 0.01396412 0.0020990444 0.113209635 -0.2672195 0.1498168 -0.2768327 0.08082155 0.5139344 -0.2997985 0.22033642 0.340654 -0.055316243 0.00847454 0.08536666 0.26637548 -0.031093938 0.11530345 0.28834024 -0.27207455 0.14362724 -0.1743057 0.07500791 -0.60316736 -0.089968815 -0.19455174 -0.03693752 -0.5321045 -0.22505222 0.30080062 0.16807686 0.26728 0.24985233 0.1581636 0.14971168 0.24459599 0.29508767 0.0506392 0.10455602 -0.08046541 0.13691299 -0.08818964 0.24855718 0.2991452 -0.27794302 0.06566853 0.15808445 0.24964482 -0.046143424 -0.111315615 0.19156282 -0.19224232 0.09517035 0.23599298 0.13307989 0.32989192 0.30784804 0.14719832 -0.16342302 0.13615789 -0.046663668 0.010238949 -0.043531906 -0.14926319 0.018736815 -0.15013494 -0.19445401 -0.1583268 -0.022357015 0.49998376 0.1111666 0.16010663 0.046925317 -0.037146818 -0.004029024 -0.46318278 -0.24878496 -0.44206783 -0.20183328 0.21983421 -0.22740482 -0.08058653 -0.075314716 0.32233012 0.13672884 -0.1926783 0.19352806 -0.20597994 -0.088374764 -0.31636155 0.07613872 0.021494877 0.033208124 0.037332784 0.046415262 -0.032723986 0.058721423
C0001927 -0.107557565 0.6846168 -0.0409813 0.049085982 0.12977007 0.040143237 0.1677091 -0.32106474 0.26465496 -0.040151745 -0.4264581 0.19835433 -0.27761787 0.18372527 0.1792093 -0.17384504 0.21709596 0.025819477 -0.41367248 0.22735101 -0.3091605 -0.23820129 -0.45430848 -0.17030343 0.18617293 -0.3285581 -0.1676367 -0.19130215 -0.06597135 -0.12581213 -0.27689922 -0.16528073 0.009681785 -0.27188987 -0.06561794 0.3463552 -0.41695145 -0.22614191 0.09987947 0.07180288 0.16476144 0.12241158 -0.03691088 0.16977721 0.15185708 0.03028399 0.37088123 -0.21144147 -0.40108106 -0.04085153 0.15222026 -0.5679875 -0.030791147 -0.029076869 -0.054387007 0.005393837 0.057583015 0.45385084 -0.13820961 0.49038616 -0.41914076 -0.2833044 0.39154926 -0.0380049 -0.24326986 -0.32709986 -0.38349283 0.022363052 0.093935035 -0.13296005 -0.42849568 0.032334756 0.24688774 0.11412267 0.12829757 0.028183741 0.1326883 -0.053569358 0.031831328 -0.40162653 -0.18912731 -0.12752141 -0.15778397 0.018281188 -0.18991286 -0.010694054 0.021672096 -0.10921274 -0.22883981 0.18080771 0.10322629 0.03776783 -0.15170272 -0.02333593 -0.095968656 0.37676322 0.32041445 0.14499252 -0.21343906 0.084733754
C0014563 -0.11621292 0.15111712 0.42628506 -0.07524662 0.3512311 0.034628313 -0.13372308 -0.033786543 0.23906966 -0.13879605 -0.38910648 0.38665816 0.23908101 -0.3397736 0.069018 -0.28008828 0.092257366 0.08319609 -0.16006641 0.099960394 -0.102586664 0.17347564 -0.22815424 -0.26059785 0.068908736 0.1178815 -0.16034892 -0.23273055 0.06369837 0.31775796 -0.27867115 0.16445895 0.2250802 -0.08475862 -0.15792103 -0.17112747 -0.030045047 -0.0055998373 0.02956398 0.3690327 0.06478418 0.20296708 -0.015215244 0.30290806 -0.10432261 -0.098225385 0.21218249 0.028832445 0.09859544 -0.05661695 0.13333862 -0.11325916 0.12601541 0.4875207 -0.039359353 0.1612752 -0.12922296 0.12938555 0.15144356 0.17322293 -0.060233325 -0.356291 0.32099453 -0.0212539 -0.12301956 -0.0406916 -0.2032708 -0.16367815 0.31222603 -0.13741553 -0.11547013 -0.08663801 0.19453634 -0.23152654 0.12367428 0.15782148 0.36908287 0.009261047 -0.16565284 0.0052089295 0.09966272 0.24151452 -0.32170367 0.09418727 0.16106667 -0.046611343 0.14879233 0.12145658 -0.15451233 0.13671552 -0.12640226 0.17320634 -0.24380754 0.11960867 -0.1539012 0.09618586 -0.3622664 -0.37069827 -0.60333717 0.006766951
C0001314 -0.30406523 0.14931218 -0.024148656 0.26519525 -0.17494495 0.24464127 -0.043195937 0.14834225 0.17211889 0.13523187 -0.115793474 -0.35857466 -0.057748143 0.116023846 0.35949817 -0.23520823 0.04566653 -0.04451139 -0.30632195 0.20395428 0.04194135 -0.047526423 0.5782512 -0.4480573 0.13028854 -0.35509157 -0.1949873 -0.2082896 -0.44274226 -0.14384092 -0.11065895 -0.03269648 0.24404128 0.10162643 0.08156954 0.072651975 0.097895645 0.10038175 0.36058128 0.2668537 -0.36387423 -0.18233478 0.03075804 0.41813824 -0.30335435 0.1428757 -0.19317573 -0.35639095 -0.11026715 0.11388786 -0.012721741 -0.6046677 0.24642922 -0.22338249 0.044895396 0.29646686 0.31943974 -0.14625004 0.33218163 -0.23258118 0.43439752 -0.17468569 0.28435707 -0.29266232 0.14389445 0.034667477 -0.25597236 0.28403732 -0.14545672 0.14454705 0.0116235865 -0.26558346 0.065429084 0.2480859 -0.29141402 -0.1525101 -0.029774833 0.30564845 -0.3281666 0.1572608 0.083264835 0.038338233 -0.38569304 -0.029802125 0.005221172 0.17853168 0.3060746 0.4387829 -0.013121414 -0.20377691 0.1394628 0.11319075 -0.07901353 0.5491106 -0.2579178 0.25194374 -0.091092564 -0.07914518 -0.13840604 0.118230164
C0083381 -0.21191989 0.048347495 -0.08292251 0.14642335 -0.13736643 -0.030941991 0.14775759 0.1292882 -0.14620358 -0.07554837 -0.017517187 0.07521347 -0.059841484 -0.16701505 0.72165126 -0.04795289 0.046895336 -0.38331828 -0.071549416 0.6122394 0.061303552 0.28550115 0.34030223 -0.4112835 0.08712203 -0.01331046 -0.046193354 -0.0698842 -0.1182198 0.08483785 0.0065506296 -0.28445202 0.31731075 -0.21366164 -0.24041271 -0.03719966 0.37112182 0.14386372 0.22455657 0.013011648 -0.3231357 -0.20117056 0.1675432 0.1840184 -0.016723864 0.27181694 -0.24274643 0.027271934 0.016520135 0.26633176 0.32479122 -0.29987106 -0.19865204 -0.4002273 0.09865098 -0.07520251 0.07830844 -0.08422792 0.18928282 -0.06542747 0.25558275 -0.10327113 0.46439794 -0.11815851 0.08587644 -0.20007527 -0.366242 0.23545457 -0.3292093 0.27279937 -0.13728128 -0.35544255 0.15779337 0.23205622 -0.5165416 -0.23738389 0.19580959 0.16331728 -0.09696344 0.24208671 0.32248563 -0.18576752 -0.0735286 0.06512142 0.01630612 0.10327235 0.20715594 0.18396996 -0.335818 -0.047714476 -0.07570651 -0.22873569 -0.18809092 0.5705998 0.004492992 -0.1962088 -0.023548996 -0.13676243 -0.13093133 0.29262784
C0017710 0.051893435 0.31728742 0.0016273193 0.3262363 0.079123914 0.23221464 0.06729274 0.02221555 0.054251697 0.11801598 -0.25517735 -0.27522674 -0.20856462 0.03469779 0.124957554 -0.10677687 0.123419195 0.2553089 -0.3094317 0.07953953 0.08988144 -0.40418953 0.32335043 0.037554067 0.047190975 -0.46071002 -0.42642993 0.07893428 -0.2372759 0.13073474 -0.23882023 -0.029583849 -0.1491535 0.20928013 0.07979705 0.051528387 0.10122701 0.2023317 0.03151006 0.32099771 -0.4471657 0.057517644 0.11579303 0.20040435 0.0772885 -0.08054093 -0.06530796 -0.262431 0.19108097 0.23011798 0.085463464 -0.4766288 0.18243508 0.16896534 -0.08772959 0.36094898 -0.1230988 -0.12340965 0.090755664 0.0758418 0.40263572 -0.23992632 0.17203431 -0.0795286 0.061945505 -0.10516623 0.027840445 -0.034942314 -0.19550207 0.045263086 -0.10546347 -0.12746449 0.32109347 0.18325157 0.049721744 0.2553882 0.11584469 0.30970705 -0.2769068 0.19846459 -0.0018250392 -0.14295655 -0.18256289 -0.18995482 -0.09152886 0.045398448 -0.011594971 0.10334796 0.021308746 0.20227502 0.016287183 -0.092771076 0.061411034 0.38131124 -0.26311427 -0.10947095 -0.21136957 -0.10829395 -0.110421866 0.4044788
C0001723 -0.3360272 -0.13762777 -0.24551028 0.22642595 -0.051113985 -0.052437328 -0.038145162 0.12789507 0.4704287 0.4680726 -0.2889873 0.2513571 -0.11271597 -0.055316914 -0.2652009 0.06833456 -0.0369972 -0.22808345 -0.11267267 0.36037293 0.34452593 0.6188647 -0.22642848 0.27130958 -0.020418644 -0.05715701 -0.38846275 -0.04819741 0.10946416 0.01624428 0.2699592 -0.67778796 0.27167088 0.16200466 -0.06902221 -0.1834481 0.38659075 -0.11293724 -0.23463331 0.058614124 -0.23360732 -0.2046475 0.22658283 0.33251762 -0.12344779 0.03441155 0.085706756 -0.28445184 0.2846538 -0.01631992 0.11475033 0.16878763 -0.23420893 0.10269439 0.29690978 -0.09939025 -0.032044053 -0.3419119 -0.18760407 -0.19391513 -0.086628266 -0.058618117 -0.06036618 0.20426178 0.01050254 -0.025260901 0.06806842 0.36171773 0.35320237 0.12588151 -0.40809107 0.31854907 0.0874282 -0.2791557 0.0973912 -0.12938398 0.42956948 -0.09502213 0.16928433 0.54131484 0.109825 0.11648216 -0.19992577 0.32269353 -0.12661186 0.19603264 -0.34807968 -0.1681884 0.028296916 0.15801808 -0.016626764 0.0030735035 -0.12711604 -0.32689062 -0.15089183 0.43107963 -0.28441676 0.2496405 -0.40088496 0.3954608
C0123091 -0.12688348 -0.080391176 -0.1095 0.07883676 -0.32300237 -0.116963096 -0.09686075 0.0463854 0.18638131 0.17578311 0.1032144 0.20549427 -0.19187966 -0.06950023 -0.22117348 0.22494867 -0.057550054 -0.23706041 -0.31229314 0.45641416 0.13816649 0.12589648 -0.2634447 0.11416857 -0.11204582 -0.043836843 -0.38209665 0.047548816 -0.15648809 -0.037627954 -0.009327426 -0.3351602 0.080139175 0.000654848 0.057207257 -0.22750895 0.17591743 0.16663787 -0.060620785 0.29231134 -0.06409253 -0.09949822 0.0058113043 0.11183167 -0.0748045 0.03692293 0.20397261 -0.06890764 0.21994475 0.10357196 0.09660461 -0.11824954 -0.20746711 0.3159914 0.16234711 0.058978543 0.41011316 -0.2507168 -0.17267668 -0.08190126 -0.07006159 -0.06852779 0.1301872 0.19970828 -0.055215362 -0.07676691 0.11124933 0.44382828 -0.06928073 0.22951606 -0.12465925 0.22896707 0.005623689 -0.12950373 -0.28862408 0.13775323 0.34261343 -0.014902713 0.073192224 0.13398671 -0.056353033 0.05384239 -0.2161908 0.30673882 0.060406625 0.17095411 -0.22165702 -0.027171522 -0.11033482 0.013316655 -0.01528386 0.20888041 0.015633158 -0.27901176 -0.0528858 0.06210656 -0.16690026 0.23170152 -0.21645835 0.00035171735
C0380393 -0.24704157 0.041608173 -0.20071913 -0.028340021 -0.17819627 -0.1208469 0.004101341 0.2163661 0.18792182 0.26480404 0.008548721 0.13852443 -0.18808588 -0.2607366 -0.25547162 0.103847995 -0.2699425 -0.19469167 -0.27565125 0.13635719 0.0090036895 0.34171915 0.19546232 -0.08894569 -0.25606784 -0.041803863 -0.08090968 -0.14575368 -0.03538332 -0.022527298 -0.0004684475 -0.47431007 0.047231186 -0.03956986 -0.18461266 -0.18156813 0.41746366 -0.13873835 -0.048734177 0.08683801 -0.10454596 -0.01797344 0.048047714 -0.017372286 0.20011066 -0.17684814 0.22064415 0.01289253 0.09979714 0.14580834 0.15152739 -0.058249246 -0.14697208 0.2228146 0.16431835 -0.004347434 0.1189143 -0.2408124 0.20370544 -0.15514956 -0.16147906 0.030280983 0.073997445 0.17760381 -0.1702591 -0.16974805 -0.1054454 0.28813875 0.30547103 -0.14384164 -0.34771642 0.1330735 0.120795034 0.0065275314 0.011499683 0.13502316 0.025113009 -0.24665964 -0.28364965 0.3673821 0.045721997 0.26100737 -0.14282878 -0.011125671 -0.07006474 0.1446692 -0.23808104 -0.26563594 -0.10346484 0.37623584 0.025104273 0.05378717 -0.1345204 -0.18730128 -0.08977047 0.22344637 -0.1154739 0.15952131 -0.3319497 0.14811268
C0073393 -0.41017962 -0.17308779 0.095569305 0.10052055 0.09964105 0.25690633 0.17583215 -0.037156735 0.19880584 0.31484812 -0.23308954 -0.04670232 -0.106525175 -0.35500053 -0.16105649 0.22295968 -0.008219986 -0.03825732 -0.18114367 0.34974617 0.08345336 0.455763 0.01655413 0.114253834 -0.11921706 -0.04607422 -0.3447971 0.22031617 0.06426533 0.01521454 0.18332504 -0.28315288 0.10905982 -0.008630938 0.028385267 -0.03971508 0.43051252 -0.011233328 -0.14371133 -0.1659919 -0.30032724 -0.05255523 -0.036542553 0.14517489 -0.21628878 0.008193813 -0.01594287 -0.20899005 0.16160038 0.09993566 0.0948682 0.032469746 -0.072294295 0.21994 0.04067176 0.025198858 -0.07703943 -0.20585194 0.26225364 -0.10463668 -0.09302243 -0.001724088 0.118979834 0.059882067 -0.075177126 0.117158934 -0.04910082 0.6085696 0.1596804 0.20194136 -0.294069 0.06959129 0.21479827 -0.17825477 0.42831331 -0.11124277 0.27845904 -0.08452472 0.33405706 0.15860824 -0.10459595 -0.0071299486 -0.456664 0.056931198 0.06247022 0.2470781 -0.5118854 -0.0116329435 0.06999579 0.18178323 -0.03664182 0.08242403 -0.07410601 -0.30681005 0.03551284 0.34695253 -0.116199955 -0.002634247 -0.23452564 -0.0859843
C0001807 0.050193727 -0.09066948 -0.21910442 0.19402084 -0.11143107 0.052012715 -0.022177743 0.24421611 0.17969508 0.093539014 0.02351775 -0.10467466 0.20196204 -0.19785054 -0.18314062 0.27880803 0.16737656 0.08212033 0.10104758 0.058680344 0.05338307 0.22022279 -0.27169922 0.040475536 -0.23851216 0.1814229 -0.22323202 -0.15809676 -0.061327297 0.42009896 0.116663404 -0.7055916 -0.36793137 -0.0732195 0.060348958 0.023472318 0.09426653 0.18423687 -0.0030272321 0.19697039 0.058664452 -0.28081173 0.2465652 0.20015861 -0.106359065 0.027750902 0.13158448 0.10357825 -0.14158936 -0.02951191 -0.14648598 -0.112242065 -0.120030075 -0.12450774 0.21874781 0.06259067 0.047614537 -0.32185978 -0.00024793763 -0.30868945 -0.2659298 -0.19669627 0.14842862 0.20572536 -0.0042534727 -0.1760371 0.2739656 0.28284186 0.031999566 -0.1695422 -0.24180587 -0.11652169 0.23226458 -0.15706515 0.22322592 0.049656224 0.32930788 0.144922 0.120628476 -0.07233787 0.13994393 -0.08774612 -0.21333091 -0.045811925 0.056938156 0.107953005 -0.45186237 0.33481774 -0.12149585 -0.1658869 -0.05277949 0.2597667 -0.072165266 -0.08599029 -0.22016546 0.21941236 0.07839811 -0.09367215 -0.22633654 -0.002058061
C0527316 -0.08616201 0.01729024 -0.22991705 -0.2784262 -0.13014798 0.102413185 0.14107999 0.043579403 -0.080530606 -0.032474454 0.08194851 -0.09846549 -0.213007 -0.22444497 -0.293976 0.27029374 0.06922519 0.2586894 -0.12107005 0.3615946 -0.12779987 0.22788046 -0.091642715 -0.2259939 -0.176747 0.22434157 -0.5686651 0.25383222 0.06311495 0.08932614 0.09650684 -0.180826 -0.21018726 0.1456108 -0.08226329 -0.088446334 0.48973206 -0.04074607 0.20511904 0.106944084 -0.066711195 0.038039237 0.027178667 -0.008631406 -0.21686448 -0.1998067 -0.06778795 0.22911923 -0.20982136 -0.07997897 0.09284636 -0.32572964 -0.08485364 0.10438322 0.085975245 0.23353447 -0.008300574 -0.14280994 0.17435154 -0.32060155 0.110994846 -0.24622518 0.2122487 0.2354928 -0.09380248 0.052024905 -0.11541168 0.19818911 -0.15360911 -0.11802423 -0.1364998 -0.13280551 0.13896702 0.1409478 0.019448258 -0.03132107 -0.023330187 0.08915305 -0.18112285 -0.091707006 -0.009325706 0.2177675 -0.1739969 0.053059697 -0.13101539 -0.11154029 -0.4197357 -0.20941092 -0.0008890979 0.089301676 0.0717882 0.2157307 -0.418612 -0.34931868 -0.04469776 0.30166098 -0.04195211 -0.18550846 -0.11396521 0.056128886
C0006949 -0.10074453 -0.2919376 0.09135707 0.07813103 -0.30583912 0.0022469915 0.19121577 0.017332267 0.051610433 0.2682599 -0.1771694 0.16165109 -0.08696257 -0.1024499 -0.1045288 0.119835176 0.17011467 -0.25553548 -0.23387223 0.23777476 0.029996198 0.08177544 -0.3049964 -0.24900709 -0.4347678 0.2719 -0.15471664 -0.22172315 0.06929553 -0.073657595 0.07858261 -0.118592784 -0.0386469 -0.10304627 0.007621444 -0.016707262 0.28360692 0.093185276 0.1009569 0.589969 -0.30772096 -0.09283989 0.2130931 0.0696001 0.073792845 -0.054971587 0.2882695 0.13346921 -0.10303216 0.06593475 0.12146693 -0.17415033 0.021367475 -0.009100008 0.20714024 0.24826224 -0.04954336 0.033047166 0.2818258 -0.1590723 -0.10463649 -0.13342808 0.34665725 0.2593102 -0.006672921 0.025450854 -0.06948755 0.06150504 0.05860508 -0.05260919 -0.038722515 -0.019847345 0.10243442 0.09913295 0.07318003 0.09556449 0.21516617 0.002616616 -0.13869211 0.18526998 -0.40702385 -0.19389924 -0.27742493 0.048249952 0.51197165 0.031237558 -0.2930322 -0.10042699 -0.178737 0.27387643 -0.20651053 0.2531654 -0.060974874 -0.18309787 -0.07597353 0.17482334 0.26496026 0.10064893 -0.12141478 -0.24439336
C0025605 -0.14579602 -0.042795647 -0.030545963 0.2180955 -0.12519301 0.08681666 0.15457669 0.038567584 -0.06821345 -0.15918137 0.13275813 -0.011335309 0.1019153 -0.07069283 -0.16463697 0.391238 -0.024247658 -0.07445888 0.11871423 0.21625647 0.11622845 0.33640888 0.09220375 -0.47282416 -0.29156154 0.053839233 -0.18271156 -0.019192724 -0.111895055 0.1338427 0.032894183 -0.06052264 0.06255713 -0.37538117 -0.09020336 0.043164365 -0.028358012 0.29524648 -0.14992337 0.26836038 0.10798957 -0.06516366 0.16242804 0.23794568 0.2764676 0.08090911 0.1570004 0.0028924989 -0.18175445 0.024152005 0.3348204 -0.38222337 -0.10051234 -0.36689046 0.16680558 0.09640287 0.16731383 -0.24905197 0.011207653 -0.004395248 0.031921715 -0.23707098 0.062209327 0.10411073 0.07085785 -0.18459758 -0.12274396 0.25840512 -0.08521568 0.02822723 -0.10425572 -0.0070637567 0.22189781 0.05916953 -0.12701127 0.05274564 0.22671098 0.0044421023 0.20851567 -0.033203065 0.432881 -0.16258082 -0.29678664 -0.27539358 0.077234596 -0.2240635 0.15322214 0.06321721 -0.40943068 -0.25061652 -0.2212124 0.021202644 0.050311778 -0.026607206 -0.2723569 -0.19921795 -0.23930766 0.0375307 -0.42978236 0.09792217
C0006405 -0.023848059 -0.15989405 -0.088932954 -0.071827166 -0.04350917 0.035528716 0.3288237 0.00888991 0.20370811 -0.055853345 -0.09866297 0.17887576 0.044324268 -0.41786543 -0.24657589 0.36645788 0.16339025 -0.062443674 -0.0935755 -0.1571039 -0.08712011 0.20520619 0.04405102 -0.06956078 -0.15703037 0.005679837 -0.29132685 -0.2172142 0.030806242 0.027657693 -0.26389349 -0.04059179 -0.16192071 -0.39907566 -0.11038235 -0.032956578 -0.06901035 0.0072879232 -0.023970129 0.13810557 0.13915038 -0.16454418 0.20056047 0.22119723 0.18942899 0.10353589 0.2815211 0.16118091 -0.12888329 0.27397385 0.06419205 -0.14668618 -0.09593948 0.012342037 0.20020379 0.08722061 0.070522234 -0.3724203 0.26617125 -0.074315466 0.16843925 -0.09986034 0.0494926 0.13624485 -0.10568525 0.0317945 -0.2352372 0.26672977 0.16799285 -0.11419948 -0.006871631 0.037823446 0.26854628 0.030933842 -0.074476495 0.19738695 0.16160284 0.08121843 -0.100812204 0.025788175 0.24511628 -0.057564095 -0.15782538 -0.17669061 -0.039651968 0.13841371 -0.065915 0.047819875 -0.35521224 0.06483829 -0.3359041 -0.09658311 -0.0151943695 -0.07633039 -0.087449044 -0.0036732692 -0.18000895 0.21907979 -0.108806565 0.14815484
C0005064 -0.15752959 -0.18760692 -0.035308998 0.24707736 -0.21982417 -0.09750048 0.055838734 -0.13100587 0.0735742 0.119142525 -0.19656087 0.0669453 0.1124822 -0.35395327 0.0022792628 0.163313 -0.05173995 -0.10738033 -0.26493588 0.16828957 -0.013912083 -0.01103942 -0.29898214 0.15129484 -0.13610776 0.12518488 -0.16315755 -0.28849345 -0.09419572 -0.01582004 -0.1852596 -0.37085852 -0.09963941 -0.1782579 -0.047618344 0.030633984 0.060955014 0.15060765 0.09027166 0.21823588 -0.106383905 -0.10379641 0.237921 0.083806716 0.032198653 -0.076884314 0.14591005 0.240268 0.0029551655 0.13894662 -0.046807628 -0.20895992 -0.1893732 0.13999902 0.21941744 0.12051145 0.008502302 -0.12343113 0.13443854 -0.09158497 -0.059918646 0.031501632 0.26732314 0.020523353 -0.0020121296 -0.0529536 -0.045542523 0.3803386 -0.012597283 -0.20492508 0.13007633 0.08969393 0.087164365 0.0042789737 -0.045921493 -0.030065328 0.18473925 -0.04143701 -0.06887223 -0.05297278 0.11386198 -0.051573437 -0.30075824 -0.11369127 -0.12456869 0.15752581 -0.11668131 -0.17294535 -0.22323257 0.23417325 -0.23054618 0.043002944 0.09924966 -0.2735106 0.051006526 0.1175289 -0.19220218 -0.09596612 -0.3972019 -0.05072724
C0069751 -0.3175487 -0.062598296 -0.03364838 -0.17772137 -0.21111333 -0.12098679 0.28974727 0.06738541 -0.011749668 0.21952331 -0.43836257 0.13162602 0.06451269 -0.18997985 -0.0745235 0.026430173 0.20711617 -0.053433634 -0.11459172 0.10591574 -0.10681461 0.35248405 -0.18846902 -0.24892336 -0.71859604 -0.039762016 -0.06313328 -0.35916674 -0.083762325 -0.1348095 -0.053518407 -0.34538952 -0.2348439 -0.080875315 -0.12665538 0.095782705 0.22964817 0.087654665 0.064149745 0.23531513 -0.34984282 -0.40305474 0.19752914 -0.0052321213 -0.032884628 -0.099381074 0.16836974 0.25852275 0.250026 0.034587376 -0.026486205 -0.01546283 0.050463837 0.078674994 0.04514211 0.3571031 -0.092758596 -0.05980981 0.10204258 -0.18344091 -0.20927206 -0.14604259 0.41453683 0.1528803 -0.20083578 -0.15612519 0.049997196 0.030896021 0.114179574 -0.069952205 -0.014355778 -0.087869495 -0.21228056 0.050978452 0.2319843 -0.15252768 0.46447435 0.20878817 0.07819219 -0.015538679 -0.25079936 -0.2969517 -0.07295074 0.06848654 0.45400256 0.18793884 -0.30367038 -0.0077475263 -0.21598957 0.09619992 -0.09504293 0.16264622 0.009468728 -0.30481562 -0.2506872 0.073535755 -0.19561402 0.16068158 -0.09079206 -0.23887128
C0055891 -0.084165685 -0.3775155 -0.14952895 0.6628151 -0.16097589 -0.061470482 -0.1303135 0.34720472 0.057825845 0.11243665 -0.27852347 -0.04892332 -0.08983835 -0.3291364 -0.18696807 0.42407843 0.1768946 0.09544891 0.0076009715 0.02903505 -0.3993622 0.37716433 -0.35890874 0.10138126 -0.23610742 0.21206489 -0.1747316 -0.027886214 -0.22637725 0.29874283 -0.12969175 -0.09197054 -0.26317942 -0.17925707 -0.12619942 0.010209411 0.3359961 0.1965552 0.4067475 0.040471386 0.041445345 -0.033044394 0.21324147 0.6198355 -0.028765954 0.12899725 0.19344825 0.23001164 -0.27473736 0.3690019 -0.41217417 -0.0053557153 -0.09543813 0.11096243 0.3958536 -0.12819174 0.18900034 -0.45984817 0.21481399 -0.45892867 -0.08220103 -0.20316774 0.35886317 0.006187956 0.1745619 -0.15208511 0.42317036 0.16077346 -0.35068095 0.10132602 -0.17234893 -0.340893 0.4399086 0.22916496 0.17810185 -0.23774828 0.36175784 0.08138729 0.05316837 -0.10531246 -0.26916194 0.0190617 -0.38956484 0.32484606 0.1439551 -0.0075438395 -0.4617512 0.1314297 -0.29777867 0.25396475 -0.34577882 0.37665042 -0.28365254 -0.12609209 -0.16147879 0.21563129 -0.011484244 -0.12985533 -0.099502996 -0.32274407
C0076829 -0.19005613 -0.09534866 -0.27710447 0.43883675 -0.2842587 -0.13624048 0.011458349 0.11178993 0.16870798 0.20021713 -0.18920465 0.010365471 -0.00047670177 -0.28141516 -0.1566886 0.25134018 -0.023795845 0.0031766454 0.09885793 0.3185872 0.13721949 0.014097065 -0.12777303 -0.31092486 -0.24501815 0.15588467 -0.08051278 -0.17226823 0.105126105 0.0011529468 -0.34712064 -0.27047822 -0.21175878 -0.18652721 0.16926625 0.04558141 0.20949022 0.068589434 -0.17830311 0.17118935 0.15936512 -0.03187912 0.13088529 0.119688705 0.08828312 -0.14364164 0.33700624 -0.07938014 0.028453533 0.18371513 0.20869832 -0.08419482 -0.21714047 0.2382166 0.12076355 0.16617765 0.10021045 -0.016989654 0.20708974 -0.1825776 0.15105252 -0.13957947 0.18037322 0.2775997 -0.09901632 0.02322078 -0.10440107 0.31917298 -0.028578622 -0.047285147 0.08569204 0.0634922 0.2529895 0.035513822 -0.17178132 0.08051845 0.3124101 -0.018499458 0.15036045 0.075772814 -0.13945667 -0.018851914 -0.25849095 0.17046773 0.1520699 0.42155576 -0.13786381 -0.13408071 -0.24367374 -0.020671591 -0.18747047 -0.080372445 -0.12482669 -0.09457184 -0.04920681 0.15375331 -0.16883263 0.06001367 0.18189512 -0.17237656
C0025242 -0.020136256 -0.1985891 0.015584899 -0.03395362 -0.23604773 0.11888125 -0.029692272 -0.077038296 -0.17740318 0.02567687 -0.094166555 0.042333 -0.20254554 0.069618784 0.004947917 0.3860627 -0.1632919 -0.325772 0.006732344 0.37211424 0.002819815 0.17281188 -0.04285462 -0.1117384 -0.32195473 0.19286898 -0.20541309 0.11273921 -0.114745766 0.14563067 0.0053017596 -0.22983387 0.07715491 -0.115186624 0.12924863 -0.2948468 0.057920046 0.13565792 -0.30955276 0.18475845 0.09230317 0.17026424 0.1036193 0.17031708 -0.108933225 -0.1294872 0.2962822 0.15864985 0.07753093 0.12503226 -0.050820462 -0.21802934 -0.027948776 -0.010471689 0.19446848 0.19786598 0.38297197 -0.11619691 0.15669738 -0.06792773 -0.032303244 -0.006383923 -0.018249247 0.16811894 -0.33023098 0.11577152 0.004684233 0.4451831 -0.1830705 0.15558368 -0.10255524 0.021535235 0.0827631 0.2022163 -0.14922561 0.0991964 0.33471572 -0.47540072 0.0083486205 -0.26745054 0.24959274 -0.118856266 -0.32964414 0.12726252 -0.01734285 -0.15107472 -0.08500741 -0.09459197 -0.14774203 -0.18401197 -0.32622862 -0.05861693 -0.12322616 0.014955436 -0.44437683 0.10779103 -0.1126081 0.061571892 -0.44941568 0.20154473
C0002403 -0.19146046 -0.035751853 0.11725228 -0.024096545 -0.23098484 0.024739474 0.12570092 0.12998553 0.15151061 0.10971219 -0.55047697 -0.05612016 0.20493227 -0.027824918 -0.110723495 0.29012802 0.102309704 0.0053773094 -0.021419523 0.11931794 -0.21672915 0.06593754 0.1152856 -0.1931868 0.029842347 0.09192946 -0.37300113 -0.12280874 -0.14665677 0.26094466 -0.049624007 -0.032457188 0.2415918 -0.16905089 -0.043262802 -0.13006897 -0.21845284 0.12999989 -0.16480257 0.3228193 0.06715068 -0.058679476 -0.027956925 -0.29667932 -0.34227237 -0.2576766 0.076423004 0.26821217 0.21068105 -0.1837414 0.109186426 -0.015756048 0.19877292 0.23646969 0.104477234 0.26520315 0.053633448 -0.00719189 0.19317941 0.075163014 0.0852024 -0.12244077 0.282106 0.089811854 0.02312749 0.28220585 -0.09411375 0.18976177 -0.036202468 0.08818982 -0.07291544 -0.24647102 0.19247428 -0.102661476 0.14372468 0.38224825 0.38498783 -0.016953895 -0.14457199 -0.4853726 0.0810185 0.19063163 -0.2207198 0.31292126 -0.10845554 0.1580133 -0.41474304 -0.26206404 -0.004075686 0.00060557213 -0.18189797 0.19556499 -0.07023469 0.07064309 -0.081692345 0.18108447 -0.17824939 -0.17452167 -0.6549075 -0.07663005
C0360714 -0.055873673 0.046427015 -0.072152466 0.033679157 -0.19102784 0.34528437 -0.19760776 -0.10255291 0.14193426 -0.11853115 -0.053175453 -0.13374467 -0.4059476 -0.09249286 -0.060783062 0.053757455 0.40144596 0.044456106 -0.18257281 0.1372824 0.0073590283 0.016434036 -0.13963303 -0.07966352 -0.34420818 -0.12850307 -0.080172546 0.08772622 -0.08965156 0.10808125 -0.0729877 0.03380978 -0.14311612 -0.0054219794 -0.27371138 -0.1357292 -0.073175214 -0.08577582 0.16538067 0.29017958 0.093765356 -0.1845959 0.2334761 -0.12009136 -0.09240894 -0.05639568 -0.36860508 0.016255012 0.18923847 0.09806963 0.005457194 -0.48655844 -0.3590968 0.0463871 0.3680822 0.08867657 -0.06798713 -0.34534496 -0.1440352 -0.068751246 -0.042579003 -0.60315603 0.024490394 -0.12620217 -0.035092484 0.1014684 -0.06245058 0.19472846 0.10829079 -0.13483253 0.10577657 0.053256866 0.34057844 -0.24449044 0.22848827 0.17552288 -0.10385129 -0.11259905 -0.21028611 0.34961188 0.07961127 -0.16098973 0.26399386 -0.16974643 -0.24630845 0.010664812 -0.2668746 -0.09468 0.20551372 0.13717967 -0.22624667 0.23477136 0.025618091 0.31244975 0.1333344 -0.24354163 -0.06595253 -0.058175255 -0.048249144 -0.06764757
C0025810 -0.25916907 0.0010951523 0.30835065 0.118274 0.019477453 -0.14284939 0.098771885 -0.078120746 0.06465627 0.018965745 -0.15978922 0.1749607 0.12245259 -0.09926947 -0.12541988 0.4379729 -0.18325484 -0.39945066 0.062026206 0.35699648 -0.012012832 0.16024403 0.0048389193 -0.25829163 -0.20220803 0.15481961 -0.013370446 0.18722545 -0.20591618 0.216067 0.18811636 -0.16795626 0.23850402 -0.17516832 -0.043336947 -0.028232284 0.119092874 0.26180333 0.07802202 0.20476295 -0.04689549 -0.085484 0.33054835 0.12421135 0.051050466 0.1317417 0.1738435 0.14539501 0.023077209 0.11482175 0.056006543 -0.03846432 0.43586946 -0.052855346 -0.17204863 0.2578865 0.3629869 -0.07886449 0.107353166 0.024396023 -0.26922315 -0.5293505 0.18132593 0.17355366 0.053081147 -0.14313354 -0.07824664 0.36672607 -0.1981873 0.0035414572 0.0065405103 -0.06196432 0.12267757 0.16347446 0.18188836 0.115212366 0.17170912 -0.19858028 0.13649152 -0.20079088 0.18644615 0.10884888 -0.010247986 0.09887223 0.15276368 -0.17801633 -0.36839432 -0.013846913 0.09591293 -0.118053 -0.49236283 0.16852601 -0.15196583 0.16648927 -0.0053206366 0.1599467 -0.02000281 -0.22121873 -0.5984743 0.20803517
C0001962 0.22396532 0.029869491 0.11001826 -0.12852259 0.06898756 0.13957778 -0.12080591 -0.262974 0.23938175 -0.1660173 -0.12772994 0.1197255 -0.17934717 -0.30247283 0.2605408 0.4076643 0.035869494 0.22103031 -0.25206646 0.054900706 0.027842378 0.27214026 -0.031222504 0.07917173 -0.30247617 -0.15768152 -0.0041705044 -0.26903516 -0.1794932 0.06436822 -0.28197655 -0.14113756 -0.22801438 0.09582151 -0.023122812 -0.05174652 -0.027897466 -0.08493246 0.08089083 0.07346602 -0.034994587 -0.15734832 -0.1727379 0.05150961 -0.22653835 0.16138035 -0.18343101 -0.15009338 0.19912796 0.027928177 0.3660119 -0.39893547 -0.279881 -0.22128218 -0.24449421 0.4175132 0.04027039 -0.21844837 0.16191553 -0.22678587 -0.0042757485 0.041602116 -0.22671421 0.26549083 -0.33910292 -0.20332626 0.29953757 0.67107385 -0.17886534 -0.14464284 -0.09029568 -0.154188 0.042953122 -0.038314838 -0.32248306 0.057005327 0.15896931 0.023321703 -0.14879535 0.03879083 -0.2459945 -0.15502362 -0.03297517 0.18815726 0.0122409705 0.04046904 -0.2872922 0.06000097 0.0058155125 -0.3500742 -0.22630808 0.15502486 0.0018063615 -0.22296143 -0.1499347 0.22110464 -0.4086393 0.12544428 -0.40608197 -0.19867463
C0031507 -0.10229918 -0.06881105 -0.11463765 0.44067132 -0.1596263 -0.04777036 -0.28147334 0.047156397 0.097281575 0.25225118 -0.026539516 0.029099392 -0.00275578 -0.33274922 -0.13038649 0.1854072 0.1775346 -0.19400899 -0.01578423 0.011548832 -0.070423216 0.12512004 -0.019229863 0.20265627 -0.13731629 0.38984367 -0.007958741 -0.18750334 -0.13890773 -0.05531547 -0.20280267 -0.3176452 -0.18923816 -0.12731385 -0.060016327 -0.21454963 0.3553313 0.44625187 0.12780423 0.0678016 0.1209951 -0.13471885 0.03172432 0.2854574 0.15210602 -0.20075099 0.23262793 0.32287413 -0.09156008 0.15768701 -0.10770752 -0.3181878 -0.08335202 0.0001806443 0.17499585 0.14926429 0.02724625 -0.11937165 -0.04342651 -0.2363165 -0.28970245 0.07928198 0.71447015 0.10415391 -0.0595525 -0.10845451 -0.061085325 0.35288918 -0.26954466 -0.12186618 -0.1625434 0.252822 0.1711536 -0.12468615 -0.1022228 0.024815496 0.07006897 0.056830905 0.06831492 0.016055398 0.042176396 0.07628408 -0.012562574 -0.10301175 -0.036581106 0.42798084 0.11831154 -0.24316381 -0.20556767 -0.025462586 -0.046296716 -0.020373765 0.021108558 -0.2769319 -0.011859524 0.25681996 -0.033073604 0.01022547 -0.31191093 0.1619513
C0009079 -0.22429185 -0.23837624 -0.027150659 0.12739888 -0.0039031317 -0.13853009 0.086881146 -0.01762297 0.10331502 0.12504613 -0.06969732 0.0014698596 -0.18218057 -0.12146343 -0.021276955 0.2438059 -0.022453753 -0.087962605 -0.27822286 0.1609041 -0.25893563 0.21564126 -0.29445508 -0.18197544 -0.16846053 -0.06035256 -0.48044327 0.0034450013 -0.18326618 0.11174293 -0.004051841 -0.07434599 -0.11335818 -0.14590864 0.05295511 -0.010255055 0.38355 0.17564847 0.10558733 0.111808546 -0.12036233 0.09713298 -0.001851209 0.08046944 -0.042492032 0.03363295 0.21322162 -0.021169886 -0.10299287 0.019409975 -0.024042422 -0.09026908 -0.3513089 0.14098334 0.2086594 -0.12598355 0.12180793 -0.37338203 0.06545367 -0.4082025 0.3247017 -0.16675869 0.19851641 0.035427053 -0.141627 -0.20737098 0.04938885 0.12633534 -0.030103914 0.19476599 0.046569463 -0.033125237 0.17606859 0.14698096 0.13586071 -0.07289958 0.28987727 -0.061870072 -0.05558705 -0.06575603 -0.07656031 0.20216829 -0.30686882 0.087377295 0.11383833 0.07413059 -0.3570124 -0.036297243 -0.26932472 0.25760594 -0.2508333 0.23860277 -0.3557718 -0.1258316 0.044662744 0.17732722 -0.0032895033 0.02934905 -0.21231186 0.0062314337
C0016365 -0.28753802 -0.09065265 0.16175666 0.13174754 0.16028498 0.28125206 0.023832213 -0.05489931 0.18136647 -0.0884031 0.08287118 0.10821934 -0.13275862 -0.497454 -0.033719435 0.4025244 -0.2587911 0.14197394 0.08513552 0.27262577 -0.110831775 -0.11729295 -0.2933273 -0.057259806 -0.22492494 0.17251372 -0.22855194 0.11083538 0.02294968 0.051372405 0.28486803 -0.13211387 0.14509891 0.0061597666 0.121072866 0.038095128 0.044409662 0.088053696 -0.06762778 -0.16376776 -0.23732994 -0.27293187 -0.094631515 -0.069476984 -0.20594947 0.058552727 0.0672847 -0.011888336 0.12536359 -0.093503445 0.07633191 -0.30887055 0.09643579 0.0798079 0.1243325 -0.2175153 0.16675188 -0.16114588 0.33115134 -0.22732389 -0.07729494 0.21358992 0.107853726 0.15865393 0.18920687 -0.16690853 0.039739262 0.46267483 -0.22159608 0.1290352 0.050196394 0.046382297 -0.14273222 -0.0433574 0.16503727 -0.309473 0.10612205 0.08793241 -0.03412254 0.013776488 -0.03542468 0.1465072 0.050815735 -0.18649174 0.35379544 0.2760765 -0.02230373 -0.27571088 0.005069013 0.15620786 -0.096226156 -0.2581326 -0.0019103307 0.008986282 -0.56486964 0.19096984 -0.121031255 0.21597376 -0.436409 0.02671558
C0002144 -0.07231305 0.112446986 0.038166955 0.18465598 -0.2357965 0.2826976 -0.23093347 0.095942415 0.33982244 0.37755188 0.021830313 -0.40527242 -0.19745058 -0.35680974 0.025752207 -0.0011807926 0.2834454 0.5544556 0.007705275 -0.1987732 0.5559641 -0.06481629 -0.09668669 -0.009968128 -0.52556294 -0.19302672 -0.6901956 -0.21638413 -0.17935571 0.13250645 0.22577526 -0.7261582 -0.16917652 0.23108467 -0.35816312 0.15743865 0.45553446 0.07924412 -0.023060873 -0.2319691 0.40005714 0.499072 0.10117854 -0.07287449 -0.14931002 0.20427424 0.3529733 -0.10507693 0.35473484 -0.08414618 -0.09527042 -0.09844539 0.24762864 0.02977174 0.096372105 0.036742035 0.52477515 -0.07304244 0.25271037 0.03210709 -0.33632094 -0.42255747 0.3052757 0.098402515 0.046293437 0.27567795 -0.23386934 0.21683654 0.15362161 0.0785533 -0.46905208 -0.54817474 0.16350502 0.20140125 -0.44268662 0.34436822 0.41776335 0.26713976 0.20566826 0.49949384 -0.1408061 -0.18677676 0.13481812 0.2531674 0.08969645 -0.19730273 -0.3268155 0.16432779 -0.026959877 -0.09930306 -0.29190597 0.47088674 -0.037462905 -0.15301476 -0.06287472 0.007969761 0.48015177 -0.17539324 0.19367133 0.15834936
C0033497 -0.23364851 0.06215261 0.094303265 0.48492676 -0.058669217 0.33355737 0.015497768 0.17223436 -0.25624478 -0.07761695 -0.33536407 0.037083797 0.009274418 -0.23793653 0.16833499 0.17804809 -0.0153230345 -0.03598079 -0.021231566 0.20479748 0.00087113783 0.21105537 -0.24011266 0.13832422 -0.08933818 -0.16996568 -0.14858666 0.1037516 -0.120928526 -0.08768765 -0.49605072 -0.17929073 -0.12868308 0.14736578 -0.36593026 0.30570704 -0.3166459 -0.035847284 0.24515606 0.19172332 -0.28329247 0.028127149 0.10386446 -0.19591697 0.20771676 -0.04185165 0.28214648 0.24640736 0.13820677 -0.16594148 -0.08151722 -0.12796092 -0.10918429 -0.093845256 0.014182734 -0.08116156 0.21247369 -0.3008727 0.44062352 0.00036466733 0.077166304 -0.3197947 -0.05606209 0.14614707 -0.14291602 -0.109287776 0.053524904 0.35402685 -0.16232722 -0.2675303 -0.1247102 0.15470593 0.21755077 -0.050059862 0.1531571 -0.23907952 0.29585007 -0.01938382 -0.05437597 0.16079608 0.22924535 0.26462188 -0.4121339 -0.16400456 0.14489956 0.30200744 -0.30975285 -0.020339731 -0.04412354 -0.029197516 0.055438984 0.09747061 -0.22125812 -0.030972753 0.0065335697 0.219025 -0.12590645 0.11390607 -0.25402862 0.08426174
C0014939 -0.07883402 -0.10840037 0.050046783 0.032691855 0.21625286 0.094456755 -0.05614482 -0.03086127 0.37172574 -0.066344514 -0.07704917 -0.03109417 -0.3308612 -0.13777417 -0.19412768 0.052888297 -0.18318167 -0.06758041 0.067677155 0.3193583 -0.09604264 -0.25132823 -0.0002247506 0.21132936 -0.11190978 0.43663475 -0.0068000345 0.017329298 -0.2040934 0.021144094 -0.32942474 -0.1278046 -0.2445812 -0.07085433 -0.19963822 -0.2742582 -0.10466421 0.13218617 0.040987875 -0.019018013 0.045850728 -0.41437316 0.090826936 0.04590599 0.024103703 -0.120128244 0.15259168 -0.16752745 0.10483539 -0.07305667 0.04908468 -0.26247466 -0.36515993 -0.3413032 -0.10929643 0.07305213 0.05389711 -0.046584047 0.1876132 -0.07676121 -0.07799556 0.033160314 0.41039065 0.043048497 0.016327932 0.3659291 0.054660995 0.047499582 0.00367326 0.1030548 0.026343394 -0.009101761 -0.15683594 0.07079923 0.2303075 0.13916507 0.30216315 -0.034058116 -0.030281266 0.4907978 -0.08133668 0.13880502 -0.07972644 -0.18983655 -0.084507205 -0.017073162 -0.17123578 -0.18299863 -0.122744225 0.016608434 -0.39699575 -0.29161763 -0.11422533 -0.23721348 0.05367216 0.17829004 -0.037318654 0.038031388 -0.15623634 0.08674328
C0009014 0.112928234 -0.050893657 0.21382168 -0.07510224 0.09149257 0.17313555 0.105912544 -0.11695222 0.10036671 -0.19036964 -0.19613658 0.18071029 0.025166072 -0.1589626 -0.13026549 0.09901263 -0.0069864574 0.22037226 -0.12004346 0.13756181 0.20018847 0.22030862 -0.19381239 0.029563056 -0.09630225 0.16581164 -0.18221778 0.20677166 -0.3045224 0.07020221 -0.14893417 -0.32331952 -0.21973194 -0.018057326 -0.17548251 0.11292257 -0.18884502 -0.12530255 -0.08954729 -0.1972698 -0.046255708 0.016274327 0.051618524 0.16487819 0.15807109 -0.13928646 0.17770347 -0.06231733 0.06459977 0.14378528 0.12222788 -0.24960786 -0.08239878 -0.1655076 -0.032665826 0.14721034 -0.1495708 -0.345125 0.16745259 -0.44239238 -0.2204976 -0.072944745 -0.027853083 0.3816669 0.16276692 0.085079335 -0.19701482 0.18212637 0.09090978 -0.465336 -0.08166056 -0.10811145 0.41797104 0.034824837 0.44146264 -0.07124654 0.100491606 0.16313618 0.35415217 0.061994247 0.18125796 -0.34098682 -0.40129134 0.05312675 0.05463755 0.21910858 -0.10872176 0.09403634 -0.08306973 -0.14238498 -0.07423523 0.3688415 0.15822567 0.4830014 0.16726941 0.40590927 -0.46598503 -0.10297992 -0.33607444 -0.039923012
C0012010 -0.30045602 -0.3085951 -0.23341483 -0.038186725 -0.020207219 0.23918566 0.53725904 -0.08323631 -0.22193019 0.3043112 0.035077173 0.2587106 0.18866925 -0.28158826 -0.10860274 0.26719674 0.20331502 -0.0051202523 0.26759192 0.41634804 -0.2144899 -0.060428187 -0.041921478 -0.14070748 -0.5748444 -0.31739846 -0.020533372 -0.36337656 -0.40524364 0.20509775 -0.2900417 -0.14049497 -0.26040673 -0.01858138 -0.24025947 0.040448852 -0.02386218 -0.33299658 0.0012606207 -0.04055889 -0.0437615 -0.12410549 0.22928652 0.06442414 0.17990582 0.08934329 0.2576771 0.08146648 0.18485722 -0.1677851 0.019494014 0.06932294 -0.091770485 -0.31820622 -0.124144904 -0.035631906 0.005321956 -0.17268904 -0.16138598 0.15225784 0.025149567 -0.16475856 0.3558778 -0.15780166 0.09844101 -0.21511437 0.008845142 0.32818758 0.08889673 0.05978238 0.06795752 -0.15867418 0.083573766 -0.01467355 -0.021894861 -0.32780904 0.21137442 -0.16365626 0.026864022 -0.16221578 -0.2935834 0.03355209 -0.45054603 -0.09232628 0.2341181 0.22679219 -0.2057202 0.30869395 -0.17569579 0.4196593 -0.15618408 0.3727875 0.15502039 -0.20520799 -0.13139328 -0.08106914 -0.16477339 0.20420192 -0.50856 0.25426194
C0084572 -0.25517258 0.16783695 -0.33427623 -0.09696418 0.012917349 -0.16383077 0.13311158 0.26605055 0.14797018 0.05551684 0.05235277 -0.07618121 -0.2545213 -0.17970774 -0.44832185 0.19699416 0.0080660125 0.22553644 0.15740201 0.14066868 -0.20452997 -0.12435739 0.3735953 0.0125578325 -0.07109287 0.4992147 -0.34823018 -0.050584182 0.21595372 0.14489983 0.13126124 -0.43777442 -0.20965475 0.03916302 -0.14591701 -0.09763324 0.2721507 -0.05770199 0.31671315 -0.04006477 -0.03331042 -0.35290417 0.27790362 0.04723761 0.022330219 -0.08245738 0.057266895 0.25608015 -0.005260633 -0.07139482 0.1628075 -0.22004545 -0.086672135 -0.087203704 0.22069621 -0.023958374 0.26828566 -0.13815917 0.15179607 -0.199358 -0.064228415 -0.15976143 0.13155375 0.2575447 -0.37671822 -0.12435262 -0.2576766 0.050887153 0.1527141 -0.20242871 -0.15046227 0.012641925 -0.13695496 0.26525623 0.232615 0.14170022 0.16745487 0.09185502 -0.4743639 0.19995634 -0.017678155 0.34288532 -0.26316193 0.016127588 -0.13380569 -0.14885905 -0.17519593 -0.12239399 -0.08682298 0.12961985 0.053854268 0.0012975613 -0.23875953 -0.33732834 -0.0027193516 0.18651748 -0.044812128 -0.052543763 -0.22921336 0.13422745
C0171023 -0.3642626 -0.18139543 0.1259709 -0.10809551 -0.07394923 0.043802842 0.21508816 -0.037290946 0.09746438 0.16584449 -0.22140832 -0.03553191 -0.061402794 -0.10571556 -0.24223688 0.16045538 0.03181061 0.046915893 -0.32977703 0.23476659 0.10075946 0.1335216 -0.36535522 -0.13731857 -0.25265774 -0.09719839 -0.26492018 0.017450115 -0.18853012 0.11351486 0.17979552 -0.46322113 0.18406501 -0.091219746 0.081048064 -0.0028510292 0.30696225 -0.03074466 -0.11970891 0.29783195 -0.2189026 0.022739002 -0.111699015 -0.124432005 -0.12206601 0.042498708 0.22354873 -0.003906663 0.011880239 0.06405178 0.19925718 -0.20178036 -0.007466655 0.09778674 -0.022978991 0.15886046 -0.007560889 -0.28970674 0.1764683 -0.38236275 0.2097409 -0.13693513 0.25200763 0.03910385 -0.1380189 -0.054181997 0.0051365937 0.1510707 0.13350725 0.17707218 -0.09823088 0.0017673394 -0.0033893813 -0.15110861 0.105456345 0.030679822 0.1713064 0.093554206 -0.059642453 0.06311531 0.014968784 -0.020825014 -0.2582573 0.07505987 0.26963112 0.09901177 -0.3916424 -0.08673322 -0.059009273 0.22555652 -0.2784518 0.1700358 -0.19320746 -0.31842673 0.15707535 0.3975649 -0.060475968 -0.03216392 -0.28522757 -0.111992516
C0038807 -0.14255676 -0.2976404 -0.216785 0.11112433 -0.59017164 -0.100497276 -0.14743067 0.2539663 0.27479148 -0.052109264 -0.16628037 -0.3116292 0.28147322 -0.29066402 -0.26446295 0.31360564 0.5002539 0.22066644 0.36807665 0.14265132 -0.06867147 0.13474514 -0.41348445 -0.5214024 -0.60487396 0.14196654 -0.055773824 -0.26321346 -0.03950476 0.14261174 0.024460169 -0.9767803 -0.4773192 -0.28947815 -0.25376067 -0.029551769 0.52126116 0.56888163 0.20565847 0.30044383 0.18754594 -0.46248728 0.12555489 0.27526957 0.010130436 -0.23072259 0.18846737 -0.33682454 -0.08720901 -0.13675448 -0.40212417 0.37089592 0.15863729 -0.2948197 0.06793181 0.12010484 0.023588583 -0.5028237 -0.15665747 -0.5623479 -0.40820307 -0.43011847 0.43351617 0.09763439 -0.13881184 -0.2329671 0.3979921 0.26551765 0.10159446 0.050661944 -0.34668854 -0.56667256 0.25740713 -0.13090904 0.6626241 -0.21494004 0.5542392 0.16184199 0.37210563 -0.054922722 0.16073142 -0.37918907 -0.23506713 0.20428437 0.0054291673 0.60899454 -0.62640536 0.38706785 -0.21637096 -0.32649335 -0.008486172 -0.036475215 -0.0047209547 -0.041762896 -0.30607632 0.06277081 -0.18762125 -0.015299846 0.31339645 0.0124859335
C0039601 -0.04422261 0.08992181 -0.12510712 0.2586287 0.08089836 -0.20332357 -0.017089054 0.14531067 0.26478446 0.025734639 0.023304574 0.08027738 -0.34836078 -0.007364775 -0.08238548 0.29996333 0.068801194 0.35352528 -0.11570766 0.11650887 0.07762089 -0.05482144 0.18033491 0.0044060894 0.061294038 0.33080903 0.050139997 0.097013034 -0.28039616 0.54182565 -0.037046652 -0.1246935 -0.14759225 0.16225673 -0.09074413 -0.33209246 0.116628155 0.14271323 -0.17409463 0.016437886 -0.036714744 0.04074638 0.09553164 -0.049611263 0.10412563 -0.16727847 0.032568052 0.2039008 0.15745337 -0.1985257 -0.09041855 -0.36703765 -0.07449304 -0.12747763 -0.014001361 0.4805782 -0.04507963 -0.17107114 0.15302637 0.021278724 0.016532315 -0.3516745 0.5023837 0.19845863 0.1301744 0.023024363 0.027456053 0.18985932 0.11331493 -0.029371614 -0.059536822 0.054654434 -0.03141587 0.13534437 0.29518467 0.07415018 0.0019334727 0.12212211 -0.29189178 0.05115815 0.015169681 0.13793507 -0.0426964 -0.39886215 0.010850442 0.10489768 -0.0652478 0.17015515 -0.14163662 0.11009765 -0.17574006 -0.1663224 -0.15436639 -0.2429785 -0.030540504 -0.15330756 -0.17460279 -0.03065063 -0.012439783 0.07133477
C0076823 -0.30690536 -0.054025307 0.062432125 0.21547237 -0.1646014 0.19198625 0.20472315 -0.06583343 0.059813417 -0.2047133 -0.009555535 0.019565 0.27851102 -0.049719766 -0.13008459 0.26512328 0.13142262 0.12478984 0.066074245 0.22780007 -0.020654589 0.20483126 -0.004398118 -0.15786435 -0.20713271 -0.14363031 0.052291177 0.016682418 0.21109954 0.10795054 0.3826516 0.18610597 0.368045 -0.2125764 -0.119218096 -0.21125193 -0.0067673116 0.0068182037 0.034272783 0.16976841 0.027839607 -0.06914298 0.22323148 0.029146265 -0.042050235 -0.12342391 0.35493347 0.19017705 -0.01395496 -0.32029566 0.3107028 -0.3124146 -0.16420624 -0.12077115 0.37345952 -0.045726024 0.120831996 -0.20562933 0.014456941 -0.3226046 0.16320913 -0.20781294 0.3592326 -0.011606202 0.0824595 0.07108207 0.0720313 0.61482924 -0.058729477 0.08306342 -0.21656908 0.20526272 0.14662269 -0.05727556 0.08097215 -0.089582644 0.41704205 0.57685906 -0.0024135504 -0.2531092 0.21157603 0.1301834 -0.12913227 0.06040536 -0.17918026 0.09377601 -0.18456921 0.28245217 -0.27775848 -0.2436745 -0.24806333 -0.17176099 -0.035724323 0.026833858 -0.22070214 0.17630057 -0.049899682 0.29577577 -0.40248957 -0.1117801
C0013136 -0.07361573 -0.19705935 0.27589938 -0.121376686 -0.033912655 0.05449854 0.065019555 -0.115637474 -0.26913676 0.10990521 -0.32402703 0.32677266 0.05628553 -0.08995552 0.06291177 -0.16577296 -0.019601606 0.006714777 0.2540649 -0.051095348 0.11219424 -0.10047542 0.10291336 0.036329485 -0.18070818 -0.2033392 -0.37012112 0.0058067986 -0.17401691 0.46038908 -0.24154736 -0.36111006 -0.22067067 0.048023015 0.040808495 0.26994666 0.025277095 -0.068304464 0.24677286 -0.085335776 -0.009001448 -0.43245032 0.17301494 0.073852465 0.28173032 0.066366635 0.016486553 0.086696 -0.077204145 0.090068266 0.04123689 -0.18060179 -0.033076327 -0.16799372 -0.0026733554 0.22837605 -0.06383781 -0.30147812 0.0050533917 -0.34248886 0.07914515 0.038009625 0.013499928 0.13965969 0.047827657 -0.2634728 0.01959768 0.10083707 -0.075324476 -0.27434748 -0.2119322 -0.040732536 0.2627248 0.042045202 0.18775809 0.06480775 0.22736718 0.27288246 0.04960711 -0.09891625 0.03261064 -0.24099128 -0.37585464 0.21798177 -0.0023348525 0.08178357 -0.03693189 -0.1223793 -0.20630777 0.09359538 -0.48414117 0.040182244 0.29073235 -0.059793714 -0.027842192 0.20629317 -0.47299007 0.11449899 -0.29501927 -0.012586953
C0064636 -0.30958295 -0.18148138 -0.084652975 0.19210534 -0.22071996 0.13400356 0.023729254 0.02729429 -0.050147112 0.11965467 -0.17675893 -0.05269564 0.3108525 -0.09076944 -0.06362205 0.31124353 0.30395132 -0.17303826 -0.016646521 0.014086256 -0.01804845 -0.048890103 -0.16220586 -0.07723099 -0.21014762 0.044995874 -0.08860325 -0.11897203 0.09578623 -0.16422917 -0.1719828 -0.32387042 -0.13450742 -0.34642765 -0.09802801 -0.082389355 0.16465849 0.099918924 -0.044240616 0.107299596 -0.027703144 -0.04527048 0.14349616 -0.0013418637 0.18442242 -0.3321838 0.37219974 0.16156232 -0.048150863 0.230692 -0.16911426 -0.29503712 -0.05052906 0.021218348 0.24921015 -0.08721777 -0.019324372 -0.14568783 0.1675611 -0.11726126 0.04010192 -0.016340163 0.31575045 0.1563208 -0.26298332 0.10277702 0.06348913 0.34958082 -0.2156628 -0.09453766 -0.07763908 0.18582597 0.08821249 0.25904858 0.04470386 0.14329368 0.3030426 -0.026768893 0.03320996 0.08141395 0.17531523 -0.057865776 -0.036574103 0.062186502 0.11158974 0.22594975 -0.012961599 -0.028443556 -0.3170144 -0.14205526 -0.27808404 -0.07790954 -0.3990714 -0.0151307285 -0.20222461 -0.045623936 -0.012407843 -0.077822864 -0.25840005 0.094348915
C0002600 -0.02444122 -0.17769378 0.015387936 0.13514261 -0.079865016 -0.20161732 0.078921385 0.0836506 -0.26943693 0.147214 -0.20839675 0.16474216 0.10456105 -0.7199228 0.07566991 0.15233773 0.16192825 0.3123203 0.022997612 0.061031494 0.13856156 0.0030420192 -0.26512977 -0.2648191 -0.36107948 0.1896281 -0.36595345 0.17593862 -0.21629825 0.4169254 0.2168777 -0.2598095 0.21033081 0.025620911 0.07371051 0.0058499267 -0.042020593 -0.3169649 0.09481547 -0.002333555 0.0031905395 -0.26815596 -0.037753213 -0.12524156 0.060966372 0.49470496 0.31238833 -0.25061437 -0.16287345 -0.15184228 -0.018975664 -0.4176638 -0.06286424 0.053177465 0.13507925 0.05874517 -0.17944874 -0.13229756 0.17866468 -0.037398435 0.09004371 0.022850327 0.35676882 0.20747215 -0.07497031 0.039362635 -0.037366107 0.431043 -0.046331987 -0.15582743 0.040296815 0.1837 0.3023013 0.031580474 0.16218488 0.111360066 0.005739296 0.061170816 0.21907774 -0.016104452 -0.19980806 0.13150574 -0.19376998 0.12519713 0.122211 0.11003455 0.04649072 -0.086333685 0.08484042 -0.04224276 -0.041220978 -0.027339643 0.1828947 0.10882592 -0.029493395 0.2785631 -0.29901728 0.27562124 -0.12158194 0.1407991
C0068897 0.034709655 -0.16795656 0.057539742 0.06810937 -0.40198436 -0.35372573 -0.045670815 0.21018702 -0.0873563 0.028637324 -0.21415366 0.08423626 0.09684813 0.07328265 -0.2382542 0.4071724 0.019186025 -0.096493155 -0.060510356 0.2165643 0.14925429 0.27975804 -0.35563403 0.026998477 -0.19002934 0.23829821 -0.031179862 0.18633235 -0.18892215 0.011620657 -0.08157001 -0.037602372 -0.28340465 0.096315816 -0.25691646 -0.17905973 -0.03647222 -0.08217157 0.15859675 0.24101587 -0.22011168 -0.40634537 0.07595662 0.69420934 -0.18896241 -0.049962662 0.21485548 -0.030699873 0.33907953 0.17798768 -0.27763712 -0.16104655 0.19106516 0.2253507 0.21410985 0.1687018 0.19519024 -0.3177902 0.23368372 -0.050300896 -0.18001084 0.16502859 0.5066488 0.031337224 0.029955255 -0.14998618 -0.01836781 0.5807558 -0.5055059 0.024347173 -0.13892631 0.20666175 -0.08602176 0.16683933 -0.18134801 0.11840925 0.2254865 0.31795856 0.09238178 0.032783113 -0.18679275 -0.12872805 -0.21761982 -0.02223929 -0.048220836 0.027774181 -0.5365719 0.133668 -0.24827619 0.08123474 0.1985609 0.3272925 -0.16603352 0.0488982 -0.5093698 -0.11713214 -0.0122552235 0.04056058 -0.13540524 -0.2879732
C0001883 -0.3791655 0.24687396 0.10616559 0.27345467 -0.047206093 0.186052 0.51818615 -0.5223571 0.21694258 0.33106017 0.10627554 -0.11044758 -0.19260578 0.05876876 0.09237258 0.09345818 0.1215238 -0.020406045 0.3982903 -0.015450353 -0.39269447 -0.3056502 -0.24495871 -0.07411302 0.13917972 0.3493253 0.3640265 -0.08575217 -0.14534587 -0.058065724 -0.18704186 -0.5145825 -0.004893056 0.00966788 -0.055705976 0.20779355 -0.30505207 -0.26837426 0.4006236 -0.25083452 0.04673834 0.5580915 -0.2596892 0.27616468 0.08619901 0.18868218 0.1809728 -0.22965491 -0.44812652 0.18751697 -0.15820803 0.0452205 -0.10618057 0.20167662 0.09696251 0.40311882 0.25196013 -0.20144211 0.28769937 -0.42473242 -0.18111573 -0.31208342 0.20905583 0.076207004 0.24000938 -0.04902988 -0.15254152 -0.027930375 -0.12536553 0.34024045 -0.47993797 0.1722393 -0.042669866 0.18602005 -0.14840807 0.36672902 0.35676178 0.08841021 -0.20850405 -0.04444272 0.07071814 0.24153972 -0.034150876 -0.026538536 -0.33066565 -0.2748118 -0.45772943 -0.271385 0.1042994 0.67309374 -0.16816278 -0.20395885 0.47031558 -0.08796959 -0.045059294 -0.18315974 -0.13680041 -0.009475172 -0.15556532 -0.058982436
C0065864 -0.20502976 0.08531603 -0.21058561 0.24702443 -0.2266823 -0.10293455 0.19929485 -0.23988985 0.41133493 -0.15321651 -0.11718068 -0.18223423 -0.13678192 -0.17806464 0.041247237 -0.020468833 -0.37054777 -0.3849752 0.17911811 0.23066244 -0.26359203 0.3044458 -0.294455 0.061191123 0.13737658 -0.14049168 0.027888162 -0.3316837 -0.16934161 -0.03769069 -0.01010151 -0.3542293 -0.048034612 0.28240833 -0.08289896 -0.20978059 -0.081934534 -0.1576621 0.17756893 -0.49558267 -0.20144208 0.36582887 -0.3942857 0.02870179 0.22412223 0.1113726 0.46032584 0.0875301 -0.043203197 0.09642292 0.2824239 0.03300248 -0.18499817 -0.12292566 -0.2708109 0.29425922 -0.033738 0.042307794 -0.15111332 -0.11506191 -0.0910992 -0.28341857 0.2697899 0.26659235 -0.33986425 0.12880842 -0.107511565 0.03116362 -0.013642752 0.3367271 -0.1732768 0.04274777 0.067559205 0.12535238 0.30935124 0.25382882 0.31979725 0.15288034 -0.13335563 0.26390192 -0.21933372 -0.017325599 0.091459006 -0.38026425 -0.18632384 -0.07161356 -0.16914137 -0.370389 -0.12847996 0.22569641 -0.44701964 -0.08088063 -0.03685722 0.026750036 -0.043666434 -0.16406603 -0.17956829 -0.15525548 -0.05089189 0.033580076
C0001617 -0.45923406 0.26275888 0.009532033 0.036939565 -0.096591845 0.035696723 -0.07959617 -0.14606732 0.25682542 -0.015986199 -0.013234678 0.08730155 -0.27694136 -0.15632267 0.28745076 0.05311002 -0.0076195765 -0.08363578 -0.25547573 -0.16620235 0.14310348 -0.18243922 -0.15952364 -0.24725856 -0.07718295 -0.08924097 -0.21199797 0.025126308 -0.067164734 0.108836554 -0.34421295 -0.28054142 -0.16299663 0.18712305 0.09012188 -0.16783771 -0.4071889 -0.21383819 -0.17458603 -0.14542349 0.13258278 0.19492152 -0.06897041 0.018378422 -0.007222702 0.063549094 0.03546682 -0.0002910156 -0.121777855 -0.11587781 0.10556592 -0.20753807 0.01635238 -0.09489454 0.26397276 0.21838908 -0.036635224 -0.19290473 0.20599031 -0.08348632 0.07466766 -0.3451191 0.34066087 0.11987617 -0.20006205 -0.015459871 -0.12778212 -0.30389157 -0.28017145 0.11406018 -0.24773367 -0.23187909 0.27119103 -0.0308689 0.01396973 0.23180297 0.11703448 0.16061571 -0.09402627 -0.111218005 -0.20815878 -0.113222554 -0.06729814 -0.19663562 -0.40491197 -0.14357461 -0.050916057 -0.10078524 -0.07590865 0.16416486 -0.06747913 -0.077861965 0.14949559 -0.07735161 0.015474141 -0.20121264 0.21395129 -0.10232566 -0.1276578 0.0761247
C0040233 -0.1433098 0.059970226 0.55013007 0.13692501 -0.3759431 0.021052204 0.7111545 -0.2817569 0.5286545 0.36752933 -0.06500822 0.47138396 -0.29744133 -0.26759306 0.045444395 0.09191458 0.2084198 0.19367026 0.3171935 0.18009037 -0.13643688 -0.34412506 -0.26392373 -0.23925799 -0.023040801 0.21500356 0.2062165 -0.26561642 -0.5322973 0.17275931 -0.11409873 -0.25995517 -0.36639357 -0.43554795 -0.07118197 0.017525727 -0.3894541 -0.05021549 0.42435977 -0.09740275 0.08000478 0.5534567 -0.36837396 0.28781882 0.05553539 0.13469566 0.12526354 -0.21486361 -0.4322607 0.35900515 -0.25690904 0.03346875 0.09649369 -0.019270219 0.101044305 0.2054299 0.3410125 -0.098095454 -0.19376636 -0.18464163 -0.33090284 -0.37312615 -0.17933498 0.26821283 0.19880581 -0.07032845 -0.27742767 0.05772789 0.59678 0.33312222 -0.57239354 -0.50725424 -0.4744186 -0.23466113 -0.072862536 -0.051985778 0.034643516 0.17964453 -0.121065326 0.07797209 0.1809908 0.6364258 -0.41451123 0.1759011 0.09397407 -0.035783846 -0.23038423 -0.25494516 0.017633695 0.48063573 -0.24888061 -0.42567295 0.11935486 0.111341216 -0.7442304 -0.15628673 -0.50384146 0.048791703 -0.09131249 0.018605394
C0055147 -0.21141884 0.22219206 0.37981054 0.06740918 -0.06370156 0.3397926 0.35913822 -0.10565465 -0.25128382 0.37417835 0.12815529 -0.031112878 -0.0039463853 0.095962696 0.092070974 -0.004230453 0.07776633 -0.16423333 0.22695917 0.033208214 -0.3512512 0.0067780484 -0.27246276 -0.31436104 -0.11362474 -0.17912303 -0.2161029 -0.113404535 -0.09318343 -0.08105069 -0.068387434 -0.32154828 -0.007832815 -0.17835103 -0.022906102 0.4987565 -0.030710964 -0.103552446 0.085385814 0.0365113 0.026534194 -0.04491204 -0.12961347 -0.07380969 0.19740075 -0.15602355 0.07751803 -0.3163604 -0.090474375 -0.04225373 -0.112441234 -0.16607128 -0.11244882 -0.016462155 -0.332881 0.45009127 0.40342012 -0.0038412805 -0.10259047 -0.2954456 0.029416673 -0.16660106 0.11897434 0.3020304 -0.08955092 -0.39812025 -0.5405931 0.07329617 -0.44879824 0.05098706 -0.44752768 0.1749943 -0.012272878 0.08805618 -0.008041721 0.12331441 0.5466202 -0.12858145 -0.18498625 -0.3042053 -0.19814187 0.3159985 -0.23350415 -0.14145622 -0.50409657 0.2636717 0.02977551 -0.17744742 -0.21962136 0.5864756 -0.12844712 -0.121692255 0.64063394 -0.14368488 -0.075029545 -0.2899439 0.16737063 0.16913871 -0.19591887 0.17128164
C0005320 -0.4004339 -0.087106906 -0.20619863 -0.01438724 0.3224138 0.16198914 0.27625644 -0.55588645 0.2797666 0.16546024 -0.118365005 -0.14424556 -0.08361369 -0.2534546 -0.276062 0.13575786 -0.047006033 0.11979888 0.07829207 0.186373 -0.23213722 -0.25106126 -0.2197497 -0.14381865 0.22841823 0.521954 0.26663312 -0.21526502 -0.5331113 -0.03551075 -0.011096561 -0.068891264 -0.058603935 -0.1365006 0.16904247 0.40238744 -0.2363529 0.122839026 0.79175836 -0.47369567 0.0070712245 0.30264467 0.3348104 0.15615866 -0.08428126 0.01169926 -0.1983238 -0.00863174 -0.41200343 0.38329256 0.22878759 -0.112895876 -0.3527965 0.023903256 0.023038935 0.0072868876 0.1139226 0.105072774 0.41155148 -0.1864035 -0.26228938 -0.25504723 0.2604115 -0.0021679911 0.2444052 -0.1386949 0.037421566 -0.020640863 -0.1934294 0.1420373 -0.44355613 0.10309951 -0.19352983 -0.00016866768 -0.1320772 0.12911674 0.1513491 -0.24299163 -0.35383338 0.010441132 0.010140075 -0.090950415 -0.43386623 0.18582802 -0.25565305 -0.60809374 -0.27892625 -0.5963428 -0.38204587 0.3266657 -0.3855427 -0.12974559 -0.14467958 0.09327694 0.31552443 -0.22972637 -0.0950311 0.09105725 -0.21820931 0.17334047
C0032952 -0.22157434 0.47273886 -0.055241402 0.22821665 -0.060312547 0.23388024 -0.06693578 0.060193475 0.08603407 -0.0044147256 0.18792857 0.19249183 -0.12075163 -0.040137526 -0.05093752 0.21474606 0.14279257 -0.003995194 -0.102917716 0.1742984 -0.22932789 -0.23219053 -0.09988385 -0.1474701 -0.44160026 0.0044393255 0.043705247 -0.07532768 0.0096577 0.023695186 -0.27938518 -0.342069 0.0373753 0.093777694 0.04228191 -0.02979929 0.021517716 -0.04054857 0.2628899 -0.37434262 -0.09331424 0.1492992 -0.101015724 -0.04649197 -0.061079454 -0.27183232 -0.056603134 -0.07395292 -0.06881435 -0.054770797 0.0953274 -0.100590326 0.12546454 0.012099089 0.42973 0.32080546 -0.19384274 -0.31038535 0.08544655 0.18672521 0.0020403857 -0.24770257 0.06690309 -0.023386426 -0.12681039 0.057373535 -0.23157255 -0.12574978 0.07625483 -0.15774651 -0.26723558 0.06685212 0.05307204 0.46564743 0.063686125 0.40388697 0.10238077 0.06733446 -0.25859523 0.083828285 0.22171408 0.06759508 -0.0417436 -0.1139168 -0.119221315 -0.12704544 -0.33074442 -0.010682717 -0.045355067 0.36436778 0.09019155 0.10190635 -0.056957986 0.09069756 -0.11271829 0.0415555 -0.026192524 0.13111149 -0.070664525 0.55400634
C0252643 -0.2687079 -0.088650785 -0.23658977 0.23653367 0.21671157 0.26087296 0.1963491 -0.16481985 0.21781066 0.07942315 -0.083293706 0.021860534 -0.09479318 -0.1986024 -0.44240496 -0.16829301 -0.017989784 0.012142303 0.29108638 0.3935261 -0.24904345 -0.29675287 -0.13416408 0.21727997 0.0973364 0.24927458 0.25669637 -0.24595916 -0.34243068 0.078179784 -0.19369102 -0.2393206 -0.22414087 -0.20952271 -0.12931591 0.062755905 -0.1476268 0.114477925 0.22618571 -0.14874382 0.104349196 0.38982937 0.29209986 -0.016150419 0.13221493 -0.023427788 -0.108270966 -0.2899015 -0.36944976 0.49431846 0.20359772 -0.38842353 -0.2609603 0.07902261 -0.010075533 0.09164214 -0.05502388 -0.15074712 0.26670173 -0.03649738 -0.31167313 -0.18631272 0.59088993 -0.16640574 0.08244711 0.006387042 -0.11541788 0.0922004 -0.0033839287 0.091826335 -0.22286901 0.20980239 -0.44936892 -0.053105343 -0.27471852 0.3183892 0.2480568 -0.15250787 -0.17081611 0.2284405 -0.015471759 -0.05752343 -0.17895724 -0.0006155815 -0.23454495 -0.1286859 -0.106155924 -0.44053036 -0.19913192 0.07473523 -0.4316314 -0.062606804 -0.047666732 -0.33784577 0.16930704 -0.2504424 -0.0686303 -0.043921214 -0.1834248 -0.14218153
C0378466 -0.076382644 0.18097112 0.002115815 0.2408823 -0.2817114 0.39684895 -0.16940519 -0.5157589 -0.1174106 0.31882992 -0.014585771 -0.025080241 -0.18044654 0.06013961 0.11869456 0.07617449 0.20449057 0.06671013 0.35465178 -0.04872267 -0.647036 0.14091142 -0.14071107 0.19934368 0.0077232113 0.21702495 -0.32956812 0.12177647 -0.17560382 -0.134854 -0.17717561 -0.53058934 0.0823745 0.18574443 -0.17599729 0.4749298 -0.14815481 -0.38376507 0.0068887463 -0.017722268 0.05187189 0.4803424 0.26369217 -0.1078641 0.74102175 0.21870203 0.25723043 -0.34369245 -0.17547327 -0.15627372 -0.14101787 0.073255196 -0.20267199 0.14116196 0.16812095 0.42762765 0.4242867 -0.043644357 0.20606966 0.19588034 -0.047650766 -0.3448849 0.16578029 0.12639663 0.7503908 -0.086127125 -0.21035306 -0.19923696 -0.4648791 0.03319508 -0.53213876 0.18597074 -0.054303423 0.29104432 0.11807442 -0.2050278 0.21647877 0.29313508 -0.09914216 -0.30747306 -0.19402198 -0.10235404 0.112046525 -0.20245168 -0.25535953 0.017035838 -0.10236642 -0.30851847 0.33181763 0.6065342 -0.32239753 -0.19233172 0.17137626 -0.05261028 -0.26760072 0.33004397 -0.21723768 0.057534363 -0.17938071 -0.3625097
