1317 100
C0020443 0.038579095 -0.0058970386 0.036278274 0.01776985 0.044692513 0.035592314 0.05340406 0.17695063 0.047325246 0.14304379 0.09648717 0.24431244 -0.0490087 0.07258792 0.019855443 -0.0025887317 -0.03984309 0.2513131 -0.14889517 0.039153866 -0.0778585 0.13228574 0.17075326 0.031149808 0.37028965 0.017052924 0.0975103 -0.075340725 0.025079932 0.033592947 0.05203794 -0.07321575 0.08312307 -0.22658758 -0.017427439 -0.013791453 -0.056556776 -0.29637915 -0.07817317 0.0076485104 -0.0074451086 0.03437474 -0.026983507 -0.28130054 0.095785044 -0.096565925 -0.020234592 0.09272544 0.15063797 0.045882665 0.05441423 0.85002244 0.14004734 -0.091541834 -1.1773056 -0.1350487 -0.14501674 -1.3519509 0.14275618 0.02319798 0.23423012 -0.60782397 0.31303248 -0.6313255 2.2068083 -0.49675196 0.2745115 0.09488908 0.2858017 0.16359977 0.4168988 0.34479618 0.06799532 0.49665818 0.81747365 -0.16111666 -0.4545272 -0.04183594 -0.0938272 0.04814115 0.191161 0.38402078 -0.029290952 0.103408456 0.37301365 -0.22926272 0.25762454 -0.10240273 -0.27481633 -0.7291636 -0.18603033 1.1063998 0.24516323 0.30091026 0.4061145 -0.31250843 1.1316448 -0.279841 0.61172897 -0.14230978
C0085542 0.17051405 0.4260809 -0.2060603 0.03693827 0.37676817 0.27899012 -0.19669096 0.22650608 0.1874255 -0.080807425 0.14700758 0.2955459 -0.79489094 0.17708196 -0.08916289 -0.5319167 -0.2804509 0.08872679 -0.43767235 0.008999717 -0.47606963 -0.005813497 -0.010267487 0.06766468 0.32313216 0.16408569 -0.32373422 -0.3592682 0.18100013 0.3123336 0.28907037 0.24841067 -0.35746008 -0.19182824 -0.00085671234 -0.039659478 0.24619438 -0.37691525 -0.6529719 0.37958592 -0.017771875 -0.38464043 0.17036416 -0.13632652 0.3234261 0.30523166 -0.27303952 0.1308856 -0.4543123 0.25671622 0.030178593 0.40775692 0.42831835 -0.8004153 0.74428993 -0.83981234 -0.35826507 -2.6525295 -0.8148438 -0.100358166 1.1687902 0.31833678 1.148658 -0.24769713 0.65937585 0.17788857 0.81951386 1.7767044 -0.86278147 -1.5038319 0.63518137 -0.28023046 -1.0154347 0.27459678 0.17004696 -0.8876425 0.4059186 2.010318 -0.75777346 0.1732021 0.46084705 0.35244974 -1.3338141 -0.37648425 0.47311112 -2.3055878 0.21354844 0.25262392 -2.2278373 -1.4623976 -0.29146674 0.2839402 1.1723787 -0.5349485 0.16077541 -1.4365478 -0.8608031 -2.732883 0.8849317 -1.307617
C0286651 0.062934846 0.455654 -0.25532815 0.19200768 0.22441293 0.11092338 -0.11064926 0.21600755 -0.052600883 0.06204083 0.25363535 0.5058187 -0.4017985 0.32314456 0.04648362 -0.19964555 -0.44808105 0.121362835 -0.6114708 -0.3639496 -0.5143415 -0.15138757 0.08218681 -0.011763006 0.02724652 -0.10280349 -0.45640084 -0.28231883 -0.10898631 0.28050062 0.50186014 -0.048783556 0.053344257 -0.28708777 0.16920502 -0.12310085 0.092383265 -0.044992108 -0.34555858 0.035799045 -0.2247497 -0.31840983 -0.31110957 -0.09106528 0.19939993 -0.015915237 0.11487049 0.32401195 -0.43134552 0.18601018 -0.88911194 1.0287077 0.9575851 -1.3677319 0.68446374 -0.17691542 -0.32349607 -0.5112344 0.17897297 0.39867777 2.278913 -3.0940633 2.0524476 0.4791327 0.62433326 -0.5638583 -0.6048899 1.9940065 -0.25114757 -0.0049648574 1.1013073 0.3286938 -0.4829884 2.3145325 1.394791 0.10138975 -0.46368673 1.6616578 0.04457946 -0.1941787 0.98484135 -0.1817207 -1.6146994 0.2746426 0.25014168 -1.7240382 1.2040612 0.38417143 -0.608408 0.30746353 -0.0064567644 -0.6494491 -0.1395616 -0.08417348 -1.034836 0.4674228 -0.3168808 -1.6596168 1.3959413 -0.2819098
C1142985 0.21650454 0.51040286 -0.27791536 0.29934046 0.48006815 0.14659688 0.12739475 -0.033583373 0.49803483 0.09212483 0.19680077 0.44785973 0.033413686 0.30981925 -0.0026445054 -0.06593896 -0.5297866 0.13419105 -0.3479196 -0.25546372 -0.2413889 0.14360608 -0.11943571 0.27550763 0.32334778 0.11359486 0.17726956 -0.21390274 0.23619942 0.581389 0.0935699 0.05679175 -0.324161 -0.15262525 -0.12118124 0.10140447 -0.07703942 0.0023614417 -0.1968526 0.24896319 0.06560128 0.036255494 -0.45137614 -0.033773035 0.052763455 -0.26103523 -0.040131427 -0.027949238 -0.14360681 0.11351096 -0.22384338 2.6389947 0.2826292 -0.57898563 0.57913256 -0.97913474 -0.88719875 -0.7132222 -1.390642 -0.17529257 2.2798252 -1.1554312 0.31425643 -1.0827476 -0.53125626 -0.46283463 -0.5029365 2.337485 0.7540513 -0.12592179 0.7751266 0.26032564 -1.6350667 -0.67719203 1.7503461 1.2068733 0.6543864 3.0871623 0.2482553 -0.20935905 2.8446286 -0.75664455 -0.8462044 -0.16484335 0.24939363 -2.0121143 1.5525858 0.4816357 0.05549407 -0.92782366 -0.24150552 1.2259631 1.2899296 0.84908277 0.39958066 0.5983241 -0.83094156 -0.731295 1.003395 -0.45957384
C0032042 0.11119217 0.38365045 -0.4335157 0.20125157 0.4437966 -0.1472249 -0.15899134 -0.18113258 -0.06895431 -0.13397995 -0.021179799 -0.20674841 0.14353545 0.045521095 -0.33321428 0.38328436 0.15973093 -0.25528952 0.3096962 0.21113084 -0.24250382 0.26154232 0.17676777 0.35070825 0.23865834 0.010065114 0.013397765 -0.18776365 -0.08555168 -0.05236873 0.0996191 -0.20627467 -0.33253214 -0.18117888 0.35562956 0.08634855 -0.29437315 0.022264251 0.14078268 -0.05592948 -0.20114031 0.067042395 0.14510866 -0.034014147 0.19193953 -0.009852601 0.07481189 0.08906886 0.07797451 -0.053975537 -0.14742222 0.22390932 0.26144582 -0.10236379 -0.08751604 -0.22041517 -0.6889347 0.39717042 0.05720623 -1.0070902 1.3659601 -1.4711837 0.20519683 -0.5234446 -0.7510672 -0.029771881 -0.060489397 -0.14618023 -0.067389086 0.36139175 0.484822 0.18585809 -0.09121515 0.4609258 0.09882089 0.24732263 -0.06413468 -0.22436117 0.70239776 -0.12211104 -0.00018249726 -0.2176649 0.10860792 -0.15442188 0.6142783 -0.1548636 0.3327363 0.29060555 -0.13349222 -0.3849387 -0.15012126 1.0220025 0.5076424 0.798027 0.43567857 -0.10177323 -0.22549744 -0.6134 -0.19558863 -0.5894403
C0989914 0.5548571 0.3123062 -0.7257135 0.22617847 0.047706068 -0.13954727 -0.13726576 0.4120238 0.25588647 0.25522736 -0.034271754 0.5077346 0.12886484 0.15416525 0.0048999013 -0.056952264 -0.37369293 0.20344843 -0.14528921 0.0042618206 -0.35998502 0.089388385 0.20118739 0.50939965 0.8296529 0.4539905 0.07100604 -0.42413533 0.56663424 0.40627798 0.2780634 0.28217173 -0.30780697 -0.11819224 -0.39267364 -0.06810899 0.3948046 -0.27848873 -0.29506597 0.04081069 -0.073040776 -0.24360281 0.040963944 -0.342981 0.4463683 0.005115201 -0.31937018 0.07509946 -0.42568827 0.24781758 0.89856887 1.856406 0.09679619 -2.4104087 -0.06914156 -0.5242801 -2.9987845 -0.048569076 -0.8477696 1.2160609 3.9374404 -0.33771387 1.7122734 -2.5776014 0.63288355 -1.0620142 1.2737416 1.2813941 0.23744811 -1.0312161 0.15754804 0.2118593 -0.72060114 0.39909127 0.030295463 0.8004779 1.3048286 2.0006568 0.8656212 0.103284016 2.5898182 0.8750485 -0.026879944 -0.5191976 -0.6480004 -2.3412566 2.4025738 0.280377 -2.3993945 -3.0097234 -0.20539606 0.6769699 0.13376841 0.6659984 0.38809958 -1.4530177 0.024094708 -0.12423738 0.5262339 -0.41235104
C0082608 0.16952565 0.72389734 -0.47279194 0.103166744 0.3866025 0.11365553 0.29902974 0.13890898 0.45535558 -0.11766905 -0.0371802 0.73562723 -0.2333412 0.12334319 -0.2521422 -0.45934644 -0.6289957 0.048110086 -0.53684 -0.41060448 -0.09528614 -0.04425812 -0.0628348 -0.1664475 0.4119576 -0.25390106 -0.065822676 -0.60509807 0.491578 0.37711316 -0.08641924 0.18936688 0.3020759 -0.24999976 0.37463683 -0.068520665 0.12123227 0.2096966 -0.40659842 0.24088883 0.04700594 -0.27827016 -0.2759611 -0.34550834 0.3500769 0.17226106 -0.019757343 0.14490885 -0.02233076 0.015823616 0.6858563 1.048048 0.23900366 -1.3840516 0.42504185 -0.8421211 -1.0869733 -1.8757261 -1.5566056 0.5248316 3.5696783 -0.07015458 0.83671516 -1.0422274 -0.3484412 0.5917127 0.32641456 -0.036878888 0.87235975 -1.3636096 0.8449501 0.3947183 -2.0037332 -0.8102455 2.2351446 0.04328082 0.7955307 1.8304532 0.845286 0.10512093 2.4127035 -0.011415826 -2.2312953 -0.39649823 1.3083789 -2.0095596 0.23825996 0.9341132 -0.7459531 0.11037791 -0.6743705 0.23434539 0.8331079 -0.46877435 0.28254315 -0.27115473 -0.020075802 0.20142806 0.45223013 -1.3148242
C0074554 -0.014616671 0.25892755 -0.16755807 0.2328299 0.22905073 0.21127093 -0.08924003 0.20915657 0.33716783 0.17863408 0.5927279 0.6867992 -0.46130505 0.36682835 -0.21689662 -0.030729728 -0.42596227 0.12901951 -0.6292382 -0.2023775 -0.14409667 0.08767781 0.06453003 0.25936672 0.08301692 0.00032167186 -0.14075436 -0.36651132 -0.04702208 0.36928657 0.57146335 -0.21564953 0.034552988 -0.061556596 0.07128406 -0.083038166 0.10127831 -0.10819172 -0.3341102 0.11331787 -0.36402455 -0.37776327 -0.42589658 0.117730916 0.2305814 0.29237577 -0.13346218 0.09428878 -0.6460492 0.0289268 -0.22738905 0.51680005 -0.05233021 -0.5480944 1.1040921 0.15330584 -0.8118323 -0.28718203 -2.0169315 -0.38402066 1.6786003 -1.4211197 1.8295768 0.0958191 0.55378443 -0.032034103 1.4152799 1.7131851 -0.4068513 -0.26090005 1.8555624 1.7432839 0.13594456 1.0673419 1.6995245 0.39515784 0.5920207 1.5995117 0.8303058 0.66592157 2.534283 -0.33133757 -0.45390496 1.5275458 -0.1949752 -1.7091062 0.09605884 0.01797415 -1.4538505 -0.17173654 -0.4934399 0.30699205 1.5938766 0.21972795 -0.55077446 0.053104546 -0.5810951 -0.51573396 0.9260679 -1.4302489
C1331111 0.18868354 0.453586 -0.6134015 0.028706545 -0.09622799 0.1480744 0.072588444 0.17081079 0.5792672 0.44635147 0.06930213 0.6781486 -0.07873615 0.01896209 -0.107149184 -0.14385112 -0.025054093 0.060722627 0.03669861 -0.11846166 -0.20346382 0.52474666 -0.22822617 0.24619222 0.4765586 0.2055862 -0.17821737 -0.33626345 0.29704115 0.33418983 0.05664234 0.25598675 -0.22976063 -0.5014354 -0.21204995 0.0078662895 0.19887109 -0.38374528 -0.39325413 0.50937104 0.025449049 -0.015918233 -0.008256832 -0.1640645 0.38297537 0.2083956 -0.49482375 -0.049996134 -0.2452724 0.30668643 1.4342159 0.496663 -0.6637619 -3.163968 0.6187429 -0.6722156 -2.8805854 -0.234914 0.11710838 0.8028779 4.6919565 -0.19379918 1.1256917 -0.8486545 -0.02108708 -1.5694559 1.2528623 3.1778011 0.3635559 -1.4136915 0.036368478 0.46615332 -2.6767595 0.43696937 0.5411257 0.4712786 0.7430298 2.207666 0.6110041 -0.062684596 3.9852462 1.0687878 -0.6811802 0.013250954 -0.67866486 -0.840433 2.000088 -0.21974538 -2.819745 -2.5105474 0.56046766 0.5256298 0.6688571 0.7558058 0.20348027 -2.1579022 -0.4088811 -0.07984658 0.41766253 -0.21565431
C0014912 0.05885553 0.38799787 0.11260593 -0.34574297 -0.16764031 -0.29057437 -0.23310634 0.4505668 0.12691759 -0.099188216 0.63109195 0.022060549 -0.2243568 0.0471302 -0.36761326 -0.1400249 0.5634082 0.40508503 -0.22562961 -0.00023315463 -0.04213565 0.24027689 -0.177086 0.17719008 0.03381354 0.008519348 0.25610432 -0.3726925 0.3290854 0.5192261 0.16561298 -0.031157302 -0.63952017 0.36314094 -0.26262757 0.051174134 -0.3785007 0.16575004 -0.1194494 0.55505174 -0.11610547 0.02689773 -0.15844427 0.38515353 -0.06969555 -0.2850668 0.007872506 0.13149647 -0.27000636 -0.06832591 0.96143156 1.4515525 -1.1690273 0.10874139 0.1614966 -0.6051586 1.2057213 0.5443698 -0.19724946 -1.5873699 0.45555377 -0.20778187 1.2719274 -2.5084188 0.42288446 -0.10565476 0.047702085 1.6030573 0.85698026 0.44339746 2.009829 -0.23528726 -0.19947824 1.0483596 1.4879615 1.2080328 -0.8291611 1.1850455 0.6996985 -0.16418286 -0.3574749 -0.56447816 1.2286283 -0.51349133 0.33930272 -3.0631812 -0.30279326 0.11970623 -3.4660616 -0.8270459 0.63497734 0.5859658 2.3910594 0.88154614 0.76158136 -0.2208243 -0.37484437 0.19382828 0.3477291 0.5883118
C0989915 0.28537834 0.31768915 -0.29966778 0.16806462 -0.27760857 -0.06054415 0.087278664 0.47553784 0.45952237 0.39490458 0.2995971 0.2917356 0.17726964 0.12258196 0.19605297 -0.20213209 -0.40849927 0.1606857 -0.056774408 -0.072694995 -0.336401 0.110439144 0.18386623 0.42686966 0.40042347 0.45247346 0.2918753 -0.45794562 0.3239172 -0.10331812 -0.078358956 0.21162674 -0.21927594 -0.56231606 -0.15272014 0.061823923 0.49039018 -0.24133037 -0.6942815 0.1376917 -0.17696378 -0.22816385 -0.027144356 -0.31079647 0.45928487 -0.033920337 0.0025834274 -0.11876422 -0.086082794 0.039589208 0.8578969 1.5881544 -0.1813488 -2.6389415 0.037941966 -0.42520756 -3.0985448 -0.17727332 -0.8467433 1.230076 3.7486396 0.12915343 1.88158 -2.3677704 0.54505664 -1.0313156 1.0161235 1.6315824 -0.03305497 -1.3194448 0.114217035 -0.02800155 -0.74903566 0.25873846 -0.16939886 0.9775119 1.4968008 1.9757895 0.95179105 0.09971793 2.3857381 1.0230644 -0.112124965 -0.47784993 -0.61086 -2.0770772 2.108727 0.27217472 -2.4585552 -2.7530668 0.17261232 0.73455673 0.05451008 0.5102177 0.57165104 -1.3244383 0.10892236 -0.11645514 0.48303875 -0.2083755
C0965129 0.27094385 0.4246944 -0.24563079 0.138725 0.4798558 0.4144366 -0.02201642 0.1469609 0.18841778 -0.00381229 -0.101394646 0.45603487 -0.37327892 0.17997858 0.058664408 -0.4685314 -0.022246946 0.09033772 -0.5488471 -0.35116336 -0.25135353 -0.018292995 -0.12787832 0.011125992 0.4677831 -0.11162522 -0.36490253 -0.4062453 0.3304039 0.5251796 0.30824924 0.27372336 -0.18609218 -0.25676116 -0.1152661 0.19096151 0.088624954 -0.12514403 -0.5102036 0.20422909 -0.06744908 -0.33542415 -0.07062187 -0.17843978 0.4652078 0.13283531 -0.02000797 -0.15863818 -0.08605423 0.04142105 1.2341137 0.6694465 0.60427624 -0.9354955 0.6337972 -0.33142856 -0.37799963 -2.6248422 -0.54675585 0.21260168 3.0846946 -0.723663 -0.21981934 -0.00061112206 -0.300902 -1.1475046 0.19794029 0.3719313 -0.8391942 -1.8555701 1.444677 0.7362302 0.426418 0.18483278 0.19427334 -0.4458698 0.11813912 1.8151585 -0.34262848 0.8136912 1.8983443 -0.41210458 -0.044486172 -0.31268856 -0.086913824 -1.7392144 0.04103151 0.20303024 -0.52360123 -1.1168083 -0.3836088 1.594019 0.68642557 -0.25919858 -0.29115546 -0.9263877 0.21956678 -1.4086927 1.9870453 -1.3949585
C0360714 -0.2196657 0.27045745 -0.42464328 0.15712024 0.3144642 -0.0010865801 -0.13642302 0.054646995 0.043307867 -0.02332647 0.20871887 0.18744814 -0.5630839 0.25131622 0.027879419 0.039327383 -0.14517371 0.43395013 -0.33020422 -0.1783444 -0.20475008 0.041850142 -0.03345417 0.03610764 -0.077656895 0.048496388 -0.27518544 -0.09641729 -0.062348388 0.15329024 0.12581512 -0.19097704 -0.25906393 -0.28746682 -0.081863075 -0.00013524902 0.02103642 0.11953945 -0.05960331 0.24218373 -0.105562985 -0.36843073 -0.45117134 -0.6114735 0.25607264 -0.33296746 -0.12966776 0.10656852 -0.018542675 0.10125648 -0.53531206 1.073015 0.11616148 -0.23541436 -0.362183 -0.8205057 -0.2621758 -1.6918057 0.10564309 -0.9034456 3.7031937 -2.2409456 -0.27738884 -3.4870832 0.40926662 0.007038909 0.76323223 1.4650879 -0.6497031 0.4955702 0.3748201 -0.20714827 -0.8782207 0.52438456 0.96714824 0.09352361 -1.1725706 1.0961691 -0.4755238 0.3090419 -0.017159285 -0.97821486 -0.6278407 1.5751051 0.09312424 -2.5975516 0.23508236 -0.7583398 -1.0769501 0.33959612 -1.0588821 2.1606162 0.6935886 0.4922141 -1.1123457 0.19619286 0.13182367 0.44296664 1.4024479 -0.4018021
C0948265 0.2242058 0.4612938 -0.09545629 -0.13475911 0.11029179 0.18321328 -0.074807115 0.027785512 0.23340307 0.29986235 0.21422334 0.4251517 -0.21545877 0.004902057 -0.18011625 -0.23712294 -0.079806246 -0.09775716 0.056699205 -0.0960889 -0.25171855 0.035819132 0.053323727 0.43540493 0.011276389 -0.02980804 -0.121131666 -0.16086592 0.18854053 0.44050732 0.20495096 0.19644743 -0.7026366 -0.5217424 0.18908723 0.30717924 0.04463356 0.3737928 -0.41373202 0.39047346 -0.28944656 -0.29127795 -0.46200347 0.49940997 0.41692936 0.3977693 -0.12019836 0.1574738 -0.075218916 0.49920577 1.4833338 -0.6089222 -0.22211659 -1.303892 -0.7813091 2.315977 -0.72489303 -0.8142976 0.67061305 0.71441036 -0.7189898 -0.7573743 0.7251629 -0.49787083 1.4232514 -0.26541463 -0.52719957 0.097325034 0.29555738 -1.2376541 0.74812907 0.097264364 -1.4867898 0.85346025 0.34884065 0.28689158 -1.9674828 0.7840306 -0.37640747 -0.09550785 -0.79158425 0.6311179 -0.5675458 -1.0592898 -0.33561647 0.15480785 2.8672326 -0.4239062 -1.9555657 -1.7213597 -0.1928746 0.91737276 0.54638803 0.6440835 -1.2028366 0.15388301 1.7644506 0.14725342 1.2234089 -2.0731251
C0073393 -0.028227936 0.27116948 0.088751905 -0.10798574 -0.09988829 -0.018112736 0.33812267 -0.17431833 0.53609896 0.1801608 0.0034812302 0.03822066 -0.19804913 -0.14963499 -0.2290804 0.17334019 0.48887327 0.027973054 0.23825055 0.26228967 0.1951651 0.14153665 0.07290476 0.23949167 -0.15938951 0.103010975 -0.1944856 0.26474744 -0.3437606 0.073395036 -0.037558846 0.17826611 -0.20051461 -0.12537947 0.09225401 0.49971834 0.0046419194 0.17706807 -0.3174399 -0.11236193 -0.21167599 -0.08363617 -0.66146755 0.34296468 -0.16959223 -0.12578796 0.20362867 -0.1417364 0.068127416 0.31990117 0.13176548 0.22867997 -0.1714161 -1.9890554 0.5192695 0.48462817 -0.08374775 -0.22760361 -0.5099592 -1.8394473 0.52523375 -1.4795532 -0.105788425 -0.5960588 -0.2979791 -0.25164664 -0.16272007 1.6013896 0.24709828 1.2587054 -0.19705097 0.14757167 0.42794555 0.8594707 0.10521299 3.2645183 0.8668389 1.5105406 -0.54368985 -0.06082334 0.20906293 0.57939893 -0.19588745 -0.22715229 -0.129279 -0.14582337 1.0968797 -1.6540585 0.27362317 -1.1844237 -0.3429536 1.8720845 1.4477884 0.40126166 0.63706183 -0.8737573 -0.10080744 -0.1576059 0.5364871 -1.6912067
C1322815 0.12382994 0.5060451 -0.565325 -0.17539994 -0.081115596 -0.33007294 -0.3627533 0.036196515 0.060256585 0.06307809 -0.084727004 0.60737115 -0.22959267 0.07465979 -0.002623997 0.013929438 -0.67404634 -0.15937625 -0.33557624 -0.4903539 0.042374235 -0.18634805 0.03558639 -0.24630533 0.17695564 -0.74406403 0.2734655 -0.4448656 0.096930005 0.5454778 -0.21601023 0.22262365 0.26248738 -0.45393986 0.09000506 0.31568727 -0.055456977 0.10958934 -0.26656526 0.40306276 -0.049956277 -0.04839209 -0.08866673 0.15019786 0.25174978 0.5466615 -0.20958003 -0.13155042 0.27819395 0.27541956 0.19512533 0.28264907 0.93219227 -0.93268424 -0.113025665 -0.565982 0.21785627 -0.3367803 0.6159408 -0.4149787 2.4677222 -0.73729235 0.15571824 -0.38362882 -0.6986185 -0.8991421 0.5599181 -1.4900165 1.7580054 -2.031142 0.9972161 -0.17570144 -0.13275853 0.47352615 1.5380052 1.4891698 -1.6511059 1.2321148 0.95125675 0.669848 4.00551 -0.12177786 -2.469142 0.15541977 -0.7529787 -1.4884256 1.2769558 0.8469047 -1.260587 -1.1097636 0.04108464 1.8887732 2.201036 0.054132503 -0.51440376 0.73948437 -0.54414034 -0.6283888 0.42896375 -1.5289544
C0071097 0.1326466 0.3718162 -0.23169427 0.018364131 0.08815167 0.11193601 -0.12369228 0.28438655 -0.17253922 0.06158999 0.3794861 0.05373869 -0.18707344 0.017769199 0.06162194 -0.06937008 0.15010615 0.11053446 -0.51392496 -0.22802955 -0.111264676 0.09003234 0.020942053 0.21811573 -0.12893352 -0.35086173 -0.05151352 0.094224066 0.49537998 0.6209452 0.15438762 -0.013864276 -0.53418756 -0.34576467 0.06450497 -0.31310558 -0.05553681 0.17861877 -0.12991376 0.6077605 0.33555344 -0.11894629 -0.4248573 -0.15593189 0.40675572 -0.1503281 -0.15106677 -0.23209365 -0.6990421 0.09185561 0.6676185 -0.043858763 0.88040245 -0.7033398 0.74090904 -0.36867127 0.01724547 -0.18006086 0.58888143 -0.4129343 1.2276785 -1.1513096 -0.6944965 -1.397548 0.044473033 -0.066095054 0.6987971 2.157765 -0.18115652 -0.86412925 1.4557104 0.2934591 -2.599126 1.8163745 -0.5196692 0.7517161 -1.3864981 2.4041672 -0.09854521 -0.41238314 1.237773 0.473777 -1.0899824 0.1035828 -0.82189393 -1.1898011 0.4671503 -1.0267313 -1.2016711 -1.6518224 -1.4055535 0.49027735 1.5848296 0.15230687 -0.37585643 0.2525666 -0.641563 -1.8983718 -0.35689095 0.17790458
C0248719 -0.13742647 0.48729095 0.17323655 -0.2945478 -0.25472912 0.7108792 0.060096517 -0.15181229 0.29676434 0.5042874 0.104479216 0.069995664 -0.03514208 0.36610404 -0.11864786 -0.7768483 -0.014399831 -0.4690221 -0.15977784 0.073640786 -0.23115247 0.12419806 0.32212716 -0.25015116 -0.14731263 -0.11473204 -0.020339578 0.13174222 -0.03144713 -0.0069203586 0.58329505 0.37422135 -0.14004731 -0.36529973 0.11367861 -0.051695246 0.20556597 0.43880752 -0.00666821 0.10158981 -0.10880816 -0.35219505 0.050054498 0.18780078 -0.083567634 -0.018663023 -0.42168692 0.35008356 -0.4634048 -0.28044155 0.23252735 0.07269208 0.18404287 -2.5371575 1.2202113 -0.42618158 -1.6159855 0.24405518 -0.25112382 -0.31075302 -0.061900858 -0.43049654 0.6512136 -1.0728201 -0.00699637 -0.6015346 0.08225728 0.596522 0.18144843 -0.55327773 0.5094834 -0.48518822 -1.395107 -0.37834978 0.7684482 -0.7929499 0.03509085 2.5438612 0.23006655 -0.21159732 0.20371342 -0.58262813 -0.7407005 -2.0631354 0.5656825 -1.4134657 0.5539571 0.23698066 -1.9472367 0.23903276 0.3585601 -0.8883903 0.38756856 -0.5973597 0.8137007 0.273957 -0.4873459 -1.8485882 1.3922553 -0.5172549
C1098320 0.055954676 -0.074568376 -0.029045925 -0.05394914 0.2735135 0.5273166 -0.049658798 -0.17902187 -0.19451794 -0.045920335 0.19046587 -0.19667608 -0.2533445 0.10482262 -0.40764654 -0.9208882 -0.35164872 -0.22831169 -0.07135717 -0.26265377 -0.38484707 -0.2718466 0.3004541 -0.0122570265 -0.07230003 0.21613756 0.072327465 0.4542536 0.25852072 -0.086277515 0.455771 0.46709895 -0.33830765 -0.30457085 0.3315887 -0.18901768 -0.060950413 0.4982578 -0.28176454 -0.015481843 0.16096711 -0.8892543 0.11052322 0.18815853 0.08766065 -0.07043031 -0.028447915 -0.0321655 -0.15042126 0.06171036 -0.27188438 2.0263078 -0.4586958 -1.4600471 0.43368855 1.48555 -0.75643414 -0.15695761 0.124929495 0.4028431 1.0561624 -0.2673377 0.20582888 -0.6350347 0.80266905 0.19747788 0.5683552 0.1948017 0.08743662 -2.2755194 1.1752563 -0.13338146 -1.4408947 1.2185111 0.11003749 -0.835212 -0.6701233 1.8827213 -0.059314955 0.3505388 0.42433447 -1.1622192 -0.2059279 -2.6534204 0.58867246 -1.0226126 -0.541685 -0.19026671 -1.5573208 -0.835449 -0.22469312 -0.1554595 0.14724627 -0.10626599 -0.27713484 -0.92322046 -0.68399596 -1.7226387 -0.31073877 -2.920743
C0033228 0.26374346 0.89543766 0.13065244 -0.6092349 0.07739295 -0.123771556 0.0795029 -0.08125406 -0.09856534 0.46085012 -0.53291816 0.26585954 -0.02268431 0.10609073 0.2710418 -0.017283639 -0.5125198 -0.054280147 -0.28376225 0.09280387 -0.19465138 0.10439628 0.27740046 0.23965397 -0.09139763 0.030913362 -0.0060404968 0.0063680485 0.28077164 0.11687534 -0.4118965 0.04526333 -0.40114084 -0.061541956 -0.20596384 0.12507857 0.5692448 0.2476144 0.15662436 0.2986346 -0.22163272 0.08638088 -0.017888857 0.14329596 -0.06851243 -0.053024244 -0.46304283 0.10046191 -0.506045 0.0009437862 0.5296854 0.016627297 -0.30726153 -0.13874361 0.05529704 -0.80732167 0.30455488 0.0053405454 0.39290303 0.6693915 0.22635628 0.5538635 -0.20543031 -0.9495627 0.41445693 -1.2853961 0.64102125 1.1074011 1.4521065 -0.96181935 0.63986593 -0.08734662 -2.233775 0.98801494 0.83532673 0.1265685 1.1427987 1.7526524 0.22935426 -0.15860711 0.7681147 -0.17606845 -2.6026404 0.3755779 1.0321714 -2.7741528 1.7782811 -0.77812016 -0.39767972 0.07578541 -0.17368922 0.6191412 1.3427739 -0.27755803 1.1213584 -1.369491 -1.3031495 -0.51520884 0.6044401 -0.2188747
C0299792 0.08221775 -0.11420299 0.013763559 0.0969191 0.14348996 -0.28191787 0.27738592 -0.084369786 0.4630758 -0.005294821 -0.045512173 -0.020299526 -0.35180563 0.101140864 0.14649382 -0.12840328 0.30814362 -0.07080892 0.43705457 0.5893703 -0.05928225 0.029048117 -0.28976685 -0.31405458 -0.15437534 -0.026605561 -0.11157487 0.108980045 -0.082100466 0.08571781 -0.25602788 0.2609649 -0.14475304 -0.22492406 -0.25772953 0.5262575 0.07499445 0.14183022 -0.6350868 -0.19088966 0.06541068 -0.14114133 -0.38486892 0.5316011 0.0044620084 0.30991656 0.1716655 -0.109841384 -0.07549539 0.42095408 0.23635268 -0.28171644 0.75350785 -0.6755161 0.4759701 1.7277575 0.14529711 -0.8747149 -0.03660097 -0.41815025 2.0746431 0.403171 -0.59946007 -0.2879809 -0.35915133 -1.1626414 0.4380943 0.6267727 0.018425189 0.9257144 -0.8712315 0.14755131 0.6679389 -0.07931416 0.08398362 1.3308134 0.3281469 1.8384198 -0.617829 0.16272952 -0.32315156 -0.78412217 0.13232966 -0.49390495 0.39051977 -0.90830165 0.4698078 -1.3040454 -0.18797216 -1.3684273 -1.2244275 0.4041132 2.0991719 0.23736607 -0.6910176 -2.1472049 0.28951228 0.27625707 -1.0379952 -1.35737
C0038257 -0.045457207 0.5535561 -0.4761902 -0.25599146 0.0020671058 -0.37178314 -0.4008481 -0.18205377 -0.043708168 -0.23277864 0.20912132 0.5289723 -0.30871817 0.25133425 -0.035885498 0.15498301 -0.47822022 -0.010145096 -0.16429894 -0.30848014 -0.11219095 -0.22299562 -0.13680768 -0.17005743 0.18382034 -0.6933902 0.040097777 -0.43218404 0.18460034 0.4192467 -0.1755257 0.13308889 0.30342305 -0.109489374 0.1592628 0.24993023 0.12926368 0.13415697 -0.23616281 0.43273067 -0.047780164 -0.13762988 -0.3853737 0.31757262 0.1859327 0.30283484 -0.26532447 -0.1763109 0.45279586 0.3623696 -0.20287393 0.5028763 0.6700192 -0.33183405 0.08840529 -0.5875688 0.73410004 -0.958253 0.27390084 -0.64223784 2.3233376 -1.0549884 -0.08702906 0.017967246 -0.4793806 -0.19118762 0.6975954 -0.6245019 1.6988688 -2.6225646 0.53352576 -0.4597531 -0.06429726 1.1139781 0.530435 1.6559596 -2.1924775 1.7825332 1.3398294 0.7210659 3.553815 -0.73579603 -1.8178858 -0.579885 -0.39569578 -2.012498 1.0089201 0.6095714 -1.6641048 -0.5994471 0.080288835 1.6054274 2.2724128 0.39409897 -0.2655985 1.0020725 -0.64453405 -0.69511086 0.1778872 -1.9042974
C0025598 0.105893195 0.5552692 -0.103366345 0.09342608 -0.053590298 0.093420684 -0.06602966 -0.0013522904 0.079307176 -0.2582937 0.17816386 0.20725311 -0.24453436 0.040522937 0.10696138 0.04020387 -0.07597536 0.35284585 -0.12991245 -0.07194364 -0.03216572 0.28925696 -0.122367695 0.26695907 -0.04150883 -0.04276756 0.1761325 0.22959024 0.51500195 0.5550778 -0.16847181 0.17033747 -0.2224682 -0.3113261 -0.283835 -0.23241296 -0.2353328 0.5231424 -0.25194898 0.6365141 0.09374098 0.31599313 -0.5520553 0.021742374 0.18658131 -0.37560585 -0.34047684 -0.043597087 -0.28484902 0.21715292 0.17488998 0.7369632 -0.041886583 0.0057640793 0.45038396 -0.9654157 0.9716743 -1.2721329 0.8505078 -1.4247799 3.306682 -0.7275851 -0.35975304 -1.5496721 -0.37941855 -0.44674942 2.0642622 -0.62206614 0.7180613 0.72593313 1.9828062 0.23650606 -1.273186 -0.18691018 2.683608 0.29625365 -1.0064666 2.5068967 1.2558856 -0.5992234 0.2839692 -1.7910763 -2.2743301 0.53552556 0.08634544 0.6472013 0.8278985 -1.6173302 0.12449415 -0.8145737 -0.6989678 1.9777431 -0.07897431 0.3383971 0.23471047 0.60208464 -0.5690082 -0.86833733 0.47547808 -1.0772188
C1532737 -0.05354702 0.5938545 -0.14753819 -0.0156827 0.2263628 0.1011134 0.0842653 -0.13173276 0.3185406 0.015039883 0.27389562 0.23040275 -0.18666618 0.4513896 0.01604758 0.060442384 -0.43985742 -0.28913358 -0.41100216 -0.33916375 -0.40989947 -0.081814304 0.0659406 0.24372849 0.17752908 0.06798829 -0.02154289 -0.23770125 0.15931912 0.4373627 0.33823043 -0.21140632 0.1919026 -0.25049517 -0.14036964 0.362008 0.028048484 0.17752677 0.06766904 0.30843437 0.3312374 -0.5425076 0.043871578 0.3672566 0.3640186 0.46512115 0.093455896 0.0445358 0.23213206 0.21268906 -0.33871764 0.8936724 -0.37628442 -1.6013465 1.5669826 0.1086968 -0.70196706 -0.5321069 0.23726688 0.7887523 2.9001768 -2.1403549 1.0763483 0.17878433 -0.4261424 -1.2366192 1.6603072 1.9823074 -0.07977271 -3.0039637 0.09109293 -0.20555422 -0.45082673 -0.040774137 0.69863635 1.7639332 -2.3140023 0.7424213 0.42366683 0.56177884 1.7568079 -2.341167 0.15632324 -0.99550104 -0.627203 -0.63511753 2.5998867 -0.07459522 -0.97255665 -2.2018895 -0.8986712 1.7668004 2.4758687 -0.49171323 -0.19618654 0.01035063 -1.098962 0.16391058 0.22711346 -1.1973577
C0076275 9.5061296e-05 0.19579762 0.038066313 -0.04811638 -0.08177911 0.40018475 -0.106735006 0.4272953 0.0032107336 -0.13916774 0.4067008 -0.07974243 0.25202605 -0.48595345 -0.11864701 -0.53013176 0.08855358 -0.0903782 -0.27075452 -0.06497218 0.051634848 0.17383939 0.18391858 0.14161806 0.10078867 -0.031190678 0.20468228 -0.41545862 0.36134407 0.56007147 0.2189502 0.17257915 -0.33778763 -0.4741006 0.03502188 -0.12627895 0.35400373 0.43436816 -0.29088083 0.50796175 0.07687922 -0.10516452 -0.2408055 0.62681293 -0.008958035 -0.44647664 -0.024330704 0.14085932 -0.76168895 0.21285121 1.2744553 -0.60059905 -0.26903725 0.018771391 1.0607672 -0.81588334 0.15221423 -0.3484236 -0.933319 -0.2334204 -0.25269434 -0.0066161426 -0.072553076 0.39250174 -1.507162 0.71604556 0.5563095 -0.43797934 1.3891208 0.0454522 2.3124382 0.06304768 -1.0213895 1.2012339 3.4179041 0.20813262 -0.9749834 2.250955 -0.11419891 -1.2170172 0.4664848 -0.38267678 -2.4411473 -1.1119211 0.090535715 -0.96397156 0.5535914 -0.43694624 -1.773063 -1.4873673 1.0508949 2.7668595 2.9755602 0.9331063 1.2945766 0.28406796 0.46807188 -0.9344332 1.2797031 0.055998307
C0025219 0.36140627 0.4384889 0.05427479 0.09698646 -0.06404968 -0.026980825 0.14540476 0.025600681 -0.03282083 -0.2948045 0.1641725 0.35210946 0.099474795 -0.17246756 -0.051969245 0.25931233 -0.37102506 -0.08068791 0.036670372 -0.13666914 0.53236824 -0.058290984 -0.14139159 0.080723956 -0.27874857 0.06069995 0.20814766 0.43178245 -0.22857125 -0.19219284 -0.09824569 -0.32332355 -0.8240143 -0.0063770283 0.030301122 0.23202994 -0.33057657 0.38974074 0.14273237 -0.06432312 -0.1404057 -0.19061813 -0.515516 0.128101 0.09160462 0.29305282 -0.35237873 -0.2509108 0.70260423 -0.06306735 -0.12764513 1.4176124 -0.25135633 -1.3729044 -2.0010526 0.43006194 -0.54218507 -1.4238808 0.94273525 -1.6875467 1.8686925 0.4006803 0.66861135 -2.0705242 -0.8367799 -0.3282263 0.3034465 1.3731503 0.31321257 1.537527 0.27971515 0.09091421 0.953062 -0.8714701 0.46584666 1.9243462 -2.070292 1.4145478 -0.2210731 -0.37914476 0.33093217 -1.1608878 -0.18239905 -0.81319684 1.5451909 -0.63915545 0.264157 -0.8541291 -2.4092607 -1.3187907 0.2591769 3.3407786 -0.68440235 0.7545768 -0.47422102 -1.2067798 -0.37949285 -0.89235365 -0.22205867 0.4239129
C0027996 -0.028653556 0.56781656 -0.2470488 -0.256659 0.24109451 0.15940545 -0.10382257 0.14986625 0.52436423 -0.021256253 0.2676632 0.7398234 -0.042443592 0.015582775 0.008220135 -0.068105385 -0.40191787 -0.0775384 -0.3490775 -0.18255445 -0.27514085 -0.12274363 -0.16747391 0.4285804 0.15617555 -0.107701585 -0.1361913 -0.19076821 0.03604477 0.29949737 0.086364724 0.13589172 0.14759225 -0.3068732 -0.08600383 -0.037582748 0.28015006 -0.061806142 0.019505313 0.5048113 0.2256261 -0.1378746 -0.034392886 0.35659385 0.11052103 0.20757796 -0.37717792 -0.029107131 -0.03991843 0.36137772 0.8966939 -0.87029153 -0.037581943 -0.979791 0.25901762 -1.2345672 -1.098332 -0.5638174 -0.08502349 -0.57551056 2.5132825 -3.875673 -0.021558674 -0.010952866 -0.07047536 -0.63086677 0.3512432 1.2202132 1.8494776 0.33329663 0.22363889 1.2416997 -2.7987332 0.3122866 1.5748631 -0.26092693 -1.6938617 -0.2681683 0.5145216 1.1451304 4.1483765 0.42836756 -2.3324494 -0.21720305 0.33162707 -1.8875831 1.1642995 -0.4036637 -2.6447418 -0.13852158 0.7321116 0.22320874 2.380146 0.25490534 0.18960784 -0.35507748 -0.7617107 -0.7139561 1.4394042 -0.806055
C0288171 0.11662013 0.114310965 -0.061920833 -0.24771196 0.5450968 0.25148836 -0.15670711 -0.32959712 -0.30578488 -0.030666715 -0.17974767 -0.00023640374 -0.20842627 0.14086877 -0.10131425 -0.4677293 -0.53856134 0.25372505 -0.17691512 -0.116827376 -0.32262558 -0.22459783 0.58543843 0.53402203 -0.34005594 0.19698034 -0.26942593 0.29373202 0.36722946 0.11119267 0.28132945 0.46125376 -0.22852165 0.13398115 0.56734383 -0.21161799 0.12353674 0.2599864 -0.32690614 0.009113328 0.0774085 -0.2544042 -0.08420323 0.30944976 0.047864437 -0.37431452 0.20322138 0.07907524 0.04459847 -0.06727584 0.11383256 1.0586486 -0.13151927 -0.6736303 0.46238285 -0.086457245 -0.18509997 -0.023614611 0.7309712 -1.7708987 0.9080293 -0.2563462 -1.2305346 1.207915 1.3872429 -0.24122566 1.2340693 -0.59040064 0.13435411 -1.4490114 1.2041879 0.15673321 -1.5320207 1.8206943 1.3820146 0.34776893 0.30416805 1.353257 -0.61893314 -0.021066733 0.6582391 -1.5831376 0.22185847 -1.024296 0.14718859 -1.1218089 0.6684457 0.31659928 -0.258776 -1.0688885 -1.0286994 0.53797174 0.5600536 1.3345646 0.15123703 0.08760347 -1.5664097 -2.6942055 2.0277593 -3.8177652
C0009079 0.50221294 -0.3903009 0.03120715 -0.10065198 -0.10157138 -0.024089785 0.05715418 -0.0698359 0.18664671 0.065805145 0.008535618 -0.28986296 0.011448685 0.077471204 -0.04686034 0.16354063 -0.01686447 -0.33262354 0.3650738 0.19743894 -0.29419947 -0.019680424 -0.18691272 -0.3198039 0.075747915 -0.52101195 -0.28006983 -0.21329035 -0.1632191 -0.0023397051 -0.18432757 -0.0035275577 -0.26665947 -0.28413704 -0.30729768 0.30999237 0.34659648 0.30027777 0.08271433 -0.088214815 -0.124576986 -0.37019646 -0.7073696 0.22957017 -0.08486294 0.18901129 0.15299803 -0.27784732 0.063769236 0.5117411 -0.17924656 -0.104429245 0.23912932 -0.20570436 0.15290824 1.0441167 -0.47648695 0.44084048 0.2060045 -0.353351 1.2517824 0.43453625 0.7749056 -0.76485384 -0.70946825 -0.06719179 0.38203594 1.0705751 0.8182964 0.9444709 -1.3219787 -0.20415552 0.52785295 -0.7771695 0.7347337 3.2305586 -0.20898697 1.5184026 0.57340455 -0.5060827 0.24857666 0.57019025 -0.48710805 -0.1131662 -0.35772422 0.8843802 0.4675434 -0.47081938 -0.5100816 -0.99169093 -0.5796273 0.2831218 3.4256098 -0.02901935 1.1192465 -0.24170667 -0.49836212 -1.0886253 -0.16824503 -0.34672508
C0021186 -0.48952934 0.08337077 -0.05096464 -0.1738194 -0.51156336 0.18738596 0.1322955 -0.19113646 -0.38316634 0.41493058 0.34624246 -0.27797833 0.27393427 -0.2903076 -0.54423684 -0.22770439 -0.2605021 -0.16874616 -0.22208594 -0.46343958 -0.1045818 -0.20591092 -0.15341838 -0.24518268 -0.20960876 -0.19207524 -0.048441205 -0.09672096 0.21480687 -0.1099853 0.5746457 -0.21585056 -0.27203995 -0.06027139 0.2116253 0.21906304 -0.2816969 0.21535853 -0.27327 -0.2846202 -0.30447105 0.27779913 -0.0024796173 0.22365351 0.7003538 0.5521216 -0.09503078 -0.035840385 -0.1503815 0.18881337 -0.81041956 -0.100211464 0.60170704 -3.2851803 -0.1462641 1.2236776 -0.56125134 1.1895641 0.2668854 -0.19350137 -0.34108263 -1.6707512 1.6262316 0.41182068 -0.714909 0.05978267 0.7017363 2.6983187 0.3147088 -1.6330729 -0.4359577 -1.1120805 -1.771257 0.36846966 0.21981461 -0.85683763 -1.0060674 1.332786 0.5869764 -0.6835538 1.6489935 -0.40290728 0.45621124 -1.1521754 -0.39170498 -0.2631123 0.53439826 0.64289373 -0.9507663 -1.7417529 -0.9992036 0.7736641 0.7678489 0.38314083 0.32118934 0.11021103 -1.1161531 -0.39378417 -0.28425008 0.07412143
C0039601 -0.23648728 -0.39004934 0.161445 -0.25772497 -0.112642616 -0.33849737 -0.12548642 -0.28063098 -0.050505273 0.19977923 0.47219875 0.18569362 -0.37000123 -0.07852904 0.0030287146 0.5251812 0.2716903 0.15692781 0.029145885 0.054363824 0.32104713 -0.4260142 -0.062088754 0.031018933 -0.120407335 0.110070504 -0.04772527 0.0945028 -0.019370673 0.6490367 0.10637949 0.36974534 -0.89225787 -0.03878249 0.4242085 -0.17891799 -0.13999368 -0.09010567 0.07373308 0.5856007 0.13360135 0.014988188 0.108552046 -0.1437076 -0.020089159 0.029644286 -0.12915716 0.18787019 -0.53105354 0.16948697 -0.14169449 0.56024665 0.3391724 -0.07337878 0.9755305 0.89642185 -0.7352777 -1.3683465 0.80254877 -1.5122219 0.9038857 -0.12658115 -1.0890905 0.44832835 0.4555013 -0.5359722 1.7405552 1.4661629 0.8339306 -0.9549637 2.174658 -0.5878832 0.46413028 0.37028983 1.3073306 0.80738324 -1.5920305 1.4373254 -0.1840191 0.101789005 0.4903921 -0.3593314 -0.72553986 -0.11493472 0.6893471 0.74200493 0.1352174 -0.45925182 -1.3107871 -0.03449698 0.2587006 0.30984733 -0.2728535 1.9697189 1.4106767 -1.0265871 -0.29343665 1.5397837 1.0216321 0.39825708
C0039286 0.21077546 0.29535633 -0.4571097 -0.36546275 -0.3212055 0.22727178 0.25361603 0.16229375 0.3775131 -0.1325867 0.06983972 -0.1317176 0.31134394 0.077616 0.09865645 -0.31020868 0.32733667 -0.15202403 -0.02956746 0.09470534 -0.018933754 -0.19294526 0.20090997 0.7424884 0.0899202 -0.053912118 -0.094521694 -0.2686749 -0.35863334 0.47176084 0.107894495 0.38821658 0.14434241 -0.17264098 -0.10979646 -0.1428225 -0.2575596 0.20792109 -0.09317344 0.060643483 0.22832605 0.0830496 -0.03490417 0.63347566 -0.10346444 -0.016091373 -0.16598195 -0.099708304 -0.40974954 0.5958202 -0.19251817 0.24756032 -0.9602056 0.47017115 1.0092779 0.4349841 -1.185172 -1.071102 0.1882338 -1.5876912 1.1998239 -3.4691532 -0.9168591 0.89097726 -0.49242082 -1.8686029 -0.7030176 1.0828775 3.6681368 0.2137501 0.2966759 0.4302956 -0.2365016 1.7267994 -0.61257195 1.04696 -0.15250905 1.125228 0.24585311 0.41966477 2.5156634 -2.3713963 -2.1782384 -1.584476 1.0646957 -0.5905305 0.9618992 -0.06835348 -0.8120103 -0.6574827 0.7569999 0.7066042 3.2198465 0.495695 2.2854571 -0.42164046 -0.4092889 -1.0082848 0.97770125 -1.3349206
C0008677 -0.001621435 -0.14519563 0.16404268 -0.0782612 0.00051366724 0.07209528 0.016397616 0.12110692 -0.09488454 0.101561725 -0.12959306 -0.012748598 -0.18361828 -0.13878082 0.057080492 0.02653296 -0.028862003 0.06941148 -0.060144387 0.082871966 -0.00017624357 0.15771638 0.13466707 0.14129315 0.1783403 -0.17541613 0.107991345 0.08854635 0.0144450655 -0.03731133 -0.101941936 -0.05230842 0.31741223 -0.1508873 0.011741989 -0.06294865 -0.2521877 -0.14447962 0.20012699 -0.07505562 -0.18002184 0.10083079 0.043102592 -0.09503525 0.06619055 -0.014718728 0.072074175 0.18859471 0.08543021 0.10763951 -0.026740456 0.3132705 -0.3535416 -0.46637678 -2.153941 -0.15059584 -0.72064424 -1.0167571 0.13035123 -1.0289284 1.3865541 -0.11140456 -0.4901839 -0.8698557 0.3570193 -0.08486716 0.37224522 0.17083094 0.28802732 0.1086077 0.19432797 -0.83020526 -0.010828531 0.5067103 0.95776117 0.25965586 0.32286924 -0.35249636 1.1411974 -0.009691621 -0.20112728 0.38808388 -0.110841006 0.05935697 -0.1979588 -0.3916121 0.57549685 -0.10598464 0.15316124 -0.046947964 -0.46761996 0.43896735 0.19920404 0.25088844 0.73679554 0.2378642 0.8402266 -0.3741869 -0.44621986 -0.40388313
C0054066 0.20220664 -0.14858586 0.03091536 0.054292258 0.32849878 0.27568537 0.18149629 0.33446681 0.25707558 -0.033906545 -0.48845017 -0.18097705 0.03127695 -0.33956194 0.24990189 -0.4392105 -0.09253148 -0.5850738 -0.42852652 -0.18368886 0.21133669 0.3217079 -0.4533797 0.6488476 -0.07300398 0.05318458 -0.28925553 -0.21670923 0.41414028 0.07740709 0.04145219 0.52502096 0.6294591 -0.13071707 0.38725138 0.020554308 -0.22964899 0.079126455 0.053183343 0.093356624 -0.5624883 -0.21498977 0.11234779 0.041218724 -0.16768816 -0.0013271701 0.13811952 0.10404433 0.21240956 0.029310957 0.8884921 -0.25007614 1.0445849 0.41522008 0.99330163 -0.6541132 -1.222026 -2.39697 -0.7699065 0.9542748 1.3325855 -1.6307733 0.6133293 -0.48784035 -0.21038657 -0.3286543 0.6705426 0.2969825 0.5014043 -2.2409515 0.39220786 0.2977995 -0.29353586 0.5394464 0.8131712 0.11142065 -0.71772736 -1.0969313 -0.67087865 -1.6251265 -0.37388894 -0.5751799 -2.941003 0.60193485 1.3105612 -0.17740059 -0.85358316 -0.96883535 0.4637917 -0.36133167 0.12845267 0.57822436 1.9933306 -0.26934186 1.1662751 -0.12309712 -0.095605925 -1.4675837 2.046572 -1.3543664
C0052796 -0.12918003 -0.11619911 -0.15174863 0.03024951 0.46277207 -0.32375628 -0.10286692 -0.11751287 0.15644364 -0.2759857 -0.40408766 0.02475162 0.2681957 -0.016461473 0.3877052 0.19067894 0.23526934 -0.4361139 -0.23060039 -0.21261068 0.27313414 0.15664333 -0.284746 -0.34497917 -0.09844163 -0.17554784 -0.14231892 0.30691385 0.25338918 0.1476039 0.030394886 0.18578394 0.36062065 -0.12475542 0.017253816 -0.31663013 -0.4716812 0.13430378 -0.28891563 0.36396205 -0.62074435 0.48228925 0.2524144 0.17530288 -0.10666481 0.15989634 -0.26483002 0.15696712 0.09324599 0.5688604 -0.78614104 0.02959604 1.5637718 -2.591163 -0.32058513 -0.4713037 0.5743138 -1.3345786 0.45333317 -0.8472376 2.242339 -0.6526554 0.53498244 0.49916446 -0.54744035 0.02823401 1.2666165 0.18192111 -0.37342498 -0.95727944 0.810924 0.37246585 -0.39921385 0.24512495 0.87079936 0.3882127 0.10353144 -0.82673657 0.1680261 -2.1617928 -0.3627549 -0.28717202 -0.40166163 -0.20332977 0.56946373 0.18195455 0.059354063 -1.2347205 -0.3335706 0.117880575 -2.0551195 0.13670602 1.8512522 0.2056524 0.31276125 -0.75814974 -0.25293016 -0.3978966 0.6413565 -1.015818
C0533545 -0.44433197 -0.6033176 0.26470363 0.5966816 -0.39991742 -0.13291256 0.016079573 -0.09695959 -0.0074245925 0.62020904 -0.42627817 -0.22680748 -0.32079825 -0.07883659 -0.15629031 0.0553203 0.20639686 -0.17607643 -0.5195 -0.50248325 0.091319956 -0.11696354 -0.23758894 0.48201773 0.7279003 -0.24253324 0.09108034 -0.0003588903 0.30264702 -0.112912126 -0.27108085 -0.172793 0.12367269 0.064283185 0.11716872 0.24066511 -0.15854695 0.55915445 0.13973893 -0.066589296 -0.28327215 -0.5196027 0.30607456 -0.03276386 0.1799927 -0.041230626 0.012540986 -0.34025174 -0.257859 0.31382018 -0.8401785 0.53315395 -0.5045453 0.49359345 0.25497198 0.9816092 -0.99209404 0.5456264 -2.4354212 -0.34337512 1.3532097 -0.61234504 0.40811756 -0.051218893 1.1244247 -0.29730546 0.65130156 0.92507625 0.11911543 -2.1856434 -2.4386992 -1.9812076 0.51473844 0.01356478 0.34029678 0.23307067 -0.2682608 -1.2049444 1.0006111 -0.64843845 0.62824726 -0.36948293 -3.4349976 0.08214232 -0.6244476 -1.4131755 0.07129154 -1.6048512 0.47535136 -0.5035027 0.4275445 0.62149566 1.0593777 0.16136098 -0.3109567 0.6182618 -0.008022073 -0.6706314 0.579225 -0.91029656
C0907410 -0.362334 -0.10358012 -0.36019546 -0.34606203 -0.08110458 0.13246958 -0.115289934 0.16308595 0.13402954 -0.18244925 -0.2365052 -0.23255152 -0.59267145 -0.19740617 0.252326 -0.18649048 0.27074903 -0.3125991 -0.20800011 -0.65448576 0.41800877 0.30632344 -0.1526401 0.35111183 0.0016725042 0.50977725 -0.21373951 0.06532987 0.48119056 0.0051411046 0.08522531 -0.11813458 0.5118023 0.09808297 -0.2246218 -0.18461525 -0.11401773 0.3384799 0.30936855 0.24839325 -0.52766603 0.030719861 -0.0044286265 -0.14807525 -0.1986856 -0.19284138 0.27876928 -0.043885875 -0.08569027 0.39889878 0.03476589 -0.5407986 0.36750153 -0.07324973 0.1979287 -0.18074593 -0.40441805 -0.7728886 -0.3971841 -0.95127916 1.1048799 -1.5161208 0.37234333 -0.80104935 -0.17043707 -0.023388881 -0.2245244 0.6361407 0.1745098 -1.6219496 0.7624772 -1.8143176 -0.00053492497 0.7395149 0.6970196 0.13581932 -0.6723182 -1.0972968 -0.27050996 -1.6658565 -0.75336444 -2.2922938 -3.170562 0.39544836 0.06902255 -2.445032 0.049941443 -2.6131268 -0.12108699 0.24883643 -0.013257685 1.0923452 0.27217618 1.615567 -0.5297074 -0.9110889 -0.7133823 -1.2781817 1.0912262 -3.4714675
C0053882 0.109515496 -0.3594169 0.28363547 0.13395704 0.12638211 -0.46844894 0.39099574 0.39303854 0.18412322 -0.00064783444 -0.24897708 0.3258239 -0.15700309 0.3359087 0.024642156 -0.085953444 -0.2438185 -0.18883847 0.5325435 0.28450763 0.054426078 0.12225382 -0.20180924 0.24843906 -0.0013381498 -0.40059903 -0.45729005 -0.16046692 0.419309 0.007873656 -0.12399184 0.032470442 -0.068942234 -0.14767094 -0.023201337 0.46054035 -0.23993094 0.19490235 0.3257339 -0.24829754 -0.3826248 -0.17102101 -0.095514126 0.36995855 -0.16261585 0.6405012 0.16236734 0.022371829 -0.43144816 0.5491922 -0.049736932 -0.21266243 1.0178568 -0.14236858 0.18626082 1.0460027 -0.38119006 -1.4100723 0.7546218 0.0031649284 1.579033 0.059837587 0.08602129 -2.489083 -0.19107214 -1.5066717 -0.61802626 0.79341584 -1.217752 -3.0794117 -0.8877308 0.0018437156 -0.13959138 -0.6279425 0.72570926 1.7380228 -0.63812274 0.26761666 0.14258109 -1.9383593 -0.8270049 -0.32607198 -3.4795463 -0.35020185 -0.4566958 -0.3048498 1.0593002 -1.1340495 0.36013615 -0.7886406 0.06305784 -0.21227778 1.0577139 0.61212337 0.19233362 -1.5064323 0.28955492 0.40286142 0.38807592 -1.8791574
C0753645 -0.28031445 -0.37696517 0.019252354 -0.033244852 0.068747714 0.19307768 -0.32125533 0.056124106 0.14673933 0.42411143 -0.3745026 -0.08955973 -0.2238235 -0.28279597 0.6098574 0.13226275 0.11366251 -0.017767288 -0.2926803 -0.53244835 0.30652285 0.25787878 -0.45630583 0.6574861 0.023869414 -0.19540569 -0.14648439 0.060860835 0.270775 0.21506634 -0.31909153 -0.047291536 0.26421145 0.19110486 0.11239681 0.26399896 -0.3977939 0.29101518 0.30075064 -0.0030788651 -0.3889892 -0.3749914 0.26662105 0.16546932 -0.20623367 0.14549057 0.14030936 -0.106603555 -0.40912694 0.08612299 0.10235864 0.37033653 1.0039967 -0.5350113 0.8677782 0.07269642 -1.1719184 -1.8358663 -1.1486548 -0.3147323 1.1387305 -0.49685484 -0.3481973 0.07671546 -0.06255143 -0.2291161 -0.13182382 0.23522136 0.2801162 -2.0743546 -0.5524491 -2.097045 -0.38370606 -0.19195071 0.2485891 0.750691 0.644921 -0.7587763 -0.49405208 -2.81912 0.32786483 -0.44632238 -3.3590558 -0.5175625 -0.3695162 -2.4724016 0.41224453 -1.9662724 0.48335838 0.96845233 0.28743467 1.3103598 0.9277258 -0.0944439 0.4342922 0.00476816 -0.6886348 -0.3608068 -0.069257826 -2.328821
C0055856 -0.13287126 0.24759287 -0.18919937 0.19500723 0.4743543 0.07812413 0.09971393 0.28362897 -0.18112914 -0.016399698 -0.11853844 -0.08202847 -0.29230076 -0.18249942 0.33604795 0.30634478 0.09813259 -0.57629234 -0.17140616 -0.16736911 0.006156997 0.107329056 -0.5717656 -0.031832963 -0.19973132 -0.2445948 -0.19432177 0.2853368 0.45167458 0.14798328 0.12958577 -0.031817246 0.68484664 0.065779164 0.04032112 -0.11858476 -0.2619993 0.18939295 -0.02961175 0.317595 -0.60941106 0.103894494 0.51842093 -0.15106814 -0.3103992 -0.33324146 0.19695409 0.23588105 0.122511 0.453287 -0.3792089 1.0222626 1.6521525 -0.9241254 -0.9860583 -0.40631366 -0.29800585 0.47526246 -0.45343712 -0.10026213 1.4040699 -3.2919414 0.35729304 -0.15804355 -0.43527135 0.0464291 -0.670862 0.7174762 1.0263941 -0.67931837 0.92978615 -0.31058034 -1.0859363 0.105433606 1.6971359 1.0746702 -2.172894 -1.2634609 -0.470561 -0.22069085 -0.36299062 -0.3156789 -1.2590135 0.37049124 0.5104097 -1.7573687 0.737228 -2.098252 -0.31095284 0.12969941 -0.65437204 0.36310875 0.28642154 -1.0784868 0.64414346 0.2163212 -0.34582928 -1.1810457 -0.12354838 -2.578388
C0282386 -0.11405564 -0.119438864 0.19881533 -0.116650045 -0.047406264 -0.304665 -0.21557851 0.025814317 -0.0071686516 0.7929345 -0.6224879 0.00759443 -0.19137865 -0.03940714 0.30074105 -0.110546745 -0.051431842 -0.175992 -0.2692802 -0.16790695 -0.11889985 -0.13065077 -0.29695588 0.41087183 -0.023975477 -0.28081155 -0.037388843 -0.23468427 0.5078093 -0.27523905 -0.69416624 -0.20075315 0.30485943 0.26291427 -0.09233021 0.0013577623 -0.047226273 0.55348957 0.2704094 -0.0325243 -0.21285766 -0.25525007 0.0949368 -0.08609434 -0.16147095 0.0970153 0.20857722 0.06515033 -0.42359808 -0.039842054 0.25574556 0.0029724408 0.18386123 0.3519309 0.27968383 -0.30096766 -1.1860058 -0.64152384 -0.48118046 -0.21327627 -0.33766448 0.16379029 0.9773732 -1.6069424 0.1828449 -0.07872493 0.40850127 -0.76914847 0.9252279 -2.2733781 -0.91074544 -1.2607639 -0.9026988 -0.13144338 -0.39973688 0.11785872 0.27795413 -0.83486426 0.118138336 -2.4631577 0.061759975 -0.8032487 -1.9851139 0.9151243 -0.16445345 -2.8747973 0.9083067 -2.3157043 0.072680704 0.64362925 0.40878776 -0.278592 1.7375836 -0.38642865 0.5788947 -0.95454925 -0.8212986 -0.38508737 0.7641497 -0.98322576
C0536495 -0.37529376 -0.41011304 -0.20926154 0.28208715 -0.22025754 0.32568574 -0.27892253 0.47208503 0.0057207244 0.53062963 -0.25152963 -0.19003122 -0.32596532 -0.16314732 0.46553364 -0.13426676 0.17804599 -0.46667188 -0.24606721 -0.17967953 0.17163883 0.25679436 -0.27674642 0.5163042 0.25820568 0.26789194 -0.088581204 0.20047283 0.6134379 -0.17935984 -0.30660728 -0.0032437325 0.16429858 0.12870634 0.021429732 -0.0052459487 -0.47224683 0.25574616 0.3314791 0.18752041 -0.36510983 -0.3264528 0.16678762 -0.14160077 -0.1958089 -0.09632594 0.038127545 -0.04271925 0.01165223 0.32765144 -0.4674023 0.22412312 0.41530815 -0.4614742 -0.91664845 -0.5614642 -0.26096126 -1.2194451 -0.99789536 -1.1356559 1.5391545 0.3946695 0.4783688 -1.01547 -0.71793556 0.52190566 -0.18405892 0.20545875 0.36053255 -2.0440865 -1.4409113 -1.0376846 0.6655191 -0.13671432 -0.36412886 0.20203035 -1.5253998 -0.277948 -0.4766543 -2.1524742 0.080902204 -0.7969162 -2.8959055 0.18111558 -0.86495906 -2.9083881 -0.08574875 -1.0297843 0.084751286 0.9977316 -0.08249427 1.1290237 0.61208194 1.1359313 1.3147253 0.046076618 -0.20677122 0.14992587 1.7103726 -1.8862029
C0110038 -0.030798506 -0.26532614 -0.11995013 -0.051148802 0.17663948 -0.13389708 -0.07245428 0.61402935 -0.18830718 -0.027363071 -0.14476183 -0.29701772 -0.14940278 -0.5113415 0.15104094 -0.3825518 -0.007762023 -0.72197396 -0.20874964 0.10510445 0.081937425 0.228089 -0.16251892 0.34252182 -0.023454992 0.2296422 -0.11997313 -0.033886597 0.65069115 0.09923931 -0.36864653 0.07344121 0.3980757 -0.4456398 0.18044035 0.029735006 -0.18206841 0.06740814 0.5649771 0.056266014 -0.31666884 -0.20346615 0.18692999 0.108500764 0.1702187 -0.18382864 -0.027457621 0.3124306 0.057967063 0.3550035 0.2157204 -0.020235803 0.73214525 0.34455997 0.6291207 -0.3358479 -0.8969269 -1.3287375 -0.62178606 -0.591196 2.300847 -0.43582946 -0.29184136 -2.0884712 -0.23280296 0.71554 0.6726044 -0.072525784 -0.99126 -2.6532795 0.2550921 0.10264902 -1.0601956 2.596431 0.7010446 0.33183187 -1.3024694 -1.119727 0.2753825 -2.427021 0.24229227 -1.7264001 -4.6702714 -0.43871933 0.46435422 -0.27400526 0.11254274 -1.596581 -0.48897249 -0.076174535 0.42701003 -0.2338796 1.8586061 -0.07775076 0.58393025 0.33002925 -0.32482857 -0.19651082 -0.15605673 -1.2777246
C0003232 -0.047196332 0.2020027 -0.0015574784 -0.056245234 0.2965433 -0.070553385 -0.35597566 -0.09884374 -0.013634645 -0.16283585 -0.30388698 0.12285467 0.24984144 -0.283052 0.33574897 0.49126375 -0.16063483 -0.40073124 -0.08594014 -0.25230452 0.06909088 0.31711122 -0.22081445 -0.15304339 -0.23403578 -0.016493347 -0.10620527 0.10844297 0.07443618 0.16859463 0.35625947 0.11804787 0.28193843 -0.45163834 0.23335184 0.11965887 -0.27119344 -0.021172417 0.4131099 0.4970491 -0.41211486 0.03403578 0.2071335 0.07622852 -0.37697792 -0.054602187 -0.3592964 0.41982004 0.33398482 0.17894553 -0.115028374 -0.20511287 1.2631421 -0.085722245 -1.8913395 -0.5588344 -1.1221677 -1.5880603 -0.69724643 -1.0583948 0.854809 -2.4359496 0.12998721 -0.6323935 -0.910606 -0.082103014 0.5941454 1.739623 -0.15941301 -1.204737 0.6993074 0.032126132 0.7354497 0.72385246 -0.27347228 -0.11796388 -1.5455617 -0.58350396 0.5101013 -0.5269535 0.071214855 -0.62139666 -1.8174961 -0.6041251 1.787825 0.9360275 0.69066375 -0.44341856 -0.61777383 -1.3372524 -0.6278024 0.24740764 0.69005203 -1.1074394 0.30522293 0.20034128 -0.31286046 0.2970097 0.53719795 -1.183139
C0021311 -0.44334015 -0.1014049 -0.3714656 0.21660449 0.18104544 -0.16266322 -0.041552573 -0.32472792 0.4384683 0.098228484 -0.378189 -0.503619 0.074347556 0.041968815 0.68458194 -0.0120149 0.1467258 -0.28806537 -0.27777094 -0.7198371 0.09149715 0.0060464726 -0.32615227 0.5231361 -0.21332407 0.22777537 0.045998413 -0.019543257 -0.20108108 -0.22904345 0.3679197 -0.077151924 -0.025451433 -0.24964602 -0.20802124 0.207509 -0.17422935 0.08274755 0.015876984 0.091595314 -0.047658764 -0.15851943 -0.0083575975 -0.5311273 -0.6086304 0.18167308 -0.30627227 -0.12891287 -0.018012386 0.15240411 0.7108849 0.15533265 -0.46581373 -0.37118924 -0.3614909 3.7476628 -1.564897 0.09580185 -2.206152 -0.33336037 0.8159709 0.9379552 1.0222766 -0.54321986 0.6450266 -0.43857783 0.867903 1.8006877 0.5102775 -0.48114535 -1.3009518 0.15212971 -0.45890886 -0.7305382 0.38364184 -0.38330486 0.13382716 -0.0011784774 0.3760394 -0.13990524 0.8602285 0.9811732 0.40355355 0.36349195 -0.2799329 -0.850388 0.7339963 0.5473123 -0.12041752 -0.4270055 -0.8277621 0.05224762 -0.41750762 1.2309778 0.31586897 -0.061021853 0.031244947 0.10353752 0.59654886 -1.6909275
C0008196 -0.10093221 -0.3284934 0.003526582 0.063111596 -0.3875768 0.09169056 0.18596855 -0.5041735 0.22964427 -0.068381354 -0.2502135 0.43098012 -0.061531775 0.42505574 0.55233693 0.109296046 -0.25125462 0.00360139 -0.06389437 -0.17065424 -0.040464092 0.29054582 -0.25512582 0.024793867 -0.12859802 0.20766729 -0.31295085 -0.18842526 0.23523325 0.21266073 -0.050157644 0.3055093 -0.5017799 0.14835607 0.5738293 0.30771986 -0.27159774 -0.021254407 0.4482808 0.22239569 0.003317663 0.4206914 0.29820535 -0.20587291 -0.56373775 0.712709 0.12475331 0.11795746 -0.29596782 0.15950015 -0.53215516 -0.17687488 1.7221165 0.3499176 -0.1357243 0.79279345 0.14107797 -3.0648026 -1.3169116 -1.8739262 0.06467847 0.07891572 1.4505502 -0.9319717 -0.1326387 -1.4755377 -0.017052408 0.30071115 0.44923198 -2.7264981 0.13182603 -1.1353309 0.41148168 -0.2555944 0.19217674 0.6195668 -0.51909614 0.008132891 -0.4262852 -2.6582232 0.013003986 0.18663615 -0.08090901 -0.1592048 0.4438995 -0.42754397 1.7096325 -0.73585004 -0.12141425 0.061504263 0.80272853 -0.31579247 0.2152964 -0.13657142 0.036128405 -0.12337878 -0.56837606 0.12855907 1.557269 0.5331589
C0002645 -0.03145022 -0.27443236 0.029822828 0.56998974 0.3647504 0.23142058 0.17384821 0.3647307 0.18532781 0.36306188 -0.0925929 -0.40906814 -0.22605212 -0.19558434 0.06862592 0.015987273 0.17409988 -0.5380937 -0.55243987 -0.06836818 0.09732523 0.14538923 -0.6708855 0.3127962 -0.14762248 -0.07887583 -0.06353596 0.019328764 0.45125002 0.14094263 -0.11818135 0.0004791222 0.3813981 -0.060740404 0.22100621 0.09754739 -0.28796303 0.5154364 0.29598722 0.35165036 -0.36579078 -0.0057339887 0.2591435 0.04654215 -0.12175631 -0.21504863 0.13585316 0.4242504 0.16615376 0.3906622 0.14891367 1.049643 0.6673154 0.96127516 0.47882262 -0.8439097 -0.894062 -0.14085522 -0.48266104 0.41236025 1.9814252 -1.507063 0.33852905 -1.7960849 -0.18239996 -0.0073487903 0.2965551 1.607183 1.130981 -1.6223819 -0.11146624 -0.34418106 0.5876166 0.42233005 0.23018561 0.36962306 -1.7272503 -0.5751206 -0.46853653 -1.204704 -0.046860058 -0.33326507 -4.470218 -0.47736618 -0.78042126 -0.6079877 0.8120491 -1.7710938 0.59054947 0.6445712 -2.2734551 0.108552255 0.93871343 0.44868925 0.040778514 0.7366382 -0.64314985 -0.47906676 0.5636091 -0.07838204
C0007561 0.037237458 -0.053543612 0.18204765 -0.69149524 0.3487068 0.22968733 0.35783422 0.014166117 0.13428488 0.43730268 -0.5540816 -0.21612729 -0.31944603 0.02507282 0.7874945 0.09579845 -0.49047598 -0.07729639 -0.044309508 -0.12014694 0.34665543 0.15229575 -0.23828264 0.3548665 0.063737616 -0.4041346 -0.40097898 -0.23627897 0.16093914 -0.014696631 0.01862012 0.23795313 -0.34992385 0.35606438 0.035475783 0.49206278 0.029340705 0.13441558 0.32750145 0.12924227 -0.55737436 -0.004334828 0.19504705 0.20784351 -0.09619357 0.09099722 0.12425061 -0.15599175 -0.038969018 -0.3139045 1.2589018 0.044493206 0.8259261 -0.56776845 0.5153535 0.5204524 -0.005120058 -0.012522326 1.0371802 -0.88242304 -0.19254291 0.10340716 -0.12626573 -0.5384192 -0.26529697 -1.7589729 -0.004373343 1.382184 1.9674672 -1.9815271 0.7116293 -0.61395234 -0.24522392 0.7097473 0.6220397 0.56401247 0.3903252 -0.58281064 -0.0137872305 -1.879525 -0.14203659 0.4660055 -2.11606 -0.33844203 -0.09571045 -1.4955196 1.783285 -2.3708518 0.7245046 0.8034827 0.10858993 0.6031803 2.1210334 -0.10237086 0.14273717 0.32090446 -0.5819474 -0.2744407 0.26164672 -0.040157676
C0016277 0.37306094 0.034393694 -0.0381638 0.29465967 0.09527993 -0.3434586 0.042105637 -0.017941229 0.18747745 0.38375214 -0.109398 -0.06303901 0.7346102 -0.51835024 0.06347593 0.23081374 -0.035231676 -0.123557895 -0.06955716 -0.23995212 -0.36527058 -0.56776947 -0.22833563 0.36499494 -0.0065797633 -0.4404361 0.13156974 -0.37397486 0.07024874 0.16846944 -0.31522635 -0.18718591 0.031904373 0.2419984 -0.49047476 -0.21357223 0.44487655 0.11438298 -0.062009607 -0.14743511 0.06707577 -0.5625331 -0.18037064 -0.2953242 -0.27577367 0.013918069 -0.20921953 -0.44595215 -0.21865277 0.19142781 2.1983547 -1.2827202 0.7360719 -0.06352061 0.46311745 1.0371907 1.0256122 0.18883815 0.39641163 -0.7121985 2.9633691 -1.2845182 0.74781936 -0.828901 0.22302 0.93290854 1.9048836 -0.84028333 -0.041408256 -0.093505 -1.209147 -1.6065713 -1.6711413 0.060491376 -0.2787361 -0.17941298 -0.5059823 0.30374616 -0.018354231 0.3282523 0.8211255 -0.4297257 -1.5781212 1.1188712 -0.19560324 -0.72270525 0.59432656 0.09636392 -0.18440743 0.102169715 -0.40377298 0.8939313 2.1467707 -0.28102034 0.4641153 -0.10973723 -0.061006904 -0.38755882 0.6191709 -1.001344
C0001617 -0.6797936 0.14882477 0.34985206 -0.22762328 0.08199009 -0.20341066 -0.3348359 -0.13439022 -0.055779602 -0.4059475 0.16053782 0.12273467 -0.13558044 -0.24492587 0.019449651 0.19358969 -0.29533607 -0.74050945 0.5242471 -0.49276927 0.12391188 0.21225636 -0.20533803 0.06561552 -0.06022871 0.08514751 -0.029392295 -0.15101151 -0.327064 0.38966262 0.041633077 -0.09522555 -0.17143992 -0.19230646 0.1026939 -0.46293318 0.10502424 -0.05772931 0.022457726 0.03190337 -0.12527066 -0.46903074 0.31752062 -0.4807495 0.094877444 -0.03871156 0.48663235 0.12525631 0.14879826 -0.34131992 -0.3296496 0.9742746 -0.08170956 -0.64078027 0.3305721 0.4049572 -0.27782008 -0.34654847 -1.6150717 -2.8527176 -0.3671329 -1.1480334 0.22619282 -0.5037707 -0.16960162 -0.6060931 1.3470944 0.07809759 0.31158006 -0.6896718 1.5314633 -1.577838 0.013201753 -0.00019923942 -0.01590898 0.27474844 -0.9049491 -1.7306447 0.33024132 0.349108 0.61522 -0.23479365 -0.6633304 -0.39177006 1.5254012 -0.719497 -0.079627454 0.4508673 -2.729428 0.14477743 0.3447179 0.07555164 -0.7815895 0.62501454 0.14344248 0.037248958 -0.9678272 -0.9444694 1.3712397 0.1593754
C1120106 -0.2123877 -0.3954438 -0.48672053 -0.25892353 -0.17462307 0.46876943 0.02759202 -0.26155913 0.05596422 -0.056265265 0.09499928 -0.41683856 0.22527428 0.20844297 0.0704013 -0.18949082 -0.17243114 -0.2550708 -0.34430233 0.004466917 0.17558697 0.16342591 -0.32823062 0.10312499 0.1441898 0.60647476 0.03757386 0.12867965 -0.12946934 -0.48315722 0.29535514 0.26840496 0.17939991 -0.2536408 0.23153263 0.17213005 -0.21132293 0.010726954 -0.35423422 0.08655699 -0.21366222 -0.6013157 0.51732624 -0.39545256 0.101405285 0.22688197 -0.4651127 -0.12116114 -0.18896449 0.31591076 -0.013566086 -0.26965454 0.6017903 -2.2251995 0.013421627 0.48343897 -1.7491575 -1.2891114 -1.1893134 0.6783866 0.617724 -0.33452946 1.1245633 -0.08537701 -0.5050727 -2.0089796 0.0008614474 -0.11983925 -0.032581273 -2.308299 -0.3813531 0.40164277 1.0331947 -0.08544505 -1.0666859 -0.45014435 -0.62641037 -0.23620403 -0.32384923 -1.0189139 -0.18548077 0.4183626 0.020985473 -1.5032871 0.6717927 -1.7366861 0.14443985 -1.5185682 -0.821364 -0.5072077 -0.1403982 -0.025197811 3.28202 1.7755129 -0.13703938 -0.43887484 -0.2292538 -2.3136213 2.0703065 -0.64085525
C0041044 0.26258695 -0.18352719 0.20236701 -0.13370314 0.33915585 0.18874508 0.07487074 0.026674028 0.3660599 -0.013970703 -0.4493845 -0.39634228 0.317031 -0.028946005 0.59700906 -0.55395967 0.014128838 -0.14904119 -0.08268017 -0.41688052 0.6186701 0.3771521 0.019829232 0.7274522 -0.33432174 -0.080361955 -0.04211838 -0.42622817 0.011506082 0.2210735 0.057643943 0.28595784 0.19971491 -0.38879666 0.09815752 0.33174935 -0.20272955 0.06034553 -0.39787662 0.17965785 -0.11591989 0.499155 -0.03053026 0.22901617 -0.32686812 -0.049390472 -0.06538063 0.059764184 -0.246674 0.071863584 0.3587267 0.7365844 0.4660616 0.17751884 0.5835079 -0.056201953 -0.48402122 -1.6465133 -0.31137997 -0.08281736 0.93794584 -2.6901455 0.09206317 0.8392838 -0.61747307 -0.8669565 -0.5605826 2.327472 0.9737372 -0.3494779 1.7398943 -0.6326287 -0.54748666 1.0917218 -0.38850823 -0.8572591 0.95100707 -0.619708 -0.10320464 -2.6705093 -0.23429565 -0.18958527 -1.3690851 -0.34122476 -0.095171385 0.30929708 1.2776912 -2.5278852 1.061392 -0.08472649 -1.2439619 1.2103888 3.1085498 0.5370473 1.2590047 -0.79332703 0.6828467 -2.4232152 0.8211023 -0.43614715
C0352155 -0.35853404 -0.23244272 -0.15119992 0.38235864 0.14903195 0.44720158 -0.0006772676 -0.03535984 0.2952244 0.20086412 -0.33995712 -0.15451711 -0.08557102 0.22953965 0.39740494 -0.028252095 0.09821127 0.21427532 -0.3369858 -0.21619293 0.019927029 0.15243344 -0.7566544 0.52038854 -0.007631943 0.4186388 0.19449247 -0.13229536 0.20694043 -0.009216149 0.41845942 0.04584848 0.40102318 -0.30140102 0.06260582 0.12943783 -0.40858915 0.027911972 -0.0007797278 0.3189711 -0.21981624 -0.1316501 -0.06441097 -0.35404018 -0.20830436 0.19416744 -0.16456388 -0.0071442723 -0.027185518 -0.29362643 -1.0699481 0.6512853 0.5349823 -0.60837966 -0.1008592 0.2862413 -2.1815152 -2.1167934 -3.2659497 -0.7396371 2.8945785 -1.5981145 2.3429713 -1.2485278 -0.54574376 -0.18170474 0.08044481 1.754437 2.5130317 -1.8446281 0.48270875 0.3180673 0.04460638 0.24904656 -0.16101399 -0.22042911 -0.34244704 0.31197873 -0.6681694 -1.0620872 0.3356975 -1.4297048 -2.4408686 0.51112497 -0.6053816 -1.8259513 4.075683 -1.5038863 -0.39444304 -0.56238186 -0.30263615 1.3592119 0.604449 0.755063 -0.012156429 -0.27797315 -0.6655543 -0.22204183 0.67716944 -0.07895705
C0040341 -0.004682934 -0.2590422 -0.054374166 -0.3810828 0.18888311 -0.432897 -0.11841114 -0.2157012 0.09330369 -0.14862143 -0.3980276 -0.45605737 0.17182565 -0.23829025 0.2681644 -0.020850116 -0.00025947057 -0.56022376 -0.29116353 -0.6745238 0.32886687 0.5723725 -0.36477935 0.2632793 -0.34405503 -0.02649751 -0.110340305 -0.11124448 0.04156699 -0.27474776 0.30050123 0.3551556 0.0677875 -0.09197332 0.10078177 0.23978966 -0.14582986 -0.19589604 0.26890177 -0.023034776 -0.5692211 -0.13373205 0.08547715 -0.2744037 -0.108268075 0.12480157 0.21469697 0.12280844 -0.10861683 -0.019218361 0.3528212 -0.35705894 1.914756 -3.2684162 0.2359231 0.36006275 -2.2421489 0.4212769 -0.82338977 -0.11242327 1.221915 0.18443632 1.1951141 -1.8630095 -0.8106163 0.20859373 0.93420833 2.2965684 0.113694526 -1.8267719 0.9124158 0.47571054 -0.26733223 1.2449368 0.12699924 -0.47145364 -0.058052614 -1.2296262 -0.105944045 -2.0011563 -0.33047986 0.07824443 -2.2131557 -0.28562024 0.7220356 -1.6721299 0.7674114 -1.5113114 -1.0774013 -0.26807186 -0.9593381 0.78842235 0.6797059 -0.04124857 0.78544784 -0.1938701 -0.17869796 -1.6940738 0.016759953 -0.050939243
C0013090 -0.09627082 0.0017931226 -0.0550605 0.35532647 0.5273 -0.058775906 0.01668845 -0.24720228 -0.091247596 -0.050905295 -0.18228221 -0.29073384 0.18574786 0.40046024 0.28727505 -0.0829663 0.3391701 -0.398238 -0.38066813 -0.5426952 -0.12025468 0.016266445 -0.34702134 -0.048260763 -0.69213927 0.048275147 0.008095624 -0.16720276 0.0821715 -0.15115643 0.4547663 0.3040843 0.49030867 -0.22578067 0.20669469 -0.3790268 -0.07406325 0.3263962 -0.065893605 0.11789551 -0.16655129 0.51073426 -0.47032326 -0.33636996 -0.1805719 -0.1824246 -0.0309725 0.3256627 0.19626507 0.09622804 -0.17922306 0.57683015 -0.4872707 -0.5249327 -1.3586855 -0.3075698 0.43740144 -2.3322134 -2.6532063 -0.34503406 2.7673635 -2.5780897 1.8407397 -1.0618131 0.13569489 0.4133393 0.56661713 1.6892642 1.2506572 -0.46834102 1.7200238 -0.82466877 -0.5128195 2.3919532 -0.4808419 1.5885743 -0.26101625 0.16573732 -0.12174253 -0.60648423 0.07010463 -1.2508184 -0.80825377 0.9654316 1.3099492 0.46681526 0.1827558 0.3446596 1.0342972 0.07371346 -2.6242895 2.5034442 1.0070187 -0.05954958 0.23997863 0.68103737 -0.7538045 0.0113277985 1.9436963 0.1300961
C0042839 -0.2903192 0.55544597 0.26384878 0.34947175 0.39568296 0.0051670913 -0.20468223 0.49228528 0.19957365 -0.14154355 -0.14664774 -1.0731792 0.003181236 -0.047100447 0.21065457 -0.07696298 -0.17239653 -0.34350392 -0.03634742 -0.20341742 -0.38995415 -0.53852695 0.5788409 0.5659847 -0.16219988 0.37122315 0.08233332 0.09416718 -0.2536598 -0.14588502 -0.035701327 -0.033011585 -0.44450957 -0.36519983 0.022311678 -0.00054016354 0.074290514 -0.031304963 0.07314787 0.3686483 0.6225295 0.050779935 0.29533315 0.14309439 -0.5670558 0.20669766 -0.34414676 -0.23359537 0.36571273 0.34040257 0.3128039 -0.1080564 0.47828093 -1.0152098 0.4836089 -0.6058489 -0.5258528 -1.453046 0.96633536 0.6204193 1.5380503 -1.2954389 2.940231 -1.9577047 -1.128984 0.069556415 1.2350807 2.8817403 2.1645277 0.59445 0.60398847 -0.94180536 -2.198931 -0.6792801 1.7525395 0.45810518 -0.5519876 -1.3147272 -1.6268663 -0.29641613 -0.7815153 -2.4191165 -1.4454553 -1.544201 -0.66769195 -0.15648392 2.5206203 -0.6733347 -0.19611667 -1.2636417 0.20477572 4.2827973 0.39585683 2.837593 0.4172375 -0.05275756 -1.1732023 1.2088218 0.54461414 -0.31122994
C0053230 -0.018604016 -0.144022 -0.1567769 0.5320512 -0.3544579 -0.34524655 -0.08857223 -0.14265732 -0.020487802 0.15668413 -0.8128505 0.008015645 -0.0013190794 -0.25487006 -0.372855 -0.07455895 0.024928626 -0.37733227 0.061138704 -0.20474342 -0.4232573 -0.37873578 -0.40905592 -0.034204468 0.038683496 0.3221071 -0.13619597 -0.5611825 -0.03518713 -0.173103 0.26219118 0.33327556 -0.009048285 0.21052136 -0.31322068 -0.100424886 -0.10554751 -0.23794581 0.4836808 0.28935447 0.33667442 0.1422012 -0.30125588 -0.08268296 -0.020078167 -0.5258415 -0.5389211 0.0355093 -0.06254404 0.2652853 1.1310735 -0.20357338 -0.9732637 0.23082751 0.09625038 2.7610087 -0.15238018 0.25840145 0.1161295 -0.44721878 0.64679253 -1.3384327 0.4601502 -0.79952055 0.8895085 -0.86215746 0.9469609 0.61746883 1.0355617 -1.684234 -0.5191747 -0.23431036 -0.99166197 -0.17358842 -0.56486255 0.3882311 -2.7912397 -0.3148104 -0.34515303 0.23692533 0.5132749 -0.7363343 -2.0503721 0.8523769 0.7393754 1.1307005 0.197297 -0.10948062 0.21223366 0.3467579 -0.26153317 1.9037861 2.428318 -0.20080255 0.14068894 -1.7340518 -0.0441323 -1.2183634 0.8238467 -0.70637727
C0028741 -0.14219204 0.35680762 -0.6398918 0.3213786 0.18661855 -0.29701644 -0.63572615 -0.2707322 0.1971301 0.25738472 -0.51630926 -0.4809111 0.42665118 0.005377462 0.06040787 0.05857594 -0.24983639 0.10177543 -0.10515793 -0.43558526 -0.23686017 -0.06586661 0.14644168 0.31520393 0.12236729 -0.08454116 0.15467238 -0.17201358 0.013345097 -0.10084962 0.12735397 -0.3705798 -0.16322832 -0.39403084 -0.06884645 0.53939074 -0.2983644 -0.008232472 0.04884486 0.21241671 0.19272386 -0.17652225 -0.17227298 -0.23618074 -0.3820236 0.27539548 -0.45109862 0.03863433 -0.10380229 0.25890115 0.7145187 -0.60888135 0.18177366 -1.4860727 -0.57356226 0.29523388 -0.06223868 0.69720405 -0.8241812 -2.60544 2.0637405 -0.14454971 -1.0030679 -1.5272803 -0.67260087 0.47215652 2.6827726 -0.9384807 0.98482746 -0.5025464 -0.015126596 -1.3235407 -2.8839939 -0.27286983 -0.47202352 -0.6685852 -3.0013518 0.9002879 -0.4335262 0.5663167 -0.28482544 -1.1764921 -2.0336232 0.2905492 -1.0518472 -0.5661242 3.1114528 0.3081664 -1.300652 -0.44632268 -0.64568424 3.9455955 3.7333992 0.92231506 -0.041077357 0.0785542 0.56291074 -0.47662613 -0.27808017 -2.5295959
C0023660 0.39277196 0.061642036 -0.26291755 0.32130346 -0.010058665 -0.024519207 0.057523128 0.09057922 0.20910339 -0.27744433 0.16045056 0.22083956 -0.27914068 -0.45502657 0.5056593 0.092990644 0.41458023 -0.21700284 0.47132635 -0.48451278 0.08468527 -0.5114832 0.04379173 0.030021043 0.1320733 -0.051011663 0.380041 -0.23062375 -0.2507035 -0.27376637 0.32861862 0.115654014 -0.10607775 0.28057456 0.0008691199 0.5186483 0.3056624 0.24897406 -0.095955 0.25169188 -0.27999938 0.17975684 0.07377806 -0.24232018 0.35169345 0.062414516 -0.22998486 0.023929184 -0.18453532 -0.44184625 1.4605289 1.0918509 0.3114281 -1.3208005 0.627234 -0.034468174 -0.39345694 -1.6907951 0.3239091 -1.1148406 1.8950226 -1.4409491 -0.06516774 -1.1536182 -0.51165706 -0.7992406 -0.7314467 0.9145819 1.0021744 1.1773968 0.18837851 -2.4294717 -0.05868353 1.1694782 0.13792214 -1.2792284 -0.9411486 -0.61894333 0.32080358 -2.0347836 0.35520867 -1.9000299 -0.27493328 0.5644591 0.20233057 -0.60142547 -0.3489653 0.32022533 -0.08796946 0.13350411 0.27044204 2.2773232 0.2724017 0.5330494 -0.94771314 -1.1286672 -0.36117625 0.13437738 -0.56830484 0.033807375
C0029995 -0.43265817 0.09801143 -0.45953813 -0.29120564 -0.1902644 0.07027958 0.32653767 -0.039823137 0.052512866 0.0059798644 -0.10110182 -0.05023037 0.18222104 -0.03627251 0.24875566 -0.1323816 0.29532236 -0.39246014 -0.03879057 -0.6033629 -0.03591177 0.029150132 -0.10288544 0.3630117 0.16431211 0.76895887 0.07523681 0.1700311 0.48867854 -0.09708147 0.15633655 -0.26099086 0.26626086 -0.029911894 -0.21864106 -0.01190138 0.40678886 0.18758495 0.3271243 -0.18263552 -0.17695147 -0.14071044 -0.17658707 -0.4936144 -0.3060512 0.069671385 0.06906346 0.08292133 0.040551025 0.30953407 0.87718755 0.3442637 -0.32458362 -0.85186344 0.60664666 -0.048569486 -2.0522022 -1.3462013 -1.3601648 -1.7063473 2.7609644 -0.8286708 0.58165866 -2.0944672 -0.43877912 -0.31815195 0.8282596 -0.72259444 0.07411944 -2.51182 1.1801587 -2.4623573 -0.6849579 0.15452473 -0.6239933 -0.46660677 -2.1753783 0.14899695 -0.47539303 -1.0697907 0.14101945 -1.7769691 -1.6249342 0.7487173 -0.07260153 -1.6275334 1.0721585 -2.7123227 -0.08364393 -0.24376278 -0.7762529 0.5784026 -0.22625303 1.0154605 -0.23063822 -0.6916042 -0.37245703 0.43052566 2.275 -3.4839988
C0014806 -0.14084528 -0.2779241 0.09599381 0.37323606 0.7833902 -0.04390128 -0.15750337 0.012205677 -0.31278074 -0.10531329 -0.04761883 0.042155653 0.015265658 0.0920522 -0.020769626 -0.22817467 0.8897136 -0.43497118 -0.34963098 -0.46442974 0.14259078 -0.07409732 -0.44380587 -0.105561405 -0.49081734 0.029059257 0.30572566 -0.15122105 0.38598362 -0.2826349 0.34009126 0.15544352 -0.039781936 -0.13453975 -0.060473476 0.029259603 -0.041394416 -0.059181005 0.06720105 0.31161615 -0.63846856 0.5413548 -0.022120016 -0.31627482 -0.29982442 -0.1888942 -0.0013642771 -0.08615556 -0.15841712 0.12776794 0.915489 1.0349056 0.1421034 -0.5214154 -1.1645113 0.21290985 -0.9682128 -0.63170135 -2.9481335 0.41987002 2.2111049 -2.9283078 0.7645268 0.4252967 -0.41384724 0.22393978 0.54523927 -0.25137007 0.76532644 -0.06277997 2.7032375 0.031099351 -0.5836246 3.4064796 0.4589773 0.39650968 -1.3103207 -1.0760262 -0.40114808 -0.16801162 -0.18964906 -0.11542953 -2.34125 -0.08005263 0.07145034 -0.65944827 -0.5869259 -0.6099546 1.1864455 0.5059582 -0.92321867 0.98438644 1.1078827 0.8612436 0.28442228 -0.89264 -1.2291538 -0.5956522 -0.6474242 -1.4718416
C0022322 -0.04772011 0.17913437 -0.020730766 0.22170994 0.45225167 -0.12640165 0.65394574 0.11353608 0.12667935 0.12218238 0.2204053 -0.3871637 0.23233795 0.23129499 0.25576934 0.24773398 0.6387005 0.018462056 -0.25105962 -0.26919246 0.2120792 -0.64825743 -0.05689215 0.23475772 -0.38360518 -0.38034818 0.2780342 -0.4769258 -0.3117266 -0.2343557 0.75666356 0.04859347 0.11111028 0.04670354 -0.16936637 0.2656819 0.25730994 0.24719523 -0.3863207 0.42636088 0.22048779 0.49736038 0.33157492 -0.43374076 -0.55140465 0.23720413 -0.3114494 -0.19588314 -0.32785296 -0.099725775 1.9180725 -0.8680463 0.116088994 -0.52640396 1.0484269 0.92202234 -0.6762416 -1.1137774 -0.33567852 -0.23128861 0.56220824 -3.2316766 0.20101841 -1.9800968 -0.3658264 0.12449955 -0.64470893 2.8950243 3.3159432 0.6924907 1.1845405 -3.7752764 -0.35846376 1.9407954 -0.004102357 -1.0229547 -0.596746 -1.1892916 0.02202354 -1.0826561 0.078997396 0.27867 0.33006376 0.4468646 -0.1365884 1.1886908 0.24881242 -0.33302885 -0.37583184 -0.49481222 -0.7932543 1.7194743 2.0022268 0.48817965 0.3559024 -1.8565654 0.410424 0.16718285 0.076142 -1.0230703
C0026187 -0.28007504 -0.12909739 0.2887602 0.82494545 -0.083469905 -0.27523503 0.03211807 -0.5807294 0.3368879 0.03934753 0.048235852 0.12767676 -0.12992458 0.4894975 -0.08353673 -0.1326709 0.36842707 -0.15335867 -0.5862547 -0.118533835 0.10942612 -0.45242536 -0.2649915 0.21244471 0.18639395 0.13487123 0.34796566 -0.017814852 -0.045327727 -0.026279552 0.5321221 0.10761676 0.1914563 0.38644052 0.08327779 0.014504598 0.2698826 0.2946651 0.25149885 0.13222064 -0.05530314 -0.35340884 -0.020194449 -0.1087761 0.10215412 -0.31285325 0.13867317 0.3269531 0.47408715 0.553662 -0.8279044 1.9758523 -0.8086506 0.18215038 0.8101591 0.75192726 0.7048898 -1.1439651 -0.47968495 -2.6491325 1.5286596 -0.115870945 0.4496286 -1.0389935 -0.46362102 -0.16657944 -0.011347398 0.6910094 1.0340139 -0.5378636 0.1944969 -1.4322174 0.46634477 -0.29947707 0.7033418 0.27024257 -0.6995327 -0.16463754 -0.7800219 0.49159303 1.5171908 -2.006468 0.7823581 0.19111885 -1.4092904 0.102555506 0.4895092 -1.3725823 0.095552385 -0.62290484 -1.9388188 1.1490535 1.7748609 -0.65419817 0.4152596 -1.4784533 -0.73630494 0.8469192 -0.37613177 -2.923371
C0209368 -0.151745 -0.3428054 0.15854095 0.46296182 -0.21528494 0.070373975 -0.09056474 -0.19913666 0.4785401 -0.11144616 0.22516188 -0.17411405 0.009568045 -0.2887753 0.26120096 -0.08572087 -0.29174244 -0.18241422 -0.3727703 -0.2885647 -0.13318084 0.18532313 0.41348416 -0.09441864 0.38836786 -0.041744303 -0.23267321 -0.13883291 -0.19914165 -0.027240207 -0.19258934 0.1545758 -0.34477803 0.4725313 0.18359141 -0.10722726 0.26952752 0.5721798 -0.2856297 -0.06071663 -0.056893524 0.124338 0.19242121 -0.06358963 -0.35200953 -0.076321565 -0.06850911 -0.82271624 0.120500855 0.1753079 0.519253 -0.08655309 1.2194844 -1.7000582 -0.07129228 -0.34957263 0.09848853 -0.5519623 -2.3509264 -0.33783063 0.71816874 -0.17441714 1.9961057 -0.19337116 -1.1287082 0.4166947 -0.057333104 0.93660825 0.41486794 -1.1141809 -0.036372457 -3.7439406 0.12748301 0.0018980464 1.7968605 -0.33410075 -1.4080442 2.2104292 -0.5570579 0.7279724 -0.22358534 0.07684264 -0.611312 -0.6601646 -0.6322453 0.68299365 0.6414064 -0.88623035 -0.15458818 0.7841804 -0.8319224 0.26589152 1.0257612 0.1149341 0.078068 -0.91560733 -1.0635787 -0.8460691 1.3597183 -1.6771616
C0030840 0.074387774 -0.48774227 0.040534247 0.4390778 -0.40030685 -0.029288292 -0.3704765 -0.5456187 0.7430269 -0.09545582 0.0019915646 0.10023821 0.050005447 0.22324304 0.3590274 -0.23232228 -0.116880774 0.14887898 -0.39605817 -0.49389896 0.035881877 0.0038680155 -0.07061066 0.24770948 -0.1669026 -0.15922101 0.109443605 -0.09213331 0.01057424 -0.06566763 -0.37738875 -0.23445807 0.013264169 0.34317565 0.20851724 -0.1254223 0.11694293 0.20639792 0.21587762 0.31319168 -0.20116499 -0.0050425287 0.5950336 -0.14953867 -0.111889824 -0.16521937 0.50482506 -0.39642224 -0.22688934 0.42771408 -0.1539985 0.075201124 0.8552504 -0.39256632 0.16861093 1.5955104 -0.12055105 -1.0407315 -1.3131088 -0.82261646 0.5158074 -0.31344563 1.4852884 -1.3243893 -0.51760864 -0.34147915 0.91302514 -0.1456448 1.1902435 -3.0616548 0.501569 -2.8560455 1.049165 0.0026560333 0.4191231 1.1614239 0.15328611 -0.8104452 -0.5189675 -1.4112535 0.16853532 0.09739389 -1.4530562 -0.18760073 -1.3129635 0.4664703 0.7509024 -2.3831046 -0.7430443 0.65887195 0.1677524 0.20548472 0.57534057 1.1481993 0.12138002 0.120007336 -0.28571552 -1.8836712 -0.2832036 -0.80134803
C0304317 -0.33294576 0.19046994 -0.31111583 0.3496107 0.14934316 -0.08134296 -0.065088995 -0.008194954 0.37852427 0.16973317 -0.17086382 -0.48640418 0.19616485 -0.023121519 0.33360907 -0.21702018 -0.040739555 -0.23089637 -0.12711713 -0.44683474 0.14992757 -0.07947145 -0.15381964 0.6721946 -0.02980501 0.24217011 0.071944535 -0.14624701 0.15536156 -0.40858418 0.4118629 -0.13945876 -0.07271841 -0.33422536 -0.1864858 0.043489397 0.16599144 0.2469085 -0.06690342 0.043742932 0.24819748 -0.13294916 -0.07002362 -0.12329019 -0.4589894 0.5636114 -0.118058555 -0.10014193 -0.06014655 0.13745199 0.7403223 -0.037544902 0.58628803 -1.6486347 0.32695466 2.4676523 -1.6642289 -0.89574647 -1.5039524 -1.1701616 2.0245168 -0.9423399 1.7065688 -1.2969582 -0.6572827 -0.53897613 1.1567419 1.3600365 1.0622166 -0.9496166 0.6598294 -1.5181594 -1.7298874 -0.0008679422 -0.7730479 -0.84240216 -1.7175169 -0.38541242 -0.9011701 -0.724136 -0.6414214 -0.39890745 -2.0862434 0.82713556 0.31569433 -1.6970303 2.298414 -1.3886921 -0.71760726 -0.20057915 -1.129493 2.0500476 1.3263515 1.8117414 0.3802988 -0.44108588 -0.2099745 -0.71373284 0.68316495 -2.140647
C0028978 0.2958715 -0.24866013 -0.7161644 0.1734271 -0.18260017 -0.20008208 -0.2789529 0.2579088 -0.002915352 0.26149273 0.47197312 -0.36977807 -0.21296713 0.027773408 0.5058923 -0.0370465 -0.14150465 -0.0916813 0.48496845 0.30383563 -0.24257113 -0.15740727 -0.6936575 0.040363103 -0.10582509 -0.3326101 -0.12184796 0.27056712 0.14296424 -0.2772359 -0.050832294 -0.12935196 0.41462043 -0.80663633 0.082631454 -0.024553142 0.34336773 0.34661543 -0.5939938 -0.035258338 0.33817488 0.10343351 0.04116217 -0.0160421 -0.14610974 -0.030372173 -0.061114047 0.28124312 0.12404596 0.20731997 -0.26126778 -0.39548564 0.69768465 -0.34867865 -0.7521202 -0.5634574 0.7124072 0.03302315 0.12690371 -0.46523377 2.9034288 0.35466722 0.50747156 -1.0236224 -1.3077327 -0.6300262 0.21472014 -0.44952515 -0.30608848 0.30711392 -0.30107188 -0.92026335 -2.5824313 0.5351348 -0.48198593 1.4683568 -2.4504063 0.17237689 -0.44839996 -2.7761927 0.19382279 -1.4469056 -1.9641807 0.12275877 1.1874025 0.32325894 0.5828713 -1.0158696 -2.0460985 -0.37868842 -1.0674317 -0.83570457 1.1213564 -0.12966007 -0.75749767 0.14185357 1.4729921 -1.2205665 0.19518353 0.23831144
C0123091 -0.11702354 0.44190115 -0.37182993 -0.28771496 -0.18339965 0.45943215 0.1977564 -0.46551302 -0.112668045 0.31592205 0.12605007 0.013200089 0.3207536 0.09889378 -0.11347935 0.1524305 0.563622 -0.4730548 -0.15268314 0.3069581 0.29804856 0.21803448 0.11195045 0.0064094323 -0.07600484 0.15875219 -0.18995836 0.4912869 -0.60302263 -0.1210671 -0.19415444 0.12495958 -0.043528847 -0.01744473 -0.029978927 0.3510738 0.14085758 0.26051542 -0.08438801 -0.14192705 0.03493584 -0.30741957 -0.58462876 0.001617634 -0.28791496 0.24620818 -0.007569039 -0.389655 0.089390755 0.066798195 0.045981813 -0.17183718 1.5133036 -2.473201 0.6842677 0.22297417 -1.395185 -0.743795 -0.3284054 -0.22138725 -0.16124436 -0.7264697 0.60055536 0.76320404 -0.009055311 -1.2952447 1.2547783 0.05202372 2.1951923 1.7355181 -0.5018431 -0.0517756 0.7329739 -0.22478805 0.0020391936 1.5665504 -0.24477582 0.9885333 -0.4926096 0.09278677 -0.49981833 0.9604081 0.1624889 0.4148216 -0.28488684 -1.116155 0.57663107 -1.502926 -2.0058281 0.2201021 0.3023485 1.975551 1.8395383 -0.26188993 0.63253903 -0.25662166 -0.3260718 -0.4866885 0.44928852 -0.43943542
C0017710 -0.6110776 0.167508 -0.1586745 0.029113505 0.02382996 0.2325978 0.08704323 0.4861888 -0.0520595 -0.26746818 0.15673143 0.031748928 -0.13424344 -0.33093056 0.14537439 0.5787989 -0.15716705 -0.21346661 0.44426933 -0.2859728 -0.19156559 -0.23620436 -0.040774252 -0.11599648 -0.15510255 0.3922813 -0.06572536 -0.22125378 -0.42573985 0.053393748 0.12458711 0.13781205 -0.1273741 -0.55697435 -0.15796627 -0.35055658 0.1594039 0.2500297 -0.010648524 -0.05552208 -0.10332844 -0.02968853 0.24920899 -0.33226386 -0.36673018 0.0068208976 0.3654167 0.3838338 -0.4547203 -0.03010866 -0.2826412 -0.41722637 -0.9861446 -0.91356623 -0.76508516 -0.004506859 -0.7272763 -2.0179243 -0.3125017 -1.2524534 0.84788543 -2.9431481 1.0325458 -1.0234393 -0.86515284 -0.7368859 1.348699 0.74001807 -0.023170369 -0.2854092 1.4365636 -0.77480257 -0.37729248 -0.7452191 2.0165355 1.1442431 -0.88841176 -0.58561045 -1.0894789 0.08154601 0.16776933 -2.4290278 -0.16331802 0.2669704 1.0515083 0.10340836 -0.82434875 -0.24753144 -1.10746 0.73212296 0.45265093 1.7265893 0.0040177847 -0.20535731 2.8336337 -0.3049938 0.033523515 -0.8227805 0.52804977 -2.056913
C1260298 -0.005111942 -0.49984306 -0.33857137 0.08045549 -0.072111405 -0.1897606 0.115606554 -0.45379913 0.16368167 0.16967429 -0.38821158 0.2904135 0.3863543 0.19065873 0.06983987 -0.3627165 0.008372344 -0.46050555 -0.318129 -0.56866693 -0.16693483 0.15587966 -0.45532665 0.3754489 -0.15020789 0.24920304 0.30433637 -0.20411395 -0.16484785 -0.2040734 0.3669361 0.30185992 0.3022576 0.054733243 -0.09260041 0.4202762 -0.0047293003 -0.03436716 0.10239203 0.3687863 -0.2627582 -0.41473213 -0.16615382 -0.12525666 -0.36808684 -0.25196925 -0.08599387 0.19379856 0.029900994 0.522088 0.20592247 1.9017017 -0.45158938 -0.15478429 0.40646318 1.6082871 -1.1994822 -0.9541063 -3.0072982 -0.7704135 1.6277455 -1.5625457 0.64496124 -1.2050954 0.46042 -0.8932151 0.2338005 0.706079 0.8747414 -1.8967336 -0.29557702 0.17381757 0.3663021 -0.8427238 -0.64284796 0.63243693 -0.09376605 -1.4418161 -0.17716059 -0.063199855 -0.6013714 0.70132524 -0.648932 0.04390269 0.56947595 0.11658623 -0.44754374 -1.7011929 -0.6426192 -0.21152648 0.12995379 3.0254848 2.1324906 0.4448697 0.47713825 0.20030627 -0.4616367 -0.3021214 0.41644952 -2.184776
C0250480 -0.12967888 -0.5923534 0.22207783 -0.011120156 -0.103167124 -0.8659419 0.23464906 -0.038399186 0.29300222 -0.226896 -0.21700151 -0.060009923 0.32448855 0.061070118 0.24026798 -0.24271943 -0.3692082 -0.03673254 -0.43916968 -0.4855536 -0.022909489 0.6204222 0.06695149 -0.076712266 0.09832261 0.11388096 -0.070137486 0.03309541 0.042539135 -0.40752068 0.07705406 0.35607475 -0.018639827 -0.21113138 0.40806094 0.13498671 0.029983899 0.28037798 -0.6306291 -0.011622084 -0.3591912 -0.09096681 0.30315968 -0.24340785 -0.10596498 0.03957052 -0.4819933 -0.29993093 -0.056272514 0.22488526 -0.01148321 0.87782234 1.8500069 -1.1291746 0.8298832 0.92396414 -0.07368743 -0.3057711 -0.89905995 0.8619732 2.4074452 0.59734374 2.2631843 -0.99883914 0.3492393 -0.4284434 0.46172836 1.0721737 -0.3405309 -1.4523244 0.6032381 -2.0652943 0.8198393 -0.9185222 0.094752416 -1.2290814 -0.0220472 -0.9316789 0.06291361 -1.42119 -0.121194944 0.34531832 -1.2283751 -1.1589857 0.8197812 0.21938555 1.3493873 -0.67832536 0.10542594 -0.6594328 0.23318236 0.6527971 2.6529498 -0.44355 0.21430317 -0.8106382 -0.23180343 -1.7951874 1.965123 -0.8318537
C0028365 -0.30856055 -0.46182883 0.09527635 0.15685648 -0.13056558 0.08559437 -0.17054881 0.35306072 -0.05975145 0.3474662 -0.45057485 0.22358617 -0.3387171 0.41790292 0.54935 0.27299717 -0.12231256 -0.23438706 0.11966866 -0.28821665 -0.018555695 0.12158461 0.07910907 0.43496764 0.025259672 -0.21150053 -0.23498374 -0.09974008 0.55763406 0.053843614 -0.08130469 -0.2607326 -0.4066578 0.15918964 -0.08763176 0.62802655 -0.24596529 0.23817402 0.40111876 -0.26838422 0.044453785 -0.15727279 0.14789182 -0.022438185 -0.24596652 0.45777386 -0.0071761794 -0.32341465 -0.16218714 0.34526786 0.31977582 0.90394264 0.35421768 -0.461611 0.6929942 0.060856495 -0.54033715 -0.52661294 -0.23957467 -0.81739134 0.68253106 0.3490483 0.31443828 -0.35182342 -0.9805218 -1.3288546 -0.31205326 1.5659788 -0.67528737 -2.2878368 -1.3246076 -1.3901398 -2.396198 -0.28381124 -0.7277587 0.4292308 -0.6434425 0.59974456 -0.61551785 -0.41841385 -0.27010414 -0.1106873 -0.85985446 0.008526266 -1.7315559 -1.5342073 1.6602997 -0.19511835 0.7117811 -1.16509 0.34600845 1.4772215 0.19893068 0.72488505 1.2518727 -0.07270031 -0.7885913 -0.81770945 -0.40116814 -1.9136708
C0052432 -0.10033638 0.122733206 0.050268017 0.0914335 0.5275224 0.28049663 -0.21597734 -0.22426046 0.1956878 0.03843224 -0.21426226 -0.37401053 -0.23323439 0.18917596 -0.062025063 -0.5416443 -0.0064387815 0.058781527 0.031571064 -0.2477531 0.032861646 -0.36840907 0.6041171 0.24431024 -0.23792514 0.4973896 0.01036968 0.06782377 0.40502614 -0.4447562 0.5761065 0.43599004 -0.22390123 -0.2629749 0.1677198 -0.378101 0.21572752 0.1712768 -0.51806146 -0.0050886343 -0.002056727 -0.26222768 0.18354356 -0.1303017 -0.17462675 0.56118315 -0.3138355 -0.014596252 -0.062336773 0.015084314 2.0578785 0.2884425 0.5322284 -0.44240096 1.2466205 0.84734166 -0.60797536 -0.73163915 0.15250175 0.6695296 -0.03902464 0.1265588 1.7833203 -1.1968343 -0.027480328 -0.02373813 0.39341834 0.031685587 0.03042424 -0.61224216 1.5461004 0.20353834 -1.3562782 2.2719092 -0.18885122 -0.887094 -0.59687287 -0.3294899 -0.8201767 -1.4128312 -0.8086966 -0.4830254 0.19373891 0.092622675 0.6020331 0.034329534 0.46058127 -2.041399 -0.5783857 -0.28824994 -2.044032 -0.26559952 1.382444 1.4387232 0.26200813 -0.27713838 0.84079576 -0.5484149 1.4865644 -2.8737853
C0700599 -0.4231127 0.36474 0.01895675 0.1374088 0.34162477 0.078613654 -0.13376951 0.095203 -0.048765242 -0.09664349 -0.06212111 -0.5281821 -0.023713376 -0.15846948 0.19272764 -0.37633714 0.2543496 0.20315538 0.16985065 -0.3499105 0.24883026 -0.41496435 -0.013448827 0.59464836 -0.5160877 -0.1121565 -0.031079572 -0.17110103 -0.30538553 -0.6355834 0.2102716 -0.21202315 0.14286095 0.081092544 -0.13044572 -0.0020364402 0.35458323 -0.04454172 -0.20434687 0.41962937 0.24519569 0.40454158 0.16924323 -0.41743243 -0.35254437 0.48047823 -0.27137905 -0.5381986 -0.28921205 0.38487297 1.7723656 -0.18165185 0.53356975 0.08872052 -0.24041863 0.20514528 0.034009602 -1.6508962 -0.7244431 0.020466132 0.5842248 -2.1317084 2.2924545 -0.2095884 -0.49217215 0.3151513 0.35141852 2.6039655 1.7595253 0.18753374 0.8479922 -0.9135318 -3.866085 1.5786828 -0.33641183 -0.5897527 -0.53455806 -1.2435857 -0.4905227 0.028270042 0.03826879 -0.8258644 -0.043370508 0.20193034 0.13628373 -0.19305852 0.29964283 -2.6788657 0.07212507 -0.017777663 -0.11086647 0.60263747 0.63063484 2.011474 -0.003279566 -0.9240869 -0.71741456 -0.685491 0.1079597 -0.9570857
C0055003 0.13290928 -0.47184575 -0.40094936 -0.3427001 0.02785276 -0.29409596 0.34819993 0.1601634 -0.03548828 0.15900275 -0.26749495 -0.27523983 0.25984395 -0.09561981 0.3327608 -0.037496876 -0.4350907 0.0437445 0.07288981 -0.7285149 0.40390825 0.70756173 -0.2771287 0.22879814 -0.11755833 -0.009939119 0.35581794 -0.13996074 0.03129762 -0.29062834 0.15365915 0.4535064 -0.17780297 -0.21992835 0.09597783 0.3564886 0.0045045787 -0.11388526 0.102099195 -0.17770559 -0.28244987 -0.20655705 -0.02017933 -0.41821927 -0.12631442 -0.22116679 -0.031618096 -0.06359759 -0.23785539 0.07384852 0.13225338 0.021525458 1.4649061 -1.639504 0.11134397 0.45887685 -1.2289023 -0.4980687 -1.9738567 -1.1369953 1.7624676 -0.22249712 -0.23930928 -0.5296743 -0.26834443 -1.3200272 -0.49750268 3.7641387 0.20748451 -1.49497 0.20427793 0.38269323 0.0024827449 0.17389378 -0.44859257 0.19090468 0.26274878 -1.2113504 -0.027526092 -1.3321154 0.31147343 0.022027262 -0.19441673 -0.39947793 0.64022595 -0.85973805 2.07263 -0.07384816 -0.049365845 -1.0063422 0.01067665 2.40867 3.8724144 -0.012555941 -0.012204034 0.21199557 0.53648734 -1.3541882 -0.3965499 -0.4876259
C0304320 -0.19575569 -0.3066248 -0.044962067 -0.10891961 0.1519177 -0.15202764 0.07307299 -0.18122482 0.18716927 0.19520433 -0.4159107 -0.19963825 0.062967606 -0.16718385 0.58653754 -0.044159558 0.17075154 0.23071611 -0.19706868 -0.7042064 0.24419092 0.35204962 -0.4051514 0.35201964 -0.16399729 -0.10682287 -0.05835803 -0.36010766 -0.04797433 -0.17836137 0.49793142 0.3484966 -0.044913184 -0.25426736 0.24037717 0.27079448 -0.124589466 0.065213725 -0.13162054 -0.10230987 -0.20488332 -0.13478082 -0.09747626 -0.3314438 -0.20763618 0.33168665 -0.09908506 -0.11897606 -0.13690948 -0.06433868 0.49714416 0.5815792 0.48016718 -1.922799 0.24865763 0.0870543 -0.8858412 -2.1500793 -1.7258061 -2.1712065 1.4637432 -1.5492443 1.553333 -0.27723476 -0.34158674 -1.8319889 -0.3796408 2.374139 2.077023 -1.1514539 0.7410325 -1.0186795 0.6094629 0.40197158 0.3422844 -0.5114601 0.6988147 -0.46850824 -0.07190927 -0.44589084 -0.106810816 0.7080664 -1.6098006 0.24542966 0.27225366 -1.2800108 2.4666765 -1.2310257 0.44922727 0.19138445 -0.3112617 1.8303457 1.9006525 0.20700073 0.95112026 0.5594798 -0.027870499 0.22713308 0.1250108 -2.622192
C0008269 -0.31929967 0.3725288 -0.07357847 0.21170743 0.3756908 -0.1676854 -0.11516261 -0.052292835 0.21581289 0.1949886 0.04630283 -0.3928753 0.27767128 0.006494728 0.49217024 -0.05812889 0.34525377 0.14904362 -0.089948304 -0.09668663 0.2940467 -0.5686363 0.0609554 0.42958504 -0.4337631 0.12641291 -0.38835403 -0.51953584 -0.30406567 -0.29628304 0.118724994 -0.16785422 0.32549384 -0.0050028935 0.044670645 -0.5539283 0.21772118 0.23411551 -0.2132605 -0.013911926 0.37658304 0.2084813 -0.24414323 -0.45587212 -0.3263725 0.25625744 -0.24133076 0.072766125 -0.13488929 0.3313482 -1.0391027 -0.5916407 -0.28348196 -0.6249035 1.2666752 -0.07361405 0.063133374 -2.4705133 -0.83496875 0.2676733 0.8225046 -3.5843585 2.6950226 -0.7325693 -1.0671852 0.2747921 0.685741 2.4844427 1.1491946 -0.32245198 0.22222656 -2.313948 -1.2139684 1.6159513 -0.14671324 0.8449233 -1.133987 -0.6997001 -0.2432182 -1.7191077 0.4402687 -1.732603 0.57741797 0.043097086 0.07217709 -0.1682655 0.5178082 -2.1569848 0.049431056 -0.47172216 -3.0091012 0.64489114 -0.60842454 1.1386644 0.8220184 -0.8514012 -0.85252756 -0.03057527 -0.19916703 -1.5590746
C0025872 -0.34667638 0.091006994 -0.026280625 0.27498066 -0.11454538 -0.03179991 -0.06868337 0.604718 -0.011450185 -0.18871397 -0.2169536 -0.46246934 0.39836004 -0.23239122 0.3439884 0.027735306 -0.025862038 -0.63970053 -0.4051738 0.04608784 0.23821865 -0.12746465 -0.5917326 0.17191866 0.30449092 -0.14992832 -0.2222413 0.18425967 0.23750663 -0.0008410215 0.0031583966 0.25524116 0.6272555 -0.1420358 0.3065389 -0.052843496 -0.14879179 -0.22176184 0.24962711 0.28317785 -0.12633875 0.10136282 0.13833255 0.072177574 -0.5328814 -0.075827956 -0.30047995 0.06914513 -0.07130612 0.030535357 -0.6876158 0.035365574 2.026109 0.28213385 -1.2810161 0.2203716 -0.23071632 -2.1971138 -0.4293698 -2.062363 3.4620323 -0.87719566 1.1499003 -0.21969424 -0.43424556 0.0035480212 0.24476415 2.6658735 2.089882 -0.7890108 -0.42039305 0.61762524 -1.5418967 0.64597446 -0.15075313 0.9699644 -0.65561515 -0.9627629 -1.0398811 -0.6657465 -0.18385674 -1.8053875 -0.734717 0.23163527 1.3658553 -0.47451776 1.1582509 -1.0030664 -0.6908094 -0.6923501 -0.03037196 -0.21527678 1.252078 -0.24266955 4.2814646 -1.158451 -0.3346388 0.7735229 0.055930596 0.9253974
C0032952 -0.6757586 0.26890466 0.07703208 0.09145306 0.22976461 -0.13866714 0.024822082 0.027738351 0.24096067 -0.10911265 0.10521103 -0.41402206 -0.13994136 -0.07040728 0.0510285 -0.23951457 0.16272849 -0.08482214 0.29300666 -0.42617857 0.1966851 -0.3878483 -0.33268777 -0.33096832 0.0807663 0.46213043 -0.03894024 -0.4251013 0.016585488 0.58058876 0.036165725 0.028743546 -0.13940208 -0.016908728 -0.16717397 -0.4754431 0.09575329 -0.16139245 0.5302696 -0.63752514 -0.1339303 0.13934983 0.04329319 0.04059901 -0.23367009 0.22567946 0.23592116 -0.08239715 0.19706373 -0.05653166 -0.21718547 0.86318773 0.6060476 -0.0968525 0.6941718 0.23426388 -0.14138871 0.24746265 -0.5333707 -2.040437 -0.022450445 -0.83890414 1.917981 -1.3943179 0.90295637 0.3027858 -0.025938228 1.0298089 0.42282042 -1.8153002 1.5696101 -2.8919163 -0.654426 -0.02307263 -0.1473104 1.6906811 -0.8769266 0.4507353 -0.631776 0.45793957 0.31528127 -1.11383 -0.28223628 -0.46578345 1.5398269 -0.5875225 -0.40672687 -1.2260665 0.29224733 -0.274877 -0.8017327 -0.63013434 -0.18886787 1.022847 1.8368394 -0.7692053 -0.4483981 0.9851931 -0.5490421 0.81694317
C0282215 0.045693785 -0.36049667 -0.19945863 0.12561701 -0.024448134 -0.11601003 0.2684129 0.19427808 0.3646995 0.13483196 -0.5066597 -0.2485283 0.32456076 -0.17025198 0.44326597 -0.29955783 -0.15210111 -0.11429385 -0.2849178 -0.52276903 0.1498033 0.1461298 -0.45855427 0.62965083 -0.062003575 0.20221359 0.06529992 -0.2404589 0.017841399 -0.38092694 0.2751548 0.21574934 -0.06158062 -0.14912756 0.20137167 0.20903575 -0.3036362 0.03658624 -0.2044402 0.074446835 -0.38724655 -0.2398784 0.02505266 -0.40731862 -0.40804225 0.020515313 -0.079948425 -0.09009087 0.054872647 0.030766588 0.29159933 0.8030066 0.91716546 -2.083207 0.2556635 0.2458437 -0.14682533 -1.4811813 -2.9782786 -1.3713241 2.1205702 0.3475104 2.2678936 -1.4213986 -0.6310739 -0.9623426 -0.2007013 2.242421 1.6270716 -1.0794272 0.2591741 -0.10350072 0.5664021 0.38258395 -0.31609723 -0.40806925 0.23088224 -0.24859783 -0.8010683 -0.12740913 -0.061375648 -0.50086683 -2.4579465 -0.22667699 0.4588251 -1.8086336 0.66532385 -1.9579661 0.13311146 -0.6743006 0.5344011 0.7791793 1.3614333 1.6777911 0.88189256 0.5150151 -0.19026484 -0.4448458 1.4735864 -1.7977171
C0085149 -0.6466537 0.20234917 0.031733338 0.29642722 0.48954555 0.39317238 -0.066978045 0.44550836 0.2800919 -0.1286769 0.07937357 0.34531567 0.4604091 0.27626875 0.12687385 0.058603775 0.23322675 -0.022995632 0.09422165 0.04809765 -0.28624997 0.10346119 -0.38062382 0.28474447 0.035570305 -0.042635337 -0.19962876 0.23660055 -0.19191124 -0.29104993 0.30719557 0.23350573 -0.35749915 -0.19571696 -0.050296027 -0.7240293 0.37283796 -0.5717385 -0.091332845 0.10295216 -0.011142031 0.09654706 0.3525029 -0.11446957 -0.46517378 0.19361961 0.09638158 -0.29638577 -0.31198812 0.27278012 -0.34615627 -0.5712908 0.83123994 -1.2211305 -1.3447487 -0.2971526 -0.34746948 0.1683708 -1.7719791 -1.5328224 2.7806826 -3.0234168 1.1369551 0.4532362 -0.83294666 0.2389288 -0.7019349 2.5434487 2.9868743 0.21749248 -0.19166845 -0.61278635 -2.544279 1.5065573 1.166183 -0.31990752 -2.8546162 -0.38282004 -0.754932 0.7737968 0.62090683 1.1849965 0.20385695 0.33433345 0.9472116 -1.498378 0.1294101 -0.081313364 -1.684716 0.7323059 -1.4116355 -1.4189594 0.9060444 0.23687468 0.9681603 -0.8634642 0.5470293 1.4582475 0.14735462 -2.2006087
C0393080 0.19381182 -0.30258527 0.03443475 0.3297404 -0.21360084 -0.32881814 -0.14073609 -0.5209697 0.15088321 0.50425106 -0.59315133 0.1833916 0.5484002 -0.43612683 -0.123944096 0.11224389 0.06454875 -0.42880923 -0.005261396 -0.391428 -0.66832376 -0.42806578 -0.24558261 0.033359103 -0.01286728 -0.098427564 0.14550595 -0.37916324 -0.09029382 0.2758657 -0.12626824 -0.011986476 0.07092224 0.30426806 -0.523429 0.08444211 0.1196642 -0.094829686 -0.04760134 -0.05580558 0.123946145 -0.6969403 -0.34998482 -0.05480599 -0.35121328 -0.3026504 -0.3822819 -0.07959852 -0.24527189 0.3057505 0.7266654 -0.42508844 -0.008979045 -0.3404626 0.43404397 2.34452 0.36670086 -0.11150818 -0.4697466 0.31170034 1.3639758 -0.99610066 -0.79178613 -0.56714994 0.23770787 0.16198531 2.0080924 0.40853435 0.76400965 -0.91044986 -0.11422185 -1.5562137 -2.3767931 -0.86906844 0.07904898 -0.39680037 -0.82601076 0.63798094 -0.10604889 -0.97482884 0.08674471 -1.154166 -0.83032215 -0.022371726 -0.6649171 -0.02825752 0.62285656 0.3286721 0.32606584 0.404262 -0.49482566 0.90677 2.8126514 -0.18572812 0.5802043 -1.4716557 -0.25040656 0.94578475 -0.37231028 -0.9333203
C0936150 -0.26143762 0.368583 0.18048261 0.38096285 0.46782166 -0.062278215 -0.25276226 -0.13345577 0.33701712 0.187222 -0.30964595 -0.7042457 0.17181468 -0.08232039 0.39141873 -0.3544125 -0.05330971 0.124930024 0.11853323 -0.23726068 0.0059466353 -0.17758141 0.46946853 0.35276595 -0.6273693 0.12450162 0.3129214 -0.26087373 -0.22155294 -0.50584507 0.1837185 -0.22812237 -0.07322597 -0.22618355 0.047901228 -0.10223403 0.13047294 -0.034175623 -0.08108785 0.18511194 0.15631066 0.38711068 -0.16263278 -0.40242943 -0.27329323 0.633551 -0.20774472 -0.24786024 -0.16651338 0.28524196 1.0759592 -0.31416896 0.11066726 -0.5533033 0.12836099 0.09679884 -0.5148806 -1.1274631 -0.20064424 0.65546936 0.82246673 -1.5345739 3.2547095 -2.4526103 -0.9144847 0.13853393 0.50270957 2.262672 0.3522584 -1.1091942 0.76125705 -1.2471443 -3.329541 1.3366451 -0.059593335 -0.1817398 0.14464903 -0.9081343 -0.4276225 -0.09563021 0.1108652 -0.785781 0.6781618 0.3631945 -0.105316915 0.036640774 3.2295895 -2.4256487 0.032431114 -0.40817344 -0.6467003 1.4424094 1.6864613 3.5680063 0.24723588 -0.5735879 -0.4546253 -0.4502044 0.6029364 -0.80782956
C0017436 -0.2635724 -0.35447887 -0.07210918 -0.27272657 -0.123626806 -0.19174345 0.6706147 -0.025678532 -0.24876533 0.1475193 0.099676 -0.013918316 0.39046028 -0.24371934 0.087329835 0.07262565 -0.11464535 -0.31766585 -0.3858541 -0.9199902 0.191308 0.06901872 -0.26496813 0.094079666 0.09850686 -0.26545808 -0.025758803 0.26512313 -0.06795596 -0.3608754 -0.0487815 0.14949463 -0.3630542 -0.26377892 0.39836583 0.45496142 -0.22528645 0.0011476998 -0.44836855 -0.28563824 -0.77187765 -0.02434332 0.25094235 -0.013828794 0.44154674 0.015758945 -0.23413989 -0.41951072 0.036450617 0.119375244 0.33764336 0.101241976 0.85525745 -3.5301082 -0.24709433 0.5206252 0.51713014 0.43929482 0.085041404 0.71535057 0.4327383 -1.1207085 2.5544677 -0.06899009 -0.28435907 -0.67651796 -0.0037804032 0.52778083 0.5432918 -1.415919 0.06869805 -0.9467254 0.24859846 0.4505578 0.20174049 0.12521014 -0.30141637 -1.5112333 0.49824938 0.15692942 0.23084827 0.8252101 -0.9598342 -1.5952387 1.0161763 -1.7999703 0.3811023 -1.4679718 0.0893368 -0.19870241 -0.397898 0.9160919 3.4976346 0.74966764 -0.39895514 0.07825505 -0.87716675 0.32097936 1.2406068 -0.9406375
C0032857 -0.33147323 0.0051143994 -0.40853655 0.22830231 -0.3152392 -0.14064899 0.029135372 -0.16022928 0.18967004 0.22508024 -0.30723298 -0.03309405 0.206546 0.2012625 0.19956745 0.20157896 -0.2612506 0.119712666 -0.011003438 -0.8200521 0.22234337 0.12941465 -0.56356657 -0.013466464 0.08580012 0.3830756 -0.10378254 0.41901618 0.01741132 0.27640048 0.22591902 -0.11302749 -0.017508917 0.13013005 0.09190943 -0.025661161 0.17064808 -0.10914603 0.16583085 -0.035073444 0.29687148 0.49405622 -0.039497502 0.40726948 -0.015944788 0.32837516 0.010407165 -0.3389136 0.16765338 -0.27969986 1.0871339 -0.2165646 0.63961667 -2.6988535 -0.8792529 1.1841284 -0.24514192 -1.6969943 -0.99760485 -0.7117207 -0.7843731 -0.9945759 1.9121491 -0.053028245 0.6360684 -0.24852481 0.17034765 1.7924597 0.60836035 -0.38869163 -0.5121987 -3.4327767 -0.98521906 0.49331707 -0.9416605 0.5652084 0.039953552 -1.1099849 -0.4703188 -1.1582484 0.10199639 -1.8768684 -1.3546921 0.41949207 1.7193648 0.3899785 2.2231202 -0.22190987 -0.11048414 0.41954353 -2.4357553 0.16912647 0.9729447 -0.36983112 -0.47327626 -1.7046846 -0.33357406 1.1610048 -0.02521131 -0.5734893
C0007716 0.1072427 -0.35614946 0.19112247 0.22648951 -0.29222608 0.35649255 0.13628264 -0.20987298 0.29390502 -0.063356474 -0.22510177 -0.13526244 0.026708374 0.31602198 0.17419052 0.16684009 -0.21459468 -0.3249588 0.16058162 -0.20201278 0.08705115 0.12302347 0.07701081 0.30355677 -0.0009235608 -0.055988137 -0.2003606 -0.48457044 0.19547834 -0.07911208 0.5794981 0.35011944 -0.30312476 0.44043353 0.034140427 0.4653295 -0.16458978 0.14372274 0.54562336 -0.2478125 0.03570277 0.17420585 -0.110701926 -0.040326394 -0.6790792 0.27168602 0.19541565 -0.27583724 -0.019352324 0.48299253 1.4439071 -0.19963603 1.4336634 -0.27951157 0.5240552 1.9931926 -0.6281656 -1.7187577 -1.6758779 -0.8493961 0.06542828 -0.57470477 1.657112 -1.1004597 -0.35510075 -0.020284556 -0.6663356 3.0100322 1.6961001 -0.54517907 -0.0398229 -0.664428 -0.41730893 -0.50225335 -0.4512248 -0.015545569 -2.0537207 0.5514782 -0.06205286 -0.12927933 -0.64783853 0.49371266 -0.9427682 -0.50736994 -1.1452014 0.28012252 1.1583127 -1.0546213 1.0512502 0.071986526 0.15842192 0.23611516 1.2064633 0.4852943 0.6319134 -0.24496414 -0.20638998 -0.017730275 1.0864669 -0.73163897
C0066005 0.39989942 -0.46469632 -0.42129397 -0.21060534 0.006320506 -0.06890952 0.2550065 0.014779772 0.13084407 0.036747303 0.03523438 -0.33828613 0.5700552 -0.022641372 0.5994448 -0.20531505 -0.2665738 -0.086284705 -0.27929628 -0.40438178 0.112963736 0.54647434 -0.13763982 -0.18547134 -0.2219191 0.29332033 -0.18023692 -0.25675714 -0.03887358 -0.12826335 -0.097443685 -0.055981774 -0.07064943 -0.24736896 0.07166959 0.23800537 0.4377671 -0.2560315 0.35670656 0.5184955 -0.5200345 -0.4952794 0.0984613 -0.35934514 -0.07307494 0.04650183 -0.037049238 0.14660665 -0.054341227 -0.5211057 0.890874 -0.39574614 0.3002297 -2.6683266 0.6974861 0.036527686 -0.4937447 -1.9242791 -0.5535412 -0.7112935 0.31714725 0.6780852 1.1564744 -1.4624157 -0.5347136 -1.6767395 0.28666627 2.2129722 1.05322 -1.4452622 -0.052562322 -0.7986146 1.148302 1.2394686 -1.1553748 0.63874197 0.7777414 -1.3620988 0.13370329 -1.2197093 -0.74255353 -0.28157818 -0.6565683 -0.6341094 1.1482888 -0.51650774 1.9846643 -0.123801395 -1.215872 0.5234205 -0.31986016 0.14221977 1.7282442 0.3168279 0.16461614 -0.14914252 1.161871 -2.132762 0.6454909 0.60644686
C0008809 0.17726533 -0.3019668 -0.2217241 -0.23826997 0.21526214 -0.023701854 0.13212703 0.3789755 0.112588346 0.09511434 -0.114211895 -0.6850864 0.2904419 -0.4125471 0.63679814 -0.48623765 -0.18080527 -0.30478883 -0.3921498 -0.44363078 0.47055537 0.056413766 -0.401623 0.65382904 -0.118383706 -0.17072447 0.008488342 -0.41308177 0.042502686 0.0028332109 0.10990826 0.19460434 0.054549363 -0.40493283 0.16441168 0.24884678 0.08682656 0.056767777 0.043991473 -0.1056531 -0.34573066 -0.08149124 0.07681524 -0.18302818 -0.1985514 0.02405173 -0.33032694 -0.14439146 0.1447953 0.14244314 0.14186282 0.37322643 1.5610025 -0.51472 1.1179419 -0.13675646 0.46023968 -1.9798777 -0.9278351 -0.413051 2.3452296 -1.2281872 1.0978705 0.92498595 -0.527997 -0.35030928 0.22281297 3.2879903 1.730681 -2.2117045 0.24798581 -0.36703312 -1.4748994 0.29218233 0.13534458 0.49511617 -0.49186206 -1.1639968 0.40153635 -0.10879348 -0.06820733 -0.16996157 -1.8962786 -0.4087336 0.55327445 -0.71082217 0.4501953 -2.3120363 -0.64589673 -0.2569433 -0.08757063 0.7650934 2.111044 -0.8947869 2.0649402 -0.20081031 -0.2463186 -1.2400873 -1.0604597 -0.16445275
