1317 100
C0020443 -0.06289794083688921 0.0153611665617424 0.02891539641722759 0.11346718448103395 -0.09534036519540873 -0.03818199626514987 -0.12082147013270482 0.06390601808452671 -0.0950290298317502 0.03674918841720563 -0.054527721336444825 -0.020012574207884902 -0.05714017030683786 0.09168028497932493 0.04329019448548264 -0.08808532867600112 -0.03890797720826467 -0.06109627650463277 -0.17764692431381007 0.9386183327393359 -0.011970217144273036 -0.08121649291728054 0.005835827825615061 0.022981314342606165 0.048161337542936 -0.03388606142624513 0.002213252421523633 -0.054012588222984693 -0.10664224271906772 -0.07408611144044758 0.016012018842251105 -0.010933762847844728 0.0001206139718262425 -0.014380517481322741 -0.04285852285262172 0.02266773770161654 -0.07317625198043752 -0.05479633516123894 0.3443110665580882 0.9163002248504508 -0.012360534749349002 0.10026928393574734 -0.03929773748785093 0.04918985646120781 0.03575999588205171 -0.02949527067149884 0.02174077752108497 -0.03491778523105622 -0.008986136108148114 0.012140335317776786 -0.0012098554361212358 0.01151265067830032 -0.039575252798672474 0.009828396119798953 0.055739464461756615 -0.04168281971165554 0.03005970051409184 -0.07010166986880449 0.21215252667701837 -0.9614015089383069 -0.0054608633966413845 0.0010595590901825238 -0.00460462594254387 0.006005653828543288 0.0018160731464561004 -0.0018061383270743924 -0.007249937530572026 -0.0061163487186408445 0.004957374861608066 0.004061687867375521 0.005499540879479913 0.010403913641323618 0.020659883700923157 0.00806315185916998 -0.0033341658332761443 -0.038817393576831616 -0.02504662779174294 0.018177744126879017 0.07726533803177964 -0.9953382574314945 -0.00038882227447335435 -0.0034066319347833187 -0.0018408744863075055 6.766406375904951e-05 0.0036747419344185426 0.0028232991485486634 0.0012173094708517228 0.0035234701003247298 0.0032369006299426944 9.783960402135815e-05 0.001143404152497241 0.00534956286211112 -0.00027175631454633636 -0.004438066906391288 0.004200308917367811 0.01115438401076372 0.003838791619347594 0.024433731330432903 -0.046240561021500544 -0.9984975214570946
C0085542 -0.2832035376043381 -0.02142568450742069 -0.013350362809860681 0.042079777882018936 -0.04844675276049694 -0.3104520237080236 -0.30592236347272866 0.5157511839989344 -0.19717346884797687 0.044066298588386 -0.1157571888958935 0.10270830801055796 -0.2869423852673769 -0.024689406214135456 -0.06208618340800271 -0.45540168824483335 0.19778984930779722 0.023357280014607823 0.18528603542515748 0.1616053881410808 -0.007888628867217884 -0.21404114003936175 0.06964300720222696 0.18087678633808965 0.029980956529226676 -0.3023307436475795 0.15746253038323574 0.16073339447750054 0.13517089929283305 -0.1270671007582803 0.1454365973977344 0.3604195470363665 0.08793241243204336 -0.42597341044669446 0.10515579252869986 -0.38084308096970665 0.032530085681770626 -0.1309387375393446 -0.059262760840889404 0.47027017128460963 0.19519600112535004 -0.021213378418648416 -0.14069973630265836 0.1869035369204342 0.05008349075251874 -0.1339307035980051 0.2698829722741523 -0.0483662508264058 0.14159365495402346 -0.10430653044507421 -0.08564766369163587 -0.09721318989524043 0.027450067386030137 -0.0182378409619886 0.38592763346063935 0.005995329319681618 -0.10063761368573586 0.079255554444607 0.09339467810273448 -0.7669345318041078 0.04657151471800113 0.1319920206201263 -0.16819176268301567 -0.000638009212919642 -0.06858888234486876 -0.09110625612042428 0.057087514601761445 -0.35727917148585225 0.012444219202312074 -0.18839164210021656 0.14855312541322246 0.15495397507380196 -0.053905930121436775 -0.18095480774921244 -0.18367941790343228 0.011446328890596264 -0.0752980237987729 0.152253116639267 0.04827960348989709 -0.791063683519203 0.002581429048493001 0.016340588180759008 0.0075600766181165725 0.0012341503682957373 0.0009291084325997611 0.007963645250378763 -0.003117076970936414 0.01041163618411001 -0.004842784831417354 -0.010005680164179645 -0.002161905412103161 0.0038561243772788044 0.006120800259882748 0.009673079769232245 0.011203421590180585 0.007151886612748421 0.0300805739821174 0.028673068832953858 -0.08991547174832255 -0.9945967302821989
C0286651 -0.2650417626990982 -0.051412740305597025 0.012565340074485714 -0.004543665816345649 0.01240810923520183 -0.09469088820231489 -0.2842379989665657 0.5175526083546018 -0.09257317008560718 0.22610508043684455 -0.04581057321227574 0.20143207437562888 -0.2983617900804251 0.09489318868385627 -0.13098967984695492 -0.4451780256904836 0.24447655177470762 0.07509969260287294 0.08783510151598771 0.2833760858520574 -0.007189503924486836 -0.00898146391890255 0.0653344302085129 0.1429351981576144 0.08758931693359026 -0.13627724536401606 0.15569705437055847 0.07236894407500342 0.2740611322728544 -0.06627514506952463 0.08477759261589723 0.49804860249504146 0.16934988763171513 -0.26539078547688816 0.05908641677679204 -0.4141140108531764 0.03183128879268043 -0.18978237777502294 0.08600886868020065 0.5159296886885465 0.13228330734752416 -0.2094248065649542 -0.16125411836370115 0.1436651253438875 0.07800025806889334 -0.06328774053509767 0.28262956495107217 -0.04677750847244508 0.15599984340517148 0.023031942707180196 -0.08574038332765167 -0.18168177352440748 0.048240378562314196 -0.28554960037048727 0.2502528700770321 0.032884263252014864 -0.1310351022001188 -0.029857153286017336 0.21158094919955406 -0.7240269358976588 -0.048218503272232476 0.038941205592978936 -0.029881939044443164 -0.070119733453682 -0.027249050268479468 -0.006995697231215082 0.026211907943945165 -0.27277130662514254 -0.009906955312841467 -0.15058482157992273 0.15165409436267002 0.09318884747466977 0.05733363630597007 -0.15405352921231152 -0.2286294584253831 0.11685855536488611 -0.26496565833243 0.3017309146254525 0.06732531624885653 -0.7754231482402071 0.01494272452419654 0.017698306145867343 0.049782128000787726 0.01647239548533514 0.0025025055432054103 -0.0032412707327737493 0.0605111730501987 0.033231219591372554 -0.05619370826395087 -0.05966913207907395 -0.08975186072268386 0.10136671174949512 0.07167160730580285 -0.003940420779653879 -0.0363032912214433 -0.009631138927509024 -0.03104501392279056 0.07029492675873589 -0.16551539918344949 -0.9628182095091633
C1142985 -0.21875846796472387 0.004259801789229642 0.04282414244537907 0.1283557114843127 0.033960908776168836 -0.05250302230128986 -0.45523225350938484 0.5925730863133944 0.03177311886097332 0.14944286171448176 -0.10382784336204413 0.1861395280097169 -0.2223134184848533 0.06136531609687765 -0.13587959351954138 -0.3920352017322254 0.15881700275075583 0.02013111042030014 0.018604363251681206 0.22680260661074217 -0.03411126032945167 -0.04346103399518915 0.024983662821272103 0.2502356383895564 0.2897886286491892 -0.16541038993416207 0.23377037511785206 0.15543711820603903 0.3425357587883187 -0.15779572427880525 0.18820168361879303 0.3683605815301823 0.13293354232655372 -0.21207624454985535 0.035387806007936756 -0.29363758552192637 -0.04889490649674185 -0.08396300426055635 0.1711163240856312 0.49129854322411426 0.08155641516758805 -0.09329465295708643 -0.03690383588964652 0.05277701427210002 0.04858146383056506 -0.02016306759644081 0.07789908973573557 -0.012850271025005192 0.04184257085408875 0.07232731346073962 -0.018497799748563408 -0.05030921961846267 -0.027800672541762987 -0.02405252306991116 0.07304942766472915 -0.04595498427308657 0.03970275192462498 0.05091086669492471 0.2597753505429659 -0.9387177858410808 0.05252261965823166 0.039883449033443256 -0.11034664887051623 0.05229050590241764 0.004124885887397235 -0.05782227489840825 -0.03262793369057271 -0.1831444908104417 0.010379687218357702 -0.10619958367471188 0.06952315664900544 0.03292693206494646 0.06171977547934259 -0.04412916163474095 -0.06595068232813689 -0.06918261120702213 -0.09219647542871336 0.04268735321525189 0.16487450599831824 -0.9343826324904356 0.0021317944496170916 -0.0012597540037840907 0.00043145881742166986 0.0003856689367412965 0.004892045111189327 0.0110159798132378 0.0019448600235779767 0.00739056041821694 0.010914354029190209 0.004937008231551437 0.007777522945146034 0.01558927763731266 0.00044177319887585634 -0.005055357665113958 0.008286905146115709 0.036666796685913446 0.04343405506339632 0.058685736097338924 -0.1105048851590447 -0.9901323614520967
C0032042 -0.19400569282997415 -0.028757406876332995 -0.043814065303340616 -0.07105177925820702 0.04359892578048585 0.07557060224868951 -0.05578923035288027 0.20569881899912987 0.011823387266929154 0.1046864566979756 -0.091647697878193 -0.1088892147774401 0.010307612656214835 0.0024074794098658493 -0.22068134658147628 0.2802577055422001 0.7310918783508434 -0.24100964845419726 0.06947228637432723 0.3813283063369589 -0.1553229546357683 -0.19273926060018787 -0.0912821513152678 -0.3256569610197857 0.2463137690598375 0.007965074704274235 0.10088487421043126 0.02800958549729352 0.0076193817686096505 0.016257204092744552 0.07337632664723512 -0.011024273824362198 0.12427822992835325 0.10985355924579797 -0.08313955545159153 -0.08208127188937524 -0.0009477021156538006 -0.39653077893196736 0.09025493889994565 0.7350315460278547 -0.048453717815217415 -0.005685681103652081 -0.059444722746027606 -0.044212167096543784 -0.04852219758228636 0.0052585721514897075 -0.0025995057587839304 0.005394125288049595 0.040871695764345094 0.013144064635877941 0.0185260036541738 -0.043148047056418525 0.01707613435345728 -0.11892715332297794 -0.010609558408219292 0.06754341450911318 -0.16612186778302668 -0.30312141511811475 0.1143718370131267 -0.9132335180005412 0.0002223213500024796 0.026308567812790708 -0.023400461982970282 -0.00866387667126262 0.023178589175351223 -0.03267022506652527 -0.05802844168686463 -0.025085025259567743 0.003276774975444439 0.03722562596377944 -0.019748362398843144 -0.07464921928912582 0.013742744456309552 0.009480060989277587 -0.01878949513665923 0.033124162552340596 -0.07597929461734039 0.2273219651390959 -0.07150383061666 -0.9599141166695287 0.002333357346580452 0.006450301106825898 0.006194251306832681 -0.0028603744444011888 -0.0030220504120240005 -0.011517881931217396 0.015075976727631791 -0.02083811757338684 -0.002072554604799388 0.002062840841975614 -0.023931985543462677 0.009394790197495726 -0.002173700725533323 -0.022345418924596447 -0.021057729173132658 -0.01093509583303353 -0.050561330948767386 0.03361539629945047 -0.022086109888880615 -0.9965903134390954
C0989914 -0.09347033375774272 0.08984038204422645 0.11858909475142379 0.42564378087486193 -0.3362784333230244 -0.13241995953556052 -0.40901655104160806 0.18412838559207778 -0.2520526879484121 0.08336112874991045 -0.17601236714449187 0.0021188371443460457 -0.15870180027866954 0.23011280954248967 0.06353088362516475 -0.20468153922293333 -0.03546013481936456 -0.13698580324818407 -0.1858646935084088 0.4195693065138277 -0.10009928644788516 -0.025540905583714427 0.0807209136307843 0.1799262034431963 -0.000440429802836414 -0.12194664176601802 0.25017638495076355 -0.043278232245953584 -0.14103937062850425 -0.03201504724155825 -0.021012486768072797 0.055342988209676515 -0.028028213808827723 -0.03806715101841189 0.0016406348506960758 -0.06186781967351017 -0.13038143088218118 0.08026409162754691 0.3934366290131119 0.8138707607709529 0.00723800514323456 0.03398846017497058 0.005370976645256004 0.010036268931592898 0.051871956497419776 0.07803716245752931 0.02010488729784258 -0.03954009493195911 0.011363012700150936 0.14200634481644928 0.0021346464838241904 0.0066505849691824515 -0.08087477354107181 -0.016056298942391627 0.024789884323705862 -0.06356667264064983 0.05832688621960795 0.03172401957963653 0.280665609887206 -0.9343102123709016 -0.016154840374153316 0.016875695241367387 -0.027338164069626924 0.02398897325192251 0.015429272925509847 -0.0018168050970371642 -0.035197452411701545 -0.029598080425166335 0.007837794915413107 0.02724267905518642 -0.008663135157309185 0.051329198481701734 0.05123329674120569 -0.0122230386044322 0.005723803027140212 -0.11384558624810681 -0.08470899193595466 0.002891037278133531 0.18757495296586174 -0.9665017420667689 0.0006222896929068052 -0.016405396714002055 -0.009845794749493464 0.0030740920063989275 0.007760517866065615 0.005142398309372475 0.007853836368161952 0.006522098441443871 0.01179917101440906 0.00996753696862718 0.01213493891344067 0.02066736342100902 -0.002646108596755556 -0.021888832064660968 -0.0009061073403276813 0.04943335260752739 0.040860805566469365 0.07743970803418816 -0.12054404997902456 -0.9866571059217203
C0082608 -0.2062097796658771 0.027852722676026252 0.04189881816505343 0.10000774371981185 0.05538791646782222 -0.18429766997938057 -0.341220071321676 0.5999085958385416 0.038424029930688504 0.10169077005673338 -0.023315069923607323 0.07134690590406277 -0.22173223922201415 0.15188075722594513 -0.07013784102895679 -0.49208259158221196 0.24364230143177762 0.03443841690022003 0.06972083531928858 0.17155836676725983 0.03156818500135964 -0.059804218843997364 0.03503058513808445 0.24703339663777452 0.24880486655515613 -0.1362632270596893 0.2408871602878357 0.2343183660964894 0.2937888281063949 -0.11319451247462765 0.17071688668677296 0.3378338879033948 0.15427613307279195 -0.3095450473555422 -0.08919864211956326 -0.325093363221175 -0.016803822536333612 -0.03869426517170743 0.11255919391713046 0.4996594935787304 0.13287412784003735 -0.19700067273016125 -0.061236752759875744 -0.0023878377788063196 0.06553850892986969 0.08923964757589141 0.08656484819078121 0.07506304133496121 -0.01172538317954956 -0.05755004628767229 0.0019546395949911048 0.03624892814376404 -0.11016556541217895 -0.01951183315723297 0.18980418880652256 -0.1315566111903003 -0.11786000637763237 0.14086864554905967 0.20088808593663177 -0.8773165920443494 0.053329447645326586 0.030643048481648835 -0.08520713771102106 0.02069990372861762 0.004834155353533734 -0.0509937344850201 -0.008953933723961461 -0.1702835080340359 0.008429890399064065 -0.08845630082938823 0.06579119560184116 0.03327068497243972 0.052890382858868656 -0.05754267456633562 -0.04617265355563041 -0.04953527911696055 -0.08329830934297182 0.03233534967966485 0.16381200338404936 -0.9476202243855463 0.003817193649338029 0.0056279746387667 0.005813231578297191 0.0005657506383223424 0.0049789598449793545 0.00992179779234407 0.00367185382313423 0.008768286184587163 0.005114172495590421 0.0004131125834073808 -0.00044273979478305414 0.016396015198923152 0.0026925499533463236 -0.004247116425752302 0.007816601250139185 0.02909561451969464 0.038921178958546514 0.05290577970786902 -0.10624737159745064 -0.991400709827289
C0074554 -0.27553297420894635 -0.01911417111244965 -0.015718361976674672 0.0011745568963577677 0.02355921347796137 -0.09017176341527992 -0.35281011313911426 0.519250935696181 -0.11998710789244875 0.2021725865054157 -0.03035185529810477 0.16060951779395924 -0.28344696681100173 -0.0025419535510969042 -0.1964074958422087 -0.41323780959485984 0.2790631876944719 0.10708281599726178 0.11791771709021058 0.21391671026553963 -0.019020441579922363 -0.11025923589807284 0.11043141752588327 0.23192540723822028 0.1738777964241056 -0.18884990098629015 0.17864685597850274 0.11164006932537973 0.28774873135478823 -0.12571707954509936 0.23403318163084302 0.34190352597344575 0.08544125292337384 -0.26638687089754487 0.10822116364075698 -0.4329182430691527 0.10384117792368425 -0.1969946983201055 0.030629227635031616 0.4615481957534185 0.13929072863404002 -0.14568866686500176 -0.23472864681072544 0.1455282517437801 0.0841726488892649 -0.13860591120957952 0.28663271131697576 -0.012832672395205328 0.19382820111016066 -0.0859426964953093 -0.13292271921466947 -0.20761289047602285 0.05117049380448799 -0.21574751298756517 0.21680390987109277 0.06396231895117019 -0.19918393086509442 -0.01827089360717987 0.14718102397474297 -0.7119124617450798 0.08673381993174713 0.07426207964515893 -0.07465936052490307 0.021832451555412948 -0.0006405158133741937 -0.14195879917164028 -0.007621118016750738 -0.40562579407008004 -0.006292588325493289 -0.16996968540809365 0.07455132185553441 0.1661233915632002 -0.05857027127143983 -0.19237646318114635 -0.22643598833490847 0.14506427002226935 -0.21396170644003226 0.31145319887068973 -0.0261088927114668 -0.6912770809397532 0.0037253448246222236 0.011580800764551166 0.009334251493235876 -0.001703702143576854 0.001859144357948413 0.010022763847412691 -0.0005036800471575539 0.005582581512223874 0.005573882456862048 -9.869881016860014e-05 -6.961236994192453e-05 0.011126393535222375 0.0033072653321521797 0.005096635476514485 0.01174093365012854 0.022644390314675182 0.04021375232777486 0.0429550289797782 -0.10081730564171194 -0.992551169642208
C1331111 -0.18938326710410253 0.037537434491782276 0.08359812068790803 0.2925716953094711 -0.21973639754374322 -0.11664029272611592 -0.5528411974209113 0.40604490397653803 -0.14668645385655144 0.1278873802203924 -0.1825502948276587 0.06950611216472201 -0.25397954368507436 0.10728378700505445 -0.08047160543072168 -0.3225081530571002 0.0764527043248463 -0.05092264854554909 -0.05058974109017484 0.25340740195378625 -0.13190227229631785 -0.08902449668312479 0.09016554004677876 0.2568253363891547 0.11262802254908409 -0.18953545508422515 0.30340067665511666 0.02454837664282566 0.008598045474581697 -0.12052678127661269 0.09118651631693651 0.23276049646042204 0.019924655441375207 -0.1427293317949133 0.03850982056046642 -0.19636083819172873 -0.09496407473242682 0.012811867522879961 0.29421574645030324 0.7250354978055982 0.011013064465823862 0.04607202312155821 0.0015298829897457792 0.01498019797040631 0.05467176299674261 0.07351326956298052 0.027302010773021912 -0.03590732662646762 0.007722338937653438 0.14055375639684478 0.0014587207257788371 -0.0007177322191117433 -0.07855532975268147 -0.009779765578427718 0.027832819031917224 -0.06470272257803523 0.06156435480928923 0.035703471438140406 0.2779980257955776 -0.9347236265973833 -0.01469045823350933 0.018390638146022754 -0.021533848805867548 0.01964969622758048 0.013663706770596983 0.0003749759383143154 -0.03309267262866438 -0.032663799436729035 0.006728457316974223 0.018227225720741105 -0.00477596592811702 0.045727581738228794 0.04779289354712398 -0.00985818371600125 -0.0024436158538039847 -0.10697132426497649 -0.08570688951345133 0.009247785323270596 0.18463302502737308 -0.9687131771630164 0.001025860042721184 -0.012072460346352986 -0.008539368866589236 0.002073075051975576 0.007027922451699135 0.005597048612096038 0.006335737495860136 0.006845264982826205 0.010677170171398498 0.0072532150290642505 0.011696078904376421 0.017790589357946925 -0.001845071940757911 -0.016944264562934845 0.0018336040442444186 0.044383730409995166 0.04070988445209878 0.07076198257087961 -0.1166592687602097 -0.9881551622500641
C0014912 -0.10446595782920512 0.25905446838202345 -0.06799476251986579 -0.17518264650350607 -0.07844657023902832 0.15867788250800083 -0.24109334751449393 0.3448349750120222 0.07533498686199341 0.19237739855615235 -0.043212963970989664 0.13530439545147524 -0.12840022880094293 -0.3413199655052369 -0.14210180088400595 -0.3748461162709403 0.33872289028242675 0.16902631469893034 0.2620401635214023 0.33133069468742904 -0.2606940801778786 0.005742750286999273 0.044016525778151495 -0.02422247826404526 -0.03596513391811966 0.0037617304676822484 0.01868310918218451 0.032636137342197696 0.34698696244477295 -0.14190871955709775 0.2234517893084324 0.17794095123825757 -0.046621682496935005 -0.3909287413140997 0.18006465892898213 -0.24180675357064113 0.12198426574052978 -0.3255069373658611 -0.041577386167550724 0.5798031044084602 -0.0633614972278902 -0.24328036565466626 -0.15817983537153835 0.02030831860748657 0.012656749291091748 -0.08708974493151285 0.073970675478405 0.024727671675369656 0.23623481297430346 -0.027478023338434885 -0.09275616805971522 -0.023917609935080842 0.027789174970049874 0.07122783203666787 0.2600372619433894 0.18869138634229757 -0.3576099460934345 -0.10822553383482156 0.09513496706183022 -0.7576828574131539 0.03806055433742443 -0.002395974837285241 -0.08834001477311193 -0.01182252907259152 -0.00867599106586592 -0.09454885070064775 -0.046464198779036944 -0.21104122789232588 0.01563700846097488 -0.1281490107848737 0.0208275352860798 0.11599993744191744 -0.09713418503889663 -0.21978644835177202 -0.2819727830219697 0.012181153996464257 0.001892456821240001 0.43721363855990064 -0.10754832516801772 -0.751138624837341 -0.007286016373446851 0.02385484356568174 0.021920226927564943 -0.009147516438780931 -0.006743779447683857 0.01641273822316248 -0.003280351227728426 -0.0022233529866362086 0.015714294436839783 0.004876259657096931 -0.005030116702644085 0.011916306241784733 0.004375956056658625 0.010427440469340448 0.010471389187000394 0.014707438287032838 0.03685611573289548 0.032024366877169724 -0.09394002417477863 -0.9931679658298712
C0989915 -0.09347033375774291 0.08984038204422684 0.11858909475142321 0.425643780874862 -0.33627843332302504 -0.1324199595355599 -0.4090165510416073 0.18412838559207986 -0.25205268794841473 0.08336112874991095 -0.17601236714449067 0.002118837144347639 -0.15870180027866831 0.23011280954249 0.06353088362516407 -0.2046815392229315 -0.035460134819365975 -0.1369858032481828 -0.18586469350840992 0.41956930651382696 -0.10009928644788514 -0.02554090558371439 0.0807209136307843 0.1799262034431963 -0.0004404298028364315 -0.12194664176601797 0.25017638495076355 -0.043278232245953493 -0.1410393706285043 -0.03201504724155814 -0.02101248676807272 0.055342988209676515 -0.02802821380882761 -0.03806715101841201 0.0016406348506961329 -0.061867819673510224 -0.13038143088218115 0.08026409162754693 0.3934366290131119 0.813870760770953 0.007238005143234569 0.03398846017497062 0.0053709766452559714 0.010036268931592943 0.05187195649741981 0.07803716245752922 0.020104887297842555 -0.03954009493195918 0.011363012700150972 0.14200634481644922 0.0021346464838241717 0.006650584969182494 -0.08087477354107185 -0.016056298942391592 0.024789884323705883 -0.0635666726406498 0.058326886219607944 0.03172401957963653 0.280665609887206 -0.9343102123709016 -0.01615484037415328 0.016875695241367478 -0.027338164069626976 0.023988973251922494 0.015429272925509866 -0.0018168050970371363 -0.035197452411701566 -0.02959808042516633 0.007837794915413076 0.02724267905518643 -0.008663135157309208 0.051329198481701754 0.05123329674120569 -0.012223038604432203 0.005723803027140203 -0.1138455862481068 -0.08470899193595467 0.0028910372781335543 0.1875749529658617 -0.9665017420667689 0.0006222896929248189 -0.016405396714009767 -0.009845794749499738 0.003074092006406956 0.00776051786607684 0.0051423983093744 0.007853836368154742 0.006522098441447162 0.011799171014415155 0.009967536968622957 0.012134938913434418 0.020667363421009277 -0.0026461085967593246 -0.02188883206466384 -0.0009061073403281375 0.04943335260752732 0.04086080556646931 0.0774397080341883 -0.12054404997902456 -0.98665710592172
C0965129 -0.3044763625706032 -0.004541531526297333 0.027345509490263133 0.0642116065155214 0.026973390604500914 -0.14740859852008675 -0.38759816962800164 0.5838947710591009 -0.0427054114661206 0.1255865249621247 -0.10916765138469686 0.1318403541496056 -0.2632106644301319 0.1011130028306939 -0.11717260968231762 -0.4150882404622253 0.18938416310045209 0.032752754397289856 0.053713098441626826 0.19112708779328064 0.03005541455300411 -0.07562303607297033 0.04346478299064642 0.19236155851353068 0.2680102837230859 -0.1553804632930531 0.1935213180823258 0.14468094884557572 0.3005976370270811 -0.15389648261745323 0.17562151112614874 0.41704471982235086 0.20826412033822989 -0.24572297940317142 -0.0007699532303285507 -0.36883534313350175 -0.03829118279191036 -0.06360539851441428 0.12949399042432552 0.46823426726999806 0.16879049797680484 -0.08582097774514708 -0.1900044672092329 0.13768244541060382 0.10068537798068529 -0.14199433764189093 0.266395726930043 -0.024924747690764526 0.09029513762404896 -0.019310094750015928 -0.10765865960429344 -0.15000474216954288 -0.005972454807986147 -0.18551800595735032 0.16745238302102627 -0.010607277076535249 -0.06546521364943138 0.03158918307477532 0.2021084595010807 -0.8098418324332398 0.14077389639741444 0.0780883221603647 -0.1932699978340915 0.04535113802999488 -0.02331972271578722 -0.15264313099154733 -0.050990138729623984 -0.36398118457069256 -0.002870911973022522 -0.25665542246580375 0.15515436832174834 0.05197998363561244 0.07220940295599425 -0.057870085988293296 -0.07343341305372775 0.0742410611456581 -0.17566367284791282 0.09435915582940159 0.11181653277050421 -0.7818965215187705 0.003138710906823374 0.002041960023124916 0.0025021221872497724 0.0002170077162866551 0.0048816225558457925 0.009583399136875352 0.0030956281787912388 0.007894662697651225 0.007593434677182619 0.0022169531936048793 0.0038818384882774483 0.015467961795691198 0.0014417780412843372 -0.004990157230925298 0.007863451219772393 0.032518550444393036 0.04068982587249438 0.05568450035716968 -0.108203545281789 -0.9908907538414425
C0360714 -0.2557127533356598 0.028473721861270212 0.010317010270770246 0.02663361532515808 0.08840693244666548 -0.08141556475876012 -0.2134451150371395 0.5250050490938976 0.07447475524612687 0.21948115602436147 -0.038270554293866804 0.145797427058501 -0.1366854418132585 0.08509572125788768 -0.264520968741157 -0.4341754421208966 0.19066260933603554 0.09688066383406638 0.057469530021429856 0.43297386107104247 0.047086749134292706 0.09832937322999226 -0.005813938825083285 0.1455201528735265 0.1289818153894814 -0.0032122242329392444 0.13111015947543825 0.10491550741760206 0.2888092915833606 -0.07541233640977564 0.1442030670226084 0.2736428883053528 0.13574883270741178 -0.06422548457228279 0.04887467552573468 -0.5034075215460975 0.013836362168207916 -0.266615088757756 0.1517108068856556 0.6038509453403786 0.13926392893155612 -0.2591587046890309 -0.06566147566609169 0.029131231207138904 0.056820390614848386 0.033511452796225076 0.15724687426674464 0.028895715400571294 0.20296825037992058 0.10208014582222 -0.12022098916380633 -0.17429145821332204 -0.02592188745654328 -0.2823673144007277 0.12044521668461612 0.051032569849439546 -0.16845972618440927 -0.0928268398061475 0.26387411185793536 -0.7601200023375639 -0.024088973773136447 0.07031174633640495 -0.042099333909464506 -0.03752526344302981 0.03244899671795213 0.025447267581347792 0.0023648104884107122 -0.20077115315967373 0.019752717907872638 -0.08785990816811876 0.09142129204397156 0.08962057286431012 0.01227524132295908 -0.04150061187699108 -0.23342220404917235 0.07553272713944331 -0.28168697564933914 0.325402670300011 0.08536435116368335 -0.8186546739245468 0.01047933789452168 0.0037714686832748343 0.04809722163961443 -0.0010940589477467812 -0.0057413421657074104 -0.012941624176279394 0.04060085608302867 0.012658619820314266 -0.06423083993719046 -0.03302247346201642 -0.0489528463508682 0.052738987408659864 0.018433811700070097 0.006063828285975331 -0.031539451575156675 0.0004152194027660571 -0.08219452293539593 0.10846879524016548 -0.1988008150403336 -0.9621557911464591
C0948265 -0.3065170299240807 -0.06834816597161579 0.006272332247867258 -0.14206495950304537 -0.002340415510303071 -0.12813819799638773 -0.44161555967259 0.4968844046448609 0.022407542260999197 0.12790802969280882 -0.11808052480333059 0.0697541434566959 -0.25949768340822926 -0.16650498823032056 -0.2389417095738599 -0.2871557669829168 0.3332421427066973 -0.0358287908229079 0.18432628191000144 0.07883401142019358 0.17395322219533557 0.027341718859313243 0.3379584690021647 -0.09627601514008406 0.04577666540792225 0.04302004715114146 -0.25238348541878575 0.1593850157760973 -0.15730802333754576 -0.35343868864486655 0.031186474862873417 0.05491203815594093 0.1282087327500137 -0.18905674974819753 0.24688815098236716 -0.037335702821267455 0.28894926009614086 0.5039056009365885 -0.21497516865223226 0.31725908221724053 0.05924297237773045 -0.019454447974104092 0.017693066223237856 0.1480917950516697 0.22502727190104532 -0.25219430111317054 0.18127267899246588 0.040505034200111464 0.11662687995723353 -0.02543196193442478 -0.2692998785418295 -0.46041279272077995 -0.09647130449869148 0.10032609427811673 0.19010790248006798 0.21306528005403647 -0.2896476949990767 0.161253580200083 -0.1366646174392282 -0.5448773474149464 0.03683733114108373 -0.05824158485600201 -0.018383823182640053 -0.03387855642665355 -0.0037366446446267182 -0.07235319002130502 0.09220582018665194 0.021968213092949183 -0.0017061366511133482 -0.0011184128243859617 0.021342860911750958 0.021835937604984926 -0.09437403161208992 -0.11988059775756885 0.08967945738351332 0.09897261286561866 0.08636075290236367 -0.07628859964307408 0.1077709546522577 -0.9552940646174034 -0.004317439719546849 0.008931067085316692 0.015452276424772017 0.012743280917314595 0.014746232136514123 -0.013940813284077126 -0.022275040187450863 -0.003987431799402627 -0.05790458809527247 -0.0331363343181961 -0.019151919004844087 -0.018832970735828004 0.03142359271320231 -0.03206006455954346 -0.05193376545538382 -0.05743195900465922 -0.06282182149812188 0.005701891891138095 -0.052244241288445105 -0.9892849603974642
C0073393 -0.03496519190650764 0.08029233688554158 0.16221636163666012 -0.23989228899013115 0.04562827328125815 0.08530340945811292 -0.34743206909901525 -0.0012618744403753708 0.16228120298655613 -0.14325199628584181 -0.018161860959753803 -0.08059484153803435 0.17222690344047123 -0.5141031853060767 -0.4436666237028633 0.2525640189594514 0.1646631223349479 0.036593172376699366 0.15356334867029742 0.343641692076041 -0.02866430250827728 -0.05412293728188951 -0.05186054589570221 -0.11605955626650369 0.13591654693052999 0.11674194705334316 -0.05340528067838604 -0.03529360934565446 0.2885451568239633 -0.11015775994237531 0.43072902520536016 -0.3527519826506032 -0.39504124131329527 0.06029465221018073 0.21295947411468438 -0.11891160229117655 0.052191419914853494 -0.2631118620601624 0.04063677797204041 0.4957293652710471 -0.07731782029581787 0.07780363114203612 0.05044592797886396 -0.1393530966395109 0.07633485949153328 0.09995105355467085 -0.03179692996385024 0.18331187036311405 0.3083703695802538 0.07248193221104934 -0.18620238766562341 -0.09221928002831789 -0.1402290707064969 0.2285630640907736 -0.15744858748715973 0.18322942727220748 -0.2951141041191637 -0.21276042122473837 0.15584599644354827 -0.6965168115221966 0.12930899351253544 -0.03303921233649758 -0.007548016341372133 0.002679434445064263 -0.0054922877685824245 0.011573104283569549 -0.09087330623770078 0.07554298476651843 0.050371540148348326 -0.021800640851071584 -0.0782533308377257 0.052857143050612496 -0.21273602570979694 0.1575747324020866 -0.30278177557565505 -0.13177060371325378 0.039690458752765716 0.3679106804979227 -0.04376359374101393 -0.7988047677867561 0.06404330749191468 0.0088863253687521 0.008734499536789037 -0.01029780360118986 0.03299956537944752 -0.04545871668542336 -0.0862090744175048 -0.06733487647153517 0.01814298819071016 0.002977583410490474 0.027416542297867216 -0.07284947144458305 0.017230549171644953 -0.035237902578316 -0.06043792258533714 -0.02693429302616373 -0.1886432600957262 0.12143089798536222 -0.12696857910365056 -0.9496048579419287
C1322815 -0.30062002457583675 0.007092241123089709 0.034517497136591954 0.09684181928918098 0.03458649846044444 -0.06289450999043057 -0.442254823858752 0.6155575650627881 0.04778576008895019 0.12800146697685894 -0.07728057405976706 0.1566182613316022 -0.1630116914782663 0.11743777654342871 -0.21404746681036313 -0.33170947538480927 0.20304178606458903 0.040664533509823096 0.04061353168942716 0.1715946575267803 0.03837504899435299 -0.11047800621096146 0.028835867041474086 0.2599633237786897 0.3928511642717641 -0.11170852366471776 0.18344504586689334 0.15141157313183362 0.3988383456789061 -0.11429849723171179 0.1797385232478962 0.35082321190055443 0.13621763095718764 -0.1396183339608264 0.0467181034563329 -0.3165539937891665 -0.012373663562640223 -0.1261931968952948 0.1338691977930333 0.4388231828568196 0.05642465271747551 -0.06268442338570036 -0.04238110279288108 0.04432630900880071 0.030609677911575355 -0.029800736040169175 0.07767182473330218 0.014067552559803605 -0.0017306844065362152 0.040138943419427496 -0.0022910697543054104 -0.07819899084904416 -0.015115671364136168 -0.03689443069179488 0.06791725796805533 -0.056277549766942575 0.035162523580991936 0.0863353298890341 0.25095591560152625 -0.9446147221614146 0.046703072891725365 0.020521478027403714 -0.0043631169609574015 0.02813711879078818 0.0002811646348177912 -0.009228554903083946 -0.007294570678149201 -0.15677000530691979 0.0042343056955749985 -0.07329893177467765 0.048835543035072225 0.018770845135024725 0.05418297661339311 -0.021786988489420383 -0.05728404694636806 -0.06304470882901593 -0.09743944391649904 0.0474488740406007 0.1657729902533968 -0.9559553645936755 0.005536412385790516 0.006543454820192381 0.001811829643502069 -0.0025830554756509022 0.0033974937325403315 0.010881111563161816 0.000572723938167671 0.00595587139788212 0.012789069403514885 0.004167530031821188 0.004275197238564351 0.012479689138947751 0.0002522147315386875 0.001515947675169844 0.013936372647367431 0.031104921806358973 0.04574221525967954 0.05017027162116282 -0.10628922439071216 -0.9911230901983727
C0071097 -0.2225721499195467 -0.005810491161204526 0.024164455993459014 0.10621235657777477 -0.07471850680497494 -0.14810537568189494 -0.3517159713739029 0.4331691854064535 -0.03533433897662433 0.2034687277987151 -0.16981138947161664 0.1355289631579425 -0.2048445577599905 0.024859731297759105 -0.3298993086059689 -0.46434453114820784 0.23265178126810146 0.2067805567121965 0.1576301303114387 0.1452312444821254 0.020300399756881405 -0.12340751535402346 0.0060084634460853 0.2510154625502313 0.23192068060309112 -0.11382645249437016 0.20018643466953245 0.13411510032309862 0.31718293655376006 -0.13740927513142662 0.15751761849449603 0.39391795732383816 0.06157485515951281 -0.21382432440091942 0.1399296192290497 -0.4485649587937218 0.1291577326184928 -0.2605859440079901 -0.011853313048942892 0.3768403124831788 0.03897639460976992 -0.03585238883404538 -0.04264211616153905 0.05720406262228595 -0.001319883957710592 -0.12467993857971217 0.06332932383088365 0.0672298645231072 -0.03471230757196719 -0.05392218242294392 0.013601899032197754 -0.11364468549978636 0.04508713941073171 0.029184256763029066 0.08288390271629398 -0.03727184790036758 0.061190483728681855 0.14690411372031312 0.20501847645111257 -0.9339773338163937 0.0994256246618269 0.01316096690205632 -0.0635284858214212 0.030434774101094828 -0.016029785480129986 -0.04948136500184304 -0.0026285443838943365 -0.18434864710896076 0.004421815855187033 -0.1479975801166689 0.08920066953658613 -0.007627251031471942 0.02052634150376854 -0.03270188231085219 -0.1022227886874291 -0.010127090438063419 -0.07037254443051204 0.07171963915456891 0.13739148229349948 -0.9366586922445158 0.010258466572442658 0.031499255686713266 0.014888337401231954 -0.007684645562148355 -0.003110243266018644 0.012209808634055559 -0.006615596567081278 0.005283858932911153 0.007338385548830822 -0.004974955269756444 -0.008521292630737837 0.0015155477726148839 0.0038981671165422595 0.02793540704520599 0.027638451148557886 0.003824999580986474 0.04519555234044252 0.014493651539601197 -0.08562566743016277 -0.9935186654419264
C0248719 0.019640471611328435 -0.22722919828126564 0.04705885597662531 -0.20908692543196153 -0.12793643062512752 0.1160921051456204 -0.18126202480445913 0.29634566992458566 -0.11188833729090454 -0.10841919312602147 0.039421348518770535 -0.03607417095138748 -0.3975926334757685 -0.26856319116974614 0.19421438643610542 -0.4733231740136293 0.11689448092296072 -0.15014056104574916 0.4280266359102807 0.11412675651270096 -0.1372982380223064 -0.04506330322416854 0.08827704166614561 -0.03931731480437678 0.0324513132696343 -0.2389520064797811 0.03031199027366513 0.26228777758796906 0.137093401877908 -0.13922825279616477 0.22492638142511062 0.2436198006366169 0.28097389454506894 -0.4628871367524197 0.0929179879750025 -0.2012442520488075 -0.29782472238306745 0.030809838137109455 -0.3529017472843273 0.3704876281709947 0.018381205327632367 -0.04994329350889158 0.006714361535247146 0.1877474392885014 0.01609487434343954 0.02599826112048995 0.1632892499071334 -0.2493998881237266 0.13852002539986352 -0.22294450716907127 -0.12337492069329666 -0.14318535535919394 0.13643718430263063 0.09948368557208623 0.43777987406252633 0.007123849716639024 0.09102850453283134 -0.17104138628873683 -0.513531774588194 -0.49597298834206416 0.030532256548858584 -0.04534047326586765 -0.17249266665869661 0.07323306893048849 -0.05122764399003021 -0.09555432252741088 -0.009535427073968435 -0.0816384591866306 -0.11319205746080382 -0.15931290682905877 0.27567075454974904 -0.044607946249316965 0.20272446794440552 -0.2531794044899695 -0.2881061429851837 0.13514310816741557 -0.07184698927811291 -0.0753707587927675 -0.47056763312942834 -0.6232694532865171 -0.01774141666746111 -0.04614419169365137 -0.09728954318554238 -0.06887988804857044 -0.08782951556159996 -0.0768793875609064 -0.025913174476911657 0.0658532047081859 0.0842414771825041 -0.1658878917922977 -0.031398127165619 0.06646766121646544 0.23086908222413435 0.07386358433019047 -0.053922437431957015 -0.11975829639492491 0.09135364179468328 0.20127594312281516 0.2686346481104232 -0.8530336103902627
C1098320 0.09316533188510942 -0.1870904377402153 -0.17363328989331958 -0.1258924332399495 0.04010822562054661 -0.33435704422143997 -0.3308548977694407 0.10593287626911518 -0.08659607117266448 -0.05855931037023547 0.04189208725165693 -0.014302839759119043 -0.31167208207254643 -0.20951280802502492 0.2631058722935063 -0.5795259513089047 0.26971820289007126 -0.0190727512955349 0.1832341093737801 0.10269267028364505 -0.0641114495661242 -0.23670029649428012 -0.05848060637109986 -0.12023128372167434 -0.2903992838630702 -0.04313363603147427 0.08191887471642972 0.2328082244672865 0.07348794158670358 -0.1043481361622405 0.09621312233338024 0.2505703746727903 0.31211097633834106 -0.634236272000801 0.016239424498387927 -0.208436937692034 -0.09434636855519565 -0.00495841597670603 -0.0819519435315824 0.35711693281515366 0.0664529718634912 0.07369617386717031 0.05354935899145048 0.08251419648403802 -0.02145848710027465 0.06103364593495645 -0.028549454341419 -0.21896413017837196 0.25692056530409757 -0.0336329451110205 0.011693557603875056 -0.06127236907940943 0.13500507061691436 0.03492483513699346 0.5806569819581221 0.019357888969889617 -0.044721546091918286 0.0625345421170415 0.025369557605088317 -0.7021131315755705 0.06133504695762106 0.038189452094365625 -0.1682357250381496 0.033980332102832723 -0.0003164302645649037 -0.08627427967868241 0.027976265215258492 -0.1750045641087356 0.004109394038704245 -0.16930444718164517 0.13182074918421335 0.006086844560614013 0.03885987638204751 -0.11140664848716232 -0.06528064234614875 0.020323821995226216 -0.032408294799775986 0.025172424473528614 0.13097553628657704 -0.9181174771098446 0.0020333377042960833 0.020120064824462547 0.015776074109090776 0.007631226452534385 0.002189134261732287 0.011685504347771327 -0.009533555908278648 0.017530643045921012 -0.013611013838267757 -0.018579284166139992 -0.011388202314873112 0.005188513425192588 0.013083011872458934 0.011493146581644858 0.007289691674841112 -0.005551341011788104 0.01990150436132225 0.01870269626723954 -0.08158147065397532 -0.995122454743414
C0033228 -0.08118078114462712 -0.1877191949571421 0.35479153690282694 0.06071134519306732 -0.05106109118395781 0.40668428672073215 0.2206310924377116 0.3691056889344594 0.07038490525790127 -0.01242966796227301 -0.1787080305185397 -0.20508449568471668 -0.3200288317959234 -0.08391367676313292 0.01574507766843517 -0.3444481655149799 0.01848622366207006 -0.08507822866570582 0.3917530514485204 0.0847596867183878 -0.3094175213205025 0.3113483124246167 -0.15787681502228798 0.1328784846418443 0.07333161714753465 -0.3202697529896869 -0.030431924753612293 0.19982312424099966 -0.009468669224146836 -0.20408684847328884 0.12385537254513758 0.20164969473473168 -0.01170003205064749 -0.3029385790996301 0.030166811276475303 -0.27664193349871197 -0.17849888763320862 -0.07142863797462774 -0.43868157536528957 0.34559640399406993 -0.049168614403090644 -0.07067972003118723 0.03816051483693679 -0.20855273064634874 0.13760929815116896 -0.15611269687123527 0.28029803295210937 -0.2839521504227028 0.06522275654324045 -0.1456901795047245 0.020406877157493765 -0.22539540295149713 0.025735191872378313 0.06413711799725125 0.3272496343715984 -0.12717061094571033 0.1188798503717752 -0.12481147718226104 -0.507928985320258 -0.5026839505602894 -0.07686261257134218 0.03574753049440307 0.007412054030350928 0.1778879874995793 -0.10369752238855681 -0.12460837090055055 0.11198708149370849 -0.10966136812288436 -0.1935600211090326 -0.11795721373077371 0.2882771778383786 0.05009469785071269 -0.17655257671028451 -0.2569931680908913 -0.2445074981017199 0.006895118478635059 -0.11378984785238538 0.010477716554517385 -0.30112481658233103 -0.7158865905777774 -0.012928816858021327 -0.014287409721360281 -0.018925442982572066 0.00560033197752817 -0.009027583190896714 0.03487761641314299 -0.010474214943558989 0.04389369738228753 -0.023571602860493725 -0.03092671522213887 0.009789139693905028 -0.03242262322526269 0.01153712839538483 0.032435847742087846 -0.000991847542643978 -0.08046169340748444 -0.04560715963731855 -0.06772231789093505 -0.007952161525150702 -0.9893714735649727
C0299792 -0.017053417280195663 0.04075877816631378 -0.02060647286794966 -0.12105420690471824 0.046915221069005766 -0.24080623893275785 -0.2977205154206567 -0.05135349818293881 0.28308099681789506 -0.07716004139232305 -0.2180665174210931 -0.10531916547331004 0.11432422177272626 -0.30354553664362754 -0.33900327475528513 0.25763743364889724 -0.18381265920196493 -0.23541885323518524 0.519791154958373 0.20216321911599092 0.004767449494130324 -0.12689674243730256 -0.16507215930059155 -0.0430565095666881 0.208669013184363 0.13879867839727367 -0.0474657383204212 0.008081724743369541 0.14124776522441085 -0.25081119462124796 0.28013609885138113 -0.1829348679211805 -0.41940841007043134 0.17730295011149283 0.19558231691865094 -0.01466287711407575 -0.26671094495369874 -0.11864351965983336 -0.4110492379011394 0.4414378758084879 0.0909677149304192 0.018399758174574395 -0.026096567199677866 -0.020232037965285155 -0.028558846048916234 -0.06633912470443763 -0.1914828274162311 0.15943137724866716 0.13997990480400954 -0.19729731958867242 -0.1954238883202587 -0.07849619455793849 -0.07851587791907604 0.22242572515733774 -0.18822806311608914 0.05354825370697715 -0.05032721189447407 -0.3853496929426118 -0.44459489330968105 -0.6144067704907274 0.11242322563768607 0.105524107930051 -0.004807422855747267 0.015965807529163056 0.009346017504157464 -0.00586721291146545 0.08529389014401814 0.11282267202050843 0.05183621704077112 -0.03103052399225312 0.016332898439265862 -0.1047563024377568 -0.23266321731707504 0.23875422737213178 -0.16781795250369297 0.1450959571646697 0.19940880594484786 0.029297157984927037 -0.5130763333912312 -0.690442162047442 0.015694436334235597 -0.014200637215361519 -0.041432040307275035 -0.05339312155364592 0.03737721416390255 -0.02458971501609202 -0.04169052672681628 0.009211714256969799 -0.09731484921260386 -0.02705584264633837 0.12322561628953382 -0.10608414643325188 0.006916105556033755 -0.014071604188728116 -0.03807368174270548 -0.09310517175398121 -0.32939499109273684 -0.064890479885529 0.4719466869340716 -0.780198560283821
C0038257 -0.28072428399855043 -0.016699404272796144 0.014352380017283973 0.0960972332293779 -0.05976965463487467 -0.11472321736487355 -0.3062792144137924 0.5412701945996019 0.022738947457412735 0.17170815540693296 -0.11896193864705826 0.15686837258466418 -0.141360526417068 0.09824276386161253 -0.35681928500046867 -0.3749347873773649 0.25214829039304043 0.1703942037963073 0.11841583741970746 0.18717360159030488 0.03620137480699638 -0.08600583337650636 0.02616374905100396 0.2861253572715819 0.31346683332072767 -0.12037843834782766 0.1668132232841931 0.13774169348374568 0.36231475774864624 -0.08452685211098847 0.12753887111982573 0.346007218144774 0.03463510746737374 -0.1399825470487941 0.12251423710337564 -0.4193202806600158 0.12544407763432666 -0.25907610040246337 0.04454766262555872 0.422266903408957 0.06450908034001009 -0.13069045661453974 -0.07332729902125976 0.042068702299641485 -0.0064084110110149755 -0.09011189145662721 0.10515122644729885 0.030923661326892567 -0.004572399967274168 -0.0432597936682881 -0.016854168374291812 -0.12123399977742987 0.024874727550613752 -0.10231661451894158 0.08005739208873623 -0.03207900200679961 0.008611245589245258 0.09103724030800435 0.22439806214150604 -0.9259165541867309 0.1725497211885279 -0.02285015745318014 0.015580831756004738 0.05775408201957514 -0.03203171304681116 -0.05260508407202158 -0.01045331719091241 -0.27762055308037253 -0.001083594345958972 -0.16459230640340308 0.11565909848773077 0.010520881702051994 0.03524869995103073 -0.04596814753817876 -0.10509225180133579 -0.00033665655313905166 -0.1005857267231117 0.08610353476258639 0.1338650209366487 -0.8914705234831889 0.007645433825563852 0.01893805373568909 0.009193893944199246 -0.00606531449700092 -0.0003527105824421811 0.010848570918599438 -0.003067813325890467 0.003879883236834411 0.010543232690836873 0.0006131659706996503 -0.0017254925364599155 0.006473976079552984 0.0013577518189783178 0.015353772042287233 0.02079133232442616 0.017919000147816205 0.04620718648171343 0.03245115750371953 -0.09624736334742764 -0.9928344206966897
C0025598 -0.3143080254757185 -0.085778737818085 -0.08954626972746275 -1.0637194630165617e-05 0.029186272222300295 -0.1873624135832466 -0.2608970758761227 0.4808072330605464 0.10662079017273798 0.08351081895729139 -0.06893135993938766 0.13614527757830153 -0.15819817734321903 -0.07190320115597251 -0.29796810755715547 -0.38306248636528295 0.23806774416355397 0.19332457117688637 0.13679586433714758 0.3612797856458838 0.08297058657203928 -7.87627988267037e-05 -0.05489473870873777 0.16469762654057457 0.3158082250783948 -0.03357626977483555 0.16014886580222087 0.1949949051758149 0.3396194219748367 -0.07567883082842919 0.22143648879885372 0.19079992811415997 -0.005280034724053979 -0.17023622798243238 0.15118441805453722 -0.39537634676458017 0.10738143170476236 -0.3037752260568537 0.058499315607539557 0.5258489591125033 0.11234150599832866 -0.23224647899937928 -0.13162318531106051 0.0038250390513095054 -0.009979014790622066 -0.04603432070561562 0.12448979650183954 0.0329480613644131 0.19821989890726144 -0.06197461189558399 -0.11235265838390812 -0.1944953729842961 0.03420098177730231 -0.20059559524392576 0.08333823736629266 0.1335298729769138 -0.28278122989943444 -0.11013113127569178 0.18515769109275515 -0.7817639294481359 0.13619304357572543 0.062080693633919375 0.06173655562156493 -0.018354008514625663 0.012310435217590265 -0.07657218508951076 -0.03237573411809239 -0.30400792937076554 0.01279990026242205 -0.11887258099138102 0.004344460213991111 0.09197065215487078 -0.0954052944756715 -0.14318716282719463 -0.25687051627484464 0.09010218409675254 -0.17561055324971586 0.41127156756359473 -0.039318793419784025 -0.7388899619821799 -0.00794402398968503 0.03481932431809851 0.0278969354201888 0.035288656061723184 0.008413602668886824 -0.0362582951533159 0.03193126911344972 -0.03439411136922672 -0.04226572282134127 -0.00871269350537103 -0.043657127515709666 0.007126610180953672 0.020714394815193844 -0.039782742953643854 -0.034570064915158384 -0.005198357200568592 0.022563064270426952 0.04774859753356724 -0.1056526355570376 -0.9859556606270734
C1532737 -0.19018185877737107 0.013127553851854023 0.05992936194847235 0.0816477334112238 0.0991067892661604 0.015117985443737544 -0.5616082079236022 0.5446151373632317 0.03258853278429743 0.05017278938305036 -0.043705583873877143 0.13251382596946076 -0.17305648496137208 0.09605860900877396 -0.23167057925319098 -0.38051994601029343 0.20914065368174514 0.08322819953234735 0.08859753082843026 0.1101468967794049 0.07515215877067577 -0.07005271898864339 0.03579989626234285 0.22779075087854456 0.43759314707066266 -0.1256037920845456 0.19821519523838219 0.1633612907179883 0.4062391684143695 -0.13321403950727265 0.2519668116802571 0.2739056311886021 0.1751029080350262 -0.11499874109921066 0.02298330280925683 -0.34967180200466463 0.038435371235512494 -0.16153162915252198 0.033837170631419874 0.38255380068769035 -0.02336612476058106 0.09234585329596194 0.01635473441124695 0.04047539550138455 0.014176015876003058 -0.073742634523155 0.04047716119562263 0.07772239614148521 -0.08355003440847235 -0.00022958126183644998 0.040680934081922714 -0.10382159175897933 0.01760698750737908 0.059248542156702486 0.058351887406057276 -0.07025445966110301 0.07201751087980811 0.16965348614093517 0.21390970962461997 -0.9297315121060752 0.008888691205656558 0.007809383708859065 0.023045316252176037 -0.013069032327519358 -0.007108398130392215 0.0165056269871507 -0.005374285965249494 -0.03991613339362344 0.0011925762019347733 -0.03191399996554943 0.011006008930458071 -0.004646798080511623 0.016071274815084257 0.009655233049791467 -0.049112657433500906 -0.052364366554831565 -0.07994844612842797 0.05093531947540992 0.15973256270609565 -0.9777750663565224 0.011276772631623647 0.025350979640698445 0.010218133371011155 -0.007211997109759346 -0.000420546225638028 0.011963133935425146 -0.003824724451490891 0.0054011179729070175 0.011955595304077556 -0.0011057322653261347 -0.006200754897613244 0.006220571095330732 0.002308760000638233 0.018739292547374355 0.025315138648628253 0.014017505477520488 0.04772416793808143 0.026870716984474987 -0.09347598115299033 -0.9928414336803972
C0076275 -0.20512770233059552 -0.15204580231881532 -0.15407742442185937 -0.22131409624090986 -0.010187297255092022 -0.07482610083732648 -0.17099290828444197 0.4157365687371202 0.07663298690029959 0.06541723495978428 -0.052021367357120485 0.1136512676088982 -0.23757079170020595 -0.13830420700527385 -0.3311022745169424 -0.4741653815677564 0.31406472710991157 0.20849318224643396 0.21183346446889126 0.17754696004437207 0.20293323499479607 0.08201811539527307 0.10403230205861419 0.2486810223363393 0.25806589264060004 -0.11286973303752232 0.00028698738222975115 0.1649868306360989 0.24456066614251007 -0.06827681622541892 0.24719667350772948 0.14265904902471907 0.03940528017196583 -0.23572383299557853 0.159768716261607 -0.4727213653157925 0.17273680472362324 -0.25365906348413747 -0.045171591046110966 0.4739271767829801 0.08410080718991539 -0.03649019951163567 -0.006091743948357779 0.07021112632859103 0.04018471552115876 -0.13535258969275546 0.12560913990641848 0.04252689461446462 0.018007697069629555 -0.05399964726399652 -0.017204637062451827 -0.10856495006909198 0.0393187126803838 0.040396392368182835 0.11582083307224633 -0.017258786550005557 0.014031377700966172 0.11075296177522392 0.19098672262491875 -0.9316414042988084 0.1425871540804255 -0.11812505649169587 0.08451558947490137 0.03560028773386683 -0.011771410344878214 0.009004895349807737 0.028018507781720745 -0.07177227814304663 -0.011941951826899264 -0.06930754611274105 0.06461437841666039 -0.001224961779956263 -0.02026308310307676 -0.022950397702105583 -0.061451855691886416 -0.011450035106293322 -0.045741672626256766 0.05573850494618616 0.13811985085437964 -0.9554609210931815 0.004136610698096307 0.027059888872702557 0.02114575199003461 -0.0003338395055436366 -0.002056141429728348 0.013340235883290624 -0.01013586453104645 0.006593549737272207 -0.0022649875100726794 -0.008413776695792085 -0.007520168527005702 0.0032086498442700194 0.009392338206296584 0.021542449344086265 0.01581840386142491 0.0011057430426642655 0.03385052020387771 0.018271967440367846 -0.08494664583283498 -0.9944007407963685
C0025219 0.004208257233569741 0.03187721026717016 0.042130124564413764 0.026002826476947797 0.09138576055528459 0.1247982961553573 -0.212777374624952 0.16765370798926552 0.2541963139621819 -0.05848025751372396 0.0616541111004867 0.1126349538973158 0.05021616268360987 -0.4764452205963265 -0.2049303416249639 0.3607264847414056 0.30179541890762906 0.2560623915005239 0.23291625280835712 0.4496035642282282 -0.15352778501488273 -0.1979022046526126 -0.13923355186086503 -0.048532933434478946 0.014143736301970035 0.07945745121695427 -0.20074114310584087 0.08127642766148692 0.29841802739311646 -0.09220504242232759 0.26449993652272513 -0.1444590867867038 -0.2479414463789144 -0.00564651912053125 0.11333833036094243 0.2919493231592094 0.17798393912122334 -0.412953418923558 0.00394677137459862 0.558490076591598 0.0314657231961292 -0.04065767593023621 0.03200667483525334 -0.0424270878887787 0.0610047532517025 0.054452112779380106 0.025216710922517375 0.0890911347396251 0.15489246376990637 0.15701001907048587 -0.0348287259618697 -0.06211935408795831 -0.05054855561486234 0.20844464994128462 -0.11395555910794827 0.2811904740242215 -0.43955003464066733 -0.23800097838576004 0.15693401727058806 -0.7162553388712589 0.0020490779069736085 -0.009821298253887202 -0.06670923379349139 0.01691848822392622 0.024493463481848037 -0.006742908129440542 -0.06416670386047477 0.057201032282065446 0.0205301572239697 -0.1300182082456845 -0.025520522399382163 -0.06885980341198378 -0.04068042644469949 0.15986000926294547 -0.17611114188194626 -0.169189940545811 0.08862786780142569 0.5287556541804633 -0.07893892113848185 -0.7641268155989578 -0.006785921665267883 0.040019999131898756 0.06589547411576895 -0.019359039810645184 -0.007278311863710811 0.007821904165750225 -0.07851332171046298 -0.08423105705293706 0.07609470147673901 0.0236226830198676 -0.02941811465937561 -0.03813303886970744 0.04084354214887442 -0.05064389589694043 -0.10075550752616436 -0.0380482505153489 -0.24264955391835816 0.1370789222410087 -0.15343583146668485 -0.9244185606968326
C0027996 -0.22219145924934802 -0.02281333357706755 0.0045353681343629 0.12593765187554842 -0.10819434718772229 -0.13760722286151625 -0.25110076038534174 0.42651912998127295 -0.004937483857368293 0.15119966298027152 -0.1596376040504294 0.14242300255659618 -0.19744425230672097 0.08386829855548811 -0.41017748495247547 -0.4449750033854088 0.213425234930497 0.2717678949461269 0.1680836335069014 0.17331143413346564 0.082787684702639 0.008427128074453727 0.05670335376043338 0.3112461459257256 0.2950757743933558 -0.1304730335350066 0.17072153185022249 0.1399970499289932 0.2633847385398117 -0.07031589148493735 0.14156024472446108 0.2961614470486588 0.0265391969306226 -0.13179817560313595 0.1405065140121053 -0.45026461945971097 0.16719688866038226 -0.2905628443617642 0.018967982527079322 0.4525310059122815 0.011404449643188519 -0.02252406859056408 -0.0008368109239656771 0.025291082121795264 -0.017721043157216263 -0.09648182525118272 0.04034070390804495 0.06448692475700443 -0.04986940120611048 -0.03852875139136431 0.03161003934297254 -0.07963569153719532 0.03549989679552007 0.03273437558993323 0.05637433110891223 -0.04439387882927428 0.07530499481454694 0.13618720279244592 0.21515435123251803 -0.9455216745923788 0.050732641147361285 -0.06099125949648746 0.07303408872575992 0.03157256489812675 -0.004581426382476664 0.012859394426533966 0.013474974549311333 -0.06656132040436892 -0.009900089005057771 -0.052168310458747535 0.04343775290852606 -0.005719123876341992 0.008096729360360082 -0.0002500955766584662 -0.053140443658128186 -0.042207058474443865 -0.06803422614692116 0.05556871745426728 0.15271235894765578 -0.9706335387279074 0.008763918008250026 0.027567400461853464 0.01472543485117354 -0.007655756746823534 -0.002507294188047216 0.011477466161426947 -0.005769447551706838 0.0036941649120024694 0.008109336471136283 -0.003081155036133175 -0.006239127662534307 0.0027163964555188456 0.0027758802029196053 0.02411077702588529 0.024796466433683443 0.008215624972225307 0.04525914044138806 0.020300274231865947 -0.08900189223819023 -0.9934425230221074
C0288171 0.04953830227237038 -0.16697526460511508 -0.19526491807828938 -0.05592211396096055 -0.058781488983183375 -0.20484437842797842 -0.14033011649609847 0.1732598141055507 -0.11086415954710169 -0.039576314259019446 -0.0874952154877995 -0.08086577736651325 -0.316285667013978 -0.1807617303857223 0.1542665910025159 -0.6753811953606419 0.3237075460831768 0.06793979227597259 0.22045587802266906 0.18594938653754753 -0.10410134292608522 -0.13683524516605458 -0.09890710889196065 0.024306683608610352 -0.20510389225383577 -0.12122029038185175 0.17409440188401257 0.26206770076093777 -0.00478189245730113 -0.07351537960624666 0.0032235895215154985 0.1654119063660707 0.21818773926988666 -0.5508144672543624 0.1136662356909936 -0.39122575225608 0.031819081233417625 -0.1787235661633438 -0.08622601195491753 0.46276004558094963 0.04590741100243497 -0.08474924192846 -0.017631931291726747 0.06574185807595061 -0.010385445535492225 0.0023746642988820158 -0.019716496063453676 -0.23357883114598904 0.2284795926945578 -0.03071607634711583 0.01734687565891204 -0.08072413651882093 0.1369521545586894 -0.010054867970723544 0.3604653349985216 0.0028826078371064624 0.01134430951271953 0.033804673688360154 0.13211954079001503 -0.8387637373715893 0.04224909840629599 0.0853631013494258 -0.16649885207438372 0.05998342703916265 -0.012271733727870627 -0.0919453891918552 0.03658637900569409 -0.24613196231511283 -0.012907281286540496 -0.10792338174391347 0.07794791009760595 0.024972604535389253 0.035679178962378905 -0.15571042082691727 -0.14253208350749608 0.0026902677547468836 -0.06563893029256333 0.09794831252204277 0.10470129455813472 -0.894351487889413 0.004752729832551857 0.01900772296110911 0.011966217899313777 -0.0001221821294089664 0.0010135839466992556 0.010419079536951908 -0.0061537841537656 0.009887186659218035 -0.0006178642021808284 -0.00852134846286621 -0.005103422232930579 0.005641855507397942 0.006652670602956648 0.012146997610138448 0.01367670844677352 0.007864188812823969 0.03342900311617375 0.027641743307096383 -0.09023702423784634 -0.9942996740858172
C0009079 -0.052986431084524395 -0.11641753301119956 -0.1755974362733426 -0.10268194177964159 -0.09208008175591365 -0.20143422086868415 -0.3378194255127617 -0.18667529969235833 0.4328491715585931 0.18380614277158216 -0.08361387462496454 -0.10126091321970619 0.028081116263026125 0.011255033788598939 -0.28195566779402154 0.20084095876147243 -0.25505396068823327 -0.2497819219707841 0.4915462425979084 0.12663540794610903 0.04949765874839292 -0.0718654462203695 -0.03716465966196116 0.06368646236235274 0.23227191375374662 0.3238357527980378 0.0006644497570514828 0.02904204966551254 0.03611143869584658 -0.1624649872746088 0.16509837843717032 0.0216133929024312 -0.3301471027124263 0.2582342526364445 0.1082992776866017 -0.0591755565393453 -0.31978505289588316 -0.04083152385594804 -0.5573113021334279 0.40794953383411015 0.0934380789272327 -0.01536051035535912 -0.07356806498101198 0.08308831657569679 -0.036762800183541035 -0.17151207291377768 -0.22267444003177306 0.17329406366679997 0.1023765921150212 -0.2507628327295456 -0.06794439316121771 -0.1027807088058476 -0.08871769575584133 0.09397875489248604 -0.24432368570044924 -0.013976087732402047 0.03186614963601937 -0.2993124350488182 -0.5958525040749495 -0.5074994743281467 0.09378268957413512 0.10095284865847014 0.050052565911624984 0.022993223741696718 -0.01857375426545284 0.038733217471614054 0.15718229254584282 0.016308198268170798 0.10180631751890713 0.04094682582201397 0.05672631942424157 -0.13486277120614476 -0.21774624102070245 0.20943209362962953 -0.07597421270186852 0.2975062954625417 0.24234993244166983 -0.1009633857219168 -0.6092671765929613 -0.5403924518740677 -0.06583494293428434 -0.048712353940871055 -0.06615355615489503 -0.10768558306274226 0.033636601107370045 -0.0020220233571549323 0.03770648593249049 0.05936127241274062 -0.17005163794978662 -0.03334684583251846 0.12885369433954563 -0.12838604149581265 -0.06367480308955614 -0.007904966845628563 0.0050218889531835715 -0.11832997846377769 -0.33645856431269106 -0.17866721004631553 0.6540668387042616 -0.5630715574092977
C0021186 0.04286976934606326 0.046440047068508065 0.37509915898064883 -0.16022720171108706 0.18937129627163457 -0.04348149957893615 -0.033800119125543336 -0.12570668031209137 -0.5251277909052104 0.1841362751309472 0.2807113649675699 0.22558780100330939 -0.5105883835859637 -0.05391277528434178 -0.08861044778331509 -0.01634510941843882 -0.014632481194762402 -0.0748872116983658 0.2359557973741204 0.04857088997731318 0.1858786542307734 -0.1311867560982651 0.262908987691162 -0.23364968494406133 -0.18569779117959212 -0.28734045492207516 -0.04337418505321096 -0.16319187281718325 -0.05421057272518328 0.24104643306028867 0.31976542591541346 0.5324315205186129 0.05158806582979369 -0.14881199842472947 0.11029854931575786 -0.031371727386989755 -0.21151394479565694 0.034707465280209036 -0.2750843925714405 0.26947883115372245 -0.3557496942574842 -0.11844133245404397 0.006956250454167593 0.22054590532218102 -0.1817278832293472 0.23592416222952733 0.5488295633459372 0.02988007546954504 0.01695064922834108 -0.10055159221570688 0.16451520424724506 0.013245087180754343 -0.16182790067324382 0.161667938744171 0.0238077873817565 0.053065896626971455 0.09976947876311659 -0.07831824920636887 -0.293329963129357 -0.4737684976642465 -0.10354005905247766 0.03179484458335322 -0.07936681804454127 0.038385062802055364 -0.05733478364820376 0.05300550297366479 0.09173074602278664 -0.032167072840833005 -0.08309125991165012 0.035453180793501585 0.10352421366643638 -0.040851141297091935 -0.03150212030453164 0.045757890936590655 -0.022787525185091702 0.1403404532830269 0.1312046601016957 -0.0630342205310192 -0.019825844438125892 -0.948430725891423 -0.02289410016510518 -0.023055248930488537 -0.026236178839216938 0.006794810038699936 -0.015381277095489835 0.04279591450592427 -0.0022891560887482606 0.03458779405782274 0.0006198028051322768 -0.014024339660519707 0.0213369261267241 -0.0357917121587241 0.005619412524330038 0.018542194044182045 -0.015579240412365166 -0.0745235385520007 -0.060556176261688535 -0.06237111999641757 -0.005656437290630411 -0.9895684607123703
C0039601 -0.13755069301000034 0.2041874693462418 -0.1484715434132101 -0.15792351161456808 0.11340029900517865 -0.10737606521437511 -0.2010244726591563 0.15114722329428595 -0.060770992480087896 -0.08056192143340772 -0.016493366666729896 0.14624348606657755 0.351717547479168 -0.35104891282688155 0.12265933037766737 -0.43619285082131565 0.39710946682956244 0.04899146980973015 0.3100737532926269 0.2538181306086666 -0.020720226428712282 -0.18825449241887673 0.020428725989676558 -0.03973090463682534 0.08285494904652722 0.012990099730203585 0.10828029763329984 -0.04640163320049378 0.46903251659353645 -0.17694599231722496 0.16339420585472092 -0.17768757195885398 0.0032175875162125172 -0.41043838488970485 0.12459162013903735 -0.2798618926483147 0.01721858166778307 -0.2007484139934308 -0.14724153836008894 0.5541294506751502 0.03163711932072333 -0.12240684518850274 -0.008551272395829004 0.021325598139455802 -0.09395021771107355 -0.04178972017822951 -0.019745561441986574 0.17748970875671835 0.20129185979353248 0.06749121405851384 -0.2635434600084663 0.016283486990555835 0.29079113726484335 -0.012241128737457896 0.3056676006778827 0.11203025532310956 -0.32813428997494865 -0.05882391771995545 -0.17303948791421364 -0.7031789520181428 0.02505270009065398 -0.039170033904186274 0.05322145801932583 -0.04146933714250028 -0.004385897072169381 0.0189932764997593 0.046481092425257296 0.050030276926333 0.058908236194627255 -0.25221904112013216 0.02192350535683564 -0.002638417664695221 0.008148844442967694 -0.10417349632213777 -0.24560983326831287 0.15207644714771262 -0.0008079441630562582 0.2972864731582053 -0.26697179121420694 -0.8164841207457867 0.08798135200202613 -0.0359066252798448 0.06538360959973093 0.03921726834695898 0.034441632690929966 -0.04711887038287182 -0.11563040573154058 0.05458019905045555 -0.031908078750834915 -0.029904204892972984 -0.17586556025058928 0.1209464746824925 0.12609258023744305 -0.08223860383082511 -0.05847269568775878 -0.06575639954844126 -0.11695031777272946 -0.045872439600876766 0.147802008641127 -0.9218999253168502
C0039286 -0.1413660140625363 0.06518185504318738 -0.12048008352031057 -0.2554458180712641 0.030745141566078635 0.01689004271584175 -0.1951756906749082 0.2951305432297903 0.20054396530492352 -0.032359829949493796 -0.10699698730325602 0.08179911233557059 -0.033844370837218196 -0.3322629958214845 -0.536089556747138 -0.19972104335656302 0.331835567102997 0.2549267853672319 0.22869120288265476 0.20962232705423528 0.11348892155079617 0.05816776828798644 0.031161719982831758 0.20383637038943678 0.2779002810034519 -0.04807496011900603 -8.609022970334253e-05 0.1255266417697811 0.3575197373634352 -0.09141246662694476 0.2917461746808509 0.01184061841002919 -0.13815244335090027 -0.08732513910144193 0.20803921270401496 -0.37113683657991264 0.21173103897601725 -0.3690391953227987 -0.030189617662367517 0.48458342381124536 -0.020107069767604048 -0.07852891933389215 0.07022345684525964 -0.01848488045511691 -0.05328093210894737 -0.09407138832190966 -0.005824794653631712 0.07008545067225601 -0.014892802864105877 -0.05113832912608259 0.005664717562121196 -0.07886521689384726 0.03759126323007186 0.06351636445355868 0.011733162464154238 0.008413794709698066 0.07470403325840388 0.11571884517915003 0.20505850741910558 -0.9464441588546931 0.1737242468449786 -0.2531806200908058 0.251088724450578 0.12699004888114188 -0.007080514361308683 0.04273578866076708 0.030433267070349344 -0.05067262666201235 -0.024700069311981755 -0.06387351356359752 0.07410252407025912 -0.009706807649910972 -0.04450842857963098 0.019208637708629163 -0.07983854177742492 -0.025630766830871905 -0.040412426993747745 0.08457484159965661 0.12073550129776496 -0.8821323618410368 0.0029308752322397395 0.02534493054920396 0.018214729135017114 -0.004626442755314932 -0.007380208362811802 0.011900498465997307 -0.008850542890296471 0.001145780207548453 0.00407996333655227 -0.0016420869365761559 -0.0014591153443754745 -0.0007278925468611363 0.004326845569648845 0.032714941448303995 0.023831038781580657 0.004558069296007946 0.04494014523948913 0.013715986082571623 -0.08480300293829596 -0.9937913014571919
C0008677 0.05495788598804706 -0.04092467692529165 0.060863330758468275 -0.007074598697666175 0.01233598404574393 0.02274255342307575 0.04523759063917738 -0.03787900906762363 -0.04377195573590876 -0.0008670754634503169 0.025126444984353718 -0.18970996796493556 0.048423497476392845 0.23331507753239505 -0.025717979427970928 -0.029891380668282216 -0.025292611094161078 -0.07653952951743395 -0.15171819264244293 0.9279060868289714 -0.04526905835108611 -0.03506149489746319 -0.022301458932747764 0.00512393672053896 -0.048834704880437 -0.037969958116463844 0.08431014065459597 0.09102062214227556 -0.032605318531350534 -0.0013478270433245226 -0.002768175188464388 0.029335807651255305 -0.21049818252739574 0.015267029832647593 -0.2776497554043811 -0.054035546712900694 -0.024365926032777367 0.027606363539716124 0.2950175375139953 0.8729846319210122 -0.035311597315563124 -0.04447922721207675 -0.04874458044089286 -0.006493534197310907 -0.009945870788036635 0.07521997006719096 -0.033477290767421 -0.06921597443041938 0.03138379501319016 0.0015070300682211235 0.0333761306409011 0.004039186864208153 0.022360247382737834 0.003619925661733623 -0.06332026358614218 -0.20915183730541498 -0.07489585118009148 -0.011172978091019505 0.1676931295541234 -0.9478650795888192 -0.010382292486104474 -0.0048253240335420335 0.004640727645517501 0.018423586592558917 -0.012601022836687617 -0.01372496846788799 -0.012429241857403009 -0.009672888967359433 0.02221682356884188 0.011727919555872634 -0.0001005079033833511 0.01079624185754218 0.011421138568156831 0.007735397632508098 0.001809033948867195 -0.030851333493393442 -0.035389676707832794 0.013614496018988717 0.07218295863130779 -0.9951741195875864 0.0006281567559738648 -0.0005306627172619755 -0.0011095578297539836 -0.003746945701672472 -2.642759230747274e-05 0.0004881037407164671 0.0036640853764819824 0.006290268916787161 0.004893390270839367 -0.00379475479650716 0.000233894857506004 -0.0012898077669333558 -0.010678911514455136 -0.01859427683482511 0.012979789158105784 0.007842362531619955 0.007195432302337744 0.023736850220214725 -0.042743179655112325 -0.9983780856137161
C0054066 0.3228767375076187 -0.22180452821897095 -0.06113485348198628 -0.23080206434229167 0.3778116529610067 -0.025822014471610356 0.06624598742604802 0.26670893309499044 -0.08508966394161724 0.0052592903394714525 0.11843320674438958 -0.39158978379348086 0.12076184903848129 0.4914426693217615 -0.19827408101277433 -0.13412651879117035 0.23270630416923044 0.06187396792105977 0.12063515602156226 0.10021721572442992 0.12303972281277892 0.014146695340966735 -0.04753874466249666 0.012280058615994046 -0.04747908256774098 -0.07290727192400677 -0.1305648934259258 -0.020604469084037423 -0.03195922062549556 -0.016426408362466123 -0.01979031547458392 -0.14431581567420224 0.40260643945876284 0.46995691104896986 -0.24055254388732386 -0.5492186854441038 0.11713817020501581 -0.2145420703528764 -0.03994365382604903 0.3617950884143694 -0.08702906476746183 0.16230007535298063 -0.023002983992329713 -0.11184444054439845 -0.09140334188276368 -0.01849845509047897 0.024666111899944977 0.06977093133319928 -0.10122397024678026 -0.19311149044554674 -0.07255257889382788 -0.22609237737334997 -0.03129357175429418 -0.7104107364846342 -0.009033235261912794 -0.08704309777090521 -0.1533280318860558 0.0009893440544090366 0.06442999880218726 -0.5421906275659414 0.01459378699416728 -0.016832354054030007 0.05771345797580528 -0.03195606220565517 -0.08131669951757922 0.06033853693027697 -0.06702390915010031 0.1308152376546256 -0.07799192655839576 0.06398438590838254 0.10448736886282456 0.13161457440011914 -0.03450073507929811 0.14511938860857374 0.2285028322842132 0.37133124469819206 -0.5470015619194147 0.19583940617735682 0.0009462934929713457 -0.6123413128254249 0.014980744856132946 0.02660617847198974 0.002345248968316188 -0.012813161710267319 -0.0028191287558510486 -0.0003235421055233757 0.0013921101474761845 0.0013984450792053364 0.009000006921792834 -0.0037972897987250606 -0.009876587212168785 -0.0018201809016741846 -0.0042015951213888215 0.01727853661412513 0.0269615921704571 0.006310819003236749 0.04423956511488367 0.01991472395084736 -0.08859653878638947 -0.9936819152711025
C0052796 0.28304304121564056 -0.1397730422993436 -0.03125594523789467 -0.14663423896275576 0.21126043498520966 -0.17399522468315987 0.09868369604319237 0.3539953364050713 -0.29803100443236985 -0.01355862309457395 0.21940732454928613 -0.3421868108183798 0.04096502662475774 0.5018385895308023 -0.2027949356999247 0.030868575300722984 0.24309697696195456 -0.019562685478956367 0.18148149568871216 0.1602007672950852 0.10379006217889974 -0.08098355819328933 0.08183570844275503 0.058024284458654256 0.13825581835140774 -0.23368093601366402 0.051040552250650684 0.002283694415618405 -0.04073448522424434 0.13981198938248893 0.03968657377545259 -0.11029418182654203 0.33910035342378453 0.46361783103872906 -0.21894700437000078 -0.39728845840628124 0.06916634759273986 -0.2832440586500876 -0.09611927761855109 0.4810098865976508 -0.07639923361702217 0.091054166536486 -0.036870832604047866 -0.033632911749304266 -0.10018150197086571 0.05022383466145412 0.14113213825829898 0.002845990100378832 -0.0885139447856127 -0.20264531184266504 -0.06830187078620993 -0.20624795009409666 -0.04166116815826681 -0.6289174898335927 -0.056847055818078085 0.025121064784821807 -0.3692091865232239 -0.2548851157918701 -0.052845153761002815 -0.4995831671979499 -0.016937336736937186 0.20231816733672478 0.1625025968421367 -0.2340142659496733 -0.17135781593837426 0.010810762182191349 -0.11957215307304303 -0.006280819966242753 -0.044300478474514994 0.017050158835192144 -0.04237441025857295 -0.08334366607798131 -0.023419015144344607 0.1559919851227766 0.05434557628692856 0.35049210318849755 -0.40661075401540847 0.4050324833493435 -0.2478595295433538 -0.5303775309842136 -0.0033623881273120294 0.08310586047522729 -0.07329234269524648 0.10714574564596786 -0.053316391545397065 -0.13439861607262782 0.3976811852556871 -0.05902306531299017 -0.1891961264924404 0.017626723354167918 -0.23289855854933492 0.09847763456636519 -0.12618396316377187 -0.13274655197343285 -0.061067179318859396 -0.12405911249898902 -0.28023176388796206 0.06811921399905352 0.061659873386209436 -0.7443178676477832
C0533545 0.29512146415449886 0.16780587096229302 0.31151942865571014 -0.051211140527464706 0.26098812267762705 -0.04352745046815005 0.06607628049317854 -0.16178225168104243 0.3192731429932584 0.15168563161319987 0.5085603990824067 -0.1811674447357342 -0.021836940827863912 0.44240047800593796 -0.13233842638178572 -0.017053870892511803 0.05437394628353209 -0.03344645619636643 0.21893217697805026 0.046082029655817515 0.008115537394752593 0.06740806440606945 0.12155674724520457 0.11425942747326907 -0.2039008360954842 0.5127499311057333 0.06464451725569657 0.10634174155497003 -0.07784218152935608 0.35213087027347195 0.16697247605374463 0.13409206927309386 -0.0967138140154899 0.1699580268389719 -0.4793737639821591 -0.11044907647991181 -0.03859699445964489 0.12781740390859553 -0.31715707165084256 0.27021166050926326 -0.052945029553249666 -0.09719659902897547 0.15783050241267207 0.11708806105640873 0.12906157860465117 0.09299885006853956 -0.18981042324293057 0.33059611280768675 0.09863027873909072 -0.12027740617534911 0.3547256379241892 -0.1842445635866402 -0.09769506126522198 -0.3685154829780401 -0.16457511473914124 -0.2684912442601177 -0.19159562085156062 0.037582915222739884 -0.28420245517937454 -0.4807476262587435 -0.044180136998502796 0.04894928629681615 -0.06097310635606385 0.1007850164188471 -0.07834030662987694 0.0571488687547046 0.10936977695992459 0.0012989656241033333 0.15313662005695355 0.06680826097902874 0.06734969428302678 -0.055425670253701285 -0.1151619693212831 0.018268596403983532 0.12797405753072857 0.19039259469943337 0.015251590771208108 -0.06691897353069721 0.0020173972056947375 -0.9240943711247682 -0.02680636945287301 -0.016250855998986385 -0.018023942184158866 -0.01407354926252383 -0.00842731258112587 0.01806276998466097 0.019878043528106983 0.020266739530946667 -0.031826236819033654 -0.012284673080909614 -0.021562540138443474 -0.026465021915576512 -0.0008660497370747925 0.00031279826101387244 -0.020345080907007682 -0.07898701264075801 -0.05760408411775729 -0.050070682125795886 -0.016887264444174394 -0.9910589667138257
C0907410 0.08448959047607642 -0.11047609414779641 -0.06260307773455469 -0.24092549287457837 0.15305602146493097 0.061916618429393916 0.3527535300383329 -0.07899763047638034 -0.059530107570904774 -0.10153755390905365 0.04026352657441487 -0.2473315563710252 0.14502711672590413 0.5281986543166879 -0.42729274583434257 -0.25332285000548194 0.17981470093026952 0.23283911445768032 0.15207423041813298 0.1663035207068552 0.017166874141715978 0.1747191419200837 -0.031800942602234795 -0.13120643991630637 -0.1478666605034403 0.05351123055091756 -0.14884118880109914 0.0056112033277744364 -0.16774519240402766 0.13946599298083825 -0.20733799137087333 -0.08734945442179588 0.2672038545050376 0.36690250461536994 -0.1520658410931976 -0.5211171183998714 0.17400627792793547 -0.26671565068502995 0.01563651901673108 0.45107469290453034 -0.09912433430688519 0.09937759531300415 0.03364610728273555 -0.07731513399289033 -0.07303992257113155 -0.00018789530186655884 0.03650503492910105 0.06810963135183311 -0.12640703659212482 -0.13785237884212662 0.001912171328856509 -0.1354582673286346 -0.0031194266187110674 -0.3260449107195488 0.004374263546286993 -0.10629463734103191 0.0009437314026942688 0.0717069327018731 0.18786823458203533 -0.8663012186290495 0.002835504064671918 0.025319221874536883 -0.04317824248006969 0.0073022557270462675 -0.07029285229528139 0.05554220433885111 0.00036272381639305897 0.09075850110952326 -0.01339895662114469 0.02677843574589506 0.04986590605066342 0.07012543609366846 0.021361674618019518 0.10170683137431008 0.11974369152091943 0.09972558675828658 -0.2833435371187475 0.07202502772902354 0.12435084813051618 -0.9147953375509221 0.011292949048115926 0.02294840990034252 0.007447316651408035 -0.010269300581150748 -0.0015258589834121132 0.005379314755417975 -0.0018495827488382592 0.0021787890588835183 0.009237243051536004 -0.001465690696199239 -0.0057314148301117595 0.0018760044805126786 -0.0016080793438959782 0.016703717870413907 0.02356217632648463 0.011820838896207442 0.04494055209388795 0.025996697628595123 -0.09225453648039482 -0.9933975802518957
C0053882 0.13617349700452697 -0.12724376663980305 -0.07723970540504978 -0.08365866666524087 0.03487537476930724 -0.17456156926957422 -0.20327019350946762 0.1256050365249311 0.42781408805025334 0.2027675685073501 -0.10828188275236272 -0.07556230968678744 0.49286048302110613 0.3063940234891715 -0.13168949672563426 0.09670651077409709 -0.21843829060716766 -0.26218252727959723 0.3741399380466375 0.04499705136031947 -0.007116221278387628 -0.05875098769669396 -0.054569315938980886 0.1058623528116998 0.07848028641259729 0.3422773154847712 0.06895021978836995 -0.044392786630785865 0.1801870423557798 -0.25679070475614574 -0.39142367015925456 0.05441093739579465 -0.06783312302659009 0.4047297584909441 -0.08001869979729859 -0.08076332239754873 -0.33790479090239567 0.11376058687844452 -0.4985629549372599 0.20167804320625488 0.08569342904046001 0.12936101407477454 0.09504446234731541 -0.07696158335358184 -0.0426026952012954 -0.16535288759792932 -0.20156009705902142 0.19611505261937973 -0.06443020703205128 0.264575102293341 -0.31542410117121594 0.07461050350868573 -0.028322921597052266 -0.1665071491226807 -0.29039103375621306 -0.3194103421028715 0.05768042813605269 -0.22133808587925705 -0.5050299979967658 -0.38892381212573107 0.20632984267911467 0.1094652783867002 0.05662883016719373 0.014891320074874786 -0.03945830076829924 0.06702809815558651 0.10531363937807264 -0.05554418008591715 0.1362106267038175 0.12031673185936023 -0.07815299346502462 0.16297629472656805 0.06578130259679316 0.2667423410990194 0.08608044139087888 0.1290566600976798 -0.10735856357226542 -0.2479626274454036 -0.39181316313338255 -0.7280242553545532 -0.019295143460256636 0.046543326616050776 -0.009157082382905619 -0.08146300879971703 0.03300949472455673 -0.04463018377440485 -0.03641088677013321 0.004014126835287727 -0.05441336577893794 0.02070821903391127 0.125760045935803 0.029362994883259254 -0.04921441332419421 -0.04485582821977984 0.029962334820839896 0.10405962430723936 -0.18490939524397879 -0.10454944258362674 0.16400979098325202 -0.9370533839125111
C0753645 0.26856756956380756 0.03843926733783438 0.24761116589054846 -0.03419473968792691 0.3167293830302061 0.10238994079218591 0.22510737413051543 0.15431452501063864 0.25292924566629826 -0.003375634312383036 0.2202795032242511 -0.3993494592501619 0.11248180404730351 0.5128813852130463 -0.23209908046073566 -0.13714743537312626 0.10709998309623135 0.035411646326514126 0.20688864770932403 0.052268377932111976 -0.040650952677639844 0.19406280886840882 -0.09140317472665242 0.11845680488498886 -0.08189424410992387 0.11160461437404126 -0.1033671463407727 0.10763232614518141 0.03224640047776525 0.01724559282855122 0.025253349764069927 -0.07070670661287363 0.19915823554604353 0.447746326898066 -0.4248666811033966 -0.5241843808884411 0.1095614026901029 -0.16815724698063883 -0.2756788184668828 0.2796306656219432 -0.030179367810772195 0.08293893448531443 0.1059311745707615 -0.1271977096038143 0.04714976645566156 -0.04416682535406129 -0.10338749448467546 0.10515987256961207 -0.10189385070384932 -0.33133312657791897 0.1257024962377282 -0.2557676275086375 0.030968658737021294 -0.5638561623386419 -0.09386163199976152 -0.32341707497435285 -0.15438896713156433 -0.014002869695068415 -0.15569688416278726 -0.5068837129054103 0.004379204645727689 -0.0664733756575645 0.005376828829982954 0.0827738031821731 -0.00503863900579571 0.07568236980480199 0.06092339067783294 0.165192677197541 0.010794691439606192 0.025740981741199574 0.20338797623879978 0.06705300809443648 -0.09839703253906268 0.18005067060390043 0.223089457288416 0.39501709094739806 -0.3884243339047781 0.11766430832725853 -0.027506347946377144 -0.7013584909522574 -0.007417070451011438 0.024985424810405877 -0.015105531685980788 -0.017779449008770282 -0.013901903000902752 0.006540605745711404 0.0027761104653027937 0.01828625713133008 -0.024794306208198225 -0.02554900407426164 -0.025819674749126605 -0.03561469851298823 -0.002719576292716572 0.043527533169058746 0.02711558057181452 -0.07114596347237331 -0.0014463960736301633 -0.06202383061796532 -0.02695277568482162 -0.9913229427912924
C0055856 0.10920996515649671 -0.12603945358771002 0.041602193033480596 -0.10752975802839132 0.13014622126879852 0.012526797549466662 0.07234724797384255 0.18693353034783305 -0.2058269996623936 0.052165402338960117 0.0481200808886817 -0.4730482151696311 0.1269452043134936 0.6088847421821562 -0.2762738156873935 -0.12565768265898086 0.3053433570787875 0.06388381995615136 0.09310430822362896 0.21327815562436636 0.1377342481113147 0.06689704872729677 0.027868044244282263 -0.013366926813420096 0.26695952215716523 -0.06425417782061993 0.06250973506455429 0.07118105873970115 -0.14332940722554766 0.10826666716884226 -0.15007287132832034 -0.047819140579261524 0.3181734921084627 0.3792747244746432 -0.17231436937251665 -0.5177255374759924 0.14369791775747054 -0.26634332091308305 0.025501564296661318 0.4462075620159259 -0.03528125659652405 0.03130973989881017 -0.13697668677452307 -0.08314185391163002 -0.08894508082159018 0.005716091325765713 0.11913892355302329 0.03035603707319786 -0.08936791404541147 -0.1741967682979893 -0.1154424416125123 -0.2639914440193736 -0.018207879983051206 -0.6797773126023957 0.029977118066434806 -0.010646400619698874 -0.2410600778427025 -0.08355545499433928 0.10444039004779349 -0.536889873259673 0.02248244293005545 0.17049624323093301 0.10359032075826995 -0.08936622338664935 -0.05313102645183333 -0.03533016095431747 -0.0844404827378391 -0.05047961448505325 -0.0943312793122374 0.190442952222455 -0.07814397591530155 0.052302834333464415 0.007592043415866625 -0.02963009665368266 0.057772695893111105 0.3815468731505274 -0.5292732765676427 0.34854030479345466 -0.060785546553725874 -0.5734048266126744 0.012085367888524799 0.009201067015030134 -0.0066690345793788824 -0.008872853471661966 0.00021875922177423522 -0.0013902731694940213 0.005482426525456896 -0.0002074855536846616 0.01451765061109642 0.0045104035324093385 -0.00015950303724952884 0.0052136211249814955 -0.006663184813611885 0.004024488096647523 0.01936515945062781 0.0251046806377978 0.047428683961143664 0.041888033692121206 -0.10199951159389183 -0.9919081862778926
C0282386 0.13889147932166857 0.10004743956668956 0.33590855809710307 0.10673784521219874 0.1298787265283958 0.23083279811002924 0.2813703943146509 0.07934570632490787 0.4337344757698376 0.031661768475812084 0.0966787929379659 -0.4584578638426177 -0.03245449747127468 0.32370700490271587 -0.03871974220023864 -0.15841850252145012 -0.01520110288527106 -0.1108206028090001 0.3666783374516392 0.052876536683556054 -0.2809074249860907 0.30377484883965 -0.19396520050198784 0.1449941781829859 -0.05639301256300089 0.19351006289350642 -0.11083264736793877 0.08063432272652148 -0.22857202017154526 -0.0533961512641671 -0.013883451741644973 -0.035618626480381554 0.1545090901609329 0.2156790413464717 -0.29542047873473654 -0.3187417934360156 -0.1616577109607562 -0.04048361836027996 -0.5399818201435991 0.2749247278532061 0.02468035175434424 0.1051510719826931 0.09636581493550503 -0.14439837672746042 0.01281844609508272 -0.0652935664775485 -0.1421123375012746 -0.02514191291861967 0.05241412609136627 -0.15527467426778682 0.12332919119887889 -0.16213742077720295 -0.130128557457257 -0.41298912146262934 0.1055180513446211 -0.2839234961106478 0.019967809209964462 -0.14641380091480208 -0.6343407866998579 -0.4013990079446964 0.0425530959692469 0.04006982814431528 0.16727757347210148 -0.011254251045206826 0.004991161602169927 0.08116471208811515 -0.1086761962408689 0.08279267542748142 0.13331432692909662 0.10881997415054508 0.09968117224918556 0.05080398195719475 -0.1131915234204185 -0.016776132998176943 0.08177784182719348 0.15800461686644127 -0.46063287414131315 -0.07239934099742515 -0.5560498995695484 -0.5741976331355407 0.1670520661736126 -0.006603760935523595 0.015558038292337166 -0.005082536309143087 -0.08670942651445676 0.11012088440667782 0.005504704958900664 -0.05727332075345042 -0.044262429944989135 -0.13080813482331155 0.13127329964275822 0.1447265130436735 -0.18060500848585356 -0.06241188233612682 0.0959439908170695 -0.1654122598667691 -0.07902652151820014 -0.03350005710508779 0.10361709758924251 -0.8946475536362684
C0536495 0.3178070962146132 0.10239561625114221 0.22146305394550014 0.010818629672690976 0.24097919557743466 0.06518143435662013 0.22986261635923683 0.06707154410774689 0.1987103502176094 0.0140345885557222 0.2224690409607852 -0.4223911488673821 0.14007513544506622 0.5554668433857892 -0.22373821751937079 -0.09250847499400446 0.13509123155053526 0.06196761998242286 0.19376124518102142 0.07544674650513916 -0.12069788961794022 0.13508074532757722 -0.08122757035359437 0.07296024827551026 -0.21261067640044626 0.17812519697625548 -0.011623194700207243 0.09406758426190567 -0.12612132292784564 0.09292491190761205 -0.09492059341690443 -0.04947780347392993 0.12090071748852396 0.44549227298183425 -0.4286868668451474 -0.46094854287266696 0.16228601268862378 -0.16915002622021247 -0.21054177974407462 0.3531941981217235 -0.09818664246972345 0.0564680755927718 0.028795498806826608 -0.13630183820057937 0.0847898435994713 0.04234062664086749 -0.13180178609432708 0.1267738630293103 -0.09263287797559835 -0.3099413741642972 0.15133787366656354 -0.23827497960616267 0.02192944930726871 -0.5475707797549502 -0.13455993464075364 -0.3081752846437542 -0.1735091010047707 0.034084639806465554 -0.039409488043702576 -0.5429567706517939 -0.01920389001826982 -0.01508104732639804 -0.03912124056277566 7.807152838877553e-05 -0.02410824128179385 0.051567991745253214 0.025438798434567228 0.1856265126899894 -0.005734008283194339 0.028240624128670653 0.1260251838066976 0.0823315241690078 -0.06525768313354718 0.15303565592345938 0.23314711149176873 0.3051588755542434 -0.3884203928328382 0.102726150753294 0.03400608654506697 -0.7734984079664514 0.011411633384684433 0.03169635613789616 -0.004781631200552158 -0.012291976309651077 -0.0078997641319217 -0.010955040428215927 0.00035116738423601567 0.002597871608154268 -0.01412822399453175 -0.016978923717002485 -0.01927730144468848 -0.021166560982253717 -0.002778324467344141 0.029597948184746106 0.024554266297080057 -0.03333894650450509 0.020463768557802513 -0.0189316847993098 -0.05944771668795641 -0.9951306340330437
C0110038 0.13218659790119672 -0.238165173156115 -0.08831201028715432 -0.20590371074197578 0.1031002745529445 0.011827466590100857 0.38475840223141855 0.029866745982824638 -0.081228443586976 0.062049538276979364 -0.021791568635306454 -0.30959294370117924 0.13571282364267764 0.4357769441868748 -0.4424905246970283 -0.19381338926654776 0.27013408890686025 0.21522350900217038 0.1580831807322184 0.15222464633109126 0.06428989146008411 0.10902494197156852 -0.019971725239512267 0.0754374320280531 -0.11320942509812822 -0.06894831130394043 -0.0522042359532683 -0.029560481147591872 -0.23010396252416118 0.11265026853143482 -0.25745464903834003 -0.06999349234555932 0.11459671906916986 0.30041783593219673 -0.040125542029576064 -0.5384902053128122 0.22489215777785063 -0.32140729553348313 0.023866991388121452 0.5200842587253565 -0.10775105883602479 0.07645192711026443 0.018845672366008558 -0.07454176549521671 -0.07494261299788832 -0.01052002749062191 0.03362689812448568 0.055015566214531436 -0.1307099584386508 -0.14612711050814878 0.011395873532635346 -0.12510949552438094 0.011708651978969283 -0.26984595802162187 0.005554712735602548 -0.10138720423023459 0.021491467731099174 0.0924594035912772 0.19341237567474548 -0.8847853006988731 -0.0017696459826943857 0.025368337287434733 -0.031227636989297126 0.019415624203293524 -0.1905500408239588 0.07652508158589338 0.00776775354377657 0.08027641115476152 -0.03612668662435922 0.07693890209446451 0.10433146967763966 0.03097224009822677 -0.01154762748116638 0.07901643695591856 0.08205164689155586 0.06459259350814114 -0.2456638186916179 0.05432689765697536 0.12623080370158793 -0.9130958930994175 0.01240342817301842 0.027517203194452014 0.009234835392489957 -0.011704122444286721 -0.0034449664557405103 0.0053632058494304065 -0.002235594815905886 0.0013365887125118914 0.009755303213014904 -0.0021199963070429495 -0.00781811756380636 -1.2267201300670555e-05 -0.0017299552164809868 0.022326326238068846 0.0271999926323823 0.00793257117051462 0.046645964571153206 0.01965531392878365 -0.08901885783144081 -0.9934121667111663
C0003232 0.21355669987711853 -0.16049072871922807 -0.02089151611863209 -0.1544647062731533 0.27760147206726843 -0.037732149578841225 0.06066265688406589 0.41981162364900626 -0.1746851173418131 0.16696530791008485 0.10788033637831222 -0.3586358195067343 0.08855376410821857 0.4670923667172975 -0.18140317244070742 -0.03874056082297599 0.35264443120013494 0.01587357441292865 0.08441724688973412 0.23477853826168774 -0.005111026468927939 -0.06205841025107839 0.08199409146731128 -0.005031864158298115 0.06863823541110259 -0.15280061747195803 0.05784086253524105 -0.026618762839392445 0.03416753031981492 -0.07861302482850259 0.010928190941613278 0.0031089716605570746 0.4203935016085024 0.38695156900261796 -0.22299575781441497 -0.43587668949814695 0.08512830546895168 -0.2937267469810453 0.05972469612365476 0.5352731289590751 -0.015204426644153007 -0.012954050591225058 -0.08896105366439071 -0.025103232631903644 -0.031095324595657146 0.027564268824833833 0.10974417406362909 0.015317573294570468 -0.05652737800643586 -0.018387979521772062 -0.08879555391186573 -0.23699255569665437 -0.023428493792204092 -0.6180459892040184 0.04198046230303711 0.05265397186510049 -0.33110750544028383 -0.1760781928421657 0.13473449295325338 -0.6030045105925137 -0.06829477554138047 0.08900999785170573 0.09932150995991985 -0.10973835517698448 0.010237360217534214 -0.020502412933567308 -0.08221183637183307 -0.036553281298924274 -0.02077907350322968 -0.028103128446310948 0.015663727174012394 -0.005465883764444462 0.057433858832263374 0.08937233882195532 0.047428147013624 0.2702037124056412 -0.44943737602210954 0.4214411372713319 -0.05660565550276618 -0.6971603720289368 0.022215553841092046 0.04954952481975247 0.001370704338093213 0.009940551423929684 -0.05001169753638977 -0.08415141610932618 0.22266334348715044 -0.030994819005671373 -0.12572976514134818 0.018303933816495983 -0.13842324334097136 0.09214453614603106 -0.03492427360385081 -0.058570734699528726 -0.05024767135071313 -0.047937610703501075 -0.12553525254795442 0.09694536696528024 -0.13234731555413207 -0.9169990916243291
C0021311 0.1325728282276156 0.08785254436056686 -0.030956406870233884 -0.24197538877130376 0.5728230175886253 0.12484191966904518 -0.009680472980833306 0.11107911085599288 0.06756745504484132 -0.13911383394505436 0.1603345966165019 -0.29559151467663675 0.09325610941192468 0.5347803345053929 -0.22676351034161563 -0.11592261612213547 0.14045644081961942 0.007131310551984638 0.20127046663119866 0.04708851235392946 0.04382472504605568 0.1172413342818492 -0.04103897958471475 0.03512088986693784 -0.05139699124930864 0.1734979521709618 0.04658518914064578 0.15460390406860425 0.02382049233679722 0.05713848314933289 0.04428278694839636 0.10151742936373401 -0.3250502285769799 -0.036014698147812205 -0.574084287998527 -0.07433680165651664 0.24122552592785726 0.47789069702305026 -0.3529787841089408 0.23083487879200484 -0.002120498449899625 -0.009539077166255313 0.0598912124265361 -0.035392853615008706 -0.04325707257234511 -0.016396186302449444 -0.03370802973422529 0.1609911396464564 0.026211268056110442 -0.04893301272336595 0.11336056392666333 -0.3202843786474357 0.0598591978766643 -0.19163353886414689 -0.158745707107663 -0.42901975225513445 -0.4085225153909541 0.3591940804524189 -0.40353392085989204 -0.37288201500122425 -0.2303858186934783 -0.039383789596799834 0.2084967061055459 0.31866370775304664 -0.2756719395639814 -0.301943790602195 -0.06219517650960564 -0.17000397428427408 0.5127266581477693 0.05400315739992655 -0.16332345850586183 -0.062109251752052314 -0.11135193765091304 -0.09280791162700178 0.1833972277654122 0.1027066004252311 0.06962193998639632 -0.14453291797103082 -0.04126021984086083 -0.45983364392165044 -0.09813693190421355 -0.07705615860689745 0.24475039109975102 0.026103062283345285 -0.15672683659761966 -0.06079850153134107 -0.028580449810531965 0.16731090655694444 0.03670571687216534 -0.22965438397207896 -0.03922141671922046 -0.18365739201132245 -0.2926806660808962 -0.5021201347463615 0.2448520616793249 -0.12387179221085448 0.03615694517871326 -0.04656915809673936 0.041967498309828453 -0.5992498531811665
C0008196 -0.04046680650675411 0.07431987934546785 0.10856651717085414 -0.0550897060455798 -0.09714692876812482 -0.004089576977088889 -0.06767563364705703 0.2703167292941335 0.1166670897302193 -0.14644773750602066 0.17982856486686635 0.09949598822224269 0.6779678064552919 0.30955974469529557 0.19421382158894765 -0.08833824308695937 -0.017961569709449756 -0.1856371271661149 0.41616261190300585 0.06819693848110477 -0.1356016208449891 -0.014675816771748675 0.16110027121795362 -0.04441560682078257 -0.08916382476732962 0.10688578673056798 0.05475869361456746 -0.03267606696840913 0.36213559274377016 -0.12362651272837953 -0.3448972489907 -0.29044457164367676 0.251354356133148 0.22343921826349622 -0.34984069958924086 -0.04186271195792299 -0.21051024208591862 0.04103572836000417 -0.459671749440391 0.2928313610835132 -0.030443636807409545 0.09917820452211966 0.11551492986121523 0.10212829293210546 0.34502080118151646 0.06324537898720295 -0.26518358865623565 0.04670504287216294 -0.24916166546587326 -0.0016612543611253985 -0.23890480431475775 0.09647531817767042 0.1569617269591623 -0.3017474817576136 -0.0027485655538482204 -0.24146928330740328 -0.005345740042671318 -0.19560529107873115 -0.53021080005669 -0.38475403897325183 0.05693708137065575 0.03709923747035589 -0.027737777583956125 0.04816299332807654 0.10696159454772847 -0.002131048858208044 0.1737838388282128 0.09098652860368203 0.11183327729482213 -0.28060902183257375 -0.3092636170896364 0.1286980485257231 0.21898464583542362 0.15517610311848848 0.2594071974907011 0.16006754656122696 -0.3231514219702354 -0.04875431633620275 -0.4581214929939347 -0.5072337188389708 -0.005219179903815139 0.029226665456988796 -0.14119866627632333 0.06931973060286963 -0.08222505038903485 0.11415312962350051 -0.10887042238892326 0.03942291187080732 -0.1332154770072633 0.10635634410253089 0.03811848206282129 0.13179677920825333 -0.20787929459321616 -0.028389633957302374 0.08249103425482932 -0.18434552513459324 -0.06643221355171561 0.011723341489814817 0.0849879543417272 -0.8925886813982581
C0002645 0.35801723763757715 -0.1490934750343974 0.0669352511431862 -0.1970105203990433 0.28580741116400016 0.015386803818057107 0.006204420473525224 0.19227008775689453 -0.016023317103473374 0.1359324704649631 0.1916232752108637 -0.3914122793976697 0.13985410034642112 0.5309994090475292 -0.2744614192595157 -0.07290722571357164 0.2455798199164672 0.0489796046758216 0.1436966732933386 0.11486389309235956 0.13074964806933737 -0.037702478815198386 0.06355824098537807 0.1415931192188652 0.030310195330910554 0.01880334035951022 -0.01876756746902254 0.02814783115963404 -0.0028778132034008447 0.008816468266860151 0.0008685816114227647 -0.033615234126388366 0.3190643341786318 0.4856135447819243 -0.2736872010056592 -0.5678350579039397 0.1263615067759303 -0.20707381480350345 -0.06898495014390622 0.3939436833323274 -0.11858135511385928 0.10031046219504816 -0.04149396913761035 -0.1085104968424925 -0.04278913159846283 -0.018902067314216706 0.01974153242215282 0.06844218453886315 -0.06484079104900663 -0.22189771386231702 -0.06913616107664823 -0.26236880621666225 -0.026379064227788702 -0.7153410576360809 -0.0306337715582709 -0.10051968122744856 -0.20587398507851903 -0.03187093754685416 0.04617402132408793 -0.5089935184353908 0.031492719987300105 0.0826298963627504 0.0893794317170031 -0.09321851574336491 -0.08650020601619797 0.04999149719352478 -0.06314645863281851 0.060425997741013975 -0.05696863109928511 0.09252901974101822 0.06606806882895444 0.17221407359152374 -0.08678276760760437 0.0697201253423557 0.15903894192596538 0.3919671192495053 -0.5513509795863708 0.267314045233659 -0.04829081342509671 -0.5856208199683249 0.015522689917832325 0.026533407424698036 -0.0017518874435737011 -0.012559944187597344 -0.0015525656334170932 -0.0055091411333552005 -0.0005732551779939033 -0.0025870285693445597 0.005680150866770934 -0.004396239216595102 -0.00805064049516997 -0.006259104507170697 -0.0032839713534284984 0.012743588107193945 0.022018014327914257 0.0025218193741403864 0.03742464016978466 0.019851375913526936 -0.08688826163049612 -0.9943290469211647
C0007561 0.22064034270640537 -0.23643664910470724 0.22874028462528137 -0.17416301878272178 0.10799439054637247 0.41229203644875834 0.21789268442391058 0.39993952166438157 0.03228658002110978 -0.00893510594520559 0.04127575073175156 -0.334114796308464 0.011808206560804268 0.2778453647579227 -0.12034285878181863 -0.1529429759319998 0.011544351680586436 -0.13385544440549033 0.41583413592547924 0.055187479078469576 -0.20044488499454335 0.23126506377572723 -0.022710300024951946 0.005048094984732987 0.05085126882268059 -0.20192240321478505 -0.2284566958374631 0.03781985843398251 0.07314102926087122 -0.13419774460946207 0.029882486660220538 -0.09653394578739564 0.21076736022392414 0.2867629404894256 -0.24093559352211874 -0.39429408100780605 -0.1744233417580929 -0.10508370311593515 -0.5670888052916412 0.26835779885654515 -0.1693760351409112 0.0725959845724473 0.12169095940338089 -0.18905437624618052 -0.004457866070774783 -0.09012665028651815 0.257429004126977 -0.10317162778056373 -0.0832496795015994 -0.09914832997154198 -0.1716722594061933 -0.19342376241923734 0.06989958952440942 -0.3287904122092611 0.05080371059937697 -0.2640887303832899 -0.02788825200400815 -0.18133733451155506 -0.6215121397263941 -0.3762157223593418 0.05623058884562977 -0.10344604351128395 0.08386659509789386 -0.002135927539160691 -0.08545159731310774 -0.06983784972041979 -0.06251047267206669 0.03188986118191761 -0.11190707545864693 -0.004910630213393079 0.033962255413714615 0.1519760667692658 -0.06295878266919086 0.03551493767163774 0.010679587734194447 0.2266598391571003 -0.48823743944429643 0.03930774045343056 -0.5972292404774235 -0.521421193972096 0.11851105857243747 0.024561552426021704 0.004709193892990358 0.018151720009840156 -0.06584857134289152 0.05437097694724611 -0.009546446520097163 -0.02892230428765535 -0.036192909654590266 -0.06209011728883557 0.12728570340292578 0.13335505101107206 -0.1398955906427804 -0.03541241310432569 0.09324249329975352 -0.0790585910203192 -0.10501830625457313 -0.08217740439889853 0.13543270210662212 -0.9304497679574396
